x1,x2,x3,x4,x5,x6
-5.8741971768956835,-10.040288656465599,-7.853117854745199,-7.820213042845462,-6.166602673348657,-5.701589463614539
-9.871620299161373,-20.1592529050162,-12.016899760045792,-13.341337366868,-9.433820596585363,-10.087816758279095
-2.0316013004577824,-3.1909757006008825,-1.715948279759146,-5.193171081668259,-2.927322719185867,-3.394340712491163
-0.13246160127028073,1.7793657941558725,-1.1924697568294789,-0.4945450078568464,-2.7582353620150943,-0.42280997896446965
-8.114681066179772,-5.237871680231966,-9.127440186758491,-7.506186965115145,-9.734533186537641,-9.289554990843344
-7.109510954999363,-6.881884715766088,-6.137375421550197,-5.6079635029506,-4.979405008285335,-5.639526555792032
-12.853306833288137,-12.216896350974746,-12.453411188035737,-8.957728691132989,-9.853680700098227,-9.51576604183091
-1.9738589167662013,-0.8680487087264794,-4.799124706318299,-2.4399253399084913,-4.302372406026028,-3.239905806118757
0.6361185424929258,0.8278917361556538,0.5285508212727519,-0.03830176628917357,0.827656620466728,0.5191156985827744
-3.6321512559041675,-5.3009236593062194,-3.738349939834149,-4.100168501795464,-3.4112468022817413,-3.299710452419297
-7.439110484301222,-4.4411417189324744,-5.365912516078733,-5.032137736493603,-5.19795680587533,-5.725658404795012
-12.269386471278423,-5.844595272383916,-9.644570534216275,-6.807671576561494,-8.876839545470819,-8.41384041589983
-5.117989931062199,-1.9438672823577632,-2.407476674193922,-2.6003192471873255,-3.1508706947043708,-3.3275825533756622
0.10671888648140825,-0.8734158593656085,-0.33833264858823026,-0.7738198384310038,0.5214383683297984,0.02154819426907228
-3.916199612674632,-9.661611185420453,-3.8829492760419475,-6.513824705029944,-3.0424066517608677,-4.219019138971258
-5.722644623469305,-3.795365528103087,-4.816993144387376,-4.946645704616694,-5.929445643430849,-10.778681310444377
-7.017346936240704,-4.454082136190708,-7.466717309575149,-5.426333037431671,-7.840655595371976,-11.36675551904534
4.978233392190477,17.661092132559478,-1.1847813715005038,5.441746982151445,2.054090736784472,2.075398663346821
-9.47601893312798,-16.04166950876292,-7.500741108451269,-11.358973465354628,-8.498493798903638,-10.225773816462667
-14.564890067976036,-14.628169228217967,-13.495183668458797,-14.465405604736171,-14.166372316199162,-14.844150004402866
-3.170817621608788,-4.373915236503349,-3.7956532506999023,-3.303163352767668,-3.6722734356656273,-4.740882098630724
-3.1691077393265816,-3.7162945567808996,-4.449108999566285,-3.429980953598112,-4.429160427228987,-3.99277978220492
12.19827668570291,20.438595457274822,24.453899151297794,12.155740579439072,10.36261112722381,11.63073190315371
-17.17923743894403,-17.613578503184517,-18.010940314274457,-16.853902935239372,-16.03211721403857,-15.043548174724002
-11.179429668093574,-11.15148814664383,-15.747538067292835,-11.242270767275121,-11.881439324011126,-11.109778850919065
-2.481656150952757,-8.54293016633427,-2.773146677489625,-3.9227236566924772,-3.925063079812169,-2.083257434025606
-2.489229506930855,-8.001492875359673,-3.135302642843176,-4.111211091469709,-3.5503626119660856,-2.537976320793538
4.132785587616664,2.7111811096220295,14.913567291487022,5.101629454792663,4.918089248892027,4.70178182937024
-13.722873971335183,-8.639030531234907,-13.641646212062748,-12.170333451951475,-16.155465403190284,-13.568577884821893
-13.865360236111778,-17.000787020851977,-14.274886850813846,-13.078937863071747,-12.00819719151318,-14.17337835324947
-3.082846080639966,-5.503687392968856,-3.358730739022931,-3.598017280813405,-3.392352301425737,-3.1273563365623835
-3.8513813613973205,-11.282311087605148,-3.584307710459272,-5.068207703667192,-3.63460745389816,-3.7917252965961343
0.47461675936695896,-1.9238569277946986,3.7947429928584593,0.5044987926017219,1.2457365756440248,0.778985333531771
-4.2446045157970795,-0.8860736841445286,-9.417754943889962,-7.487855152379445,-10.515544641066299,-4.540333022680274
-10.820161668318697,-8.305845267391513,-11.632034663700741,-11.157106309050974,-11.255376006912767,-10.998790126223268
-2.0,-2.0,-2.0,-2.0,-2.0,-2.0
-2.0,-2.0,-2.0,-2.0,-2.0,-2.0
0.0,0.0,0.0,0.0,0.0,0.0
0.0,0.0,0.0,0.0,0.0,0.0
-2.0,-2.0,-2.0,-2.0,-2.0,-2.0
-8.377289763049873,-8.920473741000112,-7.352063465071422,-8.7657361557941,-8.12862818656259,-7.576270536226829
-13.309295083482963,-20.623536013217358,-13.649056018210546,-16.493092904595485,-14.984386630480152,-13.53754201814396
-4.793914345390528,-6.051414908201804,-1.9063623604749362,-5.84495233554231,-4.22965348194518,-5.942775126776541
0.3827342678074916,2.1889273938228953,-0.9334187331346432,-0.30276691832832325,-2.6669368342287147,-0.41570528673773594
-8.023561504348065,-5.1707263142988635,-9.015693189684741,-7.72690338085065,-10.017159504363796,-9.511864190780994
-8.671043379654494,-7.600335964966773,-5.366097134970339,-7.456918586536613,-7.012967538509898,-8.026092163563648
-15.167679762204441,-13.67028003064059,-12.688692111328939,-13.199234599339855,-13.123726077703125,-14.562291431821517
-4.608029949089404,-1.5920043459137572,-1.9658049077817303,-3.4914260257919567,-0.9824916807028448,-4.43857789204744
0.4367818052055725,0.5982513030044987,0.2778829324828967,-0.29143391084451503,1.1070091903640789,0.6807652780986357
-4.499093614009186,-6.849270335953592,-4.5741931848960675,-5.3141011218765035,-4.041349607233692,-4.080395263887153
-6.082940077960947,-5.182312219975333,-6.569822727413526,-5.011099946855426,-5.985357873827436,-7.276782211552252
-8.65843937892714,-7.85859922443484,-11.172385513500485,-6.761245976976169,-10.067698641114678,-10.774296631340151
-2.4873268596816076,-3.2835475135709085,-2.1473485600788185,-1.9377030883580972,-1.2985901013949401,-3.6419954199088918
0.04279329195615562,-1.3736698044418716,-0.4763053008759576,-0.9951233868590055,0.6822075661256609,0.06747577883634528
-3.990600440782556,-9.718392889614666,-3.724584159629768,-6.499113003088233,-2.998797625337246,-4.204312539283528
-5.806486001617197,-4.147505141026862,-6.229235520151729,-4.407665873921592,-5.737393693924446,-10.721919254790858
-6.70526176351561,-4.457789506484735,-9.089122818616525,-5.098827177448119,-8.725066792504116,-11.013358558224972
6.9219299087934,17.139468023376512,2.7940525462981465,7.153767831123754,3.6050883118815316,4.921746629868932
-8.287046316307855,-16.98371290990896,-8.625411778875762,-9.231185541367264,-8.293198698164712,-7.889594934308796
-13.331789554899565,-12.650911544324067,-11.464532528921477,-13.026378378086868,-12.92769303018319,-13.019877840280575
-3.265167787196176,-3.8960096333198697,-4.276182999869012,-3.567709039642561,-4.527974593254641,-7.106048270246751
-3.465096545611708,-3.477231232672366,-5.1907120712671935,-3.8878950184984444,-5.469735146778163,-6.097784133312242
18.65360776633086,26.676339484461725,31.945553189870292,19.383312337515072,16.754022027872118,17.46821608720591
-23.344551921618354,-23.928828786241922,-29.44649267679976,-24.561758485644617,-23.027535288317218,-22.89928428602234
-13.638602431435075,-13.65729371561847,-12.871758829683055,-14.129351403688919,-12.73287065679195,-13.737032320482646
-3.3613317352666017,-7.102282534892606,-3.0063624066219297,-3.0586598245576644,-2.8737530178697965,-2.0913839523017277
-3.4356211668861807,-7.498710112464316,-2.874965474713724,-3.7273899646730135,-3.2969668213693843,-2.216776302220614
5.058692933597904,3.495649645238067,15.385374805637978,7.515324402355973,6.761826282743557,5.591241885478528
-14.380732122695237,-8.035647950739664,-10.509688277106642,-13.149645207332874,-16.20757413969524,-13.773479264530712
-14.831290248239172,-16.363252152490436,-13.355789853640056,-14.567613639967716,-12.369163855588976,-13.344256882393152
-5.873794902055164,-8.132252188846502,-4.3034342130685035,-5.180425122257527,-5.214100447481498,-3.3624998506100834
-6.215558311319509,-16.398630986967582,-4.159646192470091,-8.44106337939254,-6.930316874441126,-4.478612975897284
1.2581960266853742,-2.6259115211951314,6.98951986540881,1.179046595995138,0.9977118694136048,1.8917307878558043
-5.99420030354745,-1.1810187161038772,-10.304683565145009,-10.392465241151445,-14.721447801341881,-6.6200413666251885
-16.330218774779308,-11.67614569188212,-16.204449521030774,-15.604331279597677,-16.6741666711379,-15.710933378534271
-2.0,-2.0,-2.0,-2.0,-2.0,-2.0
-2.0,-2.0,-2.0,-2.0,-2.0,-2.0
0.0,0.0,0.0,0.0,0.0,0.0
0.0,0.0,0.0,0.0,0.0,0.0
-2.0,-2.0,-2.0,-2.0,-2.0,-2.0
-10.620403752087421,-8.124413239169572,-6.333626358151892,-8.734678425334264,-7.843238038502488,-8.079064619760008
-13.452811154789977,-14.969353934437574,-8.633750441874207,-12.119842370470666,-10.45813283379426,-11.019071953392421
-2.4263520284587514,-2.9420094819648237,-1.2385562379628532,-2.1075856015863663,0.14304950976169978,-2.556500873492536
0.5467534688758475,1.1676781240785619,-1.0881081874861438,-0.5595280156997762,-2.2381590981860033,-0.3272830990902565
-7.911761983593134,-5.088404843538574,-8.815399065053136,-7.345444992409839,-10.227896084191212,-9.417647526227471
-9.115173019616087,-5.455033236326118,-5.099343408877189,-6.6308942717078985,-5.514508806044164,-7.889493039035525
-12.180899696201367,-8.26565779947438,-8.455079354662244,-8.44248729048199,-8.111436444511178,-10.636256326477787
-3.4226182752095973,-1.0445544657024124,-1.9711205221879473,-0.42681283100971423,-1.3850019588826126,-2.690732951499129
-0.04850313077130888,0.09775048031355768,-0.4030025578774015,-1.1146028202183442,0.1477466818677077,-0.05612223962438366
-4.366032090381618,-6.634781549549381,-4.4955582386951205,-5.100496280768764,-4.086877472391081,-4.142501641677665
-5.643558747915201,-4.143446092448314,-4.763815165462006,-4.520748035501047,-5.435679484989652,-8.72362691299114
-6.174062480082594,-4.661699375350906,-6.168676473686071,-4.274965928476771,-6.943181329909257,-9.532388065440854
-1.3121190981936715,-0.5992725546474025,-1.1984025269126966,-0.02806144832544651,-0.4751254067815067,-1.6266416074948176
-0.12186188312017655,-0.6193262302903018,-0.32696734746201184,-1.2609398367661795,0.26285989178306557,-0.14686196953078506
-4.0436672222031085,-9.86990393185653,-3.655267974469212,-6.532127689603423,-2.9909156464067226,-4.10996489046923
-4.622782989672155,-4.0637549176002485,-5.209825640213373,-5.976406547966637,-6.763052678065714,-15.263419668060385
-4.095349765536438,-3.733997527958355,-5.595280412656066,-5.410213655585574,-8.003799082514858,-15.636001828838397
5.876977248602694,13.257139039374861,6.398944626160742,5.105624900430589,3.116976946734109,4.7771116654293655
-8.757609768167326,-13.071004285264824,-7.078052384973041,-8.881690123263636,-8.199936665746048,-8.018950139435049
-14.184101560238846,-15.222962599556926,-13.083119587000585,-14.423868449514547,-14.137945059397929,-14.590860385295711
-3.2200293772573465,-5.331102876268881,-4.932818255218093,-5.521858285175921,-5.6106121481487,-11.47140198675293
-2.644611750242455,-5.3883620693484495,-4.867495381578257,-5.302625900894072,-6.355512281276961,-11.198205057654398
13.503615337446409,18.801901502878955,27.614585562677647,14.165542926749152,11.99630851567331,13.717554125240612
-18.868713005133223,-17.23404827425249,-8.730373083440925,-19.068168755600553,-20.61555798370278,-17.756184723012332
-14.206990475617705,-12.675967372025413,-12.395191183158857,-16.002445282507054,-13.80594719811863,-15.53439454567793
-5.6979909658420445,-8.75542722969413,-3.5628265142821944,-4.870234070653721,-3.224293416596029,-2.5485662984866253
-5.461873850276618,-10.09295287638245,-3.2609315864652437,-5.232028887549662,-3.0993810339889993,-2.266077881730036
2.712398567662662,2.4404281064339632,12.812510488969885,3.7855350291507377,4.854058289558938,3.7015143559736594
-13.132634930966347,-7.720257217892767,-10.025947607565032,-11.699416102510074,-14.420125032966244,-12.98488858904599
-17.207433562347006,-17.92964296758287,-18.674546657351613,-16.712179342310876,-14.816293512306498,-15.651113200148508
-7.828702528444857,-9.990245246600402,-4.534597359531379,-7.4768995087608605,-6.585858839389957,-4.89120690967059
-8.020577581605925,-16.34596704507789,-4.065909177258271,-9.322659482411648,-6.810672615425654,-4.83490184758035
0.7971935741328812,-1.9248628752686752,4.821178513909999,-0.8555820568515103,0.69552121901359,1.410353934185135
-5.189168196714112,-1.34479292620853,-9.084027274809639,-9.322923068577426,-13.354509213704722,-5.969619320535344
-17.081428937032502,-12.170766714751235,-17.73744020158821,-16.8752389839232,-18.774929119355004,-16.682574315941473
-2.0,-2.0,-2.0,-2.0,-2.0,-2.0
-2.0,-2.0,-2.0,-2.0,-2.0,-2.0
0.0,0.0,0.0,0.0,0.0,0.0
0.0,0.0,0.0,0.0,0.0,0.0
-2.0,-2.0,-2.0,-2.0,-2.0,-2.0
-6.793373663345264,-8.367458735209482,-5.706134101667376,-7.051867620564853,-6.384057644115476,-5.983613932442748
-8.942647681283143,-14.302095479863901,-8.171430328770157,-9.27695988389305,-7.214834464609667,-7.764834693211577
-1.2539259854098548,-2.266082527134728,-0.9994397795358205,-2.4041232885388606,-0.45413443292369926,-1.0187990018656872
-0.020357084306749557,0.9275230574720689,-1.435185519878029,-0.6304329599753027,-2.275846966406431,-0.40980588028963494
-8.105331203168035,-5.093542487295506,-8.85466879563549,-7.182273814677451,-9.91247543694324,-9.213413818285712
-9.953329992403958,-6.28500124415301,-7.1559089129743985,-6.050504942822127,-6.299965985342241,-6.0238892134247255
-13.273618538608337,-10.268053108427734,-11.838871869863159,-7.738535349441509,-9.956060248564336,-8.688702314438572
-2.545008058556865,-0.8332626102389233,-2.4651192421432984,-2.201212065666053,-4.035567185818039,-1.702842249545696
0.1768674267410433,0.36882493180021486,-0.21871962949006538,-1.2660964863067188,0.12074318283957759,-0.23468239984132494
-4.346093446587809,-6.587027414602484,-4.469413042744139,-4.9810931508762994,-4.082451415550863,-4.051701958677416
-6.929722512287742,-3.882849485900039,-4.6636001390016855,-4.141408872786755,-4.346865361859657,-5.909946929121725
-9.249290511242922,-4.453952234475367,-5.639757459091301,-4.856942663364711,-5.705257477816258,-6.411411241868556
-2.590478061249232,-0.0317269907684893,-0.604003133123871,-0.6839868047671541,-1.3806190949112185,-0.9713925133041337
-0.12275956132344154,-0.29280700286444344,-0.31587597622354296,-1.1013377756470488,0.08448671051948764,-0.2094459866923883
-4.021520353986638,-9.795909117407236,-3.788472019946894,-6.2878409048251855,-3.0450309558176527,-4.176177778930022
-5.340847811665187,-3.5312314915628478,-4.55885454213376,-6.0211404507032125,-6.406251686798054,-15.080917616864921
-5.3391117447885845,-3.5522240750607654,-5.7048337030768534,-6.223565035483206,-7.604098984826407,-17.59890659033476
4.151304140100598,13.729321141092028,2.0039644987984437,3.600136246255337,0.8907249852634812,1.1024567738146056
-9.298677107847558,-14.08186305624275,-10.467832740761292,-11.730726346468346,-8.263684514313539,-11.046152572425642
-15.208436961535533,-16.553683499883558,-14.74699703834387,-15.630879228265393,-15.176783467221753,-16.334026921603364
-4.095980982108601,-6.134590195514792,-4.588314882322041,-6.3385627500743995,-6.359749217312946,-11.204878067748576
-3.3919933045002493,-7.318358916745696,-6.373257033277519,-6.290137031697063,-7.1948963853774455,-12.27584075912528
11.805141976174092,19.577678340394122,23.26592963583314,11.530827292845911,7.99054270110197,9.47557559019681
-19.653416948741,-21.555391696098866,-10.744863052695942,-19.556866860934363,-21.921756879440913,-19.675619792510773
-16.2753048033222,-14.802745558276207,-22.19058867650238,-18.21115345484368,-18.216283659021798,-18.28780743679117
-4.25144659306169,-8.125235342532841,-2.7923622974596243,-4.658649711144473,-3.563093936612872,-2.39661942279502
-3.8804540609268687,-9.530588500753359,-3.105082727207266,-5.275297684109839,-3.2698302838634374,-2.364032159829791
1.7234532515537015,1.4059495315440402,11.138363628946067,2.1832558019636257,2.7584372003399458,2.4133514288456053
-13.501279583760274,-8.34311793808353,-15.024469869251842,-10.521166711673304,-15.04818541999238,-12.475525570811651
-16.294833344687532,-18.34908875038251,-19.53821968408879,-15.09027673324755,-14.369462804769032,-16.080223168756195
-5.168221398718374,-10.278156720613282,-3.6234302401849168,-6.387671270580619,-4.567689088215843,-4.156863393243145
-5.241439942332633,-14.825039342003,-3.5833657335383147,-7.752775890175485,-3.947785065222421,-4.002886254290833
0.1364687296404547,-3.2419727615943357,3.5632992395622485,-1.5430202351456983,0.8741305863071307,0.22944727754602728
-5.957179648822813,-1.4195769951114119,-12.63862210589472,-9.186182095086721,-13.895914836707494,-5.757518501463364
-16.437431746732344,-11.982927717298717,-18.26828365726281,-17.03498349645326,-18.523393572430336,-16.65888234644383
-2.0,-2.0,-2.0,-2.0,-2.0,-2.0
-2.0,-2.0,-2.0,-2.0,-2.0,-2.0
0.0,0.0,0.0,0.0,0.0,0.0
0.0,0.0,0.0,0.0,0.0,0.0
-2.0,-2.0,-2.0,-2.0,-2.0,-2.0
-2.0,-2.0,-2.0,-2.0,-2.0,-2.0
-2.0,-2.0,-2.0,-2.0,-2.0,-2.0
0.0,0.0,0.0,0.0,0.0,0.0
0.0,0.0,0.0,0.0,0.0,0.0
-2.0,-2.0,-2.0,-2.0,-2.0,-2.0
-6.224967812905126,-4.840941941552168,-5.326548812489735,-4.751526332244692,-3.994107376010689,-3.9630327396796514
-8.782069781630902,-7.2376429601047905,-8.573735347802536,-5.6834601987798905,-6.141723949395943,-5.713164185134874
-1.8671963258346351,-0.5072993412795848,-2.7354297850592197,-1.6940449699129057,-2.7328808324500042,-1.150352076658749
0.1655382710785278,0.2152506865766407,0.15950756832734478,-0.3113334426005951,0.2325078460872504,0.023028699749040475
-2.778743551541104,-3.5648271642333644,-2.828034655949915,-2.9460598641153153,-2.6814411109216314,-2.6722772388029004
-2.0,-2.0,-2.0,-2.0,-2.0,-2.0
-2.0,-2.0,-2.0,-2.0,-2.0,-2.0
0.0,0.0,0.0,0.0,0.0,0.0
0.0,0.0,0.0,0.0,0.0,0.0
-2.0,-2.0,-2.0,-2.0,-2.0,-2.0
-2.0,-2.0,-2.0,-2.0,-2.0,-2.0
-2.0,-2.0,-2.0,-2.0,-2.0,-2.0
0.0,0.0,0.0,0.0,0.0,0.0
0.0,0.0,0.0,0.0,0.0,0.0
-2.0,-2.0,-2.0,-2.0,-2.0,-2.0
-3.5230447252629844,-4.507697009187772,-3.354641366043551,-4.555154664899911,-4.296506273265735,-4.921265683326211
-3.2978187963336474,-4.719722023096101,-4.360603384995454,-4.453604077580631,-4.058012977433355,-5.247829296048603
5.08149539247063,9.033587954326023,10.655963091115847,4.465975037256808,3.9276654880298554,4.605318608871988
-6.537468519603434,-5.7979776204257965,0.8005609009174505,-6.697077264555752,-6.9427924986868685,-5.806459635825371
-7.198571660019156,-7.1291693952800435,-10.929730593069685,-7.514191627056155,-8.043137802567472,-7.664456670229041
-2.0,-2.0,-2.0,-2.0,-2.0,-2.0
-2.0,-2.0,-2.0,-2.0,-2.0,-2.0
0.0,0.0,0.0,0.0,0.0,0.0
0.0,0.0,0.0,0.0,0.0,0.0
-2.0,-2.0,-2.0,-2.0,-2.0,-2.0
-2.7210018545475365,-6.861552183009064,-2.6429277466336387,-3.7111576991698434,-2.9050472974114614,-2.3783051294939788
-2.634344295688959,-9.556111216471614,-2.779544210887258,-3.790902564973358,-2.5767730309990915,-2.3584641776231434
0.23843836724336184,-1.5262674725038998,1.4537904651820377,-0.5201285352877061,0.35887650209976624,0.11349608900543887
-2.1455711528303407,-0.5788061804831665,-5.17729205966113,-3.4366485221703016,-5.043207895884674,-1.9959626451339103
-6.5619668229925345,-5.36879063211507,-7.334219647387795,-6.802032687965061,-7.00983041312317,-6.713605718999194
-2.0,-2.0,-2.0,-2.0,-2.0,-2.0
-2.0,-2.0,-2.0,-2.0,-2.0,-2.0
0.0,0.0,0.0,0.0,0.0,0.0
0.0,0.0,0.0,0.0,0.0,0.0
-2.0,-2.0,-2.0,-2.0,-2.0,-2.0
-7.6911748371668125,-10.411202506227529,-8.254707033254245,-9.321171322961668,-8.592526941912894,-10.928408065533441
-10.88481375305154,-16.903628799034752,-10.519625202755687,-11.368042673776836,-11.107081728235825,-13.494767995839426
-2.3494374725895653,-4.868574514127799,-1.8398966872997513,-2.5385035372265095,-2.598242141228434,-2.510313572540177
-0.15072979806701994,1.0517157666647885,-0.932060544116042,-0.16855340241441996,-4.86155760349752,-0.5372223377955115
-8.185385711892524,-6.035519722011253,-8.686910270688443,-6.924370108898308,-11.641591313575693,-9.12770125829149
-9.419369644687762,-6.599290159983739,-6.895892013135178,-6.302423328086034,-5.8587505419263755,-8.484648125335195
-14.341835816017987,-10.365238273945385,-11.319631764022533,-10.06007638776181,-9.914545721342982,-14.859363671845742
-2.8997838012609396,-2.3151803317237243,-1.1868789972764464,-4.5965319778027585,-3.3588027904943276,-5.734833089514771
0.84818291364415,0.9136041139892567,0.5978347649600565,0.33893375267115433,0.5602854444008318,0.4526212610354818
-2.985481380767048,-4.480975016929836,-2.984329051990247,-2.652680528491664,-3.5069454024532147,-2.985210259169799
-8.06478491253986,-4.338725889511523,-7.114410421601193,-6.426841358240884,-5.551836427991822,-8.355965524107248
-13.431219006163793,-5.739489745661378,-10.987994902847529,-8.17955063942542,-8.624284749029416,-13.89782200787248
-3.687229255595943,-0.9667228793958574,-1.617815640318194,-2.144662616408459,-1.0234980950535102,-5.001848468617084
0.6118249680865516,-0.18874078711856715,0.40271649827986594,0.24887009772770863,0.42478722653088336,0.29498853412054615
-2.7097002527066953,-6.6654364792958125,-3.2393078307867476,-3.0985094258838233,-2.603768895771101,-4.348971431737941
-9.182226588732323,-5.492366417395025,-7.618297332494973,-9.095808986262572,-9.207689020653406,-17.250168993371396
-10.021901837358707,-5.935735130796659,-8.39694895324285,-8.716992738330031,-11.831884853872893,-18.39592302970766
1.3988003279720542,10.748270508427742,2.0028670278735445,2.9562146060776473,-0.7864294064746825,-0.2777799151349044
-10.214391727605443,-14.096099487679645,-8.602703377974848,-11.391905474107872,-10.99352321911752,-12.418625104273438
-13.802000428179495,-15.449489744318035,-13.273583913083863,-14.859830767732985,-14.570085137378264,-14.022322280445177
-4.548663874226968,-4.250134567691128,-5.344482290492925,-5.624183271983551,-4.999971997031812,-8.290385050038903
-3.8180434913649908,-4.287429408819649,-4.577163946654799,-4.379847956804218,-4.638918512193699,-7.077951149133725
4.325340830716417,12.746386635908607,20.4719483916312,7.2635874046857465,3.869476388604274,6.678989409590454
-16.549137219666054,-14.877913151067151,-16.26627662982164,-16.617333872266617,-18.630200696796933,-15.932710034467753
-10.816368532681464,-10.915196777732758,-12.146391745907437,-10.905967569974367,-11.732143814388788,-10.753461497893014
-4.472910893801174,-8.783103891018925,-5.005580406349478,-6.854809888556939,-4.419376070803748,-3.577279247660611
-3.977180894965593,-7.162119620343476,-4.508157869680076,-6.985443821558321,-3.083742086937316,-2.9743155475048897
3.0418935575059924,4.843956017287986,12.385021378565055,2.915029473962397,3.6582206632220755,4.1301135582347355
-11.227749661913368,-10.002276373477946,-16.478982745732196,-15.22851495678013,-14.325661764425151,-16.738014693203187
-14.176685657455542,-15.650816223972813,-14.502334772033642,-12.627292567922952,-12.746006012626339,-12.591841363010836
-4.194442763347255,-8.55025986454878,-4.9313419726579335,-5.690938758658826,-4.177077814586765,-5.202668220282223
-3.7716561181038317,-9.112983881759122,-4.282476398955949,-5.328083492383623,-3.315481226105017,-3.9658388657511017
1.611032588627037,1.7948455750653987,4.091447063873303,1.9755290751548917,1.8650736369889165,1.7474052193793803
-3.2898325124767624,-2.704441792097628,-10.03814056031193,-8.4343886813618,-12.048443005226465,-8.115728300175762
-11.460312255080593,-9.900202520021532,-12.408648608823878,-11.458898686782943,-12.052792551722405,-12.240879483037487
-2.0,-2.0,-2.0,-2.0,-2.0,-2.0
-2.0,-2.0,-2.0,-2.0,-2.0,-2.0
0.0,0.0,0.0,0.0,0.0,0.0
0.0,0.0,0.0,0.0,0.0,0.0
-2.0,-2.0,-2.0,-2.0,-2.0,-2.0
-9.907309309036187,-9.111549922916844,-9.367401946318212,-9.548884407337594,-9.335095040664369,-9.590327976770515
-15.131710433570923,-17.963201299962684,-12.978147014333349,-14.035603370659906,-14.490688642113497,-13.687089089391495
-4.4382521946875455,-5.699419935966599,-2.179043302417658,-1.8582930046294235,-3.7746387454326493,-3.913788585826365
-0.2076419342589284,1.7122199006751535,-0.3104618390797345,0.9289999922963815,-3.7499095316400317,-0.5595507182347359
-8.445079042972372,-5.891998240550137,-8.590777741080048,-7.124056008774372,-11.58884846975603,-9.027700757188379
-10.46160648825647,-6.775859663560823,-9.470365474058624,-7.707061839384506,-8.717183353773764,-9.241075602573757
-17.387842710469712,-12.123297479425776,-16.44826018658448,-13.806379742318363,-14.915695865097803,-17.50526327965136
-3.122144244030572,-4.25339441081822,-0.011350248643866741,-5.952098019020502,-4.259719106191418,-8.16075101678486
0.8564754988822963,0.668969616078932,0.7151666396884723,1.096527871211043,0.591287696003479,0.7390039075257947
-3.4590069592923514,-5.674564107851153,-3.5185305653337897,-2.993455733764529,-4.261040926113794,-3.4965091738068783
-9.19521912637635,-5.251088882550203,-7.1481170456198235,-5.759859431912856,-6.222979651825234,-8.099647049258405
-11.983635984293413,-6.69171518247724,-11.39183537991735,-8.33628683743605,-8.815703874431959,-12.401605032314075
-2.450304821100022,-1.7320001997288963,-1.5955349996532031,-1.0519088599934745,-1.948461690078722,-4.145388231727719
0.43217410609188683,-0.5752361414738957,0.5851241840314585,0.6995785065532548,0.28093501029414175,0.6007269092398765
-2.681029942457794,-6.710815237484305,-3.2388846280071606,-3.0935146656088857,-2.617801451016453,-4.464964137726117
-7.925187903496546,-4.851834257212802,-6.754863719095054,-5.445669486123962,-8.700030324087965,-10.917769455518327
-8.260458650179478,-5.386855672252089,-9.905673047102649,-6.316561891640511,-10.787904203757778,-12.213435943205864
3.9733746852689236,13.715150520147303,5.34412309018996,4.880976426898432,1.1234621394498765,4.491244785422764
-9.449449434235929,-13.514249133466013,-11.418117214571739,-8.891435680556453,-9.745398012637388,-11.623040662519642
-12.579013092597224,-14.26958566559922,-12.732134705379458,-13.079169519173277,-13.2859108587826,-13.342330351774077
-4.200535461869929,-3.892044200183205,-5.393047174137722,-4.995917477099319,-6.0343731075902465,-7.646329735139176
-3.280081748730382,-4.065912541951698,-5.364428386260642,-4.577407210326842,-6.570743536780823,-6.099614266447472
9.108638965246378,19.372058912393275,29.235993746391618,13.23070988712621,7.318841365023586,13.863165139521247
-22.93968726072384,-21.371361615176227,-28.719236626685305,-23.22340026687972,-24.67083096569037,-22.309706257791728
-13.591286141067842,-13.35068606520609,-12.268169969232682,-12.074914994591204,-14.09652347032367,-13.83466414713353
-6.0001995707009215,-6.676448845758535,-4.160155530670683,-4.460455226650927,-3.0241785055595893,-3.6220603568703464
-5.666272741514999,-7.553495124299048,-3.7207171675720563,-4.180594469429906,-2.6612157256518385,-2.9619324568571597
3.5659807105437356,4.457522995451614,14.739026533761319,6.80208435438078,4.1074827943830305,7.310362748296701
-11.886583082740287,-10.960354752962909,-13.533568220228299,-15.410941495490285,-15.152611887486033,-14.054652203315266
-13.973690641267757,-15.024704915044861,-13.025892888209258,-12.565223178974188,-12.783404064376084,-13.146337023373942
-10.352690816476093,-9.355148369819554,-5.824953715209152,-7.620874067860256,-4.8711630150786105,-6.9706950392067615
-11.730449788628752,-14.499397661945546,-5.546516151809557,-8.416323207907272,-5.041607838937252,-5.989913682229977
1.2268600427739915,2.064398394415152,5.65749185247352,5.146614671801927,2.8172574760677116,4.099745777842653
-4.542931763272602,-2.785313068223062,-13.60113522924841,-11.458843320445947,-16.513548875785027,-11.875358108675474
-16.482487296819126,-13.750663076997254,-17.239467403448742,-16.703904009572852,-17.553175782212836,-16.968547496152397
-2.0,-2.0,-2.0,-2.0,-2.0,-2.0
-2.0,-2.0,-2.0,-2.0,-2.0,-2.0
0.0,0.0,0.0,0.0,0.0,0.0
0.0,0.0,0.0,0.0,0.0,0.0
-2.0,-2.0,-2.0,-2.0,-2.0,-2.0
-11.45406344586016,-10.077788504570078,-8.716032632733949,-10.048387433452074,-10.180958288758529,-9.51502714056934
-14.129592933028492,-14.68622744428688,-10.984147612733185,-12.399834001227479,-12.405910771381972,-11.099380041951452
-3.550903637882688,-3.0319689248100947,-1.1678038308312002,-0.9670973759786594,-0.35474816041233265,-1.2183175468965621
-0.33833308206114554,1.267785016032653,-0.07585231006498316,0.5025254530499931,-3.9228342831212437,-0.8602256583043388
-8.616852989222421,-5.877639933304675,-8.557401647149174,-7.18343106381128,-11.679601672283836,-9.129709009725198
-7.742833101405463,-8.531034706612468,-7.3069209050760175,-7.775914739402715,-6.997557675799811,-8.275090168334957
-9.664467614909912,-11.597492948251443,-11.116301554707292,-9.607775978584955,-11.240254358267256,-12.630085805541402
-1.3243436720031674,-0.9000741860783993,-1.5156618494885068,-1.4115815165919532,-1.9919517705168763,-3.1639746317970574
0.21386310282043774,0.18244512769388646,0.10728287372939135,0.6879599458686321,-0.23368919691773465,0.34299110269399014
-3.453959283703683,-5.595813527263543,-3.3682917144802147,-3.00257572423088,-4.154949280411759,-3.429159473755284
-9.371487784527458,-6.905720630119864,-5.62466755093357,-5.397358426294091,-5.278600378409105,-7.9918548006003665
-9.09964628113066,-7.635882012636041,-7.595339105351203,-5.727329519233595,-7.828041538953656,-10.238206510042227
-0.9614117828190639,-0.0003773188291253918,-0.3064788916370978,0.20908417327285825,-1.238069365567305,-0.6571842073991867
0.16375784941205007,-0.059056203645429566,0.5485357750922104,0.4742691791379734,0.1453385967502771,0.6511509274594105
-2.718309357476053,-6.822456025893024,-3.2149666693030587,-3.1268452990466282,-2.5391228402943105,-4.353474939047394
-8.562688006296172,-6.300497084790359,-7.602706886220809,-6.046188569916277,-10.114793438038397,-15.638278599010615
-7.827066262472089,-6.500400195419257,-10.119868324586696,-6.5598216723793294,-13.978248730592872,-20.73287792052167
2.3125982625740598,10.603513336858569,4.657612142966663,3.6886882458125845,-0.13418418222283754,1.6793390397080163
-8.417402425554695,-14.805428711844863,-9.877295648499294,-7.620105181713934,-9.326392288576958,-9.788900075594423
-13.655818910345776,-15.094602159920303,-13.89478953552157,-14.022073859088323,-14.651126674956082,-14.90607021239337
-3.5492454100014394,-4.744080674559449,-6.250986304504644,-5.356333359520486,-8.042473325852905,-12.877291391558028
-2.4787391341104166,-4.422851340976598,-6.427532372106305,-5.368235537210636,-9.54358377204896,-13.920592479095307
6.319911737375487,12.95858390789419,22.112861648127137,9.920905982536844,3.770294847701218,7.669953807469292
-20.52371805847041,-20.942374894355694,-18.901969883591892,-22.165039053747247,-19.91871299353417,-20.383294793836008
-15.02547306251178,-12.505705325731789,-13.707118192815651,-13.153914850259165,-13.776264852360566,-15.753608446709807
-8.52702112169756,-9.865979848802805,-4.848644123748699,-5.96692074784045,-3.835961811780523,-3.5334126601617246
-9.120983016257172,-13.616819289045473,-4.857312431041823,-7.6285343052288415,-3.4121280778377314,-2.7958582105820984
2.090619984107868,2.1163033088660193,11.74304400727126,4.649543630748938,2.790752670531663,5.1481706498537205
-10.704796033780164,-8.079185701959805,-11.805184611148938,-13.164177854180155,-15.123763472183402,-14.199414625563692
-14.822293823767321,-15.345669646642753,-15.648150918413432,-15.488076273151504,-14.163606391233971,-14.57425184445427
-12.78270558504672,-12.154677053460372,-7.0768774130132055,-10.012102797724724,-7.383600609722426,-6.492231944355886
-15.732112732299312,-18.913687789563706,-7.498450737766679,-12.501393237778581,-7.087337918992011,-6.925165417052914
-0.46639790651318713,-2.898224165014504,3.870529564101934,0.8709774412885362,2.9605292133168013,2.726249928153509
-3.809772355741753,-1.4665685777438753,-11.517014000381492,-9.962906757631266,-14.504103077865606,-9.49702782691716
-17.670602963818048,-14.405046905546184,-18.49092692350835,-18.20535839842649,-18.901827463828525,-17.734838138729685
-2.0,-2.0,-2.0,-2.0,-2.0,-2.0
-2.0,-2.0,-2.0,-2.0,-2.0,-2.0
0.0,0.0,0.0,0.0,0.0,0.0
0.0,0.0,0.0,0.0,0.0,0.0
-2.0,-2.0,-2.0,-2.0,-2.0,-2.0
-8.213171794059612,-10.175195060560613,-6.6374797002791155,-8.433534714135066,-8.187043825728543,-7.887071278188959
-9.625745657642907,-14.332523036326206,-8.260573964458167,-9.319599298088622,-8.139052821598238,-8.236212146994317
-1.7837827977076695,-2.2013314033339637,-0.6046895494663457,-0.7992703093553043,0.3502019548292117,-0.3888112042780067
-0.3649377144408229,0.8284954653477088,-1.0228935299928832,-0.21759573851225664,-4.769074438178782,-0.6670628492935169
-8.34501700384528,-5.875979212548852,-8.632825297652323,-7.006727331122685,-11.68416054374076,-9.131006732332617
-8.532798926836513,-9.087261456962882,-7.457930917082878,-9.478445619180304,-7.454097345618357,-9.677994827790764
-11.726139708370754,-11.413833792941276,-10.1212404910961,-11.191841023334279,-10.132332879123952,-12.174715394761522
-2.7666598107180653,-0.6364764624906668,-0.6105368065581638,-2.381040100259704,-2.079778426925806,-2.471741665353427
0.3009745046358879,0.6521490350775654,0.09221223891487382,0.34055013698223563,-0.4252040365393593,0.17021228869616856
-3.424780557339777,-5.491974242924172,-3.3703371711031256,-3.0014135754923172,-4.184373140266233,-3.3662529349011847
-7.129108948610684,-5.051827023986161,-5.1551049070192985,-5.653921420483764,-5.182375290436283,-7.470059769538424
-9.139796749658668,-5.388460063510598,-5.472530770771441,-6.159938527003206,-7.389570930848758,-10.333833600800842
-2.1154587542272836,0.8121864571702494,0.09899113563323683,-0.26839943205709127,-1.2651673579338225,-2.2642826703236945
0.24457153453417627,0.01735735696451286,0.37282664339026683,0.19475442118566672,0.24726472536005398,0.3154912692557833
-2.6777939690739885,-6.76031974386147,-3.271410159166473,-3.068188339442489,-2.5625078512273323,-4.328083206783948
-8.29743935750102,-6.545440988086499,-7.069044532780219,-8.952842860428591,-9.687560269156455,-16.924454101601317
-8.757558500979654,-6.50671915754905,-8.606016151203688,-9.4345991100617,-15.589930190464957,-23.74264190326609
0.49614464181035955,7.430790323320508,3.181648843234507,1.7838154146411986,-2.897268715147112,-2.2950617525265606
-9.102096423481987,-15.633738475443218,-8.628602091294663,-9.93891487660036,-10.174093344944872,-10.629477825700565
-14.603953910589716,-15.683137619946692,-13.712846045120278,-15.42823041038467,-15.563526303664066,-15.448450687976349
-5.281428907254062,-7.048708297659127,-6.683841935968111,-8.596256340604297,-8.077415698372379,-14.027647623033229
-5.114174272569269,-6.920646298365319,-7.951516515200397,-9.138158791708172,-10.612016644182997,-15.95722468775913
3.615818271264617,11.918078466390376,19.495887384932782,6.1094755356636234,0.3906583825310716,1.490153655557329
-21.976055569741533,-20.997912761414327,-16.753483030386196,-22.698079042505725,-22.073860132688072,-22.77471400976185
-16.780424932922312,-14.627185306690922,-17.906686545672652,-16.375507197941534,-15.698990126205153,-16.76617248610966
-6.997957198033674,-10.792896896667967,-5.370029985340602,-6.806175740659685,-4.460568186368137,-3.467595527072803
-6.554694948126194,-12.427347132895102,-6.115148020657001,-9.24762392791478,-3.6519547351446735,-2.869495690645357
2.471997039446107,3.354791254215008,8.763136856856951,1.592024676700666,2.148391263310485,2.0447959190901557
-9.913336918465088,-7.581918858422388,-15.209558412088917,-13.278746917776882,-14.95480532108003,-15.814819596350457
-14.641102679080399,-16.289402194019555,-16.904978616669386,-14.95817702842458,-13.897931925228143,-13.291929383243414
-8.66209240114995,-13.162618842430582,-7.035211176702781,-8.768447064250134,-7.766980771548886,-5.987303025469537
-8.695729810980021,-17.316984085958453,-8.021098523298857,-10.928370572746779,-6.207269446871149,-6.729360303331202
1.9850425239094374,-0.6881511518045894,3.026068532488193,0.6411326219756843,2.399147796080018,1.3826248459453887
-3.8204799662692266,-2.172108975421989,-13.38342287341766,-10.009732868987875,-15.672776339397712,-8.647323974049977
-17.297316290908253,-14.650598637601576,-19.25865588985522,-17.499792371914904,-18.803861094371193,-17.752828401838638
-2.0,-2.0,-2.0,-2.0,-2.0,-2.0
-2.0,-2.0,-2.0,-2.0,-2.0,-2.0
0.0,0.0,0.0,0.0,0.0,0.0
0.0,0.0,0.0,0.0,0.0,0.0
-2.0,-2.0,-2.0,-2.0,-2.0,-2.0
-2.0,-2.0,-2.0,-2.0,-2.0,-2.0
-2.0,-2.0,-2.0,-2.0,-2.0,-2.0
0.0,0.0,0.0,0.0,0.0,0.0
0.0,0.0,0.0,0.0,0.0,0.0
-2.0,-2.0,-2.0,-2.0,-2.0,-2.0
-6.711876302273992,-5.6609030580084045,-5.3573187937766305,-7.085524532203547,-5.067470770488122,-8.125595706616624
-8.456748914859919,-7.264471702235542,-7.13898027361683,-7.932176646471448,-6.301332917996189,-9.681380413967078
-1.8717027840266565,-1.4927857122785397,-0.4998777033322343,-1.4952481760000982,-1.2412229624274562,-2.6345881869473047
0.2553101158757513,0.39546448192218253,0.1743152908936772,0.19389655283747653,-0.02235979946749362,0.04010365892709382
-2.4683743183782756,-3.199607574579289,-2.4341231234244196,-2.318754113740536,-2.722567098254903,-2.462247845007844
-2.0,-2.0,-2.0,-2.0,-2.0,-2.0
-2.0,-2.0,-2.0,-2.0,-2.0,-2.0
0.0,0.0,0.0,0.0,0.0,0.0
0.0,0.0,0.0,0.0,0.0,0.0
-2.0,-2.0,-2.0,-2.0,-2.0,-2.0
-2.0,-2.0,-2.0,-2.0,-2.0,-2.0
-2.0,-2.0,-2.0,-2.0,-2.0,-2.0
0.0,0.0,0.0,0.0,0.0,0.0
0.0,0.0,0.0,0.0,0.0,0.0
-2.0,-2.0,-2.0,-2.0,-2.0,-2.0
-4.337894555228035,-4.389505135764827,-4.407825792729961,-6.02712808531076,-4.6468078452807715,-7.7986427772737
-4.369989954881196,-4.132341986689325,-4.462953835052818,-6.238510798188658,-4.802759648361508,-7.185924450946455
1.0332905727633377,5.351364604934101,7.5478781977537555,2.065127510922726,0.7018274078546243,0.8411474890787258
-7.378432042079869,-6.182463313851699,-4.590067715123267,-7.8720624861453805,-8.63698167734057,-7.800538322306738
-6.927797276126538,-6.9449882631420286,-8.071781396377697,-7.351705119873892,-7.471447013145269,-6.926329537757561
-2.0,-2.0,-2.0,-2.0,-2.0,-2.0
-2.0,-2.0,-2.0,-2.0,-2.0,-2.0
0.0,0.0,0.0,0.0,0.0,0.0
0.0,0.0,0.0,0.0,0.0,0.0
-2.0,-2.0,-2.0,-2.0,-2.0,-2.0
-3.8672408129072626,-7.754938289987462,-5.319273499338813,-5.628589392516753,-5.343927357954509,-4.674038731905725
-3.3217035233685897,-8.977883065616677,-4.517622789719494,-5.566539430935854,-3.845275090448588,-4.21007824494777
0.8614049826946152,-0.44914573791974327,1.6241362649815503,0.3987845519816487,0.7426435046083466,0.4820055387646135
-1.3759901492297646,-1.0823783430000598,-4.78953273807971,-3.7956099723143772,-5.720241623953265,-3.4574954840344634
-6.9444767558609115,-6.131623772913098,-7.6789065623127195,-6.972745307442842,-7.381995265754285,-7.345264249125971
-2.0,-2.0,-2.0,-2.0,-2.0,-2.0
-2.0,-2.0,-2.0,-2.0,-2.0,-2.0
0.0,0.0,0.0,0.0,0.0,0.0
0.0,0.0,0.0,0.0,0.0,0.0
-2.0,-2.0,-2.0,-2.0,-2.0,-2.0
-9.991233425987131,-9.42323370170665,-9.841616407479812,-10.305191451353583,-6.502063573189685,-8.456911714003047
-11.026172023508707,-12.211466529986,-14.022104027995013,-19.625063955835767,-12.865988160863969,-12.934893863168648
0.9364347332024547,-1.9320102312455736,-2.7381227285501164,-5.81534224257971,0.2626416565598134,-3.7824352392473
3.428142399086009,11.337177313265814,2.1546429948864274,3.8259250818608375,1.2964409656910465,1.6516092805113387
-13.25732572124059,-10.26691862285507,-15.22401291502429,-15.328958369041032,-14.63358716330062,-14.883795565339
-12.465758750332824,-7.8812164103645985,-14.039781169585831,-10.727232253469175,-9.021214344416826,-4.937807522260582
-11.637630959068693,-11.187752975694812,-15.587572515500543,-11.166712298915344,-14.754044783884526,-16.62108501754853
-4.931948367596421,-1.5949367346264183,-1.9836092052798573,-0.9295093394543852,-0.5532742262536621,-2.303885140631891
3.498805377413411,3.0801420874549486,3.378923362881046,3.3341143398999162,5.061116820131455,4.018688550941377
-4.4521895671394525,-8.786001357498822,-4.6281260861243805,-4.830955533421186,-4.986950644125454,-3.925580664332497
-9.354698838950112,-13.084206017885638,-12.800405980025989,-8.405788499549292,-7.096496417759996,-9.174979122104485
-10.961240340301059,-13.449642117524954,-18.40740497926636,-13.922715844278791,-16.875526307610226,-12.861698763256173
-3.817729214613947,-1.9440322342069711,-1.8185828161429085,-0.4964437990309204,-4.591580339066588,-3.016913650127068
1.8374586044934127,0.9441678031588661,2.1772457888436367,1.272361393049297,2.9226555798427207,2.599841270849595
-9.510000932018029,-14.687765507144071,-6.402899758408114,-9.704926245027915,-7.3627314347360615,-9.38099645819392
-13.709323238450922,-7.843967756061766,-11.732958148571669,-11.857814045175553,-7.619017827060963,-7.450155456878651
-9.963901230836711,-13.12320754621984,-11.796374380235045,-14.699637097245503,-14.086264185599122,-8.252824824913906
-0.9486002032699534,-0.49623838278834326,-0.9914152216393745,-0.2049609814949393,-1.9048782766532515,-2.3070635992913315
-1.3960750127720223,-1.577325204161198,0.03215983493805827,-3.493178420884651,-2.538334655661947,-1.7730355619473577
-12.56771946089183,-10.68625624574731,-9.9186804887643,-13.371453655621597,-12.689815413081186,-12.43239745448672
-12.360070274653248,-8.454677063321823,-12.042264663514212,-7.787216115594426,-6.7950685470710255,-6.677721140589763
-6.286586272306557,-9.891478410003348,-7.111269274615387,-6.6518179731488924,-9.39991410235532,-4.919455602023857
3.162793970026441,0.5155600793823604,5.15631988472687,0.6071610288062685,1.2097257165706334,0.034865711110656734
-6.861202537458775,-4.095167111239039,-7.993260718863688,-3.0706335053229576,-4.460235380696607,-9.582738911235698
-7.008855204414498,-6.650559904784127,1.7220910343028124,-5.908242143790085,-9.804607640842766,-4.976641212826606
-11.452376525629473,-10.078321440654712,-9.978257508484488,-7.416825029073045,-10.640493020428586,-8.82298852081489
-8.039788038237734,-11.531636870821975,-9.86688993627396,-6.613822193383993,-7.379361553964192,-2.8947865121277316
0.034875561997249734,-1.6388292022393538,1.7910254871268347,0.4089575277527248,3.275978419694766,1.3259118941143975
-5.486798825709864,-4.170335329431759,-3.740491843021444,-6.566751835551039,-12.151455025292849,-11.594545368747724
-10.558765597532275,-13.091050309644165,-7.567299138854213,-10.323192143494365,-11.986252238482903,-11.506910799533955
-11.180727673068683,-9.31550154701153,-8.730760573213733,-9.900752893936415,-7.444545722329746,-9.87157381309783
-11.727486615278957,-11.096609569423109,-11.241647396113898,-12.517405951607145,-9.04763993359026,-3.148287258835101
0.7248270618397101,-2.6339791325628132,-0.5265325493560423,-2.9175268993349524,0.356167751868682,-2.0524865884306065
-1.9796829631020563,2.545432098283914,-3.78404099812421,-3.1617109917373822,-7.549037555218183,-4.580349787992237
-9.718342482896038,-11.288416402821044,-9.268612877829437,-10.054509344645727,-9.309527049980755,-9.408432317587907
-2.0,-2.0,-2.0,-2.0,-2.0,-2.0
-2.0,-2.0,-2.0,-2.0,-2.0,-2.0
0.0,0.0,0.0,0.0,0.0,0.0
0.0,0.0,0.0,0.0,0.0,0.0
-2.0,-2.0,-2.0,-2.0,-2.0,-2.0
-12.975371980472008,-10.443772502098573,-13.174872954878895,-12.378682381879093,-9.240342678598138,-12.785899095286476
-9.623072675726066,-14.14411162644787,-11.489204115395419,-17.09050308188177,-9.005299644751487,-9.389893250106542
-3.997008485419427,-6.03951464705761,-4.551261555946059,-3.2519800415984945,-2.594914263292841,-5.041666519826593
7.901402671675627,16.090760340962305,5.090187967750774,7.4194585216038265,4.958488876784644,4.983116449846927
-13.12592483726777,-10.01205412855444,-15.191256653462942,-15.447996298446174,-14.72619916463481,-15.26562613691918
-13.422918004439337,-16.56092037105156,-13.284294047552354,-14.081054817278394,-13.357513463715222,-8.400884591340237
-10.611563789110395,-11.504970784019646,-12.636072447879915,-9.30993978254862,-12.461998277706352,-9.44940334996365
-2.3044787307537384,-4.753087120375973,-3.6468629190837225,-2.8376110794993825,-3.411526146668645,-3.45242068564224
4.780887117945844,4.304451332795825,3.1305618652313103,5.36646706928629,6.623624444055132,6.3060090209136455
-5.744736612708894,-12.212901523639212,-5.909836568865752,-6.311879103837184,-6.296784996271162,-4.980036046576239
-13.42191226780223,-10.419134826263484,-14.078139227620118,-12.528789968264705,-13.459167566388222,-10.118178072994127
-13.177021832388299,-12.158786916914242,-8.074333597604308,-8.802372808821191,-9.495221383654279,-9.824773994229863
-1.348160753769985,-0.8583146479465827,-0.5619388369065228,-1.0098124666106076,-2.072149724374837,-0.14240490752295046
0.23505559034934628,-1.0317453308536413,1.3179207001719155,1.2273835238253337,3.514861028860458,4.0863716621881325
-9.955973383424693,-14.754317305302076,-6.018771284546748,-9.562645061473466,-7.022928925948712,-9.399628526147575
-10.771987851116238,-15.474675958106923,-15.05091100701097,-11.790465170723234,-13.058529910066051,-12.831129944522676
-6.892267640185451,-7.979679628167723,-9.157862083813546,-11.038579715176231,-12.408762029179117,-5.36693032966686
-1.3918245874457522,-0.7618781548454836,-1.8194958202804965,-1.1720655980602934,-1.6747189604526005,-1.8903056194497423
0.13379861379186184,-0.6773583815421176,2.5474647504052834,0.5368098691258346,2.188721333801827,3.1462271570312317
-13.00745737311777,-11.25175954807184,-8.467866366473409,-12.485588614686598,-12.820792744149303,-11.506776109773748
-11.04203538883637,-10.881102506859438,-12.406595162356979,-16.031417480882244,-13.021706312932142,-14.47416357722969
-0.9244275602852216,-4.067401783608556,-8.372857582301853,-5.51789877869175,-11.182135592770694,-12.888746344789292
8.394972971215788,8.736884903806574,11.136223606783691,5.195163826383522,2.9143934031919883,5.856547633298388
-4.465525947168075,-7.270049431697653,-1.6659861306900952,-2.522711879460077,-3.99560741485412,-6.5097903357878195
-12.721028094120884,-12.402742628711522,7.173581271149531,-11.070511831189034,-12.078476324187042,-9.361793763399074
-8.492243080471845,-12.907357990399394,-11.645755097978963,-12.158454693134903,-10.618604538349922,-12.308184902549447
-11.7655737247108,-8.575478506630217,-7.145993410377624,-8.716358162929511,-4.901303876691128,-4.957560106848939
-2.037963513197587,-0.2915432129002641,1.6360759175542763,1.3402729553587607,5.176322160846689,3.56593208176818
-4.621333527893146,-2.6989627628974877,-4.672003822182892,-3.2727174853076604,-6.558174880256706,-3.92223463617777
-12.064777477611553,-12.112842738361977,-7.3276481885093245,-13.553846669691712,-12.893921106202214,-11.873174200053455
-14.111667843876992,-12.731009598481878,-15.929767665281712,-11.744669316661575,-14.621379081300022,-11.069461810587532
-12.91436782757244,-11.486420724436451,-13.558076518548145,-8.686367779741555,-10.90437966536184,-9.4471592147618
-0.9016500927499873,-4.023644250865407,-0.20903058920718273,-2.3874902777407954,1.4742930885462184,-0.5671785833417576
0.4875316549745162,7.072064547194932,-2.504545562916071,-1.0214036330031242,-4.884498911888738,-3.2948923117465445
-15.016415081266851,-16.328610116266404,-13.421726107266734,-14.635515834877774,-13.466570506486198,-14.700786556368664
-2.0,-2.0,-2.0,-2.0,-2.0,-2.0
-2.0,-2.0,-2.0,-2.0,-2.0,-2.0
0.0,0.0,0.0,0.0,0.0,0.0
0.0,0.0,0.0,0.0,0.0,0.0
-2.0,-2.0,-2.0,-2.0,-2.0,-2.0
-10.81445740551481,-8.372959114722187,-10.694099295017265,-11.651741294745547,-10.379388923059475,-12.665856499271861
-11.224178554752369,-13.672369173856522,-12.126873477683143,-11.364160990976046,-14.402631765104797,-13.037205280663919
-6.197621363747428,-7.931355397030806,-4.767576984072779,-6.030564381379461,-2.6886587612593402,-4.9288187135925625
4.731478532934988,17.430387304728296,1.9466631417734017,3.2528761223505356,-0.15784580272783605,2.2745335982932686
-13.017556518004579,-10.009400063507435,-14.979304745362628,-15.169323990894418,-15.291447150488628,-15.239523575467986
-12.192612112058379,-11.745749654363728,-9.335122812591832,-13.071691063010787,-11.101493296665291,-11.115833212478625
-13.54049143440783,-12.764312076023627,-10.829219640765565,-12.241556407451938,-15.297585668008429,-14.068065228999966
-5.744588043428468,-2.355969820704764,-3.89657244499528,-5.452146977047115,-5.970329031981788,-2.434437146744132
1.6162582031127355,3.9091624796078768,1.5714448479997871,1.4778693865324803,2.972375892020062,2.2908814723959137
-5.685500164851285,-12.227663971874904,-5.770200083700032,-6.059437790065142,-6.298953165635917,-5.116767558172189
-10.961356025225511,-10.375814237229507,-12.97883549339688,-11.575980137647337,-11.996594881159492,-13.499302649340594
-12.969887713884177,-12.478908064601397,-14.009825183049283,-9.930480394484157,-11.472270588279606,-9.820744722390076
-5.7795251904549625,-3.3981429790335875,-5.722745173423092,-3.64942713411184,-1.9508199778367428,-6.351975691284638
-0.5327045647106404,-0.6071808595515803,0.013480717792677592,-0.8260513569577077,1.6447224080812686,1.670064521550446
-9.876593936471478,-16.060933287658035,-5.79982859125796,-9.422782425439852,-6.82585286435113,-9.2128912042595
-12.571736748435027,-13.187665693387292,-14.078396548872002,-14.56033595367803,-12.755614728402348,-5.770034925784727
-9.134626301673583,-8.038463496991445,-15.6501302034732,-12.16066745771899,-12.440705878380994,-10.979690316632187
-3.0779786204416024,0.7935225396020216,-1.230407902820463,-4.739807236106441,-5.000729014831308,-3.497194438340657
-0.17395699278728632,-2.5172923678840284,-3.1824737205746696,1.1804758449547026,2.967071775436913,-0.4465458755183088
-15.580194883174139,-16.367673291337194,-16.843362323243532,-14.677655797907569,-14.618182130461168,-14.921766673901425
-8.127499472403859,-7.33948802832073,-7.944280852553034,-11.052797525282136,-11.267411684842529,-12.407376752055944
-2.3831040721541394,-1.4807484980310714,0.856325378391047,1.6333158008520547,-6.951545573617398,-2.9528335759530777
-0.7588797953884514,0.12855427827271004,3.476748939803624,0.9627161845170529,1.1992656714367966,0.22015601301059812
-5.1718477282424615,-7.820161914733756,-1.674305364445447,-6.0425503145346,-5.839206557898317,-1.621168498214608
-20.220281361685025,-19.91065783901658,-29.955581048704158,-20.667556759717034,-17.442352573373803,-21.568573088553023
-14.32102105882778,-14.310501247615829,-11.761698556489547,-9.386396675108099,-10.911672171825597,-7.66346693609859
-10.37011577296211,-9.663799454716344,-10.067736094691401,-6.681974822146524,-6.806399215543297,-3.7636126381117503
-3.4144457799212975,-3.3537411731958637,-3.9182553839059526,-3.94011279256834,3.1000915211083657,0.35957164642394035
-6.7183542802599305,-4.258582430835719,-4.639125696215929,-2.8400011757001553,-2.8560289068021256,-3.0264357396899824
-15.648338177626862,-14.252211679053953,-19.231332267573023,-16.543974676522843,-14.934727840456569,-16.622647478119106
-9.889893957687343,-13.21696501852647,-10.748971220689722,-14.387739369180698,-14.842811115490168,-12.27686034691735
-12.60553181086388,-12.461550360050355,-13.685999123200238,-15.481187021010463,-11.322042389651196,-10.729160528326503
-3.233790991619488,-4.0438893141492365,-0.4716035765265706,-4.8554749242999025,-0.8153792538558372,-3.358656130856287
0.23630461349695006,8.245648373346087,-4.667616674906964,-2.7234385750021834,-6.263818162759486,-5.15463450949007
-16.855333064622286,-17.040876815712817,-15.766059092882516,-16.197209949961657,-15.4352677991846,-16.832805339305413
-2.0,-2.0,-2.0,-2.0,-2.0,-2.0
-2.0,-2.0,-2.0,-2.0,-2.0,-2.0
0.0,0.0,0.0,0.0,0.0,0.0
0.0,0.0,0.0,0.0,0.0,0.0
-2.0,-2.0,-2.0,-2.0,-2.0,-2.0
-12.138869420735787,-6.48148823525027,-12.279592639780718,-11.253241758173886,-13.654073220850055,-11.117906390239199
-15.568489607733692,-12.86272893735523,-16.86795902279893,-12.65452538232939,-13.498280701839374,-12.692833623951728
-4.190842800431767,-4.815612226143876,-4.75402734857407,-4.523525197845324,-4.945626910542986,-2.8249049965411164
2.393622896715377,13.60380840861338,0.12465079626984388,2.005817388236756,-2.843926775098418,-0.45496416819046126
-13.385210675186498,-10.08815608418773,-14.765230827072134,-15.10090834626687,-15.252283775184562,-15.048991424089765
-10.776664996369195,-11.831010230452149,-11.379015952513836,-11.156444378937502,-12.84061720018924,-12.132262928770974
-14.178569035316302,-13.863012377745434,-17.21684712260289,-15.785671261625271,-16.735560599335244,-11.925946539738874
-8.70037145920999,-3.7839457439710436,-1.6873646677516032,-9.112831452557224,-5.242756784290782,-9.393336472123481
2.5804631037954087,4.050446904928756,1.8234576508251275,0.6133313532508892,1.7801082197534175,0.5396584567318701
-5.663471372779753,-12.093373219142133,-5.792213863730795,-5.987081621115968,-6.5099102276753005,-5.047280800961163
-13.34526699987061,-11.034154745392957,-11.746106648282323,-11.969141079594985,-8.486906504545516,-10.253436818003319
-14.287992145197801,-13.415054550631439,-14.476422864992212,-14.596991052995362,-14.104218541642213,-12.255174818990566
-4.919783400689887,-3.759357116690768,-3.831061288922688,-4.616771936995773,-5.222691082730582,-1.1585710641546556
0.18506882387682952,1.1168864246000745,0.3849984313217887,0.018038502487456805,1.8522780225862145,1.0057639208723153
-9.632918288759114,-15.688561366140865,-6.166347772346225,-9.240513132568339,-7.304931018105052,-9.352057997066755
-11.13589633044768,-10.319713431209355,-10.091458662418587,-12.413563794188546,-10.787810070438587,-12.3462387659189
-11.881563655529327,-7.498110264611211,-10.729641503185439,-10.56453229340463,-14.45953968417477,-13.7350233674801
-0.8781561466809431,2.9830218497749272,-5.720643438390917,-1.80468350099195,-7.307938425352891,-4.058185462192325
-1.2435204171726684,-6.785175731411573,-8.127994150942024,-3.4666831698830998,1.4325220428433594,-2.9369428361863954
-14.280720251035456,-15.80986516239814,-18.02393541706911,-15.14570589027139,-14.12017565242038,-15.714831145652356
-10.486495995556467,-7.713481924166332,-6.736393105787491,-7.914776686382119,-7.468973537624978,-5.364172058944948
-3.6228211865619357,-4.473585089528034,0.322127716046702,-1.863396222505376,-5.184988524719036,-0.7807727387133523
0.4122405408920678,0.5708025730944312,1.4167146666659904,2.0433110643716006,-0.8256038312255504,0.026128863548217186
-7.645671818533001,-8.59352713572182,-12.09925414150546,-7.2979498921066845,-9.022385952242505,-11.523145974821409
-15.66985976897652,-17.5128696253824,-36.04749294666182,-16.04066750813811,-16.699537565560885,-18.297627438605815
-13.341805992135498,-9.885103403338757,-10.742903573991914,-10.111955694889838,-7.928556562135684,-5.579867083181706
-13.666305704214771,-12.72147678547892,-9.919942460943455,-7.809195587636081,-0.8595514127430218,-3.1476612433706275
-1.792170635107677,-1.880185764991709,0.2943522198611756,-0.1597937700786204,0.814921072094246,-1.8647896122701801
-10.08562164045429,-2.6656203174718662,-7.976350316841488,-6.977119616544597,-7.19070865379763,-9.12759194291247
-13.83962827617862,-14.835350892236272,-21.47846351139562,-13.32508306484397,-14.090885663726828,-15.577898437174305
-12.314816453473885,-7.493330515790331,-11.791782423432199,-12.263615099681665,-12.952172746588237,-9.522583265147095
-13.966167160173049,-15.70731007292305,-9.610066660350148,-11.79780838784619,-7.5519998754944995,-7.64613658631715
-0.28466344682012773,-3.5391022516636363,-2.8663627959840623,0.4718290113515637,-2.750564959499344,-1.308166918307107
-2.5304430649867196,7.507447010916257,-5.972161828393755,-7.279421336817087,-11.391687831066031,-5.629241849815953
-15.725619644058241,-16.364561131539915,-15.22109812775727,-15.654483716111669,-15.300365244279662,-15.019843171033834
-2.0,-2.0,-2.0,-2.0,-2.0,-2.0
-2.0,-2.0,-2.0,-2.0,-2.0,-2.0
0.0,0.0,0.0,0.0,0.0,0.0
0.0,0.0,0.0,0.0,0.0,0.0
-2.0,-2.0,-2.0,-2.0,-2.0,-2.0
-2.0,-2.0,-2.0,-2.0,-2.0,-2.0
-2.0,-2.0,-2.0,-2.0,-2.0,-2.0
0.0,0.0,0.0,0.0,0.0,0.0
0.0,0.0,0.0,0.0,0.0,0.0
-2.0,-2.0,-2.0,-2.0,-2.0,-2.0
-10.394228345356469,-11.101354127629225,-8.170517874195324,-8.981650679655916,-7.055777054816216,-7.269185429958459
-13.093454217952392,-11.132878803963813,-10.03431779482526,-8.29180457852422,-9.947013471387308,-10.075254089073692
-4.232261215666286,-0.5286954967066335,-1.707168746299937,0.5777620421590739,-0.5929547756134564,-4.49353536912776
1.3449693312327111,1.4052973779782088,1.749974709988001,0.49759836304596744,1.2973655257929388,0.5723385121610602
-3.194076785656501,-5.4113822226816035,-3.2539702564094894,-3.280815242809926,-3.534723082665818,-3.001722534382869
-2.0,-2.0,-2.0,-2.0,-2.0,-2.0
-2.0,-2.0,-2.0,-2.0,-2.0,-2.0
0.0,0.0,0.0,0.0,0.0,0.0
0.0,0.0,0.0,0.0,0.0,0.0
-2.0,-2.0,-2.0,-2.0,-2.0,-2.0
-2.0,-2.0,-2.0,-2.0,-2.0,-2.0
-2.0,-2.0,-2.0,-2.0,-2.0,-2.0
0.0,0.0,0.0,0.0,0.0,0.0
0.0,0.0,0.0,0.0,0.0,0.0
-2.0,-2.0,-2.0,-2.0,-2.0,-2.0
-10.151871252894951,-11.147580198397538,-7.545833662483345,-7.956897828029405,-4.5045472287716475,-2.1701103937992356
-9.241865393391455,-11.370964481170756,-8.831715422107733,-7.449375497181539,-6.823105884213159,-4.601176818984369
0.721565438501421,0.47293171134527245,0.5302793855260294,3.0345973512284985,3.604117218302046,3.4621537048377564
-3.152238342968998,0.4170711961228322,-1.223096915363595,-2.773623390982807,-3.5043752945467244,-2.0164335766112624
-5.682859775926036,-5.886251153683697,-7.4387540380011945,-4.924753866584352,-7.111776517255889,-5.167763309390286
-2.0,-2.0,-2.0,-2.0,-2.0,-2.0
-2.0,-2.0,-2.0,-2.0,-2.0,-2.0
0.0,0.0,0.0,0.0,0.0,0.0
0.0,0.0,0.0,0.0,0.0,0.0
-2.0,-2.0,-2.0,-2.0,-2.0,-2.0
-5.33909579139221,-12.287878419595074,-7.715703438257641,-8.83538764389298,-6.856235987705339,-4.717200050140225
-7.372446539863448,-15.038935854702258,-7.7938977698943965,-7.027546685639564,-3.872105813731018,-3.748376775212456
0.8315452353045396,-0.525288602103718,2.076251837434211,0.7323238400290638,-0.5620686378275638,0.06647116543187302
-1.296591619833693,1.2774322517912127,-1.898205175085163,-2.687949041341955,-4.134641058652974,-1.6685807740956107
-6.180775370476256,-6.964692446894306,-6.299322797007916,-6.2338226834516925,-6.0887090668645705,-5.8775790578489575
-2.0,-2.0,-2.0,-2.0,-2.0,-2.0
-2.0,-2.0,-2.0,-2.0,-2.0,-2.0
0.0,0.0,0.0,0.0,0.0,0.0
0.0,0.0,0.0,0.0,0.0,0.0
-2.0,-2.0,-2.0,-2.0,-2.0,-2.0
-11.401776647394394,-8.405869470934281,-10.644058513863484,-9.762677396462276,-7.38216928912997,-6.471094340942981
-11.240418151712323,-9.688367954431325,-17.801554877489774,-14.016860919037068,-11.078851762529291,-9.87935753829184
-1.52613675403981,-3.8773198741377928,-2.8795758529860658,-1.5090507444946841,-2.136496367181806,-3.3891583524657247
4.266226686018511,5.687763371467404,3.9590082987800335,4.520808144849405,2.183153260474167,2.603504100584701
-13.006580578449723,-7.724539153543535,-16.063504046118357,-13.64996499556474,-14.266371922274567,-14.096638899913785
-8.036281599978192,-11.034957495593146,-10.74058142769839,-9.692423044776408,-6.168548053388128,-6.59868834580551
-9.391429624824987,-12.316598986131476,-10.56160865786525,-12.998258804131614,-14.618597973629887,-12.861264380462964
-1.0962752085755225,-1.6696476413877246,-2.7824532842172265,-0.9503363944096922,-2.5303878192461093,-2.642670834797658
4.594891143990962,3.377445379168442,2.4995156136394234,3.8209852944327474,3.8226084070431066,4.216354670444514
-4.119481380467109,-7.233757230056339,-4.03204568505896,-3.47442611527989,-3.684149510065682,-3.5481967201139115
-9.83995072256065,-8.005596600436874,-12.30366876710128,-9.984700824331563,-8.180546700158276,-9.69189648696097
-10.829628950836138,-12.714534746259462,-17.368145161266483,-9.070580608149156,-15.315904164658912,-8.116035761171592
-2.9836944344542826,-0.3359506738053996,-0.4218935347504148,-3.1721654685182075,-4.531095588610075,-6.6866043300389935
3.863323392109545,0.20910529803463673,2.264903048730098,1.8798617259067685,2.8398536488244335,4.1374598198777415
-4.409249947600073,-15.934931675785338,-6.761102247536854,-6.568735028221124,-3.6349820103479753,-7.524109457058675
-10.237710835413328,-8.04246363544462,-10.075896740761797,-8.943000134184066,-9.337586549535638,-7.697786709767046
-12.156118587930282,-5.417823611408873,-7.831577953178247,-12.744715134119748,-16.462380972623283,-14.189744462300062
-4.339680509803155,0.15626424249392012,-5.653580723023079,-2.07858931455201,-0.3675371689947784,-3.4382411301748528
0.45031127279108196,-1.1983193166316488,1.6247933296472057,-3.3575023208038046,0.20387220991803925,0.1718129352683608
-13.017244986410896,-12.273602852216852,-11.962964772675038,-12.23331285779136,-13.38819349903792,-11.617006414926376
-13.79190619493392,-13.506235196224852,-7.85774245117276,-9.678742217738838,-8.084236456611265,-7.534410590309204
-5.8152751554667645,-8.571216606128399,-9.973706249657646,-6.254295118925455,-5.267742353642233,-4.855875866832017
2.6824093039373107,2.633356054454911,1.4298382708876722,2.885749096488954,-0.25017869794195213,0.9452264604612838
-8.548851205837671,-2.6271829579946115,-6.242750260684947,-8.051732547450067,-7.731739660947761,-6.180755571431391
-8.540490116052245,-8.907500437898241,-4.73464018770167,-6.018725436037537,-9.078308347641261,-7.048728659753627
-13.3346029973242,-9.660543151542129,-11.16607664340376,-11.748584237627789,-5.178126845940578,-5.180684462355138
-11.761429835841785,-14.974271792858712,-11.637382535209625,-16.094477916821596,-4.716510041324907,-1.9685018741977032
2.1420096232413908,1.926762118761446,4.264498696244393,2.218409472474983,6.198858377438133,3.1705218447607586
-7.225499707331333,-5.022741947579415,-7.548724563721552,-6.649700950976386,-4.587263033752736,-11.183811615322274
-12.711428398272627,-13.487678646334022,-10.504520366350635,-11.409015209589132,-12.5020194316653,-10.168159395110068
-9.8153433978366,-10.878726217385948,-11.205516087690075,-11.69109211040856,-8.312898951388297,-9.899784499018741
-9.510585522880678,-14.026429275214326,-10.297180786034492,-10.562621720242557,-5.23612026317563,-5.16469306335343
-1.0355248985248593,-0.8904617504129033,0.5237751696277829,-1.1201581734149157,0.9637917420581047,-1.826810296503295
-1.0675591700079952,-0.8536648861784232,-3.3511926964137815,-4.480882588102301,-7.123628695586875,-5.094863970824361
-10.40442494016786,-11.270065806871832,-8.688287203190665,-9.235853213304132,-9.460212666944006,-9.945979420294876
-2.0,-2.0,-2.0,-2.0,-2.0,-2.0
-2.0,-2.0,-2.0,-2.0,-2.0,-2.0
0.0,0.0,0.0,0.0,0.0,0.0
0.0,0.0,0.0,0.0,0.0,0.0
-2.0,-2.0,-2.0,-2.0,-2.0,-2.0
-12.087378002872274,-9.980967507912636,-9.95789545866128,-13.193789522428363,-12.349788251794392,-12.830222833398135
-12.946741758411726,-10.333233871929943,-7.853901389294423,-7.447422762490828,-11.793347162799648,-8.277680141077484
-3.4508577033780625,-5.575569383956868,-1.9086848376637913,-6.7111712749191845,-2.36670864251123,-2.9152063562675243
5.112880671623028,13.147911461667457,6.042404257928523,6.074973526724362,5.254380933515756,5.9087331329847945
-13.502943163538127,-7.573955689367776,-16.050069047671094,-14.048811016988994,-14.223867596403707,-14.052468917471062
-14.71986416248082,-12.039549817745886,-13.45732961630207,-12.366258505133745,-11.17609723595767,-6.678301175989846
-10.16949058314971,-11.390717953449538,-9.746127096360183,-11.241956589999202,-9.05402147913928,-13.014457799406394
-2.501525389493305,-2.9151142495603235,-5.138580251210216,-2.379231887011478,-2.749097231851591,-4.094186230775385
5.076923137799549,2.4125224593523167,4.792153352297396,7.740854245566547,7.105218993692798,7.908725279884236
-5.0904185037097145,-9.957961761784565,-5.056752640985375,-4.124283413872677,-4.478591990334415,-4.260327345500895
-12.415303502781795,-12.581965179861623,-9.938880178225428,-11.398520963248794,-11.593418555897403,-11.146731231525822
-10.192186744657292,-11.819735711807493,-9.686475043212562,-9.789031809073222,-9.967558060411745,-9.479850990236013
-1.669962106007087,-1.2970045628302305,0.6332375629176616,-1.3997811677630976,-1.9598668630592253,-0.382310276385007
2.0882752752540426,-0.7387450212223466,3.6487889414361847,3.216537020610177,3.5163679946921875,5.560910999264871
-4.310579475791755,-15.923674046986779,-6.91274303164433,-6.433506781946543,-3.6065835660217798,-7.648384189990347
-12.603250091502114,-14.990115112631015,-12.997894711313773,-12.221928032002925,-12.377888625894212,-9.663441187083926
-11.072154402295697,-5.370036618932424,-12.669120116972588,-7.998505400568245,-11.338759929066844,-10.59455882987689
1.0480579402871946,-1.9292053745681645,-4.086561573933079,-0.7542765740507468,-1.647234947805682,-0.8446201119255702
1.5664566944277094,-2.393443390524629,-0.29054750535121204,1.1998633634729736,1.9435960014852118,0.40384677224415777
-13.168651023697024,-13.366488910843021,-12.32134877396922,-12.674542469420127,-12.917976109839987,-12.83566384756512
-8.919804593072465,-11.346970953535426,-13.985179156552357,-14.051355580705524,-14.375147135021898,-13.81439225332652
-4.373607798401906,-4.16036774258036,-8.10568358394234,-7.473640748246385,-11.514327159630819,-8.305689424396881
5.818481810387539,5.62439033868579,7.1689441042828586,7.1467331210674265,3.1820676584748546,2.287205972234191
-5.251507472374873,-8.444833333278106,-3.6604710905831306,-3.0040544961229942,-5.170303468095246,-5.175880654971782
-15.80884018080504,-17.324274257573148,-7.662581299455483,-15.086411583072318,-13.270175440595203,-15.391508175039652
-14.053996159066097,-13.893540356455151,-15.35075780659344,-13.710198334551846,-12.793824296661638,-11.273852733785098
-8.974843307765509,-10.138996475251773,-10.475865776055867,-8.825525296113515,-9.347412608255322,-6.526178293988725
0.8149228516099734,-0.7321580661935274,2.9793714166882617,0.0635764213695844,9.98151800206477,4.260548215695376
0.214542484097775,-2.8923274076890997,-3.2042822559057704,-2.5626196916813755,-8.408657858655964,-2.55291703064343
-13.870134265734746,-13.973814719507832,-9.72918096290774,-13.474423691475476,-12.97250400993031,-15.589301197268776
-11.541662619260608,-11.475918725553106,-14.463467167229727,-12.915106993619908,-14.498493483036443,-12.550323374964018
-9.483998727350494,-7.919220659014272,-11.187661957102833,-12.31042995651244,-10.774760868847576,-10.680445587794148
-0.9161955956775417,-3.493925775125173,-1.7459357491015177,-2.7044422994360104,3.876824743735019,0.40457445775240963
1.4269223180695283,4.19660796702271,-1.2730342131324754,-1.5254951669898058,-6.332239441126226,-3.9432328943906985
-14.773297573748918,-16.5852182850613,-13.369640047391975,-14.669380531912365,-14.00602264076367,-15.321234154803854
-2.0,-2.0,-2.0,-2.0,-2.0,-2.0
-2.0,-2.0,-2.0,-2.0,-2.0,-2.0
0.0,0.0,0.0,0.0,0.0,0.0
0.0,0.0,0.0,0.0,0.0,0.0
-2.0,-2.0,-2.0,-2.0,-2.0,-2.0
-12.238464223760428,-6.988993679203637,-9.129638638424286,-9.207284658201075,-13.365267369344522,-12.995648257038138
-12.561719128568875,-12.14833731889165,-13.792912435368178,-14.857212426245693,-12.086649853342163,-13.032927859795551
-6.960707418186842,-7.587449105059942,-7.202756621642316,-5.55975016100273,-2.691086729975645,-4.121556597313874
4.163186671946019,17.669776973366456,5.961369117634246,6.051197319612065,4.535041758420814,3.3354537371202775
-13.883666844461485,-7.70328714609634,-16.19099969250697,-14.196480136438153,-14.46105007460942,-14.219902990503437
-10.905763550042865,-10.485212043815688,-10.881629056250357,-8.802288485237222,-11.235467839139435,-12.69485284028153
-11.116704940641805,-14.856974398870777,-12.016684545595457,-12.619686156373898,-18.171187640938243,-11.298826055537845
-5.0155112259341585,-2.9164150265819684,-5.967883670502169,-4.558656115842953,-4.191271881633605,-4.056617565237798
2.8782231345335534,3.7745374370457037,4.237545228356515,4.711305474092239,7.102883601163944,8.633585763222307
-5.12296996974203,-9.702134314972897,-4.7858056253087815,-3.8582896188617744,-4.3270496735072825,-4.192596640016431
-13.229277866376627,-11.761683501964898,-8.241908735132247,-10.747434552237452,-9.919233773078368,-9.834423318955196
-10.45024715709547,-16.02723662712409,-12.316726770567225,-13.17875167016092,-9.922129359051985,-10.344511758720113
-3.7410126806583603,-2.240668158502008,-5.084948870393435,-3.392647627613786,-4.4135206778142555,-3.551542714904312
1.2134777998057142,0.7037613838327715,3.6243335539970762,1.9290578541883552,5.075563500419933,8.775691868696683
-4.502129637648283,-16.41757620042852,-6.562530160883515,-6.1811807849779745,-3.3952398280656495,-7.62754865433161
-11.504829069087409,-11.733500148231482,-9.83354374145853,-15.42576298797799,-11.628701412634852,-12.590932444135955
-8.053336294704051,-8.977725155064476,-14.191146547793055,-13.52829570921792,-13.322090685707957,-11.687372049653835
-2.885029546587798,-0.09395531045410759,-2.723828401126126,-3.577909087843729,-6.190279458748396,-4.373646747627199
-0.2797690321125626,-2.3699209186773484,-1.0324088851145734,-1.7759499171778892,5.846368987542376,3.789511311994699
-14.672232571573343,-15.57912705221191,-16.32039011625015,-15.547203242419997,-14.77906673053966,-16.059700604680714
-8.426927794586884,-3.5206046152660346,-7.521626066520494,-10.739763355793112,-11.28129014111405,-14.857651456838134
-2.187032474280406,-3.6772150952570404,1.6982039271332978,0.965896280503142,-3.163297262375644,-1.5126961256389593
-0.22320113745522047,-1.2326497491600736,1.4617107602567867,0.31612555175111234,-0.7315467738364738,-1.1684982846942966
-8.59211814085582,-7.627517870865425,-3.5830905407399865,-8.083160132057081,-6.170515069474747,-6.03972264822755
-18.910921574944187,-19.54455496225829,-25.971808437191477,-24.408899930844377,-17.185332973979516,-22.881178539110984
-14.479938474885989,-10.304243886392285,-12.69739507717708,-10.775036171177605,-10.925115767078463,-10.290585293517584
-12.198694092227921,-13.449811991390723,-6.19505969943676,-7.873039003658887,-6.259767072730743,-2.6569668446678434
-4.727032850838651,-3.4032007835440523,-2.937935280938108,-1.0416940147358906,0.5475588381122459,-1.1154257064876416
-3.2067247965870083,-0.01588372092185094,-1.9950093342820754,-1.9135178806912563,-6.2158001821410656,-3.949609851630482
-14.86121308812666,-13.686644168418987,-16.05315128694662,-17.96631046983582,-15.44384576240906,-19.50710781760782
-11.73067196448192,-8.170508270826478,-11.24487932841096,-10.134220223412035,-11.441107804312486,-13.037618761840255
-10.69161229006709,-12.672642529343557,-11.646400322706775,-13.297631451566987,-11.320008443740583,-6.633843702413464
-6.729231811440704,-8.89864164451556,-1.2856265760105796,-9.357877861061729,-1.7252308432232806,-0.4007712459343698
1.6768372550354518,11.47928943803797,-1.8171752149356815,-0.5825775215253032,-3.513264476175574,-3.588070223116511
-16.943152912782818,-18.08273934717634,-15.581156366412017,-17.064096827807123,-15.70533463268577,-17.083072817403398
-2.0,-2.0,-2.0,-2.0,-2.0,-2.0
-2.0,-2.0,-2.0,-2.0,-2.0,-2.0
0.0,0.0,0.0,0.0,0.0,0.0
0.0,0.0,0.0,0.0,0.0,0.0
-2.0,-2.0,-2.0,-2.0,-2.0,-2.0
-9.970554931908222,-7.148865502014848,-10.731424145065493,-8.081245548712758,-11.317861330163431,-9.31862950237626
-11.787992400672207,-11.897035109323358,-13.497862118121004,-11.662454829202579,-11.226037495303146,-11.21872930892663
-1.7959326771202355,-2.175470283082223,-3.623040042790838,-4.746983006251971,-2.343306595767716,-4.254979312638229
3.7528375042122257,10.506209251587023,1.9491172767259457,3.203663957568271,-0.244815430767696,1.1328945151328091
-13.125953308527052,-7.632912877186964,-16.626934590516022,-14.09747351539599,-14.481849770594925,-14.233755740874328
-9.709531846967986,-7.403100053296496,-13.271510052495685,-9.21440414866047,-10.448824001598137,-8.2171435860768
-12.935336741089973,-12.90812551763817,-15.759662298620071,-14.922965306690386,-16.44250998332041,-12.371302448543387
-1.0420922563272759,-1.5885210669958978,-8.724934110530931,-3.5122035081987426,-5.289860551407927,-2.1783175461640756
3.189379081727009,5.923799219673738,3.0294603551780934,4.394211535324967,3.4222884346889066,4.979100013689041
-5.0722592915296065,-9.465130455497523,-4.850895297596974,-3.9124428251452708,-4.413706697843749,-4.144801336543894
-11.214443138707637,-10.13498878799659,-8.907634941266451,-9.895734502806334,-8.019926018322291,-8.329127674038881
-15.93358231225375,-12.160055309451211,-16.198992927938423,-12.093556081406424,-12.08429272151985,-11.597486280898028
-2.530399387158387,-1.6680968944875623,-7.367084068064754,-5.286718912221528,-7.962775596560344,-3.82058247476723
2.9733802153623428,1.527298930147758,3.3258936313069345,1.9295553639316596,4.275465026254228,6.262368058881281
-4.32617487870605,-16.242920725386753,-6.702193581189338,-6.362321258036448,-3.481409429784026,-7.633306370429978
-8.66545150374352,-9.105380667009264,-13.176349297913506,-8.272927615179322,-12.158905901799407,-8.384426156410582
-11.103967099075588,-11.326219104957,-14.103199711155563,-11.815609420239626,-15.754579828537802,-12.279538254447399
-0.8986260025621663,-0.4435596325568934,-2.7792815931537667,-2.5961286764361686,-4.84140311148932,-4.186465338826667
-1.00629787714954,-1.5607485508601013,-2.224761386625825,0.008851503424206592,4.096680679800415,4.383335742283889
-13.861156302832262,-13.188993637082122,-15.056008632750018,-14.104427765166896,-14.787650597528543,-14.517573068047437
-8.9372281319377,-7.958445615648311,-6.94337440150105,-3.509485617900759,-5.645500050530848,-6.215157093165932
-7.106386906200357,-8.081738780118563,-6.071333765828664,-1.3038913230937523,-0.8094531237883201,-0.2879746215963067
0.9599655724344242,1.1546538962333237,0.029231317209320436,-1.0168056543036306,0.6483802937272185,-0.06110491070945005
-9.718181130133758,-7.632071966788407,-9.926733612737014,-9.855733099586699,-11.60876472022666,-9.096484998874757
-14.21005858186131,-14.299244363901668,-23.228146114402225,-13.272384495595237,-15.519516576101411,-14.494864820016074
-10.193073199185784,-12.55265097298958,-11.070831251392999,-4.46518123145384,-11.461850967687568,-4.490190198378819
-12.792405865157468,-12.955898182027395,-3.677147177820245,-2.3268336515686614,-2.673289940757308,-3.848845370293366
-2.0951811589103597,-1.3343325635227252,-1.3337143020580369,-3.925697932066838,4.03309915101867,-1.8343687794412675
-7.332778606246864,-2.4722969753401687,-7.100531058873775,-5.87995836609044,-7.559126501340474,-11.092042037618851
-13.401836369538545,-14.200845006496522,-16.26570582533504,-14.56938237472823,-14.54820867736522,-12.940612167755859
-10.297065464601921,-6.227644554328594,-11.473999089054214,-11.303163910518991,-10.214017271015079,-8.73571787229366
-9.445383353469525,-9.902686835213439,-10.74313223248159,-10.186230258994222,-6.45734222321555,-4.013281637043944
-1.6611738862805558,-4.675009636433229,-1.5993934991797072,-3.8609573248847715,1.9135271344370306,-1.4455931971506435
-0.968642961687638,6.912377028585381,-8.345418787086395,-5.786866407570694,-9.399621768856061,-4.452289533534868
-15.996117989111038,-16.8096212838884,-14.621784534932408,-14.789889221186137,-14.946984030920994,-14.947502135098917
-2.0,-2.0,-2.0,-2.0,-2.0,-2.0
-2.0,-2.0,-2.0,-2.0,-2.0,-2.0
0.0,0.0,0.0,0.0,0.0,0.0
0.0,0.0,0.0,0.0,0.0,0.0
-2.0,-2.0,-2.0,-2.0,-2.0,-2.0
-2.0,-2.0,-2.0,-2.0,-2.0,-2.0
-2.0,-2.0,-2.0,-2.0,-2.0,-2.0
0.0,0.0,0.0,0.0,0.0,0.0
0.0,0.0,0.0,0.0,0.0,0.0
-2.0,-2.0,-2.0,-2.0,-2.0,-2.0
-8.43692364925779,-8.305630903880056,-8.709804809286727,-11.238686044894276,-11.936188411019632,-5.662127310582861
-7.378552503172481,-11.430610359584422,-12.067548482571565,-9.751184916961323,-12.724865357417029,-11.058020107696864
-2.6873138806535963,-0.5577610301676384,-2.6597863979168386,-1.6595143578402947,-0.14090826294999556,-3.710604014765419
1.154859290163453,2.150208805215232,0.96642237554693,1.4001425909208212,1.2052742669310879,1.0911880737778092
-3.0148923542678303,-4.562786005283779,-2.9377393101082574,-2.6491451909841315,-2.7994578857187244,-2.710064747787037
-2.0,-2.0,-2.0,-2.0,-2.0,-2.0
-2.0,-2.0,-2.0,-2.0,-2.0,-2.0
0.0,0.0,0.0,0.0,0.0,0.0
0.0,0.0,0.0,0.0,0.0,0.0
-2.0,-2.0,-2.0,-2.0,-2.0,-2.0
-2.0,-2.0,-2.0,-2.0,-2.0,-2.0
-2.0,-2.0,-2.0,-2.0,-2.0,-2.0
0.0,0.0,0.0,0.0,0.0,0.0
0.0,0.0,0.0,0.0,0.0,0.0
-2.0,-2.0,-2.0,-2.0,-2.0,-2.0
-10.131291048228883,-9.398349639376827,-7.156200231783697,-8.364902300984383,-4.418653567557769,-5.377323318888368
-10.781518103055223,-12.223311384425392,-9.09547827118572,-9.50650528614077,-3.682381717192497,0.34735791889874024
0.07246527612615047,-1.8349863309615444,0.779994527004715,1.5464750055403838,2.9303708161860746,2.933872271859738
-3.7609477228257453,-1.5570941219802712,-1.440235565741847,-3.1831680194773813,-3.878708517664105,-3.2383356892562953
-5.079852610223222,-5.760973186682259,-6.246237955976373,-4.210899677633365,-6.585871835094915,-4.610054719517788
-2.0,-2.0,-2.0,-2.0,-2.0,-2.0
-2.0,-2.0,-2.0,-2.0,-2.0,-2.0
0.0,0.0,0.0,0.0,0.0,0.0
0.0,0.0,0.0,0.0,0.0,0.0
-2.0,-2.0,-2.0,-2.0,-2.0,-2.0
-9.38421909055404,-9.785659662888303,-8.26791016762182,-7.281432405509628,-10.94748633983228,-8.392196715976622
-7.1839314576414735,-12.631993142411098,-8.89060803550067,-9.803820167042177,-5.812550061976468,-4.780905925310939
0.7972530504991479,-1.0804804165255895,2.629746390765741,1.9760198166944483,2.3176418831170396,0.46596378210415207
-0.7248400194534422,0.13178047747863184,-3.021864233923247,-3.317309478768826,-3.9091755223770956,-1.8899127052523137
-6.490661393546382,-6.689516269939841,-5.795744658564639,-5.772011775959673,-6.108953682021308,-6.361838475517209
-2.0,-2.0,-2.0,-2.0,-2.0,-2.0
-2.0,-2.0,-2.0,-2.0,-2.0,-2.0
0.0,0.0,0.0,0.0,0.0,0.0
0.0,0.0,0.0,0.0,0.0,0.0
-2.0,-2.0,-2.0,-2.0,-2.0,-2.0
