x1,x2,x3,x4,x5,x6
-0.263296697518896,-1.6012709979552449,-2.7216801853115666,-1.5520431685654568,-0.7506189170278618,-0.6380502217113145
0.7359356978539322,-0.5270442141157411,-0.08022890497631857,-0.36238474178696295,0.7443369234855584,0.9803802009034878
3.367308233613874,1.5635499281457843,2.6128609515954215,-0.7281552791011229,0.7501368335195461,1.6724222318651463
-3.888725692424304,-5.616084816806395,-6.2553892144550325,1.2741653470799619,-1.3221395307904933,-5.575728276541969
-39.48979483455646,-39.57215697002979,-41.3910559984164,-37.03168006205068,-41.63988918763661,-39.88829837006193
-23.350456644490247,-21.82132740971763,-20.541873999573237,-20.810524320236432,-21.21703422898069,-21.086887035598387
-0.19295472069342612,-0.3990947506742356,-1.3334399603742764,-0.2976725390984673,-0.13676392576571778,-0.49280561615369656
0.00881079126662475,-0.399520457174901,-1.977521211115639,-0.5308139216322562,-0.055196958053225546,-0.2500125190721736
3.8630194816090153,4.032965581859975,2.901156500668658,1.6216392933891561,3.688378803663977,4.2693443281627905
-2.692645679308282,-2.2237440076189805,-3.5226802609195476,-0.9974802733927268,0.5916330175994281,-5.396906399438317
-33.6695611204435,-32.88803570385932,-19.48232487071708,-28.73381558969548,-26.391386177133068,-22.248595438299244
-12.233231788358813,-11.769775826475723,-13.000636636391079,-12.337535437454811,-12.078223511083738,-12.942394385359014
-0.3489002559319707,-0.023070224988736582,-0.6414245138630708,-0.3503943689322472,-0.4185647923027299,-0.23890621092034656
-0.027871352636792548,-0.3602870146075195,-1.5627205688229893,-0.620600241888132,-0.2581040162003362,-0.6835437426137846
2.124661806432682,2.5928205681409877,2.8011823978039465,4.091167518954214,4.888935430297183,3.861775906144289
0.18645206582901083,0.6284794601942398,-1.7810415352454445,0.7362557656408335,2.5820198906334033,0.2532753253548551
-22.111702559768293,-24.944940346004554,-16.350179211314302,-21.24322453879712,-18.938203644963153,-19.197626380355103
-7.257066639336655,-9.94458776535384,-7.9292503189065275,-6.855092880530419,-7.063397051065193,-7.4476352661005425
-1.0609617283492114,-0.33437404155539246,0.21518844166578643,-0.8308618750486862,-0.09112472559007755,-0.07494671352095522
2.316810148128969,2.3705222659960086,5.770002053999029,3.4636230731524513,0.47062594287211995,1.0974508629626405
1.704700645374146,1.7078251872286305,0.658731532722632,1.7751015529020273,2.3779247162798782,3.596774720789795
-0.8700178128932317,-0.1810596834300668,0.11749419026771105,1.5570350845192993,2.0896600874429936,0.99540714870059
-11.340555072750226,-15.930066157436249,-14.275607337578784,-16.49902906221083,-16.35978589131449,-14.848713008929856
-4.767494670360201,-9.37181000734323,-5.036538606188735,-6.24284457319713,-5.731292332911814,-5.490512365878823
-0.5863518387472313,-0.6740886273541311,-1.071172992559634,-0.6457357450440714,-0.04941462447985773,0.44990888976501836
1.5892326134755874,1.402780914344605,2.601296219604976,4.491899614270328,2.277550950892953,1.6061928404066876
2.1707724843794662,1.1574906813486887,2.0579747262829136,1.7462368916065165,0.9741671569428922,1.078626944586731
-0.11835186013439773,-1.079526180576208,-0.7998278366411846,0.5396317382230722,-0.8919013277381608,-1.5092232365280576
-15.447161780563425,-10.927166228720644,-10.668802982787069,-9.783912847802968,-9.982573908149032,-8.021349565805396
-6.584651549831823,-3.6013646201600564,-3.3412772065406555,-3.2408197855737315,-2.705386827407253,-2.5015795904862226
-0.3309977140527,-0.35909367342177273,-1.7549822587263075,-0.5375680557578352,-0.1975464904301398,-0.4202670397245283
-1.5903554332965688,0.30397811799511043,-2.1702317559677664,-0.09076102918449933,-0.3828252555391319,0.550656931310369
0.5036285485374933,2.4405060630551025,2.3452292986138614,1.1301348597992396,1.5768662796083297,1.4896267218201558
3.0565640590794017,2.5165122178340784,0.6434468177627736,3.5836826342142367,1.7079282025648908,1.4908673108688717
-26.597769403579065,-21.62946991784004,-21.42071848108892,-20.026753968124694,-23.225277784623934,-22.00181911400651
-10.684081103484074,-8.058019142610714,-7.302285020506831,-7.374483968719694,-7.345009468562679,-7.577687005591887
-0.23605667650201898,-0.2849084929846646,-0.36227299572437427,-0.8179289549129308,-0.7456292617278477,-0.5434237465215015
-0.7616220303866951,-0.6440283364865564,-1.0445902972239383,-0.3532986077300233,-1.1294509617393662,-0.005984075343110478
-0.12571506064743074,-1.82568499575578,-2.5356962556098033,0.9773954558942846,1.3273099755102553,1.2780154322051542
5.158801340873871,3.1948750566949973,1.4986154274227603,6.2773340165974405,2.016244375890694,1.3302005985054013
-25.547681325615027,-23.17182178347693,-26.171054196973397,-24.716455960085767,-27.364978988637283,-26.619680300156148
-11.583947504088583,-9.09066950465035,-7.882400165539807,-10.050395799653359,-9.45522061164914,-8.48542198853234
0.0,0.0,0.0,0.0,0.0,0.0
0.0,0.0,0.0,0.0,0.0,0.0
0.0,0.0,0.0,0.0,0.0,0.0
0.0,0.0,0.0,0.0,0.0,0.0
0.0,0.0,0.0,0.0,0.0,0.0
0.0,0.0,0.0,0.0,0.0,0.0
-0.13977717153964633,-0.9415795899527701,-1.5350417367194042,-1.2113532855942282,-1.0745808371038,-0.2418634167531076
1.8036840177997273,-0.01468290437495883,-1.7856949396291963,-0.2537834819797172,0.4932929982733299,0.7585949657559842
5.700255588086569,1.9602295743405473,2.5952326527887304,-0.8615392104419658,2.864787801951568,2.2484220640037096
6.043680427748238,4.090649037489213,6.324163054368729,8.401632865912203,3.935806579712509,4.550377451313636
-34.73111307224713,-29.832950772545214,-25.168826233365035,-30.305221737975394,-28.95254399299462,-26.43032938928388
-13.614136705359154,-12.722832056805693,-12.191419054847021,-11.885946557487191,-12.438680492689704,-12.202519948525762
0.015829416286582777,-0.4824953409201083,-0.5061995913329733,-0.3043481614103351,-0.2991777875107261,-0.6224718694137718
0.7581461669514008,0.8714013970284186,1.5540563852740599,-0.13016418699116983,0.8824313422952138,0.5114055828115096
5.5423899771079554,5.168185418670956,1.530492946604129,5.656540849815933,3.4417516331429288,4.27787115725852
-2.0383428951167644,-3.403064083753361,2.6786483634495957,-1.9803940173427328,1.2460739435633925,-2.7165405723887193
-44.49003560665191,-45.093877558396024,-29.18122915935958,-44.50508971438172,-35.50755757364359,-33.18761133564307
-16.353743398943774,-16.194806766206653,-18.03896348062522,-16.866450023021496,-16.318609342410735,-17.472285230867094
-0.033637305786358575,-0.059481268956458465,0.3438321960256811,-0.07504175304407215,0.012738813919655815,-0.15294806015708193
0.5776037407381649,0.05173527596059418,0.22666390470573966,0.32013775508979314,0.09576319561311482,0.08279344324653269
2.823123335562051,5.259855322729885,4.941146862751547,4.364356816295256,4.17795500328052,4.03081057543466
-3.746024995073363,-4.4148633389615295,-4.90630010665011,-2.270411416873443,-2.959350109009819,-6.400746276855017
-41.67268202875758,-42.65588906929158,-27.581343349503285,-40.088438222702905,-31.79445774494065,-34.942569995599726
-13.780905722875826,-15.392138858583314,-13.127032106752806,-12.931642569539514,-13.177242907972282,-13.845874700174104
-0.1121611117231406,-0.20829568812980537,-0.5863978927325946,-0.06396261988166484,-0.28760194312060366,0.04727164109105351
2.6442086762130397,1.189388876198854,3.59449053789422,2.256044035227237,0.4828375007997176,0.3666039297274773
3.8671213993985845,4.103929907933577,2.4386953019495423,1.289186955359843,3.1830351329161917,4.216373707292176
-4.189456574853518,-2.856786022889299,0.8004842957040007,1.0042503824826114,-1.457047417237043,-9.39812822505114
-37.54690948956672,-32.09337597682655,-36.63039823705231,-36.96123612701466,-40.39180403592447,-34.16464971146277
-15.799179102369603,-18.876815336151836,-15.89279441737979,-16.94842121675744,-16.542145280981902,-15.712921267007975
-0.15566930442417534,-0.44295774647431696,-0.8171936533081792,-0.3400914161070962,-0.0428808719488587,0.1587439655756847
3.2923959167789665,1.3418878605722975,5.3670943529124155,4.39806363493827,2.69868246623699,1.2538120798762564
0.5404214464591265,1.1326758558823165,1.1704229786388767,1.5241966109392575,2.743627141157218,4.1170687150031196
0.7496747637261985,-2.2122319347051533,-0.03800496616280299,-1.70574896300086,-1.4411497353178633,-14.936058677275994
-23.833282090021775,-21.16387768668834,-22.19104828579317,-21.790523689733234,-25.13703315480377,-23.103887106280954
-13.583247870993139,-9.099174641666238,-9.199169386931477,-8.924701920613714,-7.952663258720039,-7.533701067881438
-0.43172694593118816,-0.0421735738778519,-0.4013481568918341,-1.1689900079463424,-0.3623715281259975,-0.3663478990675133
-0.44526841692134794,0.46124625660970503,0.0657035671399107,0.744333528741849,2.472866492538453,0.07749609587158031
0.28276282284855175,0.9811673208284589,0.7556410548238148,1.2550638533715865,1.5966189711714323,-0.4657035406856629
-0.2534286833417769,0.28130627941413083,0.23212163055479837,0.6557065841310155,-0.3109113170017349,0.8467653872563455
-16.594477406934192,-11.589034754353333,-10.136284398960907,-10.181559536149662,-11.828001515936021,-10.573539072025069
-5.479935628920327,-3.5388583554894324,-2.7105367885087617,-3.095030558239545,-3.1331322935458368,-2.876749002823334
-0.36506288925177677,-0.7292269287582951,-0.7916130288655433,-1.6119381329105038,-1.4322685155515293,-1.2129170108893506
-0.18699918199346283,-1.2079809915139528,-1.243511744425758,-0.9504634493355028,2.155898895453118,-0.8396237601987738
0.8092916510133381,1.676203819214614,1.9754670461867285,-0.2421851570652448,2.094620185632513,2.080797149878699
3.3320543387092703,4.151964826832875,3.6763800957603747,3.4232292821343733,0.5986383896889256,2.171868427662693
-25.04224360351246,-18.738426796750435,-16.669471919218825,-19.800055693980717,-20.221891549543358,-18.623772008915147
-8.743482296278271,-5.613859402840639,-4.873407835543732,-6.397537306491349,-6.077409678252131,-5.070031202034436
0.0,0.0,0.0,0.0,0.0,0.0
0.0,0.0,0.0,0.0,0.0,0.0
0.0,0.0,0.0,0.0,0.0,0.0
0.0,0.0,0.0,0.0,0.0,0.0
0.0,0.0,0.0,0.0,0.0,0.0
0.0,0.0,0.0,0.0,0.0,0.0
-0.9705425268532824,-0.8058903533828178,-2.1857345736037788,-1.4818824177488998,-0.6196669979678371,-0.17154544907149819
-1.4750223094215247,-0.3831059654155464,-2.8585549242716644,-1.7983945146208844,-0.9038732235254653,0.196204558033023
1.0433254725497287,2.4386362929386913,3.3152812938495546,1.3636642864286792,-0.8155703658761204,0.9637359144627637
0.1433542463513208,0.5137562013183298,1.5747822149464525,1.1837496495382525,-1.058257796126295,0.4969122100158102
-17.96065932448497,-16.53000893224509,-15.487549417714598,-15.403790523104158,-17.26299615272488,-16.375416781043
-5.871819758021685,-5.648086689638017,-5.579503604996237,-5.090240110009566,-5.488995504687946,-5.291849531495057
-0.5000288923388794,-0.40009391675363754,-1.0156629889443012,-0.8710082222417025,-0.4201014948888303,-0.46121679110864844
0.013953479854698941,0.38360155356803516,1.0119224301364298,-1.1900951899817225,-0.77430956481577,-0.5600441998455171
3.6968046897373696,3.3659908882548213,2.503953107502482,4.542801425827818,1.7875764940299128,2.659123943822543
1.4723252805741416,1.3457301940294668,5.412538303442878,3.2198507345567977,2.976623408966511,3.8705375106786044
-17.615021352281907,-18.468177429318324,-18.949492601116297,-17.95209383973401,-17.531275051732784,-18.615169703276173
-5.7685484830398455,-6.40876080482661,-8.135736582001933,-7.001065566856326,-6.45697605603657,-7.055378206494125
-0.20470942445791593,-0.16739328884932217,-0.12414303861876147,-0.21084323204830785,-0.23227369271349127,-0.46708871087315507
0.4439851248550467,0.32649334710529637,1.7615558779302525,0.5520587200512065,-0.024715864237323068,-0.18744310554698276
2.07753893359086,3.23154757855706,1.4484664315786278,3.055072103867762,3.4174172801704694,3.6224316890025245
1.5566185498542624,-0.4271234939791005,2.5341680263964843,2.665246283141954,4.844268127801105,2.9216271109522487
-23.314516055148918,-25.65904246625803,-18.70738963637295,-21.316464927623525,-18.608345742677475,-22.30865608486793
-7.5942212393827555,-10.310049471541383,-8.32045398127388,-7.3763279191637245,-7.373259142393889,-7.991215102785597
0.06392097867645682,-0.270832266496868,0.077000167910946,0.049724144952109965,-0.1380889964365941,-0.028381832361041377
1.0203916981760075,0.37588803441724833,1.4419849129278604,1.6196359122610635,0.4625289156755066,0.3496095363606582
3.821849791522761,4.61917839386987,4.01525175747747,3.687381524015551,2.541919178486732,5.241652691183854
-1.872950256614502,-3.5259644230311573,1.7534747686601708,-2.1781362233670363,0.11665686290839794,-9.447233290827045
-36.99679464802286,-37.72769981068805,-42.45563225113653,-41.51652166312837,-50.22031470438422,-49.20847363287994
-18.4024010476099,-22.010894346689,-19.568042705945807,-19.920113025366735,-20.07119910708741,-18.725670723079812
0.019120123777716165,-0.14183910595125426,0.4997414561743267,0.2022692011112329,0.19769269622079286,-0.03261096375711459
1.231386480180666,0.4313542548628269,2.5677953146957404,1.6876545951474264,1.2676655687646723,0.3073852652430312
2.51936424990135,2.0585971975674804,1.0058692238438733,2.5976146623972696,2.10219479530248,7.061079695890462
0.7844227932229814,-0.31743315145881706,-1.6707756987587583,-1.4158883441279921,-1.914374901992634,-12.397164488108166
-31.04550311350447,-40.24446774848312,-42.3031669406479,-40.536797366497886,-49.235519306721315,-53.39321472248304
-25.562599032449743,-20.130127759121773,-21.015131986254534,-20.31266747162384,-19.59530061179244,-18.853100684258617
-0.028099203334594793,-0.023607662495217712,0.34875902006960036,-0.6824682918002962,-0.33209310292440636,0.00493728326890003
-0.20059066377640347,0.9167656962271948,0.9499645023458159,2.03243606429055,2.1350779608148818,0.7078101732172826
1.4117007063254254,1.2729320817815017,1.2085549133825462,1.3457856255884018,1.253796738583766,1.4565335751754622
2.9009784877804745,2.686395560811983,1.6807253422418775,2.437538700021846,0.7150869313897755,1.7501788141236465
-25.728120710446237,-22.8107505142077,-24.093783161158782,-22.27865583548981,-23.55533876463273,-22.115023735635635
-10.306959720325205,-7.976621125624142,-6.626485930856443,-7.868932293727622,-7.6885229725777675,-7.270278326815365
-0.22794214758454315,-0.4664859105757626,-0.4541376230430329,-1.3984694546939054,-0.9548638921239015,-0.12224959644807748
-1.1820828764302012,-0.06594140523001335,-0.5985002465270242,0.8600520217808328,0.12807510465089708,-0.08060060092253392
-0.3683502343674078,1.5982767379932272,2.3858449275534936,0.6762397057659251,1.818289621708412,0.49169217452383013
3.51662459356058,2.161909198132044,1.4531883390209248,1.0347500380046395,-0.08384878160399976,-0.25513501284493434
-25.1000050258186,-18.67259337322496,-17.640124352923678,-19.701307697720985,-19.871706108456603,-17.65907614316796
-9.245962503383824,-6.263010882021359,-5.422295827669921,-6.647349919203318,-6.447213145446052,-5.355584011206156
0.0,0.0,0.0,0.0,0.0,0.0
0.0,0.0,0.0,0.0,0.0,0.0
0.0,0.0,0.0,0.0,0.0,0.0
0.0,0.0,0.0,0.0,0.0,0.0
0.0,0.0,0.0,0.0,0.0,0.0
0.0,0.0,0.0,0.0,0.0,0.0
-0.8154803872544226,-1.6350781278158257,-3.3260314467754264,-1.2424473381172536,-1.1687872955890848,-0.7209054233881473
-2.285310327246921,-0.27729233527148356,-2.240182162867641,-2.4672447052351996,-0.34490026252655587,0.10117165034392427
4.082518064765534,3.764104634829965,5.372407726552364,2.6798351743335713,1.4659713104254315,3.7735250067537915
4.027640009149672,3.1799399057687654,3.0789191684752457,5.584896338761004,1.2996272224772734,2.645133191796697
-25.18437227900036,-27.640027991726228,-30.059932608640544,-27.47421810811409,-30.174587758882087,-30.5685646136168
-13.392940058583871,-12.730112106877774,-12.062172092857129,-11.90994032424544,-12.3155862620816,-12.159564905567215
-1.0176298615028396,-0.8351926137706948,-3.95075496892103,-1.0295902496284022,-0.7168841492252215,-0.6057464325663815
-1.5261337767592833,0.5232287504397539,-4.7605151583556395,-1.9359929029575307,-0.08495763359011427,-1.0688707868209175
5.2094657418000185,2.9552015920113375,4.772424631446711,1.9519455412093962,3.14990296204709,3.6327425201492436
0.9539135742555571,2.293240007867959,6.656518144192724,3.656766534280607,3.740480134267849,4.088821228242102
-17.83195126026253,-17.05169251931174,-18.983503903064776,-16.975080345901215,-17.71510979455504,-18.469891030735226
-5.215761994148867,-5.560967884125811,-7.425035964265548,-6.267345445107941,-6.010111735296104,-6.45322772668686
-0.8515185640515107,-0.3469672787976458,-1.1175785307413788,-0.6316977044341094,-0.6540025684503642,-0.41824181647005404
0.2571553253359058,0.34900376994966176,0.866772820308604,-0.9025911851274849,0.06577224473872469,-0.9711060393991613
2.1246685668132486,1.0490925776737874,2.2518352560155286,2.1937874799352364,1.9474828190235098,2.566893631695181
0.745760159249156,0.4175554103191796,2.260810701275441,0.7473777887298966,2.027305528724076,1.1787173143949836
-10.256746189859227,-14.183638804365964,-10.89461142319381,-9.312346944328691,-9.166838570941412,-10.143371537218
-2.7876754880924524,-6.304453273953193,-4.29118906794083,-2.890512275135809,-2.861605813259205,-3.3296223358528887
-0.6788092850347691,-0.4852145885160034,-0.3637378075466704,-0.36879564875043486,-0.25737382471852843,-0.2631838555100091
0.8828436999145063,1.300678561680732,3.4626496576386585,1.9680476596276077,1.2047781022406465,0.39095006872549115
1.3243007517572511,2.026981734551513,2.2268069931765297,1.277369956687593,0.32880208601416877,1.0130103280168985
-0.30333639856954214,-1.4318822137054033,-0.1295838193575513,-1.1048650882943485,0.8112870234009993,-3.854104524223225
-12.516669622490953,-20.496479204431864,-19.93307310714199,-20.608443860174013,-23.880107806329022,-23.11254091597631
-6.830559159601947,-11.768333716178786,-8.046111572872482,-8.63615584720168,-8.515341473660342,-7.889863171056537
-0.062085045416228675,-0.42254961203996266,0.13583014056146508,-0.08572082165393087,0.17806201049633982,0.17396834856066365
0.540370980629351,0.9521190730815527,1.0895323811553357,1.144968853833379,1.2945441443565755,1.1337416819142687
3.4200788536708333,1.8758728470528376,0.8578244335611728,1.8184606155768381,3.0458118127657197,4.550017043392402
-1.5678620767396527,0.7211029063680245,0.27624605215620196,1.393161552201155,1.199073993244719,-3.8861566960988774
-32.794334445087124,-36.62374014799734,-36.86646172116656,-35.63606722048517,-39.794658234294054,-40.84219585915212
-22.927825548358733,-17.32740734583078,-17.8874229778023,-17.3577266188908,-16.742141784212453,-16.040134250642883
-0.0034731036311920647,-0.23204977169022614,-0.24251702336925887,-0.2941334738300377,-0.004259373960506518,-0.005749720986299383
0.15150763732374709,0.2179475356048084,-0.6885517187385407,0.5629734079497344,0.11072535274262447,0.9472733559056128
3.2911698768575204,1.3753121691450785,0.8361763000930703,2.849193286077136,3.5731863888964353,4.123614438734444
-3.6334347446715025,-2.0737132894025345,1.1570925946906785,-1.5422995859898923,-1.199508414164512,-2.1042180335810996
-42.03419195910263,-36.36473204832647,-42.2168898437498,-38.49162486875133,-42.17388267184734,-41.09002689838174
-17.301400418115197,-14.181417239152866,-12.793830562401087,-13.70082504863125,-13.396941282861079,-13.669427050065595
-0.2030890929545655,-0.6874013881606501,-0.9459341931148629,-1.0681516101254547,-0.2063367095530938,-0.30309802729304536
0.24062570571121605,0.32666346752693426,1.2392727775765315,0.3205493293419888,-0.22253702456774982,1.2324090003972528
3.4634039428495567,0.6403830484924842,1.9706498671223136,4.473760427714662,1.9460566520309854,2.9295931285931744
-0.906381727541751,-3.568006815793096,1.1989263882483552,1.0329276548909978,-4.1038807406852245,-2.8151648366394846
-43.15786955545304,-37.91498980425664,-45.82460524137601,-44.99610567847944,-48.698902022194595,-46.900092070357594
-20.826952666529422,-16.647974593112796,-14.59075220631718,-18.09081362469549,-16.79861969429022,-15.438263457464412
0.0,0.0,0.0,0.0,0.0,0.0
0.0,0.0,0.0,0.0,0.0,0.0
0.0,0.0,0.0,0.0,0.0,0.0
0.0,0.0,0.0,0.0,0.0,0.0
0.0,0.0,0.0,0.0,0.0,0.0
0.0,0.0,0.0,0.0,0.0,0.0
0.0,0.0,0.0,0.0,0.0,0.0
0.0,0.0,0.0,0.0,0.0,0.0
0.0,0.0,0.0,0.0,0.0,0.0
0.0,0.0,0.0,0.0,0.0,0.0
0.0,0.0,0.0,0.0,0.0,0.0
0.0,0.0,0.0,0.0,0.0,0.0
-0.21802209946625792,-0.37579653975707994,-1.0861962388203088,-0.44743891179512313,-0.2533749000100391,-0.17442548777264594
-0.37657416220025214,-0.27413938518354,-3.2037520853746484,-0.7985027214082451,0.23030114090501744,-0.2282752683201536
3.2540567817817196,1.565518257342217,3.8862131641801736,2.10271667888531,1.8158714706926427,3.054084034448237
2.1517150290985705,2.253789481138474,5.544370840374597,3.8238285062211723,3.6619244159634627,3.612247431287827
-10.2958462776369,-9.381541891664988,-8.411619829364858,-8.553721638698736,-9.522020798900071,-9.00108757958579
-3.2509994261255972,-3.2574086616853433,-3.937391896288051,-3.5160980633883985,-3.420609746630238,-3.6785588663777022
0.0,0.0,0.0,0.0,0.0,0.0
0.0,0.0,0.0,0.0,0.0,0.0
0.0,0.0,0.0,0.0,0.0,0.0
0.0,0.0,0.0,0.0,0.0,0.0
0.0,0.0,0.0,0.0,0.0,0.0
0.0,0.0,0.0,0.0,0.0,0.0
0.0,0.0,0.0,0.0,0.0,0.0
0.0,0.0,0.0,0.0,0.0,0.0
0.0,0.0,0.0,0.0,0.0,0.0
0.0,0.0,0.0,0.0,0.0,0.0
0.0,0.0,0.0,0.0,0.0,0.0
0.0,0.0,0.0,0.0,0.0,0.0
-0.07356871549919324,-0.23508409796679045,0.37638275052116227,-0.04235203082933761,0.1192215141733265,0.22899079097239056
0.47835134077816643,0.6389617397508147,0.8330543093410749,0.8634736472996305,0.27796478788263396,0.9076985834900061
-0.742275381564813,0.6016538917804722,0.7666000155304005,-0.7365102481361212,0.1367423209164823,0.8038069039089545
0.09874406983785343,1.0925194584445495,-0.33170929926855247,1.7103484254136694,0.6622007620650795,-0.743495582517929
-8.768896447499477,-7.873315345379883,-7.751501522542316,-7.396779978277819,-7.829958274066267,-7.130225360405093
-4.93739946936623,-3.303899440879897,-3.297932330192874,-3.1868082158532993,-2.970875678480561,-2.803896381750011
0.0,0.0,0.0,0.0,0.0,0.0
0.0,0.0,0.0,0.0,0.0,0.0
0.0,0.0,0.0,0.0,0.0,0.0
0.0,0.0,0.0,0.0,0.0,0.0
0.0,0.0,0.0,0.0,0.0,0.0
0.0,0.0,0.0,0.0,0.0,0.0
-0.07291336507034703,-0.21049163451158434,-0.32389865015104885,-0.32634097787655564,-0.022998337400771687,-0.10877928255171102
0.13926331881557288,0.13465304185739752,1.6636001793180577,0.45690362252373456,0.08008540771873077,0.4701637154504398
0.6734513448135504,-1.7257646533654758,1.024242220654184,0.11471222072284683,0.29381134656701746,1.1502795001090516
-4.876908578088278,-5.297704333216481,-2.1701936713817602,-1.431979597855519,-3.231731880074214,-2.5566157764443282
-14.578333309854568,-14.273195015312057,-19.93577288936225,-17.357762719989978,-20.530430246431397,-20.0230703089041
-8.426686412016807,-6.875326194253257,-6.041822790608067,-7.57864073595752,-6.942551893858084,-6.535714877076899
0.0,0.0,0.0,0.0,0.0,0.0
0.0,0.0,0.0,0.0,0.0,0.0
0.0,0.0,0.0,0.0,0.0,0.0
0.0,0.0,0.0,0.0,0.0,0.0
0.0,0.0,0.0,0.0,0.0,0.0
0.0,0.0,0.0,0.0,0.0,0.0
-0.5759683326383789,-1.051961560380002,-1.4970360533705596,-0.9661419939557058,-2.000930139934842,-1.3335714660602083
-1.7393615527510946,-0.17678970531805865,0.40224005742327534,-1.1040126212969474,-0.12369910255731163,0.06317539368386754
2.5835304897784215,1.9672760176323076,0.685301716106803,-3.745149856676839,2.155150879264752,1.420528310296897
-3.9056460917268367,-0.8088080596912706,-0.5982868913737829,-0.5880041526562617,-2.452775452528284,-2.5737590921566547
-44.43682479269022,-38.027325241936104,-43.39796229267143,-19.883999356966786,-42.69090416944623,-40.094777505247464
-21.189000339687325,-20.745382449098564,-21.075344302196807,-28.750956885349915,-20.41045996319694,-23.02545787982205
-0.5796969170206114,-0.2446811519047673,-0.7115280337682481,-0.3414077842690737,-0.4978816518594059,-0.563291932477713
-1.2281840220063864,-0.32482425951043126,-1.0632652869100299,-2.1168248461826735,-0.033387240983552155,-0.4440883272808735
4.171411829183384,2.1057545392240407,2.897654904419629,-1.1390771698454474,3.9431216275450742,2.322813014930041
-1.505381625104225,-1.6484669902156346,-1.8929046531802505,-2.668186400537987,-1.607030889094249,-0.3486607114043092
-31.603316893365108,-28.585995605961934,-29.857705966671514,-18.740230420867945,-27.667237572925128,-21.802960329710416
-11.669967249743795,-11.274131291069425,-11.26417280528929,-15.555821460684985,-11.957594902659723,-13.829501407707944
-0.4945600440917026,-0.3811415513287406,-0.41144347436024675,-0.7126788362158294,-0.26573855284485026,-0.41492368649826483
-0.253664321920312,-0.5684626773536086,-1.0647524347604937,0.07043854417013311,-0.37789482084165027,-0.5648927215000853
2.876711700532294,3.8016204547237518,3.3616808110064738,2.1259659766306767,2.7953758719339183,2.966022894303495
1.9783610405788332,0.4447568180667447,1.6469672767153931,2.0823653296836695,3.787779813887897,2.7818803608666767
-20.988904155049944,-21.93534732590143,-20.598745069320252,-19.931438210084774,-18.924913213689422,-19.97138072955897
-6.811488699544092,-7.602664327709056,-7.05847826305795,-7.707066205432593,-6.797037539443122,-7.537990163777119
0.05291262359710792,-0.21430376762638162,-0.08733291139078303,0.3041556359634449,-0.8966473523917456,-1.007080429890141
1.488098186805744,1.9396062363679563,2.6185349316590116,5.965672670768176,0.6303258189302304,-0.12395974646353261
2.0935644484043334,1.667257162592174,2.101341376375023,2.744105449921863,2.298947218746497,1.4056751569809212
-1.2835271344085648,0.33061227370522867,0.9428371803309976,0.921956332000353,1.464260021367933,1.528535436706561
-14.944352181316157,-14.620994128576989,-16.64181078941187,-19.94876764670335,-17.601552193832244,-18.07609005407204
-5.488495751226307,-5.037132583337702,-6.125809425029079,-6.925315370034224,-6.3191097485043,-6.454120646486113
-0.1803529577918727,-0.5197838160359801,-1.3645646190878336,-0.6123158602134241,-0.20675864752464798,-0.666545078828345
1.6837823585991984,1.8473329895353041,3.5121827876827845,4.70730575521409,2.0635768402685692,1.4635263748682643
0.8518766224644311,1.768609974624653,2.177437821785496,0.12074322369911945,1.891425287064547,-0.6031170582155015
0.7644209652189755,-0.06352774860608466,0.6063221544609276,0.7459830883559524,1.3617257363959048,0.49227842151268875
-12.125610616163282,-11.064600392878349,-9.157022861544839,-11.6369126328453,-9.717624982885233,-10.589578642803101
-4.9035491446045505,-3.480135918765014,-3.275575331264175,-3.718104909679036,-3.2051405306633867,-3.408284308666744
-1.2374924032862173,-0.5555334685223252,-0.6241024735374617,-1.2895902995775708,0.00022030755336835785,-0.2762873732099837
0.09256153710383734,0.3591632533207772,0.06967065040489927,-0.41065970230943805,0.5207790944440596,0.37477898345807537
2.576426612573897,0.9952166930814461,1.645689614616029,-0.19025619449812753,1.675219877341838,0.933924018408221
3.139795081994103,4.857953862679397,2.181539363619631,4.223316949390918,1.7286652689591295,1.6321078731741636
-26.011085103900935,-22.125792444829546,-20.59424128341027,-16.09478215649442,-21.93930608563346,-21.87671017046716
-10.430463190089439,-8.40979549489421,-6.696202368084488,-6.587111675353256,-7.378341781870937,-7.010368758289341
-0.7410752526566936,-0.13474253392372437,-0.2848346108694959,0.0258255417034528,-0.9093683084918114,-0.14604557256725992
-0.12840317991967284,0.3366521715250763,0.9234739375111133,0.3580573264095635,-0.521675807794915,1.1887295444314738
-1.027921295705858,0.11388533701067029,0.05885485756771777,-0.8218205136961755,1.7146413829237572,0.9324940568729712
7.295113623255796,5.279456806685773,5.269874580399238,8.539200473632416,1.6878383996413286,2.7964295115677116
-28.14429354771978,-24.6473961742057,-27.741829539667158,-18.43425388274212,-29.49651994563109,-27.384028836454704
-12.814127254284264,-11.024355569814135,-10.037515142683148,-10.136074446741064,-10.063196989245544,-8.222460199392183
0.0,0.0,0.0,0.0,0.0,0.0
0.0,0.0,0.0,0.0,0.0,0.0
0.0,0.0,0.0,0.0,0.0,0.0
0.0,0.0,0.0,0.0,0.0,0.0
0.0,0.0,0.0,0.0,0.0,0.0
0.0,0.0,0.0,0.0,0.0,0.0
-0.6008057984226206,-0.5324456999473655,-0.7823613954895469,-2.283348983938572,-1.2462726521048229,-1.2174519984070626
-0.3672859130728342,-0.8775260348962366,-0.4839170786535678,-1.8943911784414948,-1.260957836034546,-2.0257033292922992
4.501309535260606,3.082513939906388,0.5892025815453921,-6.07195321689969,3.320587162139725,-0.3615901123330473
2.462752937816141,5.279183769712843,6.222761940856323,11.407724593402554,5.457584073888969,5.880912238626306
-30.109210180778696,-29.47996496301192,-29.618468306204527,-31.573017092257675,-29.00824217910443,-27.758712311981277
-12.593416399540187,-12.004985407676159,-12.640399071506316,-15.849221103565661,-11.778271726642622,-13.254110920123315
-0.2900993614237856,-0.3117691487305081,-0.3109096662296198,-1.2661429107047522,-1.014528632194963,-0.796610357231569
-0.3835922372779678,0.5699037687241657,-0.08993685865749015,0.5417812330930548,-0.14462101669990418,0.34434173170788274
6.369330856221148,3.163137334407938,4.119791041997309,2.2335807424779093,2.865772248922275,3.5596099210296384
-3.2032061921685795,-1.6778187810500416,-1.2627645109574965,-0.3143921673685622,-2.794992131358319,2.21300795942978
-42.08673451874132,-38.92680597596224,-40.56333361021943,-43.86523238013586,-39.418608799584334,-34.659988951376
-15.996361226815276,-15.028256440947612,-15.360614817771264,-21.14009949103191,-16.280013938352152,-18.75966223087314
-0.16472826722433698,-0.3570419097830271,-0.06454527070435269,-0.7129134314331921,-0.6973014655601869,-0.1938325872077838
0.07224202220024437,-0.28454024930803395,0.4600323451654787,0.10171469746519851,-0.26733525727284446,0.13046688331879627
4.804459199280127,3.830711953677831,6.458415600155927,1.7749423510825584,0.17023052070051228,0.8018672250485152
-1.6580615106336754,-5.039602539343645,-2.7669960456651808,0.2933852071122089,-0.6621285740983188,-2.0774585690161493
-39.29810504226521,-43.4812011437335,-37.30740002660477,-39.92176347788872,-31.40283882443188,-32.47729861738154
-12.767780820109158,-14.142409955657874,-12.59874607075444,-14.033669064947498,-12.817610829162149,-13.87317265080796
0.28008654011017486,-0.24436336517484553,-0.3222573539288442,0.522954472506415,-0.5066778048915265,0.07483857325367008
1.2738535962492352,1.513354242449816,1.4791247011712247,2.9673580707847313,-0.9474975606925359,0.033704543891283086
5.614102026050211,3.428300861991298,2.8749786848993555,2.273379591345388,3.4817162677453455,3.234653182127877
-11.692983332156626,-2.0342484506222287,-1.7400372144508414,0.5128635851900705,-1.5883162173906404,0.9795366719238171
-43.72923128830823,-39.29790506653134,-37.244987319008146,-44.43322368048943,-36.37338951934792,-38.371085342486
-16.184517998476533,-15.1121243019729,-16.652686760441487,-19.152975050010983,-16.7559328617714,-16.91026269068075
-0.035341930798257114,-0.48506601652267517,-1.3718110149130693,-1.0283203158070384,-0.5072854762418625,-0.5327939946023755
1.7531815716861583,2.202583573558667,2.6259376765890248,3.4129726884554556,0.5813782670572646,1.462137918781332
1.8569492947856827,1.9182111243720144,1.8147387486023723,1.5616224151706781,2.4568028519203393,1.0065619248599458
-3.1166726392007087,-0.6046087040554665,-0.9418896766783776,-1.0063637771616212,-3.2673781872664778,0.0571757827717311
-24.424893790609538,-23.780390176300923,-20.789530056049458,-25.295960035965045,-22.2538238765004,-24.780100807500553
-10.770286117910945,-8.960649613750043,-8.637008744628048,-9.521989790286696,-8.264630185970574,-8.824717581263469
-0.7728067680010653,-1.0056651922599555,-1.1562819073931574,-1.861541697486266,-0.7088356789932473,-0.2034921802331641
0.7770161023836692,0.6041913780946451,0.19067955540512832,0.7190603473253304,0.9257985237146027,1.0884711894915535
1.825321365233074,1.8769967351691585,0.8961025666751214,2.125447464101005,0.45301852202154774,0.4147697562078455
-0.011015686136833657,0.4050598139120353,0.6233783028126213,-0.0695713459933966,-0.1604250148741354,-0.7246755138111359
-16.808318031733847,-11.548284158629311,-9.280090493258257,-9.321781763085763,-11.553299946417312,-9.624906069184341
-6.74697915480911,-3.964773923532061,-2.790074895439711,-2.7364043045328965,-3.379242080546737,-2.4851591425732122
-0.6728393920820853,-0.48106335729481964,-0.4534708555019702,-0.6121592594700777,-0.5145142443428334,-0.11517627181715827
0.336622715898133,-1.6197845507839135,0.5255932623138184,1.649179954269495,0.854869057398356,1.539551542418284
2.3219223681707692,0.9607868390792977,0.4774707941239251,0.16616354142438539,1.669754267792873,1.4981084223149925
4.948401513463089,3.1398260340929958,3.9628726855227563,2.546362120941346,1.1570072353522098,0.890925006905031
-25.76100537539758,-21.25326120253409,-20.289094038418405,-19.486604354024546,-22.446361871035247,-18.292443229162423
-11.89070529313999,-7.594068113460302,-7.363302511090343,-6.2988929639444535,-6.872328061946707,-5.121816196447265
0.0,0.0,0.0,0.0,0.0,0.0
0.0,0.0,0.0,0.0,0.0,0.0
0.0,0.0,0.0,0.0,0.0,0.0
0.0,0.0,0.0,0.0,0.0,0.0
0.0,0.0,0.0,0.0,0.0,0.0
0.0,0.0,0.0,0.0,0.0,0.0
-0.9850457906645107,-0.11628496862092133,-0.8009333680644215,-1.1330775249225131,-0.7711499084124597,-0.8885251423316455
-1.2816520422189257,0.020255080721797065,-1.5051742547144822,-0.7073846345739406,-1.060536348469455,-2.8508308701837053
0.7179660356988717,1.8925287673430455,1.8752997201123454,-0.7144722741078727,1.5742858016163033,-0.2850469361800775
0.2789324368377985,0.6911009983992518,1.3538743091646361,-1.3714189344645902,0.9074248510880528,0.2699602474470763
-14.986355623324778,-15.817341114783654,-15.831493303691483,-21.6604279687439,-15.654462186136533,-17.27368034511114
-5.601260083420841,-5.0347138792258415,-5.90213900843814,-6.316244028900147,-4.991740679109696,-6.00302680553033
-0.556902868438555,0.2362764502465795,-0.6682150301495464,-1.2719734851211073,-1.008571880314133,-0.37554696619559713
0.08317182006219827,1.16526702321104,-1.5326014111640616,-2.9253165758801796,-1.1863713249299253,-0.8496982730642334
3.7734782795279496,2.1136323504819177,2.7377999652242373,1.2915222429561353,3.648528062843775,0.6832078671879028
1.0263931385055205,1.1509712315322724,2.480890032111158,3.546734929760968,2.534114073542248,3.245258281887461
-17.500399684860877,-16.987193253754057,-15.615199374538783,-22.64223554842636,-18.61691173884627,-20.209201382374612
-6.1080850704384915,-5.31986778053354,-6.299439522065188,-8.228615867708784,-6.3081440800856186,-7.428329179342663
-0.04896757247844095,0.1365767848691364,-0.6484530497171038,-0.41721718240347855,-0.8892087953046808,-0.4586301192506419
0.9318301121216732,0.41610195503138103,0.5380736407313772,1.1594709641544039,0.3088886489615364,0.06869826422654278
2.357879310810681,3.341156632737177,2.4886618145585477,1.9328781459832374,2.1748619444334545,2.852098268018619
0.7196631385698694,0.9264481496742559,2.604247454279942,3.252117227566499,3.684053478752498,4.061031314319559
-21.45460298417257,-23.850251537019904,-20.770527853632228,-21.035214047209266,-18.963173815118804,-22.378674953958992
-6.821501715820507,-7.862609644626606,-7.133744063444018,-7.96148095206325,-7.0395311583268345,-8.093785019027269
0.19668113807217022,-0.0678107897355425,-0.15150696289268625,0.18476383536043822,-0.12267763256356215,0.36966878309973394
0.9817218620771531,0.8442194758534617,1.395797104315247,0.8426611731293014,0.18743882282463903,0.3722234098859553
5.098032417545967,3.9891552474396477,3.794486863626776,4.5949574023954725,4.413358612592165,2.1525169162829214
-7.030781730637985,-2.853002038278689,-3.8314577903656852,-2.2367995990188683,-3.051501757249503,-4.088225516640114
-47.826141981971325,-45.60157219248576,-45.70980717122648,-52.77151918176782,-46.74692127048732,-48.07669826990541
-19.355539166118827,-18.42600007374714,-19.723878725943187,-22.77505510317827,-19.694210477361374,-20.07280113746694
0.0942389071968661,-0.10547204871864847,-0.19724335127928952,0.28897723985218915,-0.32690715913404705,0.5370951455770658
0.9310775821629463,0.9633874093845689,0.4975552640738613,1.3555661239204428,0.28177293113255464,1.2115623891262486
2.321491244149393,1.0510569423811111,2.1201193270606367,1.8878465395187884,3.7254877838228198,3.7141062552222333
-2.978648096717477,0.4768954635666543,-2.826971218997218,0.4075829438119866,-6.448348541897188,-2.2163145860313804
-39.4956623458459,-44.45652724027474,-42.4337706397302,-47.35958509645135,-45.90880050483732,-50.63487412140755
-21.75083701763304,-20.490598917620716,-19.645970268025756,-21.92350714017985,-18.88984432071821,-20.59730930972398
-0.09568941285364985,-0.17426039185537753,-0.21507102584585228,-0.630521573949493,-0.9500233728500466,-0.032124407342903755
0.09706813188030747,0.645589274264424,0.48670667242582083,1.6869511757049476,1.2416842466737974,0.6197431461771337
2.20955648957147,1.962706994368398,2.2469400819212644,1.590236719998624,1.2372167454262433,1.6340442524160854
1.7975532931467926,2.9086255678960384,1.8630850509727304,1.3224254451462942,0.14857872562689775,-0.41672326146299105
-27.561768161247965,-24.33771626327975,-21.870780758715146,-20.072600798433083,-23.70735972792343,-22.625154108761365
-10.751000812610823,-9.07528800786681,-6.851641335533618,-6.8896363807732905,-7.94562637385767,-6.67197638514205
-0.7501068883968218,-0.12517380859727445,-0.23716083368877783,-0.9539680060694301,-0.989174618521055,-0.2732969592094049
-0.7949145145918487,-0.9206918573423403,0.39790337689377625,2.1063125126198003,1.0980223144742265,0.22933574992488553
0.3455552837598348,0.24673681759982707,1.954346164223967,0.08566967106309027,1.7413203785151337,1.517601503252857
2.475978347435803,1.500180550714433,1.5609265408148514,-1.005891817445967,0.33917292805602345,-0.36815021435100903
-25.69045701340111,-22.013814396051146,-20.62823225395708,-24.103689724360756,-22.03652870854572,-19.640673380137027
-12.564714882315949,-7.944569376064784,-7.88864355042592,-6.921403926071567,-7.100168490524316,-5.723358777112784
0.0,0.0,0.0,0.0,0.0,0.0
0.0,0.0,0.0,0.0,0.0,0.0
0.0,0.0,0.0,0.0,0.0,0.0
0.0,0.0,0.0,0.0,0.0,0.0
0.0,0.0,0.0,0.0,0.0,0.0
0.0,0.0,0.0,0.0,0.0,0.0
-0.79540215870948,-1.8031642744560825,-1.0743473686069203,-1.145569000593337,-0.7552620682099959,-0.5886671737355501
-1.9312182083296336,-0.25351715783888923,-1.320938130175839,-5.2944923514472775,-0.38270912601826124,-0.3554593790959959
2.782520215093955,4.245277261576606,4.2884669421859165,1.8984488837235964,3.1743372059528987,3.334046818908587
2.626501430176208,4.886086840634228,5.949783324167566,6.077358475293225,3.677158132816039,4.465166485518022
-26.449477742457816,-26.142716913251128,-28.21253999217136,-34.17351961515068,-28.884741111886584,-32.41865244222463
-12.365586405786061,-11.82592315100814,-12.541513451053762,-15.732814575379734,-11.683909054236677,-13.414438700166455
-0.9489146359406903,-1.046944245966084,-1.2528679687184816,-1.8893753245155853,-1.4361690778754088,-0.6771827841119789
-0.5755584717834111,0.44395820235043665,-2.1528174545548446,-3.119929431460895,-0.9041583315155713,-0.9119272207158865
3.3861665819184217,4.8026351522995245,3.574601387761996,1.5586564461202503,2.4927254169321578,1.841993975931491
1.87847577590776,3.4877823927319302,4.459853744969592,4.821484739438773,2.65013590547679,3.7433336306058833
-17.008709917245476,-16.86830228549874,-15.252611159288215,-20.225220273810017,-16.960186290176814,-18.89466237919746
-5.275621030958962,-4.982699815194527,-5.618477752962303,-7.3683011148475615,-5.727354010217614,-6.695609836475035
-0.806070387658111,-0.06386542366607362,-1.0511079356264437,-1.0400134325807129,-0.5122889386517245,-0.6314456769459847
0.1964995421572633,-0.46539515876880205,-1.1568036877685455,1.5943873143933858,0.2139129239423133,-1.0531495800803885
1.2961164943545922,1.8228361112366813,3.148093004810872,2.1226690419345835,1.9228294263314938,2.5970183141099694
0.3753646608000904,0.3069701036084373,1.7712600095917477,0.29818778876475305,1.7384049481012402,0.9884355991252117
-9.181301193830311,-9.997028870615798,-9.29937064498726,-9.202605509564895,-8.792522716348051,-11.01114390508929
-2.4759877674931436,-3.192636768828886,-3.0701232810796775,-3.217984062987898,-2.7080891895942014,-3.3022112377457313
0.06133628049133921,-0.43627906371038705,-0.056054607224155395,0.3793194095798632,-0.23006662957615256,0.1656007712331222
0.9864773224878093,1.7214468753558347,1.952487127745903,4.132838973302269,2.0872064790929237,-0.547300148579856
2.530948460766267,3.523293661328567,2.128723416108716,2.087830968203259,1.457297330010959,1.212096497926259
-2.97874503897,-0.9336642574716831,-1.7273407949199613,-0.8214447236232535,-2.756089978549439,-2.5853276112405315
-19.659980847081552,-19.697513773428714,-23.15614505479433,-26.19256600766206,-24.37406004326012,-24.851661101563913
-8.104183634874174,-7.6038810270782635,-8.597914929879833,-9.900847292621457,-8.708360153295063,-8.96854950080528
-0.33709218267298685,-0.7174667657275092,0.23510850282541632,0.40233490152731116,-0.29146725186524897,0.3339881814545044
0.8628983947414204,1.1103682923672746,2.3183280941479736,4.5099897602461425,1.5716607082235912,1.172635304494683
3.005127066490081,2.739844249560362,3.022030705431857,1.6415966969406872,3.1410139941950934,5.394551003979409
-0.41569533389325125,0.49603156932175213,-0.11042379507169718,2.0318599718307095,-1.0708450570665173,0.16080849009535247
-35.17902566448796,-37.727420849409576,-36.60911306044002,-40.06004389593907,-37.98744375838129,-43.464511552809846
-19.629704573903005,-17.64568635860332,-16.823672554487477,-19.327596741720363,-16.461915315124674,-17.92091954651832
-0.13457203613547739,-0.004143313801829798,-0.04830493791173146,-0.24252314193155278,-0.19870554715544136,-0.17780995405085198
-0.08088324964761397,0.3008088457599178,0.35686808294989997,0.8396208790001793,0.2529178319197027,0.14408392862708688
2.727809619722963,1.4256427655886426,2.9376611975909968,4.034462823352432,3.538273048279883,2.8674823424675258
-3.73677967961252,-0.7023596564607015,-1.0821938193852392,-0.2671935543380235,-2.5616819103073736,-3.11953962628829
-39.970761454833436,-39.8646429251234,-41.464420993042594,-34.92177411138226,-39.7942214070014,-41.78383911741739
-16.026166185039116,-15.307731968180342,-12.186441111787415,-12.166756499676053,-13.434544117766666,-12.919907683080961
-0.486320747057664,-0.06370441463939452,-0.3832809029992343,-0.4704504037093563,-0.4975482477949451,-0.30078587377978977
-0.2871389152197223,0.32552132039253173,1.1728452344337519,0.25025630132083343,-0.32368961656080264,1.1728958523044555
3.3434266775085075,4.860515322893309,2.0343762018460096,1.5781787956728692,3.573166054498727,1.4923294248593235
0.8317082872508491,1.0411285012975984,-0.980310785119132,6.756064882147883,-1.5232987855200173,-2.3802125040470985
-43.36572224114828,-43.65125985101787,-50.2615475513114,-39.441608310627345,-52.67255176178619,-50.59084038256415
-22.49657160020997,-19.751660121046182,-18.07809398326169,-18.623761865134988,-17.910793981788174,-15.358661248478182
0.0,0.0,0.0,0.0,0.0,0.0
0.0,0.0,0.0,0.0,0.0,0.0
0.0,0.0,0.0,0.0,0.0,0.0
0.0,0.0,0.0,0.0,0.0,0.0
0.0,0.0,0.0,0.0,0.0,0.0
0.0,0.0,0.0,0.0,0.0,0.0
0.0,0.0,0.0,0.0,0.0,0.0
0.0,0.0,0.0,0.0,0.0,0.0
0.0,0.0,0.0,0.0,0.0,0.0
0.0,0.0,0.0,0.0,0.0,0.0
0.0,0.0,0.0,0.0,0.0,0.0
0.0,0.0,0.0,0.0,0.0,0.0
-0.3962961955879072,-0.6535081625162561,-0.5691355161371425,-0.558276418137239,-0.7615192330004062,-0.5268532351243612
-0.26682727144654766,-0.2225547185037995,-0.6967889046833016,-0.9770697785415983,-0.1636761420804116,-0.15601129265680708
1.6848281890305825,2.383943993303558,1.9194972520447442,1.4108914717645478,1.9327895455471036,2.6190156127038215
1.5000345516385398,3.140842886231715,3.172498320877604,5.795375400030041,3.194207576082478,4.968684062648338
-9.434889920288892,-9.479436339223641,-8.262963808113298,-9.677698949576996,-8.909036916861995,-9.329176029873663
-3.2076018173063967,-3.0486307124311196,-3.1951019053142082,-4.2540405353722335,-3.3079519327051967,-3.8403672713639
0.0,0.0,0.0,0.0,0.0,0.0
0.0,0.0,0.0,0.0,0.0,0.0
0.0,0.0,0.0,0.0,0.0,0.0
0.0,0.0,0.0,0.0,0.0,0.0
0.0,0.0,0.0,0.0,0.0,0.0
0.0,0.0,0.0,0.0,0.0,0.0
0.0,0.0,0.0,0.0,0.0,0.0
0.0,0.0,0.0,0.0,0.0,0.0
0.0,0.0,0.0,0.0,0.0,0.0
0.0,0.0,0.0,0.0,0.0,0.0
0.0,0.0,0.0,0.0,0.0,0.0
0.0,0.0,0.0,0.0,0.0,0.0
-0.22699576182834924,-0.42767767043624316,0.2861899430623004,-0.025534712425607002,-0.19358287782744393,-0.12467986815889646
0.1234790942181381,0.5860485747116663,1.576050879044844,2.176088028608626,0.9549621634591245,0.7147411991354238
0.09659324929656758,-0.4110433575216248,0.4756180046896575,-0.5855725477109577,1.2255220275739123,1.0128911258966382
1.789377909383032,1.1475787182587027,1.26270439039331,1.6135979643921243,1.4346360722480278,1.1231339355283552
-7.9078073640184074,-8.26889632568041,-7.16047865100421,-8.640004218378328,-7.602817374774288,-8.363773164042522
-4.0487986543379675,-3.30429626282067,-3.1018523952215937,-3.7212160866028046,-3.0862300450687035,-3.341485129141204
0.0,0.0,0.0,0.0,0.0,0.0
0.0,0.0,0.0,0.0,0.0,0.0
0.0,0.0,0.0,0.0,0.0,0.0
0.0,0.0,0.0,0.0,0.0,0.0
0.0,0.0,0.0,0.0,0.0,0.0
0.0,0.0,0.0,0.0,0.0,0.0
-0.21695500706325252,-0.060386122469219074,-0.1930840281993659,-0.14580106646215774,-0.23479006498461713,-0.04081487957339534
-0.28278348536061626,0.10229074664434784,0.8366010796251618,0.9590147182112766,-0.128569866517255,0.8037815633646145
-1.8534499009616647,0.6499108284113257,-0.29934993607447774,0.9887298443163748,0.7660130859845831,-0.8167071725469445
-3.4409900104081945,-3.775499598947465,-2.6235221354233182,-0.44497011679559556,-1.7941937826826393,-2.6267973866527297
-16.671966031897508,-15.540652166594596,-21.27938967766488,-7.393923809991465,-21.81736161653737,-20.704529339363702
-8.797017986248159,-8.118878628769494,-7.275423285082217,-7.695891496717746,-7.394088756718082,-6.361913161283573
0.0,0.0,0.0,0.0,0.0,0.0
0.0,0.0,0.0,0.0,0.0,0.0
0.0,0.0,0.0,0.0,0.0,0.0
0.0,0.0,0.0,0.0,0.0,0.0
0.0,0.0,0.0,0.0,0.0,0.0
0.0,0.0,0.0,0.0,0.0,0.0
-6.636680314156729,-6.710609718758594,-10.507785123950237,-10.452216402891409,-4.866934608858578,-4.793479515561955
0.040851074884047114,-0.4809736568848397,0.7519531913823688,-1.9826924813684277,2.1754991335268676,0.16849908284609288
-3.510396466160834,4.045172109932394,-6.014777501757071,-7.42449193739074,-1.939146211259767,-0.17170109106937864
-5.156113503308225,-6.859945817618487,-13.364672008746883,3.6914002871968816,-5.143265220348185,-9.02801876105626
-17.187966383983465,-14.434139912478223,-21.986360520790612,-10.388444034875585,-21.2535265120888,-16.63430736892102
-9.369237652882981,-8.289957156574616,-7.539767765034486,-8.061306185116303,-8.553651887467193,-8.541189998792175
-4.374902414026841,-1.9444754797393262,-2.2982669095623547,-3.121720998237021,-3.6541022852264966,-2.731359664823388
-0.39182879549861926,-0.33525117903568497,1.4321161907695303,0.738191329457875,-0.4539222850626495,-0.6837484813940218
-1.7151850206266885,2.89254092278135,4.09165229791875,0.867895608355671,-3.6563626831111353,3.4297050118460604
-8.47925823353959,-3.8172409025576823,-9.127807375888942,-1.604028481803018,-4.4813526234163525,-2.411022749376101
-20.038631091102857,-22.786495991067557,-17.341954307231507,-15.467969586992107,-15.480938901313472,-8.215680579867062
-4.372972405720686,-4.323296318754665,-4.5544608868832945,-4.480072150879524,-4.6691642302327026,-4.593518988132428
-8.235497062157151,-2.1801457227529806,-3.784266701646776,-1.3891949585430399,-4.419206991959506,-2.0013089741333165
-2.3125434030673593,-0.510915929204338,-4.457094510411685,0.6333420661322552,-0.1049376615099632,-0.8072671062634434
2.978610278087377,2.3149496114477577,2.1198580740667095,0.2076167112620665,-0.4701611278104305,-0.29115972940697704
0.6269359690394768,2.3734248844700603,-2.2959642475497652,-2.483189820973006,0.9906497219375602,4.171791753683039
-13.33537640919604,-17.424330611687672,-13.924302607253193,-15.383829725756593,-11.224527710860977,-12.790810333700698
-2.644586367177903,-4.364832694002601,-3.1242469158714026,-2.5852208003007044,-2.459080288807351,-2.66601943560179
-8.495143061722025,-5.896871593636106,-3.66125020002929,-8.339791936690421,-14.07648745795697,-7.227940877361284
0.31611362276530136,-0.261881541117262,-2.793147303844156,-2.1846433947554966,-0.8742350851830206,-0.46794968398725617
2.403044392480071,0.9622564041853032,1.458155798795131,1.2014276617168067,1.9326698630326986,-1.3776895000326561
0.6695625440737651,1.8630700577379795,2.653823483720777,2.421739572849927,3.126643951050924,6.736877045811579
-7.3257889965993135,-9.46844084234679,-7.193567236491645,-8.22120065707052,-7.1042852057777495,-7.7227250273810935
-1.8953043608241604,-5.0095282614553485,-1.5595104560748134,-2.2769956934670605,-2.146161429787423,-1.9397251297240534
-6.612438909422502,-5.66211485277526,-2.126773911240357,-4.716208950008062,-2.8739134168450495,-5.846894825122002
-4.824541337044632,-1.6110709629898634,-1.466562237871035,-0.16424053728294694,-2.613708339489409,0.5028456112857362
1.3187958410930718,1.315522284073157,0.4445765884283462,2.298836666147882,1.9482899684722876,1.090954710720641
-1.5549745260900085,-1.5200028787910709,0.33203640832416903,0.5948564117955267,1.7550700748735435,3.7537304632851436
-17.431226218224825,-10.172847719023144,-8.91113913009602,-5.4582484391043105,-6.2586603036106006,-3.4115490858828252
-3.945565537517969,-1.6330720294768386,-1.126004032535242,-0.9751872464115581,-0.8094483232793095,-0.6669752075450757
-0.9843849519729683,-9.40574242980964,-5.6694435759019886,-1.939846464910631,-0.46243311853885766,-1.8278216691646416
-0.331038328363171,-1.2975084985512007,1.3193626940167222,-0.2888400277328985,1.0937126938262698,2.731134624102462
-0.5144559131094347,-1.2682045873894776,1.4855096631797278,0.2595862753744176,0.6613848720023193,-1.087512280467964
0.4513214016939203,2.623648905909356,0.8827671236856115,1.9645500048806155,0.6048223181272787,-0.11085375756251159
-18.887543727789033,-12.79092143945962,-13.624502935386783,-13.501452685361489,-21.6742930026047,-15.738314747782963
-4.463377037035499,-3.0393097429555653,-2.437305519594274,-2.4768493359159187,-2.7290838476125674,-2.4381862470791313
-5.349764786186606,-2.9505196061778447,-4.692253884888751,-4.01367204264588,-1.6121404037193918,-1.6966206511258644
-0.36549348309069307,-0.11396195371362519,-2.1355713484175505,-1.285010695696423,0.4916316191101098,1.429930833240712
-2.094021783380799,-0.10622234372042226,-2.89026508858412,-1.7198468683413206,-0.0726311470431459,0.2532307983896632
4.936247809267532,1.0572910635885142,-1.6848683545150291,0.5374119379044952,1.0549455406575377,-0.445062200219526
-13.14590006443219,-12.214946923474566,-14.10141528497,-12.115631395085549,-15.316470012030663,-15.717528719502363
-4.6289726328731815,-3.244973525196168,-2.6577161160443086,-3.2255264533180874,-3.1025022139793395,-2.854881743532885
0.0,0.0,0.0,0.0,0.0,0.0
0.0,0.0,0.0,0.0,0.0,0.0
0.0,0.0,0.0,0.0,0.0,0.0
0.0,0.0,0.0,0.0,0.0,0.0
0.0,0.0,0.0,0.0,0.0,0.0
0.0,0.0,0.0,0.0,0.0,0.0
-3.3418855175255704,-3.307918933188765,-5.725022669481281,-4.877582503415386,-3.276148443266187,-4.104230562009446
3.0568416121269992,2.5455794675580883,1.4488802309239954,-0.9433428064014918,-0.10726966845811682,0.13303748679978739
-2.6284620532981346,-0.0186941112817548,3.245718977274297,-6.286746223319482,-3.656575951732855,0.7247537808176764
1.9613054569981472,4.058452603317986,-4.317994220433473,6.857500581788876,2.688657403029843,1.6123443200273657
-19.56576684040892,-13.293998480389147,-13.687312828125672,-16.066815672874274,-14.545668576462182,-11.900770059215528
-5.149315249053987,-4.502998153668204,-4.309833087138569,-4.173979189460037,-4.9217329208209275,-4.641437091087806
-4.026968183331207,-3.6585855468819894,-1.7813642612213503,-2.0800702443461683,-4.04303574657948,-5.921373191115064
1.4224191949227325,2.0244310356008244,0.5923682888445965,1.8816169632530835,2.0096680771891253,-1.7228498653365285
1.4205481077537374,2.5654437424547702,2.5407460588177435,-1.4868842881250381,0.19028092904769148,1.4430937950838791
-3.0160501812685467,-4.82439100015282,-2.626084872226462,3.0936134989808943,-0.5628110255459294,-2.252873553106953
-28.557617386194217,-32.983449101129196,-24.678998565818873,-26.717402408304284,-19.35168620209875,-17.1175759890859
-5.8600197751912555,-5.951374788021891,-6.334898874702205,-6.043229675627943,-6.334280161384782,-6.188340391212986
-3.887010632180389,-4.2240559501182835,-2.7740211215634036,-0.4829426439006779,-2.9447929312088883,-8.141010378185594
0.1518363638606341,2.0410289125077257,2.5557302972978793,3.274448883254218,0.5536772305290747,0.7628621212822316
2.4297601145310157,1.256857343633617,2.5906564812037596,-2.1670065792846347,-1.1017489711795143,0.8008779925335392
-6.4183044775849805,-7.943209156475161,-4.375706101664279,-7.604119060985526,-2.7103755937554617,-3.3406076673367657
-31.392584456122936,-36.100467164256465,-28.47342545157612,-36.91666435175241,-18.034840850657076,-26.474007176876707
-5.207525151516673,-6.706537169972514,-5.248642585101613,-5.081337093327289,-4.982659603548725,-5.429148448122556
-6.181535201833157,-2.389649050084016,-0.13026669323877055,-2.569597735989985,-7.555121783929082,-7.613131886575777
2.1721079213986743,2.2473344464576033,-1.5656811551107745,1.360018480778643,0.3472437720885005,-7.144774745634957
2.5397804181373567,1.9758397026033592,0.43346215064443455,3.28056107036022,-0.2568193180176771,4.865030927709574
-0.4510698319563061,-7.9000177796212485,-3.6239401734577554,-6.667145083912695,-0.6582210749517703,-0.9677641589113662
-34.21392413924766,-27.804243894376874,-27.667040689356167,-30.717860860295154,-14.672479753958802,-27.868575625861897
-7.414579506087219,-9.419272312643587,-6.604290184914366,-7.074322991270205,-7.17982418175908,-6.747722755907261
-10.556369163403202,-5.952199983536972,-10.549881413461796,-5.4408166063019365,-8.1745778808175,-4.907731468798735
-5.056059786862149,-2.4649883615962342,1.5417141371353837,2.6943311839931474,1.1818541976294314,-0.9962728702879147
1.4790345470602835,0.6481933220063834,1.8641903857376858,0.8617598972166859,1.8414534714876576,2.647977534932265
2.561565430513972,1.2479554095753813,1.1237860176897725,1.0786322095107512,-0.1835622199267325,-5.9998859574227925
-23.58213019317966,-18.884537873590105,-15.642609815372392,-14.143586834828483,-15.326076054808347,-13.108386426089876
-7.332216560527177,-4.041649309272299,-3.3981735110614038,-3.1748926667757553,-2.8606568307956275,-2.537109121744779
-5.726396252626193,-1.3026392749583664,-4.566879952863684,-6.035573241883592,-1.9759904991344377,-3.3371949788212456
0.41379881944374103,1.220764248638786,1.2570924319739905,2.946971069982689,1.2190894219343893,1.7512204602008699
1.430756111388852,2.1985454980104566,3.2209995108325478,2.5317211476274597,1.5831962690169301,1.282508744602213
-0.01574520396002947,0.012284431983941576,2.312913879995515,4.25370834079116,0.06078564242739609,1.756264970235914
-13.604073865844244,-6.237550607021676,-4.567859383158674,-4.234261156300724,-11.72186955858233,-5.863713645203596
-2.407238069558928,-1.3843066279841314,-0.8672902938862206,-0.960072521009004,-1.2119309734122137,-0.829633661714609
-3.2053457295235073,-3.591470969838768,-4.341099892598719,-3.5068652667892057,-4.431519123277216,-3.609668965347154
-0.8276536259795966,-0.4381078993069257,-1.1641974884796569,0.4439523072247473,1.7770577026443495,0.973816943542657
2.297292098405436,2.1480946445803437,0.9599278271970251,1.5411194978186329,1.9425713199629848,1.798474681079729
1.643262741844968,0.7076850136986373,1.4533246346601087,3.2633849299087956,0.9606974486175546,1.2419087831236524
-13.382092141680879,-8.431513752331346,-5.639604385162951,-7.850404835169668,-10.928867453154082,-8.324771817188761
-3.650277520766906,-1.8214018338941271,-1.5459729147162744,-1.8722024274650597,-1.963435265842567,-1.5630592267198973
0.0,0.0,0.0,0.0,0.0,0.0
0.0,0.0,0.0,0.0,0.0,0.0
0.0,0.0,0.0,0.0,0.0,0.0
0.0,0.0,0.0,0.0,0.0,0.0
0.0,0.0,0.0,0.0,0.0,0.0
0.0,0.0,0.0,0.0,0.0,0.0
-4.649871694448615,-4.285818270493983,-2.7849515846191624,-4.6589002381642715,-3.2866277478572594,-2.309622451095773
-2.4077696116941114,-5.738454056085185,-2.657583855385479,-2.0590859287028844,-0.04501665245891361,-5.021792995464424
3.1735443551394655,0.4667397232847336,2.2293002907307,0.688381080508624,1.0505164982506534,1.9864054260469861
3.5547966950367216,2.961655375838925,2.7732009434388747,2.402932446753472,6.18934758309225,0.9916917834439967
-8.227747377479531,-6.898689303964952,-6.446613956831047,-6.828948675670976,-8.533371614315822,-7.484427612228798
-2.086968908522943,-1.815360706026895,-1.854948704821014,-1.5177946983620274,-2.1688030322105725,-1.7936156732367334
-3.3857703211824397,-3.7488993609713144,-4.977243137595438,-4.488541574548683,-2.7976454948474934,-4.499119325973386
0.33347593046046026,-0.5000401243116487,1.0527024032660757,0.05361602198126168,-0.8921858390852662,-2.003599019971981
1.2983098850053212,1.3560882493283597,0.7954165338296088,1.745868606790876,3.0878815593572115,0.3851781241197607
3.5313094831556775,6.1395396022992355,2.9892320376500647,6.526654520728948,6.597388103127898,4.102883422602241
-7.971938816023026,-9.30958231658328,-9.07865006551572,-7.999701660208188,-8.995921244314337,-8.805590381473458
-1.794123135909407,-2.0728973907766512,-2.811117620419516,-2.3526701350131867,-2.143492984829493,-2.246915294448389
-1.8090967104726392,-2.6965379967282623,-1.297061169733849,-0.5714809282027575,-2.508330779883219,-2.4524948760334357
2.2375821883358267,2.0653553633870554,1.0838319723632976,1.896121959152146,0.43346894797055324,-0.9441539741747057
2.1888085099425205,2.302671136333321,0.9277639259910626,0.18551739450740518,3.73060661317418,1.3127534540943535
2.4416941052195775,1.347904831667369,3.1575019553293533,4.778250562570148,5.254673939878326,5.3998672856535075
-12.731385912220977,-17.456588206242305,-13.932705068729529,-14.057379930995149,-10.42963175210114,-14.527195588324616
-2.618035110732075,-4.324856470888976,-3.0888319706137053,-2.5795647833193844,-2.4268992912074943,-2.8173157194100145
-3.865618329855785,-3.4703329050053,-2.8514217770863843,-1.602234774342446,-5.271317964133638,-6.398218349773767
-0.15148211954802482,0.7800789620033884,1.0577641315598745,2.6094184192088536,1.2894513740504463,0.4911533083360863
0.7049494965054278,1.3684048497343253,2.342027928807664,3.384498934312909,3.0017475065230657,2.8024535269482382
-3.9696675315107464,-8.982355224068831,-3.4328490586983382,-5.086920175537895,-0.6078108067944838,-5.928130340256209
-27.216313201287786,-32.349614002768504,-32.085091363298034,-36.66725442202359,-28.7653780231051,-37.610664752031056
-8.40300169629091,-10.897787684089106,-8.296216683254116,-8.655042960916116,-8.785910141798917,-7.918367736258349
-3.012749419005964,-4.747330501119452,-3.8830068788278402,-1.43824610536088,-2.902843381498175,-3.0465715250598526
2.5280156708017896,2.0702911179039005,1.7289760509954382,0.7250063354373282,-0.09175841839855259,0.7145035962957816
2.217802657553714,1.2724988364873224,1.7496368535427218,2.1831851873167776,1.2187256206344905,6.866080728506435
-4.43651471518664,-2.8332325109616723,-7.627215169443149,-4.00479535754897,-4.114692034177567,-6.714373464014312
-21.876720520868894,-30.003831791740698,-31.301778923064656,-38.5341491546872,-35.61493251144372,-45.71249698689499
-12.741408465379829,-9.10906030880715,-8.024701495810367,-8.438974953797011,-8.24335260840633,-7.454826433350027
-1.7392746012401015,-4.475249629863455,-0.9541295213834051,-5.466531171881806,-0.17646127950526952,-2.393679104697034
0.8808685101519529,-1.547325876493915,1.9666679259587279,1.3933687422122831,-2.088171686447378,1.9709525560494683
0.49086850999438736,0.5859521658399622,0.6116032013687105,-0.09762130828543217,-0.22761478287436024,1.6113434838136915
1.2658815442085254,2.5197909108587493,1.5353382556812842,1.9126992331235049,1.6911253955746472,3.0001976961395047
-21.943223793477497,-12.710845160615772,-16.443668875513634,-13.531270710268128,-16.982383748954128,-13.535486049357642
-4.372673495730346,-2.9650705069961822,-2.135578520291727,-2.534546511028503,-2.7596109349425744,-2.2698310156261625
-6.331781570430604,-9.720695614244754,-2.5976946021634024,-5.694301917694822,-2.1271556436582504,-4.051073654749215
-2.1731815239480263,0.07491560604578185,2.2084235002070667,-1.4181249363883195,1.5524575557839626,0.7916374822886044
1.594639305301628,-0.3124499879129863,3.305787048831954,2.6820395016610328,1.79474918194195,0.7305508516149788
1.6791056252695449,3.0301967567436985,1.8447401798495164,2.320574826545327,-0.2186210764771067,2.3297519723609916
-17.0588529194622,-10.115295486053235,-8.392953396895559,-9.22554975824656,-10.278974099406524,-8.92057694325362
-3.9954703903116484,-2.1537225104004607,-1.8358139512640113,-2.034000783298155,-2.1274270084178792,-1.7468787166640922
0.0,0.0,0.0,0.0,0.0,0.0
0.0,0.0,0.0,0.0,0.0,0.0
0.0,0.0,0.0,0.0,0.0,0.0
0.0,0.0,0.0,0.0,0.0,0.0
0.0,0.0,0.0,0.0,0.0,0.0
0.0,0.0,0.0,0.0,0.0,0.0
-6.925728061516171,-8.404337770705887,-4.98477090982264,-7.021530990071713,-3.380895442898676,-3.6856890877606223
0.030498446819698835,-1.8813433950538416,-2.6132164508378084,-3.0866675977968887,0.279985830177593,0.6318584301647958
1.4886524070636165,2.793531686491843,1.3319080278706745,-0.8518280542147904,-0.7878341609427166,0.44182231175478553
2.332109615024428,-1.0323171164104967,-5.908832253376902,2.0350520691147183,-1.478795509950458,-0.04715098772517554
-10.712330794783059,-12.67138902618365,-15.15074179437916,-14.787885369333088,-16.5351518568729,-18.259716538828886
-5.091292867349748,-4.606616673161234,-4.184721449485867,-4.189579777785725,-4.8146096015491935,-4.596964202162267
-5.484937150608494,-5.162012596689018,-8.220067496450623,-7.553658775665653,-5.55082687327405,-3.4107812521305467
-2.728819461242067,-2.5468711072693577,-0.7144076330043178,-0.32723140915917237,-3.923733148264773,-1.3940752518315067
1.147710379170173,1.059416486037946,2.0510309983449804,1.1342137400321806,1.5313166890581826,1.6312685876385464
3.2248377369781744,3.9680498107832123,3.263322647981187,4.5432161348303115,2.052881828788632,2.784517145895815
-7.5321130042111015,-7.51557828256021,-9.292307422548976,-7.39582321505294,-8.532777011728438,-7.545731713890022
-1.5314767206484687,-1.7129321271569105,-2.5158261441668683,-2.0901490110480174,-1.8977915624472572,-2.000823418774598
-2.9682371255440523,-3.3456740627801236,-7.863660724511547,-2.828452965009039,-5.819546047418817,-8.378960337145923
-0.004734325152651817,0.5030472015413188,-0.8776716284831257,0.13858039287394597,-1.6327005277291669,-4.255199075492016
1.5128955765186047,1.4835859137580303,2.5598035045197314,3.3496981593833395,2.4501030961776866,1.5751229613204405
1.8899225036399994,1.9949333084357572,2.4937076663587896,5.165448225345346,3.401921214227265,1.6195169913146237
-4.068072111238772,-7.313214644608394,-5.354564462255172,-3.791149767922457,-3.611846832816869,-4.414517484913112
-0.8898867682680548,-2.812885521734213,-1.6296047818616177,-0.9210259503381036,-0.8034773968516322,-1.0259958308482546
-7.337261501093261,-6.436629476578415,-10.495822082091268,-5.4425382028428615,-8.863826243862922,-7.4610046756931006
3.1347322799438073,2.508747437948602,1.9373215350255895,1.0849790745079815,2.0180847329947444,0.8756780354357563
-1.2808259073230768,0.23646111523229482,0.11719362889685189,-10.29939050547284,1.2091039641534287,1.232961751397014
1.0971438798238065,-0.09438355069494117,1.4767177912190161,-0.2227762858633219,1.0852798773907955,-2.200608308547204
-4.570833147054231,-12.341915976185481,-10.067702288487114,-11.390810458082413,-14.615823516021598,-13.137482681475175
-2.6640336349050027,-6.074140245124192,-2.9049705519018056,-3.448242772962551,-3.3508691934926205,-2.923195404973791
-3.599022382492395,-7.197213091204771,-4.619219119516707,-4.865411642659579,-3.4324065774155526,-3.192935194495039
1.0516183898013318,-0.3723983643694698,-1.9525592449893645,0.8917273286220814,1.9605455027190872,1.724562890864183
-2.14021149971315,0.9613692190314578,2.9530933023969554,-10.302998585911688,-2.1066416501835765,-1.897771078958627
-5.401771789521577,-3.479775989079102,-5.555411524994175,-6.9980923878850545,-8.288131373446731,-3.468953552910862
-20.067546603652257,-25.96701672643553,-27.79465460371351,-37.08993129811461,-31.20902588321564,-37.38650995059149
-11.669120320421184,-7.824105794669352,-6.77672645288395,-7.289499660795603,-7.018337241494712,-6.498496142605357
-1.88538963544992,-13.653766250523407,-0.9966228443413288,-4.585908290065603,0.23624237413349666,-3.857674685297049
2.4383157754036398,2.3871375358275486,3.089326455267632,3.905096086183599,1.2545272449251936,1.1603153001832878
1.2659703123451091,-0.47657761552501665,-1.533812314911926,0.631354537100654,0.3924011879929288,1.3976513877181083
-4.042422458769507,-2.7990241681331316,-5.166404167343198,-5.488219585447685,-2.7292216177982933,-3.5626491033340377
-29.579021034233246,-19.5704030091096,-32.83699893568169,-29.961815619117928,-36.73075990538414,-33.03132295942928
-7.498655290499701,-5.464890998944075,-4.310846516040552,-4.858567954003203,-5.041856294166025,-4.609384175141914
-3.584238148553041,-18.552275759253142,0.030182002451296652,-11.12455407733198,-0.5524610413842648,-1.392429077171681
-0.1953708619475413,1.6305069646925048,1.842753116237699,2.2969331004512927,2.1827010653195633,3.693096391960814
-0.03262442714600139,2.09536347713024,1.3631743514863657,-1.005324352185925,-0.047033644558415334,1.5095189093701948
-1.2151339374899572,-5.378539428864394,-2.2229559817493363,-0.8896158210448966,-3.3381143917191056,-2.999749717032217
-27.980520496625346,-21.643560462683237,-27.03358366653609,-27.63045287448934,-28.527576251016857,-32.50485633677689
-8.866216666130581,-6.552710081328148,-5.263277274508976,-6.123414489625368,-5.739321756560793,-5.553085001267209
0.0,0.0,0.0,0.0,0.0,0.0
0.0,0.0,0.0,0.0,0.0,0.0
0.0,0.0,0.0,0.0,0.0,0.0
0.0,0.0,0.0,0.0,0.0,0.0
0.0,0.0,0.0,0.0,0.0,0.0
0.0,0.0,0.0,0.0,0.0,0.0
0.0,0.0,0.0,0.0,0.0,0.0
0.0,0.0,0.0,0.0,0.0,0.0
0.0,0.0,0.0,0.0,0.0,0.0
0.0,0.0,0.0,0.0,0.0,0.0
0.0,0.0,0.0,0.0,0.0,0.0
0.0,0.0,0.0,0.0,0.0,0.0
-0.1203815107910152,-3.293279683355326,-2.1824566332192283,-1.9947900298591548,-1.7456763297227957,-2.840744307934797
-1.132217156304203,-1.2334375757470974,-2.3151532896842233,-0.4014594555817562,0.17512219985667807,-0.15487647419322068
0.5632699212375566,0.04263507257944608,5.015866243319526,0.937343719553599,2.567059534812657,-1.0415610267966717
2.8673443262470055,1.91391822904199,2.0952781577155757,2.955049711830848,7.207088860136335,3.9011520908879462
-5.1921402559215055,-4.917597538421604,-5.146018230160814,-4.049022150638502,-5.785958341042828,-4.023187991120356
-1.0397886515951342,-1.064979775110201,-1.3232148624132885,-1.1922384288232568,-1.1480062765502506,-1.184419551995154
0.0,0.0,0.0,0.0,0.0,0.0
0.0,0.0,0.0,0.0,0.0,0.0
0.0,0.0,0.0,0.0,0.0,0.0
0.0,0.0,0.0,0.0,0.0,0.0
0.0,0.0,0.0,0.0,0.0,0.0
0.0,0.0,0.0,0.0,0.0,0.0
0.0,0.0,0.0,0.0,0.0,0.0
0.0,0.0,0.0,0.0,0.0,0.0
0.0,0.0,0.0,0.0,0.0,0.0
0.0,0.0,0.0,0.0,0.0,0.0
0.0,0.0,0.0,0.0,0.0,0.0
0.0,0.0,0.0,0.0,0.0,0.0
-1.7375031445386104,-1.091240031842487,0.6344617169043962,-4.664970489903443,0.22099549597780974,0.003933955227355036
-0.8483420856895056,0.9184086468150757,-5.300251225437816,-2.7795695700482415,0.45821748842953747,-1.7198773432262229
-1.237876373308324,0.4050870236792948,4.538302079557002,-1.1489768005650622,2.198346804030556,2.2268450869912555
6.906153669738404,5.885050473578045,-0.2895517009643265,2.073424763928913,-0.4131435347782239,2.4425946569514543
-7.976786462129437,-6.453035043754662,-6.133247932283541,-6.437905469800758,-5.526028986453761,-5.29632948658496
-2.6390323912260563,-1.4592836111397383,-1.2085617781470106,-1.169608278517254,-1.1029816516305864,-1.023786057475292
0.0,0.0,0.0,0.0,0.0,0.0
0.0,0.0,0.0,0.0,0.0,0.0
0.0,0.0,0.0,0.0,0.0,0.0
0.0,0.0,0.0,0.0,0.0,0.0
0.0,0.0,0.0,0.0,0.0,0.0
0.0,0.0,0.0,0.0,0.0,0.0
-1.6416787509027286,-5.038983196710682,-1.169860738669859,-4.9843162746544305,-0.4664057530236409,-0.35011363431796105
-0.790406596889235,0.39589946538077303,1.7012376753928888,1.3382244472196863,1.3290235373066988,0.6278301660338557
1.713887293789758,0.2914803115523973,-1.4142312885003245,-4.2785082705827735,0.008427574910129833,1.3702347421967458
-1.3246266608163935,-2.2256534723787573,-1.386264693342041,-2.111542851306432,-4.669278510059285,-3.496822236049911
-7.784615631862592,-7.0690592584260195,-11.548634446851986,-10.216891745527375,-12.445352450777053,-14.575198964144327
-3.539444068808053,-2.7218714967599413,-2.173197248139253,-2.5948917216739686,-2.3861408779997144,-2.365843365829128
0.0,0.0,0.0,0.0,0.0,0.0
0.0,0.0,0.0,0.0,0.0,0.0
0.0,0.0,0.0,0.0,0.0,0.0
0.0,0.0,0.0,0.0,0.0,0.0
0.0,0.0,0.0,0.0,0.0,0.0
0.0,0.0,0.0,0.0,0.0,0.0
-2.5088409733005212,-4.935077027829762,-3.1426664791467043,-4.428309827157418,-4.3463648515499065,-9.527576857670363
-1.27090105747075,-1.5789240908865885,0.01902955023145715,-3.020944410834205,0.37451770073631874,-0.972100251550748
1.4558740858526136,1.7554176151572567,0.19882758122949148,-7.526348593540739,-1.538797239927038,2.343966971347635
-1.5591839240871062,-5.5803004209289595,-5.142283828545727,4.905905059904831,-1.6131545449782572,-3.8663257906019077
-23.744335307661444,-24.86697489462683,-20.444963958136174,-12.331193182894426,-20.43745947653233,-19.508786849537316
-7.446317444420162,-8.517827067239256,-7.792190065706768,-17.032973068719485,-8.091013205484773,-9.53786921656401
-4.163203558458731,-4.7248448144320045,-3.4246146295809647,-3.7721746080310936,-1.7889304356751217,-3.412393791627526
-2.471801490026768,-0.6893630239627525,0.45078663098828115,-2.37340371201251,-0.24044176851386942,0.46402067023117893
-0.7043166242598808,0.7137901257259277,2.8990757303360515,1.2644418682138,-2.1568772374606775,0.8161124150888742
-5.1626724374450905,-1.0619007094159454,-5.964207773780312,-1.9480616684920242,-3.1826766023495803,0.5310247467159054
-21.49583937957121,-19.498593927496394,-19.81805857769456,-12.325420510953858,-15.27513559294122,-11.730386917189366
-4.128678424577774,-4.092505086343429,-3.869570413800142,-6.302001831044292,-4.271846545777144,-5.256676597302673
-0.7074552219291401,-2.8717096887415705,-6.193189817797309,-3.333613481378327,-5.677842322662632,-3.0628142242715475
-1.2972600796309421,0.600367740248976,-0.007977413509397693,-2.3747949850163472,-2.2932685934066095,-2.9288453003024624
1.8769621064836688,0.5951748139119136,1.4443364427179208,0.5921372471910609,2.1533279790070075,1.3696491579767065
1.573916545326682,2.4799716503977693,0.9883947261890366,-2.5133768214345715,1.3150111249296474,4.151069507749513
-17.187512188433054,-15.086275704725647,-16.191233395674203,-13.574198431509299,-13.465186997923276,-11.504735723001733
-2.5487426134267,-2.6989617502021384,-2.63246253501363,-2.5485470374459216,-2.5757354706078086,-2.9822936706893737
-4.877033583974364,-6.7236134375091705,-8.187389269478738,-2.8923614714188726,-14.88127894074659,-13.435098159364726
-5.3484873895542755,0.41849660260769994,-0.779348929554459,-2.9533656247809086,-1.083306746214585,-3.21156834862211
0.5862652441637242,0.02621096942472168,1.440435077823139,-0.35028799404091915,0.03854734596215159,1.3878354123616778
-1.4213251373103697,1.4463291967902194,3.795609334014799,2.6912770121050316,6.2993259782520346,2.8798568005087763
-8.651915969623104,-7.882408856298349,-8.514598160032747,-11.312057985251815,-9.726668363840943,-9.340976500409674
-2.0438221274668233,-1.6835906923873682,-2.286142530556408,-2.545273998121158,-2.53440326363035,-2.601558539749539
-4.515605671631331,-10.247362433757557,-1.443471543727755,-3.3677308798348813,-5.3962614713780015,-4.711926610097291
-6.87981267054288,-0.42421576357279844,-1.1912743718706647,4.564568183701789,-2.474247285431248,3.3514770109914145
-0.07248030669699566,-3.090005403139233,2.6056629015939605,-1.7938298715768932,-3.493211741991489,-2.7828692096136196
0.5871728751790816,-2.095915337978318,0.5940033517821826,0.37877028459904694,0.5995944334715824,0.8915732702576801
-9.304149549091242,-7.698174210109567,-4.612213626960579,-6.712960489907314,-6.037346062526473,-4.866567381102349
-2.3822056830169407,-1.3335149064590663,-1.0800366529629895,-1.489378748156759,-1.1699242497673115,-1.2166318003317944
-3.48330000819603,-3.5990439248048074,-4.53775131691897,-6.276334668422117,-4.31592355164084,-0.6338317208897472
1.2764510263107192,1.873396550778326,2.445850235627139,1.1261554723821856,-4.928152458708973,1.4835600859845173
-0.17606217716864428,-0.08583176312941435,1.6344612425491918,-1.3265454855072623,1.6860325482295835,-0.18954971900889211
1.8552544170216902,2.1036238342709477,1.4636198358773518,0.15669540058324252,1.2925115231436173,0.20829440230689084
-20.757499508339386,-15.385943138746214,-13.363810071869459,-15.598352749136149,-21.590382531888267,-17.298992703820193
-5.279987796047799,-2.95020392806919,-2.0782666854526477,-2.6486340036261047,-2.956233244243182,-2.582515145278026
-3.3518196102631284,-5.395558490314564,-5.27865635337491,-2.5477886524992006,-1.6831035903193865,-5.578145410951727
-1.2977146820291967,1.4680751222368267,-0.0024656336603610897,-0.1481922363245249,-0.08830534805524395,2.669735252307407
-4.86863860700286,-2.270101903057835,-0.7190150957537332,-4.148858211949773,0.0395103029316253,0.07953657986099534
4.8271285725172595,3.606682509421156,0.21310584336165897,3.1209301553445385,1.3851080014928026,1.424253078300614
-16.899034062020075,-11.219435340913384,-15.487629303766207,-14.839686518993572,-16.451244416712075,-15.160422790546637
-5.639545221444649,-3.7178968135516866,-3.25140855024031,-4.073798178435866,-3.572056212942937,-2.921128823526854
0.0,0.0,0.0,0.0,0.0,0.0
0.0,0.0,0.0,0.0,0.0,0.0
0.0,0.0,0.0,0.0,0.0,0.0
0.0,0.0,0.0,0.0,0.0,0.0
0.0,0.0,0.0,0.0,0.0,0.0
0.0,0.0,0.0,0.0,0.0,0.0
-1.924498122254861,-3.66886205934654,-2.7562319632175263,-4.60660336926047,-2.637027088774332,-4.331736738831103
0.06499947945928597,-0.2003546558061762,-0.27731593266790927,-2.9890440666042943,-2.01022063273329,-4.791746008833303
-3.8325879616308676,-0.8654056257721718,0.29139705608578986,-8.093484585977201,-1.2425001126375996,-2.686718388527686
2.516290188244914,3.037666480694583,3.25547097576131,5.230584281456206,7.052413502279035,1.4534356402036621
-15.86703030793936,-17.31931485131347,-14.728869269945875,-29.767742232698826,-15.002729273631134,-16.834594613157964
-4.223447174727681,-4.354304564382276,-4.372226538966465,-8.000847166291258,-4.419168560678252,-4.941744844763881
-2.326503116747339,-7.0785283482938635,-3.049528257926986,-3.7255268793420995,-2.8107255220747307,-5.367789129238663
0.3523818742197713,1.699217870063976,2.6724547036237114,3.797160759484649,-0.228451783762464,1.1209871229817714
0.2654247840096107,1.4689359570085083,2.156238223693693,-2.1043169204547856,-2.8463312511622125,-2.3348626636390684
-0.6770490064390754,0.7829982153352039,-0.6337211805942478,3.640607041027952,2.9338826174991186,1.6660380984539866
-30.133133848292108,-27.548296046697438,-28.02220799840087,-34.32661420817545,-21.435596114653876,-22.78410471529374
-5.755800797435719,-5.429213253144992,-5.259091194185571,-8.375240673171726,-5.888728798517512,-7.15311655629891
-2.64911685886978,-5.27831820473141,-5.518895029680126,-4.423794983746597,-4.242419606522695,-4.617483373825027
0.8792578238491928,0.3157817125903787,2.9108782218700395,3.0050776572163005,1.5826103789507704,1.793771659704108
0.3498550442526159,1.3601773719596597,1.8255022830045862,0.8848153147442519,1.5143269530655572,-1.3210452232085101
-3.9608101915617007,-3.6242562133347938,-4.776798081207091,-5.643128268564111,-1.4436503742231641,-1.1298704874032273
-41.92687649701872,-38.23563800575071,-38.64306384635239,-35.829333445857635,-20.4554200656701,-23.198443678662795
-5.143550023457776,-5.314419874233834,-4.972786384211404,-4.88737701562391,-5.183892855895754,-5.660361702205019
-5.305833978249631,-1.7046439306400978,-5.539673115425298,-4.958540919291262,-5.714146106189496,-1.2149276962701434
0.05202056120757506,-0.21001106565609157,0.1682008596594865,3.3423622971049167,-1.0859412416255765,0.44683885679161606
9.040184265262216,3.567721976714662,1.5195213716723643,3.1013429673952735,3.2878773235920726,1.2838833477427785
-16.858405398093648,-3.6934033920472316,-7.439529325355697,-2.5438403126538147,-3.639323935863254,-0.21596412164153278
-44.99542947187452,-38.499918185968035,-31.762179177265924,-33.67949872877996,-18.306637201605334,-25.34224576858545
-7.222013702602109,-6.227825850150682,-7.175309989874483,-8.047533394940265,-7.503663845185145,-7.455405006101251
-6.197937766463469,-5.882323715475298,-5.833984667763911,-8.355783553232724,-7.35063505285413,-6.798095284742833
0.9910582659628802,1.3658062145933056,0.1732472103879475,-2.592708544293699,0.7108714461276541,0.2790367243672138
0.8123964113063494,1.6320767865320176,1.067775049401118,0.47592689521772075,1.8321899754478175,2.381294169301541
-4.052448726727055,-0.031740015528530736,0.6694912299090606,0.7819303277531416,0.03391667867539894,-2.2255056798174806
-19.706268204614975,-17.504488921489212,-13.879352366990922,-17.294701307629182,-14.569213036007165,-14.188812173216022
-5.056957979291904,-3.6145518898331557,-3.2108798456701324,-3.965488155095166,-3.297361215250847,-3.381295028867199
-4.973450062385163,-4.361427550937471,-3.5427989923601855,-6.942755163200799,-7.269286190358166,-4.034983872046059
-2.13424519889503,-0.12209910441466712,1.3756946504777052,-3.2851544809833753,-0.793900447433924,0.449501159842603
1.0533955563506205,1.5124125265744865,2.436015081957688,0.5457500110347838,1.6801847505437282,1.3767182127361441
0.9979584913472999,0.9260953997722564,2.7272620366406826,1.7403811691526336,1.180810273333682,-1.1521170657059536
-13.519970880076519,-5.137618523622647,-3.7753793534353473,-4.457072996608582,-9.072831466528863,-5.374374475781022
-3.731071355949588,-1.2644599025498324,-0.8032294770291512,-0.9466068359772605,-1.3433370609297355,-0.7811346798377875
-3.561915911890614,-3.102515406414842,-3.1725632001119926,-1.852432874397038,-0.9684839886194554,-2.668230420167564
-0.1540101152378363,-2.5082302110567367,-0.26976251421784897,0.8840127337412874,2.4560971778706193,-4.9486882145626465
3.119099624161413,0.9397478311666067,1.536215624244815,0.8123221448018666,1.0885389365442975,0.2495205797377113
2.060080055347574,1.4744031773929565,2.0048487912315958,1.581387689947855,1.3293686767323132,0.6632632529789846
-14.546274660444379,-8.794048402933251,-8.225575491795993,-10.42728678755254,-12.250786897076003,-8.279151478513274
-5.911237454588998,-2.443735817493388,-2.3997742294976816,-2.194471571096546,-2.4755754508914327,-1.7005510557003396
0.0,0.0,0.0,0.0,0.0,0.0
0.0,0.0,0.0,0.0,0.0,0.0
0.0,0.0,0.0,0.0,0.0,0.0
0.0,0.0,0.0,0.0,0.0,0.0
0.0,0.0,0.0,0.0,0.0,0.0
0.0,0.0,0.0,0.0,0.0,0.0
-1.5143517537836784,-1.1573970864225418,-2.7800513893251386,-1.8938741416194873,-1.3048831922209494,-3.0473492222633434
-1.6685930691791475,-7.26829294583016,-2.1166000969608034,-1.8581184956239547,-1.7483851457280561,-3.2817942696860922
1.4108791254308222,2.149308117991926,2.549281584965357,1.321636100201971,2.116270230942376,1.4196977778437363
1.7144163743865652,1.9544280245789885,1.3398716196373557,1.1341851798495606,1.8900876853325892,0.5459473226727336
-5.731883635554915,-7.388531123860371,-6.541811040779483,-15.164991925000416,-7.028167965891965,-8.046760940586756
-1.761142043735226,-1.551473851209261,-1.8925899240318373,-2.2415160026011636,-1.6985336880366129,-1.8770511203816833
-2.6706203348675093,-3.1017096173020176,-4.858742079430678,-5.457151510061793,-4.885524252114723,-3.5998745669814824
-1.4398351978328583,0.8459999190084303,-0.19904331461002364,-1.0640668624942236,-3.5430911305183157,-1.9756475373684736
1.8073365687768463,2.007535668025733,1.619414694802359,1.854472754301541,0.820511128688489,0.450745768608196
3.9034280942429476,4.271541670345643,5.284987716769725,4.4080617885395945,5.63170097970117,4.4325448365170805
-9.192479251059174,-8.37059972608673,-6.782082407301849,-11.892578471650609,-8.97934056633302,-10.932532056824861
-1.8755664167079331,-1.6196511466090049,-1.9040482320746817,-2.617756835835239,-2.0072781139284905,-2.431948717681242
-4.901498979225405,-4.872042543231439,-4.5219380422373305,-3.630763697785303,-6.478610742488842,-6.386645361674192
2.685096821794304,0.48485977662898055,1.4798271515577806,2.598183994595346,-0.5429268577080469,-0.24845753348414545
1.4085579900742466,-1.1808735127586378,2.8629219022737034,1.6986244319901156,1.4835903881894252,0.01387230016184243
2.6115070997026,5.044018032896177,4.480832509940878,2.9920167785054366,4.357963962692272,3.466806344901565
-16.105312892291117,-15.849456355705899,-15.25593869885302,-12.485950652743714,-11.81248669888023,-14.126624595714897
-2.425793808919986,-2.69541025936959,-2.5864877544298226,-2.4554680258028774,-2.401548787045026,-2.9668994665995863
-3.1812898046697913,-1.2640700146242774,-2.546754524330125,-1.9193783983750177,-7.576755699226449,-2.4061867329098967
-0.8273576110286924,2.65025514811262,1.3514203930122102,2.2974950639797145,2.5660994785036086,1.5964700605558495
2.198011751547388,-3.2994085603188843,3.409683239189101,-1.1573928457993188,0.8671773848497399,0.6526105274563219
-12.985720123532703,-4.63510129048971,-8.416722838457401,-1.1616836500617946,-1.0069039666903983,1.6634153255305841
-52.37540515303366,-39.77955958863753,-45.24000284115951,-40.20418431463842,-33.20810082597606,-34.74489978104213
-8.632913521076176,-7.5993572792944235,-8.914925109815723,-9.67716507619788,-8.859610399506874,-8.834054552313416
-3.757459710776966,-3.9489994644421795,-3.4275599269648267,0.32980187767571156,-5.806966439894846,-3.525228714126391
1.7590891355136231,1.1061810101047551,1.9106886924260094,2.2122306798528273,1.5553811906290569,1.3222042719013274
2.572998110717209,1.202168060955009,2.3759455408249317,2.739588841677081,1.6165786339642572,2.0473925725751974
-6.629797263615787,-3.7323325441929116,-5.57115397442177,-3.5111698531533784,-3.2123913163695366,-2.7559693240126806
-25.376972087760418,-36.75689766566226,-45.684428040385214,-40.9304544914817,-44.48351852183238,-42.548002352672995
-10.276041526378757,-9.04057306895624,-8.79073507469002,-10.352941908288528,-8.838761413055716,-8.466859789871249
-1.4395204336666445,-5.858906847668592,-1.633416561164269,-4.594953263754397,-3.718998542290469,-4.005118786943873
1.5540366635084204,0.51805545822627,2.575633344209768,1.8987124556114554,1.3973332889779326,2.6018130842824956
0.3231252431338398,0.8409234966264482,1.579135544899058,1.7585912830377504,-0.8270120312874751,0.8049959706325517
2.788951847476818,1.8016209069388307,2.6819851163819206,0.9791831113586403,1.1962567014650278,-1.871030192412994
-18.416607098965404,-14.8855489489772,-14.17389704049883,-16.904528439100073,-18.82284283468533,-16.857238939101286
-5.252854599328936,-2.9997376847103294,-2.124825007172356,-2.445969470821897,-2.998722545528023,-2.3994991200315647
-2.7343978791932613,-3.639676989084833,-0.5656478604363986,-4.284060319296551,-2.3175554833119136,-2.38158026918463
-0.5207920997146376,-2.524644485163588,0.1907503662287116,1.5510283322351732,0.23159420727835486,0.49771748680435257
0.5487307788821058,0.8483327763942399,1.6075485080872907,1.7712413502500404,0.5568904750375212,1.5658073406427448
2.456616776727922,1.5112503764448615,1.652940980077528,1.8853879874517332,1.6029806178597086,0.7079672716468379
-14.747827500720557,-10.844132744525124,-9.111073326779183,-16.826043489821856,-12.599959070263658,-10.597195282558701
-6.148059731838762,-2.650309176473487,-2.632783818275226,-2.458772491043953,-2.609414335985886,-1.9551301944040989
0.0,0.0,0.0,0.0,0.0,0.0
0.0,0.0,0.0,0.0,0.0,0.0
0.0,0.0,0.0,0.0,0.0,0.0
0.0,0.0,0.0,0.0,0.0,0.0
0.0,0.0,0.0,0.0,0.0,0.0
0.0,0.0,0.0,0.0,0.0,0.0
-3.117646749119656,-5.774929141783955,-2.474705492832505,-2.337811123686192,-2.365254743083993,-4.628363831565387
-1.8564728066223641,-0.9300574459715668,-0.7383766705245214,-7.4570405293905155,-0.6722768730361667,2.126207531756046
0.6198320277811776,2.2656465192720994,-0.5497337048494514,-0.5248999923990874,1.118853509621741,3.63798193386973
2.6752726612758555,-2.44559626673454,1.3664626948691954,4.122686443124046,3.4411182417617248,-0.7164714098394493
-11.805475522281128,-18.53852864018157,-14.832408145631081,-39.45790546542484,-16.435194800018767,-20.24350533013592
-4.113367652221421,-4.486028337131243,-4.377710493034914,-7.813988263802709,-4.351223537007113,-5.001285116140206
-4.771762385850824,-3.4430565206448795,-3.9060349127683196,-5.927462994847903,-7.042437774711507,-4.2177645278489
-1.5759012594686934,-3.4466960555556945,-1.5100554947943414,-0.3141620411447429,-3.3498623644176853,-3.3154118026840393
1.7103876783792507,1.825321535960252,1.4265458044259889,2.678896269096554,1.577049266372131,1.8764845624839968
1.9957750160317933,2.390604683354935,2.684667396147948,2.2964307710520413,1.2682154416466298,1.23212475827957
-7.07816896995657,-7.602517671592766,-6.120845535232878,-9.751729047190997,-7.113567814805242,-8.892930241852044
-1.5281701908222693,-1.4371520657573518,-1.6507585173567247,-2.264125828494579,-1.6882968221566326,-2.083746986955452
-2.516991879494833,-4.746642807768645,-5.8319906225316,-5.326374404893857,-4.800982214877055,-5.45851630378317
-0.48574482579479755,-0.0278832702545587,-0.9493749360759204,-3.4278480790515924,-2.1053013050298492,-3.5191314517480317
1.4528499340596637,3.049099699138892,3.064600219513265,2.76237832245713,2.1754195671104304,3.0872632606560617
1.640278966438459,1.6181386758567469,4.045864753173444,2.231110649727171,2.6222800398783073,1.9775918223479092
-3.7886792902106103,-4.108227703400565,-4.171008359803352,-3.2393886041615305,-3.822899097268993,-5.04493501147332
-0.7341757366277976,-1.0267431992756677,-1.046759925975866,-0.8871686887663724,-0.7800885203656819,-1.1804863713608251
-7.31471450965138,-1.643971986381169,-17.70527442241127,-4.751953343886595,-16.907175212684585,-7.699487033087908
2.729962045086009,0.9965562887273081,1.2042018444004474,1.9500029152141247,-1.3252945481259721,2.659474476920668
-1.2967754892321,1.2777780287163418,-9.045815469616459,0.9580578791175128,3.1710920286094466,1.2873516828640243
-1.4377536358206504,-1.1110749680690066,-2.514729089096224,-3.3445351864793853,0.011399061227023154,1.2755739759722502
-9.879108682465576,-10.303137038570146,-17.8917425954213,-15.169070468490327,-16.361035734916147,-15.21183818830891
-3.1578211449752605,-2.7615675544356937,-3.569372240453522,-3.8702623501202003,-3.6731378070449594,-3.664838321585318
-5.973398050859751,-4.669996968400474,-8.660330573263703,-4.505657298965414,-12.234502902356802,-5.632476172188723
-0.34722200539183323,1.049816858953302,-0.34986984114680325,-3.703224048450697,0.4532654799287779,1.5410860705689775
-3.656066049227566,-0.6366241574178206,-5.218112240216288,-3.4227863638244003,-0.875757732559644,0.05913352877420499
-3.431034807258472,-3.514657367447078,-3.6461774669020106,-12.139421796723441,-5.495772990136653,-6.183239629672473
-17.660941220543954,-26.610873979373725,-43.00142162115618,-34.04319326956415,-43.298718532396826,-39.68649101954968
-9.47575698114131,-7.8629292782277735,-7.710777701843981,-9.526819705375129,-7.977443813719179,-7.2943038376652
-1.04069459439324,-3.2668888484662864,-2.5614438571920672,-6.044435316997516,-1.145326117908372,-3.409555260390973
0.1308058330549696,1.2184160764419625,2.046900915548231,3.112893364202059,2.0624920635429875,1.3777864587501338
-0.5548368830767859,-0.45962115914740737,0.31955927511791715,0.24273284355615066,1.0756917165976134,0.22788632525004396
-3.8225316101655107,-2.2403438317630235,-4.953320375918717,-7.848610890278578,-6.757232158970436,-5.710432445114711
-24.971125708223777,-28.702441823607735,-33.494318804687175,-41.65943197970518,-41.54340837826559,-38.08786315504063
-7.660698955948851,-5.699510486091912,-4.053506532385979,-5.101828848085981,-5.51947462213403,-5.255461463889447
-3.6112056696588875,-6.538035980192067,-1.152500104629671,-5.832197925089458,-1.676328352961577,-1.9438449002939664
-0.1479152406927584,2.0939332291968276,2.9580672365980534,-0.7713480517645378,2.0756772239864962,3.2373618715917867
-0.766985967513404,2.313687298928259,1.6457719417457923,-1.0074016854419927,1.3853074152179357,-1.0375707521635373
0.03345479836594162,0.46144955915828634,-2.6624939506094245,3.524926819236464,-1.587912632998777,-3.795678004392625
-24.097353022679997,-22.218068960689898,-30.76600571080029,-45.493475467967585,-35.05030438536835,-34.733576530779054
-9.756418822941862,-7.123172996264056,-6.083110508700545,-8.073964310609231,-6.613022802130996,-5.792792646380912
0.0,0.0,0.0,0.0,0.0,0.0
0.0,0.0,0.0,0.0,0.0,0.0
0.0,0.0,0.0,0.0,0.0,0.0
0.0,0.0,0.0,0.0,0.0,0.0
0.0,0.0,0.0,0.0,0.0,0.0
0.0,0.0,0.0,0.0,0.0,0.0
0.0,0.0,0.0,0.0,0.0,0.0
0.0,0.0,0.0,0.0,0.0,0.0
0.0,0.0,0.0,0.0,0.0,0.0
0.0,0.0,0.0,0.0,0.0,0.0
0.0,0.0,0.0,0.0,0.0,0.0
0.0,0.0,0.0,0.0,0.0,0.0
-3.4376489762941134,-0.7150920930464022,-0.3095594408041525,-1.0548052091294815,-2.7420152863903526,-2.2229785910871356
0.013614673667236964,-0.564642850082918,-0.6573749516508677,-1.6228700757253411,-0.21807584733304503,-0.6008951172354554
-0.25271770973805213,-0.7565593990874122,1.299858925179782,3.220980245332275,0.8148308610905316,0.1108311163291673
1.3240851252273589,4.30959967908305,1.4775750314000071,4.946721433124044,4.607995089639788,5.360097245421607
-4.710152771231566,-5.172817816763696,-3.9494586341007794,-5.346152225348498,-4.230472677154468,-5.107963222016754
-1.0049950866624147,-0.9618856606509253,-0.989643102098869,-1.4918883355624488,-1.0469423223352623,-1.277723016012251
0.0,0.0,0.0,0.0,0.0,0.0
0.0,0.0,0.0,0.0,0.0,0.0
0.0,0.0,0.0,0.0,0.0,0.0
0.0,0.0,0.0,0.0,0.0,0.0
0.0,0.0,0.0,0.0,0.0,0.0
0.0,0.0,0.0,0.0,0.0,0.0
0.0,0.0,0.0,0.0,0.0,0.0
0.0,0.0,0.0,0.0,0.0,0.0
0.0,0.0,0.0,0.0,0.0,0.0
0.0,0.0,0.0,0.0,0.0,0.0
0.0,0.0,0.0,0.0,0.0,0.0
0.0,0.0,0.0,0.0,0.0,0.0
-3.7479356214981077,-5.098923415407276,-4.534870763719919,-9.010529248288604,-3.9470255018699114,-1.9011342054480436
-0.6348351845754497,-0.2545787955824345,-1.278937092255606,-7.034061494797715,1.2642437431855613,1.8794822549869636
-0.09844634517416054,0.6286896345851849,0.5297512407643734,0.03725839195188987,-0.45570610666531647,0.4459565418981711
6.725092091828138,3.7983284953344563,2.7656795100108513,2.8582367993431297,1.9465223499037956,1.7152984269460476
-5.010216286656027,-5.629323886602328,-6.661218083610937,-6.168762814552734,-7.530340462561344,-5.626006700780064
-1.9564898776185635,-1.3750335076509619,-1.248261216242425,-1.7566553381030072,-1.361796208715992,-1.2763104198661492
0.0,0.0,0.0,0.0,0.0,0.0
0.0,0.0,0.0,0.0,0.0,0.0
0.0,0.0,0.0,0.0,0.0,0.0
0.0,0.0,0.0,0.0,0.0,0.0
0.0,0.0,0.0,0.0,0.0,0.0
0.0,0.0,0.0,0.0,0.0,0.0
-1.6686261409030643,-1.882212608673965,-1.1891853508215458,-1.603134270570152,-0.3690242355378419,-1.0230138991738509
-0.5042590000318016,0.11483764461392479,1.1295913755161684,1.1959835729696227,0.12886504702602455,1.300596397565749
-6.334770900546248,1.0574319166931831,1.6906285858143186,-1.8104991283453604,-0.44218041000305386,-0.6211093127934183
-1.192160728326324,-2.623559902886011,-2.984104939284504,0.6102284994063948,-2.407786081711866,-3.493213827468378
-9.649999137478108,-7.2403611082390125,-13.63714041589881,-10.42239756653283,-14.490855736056577,-13.903000020355693
-3.762347812470605,-2.958231918225782,-2.4522390837834123,-3.490652779370028,-2.736578220578573,-2.4327331984282847
0.0,0.0,0.0,0.0,0.0,0.0
0.0,0.0,0.0,0.0,0.0,0.0
0.0,0.0,0.0,0.0,0.0,0.0
0.0,0.0,0.0,0.0,0.0,0.0
0.0,0.0,0.0,0.0,0.0,0.0
0.0,0.0,0.0,0.0,0.0,0.0
