x1,x2,x3,x4,x5,x6
-7.605668399932449,-3.0018466019967867,-5.408572838874023,-3.1292739004868118,-2.965019176842875,-4.131162974927776
-8.529364294064044,-5.306117713065464,-4.069942887039662,-4.918815004288581,-4.938614241092407,-4.37013248178476
1.0923438033700559,-0.28391779286788604,-0.067479461255505,-0.5695888440021336,-0.01277485454567398,0.3351122988222262
-0.9613721405710859,1.000760461629231,3.513198647607598,1.9979604114801297,-1.216501838127068,-0.7429405124857476
-16.854394873570545,-17.8399598788446,-22.266777723250087,-17.9375299261889,-18.07658749678859,-19.432919816584324
-3.4660213266651816,-4.2433460493474175,-7.082723656540842,-4.691311845798255,-2.6747846087902354,-3.352546453896737
-5.25789322388501,-3.179435124089091,-5.174394366679815,-4.126497957052301,-4.3681408905115315,-2.8975962587973125
-6.607725837355378,-4.956098462838386,-5.474789827488755,-5.608268217074751,-6.468600409686596,-4.950555952429453
1.2994158044034025,-0.13204823995817447,1.0014195045549372,-0.5554625832911083,0.0856067651345217,0.21692609030244084
-0.4724728840350487,-0.7591040801727512,2.570091997149864,3.1757014741827807,3.2760363204594527,1.6678150985162963
-19.293607115663608,-21.172327564472134,-20.35026367722593,-17.534881005512503,-17.222006050792654,-20.587591041393214
-3.9674271624341886,-3.706289440996065,-4.168000034717563,-4.115350661963714,-4.707924471737501,-3.3361284273673624
-0.48246648333160225,-2.8025074747432694,-2.11638387000011,-3.718686746073575,-5.32788266756223,-1.3929860416545023
-2.152819334557441,-3.5926698345672463,-3.319049776025359,-3.4085887973697857,-4.6897625376032135,-3.461831311921582
-0.2922928398467038,-0.4637979877159723,1.1705232781601855,-0.15411991457460103,0.5707394479600049,-0.39669429649595955
-1.0338933585755368,-1.6687835053645623,-2.293359156247224,-3.3084518488027843,4.243413183720439,0.3662814667989504
-21.453126540899383,-11.173934989478635,-9.586609730727924,-14.47111490220357,-18.16507528004247,-15.941070832865822
-4.742434258746033,-1.9121743535403102,-1.3890784366767903,-2.008431031439785,-5.652620690747273,-3.1666007216641483
-0.6916799127870131,-2.432329303457586,-0.9532196482934577,-3.977738473922782,-4.347042872438326,-0.4951448228646199
-0.5508771684763285,-1.6883823457157614,-1.1834299734304927,-3.056387228890166,-3.0838372133622527,-0.7540120081328691
-0.9607093339206351,1.4273044342312542,0.5602141905472076,0.8380524283950445,0.14097305641723384,0.3481200187746637
0.48944489183302803,-1.8273805662372657,-1.30686204210159,-1.764738441770696,-1.4035038224994858,-0.23495774353063056
-26.01830182029446,-18.543502137958363,-20.65637568404525,-19.899685889107744,-21.08315649353115,-26.441866806231264
-8.066076842502637,-2.292839294290104,-2.758108134458774,-2.860911692353857,-4.3186185435463385,-7.292561343107641
-0.6067717030967252,-0.7316667149755839,-0.9617817461463172,-1.5768075578912157,-0.9408429473482738,-0.5058496403688405
-0.4652480686498618,-0.5785147032509214,-2.0911003132202817,-1.6300548563545,-0.49129094914255084,-0.34544186633233753
-0.8440168255926734,1.8993942081536388,2.19656863142799,2.1959100113591683,1.501787031248295,1.1119478375973546
0.46837870980566054,-2.6604584785089367,-1.0124524211164636,-2.994083491431888,-2.347790011475575,-3.4765524337183087
-22.573614843131526,-24.632538998556228,-23.622402450950155,-24.66891925620509,-20.92646424604125,-22.008144751441918
-4.400288038503926,-3.1860625521367796,-3.6398975787847525,-4.064158981656417,-3.491280053090337,-3.512563223156631
-1.470804156098368,-0.024760984403035723,-0.510581590374006,-0.2143319241393995,-0.118332794338319,-0.12878648278818366
-1.0978215122044075,-0.0649993533579681,-0.5305597241152785,-0.24317848978838585,-0.10813864669949659,-0.037892886367223794
1.159256475733736,0.7522772755341381,0.42121007427978885,1.178459422360196,2.133237549488755,1.0818883515710918
-1.7924061023581157,-0.4340718952935071,0.7067367847610599,-3.4573904842966745,-4.617871923898347,-3.3202648489106643
-15.266261443783899,-19.70777136791214,-21.82515048597545,-22.48473385825278,-21.157350948750626,-11.669237515934636
-2.055063010305012,-3.0117813618553773,-5.30272116539138,-5.274866683199908,-3.208054058944428,-1.8160978934438663
-2.3529719502177895,-0.15782679320303183,-1.0088290840375709,-0.22263245624587383,-0.06900044760100325,-0.5338564987417541
-2.2827155279642954,-0.28777263218357146,-0.7897244516136889,-0.1723001885263596,-0.0792934955298644,-0.316634481414575
0.026166380364446164,0.13667147954682898,0.5363917198813168,0.3142776326594717,0.8866918759546801,1.0123324274818437
-0.3944081939170647,-1.1873950358189074,-1.1067156176983,-1.969462211068218,-2.0087682548405628,-1.2730703751732566
-5.743877092216468,-14.83421056102682,-19.920002867059843,-18.466905430586593,-6.297760445085544,-6.09766032644128
-1.3921642379964685,-2.1619350395156105,-5.183726194365798,-5.149796310196928,-0.8742104610838097,-0.7629322036034887
0.0,0.0,0.0,0.0,0.0,0.0
0.0,0.0,0.0,0.0,0.0,0.0
0.0,0.0,0.0,0.0,0.0,0.0
0.0,0.0,0.0,0.0,0.0,0.0
0.0,0.0,0.0,0.0,0.0,0.0
0.0,0.0,0.0,0.0,0.0,0.0
-7.372689368796182,-3.107660468597455,-4.649860849516239,-3.765723186825631,-3.9858471733464174,-4.176089239777931
-7.691517875715217,-3.8824349612188542,-6.078197007656879,-4.1677762685376045,-5.7224214305081125,-3.999216028291522
1.2615251728385286,0.0948634278300254,-0.6159037625367442,-0.08022078847602286,0.8553192780729447,0.6717347108166596
-1.0637753144162223,0.4011377983907868,2.5448745698217903,1.8032716605932226,-0.844585178409642,-1.4295808930596392
-16.773043385825908,-17.71214577744398,-22.095363214381916,-18.494948418273196,-16.89138079430143,-18.05212769248427
-3.505170885496602,-4.103243111331309,-6.893072099732954,-4.660988903933482,-2.6184447593103646,-3.212609668366918
-4.825776589027516,-4.3648101669738715,-4.698993493889791,-3.9112461372309566,-7.599163065775428,-3.8315037692453116
-6.63900452267873,-4.423941122998823,-6.776633206717059,-4.8393019017931485,-8.782512188460906,-5.359934552328326
1.6442022306756823,0.4285620759058776,0.44359755206947576,-0.15941682402886292,1.1396660488520955,0.3826744895261004
-1.8549882971387728,-1.5796490312499927,1.5094610217349929,3.512294259495762,3.8394834217965914,0.9902442603897718
-27.036808344046747,-27.789567565342725,-24.298212081509735,-25.099754252223807,-24.79163227911117,-27.223670644541798
-5.707394196174438,-5.076549091807476,-5.669561837676098,-5.511674643064304,-6.707452920901761,-4.5102054690091675
-0.6422374637892689,-2.491161494539684,-1.7748055455781946,-2.1539319356436537,-5.960335324863099,-1.837200609474701
-2.5556157919028557,-3.0315583685054164,-2.716196123332319,-2.8381530919452698,-4.91156360560484,-2.8647938538335413
0.047851755616577986,-0.2463673686808183,1.1163315678041466,0.2343839799291898,0.6326164734386853,-0.21395242175045606
-1.6666252982627514,-2.321263380161829,-2.3131779046904213,-2.8246924948776733,3.087064537827279,-0.5664119949258479
-20.413810447348286,-11.388903215293901,-8.09993065376579,-12.914571949118695,-19.418354421246956,-16.033864866138526
-4.4634485756739455,-1.8146776260274042,-1.2960110370028755,-1.7999595235137245,-5.49179146746021,-2.962804922031523
-0.5999296970543467,-1.5797579977995546,-0.8300160807085099,-3.450403269615315,-4.445496173814229,-0.7484674825037453
-0.7799180186342312,-1.1083629722786943,-0.8030846919660981,-3.465874364134974,-3.3419302177004515,-0.7400331085536237
1.2762302631422453,1.3373278992966544,1.3087000529762873,1.3936701056654541,-0.13816176294888297,0.7565411005259687
-0.9067876134964533,-3.0056090590540276,-0.6759301994105126,-2.820802601448944,-1.6661562971775346,-1.8068731213369882
-24.342681907290494,-16.272276815050386,-17.56900605435975,-17.77307384655826,-19.94382483333913,-25.58151262181058
-7.6538384109097235,-2.2308630451432268,-2.5856240217850908,-2.526287698897036,-4.069829616801841,-7.298008182654803
-0.8966886835268445,-1.487929798198611,-1.5064758475993076,-2.2854393588442616,-2.276140474347211,-0.9209117296685387
-0.8925614688834518,-0.8486922342825134,-1.7761005627394484,-2.077174959710036,-2.1540236566881794,-0.6962647319087883
1.923673792031631,2.6380218891835066,3.4791079336320503,3.6725899439796437,1.4486284290378437,2.029188658394197
-2.74064246641925,-4.822722816974401,-2.2380172336492197,-4.673611431442694,-1.3025516804348354,-4.312220392696788
-26.562749518763816,-29.87541029546206,-28.211065930196476,-29.515661639035738,-25.547896351635984,-26.268178458038907
-6.2459608581511565,-4.44410964302874,-5.14929872736592,-5.858394551102825,-5.115401358401238,-5.088531469071506
-1.6919387512131532,-0.18832514820427143,-0.9761777527051116,-0.3054227690422501,-0.22947800286726483,-1.2775627296541063
-1.511564099206804,-0.4035368438308608,-1.3374483290154253,-0.2769038471598464,-0.09269113088153706,-0.8051585865650764
1.4151857717187168,0.5584330823208636,0.9889294721353011,1.3343804334015457,2.330305874807556,0.8848008156311591
-2.82630369179845,-1.291487233927753,0.005243575537486611,-2.8159808395909582,-2.864861465208832,-3.3008657192601643
-14.70454137336633,-18.919487142377527,-20.22180610905847,-20.70446686425443,-19.197205866536972,-10.665975555768423
-1.8878015767408014,-2.7280978207823323,-5.317192729475547,-5.289846977960038,-3.090986548627919,-1.6455644176430928
-3.8777253080975345,-0.22658297477633954,-1.2834299343019864,-0.2770190574141154,-0.46451017856938354,-2.2744662130583126
-3.82245607051899,-0.5913653364864686,-1.0838565946134397,-0.2433396228597782,-0.3988507316215864,-1.4106563766542668
0.16653920520809026,0.21054539925170868,0.8610746225773326,0.33857684453601655,1.8220113875837132,1.2187675095140083
-1.2766503588331262,-1.977751966410866,-2.044154616938834,-2.824828081723791,-3.248583548393381,-2.5156772134075043
-9.100103560719091,-21.88074631271781,-27.419645794632707,-26.83228294333909,-10.122973021483562,-9.226620084559299
-2.0523434135894556,-3.2719331233245565,-7.727411399349501,-7.7583874552261225,-1.3242967101331413,-1.3311923956633818
0.0,0.0,0.0,0.0,0.0,0.0
0.0,0.0,0.0,0.0,0.0,0.0
0.0,0.0,0.0,0.0,0.0,0.0
0.0,0.0,0.0,0.0,0.0,0.0
0.0,0.0,0.0,0.0,0.0,0.0
0.0,0.0,0.0,0.0,0.0,0.0
-6.150726955378961,-2.5817965257617455,-4.755050730044953,-2.54630870680987,-2.9576749110578544,-3.3197903354731255
-6.019236491836772,-2.9980583379803214,-5.2256554893661455,-2.93966137694346,-4.037918698351673,-3.9452856870972624
0.45448753822955656,0.2482865650333049,-0.26568750115240075,-0.036133104953536506,0.4446751988829894,0.48029592615999417
-1.7774490787561634,0.061492291830178035,2.649305254182256,1.8078803120771452,-2.078496679841075,-2.6363614817954537
-15.164076560362611,-16.4477588628997,-20.41119578619783,-16.713511242862715,-15.15121820628687,-17.184598563508867
-3.1955296268783315,-3.9312987099140995,-6.581990128310551,-4.321319603378107,-2.2736277128672704,-2.902380486807881
-2.6476841970021097,-3.3122274303698815,-2.7572300593796157,-4.066787050779808,-5.4140441249105935,-2.6194628874615473
-3.5676375560062703,-3.4173515542209727,-3.0891889468704017,-4.93075422862462,-5.4241130459084435,-3.1530948876824945
0.6780104012022745,0.46927622353385556,-0.08530020945363723,0.30068502446824175,0.7888409183451811,0.6235377526737549
-2.3572425485532134,-1.2133480612907046,1.6515233711930515,5.445005797625293,3.198837374676784,-0.523878953582533
-24.78861864361173,-24.112972535568524,-21.225604578031795,-22.473409261070874,-24.379494928550375,-23.544262888713202
-5.258340870147553,-4.800344771422731,-5.3830719044955275,-5.2739917308755,-6.210075252945115,-4.026663087514853
-0.7929884161645139,-1.4857943390752293,-1.0158198812381152,-3.6061181189733715,-5.145769543555739,-1.8912558165103757
-1.4262993296501882,-2.138918361984128,-1.657230698395952,-4.664543680382537,-4.082523495762331,-2.2346237837881
0.42866721465706936,-0.22368706096441496,-0.03504187375349283,-0.062364083793483675,0.9673849526454924,0.08939692010152377
-2.8399823041320102,-2.8483000940329237,-3.1812379234272106,-3.0825719508598635,3.1059143135000857,-1.5996286435460512
-18.198665641695815,-10.451551940112653,-6.96283834352066,-12.016223132917034,-18.941969351523753,-14.242447748132188
-4.274854789785944,-1.676212411011765,-1.1899741787308047,-1.767449760814769,-5.32459731648831,-2.6453594560079954
-0.8104096991657612,-1.1598526249100545,-1.5043475445587453,-3.6191533827684874,-6.763261760439658,-0.49633177489754193
-0.9138152498829607,-0.9314315031195503,-1.1604200295917788,-3.390592742925301,-5.598490127124311,-0.7374997683398314
2.2102588542677792,0.7773089323617066,1.1017415025783257,1.1567622780430833,0.36563197374994105,0.46310968080235987
-3.6930664322518565,-2.5330183035279816,-1.4504980891005153,-2.157760075430079,-2.283952452770821,-2.387165134043741
-25.545746567780995,-16.25340065366711,-17.360963540018517,-17.082197647750526,-19.37718086407294,-23.961805344681988
-7.923957768749001,-2.2225043465637575,-2.67701530009892,-2.6267107086673853,-4.067874903006694,-7.387184335096194
-1.2591495586474004,-1.5029174904485865,-1.4518033795457201,-1.6247265857499884,-3.786674726587041,-0.7069429153243082
-1.247357202890258,-0.9603109958135194,-0.5711482267846257,-0.26890076026712384,-3.3980913039380964,-0.5986101006848916
3.417517998840166,1.8468175563328209,2.537269700738536,3.0745167291548716,1.320290962052041,1.3718332909922069
-5.660151976358999,-4.244799350094609,-4.543206475230688,-4.984524136020232,-2.4027243315049636,-3.1980732123581768
-27.0321531281945,-28.271822554814133,-28.609507085226376,-28.194041439923357,-25.539999804487554,-25.875765856645593
-6.713239646526559,-4.573397075507904,-5.7532187140579785,-6.1356533787045695,-5.538149873601729,-5.761457057944662
-1.777032498575573,-0.44594351124920995,-1.8762266825171923,-0.34026408625286636,-0.4195432832644763,-2.550578691672869
-1.5224180762254784,-0.7292118621247116,-1.8937955868850334,-0.4371328295142591,-0.11920698502801697,-2.245133793193847
0.5389645725156246,0.11107158563397436,1.1320667141356826,0.8064943255810579,1.412872440821861,0.47249351694674224
-1.575152025459559,-2.5208863907335153,-2.7921690003575597,-2.2319341385225018,-2.0944373773286666,-2.342152770201719
-14.871073460864377,-19.62990705165121,-22.07948067842793,-22.326667556975913,-21.70287247761041,-10.896127984307459
-2.2085484803391107,-3.0169526209963378,-5.802899835127983,-6.3377133728998265,-3.441457828306926,-1.9713062925253886
-4.486034646751883,-0.58875968508839,-3.347904681473576,-0.4638037997888358,-0.6452736345544381,-4.24216104091929
-3.6348109694433273,-0.7063779047633865,-3.7294674876105933,-0.5107271715354469,-0.391624298893072,-4.13411719628289
-0.22474814436417828,-0.057585247349576645,0.7716977344325002,0.17916640690600358,1.403469356795419,0.501827198420883
-1.4811025213921998,-2.603045052431944,-3.4900056759585247,-2.347161856939765,-2.229856968748936,-2.867007756277628
-8.537414073042488,-20.804476047774624,-24.479216202549242,-24.08066194571951,-11.300969915358484,-7.480678971128771
-1.942318739049382,-3.4105452677720787,-7.449471570603559,-7.508379894588757,-1.3155810135933292,-1.253649224493714
0.0,0.0,0.0,0.0,0.0,0.0
0.0,0.0,0.0,0.0,0.0,0.0
0.0,0.0,0.0,0.0,0.0,0.0
0.0,0.0,0.0,0.0,0.0,0.0
0.0,0.0,0.0,0.0,0.0,0.0
0.0,0.0,0.0,0.0,0.0,0.0
-6.532177967719744,-3.0999054991966286,-5.529434575422704,-2.0086440020183587,-1.941084502560004,-3.883373229265898
-6.48983374307522,-3.7352732251916416,-4.061364199344279,-3.597833481123022,-2.532419623973088,-3.3871277227467984
0.3430086208486689,0.21092620888912314,-0.33561204907508363,-0.3230424594852651,0.3413346423037448,0.23652577958314644
-1.6355026708070033,0.9208180611576166,3.4034371800229164,2.0344497998103983,-2.606750982396261,-2.0761993490126183
-15.673931353397267,-16.455823815610778,-20.729268616232574,-16.39667423537501,-16.008828125697345,-18.670371966404463
-3.173510805901888,-4.094524715429055,-6.760385818012662,-4.378762962430973,-2.3524256180729872,-3.0786810906336606
-4.0757691670969285,-4.634259705669669,-3.835957381213865,-6.693314530119269,-4.075085943372961,-3.7294181264267605
-5.917068057052714,-5.554642741119259,-3.917917636949549,-7.3651866854635735,-5.434543663860142,-4.795358445647604
0.9904819705181352,0.4659559321351784,-0.4650040066724368,0.0316544701803827,0.32407464730831725,0.32538087884838
-1.420959123270927,-1.0982457751824772,3.1331619049241453,6.842624125399407,3.6244213860942027,0.5756127801196333
-26.667011386060448,-26.68279614365397,-25.86472859888909,-22.068177947892575,-25.596863838304927,-26.695377052914463
-5.485267781607275,-5.145409866136209,-5.939621842163891,-5.930562843827438,-6.450025157970153,-4.4934987872959615
-0.5486593447359616,-2.0146996472066605,-0.9755201570243381,-5.619412135398838,-5.093813565471087,-1.8986723125655678
-1.3571378945329935,-2.59833288714185,-1.8942730125657543,-5.464985970166894,-4.836745461326002,-3.070967878900775
0.3064191708235275,-0.27131526385850036,0.3034480516129426,-0.1547324385038828,0.7307008396786193,0.018969136162988846
-2.153150068945732,-2.1366529184333656,-3.088970719024147,-3.813198477816007,4.1582294566913305,-0.5812098161995974
-19.22154929145465,-10.362793508110805,-7.998374013653413,-13.20506640620936,-18.42743435312382,-14.532975502116066
-4.492784131880134,-1.7482532158419308,-1.234377411399681,-1.9848033308820168,-5.458792939842174,-2.914056985315707
-0.9218487307676151,-2.2875050614676433,-1.1516243278979037,-4.603540663305303,-8.532562271260842,-0.6149781510712811
-0.7753226889559396,-1.9481942311842053,-1.0632438832896025,-3.314646487481495,-7.010739871737491,-0.9721874018766082
0.46008733758580356,0.9498983134543295,0.4486553507993475,0.9021544379663605,0.5716536074939287,0.4592247746495935
-1.6447732449054528,-1.3935983436530606,-1.2689188316011142,-1.2434173738624945,-1.787494341048517,-1.4510764266394964
-25.359840568290032,-18.11551678595011,-19.752658839413662,-18.32045485143748,-20.420251443865364,-24.553750814004264
-8.09547972635226,-2.2811019232587926,-2.7962832588640905,-2.9342057511630326,-4.337610067377001,-7.375489516221181
-1.2408684110405281,-2.404531528005927,-1.0111267209933588,-1.6321247690799583,-3.7219270512961775,-0.8055276655336333
-0.8662105011183804,-1.9482070005615952,-0.7745544818792843,0.3294434886307664,-2.5076054955693166,-0.7574255004253966
0.912710183981386,1.9204259341372674,1.3143800909523131,2.6236940655721694,1.4940956034867732,1.114548551549253
-3.8581152884233125,-2.7490497944070937,-2.157760557824935,-3.0023678382072005,-3.5702933219551656,-3.62781070338837
-32.381642974891186,-35.15982620767582,-38.23126731723469,-35.09692136559256,-32.56996196608399,-32.935173964712654
-7.046217885685967,-4.9663491668800805,-6.026644506120029,-6.508193474649961,-5.769349089172172,-6.093868962594608
-1.171254230314442,-0.3261852868567583,-1.7848875064788723,-0.3004874251179386,-0.0722753932644108,-1.4744999821445686
-1.0082157944973102,-0.31890283937543323,-1.0419863219472163,-0.27242481278518843,-0.019064661122073407,-1.0475252635804848
0.3674911753516367,0.3541256914500497,0.8874548687343229,0.7628367235841025,1.3898616608492147,0.5545248306437266
-0.9512428121849926,-1.5067507633712252,-1.5607566578860717,-2.1593278456907674,-3.3482029268715072,-1.9895139760456266
-15.19124204633067,-20.959724383058248,-23.266519250622846,-24.326977813738466,-24.26428455722096,-11.668145200865737
-2.352862107244557,-3.2398104365468554,-5.8312465050305065,-6.381175733068379,-3.660921974447179,-2.1433400744480045
-2.7444216612581593,-0.5987357431514317,-4.901597823053539,-0.6115097135434604,-0.47775917142484786,-3.176137874539607
-2.1634539543300497,-0.5044693311462425,-3.6597370700829583,-0.5123262659422388,-0.2281782746754356,-2.07202411090394
-0.33990096942700304,-0.2094804239795146,1.179656341224037,0.31569303839176543,0.9315949615016796,0.631816228995562
-1.2265847232350058,-2.3492561793730213,-3.094533572807396,-2.2430557192140803,-1.6394451578154055,-2.717996335210259
-8.209505628463472,-21.59760573724274,-25.57390794807293,-25.1753272556879,-10.560303783834334,-7.780096737922129
-1.9501323137518936,-3.389431290919333,-7.315348643324916,-7.647677017022626,-1.3579536142267636,-1.1415404676350989
0.0,0.0,0.0,0.0,0.0,0.0
0.0,0.0,0.0,0.0,0.0,0.0
0.0,0.0,0.0,0.0,0.0,0.0
0.0,0.0,0.0,0.0,0.0,0.0
0.0,0.0,0.0,0.0,0.0,0.0
0.0,0.0,0.0,0.0,0.0,0.0
0.0,0.0,0.0,0.0,0.0,0.0
0.0,0.0,0.0,0.0,0.0,0.0
0.0,0.0,0.0,0.0,0.0,0.0
0.0,0.0,0.0,0.0,0.0,0.0
0.0,0.0,0.0,0.0,0.0,0.0
0.0,0.0,0.0,0.0,0.0,0.0
-2.43231864523808,-1.992608849966304,-2.501955309308161,-3.7251322852147077,-2.43952475066354,-1.796540363797771
-4.097294617393043,-3.156351012076811,-2.36545241474759,-3.976343654872163,-3.4545345500412394,-2.50538087528947
0.1727793406795658,0.05589702952903311,-0.08520526780082109,-0.29413022320349497,-0.04926497487673998,0.09381351274366528
-0.12264574308506518,-0.3018118770192034,1.7991322307027113,2.038901291768615,1.6248870874091343,0.5738490992331463
-9.41016799477151,-9.986774982749385,-9.752046429204166,-7.70350780034235,-8.756831687975325,-10.174929420378238
-1.9250276170584744,-1.8053728423467081,-2.0966970161682545,-2.0946895907000043,-2.2531393543745413,-1.6679664617131533
0.0,0.0,0.0,0.0,0.0,0.0
0.0,0.0,0.0,0.0,0.0,0.0
0.0,0.0,0.0,0.0,0.0,0.0
0.0,0.0,0.0,0.0,0.0,0.0
0.0,0.0,0.0,0.0,0.0,0.0
0.0,0.0,0.0,0.0,0.0,0.0
0.0,0.0,0.0,0.0,0.0,0.0
0.0,0.0,0.0,0.0,0.0,0.0
0.0,0.0,0.0,0.0,0.0,0.0
0.0,0.0,0.0,0.0,0.0,0.0
0.0,0.0,0.0,0.0,0.0,0.0
0.0,0.0,0.0,0.0,0.0,0.0
-0.6544647433761062,-1.113667235313762,-0.45526065858506953,-0.8490329045400868,-0.4496171743136953,-0.46069573678664266
-0.4117274664282746,-0.6993411758987764,-1.0883026151814976,-0.44615937037855313,-0.352677162070786,-0.3281724403251415
-0.3707959572548028,0.7567544333970778,0.041007373664983734,0.8496194990405646,0.5656246410543712,0.3648889441613277
-0.7655028020066496,-0.8913151889259553,-0.8850112297454655,-1.0409088966132816,-1.838879070276985,-1.6451196447831427
-11.313134872825193,-13.239429341443987,-14.49440278307756,-13.626170935539259,-12.582945514946339,-12.208969263441777
-2.3820522396263164,-1.7148989678266493,-2.013783805723847,-2.1817076612727053,-1.8722703101784657,-1.9102274859380644
0.0,0.0,0.0,0.0,0.0,0.0
0.0,0.0,0.0,0.0,0.0,0.0
0.0,0.0,0.0,0.0,0.0,0.0
0.0,0.0,0.0,0.0,0.0,0.0
0.0,0.0,0.0,0.0,0.0,0.0
0.0,0.0,0.0,0.0,0.0,0.0
-0.5630686507711239,-0.23429607906823274,-1.099130780296042,-0.4294715212749718,-0.17074150849549347,-0.6925558634287541
-0.6849333670802212,-0.22659833832444987,-0.449729633775337,-0.2684644347040947,-0.1045652511084266,-0.4491575054554482
-0.12414315221529204,-0.08783316437312622,0.5799083934567154,0.1481521303440944,0.25223433863825473,0.3364471033263172
-0.3014494301859653,-0.7048108405720407,-0.8186472911772882,-0.832643220118819,-0.8354556568996836,-0.7809427821574983
-2.706337000064501,-7.209409941878094,-9.502344588153528,-9.0648386964925,-3.430856967437858,-2.935238320329173
-0.6638119408837241,-1.0886903298454456,-2.4642465754572367,-2.6055812913370278,-0.4518298829018548,-0.3816814286298499
0.0,0.0,0.0,0.0,0.0,0.0
0.0,0.0,0.0,0.0,0.0,0.0
0.0,0.0,0.0,0.0,0.0,0.0
0.0,0.0,0.0,0.0,0.0,0.0
0.0,0.0,0.0,0.0,0.0,0.0
0.0,0.0,0.0,0.0,0.0,0.0
-7.916663206781899,-4.53457983361336,-2.9608849650152,-3.031422885356005,-3.537759537866302,-4.790160597055519
-7.116802910631847,-5.349565719855264,-4.109921358389567,-3.351562994820885,-4.948077050782865,-4.862766969659365
0.47687768837443095,-0.3626759728233447,-0.22762632054112095,-0.2512815579394819,-0.2958052063926586,0.2482356879137559
-1.1042434649616937,-0.18930304847206442,3.325003830045837,4.537726618383812,-2.083785797270999,-1.3393861078333724
-18.859819141873412,-20.688113537050302,-23.600319490140016,-22.14974723749376,-20.17117021608169,-19.291677487076818
-3.1177860361635457,-3.992674130653623,-7.177762277466483,-7.651338490307767,-2.9558999891635094,-3.3193123082467215
-2.0396681181372838,-3.0682284142752305,-2.2609575779440525,-2.508214360309531,-3.943607289948493,-3.1493213808507434
-3.914066070707511,-4.875317709337843,-3.868275400354909,-4.035918833247188,-6.055311945251382,-5.479662489186636
-0.5955688408577429,-0.4442144629368236,-0.3009798644726209,-0.49086372637707987,-0.5787709597824444,-0.7732112122959611
-0.5940684050010845,-1.2952995458236511,0.30347744781555974,2.9738295086431776,1.8133117948254607,0.7481845608717947
-17.306750635442953,-16.575743143903566,-17.12001342975118,-19.773644214253203,-16.934312136927684,-16.727597995014406
-3.3707958166115017,-2.75868329807385,-2.6479725117891952,-3.7340034013092325,-3.713018563784952,-2.8335032994715585
-0.6560386637213399,-2.342471976054526,-1.9210876899005487,-2.0468548571461,-2.845648482129017,-0.9581428276150813
-1.4056563367160484,-2.4148298497307916,-2.6465553530133654,-3.063832187896248,-4.079323940917258,-2.7323939845127136
-0.2371633329305663,-0.3794735408767224,0.025510460592129327,-0.4356351088034012,-0.2772222080269359,-0.6671791982782216
-2.3138175343004046,-2.21758205915155,-1.1201409388640207,-2.126098452278463,2.0728414792689276,0.06600155886549539
-17.671265096263483,-8.508994549476517,-5.220706725523849,-9.77407452388303,-18.09489616440631,-16.257815939257235
-4.178991857154057,-1.3435381654509615,-0.8156244472705017,-1.3696991979240731,-4.592967610536586,-2.8784687883309865
-0.20506287726924305,-1.4356562528005692,-0.5450181957157113,-3.526324409981055,-4.433991200842724,-0.2943382242665205
-0.2524951343912451,-1.2861072972161856,-0.9332668808821546,-2.4255931722969777,-4.318840816681776,-0.5111217593621822
1.4324087926622657,0.8812955676819838,0.836684227016679,0.2543763146800324,0.3515239288255278,-0.0226164017541857
-2.061828628987143,-2.076400410430348,-0.5848523914446982,-2.5878911495016697,0.0486808674868217,-0.09091983212984384
-28.309261277900614,-18.18484563836715,-16.723538560556925,-18.812803368917436,-20.769945270611082,-26.480211028879427
-6.645735768040955,-2.3593085684457713,-1.879471068226937,-2.37479063362233,-3.6659218184416535,-6.299520998918906
-0.5922966706129409,-0.7801771815868798,-0.33302190117161057,-1.4209064884509188,-1.4109706143533711,-0.6665821961897693
-0.75507235995022,-0.7315634391774133,-0.6337345886517767,-0.9640109491768097,-0.888507299185237,-0.5160223658351798
1.5752518804239353,1.0855484960703106,2.266085194750503,1.9273960048491503,0.9932316883259347,0.7955082693817922
-2.668364839973583,-3.5369103032676343,-1.590353391615693,-2.683910733662369,-1.7962042137957417,-3.448155779279791
-20.03991893812758,-21.781346604932075,-23.14493709943986,-22.32503021866478,-21.039216143460298,-20.20302205024815
-4.0404726792663235,-2.745590905121825,-2.5700950906954523,-3.4112476534332763,-2.731236741278289,-2.878372461307503
-2.3739785757385663,-0.21682976878884913,-1.5322252324609718,-0.30649169058059905,-0.27072912251837306,-1.360345837776564
-1.8319363162366757,-0.3629709489290208,-0.49064212219593156,-0.1259114945592462,-0.16027681872124383,-1.111421299530362
0.5340129229983419,0.009058855519922556,1.1655541150358224,0.6327759948319457,0.32780355185530446,0.2982760625044663
-5.331708807302617,-3.303454815119484,-2.764792278002633,-3.8431844978297334,-7.494085609627785,-3.539747488184623
-11.34902028687089,-15.412696180037381,-19.337800951084283,-19.468924045613196,-18.19753889660658,-8.395888320551228
-1.112118628641126,-1.5259891157912353,-3.1352508105436656,-3.603313176151319,-2.7682231392757677,-0.9591607474338663
-5.318618062157224,-0.37841845653880557,-0.9044280588366049,-0.24028482584429578,-0.18855151358607605,-1.6717076545101208
-3.980186213285208,-0.48172432020000217,-0.8046018940098144,-0.27833770337608627,-0.09528863309705207,-1.2362042484219133
-0.17653544772617447,-0.2302555735778138,0.11472595309490351,0.2878270052609199,0.2510858526678984,0.21634192537526023
-1.282639257837979,-2.9094444175171312,-1.6741113982340372,-3.336622333131056,-3.9446159194020076,-2.025472595013653
-5.579383456428679,-16.37834054730372,-20.562564406104386,-20.61850897467146,-8.70000638422436,-8.9121594492865
-1.529509581886704,-2.5938803823573418,-4.723283581352853,-5.7070803291901235,-0.9466726293536758,-1.4162752926580124
0.0,0.0,0.0,0.0,0.0,0.0
0.0,0.0,0.0,0.0,0.0,0.0
0.0,0.0,0.0,0.0,0.0,0.0
0.0,0.0,0.0,0.0,0.0,0.0
0.0,0.0,0.0,0.0,0.0,0.0
0.0,0.0,0.0,0.0,0.0,0.0
-7.2246612007149125,-4.153714160779129,-3.767259856518593,-3.2320358641010194,-2.8082320980353597,-4.0768843418012315
-6.949263676095082,-4.85915589043281,-3.9490268033571336,-3.041861681827095,-4.129678945149505,-4.212847655600997
0.9208615361017216,-0.43080474618810466,0.3990736660930625,-0.38233139260504406,-0.17773789049866673,0.24245739748384523
-1.1646526687735725,-0.7698535545996751,2.9082732566211114,3.0896139896959074,-1.8023502102666462,-2.455197926691167
-18.01340934167744,-19.623241266091163,-21.623594523667037,-22.928322410378133,-20.266308630121507,-19.726863469502742
-3.038946414317609,-3.8499571492270515,-6.6098092952437,-7.416163999415011,-2.7639613075028393,-3.157409690460393
-2.676344781178522,-2.8305537302712875,-2.7280233523283024,-3.250215712701058,-4.151575536806661,-3.0510877812921637
-4.393040727433956,-4.274648737556663,-3.9538473820656956,-4.347104280928853,-6.355213085733246,-4.366705975580455
-0.5613128802945379,-0.4813404298834688,0.10535549820270056,-1.2302822105978677,-0.8123994202385333,-0.47736624790322574
-1.9171640588524845,-2.6613180677458397,-1.4567617716201386,0.618673852538999,2.678402808582164,-0.3186832990679498
-23.73195016030079,-22.0727678942664,-21.99178067122666,-25.050063646800123,-24.093163715254303,-23.22209173974217
-4.718867260153627,-3.754330663266209,-3.516106135668768,-4.960795347877274,-5.085218989391432,-3.8906530643361887
-0.40328784310609533,-0.9973915195364574,-0.8083324145997483,-1.423413607461965,-2.6119905517720343,-0.920956335528612
-0.6412267532365911,-1.1476323960287027,-1.5545821108407403,-1.8277833510275943,-3.561136488873349,-1.7394492795316494
-0.21718914518589286,-0.24535455374082088,0.13775342955408396,-0.46226689035702706,-0.06459192164200854,-0.20847717719612824
-4.16243686671016,-2.292363584839838,-1.8324515112056083,-1.8134752868562887,1.2519869173785307,-0.9469427642811215
-18.120337556182665,-7.57606483833707,-5.2537713522235565,-7.7945563445624275,-18.994481312909972,-15.150936869632737
-3.8130902980630412,-1.3965213840982105,-0.8570854817980329,-1.1496265239951968,-4.372899310058852,-2.6925054638954387
-0.4309850421686031,-1.0647877358069417,-0.4266013002897024,-2.7625893830899253,-4.470320042098517,-0.5221232272048867
-0.34890132953787056,-0.8962114970631665,-0.5621196538302667,-2.122718440854112,-4.742424155601413,-0.5984598131161509
1.805997212990624,0.6605967510119316,1.2850708778162352,0.40690580281794475,0.6928533384494592,0.3111080511550625
-4.611752914005362,-3.582281095242576,-0.9093516297350321,-3.086049857335217,-1.947410212310688,-0.6818891643704704
-26.326010693190014,-15.495942936023226,-13.832422675712404,-16.462720890849962,-20.06023008703524,-24.775176828276393
-6.633310478465136,-2.2361028159653626,-1.7415499054794148,-2.1553233574362953,-3.3725185396315327,-5.864130294861154
-1.048889744656447,-1.0753320736465701,-1.160942921590393,-2.048789433623643,-3.1876590267582414,-0.7834710828644864
-1.0787498183603375,-0.7407157138092951,-0.8587330236469297,-1.0438368079588058,-2.793776031534687,-0.6002774873051878
2.8168035608498214,1.161712938746598,3.184946344399482,2.6588212213155344,1.4264591110748492,1.1926122710801015
-3.0051127142189715,-6.515767381494519,-3.8767797982649275,-4.143368596655893,-3.656130651732059,-4.947299277240471
-24.727489783317075,-27.460085999489046,-27.41061236855822,-29.12730960563562,-26.145513352941553,-25.16477867979012
-5.9694786300603635,-3.8374533067264296,-3.566681616576562,-4.9919284584981165,-3.943774743570336,-4.1678688300584374
-2.303677082238138,-0.3577227352040382,-1.6427887852694887,-0.38156614235688485,-0.4865646372551252,-1.2827823486091239
-2.5776033246653403,-0.2997981708926502,-1.0472932272875168,-0.19196793957364838,-0.14848508402656882,-0.9339623795828967
0.5228314185016559,-0.04750580926726078,1.017888552307219,0.1845306632925006,0.33485265272553477,0.41901893968811066
-3.596909558866187,-3.5495417780963434,-2.891735884252297,-3.245618198323888,-4.0122298662032465,-2.5685825228398715
-10.87203779458803,-14.17097131344823,-18.10315724627696,-16.51937433584555,-16.85882148073164,-7.501868500049559
-1.0643370603354676,-1.5626137848283246,-3.2530290653783056,-3.811450961710152,-2.7750781956830215,-1.0019764128491615
-5.314643844871801,-1.3467885932591475,-1.829405917030253,-0.975253081761722,-0.5603349142033023,-2.410528919365564
-5.134211595099043,-0.9971386962043941,-1.3143321874000138,-0.481373570194567,-0.12964528662556501,-1.9045368071201942
0.1495950760190141,-0.30728103308377824,0.29574047884571625,0.08989140819513904,0.4562155447636585,0.15896537642403866
-1.7943724905305816,-3.822234460769788,-2.2846588338166938,-3.4785559729580102,-4.051354988114463,-2.8268151066529295
-8.303675156138352,-22.506175323506845,-26.707954465733057,-28.127774202038683,-13.50853950958055,-12.982373708573936
-2.1015585926293125,-3.780403593617391,-7.091299358245149,-9.22381175113718,-1.4216485650741764,-2.3523696298686136
0.0,0.0,0.0,0.0,0.0,0.0
0.0,0.0,0.0,0.0,0.0,0.0
0.0,0.0,0.0,0.0,0.0,0.0
0.0,0.0,0.0,0.0,0.0,0.0
0.0,0.0,0.0,0.0,0.0,0.0
0.0,0.0,0.0,0.0,0.0,0.0
-5.436602243489625,-4.119891178795319,-3.3561002505942286,-2.8831365034782794,-3.0124750438801695,-3.0270503036997423
-6.633025224533816,-3.420965102523865,-4.403510532154172,-2.497129987663135,-3.074741149006286,-2.7528183374859734
0.1189264175596216,-0.12173240260906043,0.5246094487364604,-0.5274021592144638,-0.07528606244225317,-0.15848702421854644
-1.719211390442801,-0.9942075308710927,2.8985208582345683,6.007485256507012,-2.561629644645533,-3.1125209298630887
-16.30124513669202,-17.903203679355567,-19.42871243345185,-19.76828104875026,-19.011557877491295,-18.941455982476707
-2.794971985462331,-3.633122966305702,-6.50955134740362,-6.812814497408393,-2.5234054920603017,-2.932569311766871
-1.5941580673293063,-2.371287694761594,-0.8693656456326347,-1.7926264758939083,-2.62599739697202,-1.9267767071645776
-2.802395324997053,-3.182923769655842,-2.240534231947824,-3.4681591516563524,-4.169198434437551,-2.5013215349500006
-0.24218612894790495,-0.326878590733157,0.752094534617132,-2.4222843074172142,-0.6344591643290323,-0.18028747103880796
-2.544597030153589,-2.848459298288309,-0.49218873904481725,4.308689522780731,4.515765109693039,-0.9432157545711712
-21.34378534174344,-20.1970431550895,-20.2385721382751,-18.43309613758833,-21.479666807120864,-20.979741726072422
-4.295995438191622,-3.4837282645065883,-3.3898148017003056,-4.7629577219074015,-4.678335016516139,-3.566011242771693
-0.13212634389922898,-1.4964771008883644,-0.27709888750955813,-1.1965379915621035,-1.4612987419449879,-0.6833722204271507
-0.29751620877997803,-1.3427473396282246,-0.7480525557580453,-1.6051858119987843,-2.0182131473073825,-0.9679000220378278
-0.23179680030045613,-0.2857264715470664,0.190735459570011,-0.6817017866132029,-0.13460206360229046,-0.06313345836344171
-3.726742865057294,-2.332250804252733,-1.9408962755574497,-2.7660151450001758,1.098015953441837,-0.9855519244726936
-18.311790054229533,-6.905200988852928,-5.084468476542104,-7.006615691727255,-18.346270114478354,-13.686899137683522
-3.495971213506462,-1.3285083881336377,-0.736922643023244,-0.979567670390294,-4.080548625035074,-2.4613792213876047
-0.23854082462172513,-1.2022803383436322,-0.4792368361591205,-2.478147111184607,-4.294531136179991,-0.23502650961723198
-0.33984316872927284,-0.8136551928881238,-0.6648233191633807,-1.9781544867655547,-4.7934687249561865,-0.2805787021190002
1.3775891120164008,0.5055788729016709,0.5569892497067587,0.2503655523739745,0.3081182621634699,0.2750630537281241
-5.384618443510887,-3.4508959763900786,-1.914776356985062,-3.2068893374801055,-1.934810345018648,-2.3886517977609394
-27.381166315229798,-16.204121852818105,-14.891289792627257,-15.737402515062424,-19.992572707036295,-23.258337945121923
-6.967952891523039,-2.393370898242584,-1.9828723667465042,-2.2900853048956558,-3.635484523303796,-6.045554560235256
-1.3283298825442669,-1.3534729690480007,-1.1277102637917138,-2.1826072252640083,-4.54694304186687,-0.8410475686153671
-1.2333204310725119,-0.8434262884385918,-0.472076842900733,-0.8402659338007937,-4.569646166110651,-0.7009527055505396
2.142300225992547,1.1413712048767435,2.1797316956667765,2.624359402637265,1.0323243290713073,0.7771771279610742
-2.983327058590923,-5.2398821661246675,-4.086728634765027,-3.132798864769982,-3.640236838635916,-4.414426223051534
-23.35758771681257,-27.154888669717142,-26.68830965288335,-27.915868070080116,-24.708611357439985,-24.858725223982823
-5.999040335380544,-3.9973865660600216,-4.062637511497087,-5.539621147565251,-4.241132730620708,-4.669123005488854
-2.5093327171349595,-0.7189528793907085,-1.0916369253338039,-0.7145060602431559,-0.766060257038333,-2.1613429822493164
-2.201073742302643,-0.5205120291861172,-0.3766095290827754,-0.4116718474843601,-0.23351616160162753,-1.8100710248254268
0.38144318173375064,0.017073319251125513,0.9043979754696884,0.002195308513927791,0.2919644701519668,0.15392530175423305
-1.891151271956978,-2.32222605780912,-2.839938453850281,-2.091815444440405,-2.4186703729367505,-1.7364706629004687
-12.049903330968064,-16.786722141138622,-19.100963322854867,-18.271287685252954,-16.876063931390245,-8.900034835806952
-1.377350726209618,-2.012300423015829,-3.7061823538576157,-4.624113570041634,-3.1293135475016887,-1.415916273193926
-5.2272813136984055,-1.6971325511472675,-2.7448873363788064,-1.4977918392007263,-0.9005868604286894,-2.0299535191989575
-5.500753719926116,-0.7751946376659162,-2.316642392809363,-0.40246013751415355,-0.30301166184443934,-1.7635670988388987
0.03995114184333662,-0.1821393782789047,0.07791952669942032,0.03762709911257916,0.5079333013727044,-0.07978404895792669
-1.141714064218868,-1.575630810924459,-1.3573057852058368,-1.6732773594791113,-2.0352673450380863,-2.205768270000817
-9.315860630492082,-20.89840618143988,-23.396100654605302,-26.59050058781035,-13.313890212856684,-12.947253769265291
-2.38275716792527,-4.012010964456613,-7.536250126720845,-10.032661609478902,-1.6039078638520405,-2.822340534102346
0.0,0.0,0.0,0.0,0.0,0.0
0.0,0.0,0.0,0.0,0.0,0.0
0.0,0.0,0.0,0.0,0.0,0.0
0.0,0.0,0.0,0.0,0.0,0.0
0.0,0.0,0.0,0.0,0.0,0.0
0.0,0.0,0.0,0.0,0.0,0.0
-5.303792599631837,-4.919310026994696,-4.297634536840067,-2.8306744926791345,-2.620519977377847,-3.617954875747613
-5.485411730334197,-3.644582515241031,-6.003535404589914,-2.5497181464727103,-3.174958347268645,-3.0917351355666938
0.20593740009291378,-0.12072585023022712,0.17514496120162684,-0.4376646876677262,-0.03559065083493679,-0.1069782516748723
-1.7517198279562742,-0.10442001036971511,3.235687554279357,6.468735225997433,-2.7728063443587634,-2.235204233188516
-17.18062117146232,-19.484922652739776,-21.990732626755975,-18.95386671358655,-18.739276824014677,-18.51809174781634
-2.8494240943193674,-3.831740108717117,-6.915961557850963,-6.963196884034007,-2.7125240295623967,-3.043741606968644
-2.509774869877139,-4.011028020895357,-1.8172835506286502,-3.0719245065631573,-3.600773120717988,-3.0535236121421954
-4.071504386892675,-4.537525299405868,-3.762392344210435,-4.67380366713385,-4.610283273648962,-4.581257993906129
-0.09554753009852476,-0.2325168732817013,0.6670794053496523,-2.0073606188097464,-0.6685383524299768,-0.5934435674124283
-1.9158386408429666,-2.035229773229075,0.8355656858887233,4.578256373006773,5.418985796091623,0.27345145554611366
-23.06627874073593,-22.836544288243523,-23.644780014277234,-20.980545879364584,-22.404528729682397,-22.714207706640117
-4.505560284041739,-3.921216814479288,-3.908921496879664,-5.344466749801898,-5.108504678175816,-3.9418584742067484
-0.17760040848814837,-1.8409268948660888,-1.0601193666038122,-1.1760246552877376,-2.2320567136527627,-0.8844132823907679
-0.5215477590687346,-2.366797905475501,-1.482910606338679,-2.3030184924983432,-2.8742316539100567,-1.9939446554868339
-0.3669479995421634,-0.38900304377457384,0.0896873869046603,-0.6601200942965451,-0.29541086592459564,-0.4436052769418027
-2.354972072408668,-2.287908122639456,-1.2480909021268012,-3.5303086847555782,1.8761796128226098,0.13375563996900688
-17.921442964550124,-7.486880778551759,-5.27655107069913,-9.07138054646817,-17.66894553223069,-14.885365423108215
-3.82645469625856,-1.2552771807008238,-0.7532227577221509,-1.216780024004581,-4.297403082064767,-2.674071395078965
-0.11251972702240684,-1.2063077204659092,-0.9292893641717647,-2.2870124030411425,-4.050403753094125,-0.3496974891326438
-0.18127430925354798,-1.2169043556809813,-1.160059631140952,-1.7326563147404024,-3.584805828940982,-0.49223633626012225
0.9308752910603784,0.6867296317589711,0.3561716054642024,0.16612795865389962,0.10246523216824502,0.17271542350788083
-2.2898439370936114,-1.9697133312242927,-0.8471059640232559,-2.6181599259352533,-0.5239804307915745,-1.7103194704924207
-28.65970129136236,-18.624785467662658,-17.141774240133458,-17.678604752383148,-20.262168966826,-25.991611905523037
-6.9089465285623675,-2.555217984461645,-2.1594323460211746,-2.4705659548490844,-3.9432553259849454,-6.508371599010845
-1.4411228871765802,-1.0985951525973219,-1.3917063045554856,-1.622742027388587,-2.83570488546929,-0.8834865396462536
-1.4065425830276537,-0.6437574119878787,-0.692095040244181,-0.909102349229297,-1.5850453394812252,-0.569644212387408
1.378247679916423,1.3036220550881628,2.247418499965972,2.314385121326862,1.096345794743166,0.7283064399190794
-2.4818307901913403,-3.316361631278164,-1.9109666518101298,-3.304442661691468,-3.288308146640561,-4.162425418653326
-30.442141689961886,-32.1343340338748,-32.627634842156446,-33.0542586681952,-29.701232164063526,-30.97177790985097
-6.0960342816441955,-4.360670010294982,-4.606873682402814,-5.9928877069481565,-4.470472763337031,-5.013577391209142
-2.314911032863191,-0.5479265404841605,-1.019888269403555,-0.2706714020028723,-0.421006549384782,-1.758694845447124
-1.696154303421887,-0.40969942144064797,-0.03502777229844282,-0.3059230822920452,-0.08681121115964095,-1.285734278933073
0.34458658270242526,0.0344993654239585,1.0674903599240113,0.4052617672386723,0.27697415225421357,0.13478333342803103
-3.322056800797822,-2.0252552466908256,-2.560915987012269,-2.727498414003757,-5.52487456692473,-2.3165978297454908
-13.735612211322735,-17.21665280532583,-20.29990350196788,-21.496448151699777,-18.69611211790627,-9.851031767960752
-1.367289698805432,-1.9205154175791859,-3.6298553187867397,-4.359383456242316,-3.082378511916018,-1.3701143704665226
-5.969520714365597,-0.9827706686093487,-3.7744913796453132,-0.9264633768959443,-1.0951641748604535,-2.33673515562186
-4.752187202093511,-0.4751481667668815,-3.7313336515994773,-0.509701525599231,-0.7243600142336379,-1.6826203146889191
-0.12238560236105156,-0.14932341030128327,0.058304059679572744,0.2155098491816297,0.41600653094729945,0.029512625459650898
-1.1606092569986008,-0.923734647673821,-1.1432361961934554,-2.122615378981108,-3.558819831772016,-1.9311521697596692
-9.534374657496192,-22.64251738269995,-26.279963205780415,-30.0029207354719,-13.251168793513491,-13.48450223647737
-2.4964777584885236,-4.115382061455964,-7.37277326405315,-9.430356150893758,-1.5897831656169992,-2.645906690014894
0.0,0.0,0.0,0.0,0.0,0.0
0.0,0.0,0.0,0.0,0.0,0.0
0.0,0.0,0.0,0.0,0.0,0.0
0.0,0.0,0.0,0.0,0.0,0.0
0.0,0.0,0.0,0.0,0.0,0.0
0.0,0.0,0.0,0.0,0.0,0.0
0.0,0.0,0.0,0.0,0.0,0.0
0.0,0.0,0.0,0.0,0.0,0.0
0.0,0.0,0.0,0.0,0.0,0.0
0.0,0.0,0.0,0.0,0.0,0.0
0.0,0.0,0.0,0.0,0.0,0.0
0.0,0.0,0.0,0.0,0.0,0.0
-1.286983733774779,-2.3232514345308872,-1.1732168373980123,-1.4364406385105268,-2.420198615966936,-1.5686382018827891
-2.171313011117216,-2.6286642627682326,-2.1636648221926778,-1.9124744984681674,-2.782166249794095,-2.886240416095049
-0.08077136423360896,-0.16782339732952237,0.0064715743731341485,-0.48970230859523084,-0.24772858846194118,-0.3675034723540694
-0.3556879083005609,-0.6403614379509989,0.45236664541635485,0.954908460425798,1.2816711952590016,0.3636136571849507
-8.2895364487969,-8.207614695954202,-8.849731135754764,-7.932434893119896,-7.977764741935239,-8.09077346153264
-1.6163138123894565,-1.376969380016184,-1.3921808323663558,-1.894099879246908,-1.8368062278488098,-1.4091827101123648
0.0,0.0,0.0,0.0,0.0,0.0
0.0,0.0,0.0,0.0,0.0,0.0
0.0,0.0,0.0,0.0,0.0,0.0
0.0,0.0,0.0,0.0,0.0,0.0
0.0,0.0,0.0,0.0,0.0,0.0
0.0,0.0,0.0,0.0,0.0,0.0
0.0,0.0,0.0,0.0,0.0,0.0
0.0,0.0,0.0,0.0,0.0,0.0
0.0,0.0,0.0,0.0,0.0,0.0
0.0,0.0,0.0,0.0,0.0,0.0
0.0,0.0,0.0,0.0,0.0,0.0
0.0,0.0,0.0,0.0,0.0,0.0
-0.6820637956367646,-0.7906827235254725,-0.6752556717547813,-0.5814945949674887,-0.9330848041545696,-0.3058768235240658
-0.7008844365501877,-0.5322226138521198,-0.6781556209007084,-0.7827697352020564,-0.48948877167103605,-0.25595282664664054
0.4424667541763475,0.43953701890339797,0.855290806550562,0.7560280558846864,0.37055468416831455,0.13461309302545088
-1.4019314196306403,-1.2476934277936995,-0.3316994896565912,-1.1097520399519039,-0.8930762946231027,-1.502172464444231
-11.42075014878839,-11.886955612827007,-12.02279085223848,-11.66104912280713,-10.742154003030375,-10.988216222423144
-2.0768439077197733,-1.4534093903847367,-1.4781201676136666,-1.940570779837817,-1.4599903832106182,-1.6085845966448615
0.0,0.0,0.0,0.0,0.0,0.0
0.0,0.0,0.0,0.0,0.0,0.0
0.0,0.0,0.0,0.0,0.0,0.0
0.0,0.0,0.0,0.0,0.0,0.0
0.0,0.0,0.0,0.0,0.0,0.0
0.0,0.0,0.0,0.0,0.0,0.0
-2.823294578493748,-0.1676332511096801,-1.1475617996783531,-0.30691164511904956,-0.4093315281725087,-0.6262143906547513
-1.8264056884092918,-0.18392293378708108,-1.010328547468469,-0.11616244507507593,-0.21052250452618376,-0.4716381089405662
-0.08056964821323051,-0.07691018795838316,-0.07815758279809154,0.02259305961513148,0.1229645208008219,0.07957675781053997
-0.5199993880234347,-0.670516838304221,-0.5959032560879194,-1.233396431226488,-1.5971115837781082,-0.8150743231768546
-3.00868145526455,-8.348441735852065,-10.133757480286631,-10.857931068160687,-4.363049846661441,-4.590477195304428
-0.7933615427371006,-1.3582167702201817,-2.3935575281727646,-2.877724286177389,-0.5059392146581161,-0.803663864053573
0.0,0.0,0.0,0.0,0.0,0.0
0.0,0.0,0.0,0.0,0.0,0.0
0.0,0.0,0.0,0.0,0.0,0.0
0.0,0.0,0.0,0.0,0.0,0.0
0.0,0.0,0.0,0.0,0.0,0.0
0.0,0.0,0.0,0.0,0.0,0.0
-18.287249843832964,-9.988363293887817,-14.525541538186449,-7.305611909246465,-8.51415608012752,-15.417438352159515
-7.688868968313397,-9.499669765982462,-6.47823789504062,-8.29167054280269,-7.4630964159463264,-7.802097824111655
1.3497902810092413,0.4910757352842999,1.325218982517712,-0.4745879803710607,0.05273000969980937,1.6139630534036618
-1.0990596024495516,1.1540649163149468,1.0236316376140768,2.8685405247095086,-0.9474561690792176,-0.9042179714544009
-17.961705231788308,-22.75109470649314,-21.551659589300154,-20.852642034631288,-15.093466206455686,-17.17178905924624
-2.4176782037705533,-3.446987940259919,-4.774549140674822,-4.190549975573199,-1.817756556661891,-2.380516944340361
-13.046415961307833,-9.77171454758577,-11.542528878666172,-12.765512195557324,-10.989185313767791,-8.896986790570992
-8.634370889033983,-9.949929736110077,-11.706820458748062,-10.798673800430375,-8.662379835602716,-9.072659484382376
1.917062987041468,0.7437144822866519,0.9087391105580658,-0.4534142588629586,-0.06357994805675204,1.0291951229849856
-0.6331511670302988,-0.36749475996674863,1.7265496032671541,1.9225094927957957,0.7574724227021458,1.3526655094647753
-17.470201199530447,-20.651609550879506,-18.384092436072976,-17.748766435384688,-17.204731704135767,-18.510480595668234
-2.6375518446990283,-2.5573514567598408,-2.781348430361617,-3.05520591874358,-3.173015686631824,-2.2507866939753858
-3.4853248943875275,-10.514231225026327,-6.201478490013518,-13.590574775549912,-17.099544078018845,-4.1055719853661525
-5.610561738916807,-8.629950794492466,-8.645337731516578,-9.528217845722946,-10.15978581633969,-7.3699541341829535
0.020233452486369912,0.3043727213529568,0.715706710563744,-0.12295306021705417,2.012775005420029,0.6145193748384308
-0.7759731476691061,-1.0422042127857216,-1.783142252414881,-2.1388243466334727,3.043296864572872,0.49813162872911937
-20.64461242535588,-8.536538366567264,-8.527086561266115,-12.305089901439487,-22.7397139375606,-18.845088418834475
-3.4355354202231436,-1.2376460904784696,-1.0387129463472438,-1.37114728773504,-4.152491488465795,-2.782818798723754
-4.0713239924589875,-11.929531616536671,-5.290587139818049,-12.051127382293505,-16.558978159618626,-2.8368072120373946
-3.1959828198349673,-5.45994279056108,-3.849845581434412,-6.082023102597975,-7.967195735359907,-3.018627936998313
-1.086054897638442,0.4127220158031194,0.056497507304574486,1.2355316150315843,0.1810866112150823,-0.8675684480741422
-1.8429002021271637,-1.0149698595541878,-0.698106821881907,-0.7646628438669482,-0.5147053779056947,1.1848864726623152
-21.58700495021886,-18.747783328748174,-19.29871608858921,-19.135704727494037,-21.500412798501703,-19.15117929049613
-5.424496479510287,-1.6838444146817226,-1.8451563696697848,-2.1255953751022805,-3.110905740622,-4.023063625562363
-2.646637885177896,-3.6992986170049194,-5.323058971247436,-4.063330771177352,-5.180061392866516,-5.777583890188539
-1.393616881770982,-1.6878705788534756,-4.542397153867908,-2.6362810720810668,-2.8523851221029863,-3.387381968699229
-1.9926714847380298,0.4618802310518849,-0.20512877634187898,0.0889879718334904,-0.7595766219622005,0.15397567114766508
-0.17985844371416204,-1.3350978293801083,-1.844550227700424,-1.5588352841570097,-1.4066866154107387,-2.2340012237733293
-19.92041555433883,-21.754544843408897,-20.568657757944802,-19.261748124331902,-18.993577886904962,-19.21906694210202
-2.729060278665792,-2.173138298732117,-1.8757898612221289,-2.125605078230466,-2.1945370592036544,-1.8324542556577734
-6.428832311190904,-0.7089584122039246,-5.056716277033774,-0.30055638989772093,-0.2719480144069859,-2.703768158173499
-3.498719037870698,-0.9420592202853807,-3.002957764307651,-0.587997884875922,-0.34132968596434443,-0.8991742171256347
1.0758325002284113,0.6605043715136376,-0.554105140563364,0.997099506651528,0.9128348260928282,1.498855008025653
-0.042606013069485034,-0.3749276082079771,-0.1716234091319402,-0.6317461094322264,-0.6077501326040777,-0.6803578029229181
-15.898631722069924,-22.905021168223605,-22.334771794022384,-22.86046025442325,-24.90452545344073,-14.580099828949695
-1.40344702966585,-2.3548897401095314,-3.8329505107785415,-3.291875734790466,-2.791393196111508,-1.3352100021197648
-10.678206478117595,-0.8740469552508128,-6.752009408362677,-0.7276720192910258,-0.7056433614187143,-3.7100408650585996
-7.365298908393427,-1.2527098884379777,-3.541238235246917,-0.6045925970756814,-0.6377655802305948,-1.2956709990697377
0.3850939734408642,0.18519491299439383,0.3205813691343523,0.20413265182108886,0.17272757443472478,1.0312986498453656
-0.19870957299634912,-0.04098246180625782,0.49095039238271027,-0.9936362028941741,-0.3441840341272949,-0.3521484115704634
-5.30500713540722,-15.912564756411518,-18.034313398695094,-16.881127836748853,-6.2161938238452255,-5.7353721431996245
-0.771370151939243,-1.5937969850904845,-3.067621705920064,-3.2659207503237138,-0.6255896789357557,-0.49965282699958774
0.0,0.0,0.0,0.0,0.0,0.0
0.0,0.0,0.0,0.0,0.0,0.0
0.0,0.0,0.0,0.0,0.0,0.0
0.0,0.0,0.0,0.0,0.0,0.0
0.0,0.0,0.0,0.0,0.0,0.0
0.0,0.0,0.0,0.0,0.0,0.0
-18.092189528087488,-14.916963372777563,-14.60794200073292,-12.778651090462422,-13.255422056014686,-16.767160309236367
-6.605633498765828,-10.563022795629948,-6.1171601471398125,-8.870741877632378,-7.7821351447993266,-7.743329041945745
1.3293041359951643,0.31452626657434324,0.33823675395275793,0.5406476364759538,1.7066121706825543,1.9151803557126226
-0.9113270019189578,0.4445671483817676,0.7971347799345104,2.00314397816489,-0.23697855327340744,-0.8872939766980725
-16.821897044153168,-22.555287553832652,-22.40523014149813,-22.216556638499238,-13.873247103442871,-15.759416440906001
-2.4042614370333,-3.3128695979493203,-4.639563378170575,-4.19166586782095,-1.7671635736721263,-2.211431818197496
-13.920589411995271,-12.376154481716057,-14.606971029093502,-16.59367463790427,-19.00782823395036,-13.376933019716393
-7.081532038444157,-11.598624180219764,-7.416673917382803,-10.978637611353841,-9.50295070247,-9.940688973501944
1.1241217595267665,0.7269301103560691,1.4716820560391988,0.7388444011567262,1.6889915598925767,1.3754554585206535
-1.9474159078511475,-0.8851857674110458,0.784139298794857,1.4987868725714366,0.30467142849405154,1.751737788301777
-24.545604821472896,-27.10425562521208,-23.27220603869251,-24.781715053335038,-23.650033694497186,-24.651678448205182
-3.7187782133194105,-3.490187336657287,-3.7483369010790364,-4.042973950907187,-4.475626195759731,-2.981151714398191
-4.035028318802814,-10.145277099885845,-7.066670064123014,-10.912961040228739,-17.611914991566895,-5.531550540258994
-7.3747502368614315,-8.11567977914016,-8.468007067582377,-7.393110606928611,-7.358951792402312,-6.331750564431776
0.501557238434133,-0.13723328227034204,1.9055530209959797,1.1057854069923523,0.6988392929386164,0.197683757017512
-1.7760250365184813,-1.5699206546818436,-0.8584244150911972,-1.72754476515117,1.1195901129845345,-0.7502499564191992
-20.378290766075065,-8.58557990957467,-7.777532173808692,-11.43421455345526,-24.635684565303496,-18.727853926232722
-3.201890399076223,-1.1707028386940999,-0.9501843253024927,-1.2246354148307053,-3.9715169400897485,-2.551094563199641
-7.237737483566796,-9.571919176801208,-3.3758999292560734,-14.232554488371612,-17.149090956667234,-3.660329740175584
-3.77783600171382,-4.751418647027655,-2.7077095629439314,-2.613396804069061,-5.769776413396457,-4.900733467327242
0.24234752543697502,1.1389272267335133,-0.1338115726751867,3.360376945840081,0.5564853051998014,-0.024016658631695668
-1.4267168963968428,-1.895278174551912,0.7799566451040647,-0.9857048773997635,-0.7507765849017113,0.035522104865084204
-20.754141498069462,-17.314714981979556,-17.619157279696644,-17.631791032199885,-20.889175722612862,-20.553626133421318
-5.112533795540535,-1.6184322360207408,-1.7584229676555148,-1.8520110693545755,-2.871635559651982,-4.053088582222554
-4.891469730118727,-9.26836956787157,-9.746253439917464,-8.694191336678157,-9.16865681388411,-5.875813448226488
-3.126828295627793,-1.930508342945859,-5.4192280207867105,-3.0348618936591985,-5.830626033367407,-5.523073268515165
-0.432751591659329,0.6814536843840254,0.07005076463675908,0.5127359390929244,-1.1861049889646396,1.1907323886094365
-1.8322053813393748,-1.0684468913506096,-0.48708977488450694,-0.5976420362474295,-0.9716332796964929,-1.613733968560485
-22.892152107771636,-25.917590606425872,-23.65950659530641,-22.406874241263047,-23.246521224818792,-23.194625625646683
-3.8824030701525567,-2.9844792661848496,-2.6321926066454164,-3.073896007250207,-3.2032607017955947,-2.6664893147110753
-9.988726026237494,-5.85318124755774,-9.81754572742298,-1.78528052358006,-2.6305473602090443,-7.0819458800196236
-5.742222732930443,-5.653168138939765,-7.49463615497815,-1.155216139773079,-0.8049180581028738,-3.2337100168415116
1.3248794592858586,0.608194592644737,0.01442029264703053,0.32540370389296913,-0.849298809019417,1.4564299620925807
-0.9069454149415094,-2.0934168627453253,0.06681504823753112,-0.3159788245753887,0.5433319280889011,-2.1300882008077755
-15.58108305304376,-24.607347321690938,-21.466613902839747,-22.077503149891868,-21.37500790166842,-13.703715315174431
-1.2441655611340974,-2.1043392606090725,-3.7093374681780826,-3.3023082456191823,-2.5968160216433507,-1.2148309325268167
-15.006883952089453,-5.208450205885194,-6.76610369427466,-3.5431300455450585,-3.3680923607298756,-10.653700257368426
-11.338961018297514,-7.920457078890108,-4.637821677673514,-1.5861517848177493,-3.7964138719596225,-3.6449389184531444
1.6484355125953827,-0.28488074252107665,0.8778133610038993,0.17411924036127938,1.0960535212330405,1.7134930874839138
-1.3743621216986166,-0.13091910409601473,1.0125819326161065,-1.2202287188210088,-0.4762530549809611,-1.1758819736011468
-8.842890700427471,-25.210907111785517,-24.23701354797139,-24.562140878603326,-10.133820602975709,-9.586362416782471
-1.157174820493673,-2.446483804900202,-4.58165910800839,-4.881382448483979,-0.9549181474517656,-0.8730556170792871
0.0,0.0,0.0,0.0,0.0,0.0
0.0,0.0,0.0,0.0,0.0,0.0
0.0,0.0,0.0,0.0,0.0,0.0
0.0,0.0,0.0,0.0,0.0,0.0
0.0,0.0,0.0,0.0,0.0,0.0
0.0,0.0,0.0,0.0,0.0,0.0
-15.85920385994479,-9.192909428020702,-12.420397601910777,-9.294081181265014,-8.678568447559009,-8.880732487745538
-10.349196054640144,-8.626943721389987,-9.105657993306245,-7.36632401535874,-8.530787171210699,-8.144474241914796
1.9800024869023716,-0.038792992416720726,-0.7883087128035808,-0.37135966390132175,0.6415709519338886,0.6723654723786439
-1.3998186416702472,0.05685742340636304,1.6927967067600618,1.7503119811423438,-1.0235295365706654,-1.6307720886671206
-15.129617402263047,-20.842907724018833,-20.412474280159273,-20.21596168025498,-13.039448738032634,-14.540223854769327
-2.147365123542613,-3.1544148779638483,-4.3817917233079555,-3.7487036631591466,-1.5449786374711192,-1.9436746641274
-8.55936169739411,-7.655084389206805,-7.493209346012499,-12.23400694647211,-13.209327035068018,-8.132447201282655
-8.605059285628872,-9.944823838966183,-8.519444954570586,-9.318799804191672,-7.9944697765672705,-8.645549687205099
0.5587895831387423,0.590741947946857,-1.5778264552336927,0.5867123258820259,1.5462197760306218,-0.9634262158836954
-1.457186042622419,-0.6781699623253952,0.1585938672143401,3.7198289524944523,2.2904369356797307,1.2205957108782715
-23.21567633296911,-23.512630019575404,-21.087307726679974,-22.956371928535475,-22.276013942701045,-20.379190971743846
-3.3411949303705866,-3.2913385358223874,-3.514995380877379,-3.849020978236538,-4.114916880268685,-2.627213945734097
-1.7875073111098199,-3.5788170715386047,-3.7997562104174336,-11.540266699452134,-11.842646679839708,-5.25491437241057
-5.724161099469154,-6.146740771282732,-6.411260823587419,-9.14355977033044,-8.655100090770294,-7.465201364464356
-0.16805569799750286,-0.49830938134420905,0.22217197810558956,0.3643767207088134,0.9555699092034506,-0.6404479143928614
-3.2902357709173344,-2.4747726044933303,-1.333975180225833,-2.1111447285938674,1.977971344594881,-1.2955552807510455
-18.14671238363277,-7.876741766401783,-7.035237312294769,-10.427287538521623,-22.76503691740045,-16.911706116004986
-2.9562892976612343,-1.0502380445537176,-0.851597208232543,-1.2038946417937948,-3.806422917327566,-2.264170738253008
-3.044366397678368,-4.654432180322058,-5.148114744419517,-13.32572221748897,-16.777050126653243,-2.401510584380061
-2.9723804755732512,-5.747460692446739,-4.1372215210572545,-5.759780045717273,-5.292867725396895,-3.6322549657583205
0.44148677463747826,0.6382182932729671,0.8071390147521899,1.640517920015524,1.3000094236971522,0.21354870564264788
-2.319584922321519,-1.8652911846127698,-1.1235254328369355,-1.4244824507962701,-1.6337654299355855,-1.143556694157139
-20.64306529911609,-17.189478568818,-17.262088850410162,-16.683786965520028,-20.241184584787376,-19.22632624150454
-5.207986227014918,-1.6272610872503803,-1.7951740020620452,-1.8989895406379278,-2.852091880086621,-4.083017333175375
-6.768956702827543,-6.816816746279999,-7.703033464869017,-8.122087992307694,-11.229177474761043,-4.962794875792878
-4.077412542769121,-2.730063668548566,0.2142720231416731,1.0538972112941827,-3.9179287157967266,-4.342887967146212
0.8471748316386982,0.39757995767937493,0.03207439494563649,0.3052694506876515,0.07728481934486371,0.3986973021249806
-3.4636298999888764,-2.207381001880042,-5.8831772870592145,-3.6960747211234355,-1.8517288149023088,-3.0795292001955836
-21.940568026150782,-22.471438341675952,-21.788401692066,-18.902749137619747,-24.714606513103416,-23.914008372371573
-4.048789147411624,-2.940307689361624,-2.622142724069604,-2.8484296007111953,-3.5789349450615338,-3.0177912657999237
-10.27046131956259,-3.4399574751565316,-9.268821851333485,-3.423877720056988,-2.7571911098635717,-10.565977676695747
-7.432672445605309,-4.316243898942752,-4.79941781142369,-2.12648446338566,-1.3256522403580224,-6.564209999936842
0.43792010554757504,0.34162172440976235,1.6953061979548838,0.3796109674155357,0.0831560003152785,0.8580244729225347
-1.0922270695021166,-2.258580470534584,-2.196576455535387,-3.0330145204032646,-0.956570675281828,-3.0654359471240267
-14.637248580799383,-25.32374912125263,-24.971646201473835,-21.910635297931268,-26.81689661833476,-15.050392798387954
-1.4356189494383311,-2.349734995302434,-4.019314292177434,-3.837287406178984,-3.06281012414555,-1.4946943848319292
-13.948116904429288,-5.324673378389603,-10.231375121375017,-3.0704907028274517,-3.3313246404904215,-13.139510148476523
-10.47711601049362,-5.730230144447573,-5.108444872006157,-3.9367017887282305,-3.596796042720478,-8.577067379579777
1.2560020399934033,0.12138041850913477,2.932811110828017,0.4946339435159921,0.643341191108173,1.5302892284280953
-1.9318689407978549,-1.5338689978999056,-1.6184055575855125,-1.3634206945658234,-1.6357358572548575,-3.277578260328552
-8.403534821213668,-24.647314687926904,-23.213949325015278,-22.5255837853041,-13.010816434048335,-8.371636432870172
-1.1523702270265097,-2.588103304491387,-4.441597105912938,-4.789282935192381,-1.0329970093787524,-0.8333527737299914
0.0,0.0,0.0,0.0,0.0,0.0
0.0,0.0,0.0,0.0,0.0,0.0
0.0,0.0,0.0,0.0,0.0,0.0
0.0,0.0,0.0,0.0,0.0,0.0
0.0,0.0,0.0,0.0,0.0,0.0
0.0,0.0,0.0,0.0,0.0,0.0
-17.605019530100872,-7.283794195114413,-14.631556343796635,-4.1563522840808815,-5.800128080214945,-9.257500822236645
-8.50505531343478,-6.55351002155059,-8.516385480235725,-5.565478763940701,-6.615865542474019,-5.391606646666566
1.6986096140421618,0.21872747158775185,0.42851868434600054,-0.14331623455674233,0.5757841396721795,0.7510861733292234
-1.463781781999818,1.0901211401666304,1.5307281323446496,2.6222800261702215,-2.0965949445541696,-1.7331601225792712
-16.892018894371503,-21.341584329361066,-20.033265940550784,-19.754495553576227,-14.032952328390026,-16.011732254902764
-2.1879938250801247,-3.323011209206959,-4.514031136945218,-3.8165772944239365,-1.6194505788771276,-2.128563460580577
-11.423503071470991,-11.24261224414713,-11.351429446907284,-13.919056063548627,-11.410877907598874,-8.698191294271053
-10.253627803008085,-8.104166354915355,-10.038444866009158,-10.046339534622394,-9.348474312069202,-8.85295914057472
1.3108838573383694,1.252110163494902,-0.4614478284686472,1.0481411391760207,1.4133745341414217,0.5312029750781238
-0.5558356044668966,-0.4084424270701361,1.0064802035055964,5.243910188933178,2.490128019876582,1.5727603724266517
-25.266132873068482,-26.39394662593739,-24.789001571744222,-24.010694237144374,-24.774286779174574,-23.074749578840745
-3.560892800586629,-3.5344031406479526,-3.948715615156869,-4.381945930435381,-4.324623039451982,-3.021604915634814
-2.653998588262669,-6.71911805974708,-2.269902592918266,-14.13321451997979,-12.338111677390607,-4.171974322743092
-4.090426852487804,-7.606633030712017,-4.829322250985234,-11.49963591492417,-10.49810112124571,-6.91176595541534
-0.29735904435553095,0.187552628401727,-0.2832281232269537,0.10761120533604165,2.18097903885333,-0.4180331874380294
-2.5472142066443437,-1.6402314596671577,-1.9839259909896618,-2.97597152549894,3.737816687894911,-0.19119132907555214
-18.423111239240818,-7.954302858844983,-7.44926738400308,-11.228304051139565,-21.590651542585114,-17.09380512919371
-3.14926756398023,-1.1074079402933101,-0.907047312572,-1.3658294461472356,-3.9927495386158602,-2.554262825563402
-4.063871646878508,-8.834809473618462,-3.615397198094613,-14.771247679313651,-19.635170801219154,-4.437785074142514
-4.495307862963619,-4.888679169037366,-4.848424332380444,-9.099465703206482,-9.896888434127193,-5.460004740139957
0.15184073021620517,0.42726282571704444,0.10484668755694448,0.6007622767781283,1.2212364603400838,-0.8400923366865942
-1.4514317183822476,-0.9991582495128826,-2.669390503608765,-1.406298124915845,-0.930642091284534,-0.5471629250535733
-19.7728063035296,-18.454575835974413,-17.84437268072479,-17.595228239078313,-20.981100987785325,-17.528791737189497
-5.274906058510665,-1.6812001255366271,-1.809119375982749,-2.1495219232925535,-3.1063012179505045,-4.06542821422234
-6.590801015130511,-8.219883728320108,-5.291698546383662,-6.489539521674484,-9.049419911060381,-6.8383577374716875
-3.341387488100411,-5.1936832706815865,-3.007910867440212,0.48193726563224987,-2.8741976317816165,-3.1522163654664714
0.16809630879106635,0.6778702634799088,0.7100173075373752,0.04115183694045609,0.6896602301228889,1.1377185564938772
-2.165804740943867,-3.303537874848164,-2.5864807448209968,-3.3893723765164223,-2.7255832720297763,-3.658247814372971
-26.385974612796282,-29.437891629820207,-23.315147205270065,-23.179053954764036,-29.828036075275683,-28.678450341397923
-4.221703969374778,-3.191394731222146,-2.292036847161756,-2.803015077870227,-3.665779704050634,-3.158287485268004
-9.101889179467962,-2.0731424401360883,-9.083556534336678,-1.1978643051172466,-0.4503201872191758,-5.127619892577741
-4.359779013948437,-2.2440272224155833,-5.095135810880687,-1.1716666126850217,-0.3977142233065947,-2.2561792064187256
0.1666778221884959,0.2792279100718234,0.6549119037827147,0.5151006295334448,0.7433123884454022,0.6398549010688481
-0.7098328624742829,-0.8707800190823085,-1.3197424365447412,-2.0884405106061528,-2.9165888809828115,-1.670213687349204
-15.117934376527064,-24.332497829745414,-24.008795414101037,-23.3741091164496,-31.505982575089497,-15.917347236567466
-1.6130706990358805,-2.531870542047662,-4.137610979202206,-3.8427217808195517,-3.360092868637629,-1.5804095606382602
-13.883194147579836,-2.147824659011742,-16.227982814544177,-2.803172327896069,-2.2280648898217046,-10.796107535459669
-8.032611656931447,-1.9187773005586803,-7.214448292166782,-3.1234197056991797,-2.5306001290340467,-4.665033256508384
-0.005582601493069916,-0.3792557144788159,1.1701825834952317,0.2969067030219671,0.001135391871037052,1.5156252076524244
-0.9447565823967556,-1.7220133917287936,-1.9179823156537856,-1.3267436931133378,-1.424013788255171,-3.293367523731062
-7.7537832620072225,-24.069510835092814,-25.663649938502402,-24.22293954940471,-11.498827643391255,-7.794013830302797
-1.1648825891155046,-2.5969604131383877,-4.3785824697346065,-5.01031038891177,-1.0564303839713547,-0.7433958655199927
0.0,0.0,0.0,0.0,0.0,0.0
0.0,0.0,0.0,0.0,0.0,0.0
0.0,0.0,0.0,0.0,0.0,0.0
0.0,0.0,0.0,0.0,0.0,0.0
0.0,0.0,0.0,0.0,0.0,0.0
0.0,0.0,0.0,0.0,0.0,0.0
0.0,0.0,0.0,0.0,0.0,0.0
0.0,0.0,0.0,0.0,0.0,0.0
0.0,0.0,0.0,0.0,0.0,0.0
0.0,0.0,0.0,0.0,0.0,0.0
0.0,0.0,0.0,0.0,0.0,0.0
0.0,0.0,0.0,0.0,0.0,0.0
-5.687038358806777,-4.056943758145022,-4.928783083478852,-6.476038099130444,-5.4828428786297225,-4.739543503806111
-6.215029527924776,-4.47910596781194,-4.14486678377258,-5.673662925883104,-7.918014379486911,-4.6413175341248465
0.015740183078502116,0.4535779195488635,-0.40057338500704914,-0.11651725165979708,-0.07984835552805226,0.28657072149016916
0.013423548755344072,-0.1279183721999938,1.1861449245750386,1.5302506235582527,0.9400334411546195,0.6658098491078206
-8.608689689912032,-9.759222307287118,-9.102415015409512,-8.276176419762395,-8.729522138784581,-8.996944472312775
-1.263332540245465,-1.2418744486643407,-1.4055824971488815,-1.554613054086049,-1.5185664092917284,-1.1348209663493043
0.0,0.0,0.0,0.0,0.0,0.0
0.0,0.0,0.0,0.0,0.0,0.0
0.0,0.0,0.0,0.0,0.0,0.0
0.0,0.0,0.0,0.0,0.0,0.0
0.0,0.0,0.0,0.0,0.0,0.0
0.0,0.0,0.0,0.0,0.0,0.0
0.0,0.0,0.0,0.0,0.0,0.0
0.0,0.0,0.0,0.0,0.0,0.0
0.0,0.0,0.0,0.0,0.0,0.0
0.0,0.0,0.0,0.0,0.0,0.0
0.0,0.0,0.0,0.0,0.0,0.0
0.0,0.0,0.0,0.0,0.0,0.0
-1.7586326523524658,-2.8524888904477312,-2.4204094033748076,-1.5710160535392406,-1.5419290625465691,-3.401351804646292
-1.1361595866706957,-1.1779073105330944,-2.8975329890110757,-2.8235098822080635,-2.13085490103042,-1.1933904635717143
-0.8239631282683738,0.1279884356831362,-0.03466471549782312,0.38629327901703164,-0.17280834786583937,-0.1544078759111144
-1.8546336486140342,-1.0132140838729302,-1.5446433216188857,-0.9578278411144298,-1.3844021193290224,-1.1268264945815951
-9.718018480881831,-11.210287168116139,-11.208895615774766,-9.736720616697623,-11.247897554655227,-10.493079838327278
-1.4664716986738233,-1.1518143069637832,-0.9504689947656783,-1.0438199733038092,-1.2000232871430092,-1.0095485135927027
0.0,0.0,0.0,0.0,0.0,0.0
0.0,0.0,0.0,0.0,0.0,0.0
0.0,0.0,0.0,0.0,0.0,0.0
0.0,0.0,0.0,0.0,0.0,0.0
0.0,0.0,0.0,0.0,0.0,0.0
0.0,0.0,0.0,0.0,0.0,0.0
-3.770102192858679,-0.3293637774042539,-2.8481061826549396,-0.8729429115585614,-0.4290765095124063,-1.9472894119536515
-2.8076088810271926,-0.8750588448955758,-1.182463883515277,-0.608875531516366,-0.4184620965006651,-1.628915816146566
-0.20127995850765446,-0.4130429129465062,-2.129712778528513,-0.9454371907659607,-0.2610732866946059,0.397313941093886
-0.15855141642938267,-0.4595640067725893,-0.6065871672128355,-0.5979100324704679,-0.5305533362115187,-0.6369778785303281
-2.5200482944345244,-7.78619533065796,-9.044515979177861,-8.552459456880479,-3.47865677190675,-2.690648187673747
-0.3835169852654196,-0.8250911421990833,-1.4718086120437432,-1.6931967689643563,-0.33487729460241394,-0.2462392157387839
0.0,0.0,0.0,0.0,0.0,0.0
0.0,0.0,0.0,0.0,0.0,0.0
0.0,0.0,0.0,0.0,0.0,0.0
0.0,0.0,0.0,0.0,0.0,0.0
0.0,0.0,0.0,0.0,0.0,0.0
0.0,0.0,0.0,0.0,0.0,0.0
-19.255131783627682,-11.651547909951972,-11.062718436866428,-10.778856926210747,-9.390353467811314,-14.9468819625043
-6.891438687563296,-10.28274606738209,-7.112454579012171,-7.844424804988168,-7.172625969461303,-9.058937127500434
3.4473619910572735,-0.2744865071611588,1.5543490207221546,0.06772236469852656,0.40283950103255195,1.0580282849740617
-1.1202630718035356,-0.00610437913953258,3.300287542695758,1.5162890926893644,-2.1274493107296104,-0.5394875854720624
-21.11398029103837,-21.96355825868754,-22.605087022778054,-23.819597529425916,-17.558916301136072,-18.81204348956923
-2.448254137653093,-2.907409405954613,-4.769193653286462,-4.4924875631687895,-2.0051833725085344,-2.1752698137896638
-5.491252780721422,-8.42598334149294,-7.459061681361359,-8.735658493555574,-8.792080968695222,-9.663337732532842
-7.317244316996007,-8.736000969470126,-6.459600987699074,-8.936492305585961,-9.370339254027016,-11.826803639590945
-0.4035305140329745,-0.3605062858831967,0.030657524426905655,-1.1698560539105305,0.09996093562651842,-0.4916684970396235
-0.4859547866905908,-0.8900308165102794,0.9698838720424783,1.0864007203244463,0.5620302760427598,0.8779222503240637
-15.95851128205505,-14.794479630936051,-15.40447734243398,-17.455761800388142,-19.26088530733085,-15.736033185843127
-2.3080073266868295,-1.9258573763482458,-1.8349249691099194,-2.552674143195052,-2.750672690267537,-1.8998192081266598
-1.7664172336356416,-10.255451992422966,-4.863459604926875,-6.61194684743691,-8.49933205986263,-4.218613602385431
-6.021663640080482,-7.639921516558655,-6.385327451591556,-7.703604770771261,-9.767911702735955,-5.674413301388798
-0.7327762575141942,-0.2015357570661218,-0.09119242174599534,-0.7855909956983631,0.0007723159702509762,-0.988768364504196
-2.0586708227273607,-1.6215589895741276,-0.2555732736291976,-1.6176516913073653,2.07335364162176,1.0707005863769326
-19.199392788897953,-7.511573764767355,-4.1371208375137645,-8.309557783119072,-24.317082956231264,-20.879889729592332
-2.983903224615972,-0.9862929008615237,-0.5496355792495966,-0.9824229795125973,-3.951217603008006,-2.4251037103820763
-2.0870561765066573,-8.753956182778982,-2.6740838072541413,-14.937130096813654,-16.67913543930211,-2.7709148581694696
-2.4026267092425826,-5.797159256462348,-2.8336366430491204,-5.844240722383298,-6.907614749840748,-1.6841280664256608
0.1081000164151993,-0.767463277874946,-0.2359526855756477,0.08960458533588679,0.35587560231929166,-0.7987815910205054
0.29570698355879993,-1.4913449463857869,-0.36024137702971115,-1.1446823073329915,0.4536651879836344,3.174536653716236
-21.45847342613204,-19.657009699904044,-17.319719179088157,-18.249388950075332,-20.553746922609424,-19.67984159214046
-4.015904291798747,-1.6186718246987153,-1.4304582279724503,-1.7132965325288687,-2.412423532704422,-3.6425023991673497
-8.500856216906111,-6.2395932302211765,-5.685950503294402,-6.67492396082523,-4.0351234622612555,-5.805056307046105
-3.803377467500731,-2.391957399109777,-4.456567085076483,-0.6319514121621296,-2.4465470858991516,-2.0382129835098355
-0.8837653205212064,0.7886718425141421,0.13354590334646457,1.0157074278563714,0.3980620145608427,-0.7995384277343431
-0.43643805049676276,-0.956927894757299,-0.24623647457184283,-1.0848977520284773,-0.4601478840388031,-2.1902524772785625
-17.936668745116513,-21.320310821398355,-21.950903239274,-18.97523350526693,-19.447030041784934,-18.698005763646005
-2.206158431422632,-1.8109658967430375,-1.6540576282751933,-2.2574546687013175,-1.6932635082751903,-1.4630928159876035
-11.6319906636439,-1.0220228987649058,-8.563531845944139,-1.7345063914085634,-1.782528268103228,-6.514911001696079
-8.216139562378014,-2.4346184271650215,-5.034592593896489,-0.6775074797999848,-1.1474159879276289,-1.6464767279823826
1.2123570473109355,-0.12382489396682478,0.9261832242353407,-0.16113104856587138,1.149845642447365,1.018246480730108
-2.9083024591078748,-3.400761646386252,-0.9568510177017341,-3.301936790995719,-4.921337004577264,-3.102993488918062
-12.477539911558738,-23.853950684594103,-24.910687602513207,-26.02098498015267,-27.213342579063063,-12.406428113992032
-0.7999415580493883,-1.5974619309737799,-2.6298720079800084,-2.8148302563664633,-2.4634859362911627,-0.8586474889096151
-13.748014309612833,-1.8728967691850804,-4.612881297281839,-2.1225382513950604,-4.403442452813222,-7.827537603984184
-6.976230153858212,-1.3288352007733313,-3.1520671315143294,-0.7719054915070681,-1.8680668176029716,-3.165167048653355
-0.03848558581408665,-0.2866243872191044,0.6887478901273699,0.022898377843522423,0.427759707599878,0.33750387590688186
-1.0870179492126533,-2.4742439421101863,0.3712656375005363,-3.190837151998649,-2.433160080086934,-2.0420804619743085
-5.9347218248167675,-19.412325951284856,-20.487168379111957,-18.190747340069944,-9.231980521082352,-9.106325058448085
-0.9683632418658863,-1.7984403763963632,-2.8503204539950113,-3.0456038682288806,-0.6380245869147845,-0.9046538900146339
0.0,0.0,0.0,0.0,0.0,0.0
0.0,0.0,0.0,0.0,0.0,0.0
0.0,0.0,0.0,0.0,0.0,0.0
0.0,0.0,0.0,0.0,0.0,0.0
0.0,0.0,0.0,0.0,0.0,0.0
0.0,0.0,0.0,0.0,0.0,0.0
-17.04085663672526,-16.588633304428125,-14.879839863964692,-14.602969482598311,-13.607147883143677,-14.199450236064447
-8.686300706434686,-13.737815694502403,-10.45388303274447,-10.721818442397584,-8.449835047542908,-12.477758765060939
3.0372621455063777,-0.4485059513632493,0.23229867752322925,0.13340632934632402,0.6257093628560743,1.445356234758374
-0.8772897738049481,-0.4226711033165351,2.232629506666135,0.6357412151961263,-1.2565299443019227,-1.2644908758884827
-20.415314002554677,-21.26750576351962,-22.924040362711665,-23.381637513401564,-17.995159226860565,-19.399116554649453
-2.425380890320863,-2.8042805041973784,-4.453402069534823,-4.31904779138119,-1.852587794021074,-2.0536932854017236
-6.1677438968855,-10.425716716084715,-9.05157709510009,-11.15038190850206,-14.179056403601543,-9.062898213810954
-8.395636496084062,-10.442145676388016,-8.073487417060583,-10.99371035267844,-9.353812775356024,-8.847657857267897
-0.833692924200737,-0.9573096598160803,0.367982272654723,-1.703419622014487,0.349763546641004,-0.36346226421547856
-1.3875391753044852,-1.8512783463676026,-0.06080563570564764,-1.1793949625669131,0.6288672860641249,0.9236879927643274
-21.822318092272546,-20.063288135656308,-20.53540151830746,-22.969937083469112,-27.42800607792482,-22.461296445851243
-3.1990192973718843,-2.5412576083367533,-2.473701692747305,-3.3328699934904593,-3.731150962633381,-2.5972856607351287
-1.3795019042294627,-7.095219380063965,-2.6497456139228968,-6.177110521826763,-9.636837726871656,-3.457728340291415
-2.340832740073875,-4.692436544739268,-4.062490075534088,-5.219094874548763,-8.543955581656942,-5.074393013706966
-0.3373140209089485,-0.6613825424263763,0.17455551025616375,-0.8793009473269167,0.38753218389956257,-0.6873356845728963
-3.8573894396392165,-1.6823347940867663,-1.1405666361194544,-1.3779213963950272,1.2059429138652384,0.05808178578258937
-19.485739039401057,-6.592087620109839,-5.221650592131565,-6.978999825689622,-23.55574405019227,-18.472752243383706
-2.658538331797566,-0.9362739998238092,-0.5678346127981091,-0.7792558528701444,-3.685912045784101,-2.1810963192481703
-2.058376280432821,-4.8758078859291025,-1.8140321013284306,-9.176622144884286,-14.227302568539685,-6.690652776755119
-2.7261852932892965,-3.3286476051284466,-1.7152123383465414,-5.321101674991632,-6.952722586040321,-2.151883164113678
0.37625027853000875,0.5402063089638893,0.032979813510996825,0.7116540579809126,1.4820075095340095,-0.2553727192467554
-1.418992218715859,-2.7505487216379487,0.00798826706226843,-2.495382934517703,0.2985058719664117,2.4095896726353985
-21.760843748930707,-16.727485100684543,-15.089216632127696,-16.118593890614395,-18.96079333771681,-21.157189461207707
-4.050720395403673,-1.4555707103201283,-1.2997713886484108,-1.517919674972968,-2.130313195650621,-3.326828037465789
-6.192194313284109,-8.82882306026976,-6.426157190252747,-12.417406542296106,-13.394520339648077,-7.762263227389704
-5.233252469842627,-3.986080847418213,-4.827295521990147,-3.955458213225393,-5.720324846253858,-3.033147786561774
0.5811697309660114,1.182460992180496,1.3089473731389667,1.7299997834484646,0.022981140593376203,0.8848011750773941
-0.7055388379606589,-1.2563128666829861,-2.5840015992968492,-5.29292761048452,0.02173531165492301,-1.7182027555543398
-22.965230120746266,-26.11131730059879,-25.63556791841096,-22.66562138136032,-23.940239014840053,-25.433985865374133
-3.2433245814136558,-2.4528218362216214,-2.2160120220022614,-3.3191818226789334,-2.471387990436029,-2.151724271609768
-11.173571172971371,-3.267614463320546,-7.460957211951119,-6.621375219202483,-3.4070706689663934,-5.850144732365488
-7.9989837595515585,-4.12234980067391,-6.009260014159225,-1.2521043283860875,-1.0840508381275935,-2.5809264315267573
1.37316502603987,-0.017262231091016177,1.3749683639460133,1.17318948997413,1.0354169917260692,0.9751616329875442
-2.196589880509001,-4.054003571642108,-1.0548533556028068,-2.2499552264604863,-1.0820972066001995,-2.201361904425098
-10.698274189048034,-22.00891624165301,-24.48638477120552,-21.019510034024883,-22.904396897941478,-10.816539457025543
-0.6747147966989251,-1.5361389890597734,-2.576350528922616,-2.8223526383981232,-2.3714576390869455,-0.797918935234456
-14.611958326500522,-8.462929896625402,-10.843686815387622,-7.0287015447871015,-6.960488405870004,-10.636261232095544
-8.384097654633445,-3.7987990963982994,-3.1955872805082763,-3.0885829034776715,-4.411749113726057,-6.950553675462752
1.14623212874669,-0.6929926785192798,1.1984129032957604,0.5103691321714564,0.5576643707978125,1.1133444430640134
-2.153973075365768,-3.5509264212167393,-0.4681659653878801,-3.514685398535767,-2.585947319459158,-2.1972430276970103
-8.596763376910948,-26.87800569367536,-26.078344708717186,-25.383259830139757,-15.399180095200226,-12.534756548817912
-1.3515377435057385,-2.6184722676683347,-4.18429213795684,-4.928060219780595,-1.0182898191636436,-1.4835082020742707
0.0,0.0,0.0,0.0,0.0,0.0
0.0,0.0,0.0,0.0,0.0,0.0
0.0,0.0,0.0,0.0,0.0,0.0
0.0,0.0,0.0,0.0,0.0,0.0
0.0,0.0,0.0,0.0,0.0,0.0
0.0,0.0,0.0,0.0,0.0,0.0
-11.441104200807759,-8.99260419741355,-9.298847068766758,-9.310277378442462,-9.072842331724969,-12.629485720138344
-9.580318665410761,-7.425688527549848,-11.31692378063713,-6.694595523280689,-7.122929935440195,-9.780206430912555
1.9334226629280695,-0.13445932757528625,0.652466052979597,-0.571893377040062,-0.2419944316789848,-0.24339891691605736
-1.2361665975033773,-0.4081418615782772,1.86159692449116,2.2650657273576162,-2.031796036905835,-2.1921659236988877
-17.641432185629178,-18.661621157162735,-19.647625519765192,-20.251301392146896,-16.918807473363355,-17.844597554061483
-2.0893129302266957,-2.647002778422001,-4.3586040097942105,-3.9324212994342025,-1.6786554330475971,-1.8966392907130465
-3.9577117078350166,-5.87908465400727,-3.80396950954255,-5.570359504572111,-9.042528336655975,-5.079550491944785
-5.625762875310383,-5.627436779554942,-8.282415660839975,-8.692499253810311,-7.801638898901088,-6.624415467750638
-0.1647383233945997,-0.8369008555419729,-0.7556471070757594,-2.408096513740213,-1.02823301073746,-0.6299823277685487
-1.6233017073676967,-2.0652313308787877,0.38612679941877115,0.5514812629890093,2.0699289547252273,0.3026338897433211
-19.616311836582476,-18.37639601093776,-18.471991669838154,-19.332053070867417,-23.14116664957491,-19.571889226490068
-2.8970610127762204,-2.314128807270491,-2.421287297824131,-3.289454739524118,-3.406629834577072,-2.3591042266065
-0.7644145609081568,-3.599766544676114,-1.3741202718836978,-3.774744270157545,-5.691922782928674,-1.6005411033756878
-1.8224856714485216,-2.353928448900624,-1.7060904481273045,-4.886065948819686,-4.388960366136619,-3.1924993429647963
-0.48892783687244323,-0.9223099185234234,0.07808532159993811,-1.1137527720911982,-0.40860684354528537,-0.6255902548423027
-3.7247440194718404,-1.7646954778385648,-1.668358885572026,-1.998392201941268,0.751888125220687,-0.4728246539631777
-21.350815998083124,-5.723063538271366,-5.812393423947651,-6.666466306082701,-21.314698141196565,-16.885430384682632
-2.581909298564879,-0.858805275002058,-0.5026327076261121,-0.6884206621845809,-3.310100617338896,-1.9531225349748396
-1.6825202698409214,-4.292298723590509,-2.360939308304121,-9.658427666690121,-13.105021939221677,-2.3565173044589027
-2.397618338828345,-1.1184765119977076,-2.577588161531135,-6.619692139018327,-7.08176139733933,-1.8730421483521023
0.8316594854783995,0.4168254604284192,0.1936641940814147,-0.22830255525099272,1.2043495331951435,-0.23249983640862465
-2.8003584193068862,-3.0117322301254816,-1.4527058951596785,-3.385616723071108,-0.12299881753855389,-0.2848980598701604
-20.9749543063716,-18.269557347212885,-16.47491358205794,-15.57138282401858,-18.787921740519455,-18.92548555579489
-4.16478533185992,-1.6018714844214295,-1.4511811926870792,-1.6290278694849443,-2.301437969695473,-3.3780767833107697
-6.529428955007115,-8.625325176378379,-7.99200525888039,-9.760221070306141,-14.272213818769691,-6.349931376760682
-2.639547468810573,-2.6305505230302453,-0.21084911191931108,-0.4979089299873442,-3.8875064754543756,-5.240775422326234
0.7371567816973484,0.1571684734995343,0.6954437115081843,0.3651474942681567,0.9980314084087348,0.7117594800154879
-4.674129235536493,-2.3333625860862055,-4.3620960624775655,-2.3279918057995044,-1.9776647620957897,-3.619794422796853
-20.55697066844826,-25.64952294154845,-21.656943317601435,-18.73516377921984,-25.781744173306304,-26.623304125070383
-3.065362737559315,-2.449570915083341,-2.3454738006447053,-3.740409525913827,-2.7186882770841723,-2.4889387948326482
-8.688262729042505,-4.154562289360482,-4.894194868918653,-4.788901084752266,-5.299968965234485,-7.212414188816554
-6.477101902772155,-3.3208664013670344,-4.725989087765111,-2.1730095657396715,-0.9852374468451384,-7.0683920945079475
0.8118933341319808,0.09063488041383738,1.3983393539981548,0.04319819281110983,0.49691951003392487,0.22375843466887846
-1.9774499422778897,-2.9293044935250525,-2.822448511744247,-2.952804195328511,-1.790377829264564,-2.8963320544420528
-12.398705102911505,-24.654299452313925,-26.863468412158614,-23.331139066703535,-24.34360835528893,-12.69155777320646
-0.9798807580754558,-1.9062143304809236,-2.855407908525761,-3.4869297592248283,-2.7798436322763536,-1.1282808910063213
-14.421352046725302,-7.876802129959749,-7.951088921657364,-7.195756094507213,-4.533534607560431,-9.732443586258274
-10.443890125188405,-2.931416062754284,-4.172707991279952,-2.5919858551156523,-0.7415072378977228,-6.492978368219286
1.0429598448277806,-0.5620481251765735,1.4572321389632494,0.425871115943222,0.7377849506303569,0.15510293679409748
-1.6505414723636198,-1.7161192627343536,-1.6764220561281682,-1.6921738005975933,-1.3864080905385614,-2.7928139258756315
-10.538366196159908,-25.5887429367887,-22.78513766276074,-21.947675567064387,-15.266341849650663,-12.843272848094559
-1.5942369943611125,-2.937791757126014,-4.32916052060371,-5.489456758887883,-1.1429128317078086,-1.8509098252806793
0.0,0.0,0.0,0.0,0.0,0.0
0.0,0.0,0.0,0.0,0.0,0.0
0.0,0.0,0.0,0.0,0.0,0.0
0.0,0.0,0.0,0.0,0.0,0.0
0.0,0.0,0.0,0.0,0.0,0.0
0.0,0.0,0.0,0.0,0.0,0.0
-11.67392852847384,-8.340837465485803,-10.346067999701289,-7.267195071583565,-3.78354365115654,-9.307548375624975
-8.158596965627595,-6.2804682731477195,-10.09596876188378,-6.08103887307038,-5.02197035337932,-7.073463132866343
1.6178449717302343,0.016228229752984998,0.7813770665571261,-1.2200542992427816,0.05388655568772427,0.10586178479242243
-1.520642205828129,0.2018700049302656,2.37588440738009,2.272715834680186,-2.8937407989183694,-1.499112404746349
-18.676433622546178,-19.591109776079097,-20.193553119321546,-20.992401687779278,-16.30745922752293,-17.042631024505404
-2.1378784639255164,-2.7792269377219796,-4.639234973142196,-4.100531492368606,-1.8349733573127593,-2.0107166244378583
-4.6717469233898115,-6.6846829946773845,-4.9344321861282054,-5.9787599600377295,-6.776915293274287,-6.028839574117285
-8.412372970034108,-7.594444476256385,-6.78993027554797,-8.426940122584709,-9.058940174328773,-9.032828911622515
0.1267278814002747,0.17271219847909527,0.9236784175443224,-1.5018078061725757,-0.7588278487315882,-0.8275409939206818
-1.464351977677206,-1.4554195183585148,1.140802004068676,1.4269687419989328,3.0198673227873316,0.8306747046066932
-21.091766702203547,-20.403983865477112,-20.506370780060163,-22.213153408046253,-24.587696714535564,-20.595528241383832
-3.0683470001235325,-2.6756642636000185,-2.7451592330103036,-3.7798672586820534,-3.783635387598705,-2.6439761120226013
-1.8160977846385697,-4.9076008044314055,-2.2773510415945433,-5.196453569174662,-4.576931903889396,-1.7332561372456587
-3.4159403557601618,-5.7096412426770025,-3.267918329436088,-5.503112621252101,-6.138665425715995,-4.181074396171163
-0.7120975498892479,-0.8953175528623524,0.06463036056385262,-0.7864060018211687,-0.4288276314681019,-1.0655513872461198
-2.3547613427040175,-1.7070373902837301,-0.9580508591975985,-2.5530186306840688,1.3373540472101264,0.4995559239469008
-21.114430174000667,-6.450732871759331,-4.64444177959197,-7.986026691038417,-22.748503003610328,-19.598803667164386
-2.892730220742525,-0.8817437633828061,-0.5187822763435312,-0.8964125699790775,-3.600785859047742,-2.227420459741007
-2.5540258195297914,-5.306387465197485,-4.106237470246478,-9.956316412131846,-12.991555557816628,-3.159647210670103
-2.0122422049413684,-3.629665062397003,-3.6049967710452133,-4.196862894915173,-4.834670476401329,-2.233060475178783
-0.22390434873442414,-0.10484790997000538,0.13099952640171242,-0.07605310712641636,0.012874620154638423,-0.38681146761676344
-0.5754624245119699,-1.8047545962217932,-0.9348981353477895,-2.5243434271349257,0.032362461835011486,0.24508034440800483
-20.843019753476288,-20.998165015305457,-17.986484033516284,-17.578316270928227,-20.086896151270786,-18.784767203188437
-4.089977809664041,-1.8109233210573628,-1.6113714753553088,-1.7856845519855993,-2.6021137655179745,-3.7186456138179103
-9.318211037453558,-6.241984026223001,-10.82213511371708,-8.892004055133212,-8.83108219802837,-7.726858337864909
-5.086549429492953,-3.078506920760627,-1.0722231197252434,0.758057571999533,-1.052946653198048,-2.3090210851077124
0.3350860785118797,0.9685341854832534,-0.15453262226380318,0.15716881843717795,0.4964059862038931,0.7847532295479789
-1.7132090610054982,-2.4083972904212168,-2.519690132234219,-6.335456330152464,-3.003742733022688,-3.4067858764596326
-25.718028263583843,-31.627782165714123,-26.94675676899383,-26.174168832187945,-32.03430732853924,-29.630552861554506
-3.1250526846510773,-2.77702030598775,-2.7276678291657377,-3.9212728839696913,-2.9079093570178145,-2.692740119659555
-9.868030565317952,-1.9814249286896075,-7.528267055334726,-1.6621724123510901,-3.5538484667587102,-6.501026717147388
-4.503043747547586,-1.6134999291361054,-4.2391805726323435,-1.613563596428742,-0.6983067650270811,-2.8486442720971112
0.5496231572178495,0.04692269619595894,2.0031142291717954,0.7406682751795928,0.6700616646200127,0.39366952615773054
-2.5913856993481414,-2.2013492762610536,-2.4343489400837695,-3.45173045149635,-5.160812780696758,-3.7661595392302005
-16.08453989798065,-25.59520373630041,-25.828996017098124,-29.366114976236357,-29.5676229216444,-14.020997896934512
-1.0829800089024921,-1.9575731430695174,-2.945048740279742,-3.5137125316086393,-2.8847170812007965,-1.202344696612102
-17.90389950783436,-3.9584603170518062,-12.792303498385385,-3.904302148772113,-3.2375621549157363,-5.99811162163988
-11.606214974811882,-1.0326809698393085,-11.299543017414129,-2.3079042443961924,-1.1714659452056297,-4.334854012671792
0.2751838628221858,-0.05059798153123112,-0.1690472777996621,0.5417635117233165,0.541787254077744,0.18726968440866043
-1.2617457825893066,-1.029938896612124,-1.0099680653150662,-1.6617279074355245,-2.724980587964794,-3.001959578280205
-11.311129058349842,-27.096765979269918,-25.979191520182184,-24.11845793166836,-14.099138785988703,-14.139117822559689
-1.6671360650516276,-3.0528121985081804,-4.409125709612374,-5.233076169039554,-1.1288681006971775,-1.779979640409544
0.0,0.0,0.0,0.0,0.0,0.0
0.0,0.0,0.0,0.0,0.0,0.0
0.0,0.0,0.0,0.0,0.0,0.0
0.0,0.0,0.0,0.0,0.0,0.0
0.0,0.0,0.0,0.0,0.0,0.0
0.0,0.0,0.0,0.0,0.0,0.0
0.0,0.0,0.0,0.0,0.0,0.0
0.0,0.0,0.0,0.0,0.0,0.0
0.0,0.0,0.0,0.0,0.0,0.0
0.0,0.0,0.0,0.0,0.0,0.0
0.0,0.0,0.0,0.0,0.0,0.0
0.0,0.0,0.0,0.0,0.0,0.0
-2.201707670006043,-3.4293814875119972,-2.721554102867218,-2.268826442632163,-3.267812049902112,-2.646518666752243
-4.702039100565275,-3.809087896890545,-3.364451049758233,-2.7793816951961867,-3.9390947996282244,-4.894257002330596
-0.14649040228866061,-0.08934826344647813,0.08799996799175785,-0.4011137864176893,-0.1906757285656957,-0.41210196808426014
-0.3026537582361779,-0.44854892149243347,0.5002229317407649,0.3573692237648747,0.6403252330108776,0.3945442579611514
-7.5188645776378875,-7.27833401913314,-7.623342927768479,-7.88992196675607,-9.04412017141962,-7.375576089339888
-1.0968653276993119,-0.9583837589013288,-0.9654482868582788,-1.3221514572304147,-1.3686995589305704,-0.9445362268882923
0.0,0.0,0.0,0.0,0.0,0.0
0.0,0.0,0.0,0.0,0.0,0.0
0.0,0.0,0.0,0.0,0.0,0.0
0.0,0.0,0.0,0.0,0.0,0.0
0.0,0.0,0.0,0.0,0.0,0.0
0.0,0.0,0.0,0.0,0.0,0.0
0.0,0.0,0.0,0.0,0.0,0.0
0.0,0.0,0.0,0.0,0.0,0.0
0.0,0.0,0.0,0.0,0.0,0.0
0.0,0.0,0.0,0.0,0.0,0.0
0.0,0.0,0.0,0.0,0.0,0.0
0.0,0.0,0.0,0.0,0.0,0.0
-3.851738748044272,-2.892118893285935,-3.54674520963318,-2.5352072754812953,-3.925240701805103,-1.5220824913558515
-2.499075533915434,-1.836510414429641,-2.9989280563504694,-1.2989016400259104,-1.0707109702706992,-0.32998765391290635
0.17474414989442422,-0.11706271479511822,0.29275121052087993,0.5850382919958964,-0.39765563155632677,-0.2376353687819977
-0.3437915177369712,-1.157759551072693,-0.24067019099959988,-2.4081814774308326,-1.127520654782086,-0.9924309868194313
-9.82331155533707,-11.67147550609825,-10.618926202664131,-9.815995100906015,-10.83478386603816,-10.093067515328448
-1.1063036466222458,-0.9495757461964798,-0.926766633755618,-1.2687251997795113,-0.9382753292008615,-0.8548491078028972
0.0,0.0,0.0,0.0,0.0,0.0
0.0,0.0,0.0,0.0,0.0,0.0
0.0,0.0,0.0,0.0,0.0,0.0
0.0,0.0,0.0,0.0,0.0,0.0
0.0,0.0,0.0,0.0,0.0,0.0
0.0,0.0,0.0,0.0,0.0,0.0
-6.647564618486776,-0.424508162482745,-4.509250558093089,-1.2482998159841847,-1.4818477934755194,-1.9123152861536543
-3.5430741843547287,-0.3469148814225957,-2.74738231458011,-0.4018572417103562,-0.3111979248696548,-1.5523175967943215
0.03649922868448195,-0.07547012940384193,0.05203546090785836,-0.011296688472277612,0.16334489247719253,0.14374305102759993
-0.44133567990833195,-0.5396811077019003,-0.18168413808798256,-1.0179994386330375,-1.0729523557471117,-1.0860787765017188
-3.595417114912284,-9.991396621413926,-9.85895383262099,-9.285636619400142,-4.393088123768471,-4.83775454335513
-0.5179973763162998,-0.9861313665720415,-1.4747543552130644,-1.5831286512989144,-0.35164394101622165,-0.5284726215388171
0.0,0.0,0.0,0.0,0.0,0.0
0.0,0.0,0.0,0.0,0.0,0.0
0.0,0.0,0.0,0.0,0.0,0.0
0.0,0.0,0.0,0.0,0.0,0.0
0.0,0.0,0.0,0.0,0.0,0.0
0.0,0.0,0.0,0.0,0.0,0.0
