x1,x2,x3,x4,x5,x6
-1.422992198670608,-8.569903257343332,-3.228623113213165,-3.9438386979800657,-1.3524663790767155,-2.9379682499318958
-1.162712864735417,-3.1590871345185687,-2.5333990921482727,-3.749162481124072,-2.342801976750473,-2.9101521106174033
1.2440106872412648,2.5032497222379866,1.2735166380352116,0.25501155712518375,0.48431898100354875,0.5526784627322603
0.45189351064913474,0.2285047841490452,0.26789585586375597,2.0597858753702765,0.046196004190666856,-0.4813138771149063
-9.91164123587775,-2.753285005608149,-4.062367734898336,-20.612499364240602,-11.135463039519838,-6.629143878844041
-3.542075033606155,-1.4841496613016034,-1.6310277027534121,-11.682576798031128,-5.957632041036751,-2.385583397886052
-1.3998961171409687,-3.9813937718019323,-4.384152148052794,-1.952098445561815,-1.9038515756546222,-2.5519689659185447
-2.5631558196035886,-2.496441909914938,-5.531007416755223,-3.303030905123815,-3.2190198215869263,-2.613341516877174
0.718109827349129,0.9930833554556556,1.2716868690627192,0.4228259779145774,0.4712264582755104,0.31877629351795334
0.18205665707286925,0.10690072145251173,-0.09361265631438144,0.5086830475154881,0.14958319926734334,0.1803016990339174
-0.8649577681053613,-3.8119021082001447,-2.5646203447792795,-0.5271662502567391,-1.1645525975323454,-0.8623228604180085
-0.18880490903744315,-1.6390113970384852,-0.5391721791434487,-0.15261450579090757,-0.30951534229346833,-0.1755320439025136
-1.6208397823874132,-0.673717357493597,-1.803647760769878,-0.16620968208921677,-1.4581841737834225,-1.1750371443335001
-1.9077655675135703,-0.8693796566704395,-0.5629707342079094,-0.3217425096387497,-2.5475318490361234,-1.1892730171846944
0.5626606488614684,0.9799106057188943,1.7458114831065168,0.554795915573973,0.0820669518060219,0.3401122103018352
0.7423874715805897,0.21882146079685993,0.08967859397614804,0.7926078844823105,0.29119286111734977,0.16644561361457746
-1.0752752715518523,-17.936037354229537,-9.82923945754692,-0.38921698786690806,-0.5169537010881605,-1.8061227296154962
-0.4644224394128923,-6.542182066618369,-3.87933520225725,-0.20222444270302112,-0.2672887998382491,-0.576384594461994
-1.0663158718228867,-0.14205910728217644,-1.5755716828387956,-0.5004324151327172,-0.7502116422862448,-0.27875953978113654
-0.35386086330021055,0.12058192743866475,-0.25876181099076956,-0.1263747442174496,-0.6835506012630135,-0.08729542980743026
1.7460234955452445,2.9548470467903893,2.5757035555338095,1.8294123648103224,1.4108753293376075,1.3769749628742016
0.11467919946763198,-2.701644665507402,0.5732994005710292,0.8159727002483075,0.3513696357024465,-0.4647865587267278
-19.670478720429266,-24.708765633158098,-24.073802159760145,-18.55974058878813,-18.69709893156019,-21.01459953074596
-14.690925021866759,-19.13704348033899,-19.477601208343533,-13.079009622512647,-13.180894076093434,-14.06009001255856
-0.2742899952374502,-1.0787536370621176,-1.4949634219636718,-0.9558075665966087,-0.22261247110489948,-0.23157639757951048
0.0519357593814824,-0.4950666324100976,-0.5149475818254583,-0.07779066722941431,0.15733208350252895,0.07667987270047806
1.9972824006312373,2.7750469757815446,3.9130932969751355,2.8647228034111714,2.279671221266167,2.254904841345438
-1.2763193762407052,-3.6000080561877703,-0.06385954178652022,-2.0750227040929534,-1.4740668083044195,-1.9399523878238343
-20.06038200054033,-18.456952136641917,-21.011594626912117,-19.46204017253918,-20.80217431430156,-19.676440392207983
-16.67129323760813,-16.31606617781448,-15.069207314200643,-15.995651956251486,-15.899510550653293,-15.88931460433544
-0.11409295772610005,-3.2717592233764687,-0.14048141077492426,-0.6202688997665162,-0.08332274099874605,-0.28334680305726384
-0.13444780674563542,-2.081626341344384,0.2406135028669535,-0.30444381269383747,0.10684926298101675,-0.09968037673035986
1.379846200339393,0.9176330340174322,2.077059452673553,2.386784855241533,1.386513889263936,1.3360579711178278
-0.3919259087167523,0.1466031229014206,0.23571389622877317,-0.4284112041858388,-2.4302143187317107,-0.7895783941376563
-24.922224649248573,-22.507962367973832,-21.58095108549259,-19.202078444797085,-20.92362316955198,-21.938428640012535
-16.09923929016288,-13.751558197876687,-12.689245080651098,-18.48921432604914,-18.529651972797144,-19.03522607714445
-0.15991836574465793,-5.082869775673235,-0.29219857867768145,-0.9990257686449121,-0.1899868001090635,-0.9184258388005523
-0.1816224968807796,-2.3400470116566052,0.19033525899965717,-0.756361851599213,-0.056781275674230004,-0.6115563411121757
0.9096725612910375,0.8185481942439321,1.3431959022580704,1.0069018515235124,0.9079185061762541,0.9005850044366919
0.7427296966088303,0.04162667853541432,0.7852255479117567,0.48339989652967386,-1.1198851809346835,-0.8541878117368805
-21.879734775078255,-7.778242366365483,-7.883920896208147,-21.018695491032826,-20.530184108706212,-15.940351685475017
-8.789312901235267,-4.700413311197908,-4.148133546711815,-15.288087000069345,-14.307251775608066,-9.144825905073791
0.0,0.0,0.0,0.0,0.0,0.0
0.0,0.0,0.0,0.0,0.0,0.0
0.0,0.0,0.0,0.0,0.0,0.0
0.0,0.0,0.0,0.0,0.0,0.0
0.0,0.0,0.0,0.0,0.0,0.0
0.0,0.0,0.0,0.0,0.0,0.0
-1.8669835654938847,-9.367791075259875,-2.829798364868793,-2.7166500105784555,-1.616114944059053,-3.033055704269927
-2.903871695320937,-4.488405384156132,-2.5499098569764658,-3.827433839187535,-2.66239460791663,-3.761176761524451
0.33226340983427377,2.4936228022034945,1.9021378501945259,0.10787483967962068,0.493217164076783,0.4747077923456747
1.0157890208248774,0.1639321305667019,0.4466343665630299,2.3576234455334966,-0.039201434025700574,-0.09308709457949524
-10.258035648864825,-2.4472965674682663,-4.052302537340825,-20.909665978692615,-10.95804713062943,-6.813740676107557
-3.6509840399784914,-1.4469519474163028,-1.7337984010688332,-11.691166476578642,-6.013356049936587,-2.462726135872192
-2.088039996885558,-4.50841832816719,-3.955124963893878,-1.9247866314796032,-2.525756230545746,-3.688729674475692
-4.567659803355399,-3.1940817026716855,-5.928372918732432,-3.0984654566170056,-3.642459661272902,-3.8671204189272097
0.2776051223202163,1.2179619291176598,2.9554762072926923,1.0498037394709696,0.7270224059722826,0.22752384162018713
0.5451394160520732,0.14979180870576533,0.2279426280164768,0.8664887322533937,0.231649133663146,0.2942568996197273
-1.1838314331412632,-6.1021253009533725,-3.511451785736796,-0.5139338781873627,-1.709760691474795,-1.3615018748196313
-0.26773257989456206,-2.6672164019497853,-0.8639741427162214,-0.2034759378101842,-0.45925786493285964,-0.30642264969505406
-1.5086145649598293,-0.7645116719958243,-2.038312514027488,-0.5853183749552241,-1.7140715593654552,-1.978485428234159
-2.5254226476480053,-0.7078113873438843,-0.9066082117803318,-0.523081490488103,-2.024083005682874,-1.2004229695393662
0.4017358839752439,1.0528646806675734,1.1677395781745277,0.5889002319840463,0.21929785913825448,0.44390383282568424
0.791954199359544,0.21453327436332303,0.6064096236559622,0.7369301376831091,0.304906855205619,0.15524619518285354
-1.136824484646157,-18.40564860963872,-9.964353540235813,-0.3835079791618229,-0.5714442642320691,-1.6491497597123541
-0.4464888492621067,-6.665527875153831,-3.9891569213534566,-0.19756947594785682,-0.28025506366303204,-0.519458135651087
-0.811747757153815,0.002391672461220257,-1.1879840071204697,-0.6656710480244056,-0.9400748127531816,-0.2681224327767164
-0.5490043236242937,0.10561950342909707,-0.31907765819757833,-0.31150154541858854,-0.37513011735627494,-0.2115553854108486
1.7967655444520234,2.9689637101927406,2.8771802840596084,1.5547886342027712,1.5522219152415269,1.2748816333711628
-0.42604267874954577,-4.21457777994439,-1.8458820538179725,0.14690448325398192,-0.4162768442314605,-1.2193244035228572
-18.853603938646405,-22.87425679833839,-21.578573898520148,-17.82901505843265,-18.689269755131168,-19.055188652344007
-14.41680750278639,-18.987318886195855,-19.03294874254618,-12.769853272750526,-12.94956357455805,-13.600538807122843
-0.034419383781112554,-0.6952733112300689,-0.400022177674671,-0.6492265521544496,-0.37737666917119667,-0.19990663722589497
0.12811363767540135,-0.22791580496547043,0.1329094336096136,0.3111308926250595,0.1362041476640345,0.14643805959622608
2.5804819949081956,3.8223971759177418,4.995749564339904,3.27629389308011,3.1118616438972664,2.696003371112377
-1.9566848798980265,-4.954592061096015,-3.078218989897247,-2.838836143326421,-2.8105642670229636,-2.905404805049818
-25.458010131215026,-23.842701943153298,-22.73667456940457,-24.76564732711008,-27.39520882883297,-24.958621901114995
-24.8717243716169,-24.72548423812726,-21.965245924565217,-23.15401859781927,-23.43537461785166,-23.37826493328845
-0.08583714322461616,-2.0804792585407323,-0.1883803610893254,-0.323460112127751,-0.1739806726199748,-0.6644468697194699
-0.25575303507824126,-1.2616968676491334,0.08098651156882623,0.05861090318564576,0.1404965564171114,-0.18763752159081412
1.1469743962917702,0.7706197358890121,2.129634118002427,2.112553363411999,1.5413531325990877,1.3253396478645327
-0.5097577039835325,0.1706307198084014,-0.5173916930715772,-1.3801637174632555,-1.7349064225365145,-0.711576559552854
-23.40154434301893,-21.675799370270425,-20.576841657909554,-18.626316767971595,-20.110588116637164,-21.254700062609782
-16.197592043132442,-14.018727259793232,-13.13564487650058,-19.023108616096195,-18.598792638950123,-19.515647635532623
-0.20927965372349777,-6.710541254648747,-0.588739966529237,-0.8107720147608397,-0.20689145893688687,-1.5986281836363976
-0.22249112085909797,-4.019770255402015,-0.24172241215919824,-0.9786140912015239,-0.019977554355743943,-1.4622277411740168
0.7720782725716872,0.6723856474625229,1.6191790850917382,0.917226615248433,1.1006542606405132,0.9753338374602618
0.7155067561412555,-0.1626819330294275,0.36867186142546304,0.4516491748811834,-1.1477364012334794,-1.0524904688995171
-30.835101552456198,-11.07468654221048,-12.268446855547053,-28.511157013356762,-28.543269592850514,-23.417132516042937
-12.932981756163622,-7.114204570383396,-6.3511899150734035,-21.95925000138572,-21.682524813446168,-13.60136230395537
0.0,0.0,0.0,0.0,0.0,0.0
0.0,0.0,0.0,0.0,0.0,0.0
0.0,0.0,0.0,0.0,0.0,0.0
0.0,0.0,0.0,0.0,0.0,0.0
0.0,0.0,0.0,0.0,0.0,0.0
0.0,0.0,0.0,0.0,0.0,0.0
-3.326041120831289,-8.987423533476923,-4.859975884833094,-2.0051831319509565,-2.043059936015806,-2.827811309604813
-3.1950810601779818,-6.171974564987944,-3.673897543338535,-1.9513933668971322,-1.6365962650600157,-3.0131215197440016
0.31413029518110935,1.622420888305852,0.7126084108197615,0.07389827669811998,0.3308796245539889,0.04446673982795982
0.7749845781913125,-0.027019633792925952,0.6112768551458214,1.671694561751244,-0.035104559227235765,0.12206720974867515
-9.93864047379871,-2.364497714027526,-3.6770578608588433,-19.94054565057966,-9.751047876638095,-6.4373875025574465
-3.4457192791209215,-1.357617153742666,-1.660022769830301,-11.134084790993882,-5.509962328776625,-2.3249906917404735
-2.8235203978389065,-3.761684059366489,-5.455600570724624,-1.2376436791631795,-2.509562980948066,-2.818099364404959
-3.4776876323487618,-2.9723620438327343,-5.139302592580206,-1.586940311459664,-2.7355951501593108,-2.689798889809221
0.5175750088989081,0.7930894721150025,1.0344380631694678,0.48801698640399505,-0.5356510474430166,-0.12092130770479015
0.5287388408841649,0.0015112472878087053,-0.08896391472864892,0.8081601009102202,0.11180722467828645,0.32760913919337586
-1.169482968241665,-6.185816430947752,-2.7614913737937092,-0.5992526813533494,-1.3399874667145006,-1.3142458109084192
-0.24952814385041666,-2.5070848223714735,-0.6506761724107287,-0.1593682661593529,-0.34767650368380343,-0.30187793284398345
-2.039125589365536,-0.7352034886526002,-2.2229532787789767,-1.6421941939305607,-1.162720040343036,-1.3272383516667787
-1.6654908479491386,-0.6112640154815212,-2.2075956105732057,-0.9970788627803971,-1.2848917952547438,-0.6001642398188738
0.5856607971852122,0.9738740891859736,0.32399747702582693,0.29021072659523744,0.09593973470977556,0.19823231995363935
0.7706557304526651,0.007632124794084056,0.8290960755191821,0.435736461974727,0.25135663785878753,0.1426849653063027
-1.0523836233623187,-18.279661895432735,-9.504507281284596,-0.4288486669057168,-0.698072177257055,-1.6551148312863906
-0.4531758836395435,-6.595421299102879,-3.7669084479021366,-0.19451863030187327,-0.3019317886478114,-0.5175718720358006
-1.627609619679962,0.018021183618732697,-0.6185266494464501,-1.107890266032822,-0.8133393803072896,-0.38784462295181144
-0.6491241276927839,0.020422265483477416,-0.8990898595871656,-0.7341498273866516,-0.718294500816218,-0.14409981905670055
1.3499415607253866,2.4284380086891058,1.9961435942973922,0.8301584670110802,0.7765372889169058,0.7126600051663474
-0.14794232983669983,-3.3221535799238673,-1.4220897453971362,-0.5718723578076775,-0.5512078102960439,-0.5565285359133354
-17.816052094372534,-22.672818979816995,-22.094954169007746,-16.975635480253647,-18.062288481052526,-18.007755358906003
-14.807667983400055,-19.285213729287648,-19.686083761979326,-13.231663509138896,-13.388074665933692,-14.050329443434375
-0.16463808293354462,-0.16449211752469267,-0.09678038629988021,-0.37340007130699665,-0.5445289802964018,-0.15409647535918
0.07726934581653398,-0.31629842620549,0.2893213392574845,-0.13598728181687794,-0.32306214192887744,0.01644837364705368
1.7173113088446463,2.6324012056806354,3.2660349197810157,1.5578799173021993,1.8708153947137325,1.3941859470341873
-1.1942819410652188,-2.503039843438226,-3.459608046127322,-2.9111147501856904,-2.132820097399301,-1.3973573514562123
-23.95050512955516,-20.890041886118468,-22.51711907448823,-23.578715975611093,-26.43084020764568,-22.74474163196687
-25.864920674376645,-25.205052166692322,-23.285793623791164,-23.58663942718514,-24.405425910607143,-24.217900575757746
-0.29652695884039443,-1.6218524522455213,-0.11628750230872373,-0.20595668574842318,-0.1979971197386192,-0.21141049811382737
-0.40996043313538255,-1.3690001574032555,0.17475462822923207,-0.06655918335251367,0.08338976588922845,-0.005424665288052408
0.8415576728440501,0.3553737009409386,2.185476449218714,0.9255586567055767,1.0099774097181036,0.8105295175539394
-0.2151091030993663,0.22877239509069522,-0.13699601332271308,-2.066569320963492,-0.7501920790934145,-0.11045394569128643
-23.669157655455308,-20.85076693230488,-20.355289641708996,-19.29938443411224,-20.41533422015802,-21.405601507111797
-17.161002342273157,-15.05068444387089,-13.992733036930726,-20.439842819001765,-20.293959324478895,-21.01143149372857
-0.5673581637712151,-7.30084126427793,-0.8227817282062343,-0.6189021679499714,-0.34483026347092344,-1.147825070299954
-0.5666837387114783,-5.683572160191296,-0.3724760441100371,-0.6048778986921295,-0.08758024155674533,-1.0504263471191904
0.699410236028348,0.5179330080352563,1.3305676158600075,0.4523407346165562,0.6598966204532869,0.4915437114107161
0.7504819385770976,0.07051380850539762,0.17950580049137468,-0.03712977698331746,-0.3537158960688568,-0.5077257660584985
-28.76605674578653,-10.415808354941458,-12.070912932488751,-27.615187184760664,-26.26886627869783,-22.625597400822954
-12.793132883413906,-7.299511419397954,-6.792271848332889,-23.007991055320378,-22.157513498551634,-13.938884872738866
0.0,0.0,0.0,0.0,0.0,0.0
0.0,0.0,0.0,0.0,0.0,0.0
0.0,0.0,0.0,0.0,0.0,0.0
0.0,0.0,0.0,0.0,0.0,0.0
0.0,0.0,0.0,0.0,0.0,0.0
0.0,0.0,0.0,0.0,0.0,0.0
-2.0265164401259526,-8.07795887605089,-2.836236457275572,-2.5823725290142816,-1.2231477724137536,-1.902779344397972
-1.8317696465402675,-4.442376686480737,-2.7995987736194445,-1.6833195709030255,-1.0972492653191888,-2.3354020255920744
0.7342927499414077,1.5366369461524871,0.34713354957894577,0.09942747313297895,0.4762539582326952,0.2272333537736923
-0.044636332544916044,0.041904358396320375,0.17496793321768103,1.3834454229574549,0.07567374245393038,-0.07703962083760986
-9.705588387043921,-2.646521052371246,-3.5941911764098258,-19.04528256857196,-9.87199922089869,-6.12299315940344
-3.304469463759363,-1.3332164318140904,-1.5190781302562633,-10.69052711729811,-5.497222579992785,-2.2848732043495086
-2.1342339951914133,-4.539061690331896,-3.764788450702861,-2.347929376588781,-2.328699188603164,-1.6611048022922361
-2.007875859130074,-2.6074308126727708,-5.233034196048468,-2.0132773076642363,-2.5713788411024763,-1.9608458297056326
0.9425747564466711,0.8690723703062538,0.02679442708545938,0.22860827320918464,-0.1292994247785902,0.1636257996308214
0.12729079171275848,-0.03890623887967335,-0.9103665438975607,0.6544933671399055,0.04294548653973997,0.22735496051482199
-1.129162794710307,-6.0095373306975155,-2.7429494148672777,-0.7664912347047197,-1.2273916261358868,-1.1660818180202006
-0.22527443117080528,-2.3620572292867603,-0.5660367955694484,-0.16280124474528518,-0.335065698851571,-0.2488847601993274
-1.93144799027181,-0.6444586058145545,-1.6073128546192237,-0.6385440677645937,-1.1878376506964372,-0.7750673914605434
-1.2205890156936503,-0.8715983650264731,-1.7221328412284742,-0.5469472077610356,-1.5955147626009425,-0.5584275599249271
0.6913886024657219,0.8603582848050804,0.5436653826207902,0.22978226751415273,0.043144516566571964,0.1841015321988585
0.7549153910015397,-0.024462726832880064,0.1486733341435746,0.48357250891142844,0.2170887383964253,0.13605436912961058
-0.9684196983016602,-17.707217217299796,-9.179732537625455,-0.46514365231018356,-0.6220275273384679,-1.8601481453398871
-0.44470671697336944,-6.4079843602750675,-3.5717910914287083,-0.22182959052511086,-0.28996312681515046,-0.5987395652702682
-1.6454898222359817,-0.09509956807603871,-0.8729517628306795,-0.6232945807598456,-0.8401481407095814,-0.10607621628757513
-0.45688841307377204,0.02777702431838766,-0.7897637870321021,-0.5879483523518957,-1.1308979660434342,-0.16216158967638702
1.2616447393722383,2.3528557687393334,1.2602970865319394,0.95351125316902,0.7133486947886846,0.7285700884070271
0.34865772982079957,-1.4910388441742215,0.9214542219995595,0.14587488157921621,0.3100806565487829,0.18517264499457287
-18.145046154010252,-23.761945355798225,-23.55462911745391,-17.38550823032729,-17.454754198896506,-19.406010778272787
-15.038833726219794,-19.192379127065042,-19.841235582206735,-13.530553919249392,-13.42724759206221,-14.503834019700882
-0.37964536294862233,-0.482264515357912,-0.39148777111154615,-0.2529384266047043,-0.48059664182282097,-0.006317827749117226
-0.19785313640943322,-0.3964414163072407,-0.7471583625364778,-0.7064060792594846,-0.5345722280738413,0.2627153397015915
1.7678566549687156,2.5972963281283854,1.7695113756603165,1.8124947397645177,1.8063759660925878,1.6615314929797822
-0.08983302451262468,-1.3000497682359278,-0.17109379950307754,-1.6300277381340154,-1.0895459085051713,-0.8179293333135516
-26.876364589124915,-23.393761690989137,-27.59645075029377,-25.895632314626884,-27.67589714019984,-26.200136757619802
-26.109352446225877,-24.959169751573743,-23.7495468002033,-24.47590487249252,-24.955528532133272,-24.609742043573952
-0.16914628004869872,-2.148716136116359,-0.14868819485658794,-0.34756755329891637,0.0007659869524352101,0.06379545486132981
-0.37776565294923053,-1.5198228074654396,0.10219615320783361,-0.23669735835943503,0.08177796041160891,0.20335941694504628
0.9717503326800232,0.4857506297173815,1.960526630998446,1.1713529894100634,0.7640345329464905,0.767431100412619
0.3492142301064959,0.26028749253821176,0.34491061937093354,-0.734010504035482,-1.3504131942431004,-0.4078131102129769
-24.04892427775353,-21.706879595781313,-21.220231664413024,-19.16461347789324,-20.587774860379696,-22.808502240925883
-17.06159605409895,-14.8691710661292,-13.604805243857426,-19.87078283042624,-20.285742767120023,-20.50301990142477
-0.7389798833017633,-6.605678673636747,-0.9563251310073659,-1.233486619251461,-0.23215355155627915,-1.111200964265173
-0.9500644055234786,-4.246982659292583,-0.2293462268698353,-0.8072085061435699,-0.1207694666201996,-0.8091022370242665
1.1268621063144142,0.9807279117031283,1.55228634711745,0.6076288589613056,0.7187665291244765,0.5973301641629564
1.2451764040939437,0.2452804274812553,0.9146763567586855,0.7152652293304909,-0.4122130111210552,-0.5221765575741891
-30.105553300983075,-10.973428708803814,-11.457990307895914,-29.66368142958902,-27.721037615624898,-23.048633741973333
-12.953532361011119,-7.291757364562554,-6.6260651570347715,-23.608823600245465,-21.87942839847884,-14.294376421053816
0.0,0.0,0.0,0.0,0.0,0.0
0.0,0.0,0.0,0.0,0.0,0.0
0.0,0.0,0.0,0.0,0.0,0.0
0.0,0.0,0.0,0.0,0.0,0.0
0.0,0.0,0.0,0.0,0.0,0.0
0.0,0.0,0.0,0.0,0.0,0.0
0.0,0.0,0.0,0.0,0.0,0.0
0.0,0.0,0.0,0.0,0.0,0.0
0.0,0.0,0.0,0.0,0.0,0.0
0.0,0.0,0.0,0.0,0.0,0.0
0.0,0.0,0.0,0.0,0.0,0.0
0.0,0.0,0.0,0.0,0.0,0.0
-0.817169219775054,-2.2613887240689476,-2.106431185898638,-1.1995410927156813,-1.2986251455317197,-0.9025551157158259
-0.5543653379832245,-1.0692667704575727,-2.4759980703693985,-1.3193873416481374,-1.2547301613581368,-0.8821339038626165
0.5165625472780602,0.3523084863289911,-0.17926990967964065,0.05595592099630394,0.023709251584404428,0.062269102189084255
0.011170608671634349,0.0032972956179804533,-0.3941253065567953,0.23152161720637382,0.008142325572531296,0.07657287261839675
-0.35445705792199805,-1.9071270295224747,-1.1239021513093048,-0.2809509497903638,-0.44658104799056325,-0.3838311625033517
-0.0712666073719395,-0.760487928700548,-0.20807438602672212,-0.061520333939953764,-0.12373239792203032,-0.07978437666277857
0.0,0.0,0.0,0.0,0.0,0.0
0.0,0.0,0.0,0.0,0.0,0.0
0.0,0.0,0.0,0.0,0.0,0.0
0.0,0.0,0.0,0.0,0.0,0.0
0.0,0.0,0.0,0.0,0.0,0.0
0.0,0.0,0.0,0.0,0.0,0.0
0.0,0.0,0.0,0.0,0.0,0.0
0.0,0.0,0.0,0.0,0.0,0.0
0.0,0.0,0.0,0.0,0.0,0.0
0.0,0.0,0.0,0.0,0.0,0.0
0.0,0.0,0.0,0.0,0.0,0.0
0.0,0.0,0.0,0.0,0.0,0.0
-0.2838698098567082,-0.6483301712995192,-0.3456745026353228,-0.15879741477466436,-0.23300965133885704,0.04758067180857211
-0.1324208829406006,-0.3482752911807213,-0.9260554233730611,-0.33269133451225313,-0.14875919880423014,0.13904712394921562
0.8115993665465435,1.213902819801904,1.2140832147021685,1.1128464027447507,0.8735720856983962,0.8605594733451416
-0.051249545579441946,-0.8288267478544488,-0.568253959915973,-0.6070906619237653,-0.5845991931690483,-0.3455993858698775
-10.260201945351875,-9.52758941305805,-11.341435984938503,-9.678166310329859,-10.402604396502184,-9.856837117391757
-8.548264397250087,-8.375043296430936,-7.9434849457423,-8.368196717410195,-8.349407365750858,-8.25396447497231
0.0,0.0,0.0,0.0,0.0,0.0
0.0,0.0,0.0,0.0,0.0,0.0
0.0,0.0,0.0,0.0,0.0,0.0
0.0,0.0,0.0,0.0,0.0,0.0
0.0,0.0,0.0,0.0,0.0,0.0
0.0,0.0,0.0,0.0,0.0,0.0
-0.2116587485795916,-3.1627809872295045,-0.30720706355188115,-1.0462171911852565,-0.17090234049349043,-0.5799511161959818
-0.3090469395527712,-1.1123178653905719,0.09288782874454542,-0.5299410366275177,-0.11572379451919981,-0.38916473251022177
0.5897028867722854,0.5247201700486415,0.8040214758763647,0.35431459647763797,0.3382419770830927,0.3234231383200529
0.584461153754639,0.11849843656620133,0.5804227832246005,0.32836503402119593,-0.3894237177791682,-0.29859363202054756
-10.817420661173788,-3.9677538364155516,-3.842182596048437,-10.336456487121062,-10.091023369006288,-7.924045166874416
-4.386533138354996,-2.434563221459215,-2.1294506231589336,-7.70710133444421,-7.157151463524044,-4.718996431482752
0.0,0.0,0.0,0.0,0.0,0.0
0.0,0.0,0.0,0.0,0.0,0.0
0.0,0.0,0.0,0.0,0.0,0.0
0.0,0.0,0.0,0.0,0.0,0.0
0.0,0.0,0.0,0.0,0.0,0.0
0.0,0.0,0.0,0.0,0.0,0.0
-2.6756251741240242,-2.9794731754701536,-2.0988653740247276,-4.036126529937098,-2.9773675444252596,-1.8602115276955289
-2.699520204995825,-1.669009971656666,-1.4979574932930702,-2.8443371798412636,-2.034675711412192,-1.8347683980364902
0.35088199233440276,0.682581061706333,0.7284514539054068,0.3694571312805194,0.14372170402940254,-0.07445130678620303
0.873753729495889,0.19881890919839493,0.8443087198969762,0.4750496044597903,-0.10061858714932015,-0.004651901068323232
-6.141358652742564,-0.6479841807168476,-1.3268946750601356,-15.117926205149441,-10.921829195306218,-3.6330857994904298
-2.5123266226154484,-0.3697392152047632,-1.016998033904648,-6.5180736569384115,-4.749308678128123,-1.44897982225012
-2.8420451780041525,-2.17150908938623,-3.506267382503273,-3.464952341048716,-3.643447938874383,-2.251393186354478
-3.503903942591076,-1.4074472912626688,-3.587982605165737,-3.2589205974658557,-1.7825852150609267,-1.595461400318606
0.07716820963404883,0.4417622295690471,0.856990799556739,-0.10438946506785196,0.34639596440930287,0.004647655782627525
0.43638282295719893,0.06374235486499824,0.26264895619699763,0.7498841727667626,0.04817549726559825,0.08218437325997406
-0.4853148205844945,-1.982994688927912,-1.6104738489011798,-1.1030732576091056,-0.5482957955619393,-1.1911491711486708
-0.13854436155288466,-0.7808772876504558,-0.635065650239233,-0.3182256269240327,-0.16644321623692987,-0.3730278402436316
-1.884286998418049,-0.4231954623482945,-1.9845987599541106,-1.1281199934445005,-3.5011718292246026,-1.3005692064215666
-1.6775508487866955,-0.20273936328627534,-1.697497515748621,-0.9054909336617898,-1.1860205819812843,-0.8244580488257238
0.2964481566696406,0.2431938421808172,0.7766148752473416,-0.13916698052841717,0.3947096488183875,-0.01661421322026501
0.2678486881384001,-0.11032000569865623,0.9835737941691223,0.4099498198445356,-0.016191597548093625,0.01475473060729193
-0.8314508052020099,-13.707433763705424,-4.683055876254403,-0.8647564288643917,-0.3333896891689261,-0.9093244145380731
-0.24787033218471793,-5.761328652256867,-3.1392104185944176,-0.35937467486099045,-0.08332893082207844,-0.31412697387352717
-2.200763354118395,-0.6205479320105963,-3.9292771328631093,-0.5211947615755484,-4.578798947213708,-0.6396337010360965
-1.1491476971113015,-0.3706172673298215,-2.4365870111263237,-0.5286580944856651,-3.176535023541512,-0.41321014273936457
1.0844621413081614,1.4731842669454516,2.553086009627176,0.9339633538469924,0.38393612417634393,0.48676427843308423
-0.5299335905271937,-2.1429204778276825,0.01929137346689908,-0.8423904978420941,-1.0609013018182172,-0.6682873213982271
-22.06064441152955,-22.693161447620227,-22.050263545216755,-23.812730088958087,-21.798693036492576,-23.538488075573625
-16.501402961861363,-19.772090995125204,-21.737638230562844,-17.309497266668753,-15.016263498169137,-17.227053206524346
-0.8674247298112725,-0.8095756532892735,-2.3383402593923694,-1.0733762400550186,-1.6132348317397576,-0.5079489398027561
-0.13243500928854487,-0.5894222006126989,-0.5888575923585712,-0.1915477499782635,-1.1328757340328752,-0.2919952189429803
1.0063381060105647,1.556975557918189,3.85527819294742,2.211624286439592,0.7597678941837775,0.6049965380518431
-2.8630213989892255,-2.3205941644414128,-2.508223761933751,-2.686193521048542,-2.527796932461434,-3.218785641011013
-20.460634960335465,-19.098307851213406,-19.296732713625087,-20.169216212667102,-18.727200074764315,-20.70803034569245
-17.725719195809692,-16.91864877669892,-15.385647716237882,-16.701977139994128,-16.369149709734888,-16.505939292787467
-0.32446107692026654,-0.9221142232084328,-0.007832214543631116,-0.2754908580505275,-0.28523363296856835,-0.35392557492913945
-0.12039845934490932,-0.707819870220813,0.28913961922091025,-0.025227337352174944,-0.05912192705253717,-0.12936790132286355
0.4491989967512014,0.30085557857970013,2.053448091922385,0.5762793436111291,0.22026670008312121,0.16366867593323858
-0.6294748542832795,-0.8189962431165362,-0.50901271615912,-1.1344450088825087,-0.9876825987648286,-1.9067520828227145
-24.542345981687745,-20.27035065588628,-21.35737237521937,-20.616050865335495,-20.615855458035384,-23.196330285426132
-16.898163607705737,-12.517254567631241,-11.692156238371044,-17.951114365982978,-17.752900243592304,-19.871103337349535
-0.2595085913705763,-1.4488253789293157,-0.1076603129000104,-0.9352115116637,-0.3269958201824578,-0.4061134938696694
0.0039759278550576165,-0.8174784342667342,0.022432419644250842,-0.33891332373732946,-0.10075048426962879,-0.33239152660553667
0.5303958250319382,0.18627107474381027,1.2609262614658923,0.3179245542125304,0.19998145814718765,0.0443274774975962
-0.0945419803524273,0.03663636636391258,0.6477146090280456,-0.5617896848387185,-0.7615052631710574,-0.5726664192839774
-21.668021449657488,-3.999908398759029,-5.973461346772203,-21.479857741977387,-19.812289314340042,-15.893870642729803
-8.73453735179042,-2.268438821027701,-2.129397176555744,-11.740866638411148,-13.165969812671063,-11.06181672964045
0.0,0.0,0.0,0.0,0.0,0.0
0.0,0.0,0.0,0.0,0.0,0.0
0.0,0.0,0.0,0.0,0.0,0.0
0.0,0.0,0.0,0.0,0.0,0.0
0.0,0.0,0.0,0.0,0.0,0.0
0.0,0.0,0.0,0.0,0.0,0.0
-1.6978009346470875,-3.662710575092354,-2.927088489110959,-3.4316220964686743,-3.770636572528169,-2.3415795499879977
-2.6827223620981604,-2.9106877765622006,-3.074445198474382,-3.1890192256506933,-2.385616974629424,-2.040976456626334
0.03733198335762729,0.4262691140328192,1.0152223556475224,0.3685307556431462,0.2926434357646193,-0.15912778653302237
0.8924987079176242,0.1733516714898868,0.8081351386010921,0.49177016621230113,-0.2544059931782342,0.010468301605504979
-6.286389224571448,-0.7180313392005766,-1.3543536082685999,-15.240546521074995,-10.674400936315003,-3.6618591330088135
-2.6075845999569247,-0.44914534638545717,-0.9391971928282363,-6.576281498838707,-4.842364512695088,-1.4826666790916392
-2.6683905820293448,-2.026983155573763,-3.950591686419995,-2.897246717081268,-5.238264868720332,-2.024719056323071
-3.403952803434512,-1.932290705503357,-5.09194716004219,-3.5272687499659763,-4.127006869565211,-1.6736898452747935
0.13415844058882384,0.4282522833864032,1.3053426715599792,0.25500545110584066,0.711648506320217,-0.06803068482901264
0.5259439299937289,0.10768859358900955,0.44715059858784406,0.8926409083871535,0.06435594899159905,0.12588857517070212
-0.7148595537966618,-2.7643079161888178,-2.3067894589545674,-1.6178481052552522,-0.9583822335731566,-1.8740131585387478
-0.21552115062957883,-1.1407368993394795,-0.9585865639591244,-0.4892787429921778,-0.2743697907929189,-0.5650098587988005
-1.7596050448420368,-0.34382573291641555,-2.1194349950174205,-0.9984357600078574,-2.8328008830479745,-0.7442416110919254
-1.5801995012924657,-0.14987739324496854,-1.92205022859093,-1.0727066432183037,-1.9416577730151436,-0.6544300068731642
0.20637563966552702,0.22069208168577173,0.5474925054546866,-0.0694465175652098,-0.005340654093351819,-0.013298598059376245
0.20997543118465056,-0.0019449015866511827,1.2153330010789227,0.3492626197119379,0.02449144984460794,0.03481320333003844
-0.8786201604481231,-13.979225146485632,-4.892840306002922,-0.779611764784693,-0.37087599017481526,-0.8253855460260968
-0.2430296018534054,-5.849877576642672,-3.2061645919012225,-0.35579083147329255,-0.09452070726748486,-0.294603179706702
-0.8100199360592032,-0.5512691820008371,-3.0347702779553507,-0.6561195211425184,-3.3764636744206853,-0.27499828326574405
-0.43967454459572153,-0.19693058466798757,-1.5350233261343933,-0.5075854161219624,-2.1793240386057957,-0.18268043532360062
1.133259845887658,1.5615038468892581,2.4963511947710524,0.7325511710187559,0.5432059413575175,0.3554254928369827
-0.7995630999018769,-4.6918010273569015,-1.9061813414560307,-1.2233236276112198,-0.9146626211498627,-0.5526475388178118
-20.330589399847447,-21.751500037310695,-20.308877770095606,-22.100236049661994,-20.31456636062809,-21.661619018883982
-16.007314699134085,-19.478937878586734,-21.361273150063532,-16.602814449635147,-14.780130217889955,-16.776508866828785
-0.2053701409842589,-0.5045461030388912,-1.9059811377310616,-0.9390658995885203,-1.8356477042129173,-0.34074140666605146
-0.04467055964279091,-0.12547880602528716,0.1275122486508697,0.04876208504135285,-1.0322349145419465,-0.1085451956182718
1.0240810736023374,1.8086054576115995,4.608787525940636,2.080009201631368,1.3301963539748871,0.5526567441630879
-3.9531216562638867,-5.36065614386329,-5.573123880394317,-5.246207304353407,-3.9189786002786096,-3.5987503505712883
-25.829517563213198,-23.236245131014694,-23.03238885840672,-24.82034270313206,-24.342204352723694,-25.84601247975066
-26.107855081164583,-24.529529802068833,-22.911915632062517,-24.441260876344792,-24.649722661914392,-24.916117964690102
-0.11964712290061541,-1.025868957722734,-0.13082985138993997,-0.16217283900137944,-0.49525220835110706,-0.1552202736550015
-0.12357540120604396,-0.3966545664038513,0.1817225937416747,0.016027825441921956,-0.08313210588855527,-0.03303003535439976
0.31172924724152234,0.16010427872642807,1.775267047696568,0.40153349415921114,0.1668951427252579,0.010081563731547062
-1.0485738449976156,-0.734362436220074,-0.4657564501352698,-1.7602178305386689,-1.080061804314643,-1.2671348211981974
-24.443422040106203,-19.618597340891608,-19.583266877420908,-19.600564364060826,-20.51337806422748,-20.662605779940538
-16.77213210087753,-12.472090671761592,-11.772757323288898,-18.046749420492844,-17.74172517679385,-20.40080497398702
-0.3420683482337793,-3.244484515126939,-0.8063899255200753,-0.8604865677864235,-0.6758631450629892,-0.9224664477115105
-0.04047121953633086,-1.5971114114931912,-0.5017131237684247,-0.5331091572967762,-0.185686124622336,-0.5832406295870372
0.605291735210471,0.24522530306941137,1.1597297532816815,0.39417577137598275,0.21034496179736153,0.04707660667410201
-0.09672728136415251,0.046901057616626406,0.2641015419702084,-0.3308775930125195,-0.8979309956292161,-1.0893362034257394
-31.96963596314475,-5.710043273750696,-8.278965353408477,-30.572043940076757,-27.609562448765352,-22.35319591818851
-13.217895125509854,-3.4217949560560514,-2.976666199021352,-17.361902463581348,-19.536209806673043,-16.67811734426186
0.0,0.0,0.0,0.0,0.0,0.0
0.0,0.0,0.0,0.0,0.0,0.0
0.0,0.0,0.0,0.0,0.0,0.0
0.0,0.0,0.0,0.0,0.0,0.0
0.0,0.0,0.0,0.0,0.0,0.0
0.0,0.0,0.0,0.0,0.0,0.0
-1.3866911755161502,-5.223698853098674,-2.472303911852257,-2.2228113017512467,-3.3018388370537206,-2.051911679171918
-1.6166188922544893,-3.7947110340426056,-1.7316453917365642,-2.433251194681232,-2.548749160621391,-1.605132257626129
0.04675377069706949,0.36333124765531416,0.857094315982622,0.127026302618087,0.24489869999558103,-0.0794194213801145
0.947420242061856,0.13783105749500088,0.6153575246402886,0.3630008664603199,-0.05279245158437376,0.020747927190672547
-6.212068116747305,-0.7869892769076137,-1.2387030374042751,-14.837349117025507,-9.693086425912817,-3.221676426818024
-2.55928265535965,-0.4390891015229849,-1.0069907351601086,-6.6705254979019735,-4.616000560921462,-1.375958671225417
-2.2955732627150343,-1.8680589050684815,-2.605471411218896,-2.324168747754593,-5.215672414627208,-1.7443172800478457
-2.298277087638174,-1.6065645566011015,-2.3941839684317774,-2.1705962994253336,-3.7470429422315963,-1.7800241463118804
0.03993948122528704,0.2563133734423111,0.6485544694095506,0.20601304343373136,0.7937769891295868,-0.17947840576767676
0.44501486660458445,0.09027324744199625,0.26711777380482427,0.5703229157873357,0.04181372944204827,0.08995310590052309
-0.6867888934775255,-2.383231430814871,-1.8916218758170695,-1.5376109640437472,-0.9804653718009819,-2.0248146300042777
-0.18150898456744777,-1.0693112629470174,-0.7054050919871301,-0.4789166423474426,-0.2508909022990074,-0.5627130999346661
-1.5706502520433627,-0.2524213449186768,-1.9182701417519064,-1.6587257990610105,-3.872986938658747,-1.0592746786056937
-1.5656887319024113,-0.30293444653920515,-2.3087848793655765,-1.068022444075109,-2.5776085774899395,-0.7500136322995028
0.17079001807260516,0.17482574939099604,0.05680456463383098,0.031203578621467717,0.19516362013363409,-0.024593315236648455
0.25246085871462776,0.03287973584597131,0.5882964711699095,0.27345022763287563,0.017253136478680278,0.0028060429278942253
-0.811273585274428,-13.686615537759998,-4.7303674457766425,-0.638856838375208,-0.3772668827868222,-0.7140016639804694
-0.2448238029513018,-5.773458114015441,-2.8317468329565005,-0.3074505471264914,-0.0949218717347041,-0.21691823010097577
-0.7341563286051308,-0.022653033162200707,-2.057780964519843,-1.4977578254171653,-4.778337505619752,-0.6506555178426795
-0.5416682816053227,-0.03425110100061558,-1.7343452313432544,-1.2071731876854639,-3.6053008789535865,-0.41817242408293714
0.7393286302071341,1.2301163183908472,1.3654638116214965,0.25286497632317173,0.401666560406667,0.15531129882161032
-0.367313243118137,-4.491567519630656,-1.977158900606327,-0.6850627450508329,-0.4855383077063867,-0.36241300634768153
-19.081171295335626,-22.13431383495382,-21.166039657747607,-20.364651789696342,-19.4914028562444,-19.88122206041592
-16.6922558142485,-19.97148740273191,-22.132314646081237,-17.486957458157917,-15.530691078035723,-17.40163681425908
0.2159304437173662,0.10229913179299421,-1.0102021335047986,-1.2375907019336339,-1.7825320628840138,-0.32990380785700824
0.06451565553598257,-0.09706426187616427,-0.21643305068812665,-0.9041831859603394,-1.3663547003671774,-0.35242940651765503
0.7140822472018294,1.1563514862644382,2.7082894403581528,0.6877514707252996,0.8565791194175465,0.2941860483459304
-2.1105183535412206,-5.384706232872461,-4.393740028910461,-3.9807402980741298,-2.6243016488680038,-2.1251476971508683
-23.189140162498315,-21.197980785256338,-22.49760600172827,-22.114739433967816,-22.73392941972598,-21.931678639233308
-27.081800659224008,-24.951779320960444,-23.828914262934465,-25.849002521254725,-25.92332668404439,-26.231681232757662
-0.06356861339569449,-1.6060331049015812,-0.24947725072236573,-0.2609533863060233,-0.18724008400025474,-0.24606655098615005
-0.23951366363873858,-1.448709542768976,-0.029726646668173845,-0.09498533352220935,0.019044273865108055,-0.24594611754065748
0.38544214312476166,0.0617295686368142,1.0936874930507214,0.17709057833356873,0.15207477337321657,0.04558604975531826
-0.7627860423427815,-0.2655075629831413,-0.5355995993121373,-2.392235842507108,-0.704859433807695,-0.8681034435899019
-23.68188929952045,-19.628968520647437,-19.15699999841812,-19.339946160630674,-20.017148600136956,-20.645270610489167
-17.131472385542278,-13.10258620126976,-12.700077723122526,-19.032946565483233,-18.975297656451094,-21.682277847126247
-0.674449578335265,-5.234105209952539,-1.0935912685325804,-0.4504063576339647,-0.45114017282240293,-0.7650129989511869
-0.21292409789118918,-3.3997601097315924,-0.284279865523993,-0.3057284827334113,-0.09236095943747567,-0.3193243364895662
0.49952156386730256,0.23236935340800585,0.7094750110233805,0.3450652302656847,0.29988307337731696,0.11027058721845824
-0.005134842230353903,0.03992188113034575,0.3970892672840589,-0.015177656320145966,-0.5115409258549449,-0.8700270864974865
-30.505297027475308,-5.906242908538534,-7.065331390304183,-29.353665177794255,-25.483096550802827,-22.07494801986058
-13.014422473227565,-3.477985655418023,-3.1637759064687767,-17.974281603548665,-20.009671422856773,-16.966195465760624
0.0,0.0,0.0,0.0,0.0,0.0
0.0,0.0,0.0,0.0,0.0,0.0
0.0,0.0,0.0,0.0,0.0,0.0
0.0,0.0,0.0,0.0,0.0,0.0
0.0,0.0,0.0,0.0,0.0,0.0
0.0,0.0,0.0,0.0,0.0,0.0
-1.7131894725591268,-3.8270556407470866,-1.5906479249498173,-2.6399331899651064,-2.582524759691922,-1.8077687737990122
-1.1405556739703262,-2.0193902495292106,-0.8425751126158452,-1.8798056153641167,-1.9266699790543254,-1.1677003933430439
0.47847562506856,0.6278864562335915,0.5802029198224058,0.30634570834201014,0.2702175112941727,0.005710183222306685
0.8623545020928944,0.143546425914317,0.5381656427119936,0.2843862366204418,0.05868489735770933,0.023666486109982256
-6.004211131407881,-0.7419514258250894,-1.088434881328823,-14.736987101565969,-9.826194881960765,-3.0849457564398515
-2.499342526250211,-0.36114005413915834,-1.0085046811726557,-6.592046337083874,-4.555944368659038,-1.3258775238007388
-3.6003288600570307,-2.7200050860962453,-2.319293249741627,-3.232958107097298,-4.028453723909048,-2.2531592631721886
-2.1080270359150197,-1.5412682812605034,-1.8048917920136476,-2.3171264321966762,-3.0159389053761885,-1.3738189703038046
0.4273357066380838,0.44722761730290767,0.422178024571531,0.16466593727110684,0.6881778203602481,-0.09760209232660996
0.5117719895433334,0.06255506030782274,0.06204773838880137,0.65778276532694,0.058285214659067455,0.08553418850727583
-0.6175161925544735,-2.393661232583254,-1.707197195184358,-1.5005209307828724,-0.8861235566383258,-1.8815571936009716
-0.16901979594596514,-1.039794459311088,-0.634947340629381,-0.46731609448090994,-0.24174929587014893,-0.5469547908267276
-1.6645477730364673,-0.4326299358827514,-1.5547948010395523,-1.4611685366223308,-4.435700330221238,-0.9338071737634818
-1.2837066983987229,-0.3823130080611539,-1.8069493667799024,-1.044219548083308,-3.249047290268836,-0.3834493752680267
0.25060415243891604,0.18209044865188054,0.26185058658045285,-0.0014027201440590068,0.5873487188700096,0.03293217849645442
0.30568630041774536,-0.06075419505323285,0.3323551856415024,0.315511162866963,-0.037071580741205076,-0.016073247031445376
-0.8225082241414949,-13.40679986143242,-4.5917274270217,-0.6980099938530112,-0.3380008377168599,-0.782683306037272
-0.2656557016031603,-5.633756237541738,-2.75057219637132,-0.3125410264757036,-0.08445069059097572,-0.2291760853184956
-1.7229474323437644,0.02041144257157739,-1.8393963254198968,-1.1308605193991004,-5.602232072914593,-0.6901638582603276
-1.0657730040171007,0.028493866420208347,-1.6036608160260497,-1.833619571262919,-5.527550485553448,-0.6412618629588727
0.6821193956756662,1.1895682714128626,1.2431520495806676,0.25142991712394896,0.3019825404483573,0.2783057256745919
-0.009770180613801293,-1.4785980237502532,0.42489969923584714,-0.4502965399863976,-0.5747971596586405,-0.168223101925006
-20.316226161254225,-21.76125229720399,-20.574736348374294,-21.376535556972375,-20.74469396483756,-21.264547341428088
-17.02818955360519,-20.094505414414183,-22.08173136531395,-18.122744912519604,-15.82653362789384,-17.750504821083304
-0.8752830227096954,0.15216700838447492,-0.8332596037292013,-0.7700510824363308,-2.182009620356154,-0.43566437613471115
-0.28232476832776315,-0.1872020885727136,-0.3263375210780292,-1.2190167734694104,-1.6999947144710532,-0.5898842258039081
0.9553665339145392,1.608667759486436,2.9209838117869307,0.9582161861586572,0.5581007315783807,0.5838199248787969
-1.1588628052013568,-1.248023102627563,-1.1601925266854143,-2.5538284711111534,-2.029565507654325,-1.8428637436038222
-26.51104710072395,-24.477820664395278,-24.97611937361853,-24.819302208234895,-25.911708817942486,-25.601785193119014
-27.538026914760895,-25.8532317740575,-24.01235363112548,-26.427323429344693,-26.16689026686834,-26.17118698791645
-0.14722478117982857,-0.9806368795388288,-0.06953092377636354,-0.2502572349475337,-0.07659327094096777,-0.4306333565227342
-0.1854512811115215,-1.6347439532647956,-0.019506795758351347,-0.07649003981748821,0.00779241804091538,-0.3912062342878306
0.4216545529328749,0.1947393599229908,1.3471944806229916,0.34250674240087986,0.1901529938271783,0.12844949309807874
-0.3834363837422933,-0.1652240448729898,-0.4824203358440471,-1.5289970472513237,-0.6965584097616495,-1.1842245430150549
-23.941709278407128,-20.294924467652667,-20.59068434827966,-20.362154056582426,-19.899290562284747,-23.20550484020302
-17.21918981888609,-12.959468709741376,-12.503621374497051,-18.923555761860705,-18.81170790530529,-21.001927637948338
-0.5197005680908597,-3.0986358648207952,-0.41043686343956226,-0.6548170839633101,-0.3140150820768899,-0.3820268973422997
-0.20742048262890342,-2.633906294811096,0.004277955224093683,-0.212140588423127,-0.04001664862475246,-0.2576014412281003
0.5118588708549628,0.3921183802918862,1.15070990167797,0.442192805458401,0.4478043973428468,0.16908485687345912
0.030605340797008173,0.014212016754690896,0.7545582098499368,-0.30085634304923603,-0.5653121426221684,-0.39828629823974787
-30.652866864207656,-6.165971764255634,-7.510630992166214,-30.55569661010085,-27.061919795451768,-23.507109620286272
-12.85502744489253,-3.3154836583648297,-3.3118113845323256,-18.031840501604005,-20.175439697172934,-16.7559614672599
0.0,0.0,0.0,0.0,0.0,0.0
0.0,0.0,0.0,0.0,0.0,0.0
0.0,0.0,0.0,0.0,0.0,0.0
0.0,0.0,0.0,0.0,0.0,0.0
0.0,0.0,0.0,0.0,0.0,0.0
0.0,0.0,0.0,0.0,0.0,0.0
0.0,0.0,0.0,0.0,0.0,0.0
0.0,0.0,0.0,0.0,0.0,0.0
0.0,0.0,0.0,0.0,0.0,0.0
0.0,0.0,0.0,0.0,0.0,0.0
0.0,0.0,0.0,0.0,0.0,0.0
0.0,0.0,0.0,0.0,0.0,0.0
-2.0929116803979118,-1.3477499916583042,-1.669923027059276,-1.5927261997568793,-1.6433960447172589,-1.281817817751251
-1.114463494758091,-0.6346647075563766,-1.2083961862727355,-1.1012493147289182,-1.5382845303684582,-0.5370883501559862
0.23564437934530297,0.2057903809225792,0.18269575945519226,-0.1030296001938534,-0.09658853936704014,0.000300808067448059
0.23018416889984308,0.04927884864164484,0.04563976974244136,0.2914198980364489,0.026176663591158958,0.035163074353277195
-0.2016738283826119,-0.8791977307266324,-0.6453656452512854,-0.5068467571515638,-0.26977764055945147,-0.572809444830508
-0.05452976644074834,-0.3699166188426101,-0.2410129675722148,-0.15287138575207534,-0.08039731219487552,-0.1685666712193549
0.0,0.0,0.0,0.0,0.0,0.0
0.0,0.0,0.0,0.0,0.0,0.0
0.0,0.0,0.0,0.0,0.0,0.0
0.0,0.0,0.0,0.0,0.0,0.0
0.0,0.0,0.0,0.0,0.0,0.0
0.0,0.0,0.0,0.0,0.0,0.0
0.0,0.0,0.0,0.0,0.0,0.0
0.0,0.0,0.0,0.0,0.0,0.0
0.0,0.0,0.0,0.0,0.0,0.0
0.0,0.0,0.0,0.0,0.0,0.0
0.0,0.0,0.0,0.0,0.0,0.0
0.0,0.0,0.0,0.0,0.0,0.0
-0.8815300097355032,-0.2888797117823817,-0.8792358517472812,-0.21666445938126805,-0.9269940956581179,-0.17114944560467266
-0.3761475400207198,-0.44885339050968925,-0.4660397581680082,-0.23165072475024012,-0.5865918292371671,-0.25417142707624985
0.485772823821462,0.7423945537011137,1.62144483880191,0.7757867578344816,0.22364136764941947,0.3388254926506085
-0.5544080537899319,-0.0823829311642123,-0.22895048829209855,-0.9865203087340763,-0.7311193261993945,-0.9578114738036675
-10.432578537042136,-9.87972742907134,-9.97791475883866,-10.124274362430114,-9.768293298252201,-10.294273964220698
-9.237187088824834,-8.760094804845275,-8.027693876881683,-8.817940518695618,-8.589229741105171,-8.597639863880906
0.0,0.0,0.0,0.0,0.0,0.0
0.0,0.0,0.0,0.0,0.0,0.0
0.0,0.0,0.0,0.0,0.0,0.0
0.0,0.0,0.0,0.0,0.0,0.0
0.0,0.0,0.0,0.0,0.0,0.0
0.0,0.0,0.0,0.0,0.0,0.0
-0.30421476119099694,-0.9829093028569668,-0.05401020110465177,-0.30655082664241246,-0.1667454524203335,-0.28548977854717034
-0.04366660919573562,-0.6687248430054065,0.05730261105303703,-0.13263007471296095,-0.004494067912923359,-0.16854389699937955
0.22394386656619394,0.13718024840882934,0.5835721345886029,0.19322715336756593,0.21462750596428712,0.03763447219972632
0.03755885960018621,0.003927673856891978,0.38463104818343985,-0.20655570581859833,-0.2239502026287786,-0.13492508654699423
-10.476988054187384,-2.0141501523746626,-2.945150558543715,-10.687457642463272,-9.766334999737568,-8.078925353031075
-4.293803841315371,-1.1146232584756992,-1.138088678544015,-5.89835974489602,-6.706209685171847,-5.476862947517466
0.0,0.0,0.0,0.0,0.0,0.0
0.0,0.0,0.0,0.0,0.0,0.0
0.0,0.0,0.0,0.0,0.0,0.0
0.0,0.0,0.0,0.0,0.0,0.0
0.0,0.0,0.0,0.0,0.0,0.0
0.0,0.0,0.0,0.0,0.0,0.0
-16.426483835267405,-12.217868648703597,-17.200431411940553,-15.112039190589512,-14.658770918333017,-14.736965561267658
-2.6258434714476415,-4.604324149609785,-2.0953173143958974,-3.4517964765777824,-4.892641337930514,-7.875712230822445
0.9842947981955746,3.7812494222263067,0.053643273735636966,1.5105936858042244,1.1587227805902232,1.4492016782766872
1.122377440840461,0.33816239270943443,0.980845409521908,1.3846165923211855,0.2993090055138695,0.03281500472223012
-7.933843747376107,-2.0826399017574135,-2.995770711276145,-13.251147600356608,-9.646242086048405,-4.824276092016791
-2.0512995802779597,-0.7804633245832233,-1.0381912174907122,-6.120356680801749,-4.2241330859253114,-1.4136109939094097
-16.310655651712043,-11.554700165590127,-16.713689301377848,-12.793211434084865,-13.170336413846497,-14.506318544226568
-4.13983221881829,-3.5710264558440876,-4.015167614497911,-3.577455496762965,-5.8740357757829536,-3.024896255775483
0.9223449494519466,1.5425155358603482,-0.17747830179444074,0.27614976892800763,0.47172580969782374,1.0144235145704577
0.30634332798215275,0.12810732019584678,0.7480294839381318,0.6319355680055209,0.28197892145170966,0.26378796859139697
-0.6693490931772506,-2.8928728051726784,-1.7902082754202377,-0.40734272683984135,-0.8273078479798204,-0.8033511844703592
-0.10675693614935523,-0.996312549884111,-0.34351787366923653,-0.09908540440130431,-0.19826647942393086,-0.14262457810774617
-13.455972661494446,-15.606957727577331,-14.025327721016724,-9.386938668071602,-12.624684705421734,-13.867275080278901
-5.992118400752606,-2.379603701939704,-4.402017022382489,-2.4717550087723725,-4.553523760019354,-2.8516081304613494
0.6573750652833059,0.7427454041443977,2.377842079823887,0.47485021616635853,0.9314487519071768,0.5859003355587569
0.549833341926415,0.9179577382448393,0.8505047351253683,1.1600660971541406,0.39092602750115674,0.3016249822175161
-0.760049693541542,-15.093018934652235,-7.823036727558774,-0.20673500564854402,-0.32585160195478124,-1.9411484199188367
-0.22322283834310222,-4.244336392837107,-2.5327795235824215,-0.10118219929674808,-0.18117967655551606,-0.4181651461246205
-12.958259217644697,-9.748398812219795,-13.256870260183979,-10.37254560276273,-12.461066519383943,-12.188087833246993
-0.9561628631751268,-0.8916882046758993,-3.9511832652920957,-1.5184302303372035,-5.53379109868225,-1.6811368454378663
1.9059041034789883,1.4217297952353614,0.09795058482584332,1.1515281126761538,1.3891856374754976,1.3534714731902457
0.6343461446032812,-0.2717337215993352,2.0217432857568167,1.1699180105382352,0.9206469981549739,0.6995859812588976
-17.19637234378356,-22.079146734404038,-21.600510394184134,-18.055744955934106,-15.171459113490636,-18.208152773994524
-9.777358701069987,-13.770500359114765,-15.370967919284121,-9.929219276503252,-9.375011337901315,-10.300495188300442
-12.952410824856566,-12.798611325932274,-12.36787877418278,-9.585524325198099,-10.780516956421444,-12.321185279344961
-1.1181194048613985,-3.3061675566144473,-0.8465863629617569,-0.9778519340068783,0.08278465041186978,-0.40893849032867746
1.5665642000306725,2.5533339334870178,0.45409682106432137,1.9088112075813242,2.2320586420948585,2.3680548980244263
0.5996672321048485,-0.0673465740195617,1.2149459655474915,-0.3867365671572325,-0.05465465022440683,-0.1668818278259858
-18.208120468570193,-18.27047394675919,-22.167584854519834,-17.42626884747178,-18.173843418623612,-17.409749567357412
-13.569797491698441,-13.744682417605448,-14.328497345092954,-14.281048845870357,-14.053276387560768,-14.253585411315656
-10.050146613320331,-13.388003269240787,-5.934754547228834,-13.254742882913712,-10.041907685959686,-12.726046781197685
-2.6336367640314307,-3.905794456088338,-1.6216760123971368,-2.4930553954515102,-0.861538986387044,-1.2665503262355051
1.5157284407558236,1.8856809807820174,0.7924571825744786,3.4102831423224798,1.9741069133168747,1.918626082421577
0.46531095312343573,-0.3234247870678641,1.5055718370360078,-0.05718925448031776,-0.5603727907290097,-0.5006780495353359
-22.048048908177474,-21.30359730795098,-23.0645433333448,-21.661221911940455,-20.267034034637465,-22.62891657486184
-15.214652973544373,-13.839776770672179,-11.683463743246428,-19.175484103360205,-18.967806706909496,-18.154198790822488
-11.240534851845215,-13.546006450661753,-8.990370280922864,-10.841319446503352,-7.287450973530237,-13.262756648468974
-2.3592515678974277,-6.516734733057711,-0.5690098517690874,-2.880202387155361,-0.7175142623437358,-1.3092062446108523
0.7973792871765321,1.5950941914825818,1.522396279210737,1.4288479168915502,1.3490909281130985,1.2794811217898352
0.6999115819461552,0.034418077862607095,0.9887098857862331,-0.418513135799832,-0.7366722587249998,-0.565613707082791
-18.786421270467603,-6.6459281160986405,-7.015711816542066,-16.469647014141373,-19.385585542220063,-14.33144681667244
-6.011383314414134,-3.454659096615656,-3.4533770961832664,-11.478949186543598,-13.901450515036933,-7.225545547587047
0.0,0.0,0.0,0.0,0.0,0.0
0.0,0.0,0.0,0.0,0.0,0.0
0.0,0.0,0.0,0.0,0.0,0.0
0.0,0.0,0.0,0.0,0.0,0.0
0.0,0.0,0.0,0.0,0.0,0.0
0.0,0.0,0.0,0.0,0.0,0.0
-14.191211017825863,-14.737005214529468,-14.00413692121324,-13.508536012331954,-14.212781654966594,-13.67954951925646
-6.01003476309165,-11.430593697564644,-6.49305243271277,-9.347949918075765,-5.519589373082316,-9.10210732184818
0.46630141839593237,3.097308791281767,-0.49442280342004824,0.8410046063264528,1.1667129696053133,1.2560989347915135
1.5715006594836103,0.35629088072967147,0.2580114217871246,1.5945709266453925,0.29471717200846603,0.23290150837582596
-8.860017774907982,-1.7273787481718694,-3.2436387617627767,-13.947691197780633,-9.311030262826884,-5.197207995266197
-2.1368194984659037,-0.7617893679607084,-1.0868960070832125,-6.1639718245716955,-4.188584834821357,-1.4458671985324585
-14.011809550543108,-16.258761382162824,-13.539111824509266,-14.275374610681713,-14.688838514570325,-17.010784854637976
-5.860530808854343,-9.37137663481329,-8.17135759580673,-6.1549656139388835,-7.946072492938337,-6.8553734388378516
0.961652258636005,1.1920835115737327,-1.3439179044518106,2.343174451626565,1.2883555909561897,1.3129283910276346
0.08849623985773958,-0.11848982580472579,0.781024244339496,0.6793671374467847,0.6188099438541658,0.47098162061608595
-0.9626562077367944,-4.851404097921045,-2.9682363213588694,-0.44685238786207515,-1.2536494272930776,-1.5251187108429458
-0.1552979377669553,-1.655216406912187,-0.5604208001912586,-0.1342229286259915,-0.2937261135416481,-0.2480545486632565
-13.615170102747532,-11.4844905260515,-11.725831054142766,-11.345373829632035,-15.324403695596548,-12.691007352383632
-6.108883783877948,-1.472673916444455,-6.450063454692387,-3.516036058884849,-6.210577081396479,-4.524369317292731
0.07045743925664404,0.8126680641813566,0.6242013889942998,0.9242537532274154,1.0299801894413494,0.6850681875681554
0.3486660846298459,0.7187516191338598,1.0495825504768574,1.0656571408141662,0.40187323780173,0.3830099635331466
-0.899438248095402,-15.305936423005006,-8.898240122295814,-0.21525143166855576,-0.37829978907918377,-2.1110570290368478
-0.21364731228496758,-4.295465040540285,-2.615621409350548,-0.09919720604152993,-0.19392858776872152,-0.39349807164960926
-14.06433563610194,-6.60500659412961,-13.98151946184391,-12.833525398852732,-14.060679772064757,-9.916620508405945
-1.967266183839871,0.058119046985377364,-4.743846721401855,-2.571751782122752,-3.7371098497356563,-1.566003782933634
1.6483937647831206,2.018139289321645,0.5802520736396185,1.3050749343809944,1.4765065489109386,1.246849019398075
-0.5096476091955867,-1.7319022828790394,0.2794634524928452,0.060650526413002386,0.3103256968228454,-0.16545748076031758
-17.209001190649555,-20.778132910128345,-19.565157006417678,-17.68269415832765,-15.61641260378445,-16.56555967441803
-9.63304709005372,-13.704662971993528,-15.046359140207349,-9.604521295767237,-9.168672042331822,-9.974688257730778
-11.812975738784239,-10.079391300886071,-11.930177066609215,-11.469518893059197,-13.198828048073489,-10.412802880890359
-2.3483947122117477,-4.312368948004732,-0.7345500329534301,-0.43471181975138545,-0.9717424770405672,-1.040174662484734
2.3111574532716155,2.8359042971581587,1.3806454534096135,3.1885260396617565,1.9918045927973504,3.0806910373134495
0.37856649949603455,-1.1332387932171242,0.611211725522446,-0.6517604339754185,0.6508308557588862,0.06742133888754018
-22.67328379111558,-24.10818575665476,-22.650895765854028,-21.289611340472845,-22.109243890683523,-22.710134764119587
-20.33184574155202,-20.76190442092506,-20.68809928001565,-20.88552066173408,-20.619961275599064,-21.205809141189643
-15.583974706304303,-10.564182544870672,-10.859657143782014,-14.097300249167509,-10.983004866392417,-12.775376969663506
-3.0412656674860004,-6.522502907345768,-0.47765648970542324,-0.5894594189879204,0.07189589167288792,-1.3184024583431728
1.2036683841929967,1.0492786872788074,2.5728358123653323,2.8588685046455566,1.9655036926045995,1.9287354576642723
-0.11275662771193665,0.15889982889922627,-0.17454139854483713,-2.211767605623623,1.0122507112388497,-0.6190833867121162
-18.978262164351175,-20.397609000645264,-22.32678097342422,-20.40379258581738,-20.729526384964643,-19.651315204079918
-15.276998618872978,-13.86222648661839,-12.051357090315475,-19.896119184542993,-19.050448740870426,-18.53492653994136
-15.14367045457769,-9.070451826063664,-12.773958693446696,-12.623538373288028,-11.095682089052875,-12.277375326073027
-2.3287110225729197,-10.844915710921459,-2.323943435775373,-3.2111858357758747,-0.383783837126115,-4.271588471656808
0.2367821466862909,0.9782926121717415,1.8150855143237175,1.137450109482556,1.7000460905515495,0.19543728940598074
0.6624183519260735,-0.3537922440335652,-0.33730709717731905,-0.3607684291378573,0.5227578859367077,-1.414249923158334
-25.865429422828857,-9.740699811421443,-10.856637333836218,-21.077990484997,-27.238037731642457,-20.794204382479123
-8.755602654898354,-5.148409885023576,-5.211587722484976,-16.71694546751655,-21.028537524717432,-10.668588595866439
0.0,0.0,0.0,0.0,0.0,0.0
0.0,0.0,0.0,0.0,0.0,0.0
0.0,0.0,0.0,0.0,0.0,0.0
0.0,0.0,0.0,0.0,0.0,0.0
0.0,0.0,0.0,0.0,0.0,0.0
0.0,0.0,0.0,0.0,0.0,0.0
-10.885046305431127,-14.635459351514177,-14.397231219149793,-14.472317687894014,-13.588150346243799,-12.868388926120328
-7.849307117955137,-14.86913019613772,-9.630228149158196,-7.993181143917494,-5.342114585643159,-8.677469604162415
0.29903495956514553,2.9300291609516202,0.8646466808256825,-0.051980891348811516,0.843652766790061,0.3604108420871412
1.1652029098249548,0.11853714787757558,0.5904760301641293,1.6053173668301157,0.11973927414195666,0.138602591421303
-8.390653950829819,-1.7565742276486227,-2.779864677960961,-13.025315395719968,-8.136345218248968,-5.093561154238213
-1.9887639125727454,-0.7446662783296814,-1.0238342161759006,-5.821087063662048,-3.835267025784636,-1.360240012913542
-11.856028359522943,-14.43185598795754,-14.208052203709133,-15.06678306968295,-10.881587893998049,-12.43937999117245
-8.567043884153685,-7.653424870183732,-8.924277665530566,-7.334507509220306,-6.90829102190134,-7.552004023098305
0.7826189523902702,1.562678610648352,1.9346050775963228,0.6781127105296127,1.0363287490576572,0.38900523154212824
0.29632762943030483,-0.1951232727671722,0.7491032622499835,1.0985963725409023,0.46698613866901995,0.5237233099703674
-0.9059324601841287,-5.196600649760489,-2.388495567437488,-0.3949280689658943,-1.0349206226139973,-1.3494059108032777
-0.14210281468012773,-1.569997550403714,-0.4172366229654051,-0.10222121290292367,-0.22027604204482956,-0.236676256837323
-11.979628265141132,-6.345861167946139,-11.309109629571967,-14.860366367603335,-11.320085464001183,-12.407326031044047
-10.212548917499143,-1.459370211751622,-8.168484400145262,-4.203121554907134,-7.044097083949082,-2.6855261378324893
0.19436878980338784,0.821866883835447,0.2215171053110074,0.7859522914481603,0.5556668381270125,0.4711980084816014
0.2763066443195889,0.5123334477249945,0.6625460593472371,0.9011437770911332,0.3219126157254415,0.4316888585973792
-0.7165703706376697,-14.685828714896148,-8.239230688224168,-0.24530064029689433,-0.4329515882613423,-1.6524588798724322
-0.2061540815712254,-4.248346770090339,-2.4408275451832,-0.09777198024997172,-0.19973757921150265,-0.38347728909883827
-12.013937542384841,-4.134351161216113,-12.239213962114619,-17.113961851638447,-17.85146092359921,-14.785083267400701
-3.0039487214935727,0.02563384936582597,-4.253759409786423,-2.8918070175668524,-9.791616082460461,-1.5112609241360484
1.8555211069031738,2.0525602263978717,1.3317922082369353,1.0555735452443258,0.8231856758820624,0.8337083584443481
-0.5710811788528817,-2.494227864561223,-0.3684724871163407,-0.15092072627380956,-0.21272583359293867,-0.29029143287390524
-16.889304186358295,-20.840983181265415,-18.762628732426577,-15.861909451931481,-15.91375436450978,-15.11363072465212
-9.823174891905284,-13.877202845525485,-15.23124704338866,-9.837081355895029,-9.418399933895916,-10.303645110693862
-4.475162293688561,-2.046473052553376,-9.239949165516416,-5.015424424785854,-17.256004541404064,-10.656618647379139
-0.28645588238286257,-2.8886147919989464,-2.2125004568615063,-2.343221524796035,-3.5296234926396735,-1.913699623410863
2.2887631119598866,1.7090974177218812,2.5712850420567714,1.9667592413351505,2.4291058375599146,1.0442603960653016
-1.4055384510029525,-2.463770157017719,-3.4072281456575584,-3.997143401411827,-0.5071346043218772,-2.7940189302214447
-22.184147456062675,-20.69275081622967,-20.889744600554074,-23.022179646126034,-23.108586681702796,-22.66206620131631
-21.03681906460783,-21.000864279099076,-21.233054942723864,-21.265278609331286,-21.038600258819173,-21.982149756722183
-12.125509841757479,-19.648989716412984,-9.226415700455222,-11.56060911964322,-7.70933675172846,-8.443815557191659
-3.062917900854429,-10.783612019729892,-1.882801820875399,-3.302287724237818,-0.33686946246189053,-1.5028072479005372
0.9191087009219139,0.8137265870149314,2.7549823677111673,1.661523491757842,1.9873160465923083,1.062673060494785
-0.11139732040817783,0.008534122701678873,-3.244379164416431,-3.1148826587245804,-1.355303934509916,-0.7178238382188942
-21.67941635814141,-18.828387454528084,-21.44204929248189,-22.72985437366508,-23.592695399608484,-20.907267284745362
-16.010931533348426,-14.654348306630109,-12.672007175027666,-21.08716421800144,-20.74781446428845,-19.783923029584813
-13.62319561090561,-17.11440362315091,-14.971776431028806,-13.118224117010628,-12.255725397286099,-13.197291782597366
-3.793594656635675,-15.681212395201099,-3.2821455974254765,-7.1293311460286795,-0.8069525867524997,-5.0244449274805545
1.053267572805443,1.2355914841015887,1.4991319673872971,0.1327851408100002,1.189057089720915,0.25042335186184445
0.2755208607947459,-0.11239693087406497,-1.6984330676124955,-0.7813789014685522,-0.0024304938274480226,-0.9428860540854029
-24.17021816701275,-8.459382052750252,-11.49595636218839,-21.09963661522908,-24.096097390980788,-19.403690512788835
-8.710645178276406,-5.300561345661977,-5.657485994068099,-17.341253543569543,-21.48702064139543,-10.88960821755965
0.0,0.0,0.0,0.0,0.0,0.0
0.0,0.0,0.0,0.0,0.0,0.0
0.0,0.0,0.0,0.0,0.0,0.0
0.0,0.0,0.0,0.0,0.0,0.0
0.0,0.0,0.0,0.0,0.0,0.0
0.0,0.0,0.0,0.0,0.0,0.0
-10.338341541567827,-13.68094450836851,-15.75909650978817,-13.827951534785349,-13.60029623644605,-14.28686463842975
-4.6583739795153445,-8.356798074080386,-6.513954561133252,-5.323955850159163,-5.372895780001712,-9.626117228588843
0.9689309414911705,3.3648811356671318,0.6755159117749744,0.13928878474716905,0.5883314207489376,0.28597902524632274
0.29364955258931147,0.31025218510975194,0.9692750542968223,1.363771053267265,-0.1752354621186296,0.1156171066422904
-7.8744561477693855,-2.1021840965670986,-2.6512041629394196,-12.10635064412457,-8.411244276669747,-4.53348616727896
-1.9040663701033251,-0.7379005445878621,-0.9416539288188461,-5.5985812351485436,-3.897688773188443,-1.3395753443090024
-12.591099789733649,-19.330086251635066,-15.420491158119756,-18.193583993945765,-8.666451767308144,-17.25784804864412
-7.154484855057323,-5.666483345977618,-7.562831655519454,-5.0818661765927375,-7.688241362831055,-5.386876773285854
0.41223042556813877,2.3224287725786894,1.2194280473165773,0.18469770577322303,0.26027169047482035,0.4157405867646097
0.3425728151428152,0.2754963732035169,0.3198068178188764,0.8959402572443376,0.23041352348661107,0.3117974167755261
-0.8633056730826258,-4.9765609294578175,-2.0011599830781956,-0.49065859662691297,-0.9030741825886736,-1.0254899734236813
-0.12627106646353575,-1.4617437737265033,-0.3471748560247412,-0.10407997761064156,-0.2094333615581825,-0.20184211961117307
-14.74977017131787,-8.806436124357651,-11.717327630359529,-11.069579839528613,-9.475556478879033,-8.10547858120881
-6.592205520239066,-1.8470375752410018,-7.551569986486973,-6.176910830755962,-5.767215906815156,-1.5732584278603379
0.26623959045506523,1.4328106341668685,0.917505758232979,-0.9685213947774614,-0.9417493076890873,0.3664848014907955
0.7699257004429563,0.5242826911795531,0.4530249377020716,1.0001792150279822,0.262522663978995,0.3350333335367835
-0.5913090833765192,-14.537544854402245,-7.322080411093706,-0.2477982075092359,-0.376368807631664,-1.6266281092659995
-0.20412900779674337,-4.1690775452014766,-2.327369446988259,-0.11127529150548382,-0.18996434412748994,-0.4353973819035558
-17.01518677620743,-3.5928622157350034,-18.4138303949468,-12.81153456504679,-18.72480797801957,-13.373216895824777
-1.404868475299212,-0.02368240313605894,-5.123404059650234,-2.368966331297817,-9.896994516751615,-3.4542073368976145
0.35950229100223674,1.5682248058838464,0.30764880177628995,0.9240517713982188,0.6003427864216316,0.47204397554755234
0.8520595284679824,-0.49160178960138856,1.3811913506415756,0.7138599582265869,0.11192686557682203,0.7697388891090722
-16.725861781983028,-22.489581902231265,-20.373283054792186,-15.940433507390736,-14.755309545887242,-16.442915662992885
-9.960534553600299,-13.716400150756616,-15.478015168074341,-10.11982872030272,-9.513713402593048,-10.624632848827417
-7.856371198676367,-8.989668247772553,-12.978618302064671,-13.611096681167435,-12.98565331376127,-15.25053654138202
-0.6843964812220389,-0.7195272661770066,0.18704641508290945,-1.2207863320374284,-3.4924764502014733,-2.3426749458993408
1.8262657999604657,1.3717236130500385,0.12285250868416436,1.6724306857667253,2.4348400801417087,2.6225166182919457
0.5474817320795765,-1.439732172586606,-1.036057252259786,-2.9367772598587876,-3.1185734775355214,-2.431530610638111
-24.525816233713257,-23.97067534269195,-24.56378665004967,-24.888885072697104,-24.046895027182437,-24.791421403567387
-21.21716731012653,-20.8567954650046,-21.995975837084043,-21.875405887758927,-21.83159762721039,-22.022444031605772
-9.263376183566711,-17.659540267235304,-9.112781556358104,-11.80754561746269,-5.494544315582073,-9.382710951884421
-4.532556259918488,-5.5496386500904995,-2.6532263277425434,-2.984340080665769,-1.438071263397261,-0.3152071768844889
0.5722109273201944,1.6480096684107186,1.7662271556690805,1.679344070604083,1.2923951091921486,1.316756039785548
1.3250345260057754,-0.512924117004708,-0.5321002538250944,-1.5967808954223652,-2.134532949657239,-1.0328185390429174
-21.720424481437096,-19.689095017215948,-21.8307186322064,-21.480076200173343,-21.586914113042106,-25.430145058425254
-15.991306659745048,-14.588383071710245,-12.386293867257125,-20.45169690982701,-20.518744129990477,-19.29514947492652
-12.069485337402735,-14.009013943377445,-15.29013773426225,-16.22793441851683,-13.057131684134855,-14.53618833229207
-3.6675782197276434,-10.46287924388053,-3.7153748330224325,-4.863633489087664,-1.6596984077035832,-4.802512189496074
-0.27959737043036664,2.2347070339633275,1.1532649834461095,0.9035957486042422,1.4786818896706548,0.1886611894902158
1.1743916226255382,0.18522806949546805,0.23991774023069548,0.44584380222007847,-0.2563570637676464,-0.7380260000918827
-26.475332517711074,-8.437235591535764,-11.145517465914855,-23.03509700526943,-25.079043229694264,-20.077776828832235
-8.802765266464501,-5.352424015314292,-5.55719236519346,-17.591104904663727,-21.382508712510816,-11.233254123357955
0.0,0.0,0.0,0.0,0.0,0.0
0.0,0.0,0.0,0.0,0.0,0.0
0.0,0.0,0.0,0.0,0.0,0.0
0.0,0.0,0.0,0.0,0.0,0.0
0.0,0.0,0.0,0.0,0.0,0.0
0.0,0.0,0.0,0.0,0.0,0.0
0.0,0.0,0.0,0.0,0.0,0.0
0.0,0.0,0.0,0.0,0.0,0.0
0.0,0.0,0.0,0.0,0.0,0.0
0.0,0.0,0.0,0.0,0.0,0.0
0.0,0.0,0.0,0.0,0.0,0.0
0.0,0.0,0.0,0.0,0.0,0.0
-7.240792231671584,-11.995282771043128,-9.00169808218145,-8.979610386593404,-5.956422688986887,-9.236934855631482
-1.404950240094321,-0.1547654153781358,-1.043999246516625,-2.038093626537039,-2.6500371648543832,-1.7136029038593026
0.8187456702728911,0.46589320608447055,0.8085904432978402,0.13676343420732315,0.26542202212583804,0.09139551905062221
0.2113111798259379,0.07853846507646327,0.10726117908358342,0.32279858508306297,0.09062040603441421,0.08808324253529637
-0.26861329059318356,-1.5056575829422334,-0.7562367336573191,-0.18054553529575237,-0.32331476484290667,-0.3340604718988525
-0.041007096859543325,-0.4678934874772299,-0.12771809086752847,-0.039948072003247674,-0.07736392223409116,-0.06498031261276759
0.0,0.0,0.0,0.0,0.0,0.0
0.0,0.0,0.0,0.0,0.0,0.0
0.0,0.0,0.0,0.0,0.0,0.0
0.0,0.0,0.0,0.0,0.0,0.0
0.0,0.0,0.0,0.0,0.0,0.0
0.0,0.0,0.0,0.0,0.0,0.0
0.0,0.0,0.0,0.0,0.0,0.0
0.0,0.0,0.0,0.0,0.0,0.0
0.0,0.0,0.0,0.0,0.0,0.0
0.0,0.0,0.0,0.0,0.0,0.0
0.0,0.0,0.0,0.0,0.0,0.0
0.0,0.0,0.0,0.0,0.0,0.0
-5.290941909362643,-14.423947610911812,-6.7849340034869945,-7.502383436059153,-6.453226129748822,-9.079189609579306
-0.07909510146456436,-1.7208764332624757,-1.8244441052950513,-0.2068192112254229,-1.2899579557899483,-0.7559773398299426
1.1971081091602682,1.2444139111490762,0.9521587483614414,1.1542452314907392,0.924304139984326,1.0425912011184033
1.1605637352173466,-0.34518254970145384,-0.062132525102428955,-0.7804632898755254,-1.0406721397379959,-0.28016875615560893
-9.404213301760413,-9.928905896226762,-10.643485610422577,-8.982470659957443,-9.115695052825252,-8.755461397282323
-6.914040884107732,-7.052900006415099,-7.511691302759938,-7.43902632335166,-7.3397674919744045,-7.378640563251297
0.0,0.0,0.0,0.0,0.0,0.0
0.0,0.0,0.0,0.0,0.0,0.0
0.0,0.0,0.0,0.0,0.0,0.0
0.0,0.0,0.0,0.0,0.0,0.0
0.0,0.0,0.0,0.0,0.0,0.0
0.0,0.0,0.0,0.0,0.0,0.0
-4.22421273677468,-13.584710589226223,-4.6144824091444185,-7.776319299963598,-3.667980156215468,-8.996471073643102
-1.8237582836145927,-2.7534165253213763,-2.211092126193169,-1.6716631336885388,-0.9339067004104867,-0.9867571868829639
-0.6236290164329076,0.7638195252177418,0.7738484608922069,0.5183719153302943,0.5206923914331965,0.34956042350617433
0.7715678604940618,0.11530262222152766,0.4587139655537012,-0.021710450503059118,-0.4026218973700738,-0.33227592078623774
-9.369588873010093,-3.1740402513006942,-3.5601624269483567,-7.995318547911415,-9.273705891163178,-6.9807199046332284
-2.9736961661122105,-1.8086569181446908,-1.7779633015693388,-5.788559773141575,-7.026017398446611,-3.733928898947639
0.0,0.0,0.0,0.0,0.0,0.0
0.0,0.0,0.0,0.0,0.0,0.0
0.0,0.0,0.0,0.0,0.0,0.0
0.0,0.0,0.0,0.0,0.0,0.0
0.0,0.0,0.0,0.0,0.0,0.0
0.0,0.0,0.0,0.0,0.0,0.0
-17.37716570174282,-16.807670281988123,-11.984380551879978,-11.10199450608619,-15.905812387442312,-17.5399902946517
-4.570221965005604,-3.472967439108993,-0.9999960366611801,-4.80624704787428,-5.722955220591636,-4.068210465225066
1.013103084761663,2.2769047324252845,1.545615885328338,0.8239455949048463,-0.22759215967221597,-0.13556836045180315
1.0745103355412369,0.27735037507494575,0.876703211042072,0.7369948467531442,-0.09442155396932056,-0.15588557004545345
-4.6800301363195675,-0.4723358601160754,-0.6854612461083313,-12.305908392430867,-8.971033875840797,-3.8630020646641636
-1.5895357342702294,-0.21094070166546725,-0.5929959787761618,-4.1426627921338826,-2.8384619222175567,-1.1287577838839742
-14.49090562702554,-12.661227780596732,-12.355377326990022,-16.686588611411697,-12.110699873616959,-13.446594446381273
-5.603960812074596,-3.4717755039961213,-3.300386752104837,-2.467858868601104,-4.047681176947572,-3.145350529221902
0.2408867776777533,1.5675920925797013,1.437917217544455,0.3879672383117855,0.8276744779845489,0.28548253320433087
0.4929061693445538,0.14577964905661087,0.3768763659160156,1.09974291631572,0.052529047421092635,0.1220329372620563
-0.9274787570020242,-1.3793613693737292,-1.1318163792883955,-0.8156422611803301,-0.41336932679971466,-0.8581152103262439
-0.10059262987758036,-0.4476576859973026,-0.402945930220558,-0.1942913515777499,-0.1237636308407546,-0.25431837165833476
-15.774252674910864,-11.48967689447595,-16.369500771923686,-16.445627267993057,-17.575799212762924,-10.999136697242106
-4.206319006389998,-1.7432708463986244,-3.6476475549043466,-3.8843661653669517,-4.0915924113067925,-3.4515308846526587
0.3545375254239426,0.7645463952555633,2.566737354520635,-0.28414222864132366,0.8035027261894642,-0.17634534475265415
0.2851426963948982,0.1360436884399441,0.8322359587919561,0.7257981035853786,-0.047051588407522875,0.06360237359401849
-0.820852964718789,-11.574998243916557,-3.4779796190028938,-0.7410562585423428,-0.327298738425024,-0.5259720104682999
-0.17845026262625205,-3.9043440861226864,-1.8526758742690261,-0.2712512716014969,-0.07100014410396721,-0.18689659105461187
-9.873370006470445,-13.767820139052278,-14.041386131387835,-11.096281384326607,-13.119151209703379,-16.567559855211158
-5.042958214589342,-1.516445083485135,-6.885553443809484,-1.6409692573308403,-4.6757648392654,-2.988768879021965
1.747924783071498,2.095925566134104,1.3235721299117096,1.3201587786166034,2.2862350650051035,0.9523378081471368
0.4420773469913904,-0.2128582070439682,1.1223815987851014,0.3627427949891255,-0.4142322692787932,-0.7088062454716113
-17.273230580212296,-21.919772577089297,-19.16875732316586,-17.542722678040118,-18.24465034809111,-17.556915174222205
-9.986674663987548,-14.634460207391879,-15.967235691255969,-10.84904097125624,-10.184868152304436,-11.089781341692253
-11.644441929923275,-10.694643852441972,-11.504280157453943,-11.483521402475088,-11.411797269685577,-13.52753508936076
-1.2153513915999625,-2.7029628684727998,-0.6445520941151753,-1.6766635352721633,-1.4920162152228986,-1.7665576154066684
1.7208166392425368,1.1678509916266027,1.5886885536724102,0.1522123711083429,1.5401006865480367,1.1786583965613524
-0.7001633001702554,-0.3774655677152094,1.5113326509177238,-1.192949285392874,-0.8729261865195193,-2.1778046710550325
-18.50784808837766,-18.198675012099308,-18.859282242530725,-19.067796875248444,-17.290628582768328,-17.347610654111417
-13.640300176832234,-13.242876482541895,-13.726958366335262,-13.67051475935827,-13.387302445203666,-12.825495461060301
-10.098805363179652,-13.244931157296067,-5.963096516932411,-13.259238929332962,-9.170460074415487,-11.124629814657242
-0.8158857515926873,-5.950278714612956,-0.9166959975349577,-1.1680031774060526,-0.08125847730405823,-0.8510947644593407
1.132157275185903,0.8730769679066475,2.3863425569780343,1.2447390660773607,0.734377578035873,0.5699695424955726
0.0769131017811749,-1.0517163830762686,0.9008651306840461,0.2470895516293466,-1.5165478106479793,-1.6916626707504387
-20.22339992868106,-17.541990904875902,-21.27860623857359,-20.87164080597601,-19.877271211251657,-20.068149302084326
-15.220716214768585,-10.977588137952358,-10.656385804213167,-19.57224259366702,-19.16440772578436,-18.461538774308696
-8.66600271469705,-12.953239436883997,-3.94176522264021,-10.423470923945414,-12.266524314704053,-13.878559240346732
-0.038290812256530096,-2.1935961684486025,-0.35871024034206356,-0.8904601896039853,-0.5220143137915306,-1.4097828033972708
1.0580700663778306,0.7735066126272625,1.0799175634469522,0.7267242670059819,0.014782927704016244,0.22040850353335217
0.2903396078469533,0.022369923967981667,0.4498776443835695,-0.2360229463832609,-0.6708258069738019,-0.9322726845506483
-17.608829839330102,-3.7488231767447973,-4.887043560280724,-18.851217029697697,-17.96840169813465,-13.611658875679149
-6.139057948616978,-1.856299481184187,-1.5014210329179816,-9.480390454553788,-12.644604912465962,-8.000811119153976
0.0,0.0,0.0,0.0,0.0,0.0
0.0,0.0,0.0,0.0,0.0,0.0
0.0,0.0,0.0,0.0,0.0,0.0
0.0,0.0,0.0,0.0,0.0,0.0
0.0,0.0,0.0,0.0,0.0,0.0
0.0,0.0,0.0,0.0,0.0,0.0
-12.849713353122073,-11.631680011113005,-16.689304063304007,-14.470715929608007,-12.390566145176708,-11.40257699275461
-8.948669171783573,-11.035795251297909,-6.236249843119171,-10.395325067729038,-6.794899703933232,-7.115887794887887
-0.4051219491593896,2.6070239867279503,1.335926049997341,0.019533230777903792,0.7855043002668686,0.1994968786989774
1.1040463969056515,0.22735034032526044,0.38975257616672876,0.795263512474263,-0.2566555389604422,0.2233212296499015
-4.848728906910566,-0.4771571206009114,-0.8561072067396274,-12.888322157801895,-8.241112086086963,-3.5581542769683767
-1.6529794093001264,-0.24460139574215004,-0.5520773366579016,-4.132601894100483,-2.8727427549584075,-1.1448086335497154
-15.814541508546354,-15.571943425406776,-13.5352789218831,-13.267668061203574,-14.90261226546414,-14.866750370562261
-9.233127018171826,-6.1612027444453235,-5.825862710617652,-5.6157409445245285,-7.458065660908378,-7.138984990483355
0.007789688009960034,1.187000373399522,3.18711339869377,0.6597216295981165,2.150840238610739,0.7264407528434339
0.684211855441783,0.17923577193437837,0.4836546258968357,1.3451933866091292,0.0559827639644486,0.26335148538283115
-1.4023164444409413,-1.8363552721028231,-1.6539924810090123,-1.2545848020291,-0.7134811321516099,-1.3652783073848025
-0.15233361591560396,-0.6473467018313334,-0.6007582483636624,-0.2943217321304547,-0.20213186424989665,-0.3899821172359532
-10.03454815246838,-12.585634463394703,-12.78832243534796,-10.09103849618416,-15.923532060476012,-11.775447116213252
-4.0180354425428675,-2.356481149750414,-6.724594053123547,-3.01145668631968,-6.718669181167821,-3.861154011390466
0.12235737353149366,0.6182970011218224,1.2576877026945683,0.04791005989828676,-0.031137893170965103,-0.1500520608952103
0.21730879865485977,0.3301824301864802,1.2908494256938963,0.48778329817998184,0.06532544841093404,0.08921730970531616
-0.9806760151634545,-11.440693501942118,-3.9670076008895903,-0.9553245126218313,-0.3717314944029306,-0.49209988811213845
-0.1855557282728785,-3.919493356258806,-1.8780802828868777,-0.2605874566336467,-0.08204519218737374,-0.17370441877796233
-12.775952631168481,-11.995190811422226,-11.786134900112836,-12.745414799025692,-12.615991522325814,-12.227889192660344
-2.7044279057702387,-0.7036798803085424,-5.609225792030679,-3.2789234014951654,-3.2614543565044243,-2.99069709308604
1.5483975574663715,3.113177139436935,1.3148839196690632,1.0137965383104355,0.31271493105979564,-0.06759860757405672
-0.030835452958262496,-2.433535841518986,-0.412286401539637,0.023129128023752266,0.1921962020939963,-0.24724994057898586
-16.1280637923238,-20.80701543566113,-16.915970598935505,-15.632187808882579,-17.053395408698467,-15.926214915368389
-9.66803945331181,-14.485523375963684,-15.610039009030313,-10.39797239798909,-10.02999160867581,-10.810176437772121
-10.222817799030748,-6.6732280117895035,-9.7743106301048,-11.903248024572793,-12.478679535511976,-14.055805885328331
-1.1096017520650365,-2.471653004108948,-1.7028397662294605,-1.4179467573734228,-2.9006681106770906,-0.2632067889882952
2.117071232317524,2.888252714930071,2.3991545223249777,3.019062596735771,1.8957954361232467,1.4509283982057488
-1.5019344553545348,-3.7876772533544343,1.475812280216026,-3.085011611044806,-0.26038998314512823,-2.2113845284279687
-22.961537176103253,-22.12622794208593,-22.190285564918025,-20.800583548844582,-21.696962187565045,-22.12443906643965
-20.07023562217061,-19.47009094686131,-20.650546157208673,-19.961872019368457,-20.060491112317532,-19.707313734261174
-12.337182594819536,-9.969883415338725,-11.306122578598217,-11.30047651661504,-11.255013427094566,-11.46526103000655
-2.4847610431898652,-4.221190187155379,-0.3333642910828508,-0.9682219597403352,-0.010838274316555038,-0.8133481534328962
0.6628732835147354,0.48193084122226537,2.7166472669240096,0.741780790850353,0.5969860625762209,0.3455210801738754
-0.9732976994970072,-1.7201047116254535,-0.1800146591518088,-1.2705075896289253,-0.7062947617659385,-1.8687359123926068
-20.747590285228306,-17.577629762941154,-19.72970716575697,-21.382290216854216,-20.718086104994576,-20.130734372990826
-15.286277698351409,-11.176747135380788,-10.536929408098814,-19.960559658815992,-19.321185681761424,-18.79286806729986
-12.710781399370747,-12.446212254965284,-13.250238493891825,-14.815946049806549,-12.442380220657864,-12.524680327035203
-0.8764209506569955,-6.13213450527539,-2.4863156056983544,-1.6589045330483194,-0.5270392642070139,-3.315915879449851
1.0630063741665134,0.9105400503370489,1.0595873357756975,0.8789406330862202,0.5787867873623196,0.2867881405201575
0.7259890242250212,0.012508455261140436,-0.4573324701026648,0.17161453935608487,-0.6759611434346162,-2.667663677365536
-25.39843302952446,-5.052631899013425,-6.928413202688546,-27.140202768137765,-26.016989480975695,-19.331961534190704
-9.266808389955035,-2.8149449723348168,-2.048734727278615,-14.003376938762566,-18.84227274584321,-11.977262959396683
0.0,0.0,0.0,0.0,0.0,0.0
0.0,0.0,0.0,0.0,0.0,0.0
0.0,0.0,0.0,0.0,0.0,0.0
0.0,0.0,0.0,0.0,0.0,0.0
0.0,0.0,0.0,0.0,0.0,0.0
0.0,0.0,0.0,0.0,0.0,0.0
-18.20155002874872,-14.921084453336306,-14.55272915300283,-11.473976497218608,-14.987798402543472,-13.803793224671319
-6.76217484313928,-9.903217609473536,-9.352487319369844,-4.826149515489505,-7.552083796056844,-5.973996847244026
-0.11721394535673672,1.595678440087836,1.2744171595953293,0.8523208519961871,1.1359124212501928,0.03926346457724739
0.7779639188204425,0.1535706221419488,0.5098462432608549,0.7590674022120476,0.09492514414960278,0.12081641007260077
-5.088071342384535,-0.5817093216655382,-0.7159242429324518,-13.00424469238855,-6.739997729491744,-3.2700798385475043
-1.6445967629331943,-0.2436170793855617,-0.5825501128378862,-4.183004385000764,-2.667531213723361,-1.0716225269514492
-15.67242636231115,-11.840759796521896,-9.585634225665428,-14.023256639653427,-13.090575260226462,-11.506030899195618
-6.759718575540909,-5.841707292502305,-8.43174478468199,-7.304266833461809,-9.929788831646459,-6.52933768236396
-0.13497132428204725,0.9331715529612284,1.18591483454303,0.5248012649879248,2.5075032547601124,-0.3057079931197353
0.7190335400752129,0.1960872308672303,0.6657919584119746,1.0079339387323811,0.04798955332467661,0.16341109039785912
-0.7390463292924679,-1.5328706364472178,-1.4325782594903882,-1.1183932216650427,-0.7649361973176289,-1.5101235998213793
-0.1189912416428581,-0.6024676195890915,-0.4555423835988422,-0.2865113739332014,-0.1904960193264826,-0.3846097366898268
-15.993399619652672,-9.981207365496342,-11.860232963298103,-13.416566432912425,-15.147698913816614,-14.311190434390307
-3.7269891568080546,-2.0437567489481263,-5.872490696325105,-3.427272842582227,-8.937003796177015,-3.1759318489829336
-0.005027612607562869,0.8600574023597517,0.20047420056882756,-0.05180799194722206,0.9734572919729122,-0.004149163062572025
0.38774248031708697,0.43734535055473567,0.7451488956612753,0.3783720930314436,0.023611633817487168,0.047440531504504106
-0.8266019919502479,-10.964161102500123,-3.9744699268182004,-1.0687353405671758,-0.3771087891317199,-0.44086707985240847
-0.18017814961380207,-3.8422188115858056,-1.613538006264113,-0.23240890351925497,-0.08111818153533869,-0.1293239261234956
-16.92828933065544,-14.561022935598576,-18.970742040670302,-14.505846909698766,-16.238365232295184,-11.95036731289241
-1.9192496436558402,-1.2611532352389216,-9.250067322836482,-4.9591768683553115,-11.201176482155994,-4.159716482762826
0.9203390894410434,2.170861236293865,1.1164167192653671,0.5973267752415431,2.242494825929286,-0.18496088143717102
-0.15644800799841785,-1.8512607807776145,-0.8294500927924008,0.41566884714217733,-0.22742297550893104,-0.3509533885990145
-16.135688500387587,-19.99517059841786,-17.44707927157316,-15.167814215945697,-16.848002150644053,-15.548295844645919
-10.112920056203338,-14.734291083013218,-16.267668551300368,-10.903326446704302,-10.612391787645464,-11.23158546581278
-1.3820086261175972,-3.36193403796256,-7.42811375284003,-11.193096856322407,-14.602438219754564,-11.339750480109478
-1.5844696514261665,-0.7873445507499525,-3.8998590526195134,-6.067595784506206,-4.448942430474599,-2.973100636250929
1.3732385373711686,2.374803550479897,2.1455280811532487,0.7164700354984038,2.654389734050034,0.5856547489106346
-2.2255322940646183,-4.678658661115261,-2.159545146595612,-4.413968993725321,-1.3025898843030959,-4.715538108779696
-20.318026553981433,-21.02385065041886,-23.78047782395641,-20.545731531110306,-21.025568745842442,-21.874575257640124
-20.595275925447083,-19.61932279527423,-21.437722806524715,-20.737317484276602,-20.978676102674946,-20.72256692645246
-12.957644330278747,-14.509031126177668,-8.920826954076656,-8.974850717436786,-7.746836155979737,-10.75644902980389
-3.2882113459569013,-10.08425312015852,-1.162387770702864,-1.4326013963380546,0.1217471301766943,-1.0935524399671683
1.1218790918664925,0.836510266541333,1.8256927996893064,0.5039587092283884,0.5879782218292282,0.11031166365584627
-0.6680934023341523,-0.7052544122446058,-1.7963306451924914,-3.150199993341493,-1.3087354642188669,-1.8260777261427694
-21.683888189565998,-17.049285667188112,-19.48091627838417,-20.682243163661827,-22.08939685571661,-21.395940604641424
-15.629124013533225,-11.821660226677565,-11.255277183866841,-20.84985271815216,-20.511985635208156,-20.01706927036782
-13.702925588165867,-11.027240906285273,-13.225396086250033,-10.526555113594705,-9.755885075355677,-10.647695318257322
-1.4304876843581225,-13.043321154445369,-2.856894385843514,-0.7081182033795387,-0.35568118983936914,-0.7662709947840293
1.0757986512865045,1.1367063287239898,0.8864495619005346,0.8572924615511447,1.227736045965019,0.5872203930987528
0.7749758118242277,0.1284030613625703,-0.10898402538114887,0.14174205577623344,-0.06779565394937385,-2.3737371698685967
-24.931299299954954,-5.050309194096315,-5.984661453066856,-24.50414717644339,-22.646328502349338,-20.919658926507363
-9.05312761099698,-2.866424048221556,-2.1989231783731813,-14.304768699277062,-19.344981181579442,-12.348676176499032
0.0,0.0,0.0,0.0,0.0,0.0
0.0,0.0,0.0,0.0,0.0,0.0
0.0,0.0,0.0,0.0,0.0,0.0
0.0,0.0,0.0,0.0,0.0,0.0
0.0,0.0,0.0,0.0,0.0,0.0
0.0,0.0,0.0,0.0,0.0,0.0
-15.825253956058031,-14.674331603255682,-16.010293888793978,-10.667706492640917,-15.276741747181621,-17.431355402765316
-3.034846789726125,-5.304740615081458,-3.988270461225334,-4.445881279073627,-6.3900611082758365,-7.568979401650998
0.8405999132733468,1.7848012204192676,0.8286896484873278,0.9219918829562012,1.1959114136911855,-0.4540762184447067
0.8813237640959909,0.11957263040976966,0.8537674841666686,0.7640539464784668,0.1805882953545955,-0.4645207479907701
-4.793298472705874,-0.5955004406937783,-0.5353321051319828,-12.38033990950535,-7.2134017486404725,-3.4829187465115328
-1.610576480045128,-0.21163462108034686,-0.5891576767170296,-4.193626909938933,-2.6807110110281673,-1.0445379651708941
-15.046727985352955,-13.33938944484593,-12.896575516896828,-17.092109804053376,-15.513258285826359,-13.2967679759994
-4.6403006671060805,-3.410357475066119,-6.254690688246536,-5.5667545506270715,-10.809820277333898,-5.197749017905429
0.6458359044344562,1.498005698990183,0.43200395367273453,0.7769996927724135,1.6302616780274237,-0.39555572107564574
0.6714874193908904,0.18393744239744808,0.27170873990887573,1.012133837539515,0.05615218805149668,0.11300584936576563
-0.5447068282144445,-1.6081441446493392,-1.2950242660483944,-1.0173083356125372,-0.6705124655998815,-1.3815757549487173
-0.10526013448310181,-0.5976501637206602,-0.42116244658862867,-0.28157013640082323,-0.17871795679258967,-0.3664602152546872
-16.524952835905285,-9.520130955006383,-12.388660247544879,-15.764384561003041,-16.172665992110833,-8.02648404725533
-5.866645744466137,-2.490025927257009,-5.5157461880356955,-3.2242882610842347,-8.371868002932978,-1.9984208061761526
0.307155564984431,0.7454752175367296,0.5489850401852215,0.06908672149185588,1.9165578605963345,0.07322613157042611
0.4962385634735115,0.16331698898180763,0.04154008927321922,0.5999178850052945,-0.12114139930233139,0.03540685465386934
-0.7361198620738816,-11.232372000427652,-3.5402100750406618,-0.7006842514105732,-0.34983494204917653,-0.47015909906810505
-0.18501841274109546,-3.8281556119091875,-1.5981245808194036,-0.23434996253997867,-0.07640596270748763,-0.13782678441049376
-14.627746673141058,-12.315381367013572,-19.919537173263475,-15.035588960425512,-14.031782482367817,-12.66059384753537
-5.539806007037021,-0.5148089502635765,-9.513853714966809,-9.473443940934109,-13.644604213680246,-7.320650779839999
1.0384555158600324,1.3072892539783316,0.5030513427831094,0.5040285621565072,2.97582334086942,0.9680646122260084
0.6773432548245077,-0.07073135636222808,1.0870099209476858,0.5551498768970431,-0.6367462519613407,-0.37474872161888645
-16.650823934435664,-19.174849810061648,-17.34003357643142,-16.436178700228208,-17.949111513005068,-16.689359870430497
-10.341022441825722,-14.76472065412129,-16.202683456627547,-11.321598166868686,-10.792492858275736,-11.476544005493574
-11.436244673854782,-2.911802424826337,-10.657551590199132,-6.737856406046368,-18.43660332812025,-13.204039341191598
-1.1315336006469319,0.2511315350257781,-0.923115391241401,-2.215652368540457,-3.818636927359841,-5.9154876792845865
2.161327098221589,1.7887703625611722,1.6882299066663493,1.6569536306852122,1.6546659733017755,0.9478340600559617
0.30164521047890136,-1.1768634852484443,-2.1883678399621194,-3.4673840634550177,-2.4168111093409155,-2.4821437551449574
-24.42410166673194,-23.99089924358379,-25.771786933144583,-25.32261415952533,-24.817431520776985,-24.341186132840985
-21.030788206573273,-20.179011629140533,-21.503255657330417,-21.0614713964458,-21.15353391588665,-20.60132766673985
-7.393109270806963,-18.377647724152478,-4.498069892238116,-9.463450091477549,-4.731912092785527,-5.057363254553026
-3.0039121172250924,-7.949807151302534,-2.6315908598669187,-2.4783313818977137,-0.3850149927267147,-1.5406318886299104
1.0467579649527128,0.9549877058598011,1.757314392776271,1.292701544210468,0.7055845853660674,0.3739064624748552
0.2267334624002187,0.19247056773020746,-0.6779903011797739,-1.255569764917762,-1.4885936436905374,-1.14152014512158
-21.03919299761213,-16.715975639021565,-21.076206398938435,-19.895125221927092,-21.064312800417753,-20.76018636072732
-15.655804681631857,-11.425773178547637,-11.244637894232502,-20.54370805925252,-20.190547482015706,-19.433172687841218
-9.955977301022259,-11.890439455900227,-12.88648648295577,-12.935227558461346,-11.0448233527536,-10.321409143805624
-1.1709131731880993,-7.886879525437839,-1.6906238268650349,-1.3101333182997004,-0.297857334291234,-2.9556281169838696
1.073787199438555,1.7115612469406656,1.40916869645226,1.0911858589498966,1.5894585904070524,0.6807528185383563
0.40367775629043323,0.04458641297326157,0.42155622778523316,-0.11533188911760811,-0.330880138931636,-0.7165431141083054
-25.805068238576588,-5.4270309298125525,-6.526929303114012,-25.49284827360051,-22.7551491134184,-22.40454394791433
-9.074940829817313,-2.6713240652045527,-2.4062934532477356,-14.38717325817982,-19.418935755619714,-12.314914524991709
0.0,0.0,0.0,0.0,0.0,0.0
0.0,0.0,0.0,0.0,0.0,0.0
0.0,0.0,0.0,0.0,0.0,0.0
0.0,0.0,0.0,0.0,0.0,0.0
0.0,0.0,0.0,0.0,0.0,0.0
0.0,0.0,0.0,0.0,0.0,0.0
0.0,0.0,0.0,0.0,0.0,0.0
0.0,0.0,0.0,0.0,0.0,0.0
0.0,0.0,0.0,0.0,0.0,0.0
0.0,0.0,0.0,0.0,0.0,0.0
0.0,0.0,0.0,0.0,0.0,0.0
0.0,0.0,0.0,0.0,0.0,0.0
-10.480215610225873,-6.758366064787086,-8.202289238945855,-8.119079690543586,-9.03089640869838,-7.5097437674482475
-1.9879981719034723,-1.1612859572858365,-2.682594950962554,-2.0105490329642666,-4.502340719170238,-1.1212443845586808
0.29545394036744743,0.5419283482451032,0.24751400278533134,-0.018994766840017815,-0.7596035484429492,-0.015140014824319254
0.27190024789013195,0.11818058212103082,0.12476319374054547,0.4710437669674066,0.02963228522006176,0.038251558934683794
-0.23149765798285588,-0.6037630996480738,-0.4615854912337541,-0.344641781900354,-0.1994981662835505,-0.41645718085708255
-0.03621588211933768,-0.2107082939937121,-0.1555233390156882,-0.09277947643326029,-0.05841202882164157,-0.11518759438953108
0.0,0.0,0.0,0.0,0.0,0.0
0.0,0.0,0.0,0.0,0.0,0.0
0.0,0.0,0.0,0.0,0.0,0.0
0.0,0.0,0.0,0.0,0.0,0.0
0.0,0.0,0.0,0.0,0.0,0.0
0.0,0.0,0.0,0.0,0.0,0.0
0.0,0.0,0.0,0.0,0.0,0.0
0.0,0.0,0.0,0.0,0.0,0.0
0.0,0.0,0.0,0.0,0.0,0.0
0.0,0.0,0.0,0.0,0.0,0.0
0.0,0.0,0.0,0.0,0.0,0.0
0.0,0.0,0.0,0.0,0.0,0.0
-9.815145042245586,-8.65358914053766,-12.073538851587383,-2.0243298986803953,-11.220855665190157,-5.5173667637608546
-0.2850639818580983,-2.530111519444199,0.49233271591881783,1.423960157752144,-1.6683267705342084,-0.9844494375577543
0.8728901434795393,0.8638561699519165,1.5381994068146745,1.957362897939739,0.5656571941370138,1.011677407386512
0.10082373925969235,0.08382776266755955,0.052004681953545906,-1.4339478941166763,-0.7080375180784446,-0.9729282785408296
-10.181936685623182,-9.624645100096284,-9.805100300614754,-10.551872508172433,-9.127857983071006,-9.154965588288084
-7.078747073701577,-6.814811451233263,-7.105708624501976,-7.041624185050287,-6.968637221559586,-6.727858669784551
0.0,0.0,0.0,0.0,0.0,0.0
0.0,0.0,0.0,0.0,0.0,0.0
0.0,0.0,0.0,0.0,0.0,0.0
0.0,0.0,0.0,0.0,0.0,0.0
0.0,0.0,0.0,0.0,0.0,0.0
0.0,0.0,0.0,0.0,0.0,0.0
-3.361225068683916,-7.619333009849654,-1.4019034665660843,-4.153098749743159,-5.474377178911301,-4.23654860125344
-0.5457390964720178,-0.9517537482579598,-0.06631905186310076,-0.7115630409030318,-0.05582507856699238,-0.4706097496766373
0.4378373471520274,0.5494091665943269,0.6651827563919902,0.31626697976703955,0.4867588663974281,0.10800185632979271
0.09758174333692358,0.01517925669759094,0.2773634049119556,-0.3009726140725911,-0.1350321944893862,-0.2407365638692324
-8.698178281546548,-1.831568928949795,-2.5011657450086355,-9.160048764629636,-8.331040120302063,-7.429931475660389
-3.015074120503769,-0.9196782754389263,-0.8158190429995452,-4.743696009395313,-6.410440573126938,-3.99403918261822
0.0,0.0,0.0,0.0,0.0,0.0
0.0,0.0,0.0,0.0,0.0,0.0
0.0,0.0,0.0,0.0,0.0,0.0
0.0,0.0,0.0,0.0,0.0,0.0
0.0,0.0,0.0,0.0,0.0,0.0
0.0,0.0,0.0,0.0,0.0,0.0
