x1,x2,x3,x4,x5,x6
-24.345349577089824,-20.859823088620015,-22.204681901580315,-18.54937079943024,-23.256573071210557,-28.02516200855263
-49.32092410642137,-47.00469132701803,-43.852521697008136,-35.8306653137313,-36.76967891698695,-41.96233501150853
-16.513358100663545,-11.848137355554108,-5.554220235695779,-9.193515467032961,-8.884931840873284,-7.099430555667608
2.5079514681811386,6.389731775639085,7.12933631615871,1.9456189254009841,0.0830077566792664,-0.5672005728462818
-10.448511496407088,-8.099887033926032,-24.793895203597096,-19.211835732619733,-28.140373981512845,-25.39832601262583
-14.416084428563268,-16.62497379495411,-20.114551096510922,-22.10740812733322,-21.323656923916612,-17.761601376307105
-37.42067084280115,-37.97035318523282,-55.496505704274746,-44.835593041720934,-45.28013003072838,-39.41414403381571
-8.26028305367317,-8.06665475983403,-12.072940891739789,-15.505348747536205,-12.55859265473206,-14.515327930847068
6.549805481115066,6.3214543449667016,12.068486086692433,5.539125743700696,7.425064279010895,5.719188739256232
-3.130170674241943,-1.0268524105207693,-2.109071426301454,-1.3723168133812218,-2.443628943295074,-1.441049140359048
-12.678728752550567,-13.13560419651817,-22.572641849674095,-23.12771636926292,-20.690544437363283,-19.76569979622517
-22.456451385064344,-24.46674540172188,-38.887996674613035,-30.760935207353313,-43.088260518457695,-28.908988266772734
-12.420082683174543,-7.190289915726734,0.9310836724330915,-11.781958523232042,-11.700087757320194,-9.574302390733072
0.7146092732570892,0.11181325929315251,3.7373349644040217,1.2092095883878702,4.5888711944211185,2.8283519792985334
-10.881958633400309,-5.316049273557599,-3.1765912076160228,-3.000543434234369,-0.8488128013462389,-0.025464320204048582
-7.917515458403961,-7.720281279466115,-16.38932828997443,-19.680369360084995,-24.5601896276809,-37.36367011697067
-11.232213889697434,-7.799554567110083,-23.21441306422718,-24.912302224402584,-37.59714904724636,-35.35113801008182
43.02216860588695,35.03817896355613,-10.93998128004034,24.472228745497134,-0.527639917353443,13.87404426246024
-36.2400000533724,-31.2635563237031,-21.25271433696017,-33.99104636821636,-29.28325349801256,-31.71967115995248
-46.94107125083819,-47.565279092905335,-47.13453896574158,-45.74292223786308,-52.162276995142136,-45.94404332145816
-3.1083573306024523,-2.5218271175429434,-3.6493808468754563,-5.847766030217901,-6.091600036019898,-9.272602471160077
-4.3981998101487765,-2.0669377649692366,-8.166723158378868,-8.043551805286613,-7.849677144253921,-9.757770097520654
75.39208376115141,76.8001618603475,62.12405834683245,78.84853399808523,66.73715753753945,66.74765011765783
-43.769207117326445,-37.648278380320285,-23.051114634740035,-47.432271268619715,-35.244147724589624,-41.17349008350581
-33.15748632856935,-37.67813970746759,-64.24432079211888,-33.6522076602397,-41.250001612983404,-39.18959664794501
-9.00967176893262,-9.748861671996544,-4.194995521778307,-3.7582276434718387,-1.6732029061751013,-1.5320209978417185
-10.200360989556037,-9.83215752730153,-6.412513380662135,-4.365604698992136,-1.154397873466478,-2.4389131395049874
12.423676819984873,23.677595789692408,38.96141622339038,33.89865706746037,50.356593479044335,43.40176243836242
-23.867563273598012,-26.49266317631599,-20.925420606182527,-34.95278548567958,-39.43241061200461,-34.15605220836702
-47.43133913129286,-46.757847609735144,-55.02828288999333,-46.801087539479965,-43.18154261141475,-46.14532628814807
-10.970460227177881,-11.437921265229116,-6.2251375906072655,-5.262787723096034,-4.974735266643193,-6.96298825239208
-16.34131383918794,-20.94544224092559,-10.998847547253785,-7.3241095421952025,-5.520916079705705,-7.0664823248016395
4.253764673294055,6.080940310392527,12.929309348732968,10.021493587826484,25.193839669063085,25.178141796818835
-4.775331802770877,-3.2421262364039767,-21.61377163924529,-10.24783695301432,-24.870229904304527,-22.809818490669063
-21.515387387765664,-26.622995205650987,-40.302820947362626,-34.46494093562107,-40.3264311553774,-39.701283429946315
0.0,0.0,0.0,0.0,0.0,0.0
0.0,0.0,0.0,0.0,0.0,0.0
0.0,0.0,0.0,0.0,0.0,0.0
0.0,0.0,0.0,0.0,0.0,0.0
0.0,0.0,0.0,0.0,0.0,0.0
-17.723307265096004,-18.0480076782362,-17.18688854274889,-12.998823331350463,-13.240347402814686,-16.93741595438942
-38.15342219051941,-40.85653926086929,-37.125957347552124,-30.609250893495528,-31.036358778215494,-28.46832386676316
-17.26708675054753,-17.230017393260436,-13.456943719369045,-11.25071053977241,-9.429503900210818,-8.813237202255218
1.723919725156683,5.920470933659138,4.415162097654804,1.621951469676026,1.4859621629610251,-1.0651592361399873
-10.324685575917867,-8.485811269631942,-24.329787558227018,-19.45120748097386,-26.66654343362884,-25.60404108125566
-15.745316202201474,-15.972359173597082,-18.33670596553003,-21.73772716349463,-20.608271711723024,-21.33970279800681
-38.74263066476051,-33.5336491469873,-46.87595110589694,-45.56865229815564,-46.60973565494633,-42.51024655162467
-14.928897252549701,-3.804698301651978,-20.31370643793839,-15.736406850917945,-15.096613470847894,-14.588242362332654
5.576668158879124,5.404735166505586,11.44539829298864,5.750108675991595,7.27789287706393,6.318798663469119
-4.596965706556774,-2.195412760149885,-2.567317111841406,-1.578411431422736,-3.907540559357848,-2.136985337560038
-8.931758941770708,-9.96479873476339,-12.416890447802915,-12.525161485679845,-14.052539098344907,-14.23376528237335
-16.893646769863103,-17.53155873850044,-26.582733575650778,-22.72907123474354,-33.7050001367958,-25.728018349381344
-11.927967577435924,-3.426502358380294,-4.914636595259746,-7.78387959671061,-7.1502192678993515,-10.799863681802833
-0.7461842612957568,-1.088419588399401,3.3868429120869874,0.7057613288508227,4.730951607228782,3.0461978575569604
-10.393894767342047,-5.9202867783533595,-3.2331351347560777,-3.1264741043087185,-1.1563531140553118,-0.03961617955227302
-3.947850894087425,-4.421805642160465,-8.07326960696549,-9.672037036430055,-12.838685829441784,-16.606205993010843
-6.279036643109914,-6.102418568195835,-11.00552509187453,-13.688580456020418,-28.111202535446154,-22.79314952461591
38.127124651558354,28.677105936113502,3.708734814034316,27.657522685417597,6.259200244589698,15.864349118497136
-41.09004917365604,-34.82071547897,-28.699956418258605,-36.44310626526908,-27.525998482112218,-28.20725762937748
-38.170888715881965,-40.501060971656074,-32.476591054712244,-36.98115660277449,-44.83504003514606,-40.43648736093741
-2.781114913862629,-0.9516129736382034,-3.5746897627381267,-4.166066631386915,-5.927852279441369,-10.224792240879822
-3.182606403997909,-0.9975618315498229,-5.417935854264856,-3.4894088948743147,-9.092866079173575,-13.57138715399809
91.46149356876539,85.88953203858999,100.78356761546549,100.36601773860392,86.35617727553623,82.49331731720454
-64.1832346165341,-59.7464309260724,-55.84094974829978,-64.18583782588135,-57.99981551388362,-64.36189451084647
-39.625519505153704,-43.83415040703612,-48.876465697977544,-38.74514493246841,-43.51135705905921,-44.20678064115538
-4.166888525961248,-8.148278639032199,-0.5204237402551224,-2.786280929562242,-0.6383818708737342,-0.8702418523490371
-4.282921494437853,-8.849152443864508,-1.797080453050166,-1.605526079912639,-0.34913867933389503,-0.7652211625542027
15.817492356000129,20.951448066315592,41.90774745834512,34.22475698347746,51.509361332576994,45.096802838812515
-22.424401180566807,-25.09312738564558,-27.01540895706766,-26.706300456383833,-32.03323260595725,-31.476242363284914
-46.15704620754071,-44.720301865907594,-49.0395912658959,-44.258008094579246,-40.169771456810665,-44.92148577185731
-13.028223329901378,-17.57072200292346,-5.146166492105046,-4.600763209228326,-3.6991464769459452,-4.956992797470858
-17.594060576150415,-28.58113451928873,-10.609210354073237,-7.43896250628204,-6.345558981448193,-6.568868306372951
3.013489731714541,2.462892172491284,22.83085448007005,10.815319868375726,32.29630571686183,27.644127204431943
-7.400911813769444,-5.614181725265268,-30.276521903304236,-14.329983081037417,-34.69641232313331,-34.70832732012732
-32.009376087578865,-38.943714091733405,-61.03754813718087,-52.519041749975045,-57.63131033782151,-59.2348558872646
0.0,0.0,0.0,0.0,0.0,0.0
0.0,0.0,0.0,0.0,0.0,0.0
0.0,0.0,0.0,0.0,0.0,0.0
0.0,0.0,0.0,0.0,0.0,0.0
0.0,0.0,0.0,0.0,0.0,0.0
-20.80563967444684,-23.164207685984913,-19.780678513331864,-13.44595363305542,-13.890113351728154,-13.32563634868531
-32.13137608659003,-39.39023217160463,-24.82682106795911,-19.46880380015187,-22.587312472345925,-18.80822882659276
-13.696259533368396,-13.982808299825857,-3.5568394151348577,-3.3010577627502538,-3.885002249177229,-6.987984039515315
2.1644984029769843,2.3335848131111288,1.2740013266318753,-0.12277542031182621,-1.7838134735779188,-3.053777903028391
-10.534676559406527,-7.781084606132059,-23.83364821482569,-19.277913924352827,-26.974753288539688,-25.51216592482614
-14.143767726797403,-14.537548911948203,-17.48494806472353,-13.723276060304942,-14.717999487448422,-13.847260179092963
-25.12355849628162,-24.195503874827963,-25.148456615409714,-22.642452103850044,-24.638983096424703,-22.354140908763693
-9.92253913021446,-4.506322789262494,-6.697433187860165,-5.240165808971613,-9.564117211152938,-6.337912183064831
1.8784770910114073,1.4756280386870335,3.8107567650119853,0.9706821890435383,0.6844191486402205,1.7022272964176246
-4.096864807150281,-1.9688357410170336,-2.855015771804331,-1.8486465701689125,-3.912584272362694,-2.0119453369827767
-9.047564030312724,-11.356781506678765,-8.165151553241332,-11.47921902103119,-12.394769882720496,-13.173291912560186
-12.221979116537995,-13.635018901953783,-10.741174760656312,-13.922174124482012,-21.15816086322416,-17.448886807421434
-5.409621246595813,0.645080121019324,-2.435065419702806,-1.8027542545576973,-2.0654033616250844,-1.5638940941609754
-0.8630334263208652,-0.2121525791941856,0.2723052376633492,-0.019907534311250807,2.063308441143412,1.3642714410203325
-10.511146739079296,-5.806668283789958,-3.3898949663716342,-3.3055427693888366,-1.2064884895352868,-0.046346318055557396
-8.610624820800638,-6.811881949978839,-11.296474443746373,-17.642762804455806,-16.841218656751188,-28.607335799747958
-9.311646597020584,-7.918390207094148,-12.471332093454894,-18.122482785775613,-26.4011518264673,-37.22801494477806
27.7386386808418,18.557209146334305,15.096514582792738,17.202275942654396,9.839568433446367,7.038056663745666
-37.66402145552332,-32.770832189528235,-20.639656961117907,-34.29380543458294,-28.015753106294042,-26.85560475936813
-45.47103922767368,-44.43951245151438,-35.0778312791086,-42.47735524692101,-49.9546548397015,-44.020808925676164
-6.058368200196114,-3.2141532688398295,-6.8173690035548455,-11.259619807535595,-9.535694612710174,-22.350431347806534
-6.952727204606167,-4.004891678250681,-9.801330392994299,-11.78027605132721,-13.80990961829722,-28.96621116177666
54.39703024580351,46.0877427902802,66.94924588317615,46.79540998170749,43.497949134127495,37.91298993624984
-53.644265763210235,-51.51023655444011,-45.68689699147763,-60.41482145296809,-51.06220101073827,-50.18591461004271
-44.67374315062139,-44.76762157740061,-36.977349621685526,-44.54015335779817,-43.92097081647303,-45.759231781368435
-10.511208882578794,-13.957781304452586,-2.2640210923807094,-3.3414585396211063,-1.747659334919548,-0.8182885904345215
-10.973641637961139,-17.328101668199874,-4.840841384635071,-3.5881999929612536,-1.144567209890207,-1.0067959833414348
10.168233501342828,10.468096970774793,38.16974828360367,11.888772309110564,24.620259562563295,20.490512314599183
-20.403285126311157,-25.971570012960637,-25.33311602050859,-26.10953649147506,-36.278292672919285,-32.81178994659093
-49.456858160454374,-49.68429133894206,-54.272755090951,-50.160743824683394,-44.71827439408286,-51.74998795027255
-20.84714039728239,-26.21472097740744,-6.644496206305392,-5.779297553676764,-5.227364977644548,-4.611260760634205
-24.131977234958924,-36.20081823459064,-8.763534280661537,-7.707158721290151,-5.969051090081677,-5.521075318673734
0.5892550986682307,-4.78870644434283,15.116906705666706,3.4567596054826937,16.74936453728218,9.29614265577864
-5.729924365300206,-11.371842432489144,-29.570006053178503,-15.483683051089223,-32.16678545831139,-31.685489450504644
-32.84426408852053,-39.898511829678384,-63.656947273400334,-56.120164495875756,-60.96046835571893,-60.14656755153768
0.0,0.0,0.0,0.0,0.0,0.0
0.0,0.0,0.0,0.0,0.0,0.0
0.0,0.0,0.0,0.0,0.0,0.0
0.0,0.0,0.0,0.0,0.0,0.0
0.0,0.0,0.0,0.0,0.0,0.0
-21.511372192191736,-20.6516953488337,-19.393640177880997,-15.053091188555827,-16.761049451379332,-21.937375758723363
-32.06825914306873,-38.41460101087467,-27.436870994741167,-20.931089306064614,-20.73410900137403,-25.54728036194883
-5.2505967443725154,-11.926690224367592,-1.7407953310397162,-2.4974495459158588,-1.5080893110887326,-2.7163191267895197
3.7164308410015106,2.2970195935253495,1.8150375040290263,-0.49272487061666587,-2.8430026035567786,-3.643797310385633
-9.854393895368611,-7.636932916113261,-23.88891621076268,-18.942766709807973,-27.71446721012526,-25.345799540652642
-20.3016387785912,-23.657689464046246,-24.273358027809532,-21.86036481176622,-20.71432884852593,-21.865781469038872
-33.712075769070644,-38.04160379252286,-38.59879638971505,-33.43685252422913,-33.596227621806186,-31.73112129325418
-4.935551302559781,-8.373847226527973,-9.414132753741768,-7.201136820386636,-8.031310363720028,-7.974201665849179
3.89347541491719,3.343147603954831,5.001388547090992,2.126610828737363,2.3523883779308323,1.9383519639281166
-3.928080406180507,-1.916129098513774,-3.054757710853052,-1.9081019915581352,-3.6540040950133834,-1.761296792456981
-11.417460268687789,-11.054422024704442,-15.149814320797702,-20.05692698373356,-15.637857533487962,-15.461182175507782
-17.574022573460358,-15.05154431823528,-18.299269034968,-22.36674213856262,-24.88010540482385,-19.723421683628008
-5.91814893954897,-3.3251656992465017,-0.4498779538627835,-2.948121174389717,-4.065319764641524,-4.853182970665474
0.24877071290080893,0.1752023266765607,0.37285453865597706,0.17927705303478295,1.8199392457339754,0.9279466334283951
-10.183593846455324,-5.726866910611173,-3.285223931613514,-3.1698201909015182,-0.8172239863730052,-0.03413304782412563
-10.413954375775107,-10.00081168977769,-19.07289287577807,-25.36018056395865,-25.83476221485106,-49.42769751927517
-12.97968655697059,-11.045136691981893,-23.05898422261409,-27.683234554237274,-40.30766585106511,-58.21855027574302
32.44664723749402,23.556058493311664,4.881627000613364,14.568583506308233,1.1944972604916244,-0.37559546163774366
-36.21211110833115,-32.06542715558008,-25.635493662272932,-34.45402213470843,-35.06496441109596,-33.55620814018564
-54.248019979505926,-53.24529048528647,-48.17513943586388,-49.35147883531969,-56.98732478681382,-50.46339131102879
-9.848141283278093,-10.967554053098544,-13.18278642076767,-14.858867316832914,-17.577785127886997,-37.36271891781527
-12.697928005988492,-12.918416273049736,-19.498627127301113,-22.16560006615354,-25.1770705730635,-43.866425825404505
66.9121564817286,58.97694477449926,55.96470920327487,46.2529989263554,36.79516423583417,36.452720225490324
-56.07355236032479,-50.73304430474607,-36.66085852521168,-65.3874170483603,-56.8536144567506,-55.334888476161424
-60.27141920954723,-64.00402423470909,-89.01375336138868,-58.99953806244923,-64.72354039256047,-65.63055333044856
-12.481900459742208,-16.632306683350986,-6.76326192874056,-3.942863191489907,-2.5807762601718722,-0.8674886447421452
-15.898612285458718,-19.78509053818299,-9.294265371202316,-6.537186506202554,-2.4325178567831283,-3.082938064160481
7.454422395314678,10.446471705351085,33.507881294148966,11.325097902376397,20.056900846532795,18.402569716812494
-25.61283169252876,-29.010996957823323,-36.49850507840907,-34.81450363687861,-49.4197606913769,-39.69032523769829
-51.43397517183925,-52.902590145365885,-60.00150990066685,-52.837027353797694,-46.833287326432675,-53.57787002599437
-22.03269249788975,-24.07259127464315,-13.059153478894906,-10.69779804225955,-7.316907908264121,-7.760021668404045
-27.33186117134083,-35.65920800321575,-14.90823100458881,-12.233343608401638,-7.3430565758177275,-7.936462643105247
4.45314784491392,-3.243060988437808,13.433011911867785,3.8764067080301383,11.512825386829622,10.944072993067213
-3.9286499096963405,-13.653672740992024,-36.99616318418364,-16.93074644674672,-41.37485452165069,-39.40369681648156
-31.686073320658647,-42.770439970711806,-64.22674275853319,-55.36686841354149,-62.48527306602504,-62.62810785708643
0.0,0.0,0.0,0.0,0.0,0.0
0.0,0.0,0.0,0.0,0.0,0.0
0.0,0.0,0.0,0.0,0.0,0.0
0.0,0.0,0.0,0.0,0.0,0.0
0.0,0.0,0.0,0.0,0.0,0.0
0.0,0.0,0.0,0.0,0.0,0.0
0.0,0.0,0.0,0.0,0.0,0.0
0.0,0.0,0.0,0.0,0.0,0.0
0.0,0.0,0.0,0.0,0.0,0.0
0.0,0.0,0.0,0.0,0.0,0.0
-11.034138562311636,-13.452096304989118,-16.641573339511357,-17.684760524887963,-13.246078674189503,-14.847138509250435
-20.833304208077895,-25.74399356016294,-30.0194082196846,-26.024304303986288,-22.27841283997389,-23.42645118635201
-5.578156371128703,-6.334433797905403,-11.952080313211814,-7.362066186077463,-7.725916338387275,-7.448413173604638
2.225331033521227,2.476970570824894,3.4161964471471906,1.5792646004083901,2.037720606319297,1.517039657232658
-1.3612864362587704,-0.7037486379285656,-0.9475239561853556,-0.5938244334251324,-1.258614981794151,-0.735176536147117
0.0,0.0,0.0,0.0,0.0,0.0
0.0,0.0,0.0,0.0,0.0,0.0
0.0,0.0,0.0,0.0,0.0,0.0
0.0,0.0,0.0,0.0,0.0,0.0
0.0,0.0,0.0,0.0,0.0,0.0
0.0,0.0,0.0,0.0,0.0,0.0
0.0,0.0,0.0,0.0,0.0,0.0
0.0,0.0,0.0,0.0,0.0,0.0
0.0,0.0,0.0,0.0,0.0,0.0
0.0,0.0,0.0,0.0,0.0,0.0
-5.2742168755622805,-6.52547489303018,-6.809597795728749,-7.584087202356179,-8.750422335028622,-14.786738124096015
-6.593596686674715,-6.38485316168669,-10.230043096135176,-10.236603047254167,-10.554134236893516,-12.6116398374006
30.910489782725104,31.770356236820955,22.065920972168367,27.234034674006654,22.268478732015797,23.994995890477746
-9.341770210283114,-9.989696953876916,22.7545034402199,-13.82583920646029,-9.517155703174357,-9.871807177824254
-21.389571409360382,-24.470203124483465,-43.026804580922175,-22.180746685393824,-25.85021347045396,-25.90483373550595
0.0,0.0,0.0,0.0,0.0,0.0
0.0,0.0,0.0,0.0,0.0,0.0
0.0,0.0,0.0,0.0,0.0,0.0
0.0,0.0,0.0,0.0,0.0,0.0
0.0,0.0,0.0,0.0,0.0,0.0
-11.901285159582546,-12.473583268877558,-7.637882646192284,-5.86569990024837,-5.141971066114092,-5.7675206748198296
-13.792277917585613,-15.928342115201435,-7.575079528666038,-6.287092092407749,-5.687826238666252,-5.724408755462879
2.68161653382035,0.7016770789309266,7.336110882290932,3.1670432788272946,7.322792013823653,7.7290371097658
-1.161334979569175,-3.2078700757095078,-10.60999608817707,-5.430708011791977,-14.27558327547748,-14.035359555165385
-10.390854792424532,-14.433921528462873,-21.23498038581383,-17.88484712198132,-21.165180540930987,-21.18976740054836
0.0,0.0,0.0,0.0,0.0,0.0
0.0,0.0,0.0,0.0,0.0,0.0
0.0,0.0,0.0,0.0,0.0,0.0
0.0,0.0,0.0,0.0,0.0,0.0
0.0,0.0,0.0,0.0,0.0,0.0
-28.93538433993732,-29.095851592258686,-30.467624723026542,-24.618382147550836,-30.1746514100471,-34.80462136050259
-44.8077030729439,-48.16012805382456,-44.321716948036986,-38.001725969674126,-32.26476067326574,-40.4511382666182
-17.886419319285594,-15.846949238976112,-10.010615475367496,-12.047321937184613,-5.505123093198229,-6.9400876364249
1.810091394949221,3.620206852762196,0.4783332553949694,0.6696570788723354,0.2778361910241025,-1.0197411659064541
-14.926917271279354,-12.174947896139551,-26.67925383334613,-23.553992494934338,-25.56719057678999,-24.4288761401768
-15.814506787952658,-20.779638102829214,-20.264969788801782,-19.9258446365794,-19.27258314728028,-22.48916706022797
-30.71037667566934,-35.61000339219853,-48.24226635525987,-42.394566697800634,-39.23736961571623,-38.636798432731155
-11.18504902486312,-9.59952235734333,-11.301173589640008,-15.001458475341797,-8.900269701403802,-13.99016136737987
3.515075217426162,3.6835548494475105,7.249569315245926,4.859885609943808,4.008436615296908,3.728888848915312
-0.9327398584014821,-0.9010564492984555,-1.677333252559936,-0.8548861563701676,-0.7387269867176585,-1.12983675109222
-11.968620259112972,-18.123056022771177,-17.44684187016648,-16.813152707818436,-18.565605838680217,-20.50857257248436
-20.07890065239871,-22.417099854486878,-28.512929893523598,-21.852131375806948,-34.38168202662132,-33.091529622055006
-6.330360787800067,-5.8094610835670695,-4.9888749852914405,-8.389344649417328,-12.263141287839304,-14.415122016227684
-0.7011518394546524,1.4549105736536365,4.372087819957212,0.09471171494312047,1.9841215828532492,2.467382277540162
-14.76705045738747,-5.568505943000857,-4.76684003094513,-5.444747212522688,-0.09815847103997499,-0.149462732539078
-8.836375147163102,-12.32901675258894,-17.671528367328303,-22.5720236618611,-28.761591055790614,-45.57566050914798
-12.548431312683668,-12.981750415664726,-24.308831288569937,-26.287708549413026,-44.08616067849614,-41.60889881612735
46.05816278855573,36.545829155302684,9.10268839621546,32.83600616794132,9.103203775379363,10.507773642441991
-37.83199899143742,-28.53595946793075,-35.291604851714155,-25.738020537892076,-23.867085913655163,-25.936496813107325
-44.841518311464725,-46.25080216424315,-43.87780574455311,-44.305051901285744,-47.97992763888565,-46.42721354740633
-3.502811352173503,-4.396435796701662,-6.753998685762443,-8.758315991144421,-7.868235392618782,-18.52260449878989
-4.553005476243961,-3.660707046151308,-8.141472840411193,-9.191764622544326,-9.888799919709198,-15.315726433983421
52.260545932070244,53.28578420924881,92.45813983521771,58.89663562794212,36.4458204913378,34.02124095427674
-43.79581371844062,-40.885784379759784,-44.23803218262598,-43.82314006134537,-40.48529276044024,-40.882927297460085
-33.7443571049087,-32.68311288332243,-39.328868945393076,-30.9124171882318,-35.510766432364804,-35.49592104137794
-15.843577983092207,-18.26180283869324,-13.531297863309888,-12.085844748283199,-6.008647865013583,-4.781949154644733
-11.816628389710353,-17.027663418336672,-10.016814497580253,-12.688827572511839,-2.666859447622411,-2.9942871854960265
18.067256154528682,15.514945127457379,57.105711606984045,23.84470911703819,25.380956172941406,26.66795313258531
-32.15700502139531,-33.64426583968901,-40.015708736098745,-43.02495760475157,-46.49635950342344,-46.61745377017207
-46.996787479260036,-45.72813754826435,-45.69434884589658,-38.75291136279863,-40.34373681925016,-43.36606647149587
-14.399912086340516,-17.14109092073248,-13.197315041478685,-8.481783260058586,-9.85479105816002,-14.82865143234282
-19.276535146991503,-23.612533366025836,-15.10491928236368,-8.720452235058637,-6.440561770341365,-12.3057380237698
4.892297190554247,3.719608600812295,15.414819086960037,9.246008178638135,22.16198414432372,21.36592261254614
-7.8743589095203745,-3.714421303719142,-18.87847525239193,-7.487556816440294,-23.015038446013868,-24.369754608172283
-25.590794235921063,-27.421802858396596,-34.42551766810669,-34.113775251603776,-37.680423612489065,-38.03497679291133
0.0,0.0,0.0,0.0,0.0,0.0
0.0,0.0,0.0,0.0,0.0,0.0
0.0,0.0,0.0,0.0,0.0,0.0
0.0,0.0,0.0,0.0,0.0,0.0
0.0,0.0,0.0,0.0,0.0,0.0
-20.015922892690647,-20.338405420472615,-19.429211931334347,-17.752281445492404,-18.839006256233464,-21.808723431664276
-37.348091526880665,-38.5704398793775,-45.57708964294999,-32.45626037998827,-33.47892233398786,-34.44016725018801
-14.742948554904071,-15.734349704555319,-14.803677964444237,-9.469526257482642,-7.411251301391686,-10.60904667487111
1.1418803088072378,4.106942650026631,3.819143160286942,0.4351409777256442,2.5975615590360333,0.6390686423780945
-15.114661555164666,-12.155876182729418,-26.75631765941526,-23.137617472142825,-25.295338125712387,-23.728078873857392
-14.837233972543423,-17.712965973738076,-17.902906831014217,-21.040194617917734,-19.0636459073643,-19.507087062077378
-32.0632169557851,-32.54115709168306,-43.4455125949839,-46.127339732236706,-47.01368170793972,-40.6688196344534
-11.623768235077993,-13.41641606237616,-10.363942389918778,-17.43391102901298,-18.997958583600496,-20.712487559817344
3.6274755355914996,4.184353183619091,7.801029740843578,4.295160297833472,4.435822352156781,4.768475813759261
-1.6104948770031233,-1.3871087218667177,-2.585878892888618,-1.399845590537424,-1.0296668217956384,-1.5976688664709213
-7.992046685311723,-10.886916888798394,-10.777609735853355,-8.57755012706972,-13.550675767113326,-13.688547207534683
-13.355783141053923,-14.373489652554085,-17.905495576405023,-18.00505618173552,-28.19109907681122,-25.63826652240159
-4.412969547629285,-5.092939240326033,-2.652818925913352,-6.492349051824979,-10.66074632750286,-7.858546222577538
-0.6549129456687576,0.7133309110471147,3.7251983367085324,0.30897702220193685,2.557813196792606,3.2304526201905466
-15.29033674201405,-5.455501665856648,-4.386619250471351,-5.420599186040874,-0.10187388051637251,-0.17946781594639794
-5.716271626145033,-7.1531747160848145,-10.036818714716404,-8.125403074847029,-15.32704664727118,-20.757642301226472
-7.839814793423216,-7.676388985212276,-14.590098471660875,-11.199882445804528,-24.56335037972356,-24.379250179879154
34.23293862531944,29.15048023046276,18.55009801521903,29.156855014207174,17.295271031493005,14.698532654926549
-38.79959132894539,-32.52975849898117,-36.73047765127769,-27.677006577364857,-26.18410109222624,-25.14357540944984
-38.522976250204565,-39.827241728701,-34.288405949669354,-37.25999596116755,-45.311633742260845,-42.62932758917943
-2.619510062238356,-2.6397606072785216,-6.690263303410521,-5.156671269928153,-7.122212760316024,-15.132428534587689
-2.48180072165727,-1.4381763031479289,-6.934408584879559,-5.023499425706644,-8.068822328479882,-14.213718695310446
52.521350676736674,56.61418320080781,115.79303929150521,72.07089034048651,48.36683041289603,44.61790346497531
-60.720872015590516,-61.22812102706461,-68.71733601032696,-60.87773937088094,-63.27451533959907,-60.316716868392156
-43.19981670688708,-41.32498388737731,-43.02515883303392,-40.52746451904979,-42.551529451331916,-43.53517300198362
-8.072025475685122,-10.960973831207447,-6.914557354748251,-2.4015442537032845,-2.0722225189486223,-2.6047367499477856
-7.201261936234965,-11.748059031534384,-6.931179085617869,-3.042759868701253,-1.69130607137045,-2.1088173134267043
14.764330091905096,15.61501384366972,56.80546416705278,26.555062209240624,28.808460377127986,30.342021480726636
-28.994275286315204,-27.577327636133187,-32.811530950772024,-29.205331069860673,-34.013793316816546,-33.46402246379869
-48.43758876292161,-47.09815025378271,-47.00300000333096,-39.19419466405924,-37.764292066071675,-41.3059181942916
-16.80828931012017,-20.41212650215996,-12.475567692046244,-8.848429418077405,-8.09058360634141,-12.822871411668384
-20.738496296976113,-28.527205634134475,-19.50537648008902,-11.270601231495998,-9.929025771378306,-13.093656649506444
7.487870864648903,3.4496626026492834,15.80245274094358,9.12306289295049,29.831557839402166,26.446886411770173
-10.53400277813328,-8.187631014053315,-27.595156375804347,-10.476163579305984,-27.96676509870074,-34.23837743512944
-37.03766232814326,-41.46322912491901,-54.14665228298234,-49.44991392473928,-54.240265070381284,-54.999771686109895
0.0,0.0,0.0,0.0,0.0,0.0
0.0,0.0,0.0,0.0,0.0,0.0
0.0,0.0,0.0,0.0,0.0,0.0
0.0,0.0,0.0,0.0,0.0,0.0
0.0,0.0,0.0,0.0,0.0,0.0
-20.228570625783874,-19.098639359977817,-22.966147105528602,-18.22118557231476,-16.263997166506815,-23.14357734387569
-27.70559104284131,-29.668220008153536,-29.186031119468026,-26.240206255826244,-25.82722162458693,-30.298640478117985
-4.441991342039672,-9.30622192587925,-2.80852207987467,-8.66070809058996,-3.631428047410656,-4.170609714091321
-0.047948471998603116,1.760742875569455,1.167904728442852,-0.9197792564847019,-0.5215371092151112,-2.774493210693575
-14.683081487291826,-11.88899273394925,-26.16046930568523,-21.968684634050597,-24.36645505704204,-25.09658594577846
-10.692420134393245,-16.180022043969878,-12.319985474663714,-17.137383203445946,-15.96646170771851,-14.777107856869584
-18.247610822746235,-22.68850524763436,-18.28068040782716,-23.5570936202788,-30.632226104717304,-25.429874023037797
-2.3283331349932257,-6.669316592790613,-3.869104938755273,-7.919152830715883,-12.253903857324252,-7.06773280261161
1.577256294369615,1.1712515591508876,1.4261702849861124,0.5702927406760475,1.390056859064301,1.5870196139453054
-1.6325414527056552,-1.090091423428887,-2.680789977078312,-1.4004232321537986,-0.9490695431737826,-1.68445103186301
-5.892964110270181,-14.382850370640712,-6.012243673601381,-13.933459268061117,-12.758207730114263,-13.862547208890456
-7.387230708976679,-16.210557848057608,-7.259108485774866,-16.7689517601627,-21.57549576212899,-19.24530522245722
-0.7884701505332915,-2.9966355922676704,-1.9631903528073573,-2.4139507654807923,-7.944126706551632,-3.1347269338023795
-0.10195099220756348,-0.26196911211825563,0.6941093226596206,0.03275390285906833,1.4599493239251184,1.3024971454893075
-15.2045494048424,-4.959289883458213,-4.525632461927455,-5.100836952154499,-0.1275618688514868,-0.1264119094287392
-5.050618152644098,-11.599889542539426,-9.82033894785861,-15.409847611837716,-25.842014788714835,-30.543775079771752
-5.8309730849506405,-12.154554814572126,-12.180078584889099,-17.30140552731365,-36.18340523569483,-38.193600891898576
17.83706751666988,14.499693800083115,14.725632880398598,11.909571880001296,0.3643333064135115,1.8209686295613434
-41.41004931457543,-33.88825922491617,-21.840369755033525,-34.989419833118994,-28.738476631431297,-23.87429628630689
-44.88951643098072,-43.449904998957145,-38.11886441145213,-44.65072049270061,-46.57065130129882,-45.55028295973817
-5.012958612746496,-7.865469826771346,-5.550942106627512,-7.787347266699535,-17.003176122598674,-23.928659331784967
-5.353300560751908,-7.187856667367899,-8.507838376374794,-7.673181426308445,-20.256298031448893,-27.827482722217525
24.724972364454896,26.404292529029693,59.78359260654247,27.706304781738915,14.872471349116564,16.798205054659213
-57.8664807834419,-64.26820573909549,-51.942846359335356,-67.9360147703931,-62.66375076633206,-58.90884557816084
-44.797470076385345,-45.40590408486762,-49.309941971941754,-44.61897247191864,-41.819913299852175,-45.28553047703985
-16.924185780081682,-21.502852877111547,-9.632505204576487,-4.104741902257043,-3.50495358061274,-2.843171013622669
-21.13695529172559,-30.772977654348917,-12.673737717066068,-5.136844333546118,-2.910455383706574,-3.197122897933178
7.687045446904836,1.8853732513874388,26.657024746767807,7.836775220049142,13.23677692045969,11.480711647751187
-23.32158979706247,-30.300681031123922,-38.90085866568208,-32.836384948534786,-39.723730061410336,-40.822568196722266
-52.062755793278214,-54.9103524578119,-52.462168355763495,-47.65368449983869,-45.47700776697627,-48.31610167762487
-26.120266228146214,-31.524474265283565,-22.124010430751273,-12.200098500176153,-10.965662381468695,-17.75254292622226
-33.11319131080145,-46.55270759346199,-26.45848642353312,-14.36437906297277,-14.925138147809747,-18.98643635173379
0.13673525829580074,-11.122419242736756,1.759740259110445,-0.7552999711779792,12.981506837765098,6.150457347419994
-8.368131167100366,-9.788329297779194,-29.356578127383198,-11.07905310165437,-33.4256414492559,-37.56853787997048
-39.10639268967659,-43.83418451519999,-58.10880004049159,-52.43268481952546,-58.75112557686886,-60.625456558884366
0.0,0.0,0.0,0.0,0.0,0.0
0.0,0.0,0.0,0.0,0.0,0.0
0.0,0.0,0.0,0.0,0.0,0.0
0.0,0.0,0.0,0.0,0.0,0.0
0.0,0.0,0.0,0.0,0.0,0.0
-31.410020478811305,-24.2880025769985,-26.38268009951978,-28.614246805146706,-23.356224391340074,-26.263004223985536
-36.37314231803325,-32.825688052135526,-26.41536010592878,-29.14264254585025,-23.989882103691478,-26.361093902619523
-7.586398728339957,-10.273398016093669,-1.7553837124425735,-5.937777219271638,-2.327410129394044,-3.388903539632432
1.1670132949293526,1.2410727023565902,-0.9813109943725546,-0.7128937726719187,-2.583148907110541,-4.989541470458398
-13.388856507437227,-11.484534472605313,-26.495922653737665,-21.84654235632199,-24.91217267548764,-24.638637256176754
-22.124041155456318,-27.698532900892445,-21.202280453561894,-27.220340450415033,-20.541903939148504,-24.10475749733964
-28.652656633450576,-34.27824089760869,-29.069116119587974,-31.98750834938067,-32.322869504606466,-27.044732671641867
-5.356172822877031,-7.307731971999648,-6.9001007055852694,-7.908965510720402,-7.812741870891918,-8.640650748616224
2.2937826838433613,1.7275709336078446,2.705516971206783,1.7200634075644878,1.6510077099179612,1.3005772678225633
-1.4128430666987468,-1.231941232000457,-2.205651957838148,-1.2005526820419237,-0.7296581390951487,-1.539669364261077
-11.591149491108883,-16.88875324333261,-13.562936812751142,-20.747019362296932,-12.020215201932405,-16.475073103485958
-13.924295431691041,-18.609776444047704,-17.12734643161945,-22.657725566884412,-19.625008710121822,-20.748688979295405
0.22810730902955043,-3.093206371425808,-4.7284353212472565,-5.106871037877109,-6.511860489410243,-7.842685793049841
-0.28284888032974526,0.16836371352067708,0.9250563904727833,-0.15185431138993954,0.8686660687101224,0.571196155532877
-14.50863455941657,-4.947146317809233,-4.710127909247365,-4.912658202874704,-0.0979088313368508,-0.15645484462146078
-9.70003109331088,-16.080209275741826,-18.022900934156613,-23.64757970341338,-31.126111056953405,-50.15094971691822
-11.543890262933168,-16.95663849954044,-23.135364492440807,-29.519987297678355,-49.51972372689948,-56.2609510668145
25.234992546664483,18.570989890454094,2.643602901695073,7.984464002388955,-8.017611255824852,-5.476363043164374
-45.03931659179201,-33.24499607343968,-28.098142344232016,-37.638528875517515,-29.722785712277016,-28.089143992398647
-50.07330706755757,-48.90300136033215,-44.56525421036883,-49.6551407354318,-48.860670983448834,-49.031816274868014
-12.151644884049208,-19.26031646372275,-14.046530471519661,-16.36573015226185,-24.175378050387117,-40.34586770479879
-14.266447161058938,-19.757324353878737,-19.87825227378708,-25.824430880153965,-35.8935240576253,-40.39924483219576
37.89046224908738,34.00168036334653,57.13721191499467,23.018770005270216,7.790248263198016,9.164184757135697
-68.32488903339478,-68.37695400519462,-54.96832201601145,-81.22070388959341,-65.77222925423379,-64.19413402597993
-51.90704721660989,-54.84646292687871,-66.94636368541022,-49.462117520229434,-53.94384964193272,-55.807822083931065
-25.16292829997308,-31.213376103128653,-19.179462891816602,-16.36815475800075,-6.2887309417673665,-2.212874268288467
-25.461994574635646,-36.770598236213935,-19.6611497941211,-18.418934334585355,-4.626225185350679,-2.919751050683261
10.175236862741546,3.573615608839545,27.658269494616952,3.268471372604191,8.9946609190421,9.15968443903932
-28.151440207952223,-34.43376804541725,-43.59969664395915,-45.6478593081268,-50.53549936274515,-47.998486621687356
-50.74000478405243,-51.69707910849285,-50.97937202888251,-46.85741015065924,-48.49119149368634,-48.04260277385701
-34.62924598507234,-36.66585018398205,-35.07164781826904,-32.76197685052396,-21.260584145195743,-27.37927655970963
-39.99523725857114,-50.147290078694525,-33.898237826931734,-27.87632156640143,-16.39272722903988,-25.6827872274179
-0.4648881210692669,-4.813052475684091,6.909094973678621,1.0114736213879585,7.702106811173371,5.071511030859109
-10.086875554325477,-9.141957373063773,-33.65468903351724,-14.858697552368774,-42.92955065370576,-42.75517617445309
-39.500705664912076,-42.2667557485018,-57.829547066629566,-53.09833823126223,-63.44836380564174,-62.68209474414989
0.0,0.0,0.0,0.0,0.0,0.0
0.0,0.0,0.0,0.0,0.0,0.0
0.0,0.0,0.0,0.0,0.0,0.0
0.0,0.0,0.0,0.0,0.0,0.0
0.0,0.0,0.0,0.0,0.0,0.0
0.0,0.0,0.0,0.0,0.0,0.0
0.0,0.0,0.0,0.0,0.0,0.0
0.0,0.0,0.0,0.0,0.0,0.0
0.0,0.0,0.0,0.0,0.0,0.0
0.0,0.0,0.0,0.0,0.0,0.0
-14.175957103225306,-16.788046787120045,-15.55744478664846,-15.641365240239152,-14.81188997316607,-17.274182141878146
-18.35867997630583,-21.161271658278476,-21.514220232336836,-22.579154389887588,-21.856652526311716,-20.870660687719624
-7.000576431203678,-4.026070673787781,-4.441228143842639,-7.3793494058386555,-5.249938218721378,-6.368299537049173
1.2655695529442228,1.4050211852720884,2.1237219321322867,1.4006410974188277,1.1070187976868744,1.0613032751014992
-0.4141819781569911,-0.48967100925705787,-0.7154251190054637,-0.49805644178689207,-0.25313728520757184,-0.4449038124325938
0.0,0.0,0.0,0.0,0.0,0.0
0.0,0.0,0.0,0.0,0.0,0.0
0.0,0.0,0.0,0.0,0.0,0.0
0.0,0.0,0.0,0.0,0.0,0.0
0.0,0.0,0.0,0.0,0.0,0.0
0.0,0.0,0.0,0.0,0.0,0.0
0.0,0.0,0.0,0.0,0.0,0.0
0.0,0.0,0.0,0.0,0.0,0.0
0.0,0.0,0.0,0.0,0.0,0.0
0.0,0.0,0.0,0.0,0.0,0.0
-4.836953658635929,-9.267259862800458,-9.293247833365694,-12.731863892404062,-12.682050186856701,-23.257144960356218
-7.013411263407154,-9.686675917857082,-11.238765785418895,-17.222061001332598,-16.844157397089283,-17.90375803845317
23.258813138931018,20.58997121195232,34.174557568537686,16.788194069386645,8.688706285508417,8.52897271361617
-18.748878093604226,-17.844599330655985,-6.250109551853674,-24.695275400168345,-19.346935517932053,-20.363830133791062
-19.072688618734503,-19.96692301626466,-25.397868097497838,-20.464840857222928,-20.360544734500575,-22.721813036817696
0.0,0.0,0.0,0.0,0.0,0.0
0.0,0.0,0.0,0.0,0.0,0.0
0.0,0.0,0.0,0.0,0.0,0.0
0.0,0.0,0.0,0.0,0.0,0.0
0.0,0.0,0.0,0.0,0.0,0.0
-17.06010242764703,-15.859554294484584,-15.91047471922216,-17.00105065291143,-14.172497021962108,-16.58945174528424
-17.2560921059623,-17.51961772192271,-10.81628635476668,-13.045298195458608,-7.231433655884043,-11.596179067500271
0.14309701268418124,1.6089155354287066,6.339501627822776,2.468948548373926,5.317045617978849,6.573882225097351
-3.4950191674820843,-1.6430758275726713,-10.284380898561565,-4.72897182956859,-14.383304535180974,-13.180235454819142
-12.24384220955649,-13.772034367880897,-18.767626310064394,-16.784311874379263,-20.4337791251213,-20.73304447590193
0.0,0.0,0.0,0.0,0.0,0.0
0.0,0.0,0.0,0.0,0.0,0.0
0.0,0.0,0.0,0.0,0.0,0.0
0.0,0.0,0.0,0.0,0.0,0.0
0.0,0.0,0.0,0.0,0.0,0.0
-30.816524385578056,-21.461775741635662,-35.88146809578086,-24.732234838902993,-32.7254074759146,-28.864639984725386
-24.721770996424475,-22.72505965380159,-25.09188687420791,-28.385213547401438,-18.018172843272193,-30.909550614318636
-1.4279255863630715,-4.997353761079277,-3.480041949885555,-5.596001290119024,-3.0890138687151243,-9.005411259437139
17.862703767052242,26.575246832444606,18.396587308789943,21.98540891696242,11.427612201491602,21.672430553415495
-21.38015008022982,-12.229819866275589,-43.485971220939355,-41.329984648871644,-44.543240844309324,-40.41333382043775
-24.838398689945326,-27.402475570189942,-39.360234065616595,-34.56264471826491,-27.40787243474642,-23.923804133630842
-27.07255233629793,-25.14378248364905,-26.520012818997344,-22.839568615989304,-29.789245646907396,-20.43334152318573
-1.4254877085446975,-3.8645412841297375,2.944783604078738,-2.087748529974177,-3.5451728828488593,-4.196434482842223
17.149568994606188,15.557910652954966,17.69172595653277,21.87198435038548,24.248322039725373,20.804243136452996
-6.456362551682145,-7.337129762771073,-5.146462560736854,-3.670792378522594,-3.6808286287910335,-3.4390018640056237
-34.09048958137704,-31.807500665693098,-37.80725218455278,-40.931458722833035,-25.034448692347507,-30.033715150081935
-21.825159244618373,-27.019949846231484,-14.83709827863854,-18.928397852563993,-33.09284056674582,-25.857968403278413
-2.8155910010661858,-4.681234874585931,-2.906141302664234,0.19818332527370153,-6.494186134770248,-3.619556664602715
12.981212141397632,8.589671264798527,17.7713150794404,16.27693931955421,23.338779023302212,15.805618097511033
-46.6589874784857,-37.20073926394271,-13.679405284521726,-22.077520597287705,-3.793357268952865,-9.673652968020445
-27.13259957021192,-32.80743312299156,-29.15715238163196,-31.72152108058478,-38.64500230944145,-38.60558266884862
-14.917511667949798,-23.837486401214584,-17.30757704274593,-23.1744269534312,-24.905712555584632,-22.47434676993874
-1.1566875182593062,-5.111681924396304,-6.414388810024318,-4.8184940630152555,-7.165958000482367,-2.418463198956632
-2.9091907546244062,-0.743033712096624,-0.6286262750418405,5.929974841958079,17.18924363417005,4.377178662473777
-40.157091523537645,-43.533072911989876,-41.51538262292422,-41.25672778854973,-39.09734269265001,-40.45117293942665
-8.306816484204681,-20.87228994734002,-5.759320898549234,-28.658050821361673,-15.465515224634148,-25.816476170218607
-25.2472719669049,-16.327092326328025,-16.13714937107719,-16.610710590692854,-19.424253414515565,-8.466094019683927
-2.1380707975776585,1.019984733857848,7.497884438116766,2.2760701062131883,2.6205501974471774,3.110449912803455
-15.468066725795602,-13.227396208101906,-17.380536220054914,-16.097447718199643,-21.29807875271272,-27.281985349631395
-27.32148652637985,-33.68519868851615,-51.76495577968501,-35.41431503266185,-44.357727443980174,-45.97919481536961
-28.80651412142051,-23.651885487767917,-19.988600421515724,-13.281255962278774,-21.55706974808924,-14.287848399243067
-23.937377918561836,-22.91456442033926,-31.674169054895955,-21.968878092813597,-5.222546881799991,-13.771762428828838
-12.14474430303318,-3.9040142284038937,0.6137429872138017,-4.73791143719762,13.635170693281138,-4.3203824720022155
-2.242981338066557,0.9515809937972362,-13.819059495362426,-7.493049354704981,-29.09186262422523,-19.529918080033905
-41.28964622709739,-41.01484292453063,-40.18741103740828,-39.74418642881553,-50.24208012081382,-41.67960210340116
-27.85012936896079,-19.393373125360107,-22.838036498513507,-17.459164979835776,-24.5038446730164,-20.961496192467944
-25.194459414823143,-21.77663072884144,-17.136557177914643,-20.84956534243198,-10.546585575730301,-18.50944309740896
-1.6451916059124216,-4.909204869993533,-4.378834481963932,-1.1155841808045333,-0.3573629884731034,-7.55058529399312
4.013123238156085,4.769992822950504,-2.0362084509215883,1.377794754658477,-6.4289427138441235,-3.32810533547915
-34.49748539437928,-32.53007938614438,-29.29033109882391,-31.469685193495046,-29.335649939951967,-32.31385261683003
0.0,0.0,0.0,0.0,0.0,0.0
0.0,0.0,0.0,0.0,0.0,0.0
0.0,0.0,0.0,0.0,0.0,0.0
0.0,0.0,0.0,0.0,0.0,0.0
0.0,0.0,0.0,0.0,0.0,0.0
-30.12342372387516,-10.366540591401119,-39.396299502816255,-32.78272075642543,-33.1755051316522,-24.21779148111455
-26.137553995007806,-31.66278072050885,-29.256397501317092,-22.367815544545053,-29.52865462776302,-33.61482898765306
-4.952987839820852,-4.616485845343693,-5.473749610546556,-6.382391375817812,-6.747519883862046,-2.3690611123173744
21.54525170869282,36.10312984525784,22.547127516958902,23.60501145079171,15.410611116449786,18.140126564241267
-20.703733626203245,-13.004327320710017,-43.63276474623466,-41.314914094219475,-43.228721534159504,-40.86625545706029
-35.85916937354298,-29.469792191157403,-36.49274895013851,-29.51533087273467,-37.128560455812035,-24.75481068819398
-22.200268457983576,-30.249626927750512,-23.41739139928612,-27.958775265255422,-21.100638760424353,-25.93278044770314
-3.280191595947106,-9.383131966429975,-10.510491031190051,-4.658403910567569,-4.3601371080533085,-1.43776038833713
19.411832580144523,10.442794967452862,27.318860506459366,26.100965696146115,19.704098222194297,26.984418528461074
-10.042635041656764,-11.860020723709983,-6.82872540189408,-4.291935946964745,-5.973124389353816,-4.71227255238581
-34.71291356348054,-23.9824253341735,-32.05906933394304,-38.73554242325345,-34.81048142526427,-32.174000541034225
-23.163846016932133,-31.883521803485525,-19.301378441122854,-27.196212305334388,-27.8289237317036,-28.959237349697556
-5.139803327648533,-5.243384873915292,-5.756568834269861,-9.100128473578073,-0.42753321321922355,-3.2068616207207987
3.7941746553494244,2.361078942037159,17.248238714990286,12.235817567588686,19.73730761515436,13.8621649487205
-46.17754294424796,-36.369866112820446,-15.159729665630309,-23.092669104054846,-5.388726060191538,-12.081004098314182
-33.46333822022589,-28.863579805704838,-26.81645285589398,-41.478530964734276,-26.408116473397666,-30.265700234526726
-32.6547107104838,-18.17570023571455,-19.238742322333657,-29.65515050572459,-26.417709618223274,-20.16425945740011
-8.75664055553133,-5.3948908007642915,-6.600755049013082,-3.738188882663807,-8.77293462917612,-4.344700633079943
1.660219437363287,-4.301498738626481,-9.521649592264756,1.0092571588462456,15.093876643997987,6.184476038874987
-30.080222877122246,-37.65002530454448,-28.04277707210027,-35.65667710992869,-32.82844995954458,-36.09238455451676
-11.988024418117586,-9.090594205476167,-15.76925553559532,-19.52037983658403,-31.89888044446267,-34.49059623001096
-13.762734868681976,-11.312625896288097,-29.496453070857022,-4.035392319747824,-30.093008299686655,-20.188854253765236
10.264874522139255,11.474067689080366,16.127284747957184,10.889273083838875,2.708877881422424,10.153196613648802
-17.992484568209992,-21.796815775941976,-32.377669060813666,-15.115525210797378,-17.504164802892117,-22.541874068685335
-34.45427610368262,-42.66904831556869,-28.815512077065847,-46.317647145183564,-50.994140025084114,-48.76042121279398
-33.217580901628715,-27.622942295490652,-24.4391463060686,-31.407642190107644,-19.99492338917842,-16.1794324696092
-25.439626978162423,-28.629743925543274,-14.866744280404543,-12.150101165600496,-5.300383832209563,-6.141990979419886
0.19846034587872255,-9.476223680317524,-8.631061008830072,-1.378415691365941,6.494715073199082,-2.1224870049591145
-3.2847150424990454,0.19772308213538106,-14.939469248632347,-7.217417658749384,-16.572094843053232,-3.571118042787846
-38.93974634294494,-40.99123474012612,-30.47024734447473,-35.947880496323435,-47.616273500660604,-38.55099946133637
-23.216210970099723,-17.670732444466047,-27.9349281658883,-32.359087103255156,-25.157598376244596,-23.18667523648418
-28.639931475368076,-32.3345123117726,-30.393227167068467,-20.34871148865579,-18.117275214361502,-16.63059900918011
-7.841450187473853,-8.038498241203227,-2.4417114644828883,-3.1548061042179962,-2.4626965132640906,0.024389076365782525
-0.0039454155886409405,8.444156909922121,0.18768424384365348,-4.645511974767735,-5.976087831002268,0.4086064895831
-49.91741265213066,-46.600555833478225,-41.88103650584895,-44.89987790735627,-44.18679029324442,-47.03791111927326
0.0,0.0,0.0,0.0,0.0,0.0
0.0,0.0,0.0,0.0,0.0,0.0
0.0,0.0,0.0,0.0,0.0,0.0
0.0,0.0,0.0,0.0,0.0,0.0
0.0,0.0,0.0,0.0,0.0,0.0
-23.574736964522415,-10.137741336869983,-21.029939861455137,-28.213020087371746,-18.368370449762025,-24.64112302891313
-33.06860792049245,-33.981894926011584,-33.78005879328127,-29.10213876737096,-26.08155678557165,-26.65415764780639
-19.059325809065452,-25.40248982603893,-18.984420013724254,-20.93128542201773,-11.883719168734377,-14.712898410179594
17.102341798371135,34.35066108301786,14.545203138282554,12.444200860730845,1.96015414930788,10.212835859758895
-20.84542715052501,-11.959982613065563,-43.832111780926965,-39.661047394263726,-43.40137925463504,-41.10548522069626
-25.949376181246425,-27.508195215159606,-19.26230785034889,-25.558416910876083,-27.982891168199714,-34.891274891874986
-33.127012422355435,-22.52224315535483,-28.688212265634583,-30.948837203969813,-28.357772888768054,-17.202824060587247
-17.29625645304258,-15.804064830336031,-9.338040403989435,-14.038367218409155,-4.58073025853604,-12.433015549800567
15.089980812417055,10.28484083041874,15.25943185589712,7.333251442176835,12.457970022364103,13.715829232359317
-9.902561913856301,-10.04226393174607,-6.953918981147187,-4.128841012998623,-6.000071933019773,-4.170280749934477
-34.84957188691206,-21.549330016993007,-23.523136265903045,-38.407734361606686,-33.797843847064264,-24.45129087399839
-30.17912363188934,-26.092710929221276,-23.636640317867528,-30.617777863077606,-25.903931581921608,-24.637584007298376
-13.625191430554057,-17.04070988123221,-19.44979224105594,-9.656560416584147,-10.812960968104063,-10.666265234533535
1.8450403547200158,-1.2374485687162964,0.8170104500174766,-0.5005840408856345,9.23659542661366,7.822340155655495
-48.76191046023582,-36.20472853271192,-14.062375045797337,-22.47530949692693,-5.742580625681837,-11.441037279991976
-27.70325939741427,-19.28286401544418,-31.583167070664352,-32.40488506373018,-20.205490991314,-16.1258591887458
-28.35920193044187,-22.164176847591857,-35.73398001250822,-36.0098083631763,-33.42822384992714,-32.1323725483529
-6.985037727535141,-4.957621090921153,-13.986138657960895,-13.39866925842538,-11.9709434541341,-16.10649080845744
-11.921448874904291,-21.811764537399803,-11.615144504318383,-4.005762183383033,3.607486628002525,3.3207692657532264
-37.53059796990047,-42.018045094466295,-36.70282841396719,-38.42112482816458,-36.8189357983779,-38.846125351798435
-2.5765073347679586,-2.1458191755276386,-3.7631884207052755,-9.9391431400711,-34.95750458971094,-24.529110124453293
-14.235533161559982,5.1917867375969475,-7.1812784607700895,-5.833799325599794,-17.666621087612153,-19.129834140928285
-7.961620075886019,-3.82001162258836,-0.5817215613768562,-1.654905049951388,-5.2029734298983366,-1.590243051835099
-22.295222166330383,-24.593450801767315,-8.847413125706279,-19.35467260778596,-9.469178126457972,-11.730116427303729
-46.26502446237926,-44.84175642104099,-41.56776437597714,-41.56506512160609,-46.44269560423971,-43.22430461239666
-25.33167650432805,-24.88831613829735,-26.11229700804756,-20.944719227231683,-17.82499372805388,-15.859185912912633
-31.789032292248617,-28.410609181871354,-20.16266952562531,-5.241369185059614,-10.652828416678595,-15.866424757434151
-16.791227915286047,-17.26892635518081,-8.3531985299343,-16.380612444046797,2.980281493916326,1.3858542639004356
-17.28730990682798,-11.632646929831484,-24.429331768599294,-13.852443968633887,-8.259854587223726,-3.9778269356211227
-45.48988950184937,-46.75150487304545,-42.04146352187539,-39.95543808730444,-47.757296899544166,-45.51370404253186
-31.60420561950375,-30.996028826985942,-13.642218821126077,-15.720139515556628,-25.768284979159574,-20.021813095770515
-26.697420029214122,-36.65219315355382,-24.86880681065008,-20.016428124685017,-27.310414702135837,-24.091292866066556
-13.626397729503573,-28.391807577646567,-3.6343038070559714,-21.927284825255065,-3.2500607918843225,-8.386584872210017
3.83191466032687,7.852207247276853,-14.463055264611807,-13.518108599797014,-10.698826707075693,-12.871704369594092
-49.685924128748624,-47.290639065599,-47.678467365656736,-48.325783896728566,-46.5378097855051,-46.39096147404755
0.0,0.0,0.0,0.0,0.0,0.0
0.0,0.0,0.0,0.0,0.0,0.0
0.0,0.0,0.0,0.0,0.0,0.0
0.0,0.0,0.0,0.0,0.0,0.0
0.0,0.0,0.0,0.0,0.0,0.0
-25.39332265531033,-21.420133266610193,-18.39145437789912,-20.921276571723762,-23.0800707455329,-23.59763996874411
-29.922801352452076,-33.10991321287982,-33.97758898738569,-28.006094349783,-35.63798330101176,-33.176299858086225
-9.421924841307323,-10.235717129817662,-10.543154525680292,-19.827881586677073,-16.87398628268095,-17.071146370555525
17.49458188992867,32.47755728250612,10.82524355506134,9.126814241581226,3.6499309361800982,3.393601051535679
-20.1795785741584,-11.787400995080125,-43.40192305496078,-39.7719466721874,-43.85496321645631,-39.615892580138464
-22.129918110836318,-28.5137616502028,-22.936030903615293,-23.725213392265648,-24.525068414553928,-21.418031249457062
-30.279581726711,-38.026227851235106,-37.90848056876558,-29.623760157134278,-26.48477087013805,-30.231542151781102
-6.729395910148244,-4.377275310090528,-8.649332632739661,-19.054722086022842,-17.95488129385907,-23.951422717272028
19.099605349267325,13.307249667861992,14.279190706362426,15.671602895196507,15.186177221661685,7.977113201954767
-9.083875938749976,-10.582269284296425,-6.601229185875704,-4.4318043909080425,-5.501453882056038,-4.058412770772676
-19.43921535918775,-22.375464739763498,-18.52695622003391,-31.332567380327458,-2.8707706820928784,-20.213200500252047
-33.56856671627569,-18.44856426160033,-29.152329010899134,-34.213344964003504,-30.668173845477817,-24.962119378508607
-8.981108848957383,-9.14828400554895,-14.479708484227777,-12.152299830881542,-13.064169464395588,-16.091774599261843
10.100850719576734,5.199761081829069,9.973288722323023,4.081521270547176,10.160058039921735,6.394209563602527
-48.45694632825949,-35.97300336310615,-11.920265482864416,-21.575429849458192,-3.9369009931817853,-9.825270400121964
-25.13048232473159,-24.03067443551784,-20.906184557854466,-41.01968525085976,-29.08687611467369,-32.04450703868101
-32.588038924363175,-27.54779535078934,-43.8968371002602,-38.00740759379296,-38.91492520964463,-38.16497495020615
-4.42839073572891,5.340928276667624,-13.679495631208896,-12.674209754495957,-19.861844254259488,-16.3742139846019
-17.87355156321217,-16.142487264270994,-3.0120755124845013,5.663244466732849,5.632862381752836,-6.660349227220156
-50.15703397047107,-50.620916698064796,-47.79305378557416,-42.592409756244365,-41.83710332923613,-42.391199344725955
-26.19585398535366,-29.129511302114402,-11.278958108067275,-14.937424187545373,-3.4230015831141634,-19.402113702417072
-16.276480363196306,-16.38772954738419,-11.887700804533676,-11.972631930061745,-10.791702784093674,-15.865672962708297
4.1535484801328275,0.8053960982270748,1.7391775455977538,8.970888216278029,-1.6322829348786545,-4.040292106861011
-30.760411976198316,-31.888470542556956,-18.954450202937785,-29.731506235314967,-33.54250294676518,-32.8279118010357
-64.28293201410102,-59.307641645717524,-100.59551438367464,-46.764166727981426,-54.10772361659069,-56.993602170910776
-29.30614969456578,-23.154158178137994,-17.095819028901182,-13.842359288186925,-9.557983463642909,-8.747109561038524
-41.38876897390405,-33.04561735943293,-25.56265321262249,-27.202335397948165,-6.4637105425202686,-19.975847826138853
-5.209546138111267,-9.522895946367479,-1.3310240073220432,-10.054095325499652,-4.7020383547227285,-0.37519702757621204
-5.082307826973275,-15.77708666240984,-18.323636817441443,-16.64371509025689,-32.65252547623874,-23.535151295658366
-49.38632634321785,-50.557413181772915,-54.303872847090986,-46.49487570954294,-48.66003977773321,-47.62363498476426
-39.75137073190605,-36.27231133776183,-28.407937263401838,-13.017305860731678,-19.203498653422308,-16.922548572383914
-30.075135352549932,-36.83461663705639,-36.033992348300245,-18.78285994147783,-20.854236175560846,-18.53649518400137
-11.444782094761731,-16.320481038429083,-5.587699922131753,-11.706317890873043,-4.448763377713284,-1.2915497610140705
10.807400092936202,15.468120177430531,-19.60831578567612,-12.801106742542386,-19.728547284160086,-32.189031037273814
-48.37374483111445,-53.913543469780535,-51.70565356815444,-49.34704547252695,-44.583539350459205,-47.17646196270269
0.0,0.0,0.0,0.0,0.0,0.0
0.0,0.0,0.0,0.0,0.0,0.0
0.0,0.0,0.0,0.0,0.0,0.0
0.0,0.0,0.0,0.0,0.0,0.0
0.0,0.0,0.0,0.0,0.0,0.0
0.0,0.0,0.0,0.0,0.0,0.0
0.0,0.0,0.0,0.0,0.0,0.0
0.0,0.0,0.0,0.0,0.0,0.0
0.0,0.0,0.0,0.0,0.0,0.0
0.0,0.0,0.0,0.0,0.0,0.0
-21.394155463448925,-29.925217454499155,-26.798900878424966,-28.578302343501026,-15.902966925038367,-9.682983413273893
-26.253720697571623,-11.43079751766208,-12.480052493532453,-22.762274909540103,-31.441783923988677,-26.06633530703165
-5.560307276768303,-8.55631135176111,-6.322726133991198,-10.60815068755689,-14.529159723015477,-11.123470792336033
12.795813736170622,9.982790213846028,12.391659163179064,9.24749032980158,8.697940068553066,5.385140117640427
-3.0903116624790337,-3.933172467880103,-2.050345567966878,-1.5059854275737843,-1.8624751871345349,-1.7214123844774494
0.0,0.0,0.0,0.0,0.0,0.0
0.0,0.0,0.0,0.0,0.0,0.0
0.0,0.0,0.0,0.0,0.0,0.0
0.0,0.0,0.0,0.0,0.0,0.0
0.0,0.0,0.0,0.0,0.0,0.0
0.0,0.0,0.0,0.0,0.0,0.0
0.0,0.0,0.0,0.0,0.0,0.0
0.0,0.0,0.0,0.0,0.0,0.0
0.0,0.0,0.0,0.0,0.0,0.0
0.0,0.0,0.0,0.0,0.0,0.0
-23.177768365678954,-23.472017002747354,-22.145547051284662,-22.309244697667648,-13.831691733125917,-17.26300724046075
-25.47659291088927,-17.40781373771885,-28.171643633699738,-12.68831177257849,-23.60979413485901,-23.489552664420785
0.5993500743595448,6.813365926275766,8.875999516723653,-2.4638716722696206,0.04059176992089991,7.3288312246613385
-15.444100671516969,-11.58721051395356,-15.405622412520678,-7.257278515671711,-7.516782851184498,-0.39952866825835043
-21.26451040984398,-23.379206495833465,-50.092649432671706,-21.45960589542292,-25.95613589211869,-27.591033447626515
0.0,0.0,0.0,0.0,0.0,0.0
0.0,0.0,0.0,0.0,0.0,0.0
0.0,0.0,0.0,0.0,0.0,0.0
0.0,0.0,0.0,0.0,0.0,0.0
0.0,0.0,0.0,0.0,0.0,0.0
-18.616679690232957,-22.813284658434487,-26.80094315154176,-25.617048060902196,-16.91656084452874,-17.5998901939397
-23.232247301530048,-15.416293778754772,-19.24489437908597,-19.55592701574804,-18.515666327683018,-10.278935469220295
-5.036976407556878,-2.0183756713511554,-5.093711494625739,-2.467911410222294,-0.5163361598873507,-7.269644122306249
5.964358682518618,7.048173470047704,2.4687833124031595,-4.274422716447688,-9.92889302537024,-11.134358156685431
-15.802915632881465,-18.185312893598947,-16.810809104581903,-17.017279232877094,-15.608851359218125,-16.882108577661935
0.0,0.0,0.0,0.0,0.0,0.0
0.0,0.0,0.0,0.0,0.0,0.0
0.0,0.0,0.0,0.0,0.0,0.0
0.0,0.0,0.0,0.0,0.0,0.0
0.0,0.0,0.0,0.0,0.0,0.0
-34.46297811154024,-28.412164073720795,-37.69597787925742,-27.87140050341224,-33.52490368619441,-35.96072464959044
-25.9537906933517,-28.584693898959085,-21.1929153809408,-20.11721375908378,-23.450119067471306,-28.796861049091437
-3.9554027392746884,-2.1683689644602144,-0.8078166693086943,-0.9226487780154288,-3.4164708378150808,-7.436489202852144
11.14574793923765,20.939171361201556,14.855285942825516,15.24676269274509,3.587030886182434,17.506671086672057
-22.72285822295671,-24.81366511574706,-47.48092922000313,-49.29851276851742,-45.06562210913089,-44.573632781905445
-20.292151099377552,-29.53719826386929,-28.068305057291855,-28.875375656222516,-28.45151284897622,-22.518469963732695
-20.501719143870258,-17.494940312516402,-13.933448403645835,-20.348752089028316,-16.98951601084557,-27.223174690166427
-5.56189266765789,-1.9367718267973557,0.09286528388314873,-0.278444020112546,-9.166252889327591,-3.463351595101244
16.124591838786046,15.67528394336515,20.18688682047315,21.110520567625912,17.822556652752034,18.028482640257778
-5.839285267193551,-2.773547614002755,-6.920321656104685,-2.807795503700824,-1.8174377808334745,-2.1817361229931533
-29.850450031709176,-26.53483110551731,-27.162016592319432,-31.133371495371527,-23.60329134537652,-31.472428060578526
-18.39015801476891,-20.005650474362177,-18.118265645343577,-19.480829396401028,-29.965766086269884,-25.78910236061296
-0.6764754283690437,-6.7554377930380305,2.687430728987174,-4.509659573741193,-7.9012147745346315,-11.02226766983541
13.427234895943172,9.496794249731211,16.503329004848926,10.854952207121183,17.28758175345602,16.104197983412416
-46.788153685885405,-15.343395845251798,-12.26096422470364,-11.021246617978324,-6.88856223547209,-8.590184588693175
-25.023696887077826,-27.695660614164666,-24.605136648682606,-36.487464851433835,-33.028181703319284,-29.583182195453258
-21.259223546197664,-23.1780252350913,-27.281864317761908,-30.587446294206938,-33.1934774785021,-32.74709757294979
-6.89542194244118,1.8199937306695622,-11.816133379108926,-3.9494795933451723,-4.764162818883156,-6.585936528981837
-1.5129470363112898,-2.793485277302991,2.8361562889086187,3.631058171623957,15.25633881652122,2.5524836705910983
-41.780306342775326,-44.061131272700855,-41.119862799609066,-37.05466107721194,-44.19053699960585,-41.10156215236699
-16.082889870364507,-29.397871186172427,-14.8024353067984,-19.533962779005453,-22.45398675172255,-29.034832728091107
-19.857080957629694,-22.22106220854371,-18.47996844524363,-16.440499938386257,-14.654799988533286,-16.10914425474808
4.104650855009748,3.5747621756627006,6.6149632939509715,4.332619060727477,4.539659713809859,0.8184641920479848
-12.738958265271979,-16.728545238388563,-17.85968290469928,-15.364220625005597,-23.760240131951395,-10.295573431153896
-31.630278423540087,-35.04805295860896,-35.98555262550642,-35.5902802796407,-39.20690485790812,-39.05852446396734
-31.317346630075562,-21.29592338672583,-27.316426367480062,-24.029899933156837,-20.798334266934408,-13.935043941572783
-23.7961873239238,-32.143342044934,-25.622702568480154,-30.60812401658563,-7.348974000278401,-11.077470312475207
-2.0884810140492602,3.33961054489125,-1.618383273180594,-1.99608097668853,13.804558433316394,3.874251380707908
-5.147518580083243,-4.779432982186297,-4.9062766823763315,-8.817881386548459,-21.95643232707492,-14.963960782188378
-38.482306448985604,-38.73910192879633,-43.192249693638104,-37.164238007919714,-41.032952306778604,-44.40793454403223
-39.0675509484659,-34.047369177104436,-29.229223267638886,-28.39105031238872,-26.343866265369563,-26.14894814753421
-25.987465844351068,-21.83756511346351,-26.061867278315987,-17.589273143166995,-19.459576567555104,-24.16614732848976
-9.99379210868317,-6.3798517340897,-5.88634288895064,-4.923200568216612,-2.6002225542866477,-1.5178405231406342
2.239666817581848,4.170701200103378,2.9368893745453146,-2.0624226101672396,-6.199107693268387,-6.47660656035259
-35.19435780478264,-33.41109958136059,-24.17897551612459,-30.788768098853705,-26.708861174177702,-29.48295804949491
0.0,0.0,0.0,0.0,0.0,0.0
0.0,0.0,0.0,0.0,0.0,0.0
0.0,0.0,0.0,0.0,0.0,0.0
0.0,0.0,0.0,0.0,0.0,0.0
0.0,0.0,0.0,0.0,0.0,0.0
-20.96596910946315,-2.5230167131203367,-32.079749692263086,-24.910771240639924,-26.67039615205534,-25.49805725340064
-27.031446902593057,-35.81167262670489,-38.6840369276406,-25.876101529636156,-32.392750409042414,-29.898522166756536
-8.837842354811974,-12.306351610213083,-6.789696635274785,-8.972379889440894,-4.333446219532347,-4.30513938685462
19.690451302583302,34.242745902515054,23.106564983260025,19.219925117810266,12.670477944284979,17.98268929482107
-23.74587387853035,-25.946645149021258,-50.20436732641909,-48.72909128643713,-45.528379026430585,-43.59137327873175
-28.84603221894438,-24.230499053629973,-35.23443411311974,-26.893949990379223,-21.489928132355804,-23.116779399538416
-28.281027406815074,-27.344991070493744,-22.433508413408944,-22.95107858674813,-19.679676247977422,-22.687782401559428
-4.939601408923929,-6.622986698959704,-0.1305672697159896,-0.940128883566713,1.8613654679654519,-5.628104594296317
16.588602062283723,12.655230893614496,21.67966173595162,25.109234722484057,29.183339016870608,23.30942076286227
-10.059651555546925,-4.843739753933839,-12.252943528007666,-3.9464183831435533,-2.4142813431714,-3.066321599264639
-26.19174115804566,-22.090547620722084,-36.51670201417331,-32.34166688608043,-23.38724763075878,-24.74983257896836
-20.833702092248643,-21.181850172719965,-18.536999166306376,-20.425694199216363,-11.298218500630911,-34.20503120401704
-4.282204137272557,-6.815983181435817,-2.2431706226673898,-7.219917992024647,-5.041029537027596,-2.7559329632548777
4.608628065469945,6.44385681630301,14.547444959031852,9.898567200567363,21.00239485156886,15.861372857570572
-46.53018391357998,-15.513036340385414,-11.966086729973629,-11.871247363288179,-6.04390886957388,-8.898177027587034
-20.40949937326099,-27.97871469247582,-20.72450849822514,-27.400190864563626,-31.660655711944653,-37.184348979061674
-17.818946283985486,-23.196032931200282,-23.564303901657574,-26.87594621852609,-20.627309445403878,-19.019763910475312
-6.006570806425653,-5.602496432380109,-11.690341765476589,-7.98884517984147,-0.7911610009907123,-0.18922169719724768
3.7973508987708917,-3.998936008845022,-4.858282166089876,0.32997250766327213,10.58632376397011,5.052482545910475
-34.15359558508912,-38.62064041283353,-32.97833937440292,-33.32157402102835,-41.003151026533644,-36.76575850577593
-23.02316093592827,-6.94639281672593,-23.24648965546887,-30.747010525461228,-25.88148504201643,-39.14075866506789
-24.722284303417187,-9.66920894154385,-19.22731433065328,-1.7322350173120302,-25.23198954579053,-19.831867369465
10.12658482086927,11.176421463433456,7.060503418870142,21.52710953423322,1.4944026655781955,12.076539272650503
-14.730821976974886,-17.061851756716834,-17.1417812212878,-23.732930727884362,-14.574336122449324,-11.1575111683037
-44.52896337101526,-43.78036733036554,-39.14712160753723,-44.27044007585456,-47.14671627314148,-47.2162136400951
-32.00643513214007,-21.454944871246603,-21.828798017348962,-34.30990887719844,-27.280976012349967,-26.539126085780772
-22.305227054473196,-28.339292127285887,-21.54699154694095,-17.211321487784257,-19.986323655468777,-6.649438618342193
-1.6503486927431557,-3.356542676047374,0.1047284070970427,-5.701045920650484,17.99286024551314,6.545197033968174
-8.494668450155116,-2.998537665819437,-1.8694704007258123,-6.819346938506625,-15.458331326167155,-4.179616964554113
-38.46451955914718,-39.99671513647462,-36.52098183933541,-38.71844735331101,-39.36531324878912,-40.81600609248977
-32.753775290160796,-20.064132001633023,-27.42415380934871,-27.702363725139882,-29.24023685430978,-18.77859808601147
-29.729039900343132,-38.593960054250545,-30.406593304810222,-28.15343176025063,-18.9847938279209,-26.306759814540307
-6.9309204778431015,-0.5706213130506245,-5.530939312028879,-3.2938605522554236,-2.1367057127304285,1.539610464775649
-1.1496953197214284,5.736547704674972,-0.2945217576452137,-1.3941250292981375,-1.214281086341654,-5.499749297551611
-50.496041254436626,-51.029034274071094,-39.4425950129973,-41.14193575308301,-42.693413062740156,-42.61770381855726
0.0,0.0,0.0,0.0,0.0,0.0
0.0,0.0,0.0,0.0,0.0,0.0
0.0,0.0,0.0,0.0,0.0,0.0
0.0,0.0,0.0,0.0,0.0,0.0
0.0,0.0,0.0,0.0,0.0,0.0
-25.485351267004713,-9.335119987572053,-8.770751578357853,-14.700390913992734,-21.478687658681437,-25.61913580383893
-23.45130994454798,-31.530560920362156,-34.08072408656653,-31.659878887235134,-31.82260868753101,-30.24376989732288
-19.68939871063549,-20.240157588777713,-13.741293212367935,-20.91370078795573,-13.708581299229312,-15.76043791479773
14.49086441825365,27.256134752062973,8.17318424546225,8.529687161659755,11.516480943336516,6.303050679002316
-22.682638164194532,-26.13822737178924,-49.248636005693676,-47.130662354476776,-43.62355631533835,-44.42623652764115
-21.87082967091242,-32.97257629608441,-19.84316051713793,-25.60945836783036,-24.110064206776148,-22.417143344461813
-28.719127837228463,-29.282407939155355,-30.24391254743634,-28.4402468722525,-28.23564057594124,-23.162398182222105
-14.28780291240081,-17.254134939137007,-16.195567410858477,-13.398723962362586,-6.439403870146991,-10.390420594660727
12.326777275109826,9.812938940785513,10.654565134173211,10.135378733408647,15.30392787770398,11.92192374929293
-9.79982835806601,-5.128840671285965,-13.359804691842987,-4.061480334878243,-1.8181885647399012,-3.1380570725834103
-25.441091399506902,-23.21614446551367,-19.463254680413048,-37.01696268140003,-21.75376678187263,-22.106178310923738
-29.90917590623715,-24.038442916626543,-28.399193166703665,-26.02129474028639,-29.74648002844813,-27.279507297478435
-22.656063522306454,-10.867493341925817,-18.068786711761017,-18.609645663799586,-11.047764149362024,-12.444533184124387
5.8842722659227755,-2.0572527404616654,5.262564400294917,1.6673414177295076,19.021723334649838,9.804394418655106
-47.884396035714865,-14.04984810104269,-11.753055468254946,-11.1526847134599,-4.81322695604327,-8.815106442379951
-34.83853384243981,-31.952975833568075,-27.094151945033428,-47.91125177380496,-31.277367928862486,-29.257810705535764
-28.809069752168572,-19.14863399507645,-39.983468621521766,-36.06274475355002,-28.541205337151688,-37.57319735185569
-7.858263328590276,-4.690382779666421,-15.069655793897333,-18.727970153159006,-19.928151362784615,-16.88439626844189
-5.4749061728310915,-20.10110184619267,-1.0975672107397463,-3.370749527314209,15.637997058726022,-5.470301735362857
-40.24963486987075,-40.917441805274734,-36.49957137491929,-39.73087135763087,-42.825672339378265,-40.92307736318273
-9.41158683444065,-7.657459648893762,-6.488143736952246,-0.6732079942445045,-17.930960019785775,-31.004505769192928
-6.600347835870325,-3.9336777046070064,-0.9521720083782584,11.728720171264479,-4.484402953722156,-12.783326854959267
-9.918890975678355,-6.803276380875629,-0.7309620660239599,14.039567448291853,-10.296379495747434,-1.6033396632561212
-15.696801596622272,-15.167938990935811,-11.790352181039635,-23.397220318374156,-24.414587115587484,-23.237199561266568
-43.111569857521374,-42.164001748330996,-39.807893921601554,-46.50345428583869,-41.32935153239313,-42.15891209520641
-17.405897486123322,-9.680704842171815,-16.71979231080124,-22.51875825280255,-23.38999674784027,-22.284642493743032
-33.51329684111609,-37.400046428752596,-28.437659691972684,-15.312051538456185,-15.519779564646782,-7.13926886500275
-16.407492658514528,-21.618924872569213,-0.7839528372726949,-11.936302617066232,0.34888858014117075,-5.318564856198096
-16.807784047315156,-8.562217923887735,-18.883210662223654,-27.22885914586575,-13.93914138059237,-7.107304242080369
-42.91680999867133,-46.71090788041765,-43.412345787938015,-44.636494894049534,-45.43799860691554,-45.16952017072217
-37.05178033139611,-17.978735869871414,-30.32463724993433,-14.111919876645562,-17.217770799574534,-30.154807668610207
-25.42299953617531,-41.92195719564929,-28.32315044190635,-32.83911472199728,-21.088411618107664,-17.96390744035615
-13.80293725057769,-26.534384014082416,-11.213284082419806,-18.805828575846828,0.15040959039223242,-5.53108797098225
0.7073287395303025,10.866974399214092,-22.804372754533407,-9.731997647351154,-12.570502955088482,-19.81228467588715
-54.99119571138531,-53.340935579122196,-46.28727125340666,-45.06545968426605,-47.88663482691827,-47.36983501274748
0.0,0.0,0.0,0.0,0.0,0.0
0.0,0.0,0.0,0.0,0.0,0.0
0.0,0.0,0.0,0.0,0.0,0.0
0.0,0.0,0.0,0.0,0.0,0.0
0.0,0.0,0.0,0.0,0.0,0.0
-31.040539434924394,-23.254525935663626,-34.971279650807475,-18.059480553713712,-22.759895112375563,-26.905376430237542
-24.63900607947256,-34.54684198736714,-34.401703068486704,-24.749792000991018,-43.158068710378764,-35.41217837976746
-8.352440896530604,-11.428554615666886,-11.784647963121833,-14.017540015418131,-14.898227002470492,-21.117927068572527
16.189033607292565,24.90945370861858,9.715571429302715,7.652043973770248,4.910274683926426,1.4905650650785085
-20.185115872424166,-24.48157420144306,-48.03626016577184,-47.686890984433184,-43.1499587167546,-43.76327907999417
-27.00569531063022,-18.523029927732853,-14.710065003453018,-31.308332659656877,-19.46859458465412,-13.705106227522114
-27.451518550966036,-36.305711516180565,-24.515690820708965,-31.59340877371915,-33.90443316919787,-24.478909834901884
-2.7434978252241464,-9.625517990160693,-12.580544481548419,-15.16742274134834,-20.3815838795161,-24.393105428278695
16.33497606568595,14.840947030711016,15.474411031823484,10.092618695087747,10.039098504778936,7.534075685916345
-8.474675229894407,-4.55492832102992,-11.29349039994716,-4.079662825516949,-1.4669862633081467,-2.925953812273682
-19.32399653264869,-29.93743859728019,-18.9783908006495,-28.560160606607955,-12.427755743932478,-19.26178334138381
-29.16283655182334,-35.06743858501495,-30.988288193325577,-33.189671090475784,-22.430340629515488,-35.74103706558003
-5.690303570862728,-10.294062911245621,-13.536489433943075,-10.264757989414285,-31.326424492647632,-14.431164919860336
10.612059445139039,0.1200255408777546,8.867335700715795,3.0428044186865764,15.117433194819064,6.499781998316725
-46.08840502385239,-12.938469557456758,-11.801258450871185,-10.422379556647169,-6.330637409023081,-6.8998416081953025
-32.06907793222058,-26.29834921350789,-30.338661708666063,-41.257117568500426,-30.73383059520806,-40.77861285540934
-26.696551099569596,-24.789660774799756,-32.72577390832496,-33.294351372511535,-40.153381682648636,-42.062425336835055
-10.583254725658486,-4.442878599926998,-16.14491982371333,-17.332592007570153,-15.346378961370068,-22.04258243762788
-7.811040263099633,-13.201523030369508,5.437017607493621,4.0846947081440925,15.999223356201608,-6.810588090315323
-46.76562123515415,-43.8023548999646,-41.43663959735649,-42.15861355044832,-43.36133028963908,-42.98662551204386
-24.460369277328237,-20.093454701446177,-19.242799962178918,-5.98091435092475,-12.1609668911425,-16.577837292116058
-9.140560070811809,-22.135745911838196,-14.253353517997851,-4.832782512674124,-12.351854654932179,-14.557501869257024
1.5480852589076213,-0.38438191234941776,10.812077289789531,-13.20935051065192,-3.6997721563282333,-4.63897978286095
-25.009543457297323,-23.30731150618435,-30.408373138067365,-22.440192407814155,-34.01378425665826,-27.16046737413947
-48.52840603815717,-45.75506144853162,-55.635604411838806,-43.62354974664534,-42.40948283796815,-42.5677464477619
-38.5460939750421,-32.46271457696274,-31.387883522611908,-23.105492768162236,-20.001326746295362,-8.996662181114996
-32.77215019965185,-36.11672990477392,-24.027844247335192,-29.61569091762828,-18.526610572018527,-6.572779196579703
-22.039636033419118,-10.500040352525474,-1.7703393558968692,-13.332744200597247,-13.608483191042547,-3.1340433325094477
-16.16929457926132,-15.981674701838253,-22.206298524432754,-30.805776942824366,-23.989828497667794,-45.102217210276905
-41.87890791219719,-41.771145362323935,-49.45560433411527,-45.30791679249621,-50.28152258635087,-45.299272911067796
-36.5235198710519,-38.78933653508648,-36.46858380454514,-29.335367111015923,-35.8610759116761,-20.66072904894493
-36.90348291244989,-39.03511420867815,-36.16698018415858,-14.161572107704107,-25.611174607820814,-20.310866892521823
-13.061639564045587,-12.527885639639782,-9.949759943563093,-16.864526366926672,-3.704061093805241,-17.767119472561017
7.627005099629294,17.135094734757356,-22.364380439942078,-11.939831220963518,-26.757033487171373,-30.125148942690394
-55.66192577434676,-51.30598494867972,-49.19377180072112,-48.05829123763411,-49.91586890234524,-47.330813033803196
0.0,0.0,0.0,0.0,0.0,0.0
0.0,0.0,0.0,0.0,0.0,0.0
0.0,0.0,0.0,0.0,0.0,0.0
0.0,0.0,0.0,0.0,0.0,0.0
0.0,0.0,0.0,0.0,0.0,0.0
0.0,0.0,0.0,0.0,0.0,0.0
0.0,0.0,0.0,0.0,0.0,0.0
0.0,0.0,0.0,0.0,0.0,0.0
0.0,0.0,0.0,0.0,0.0,0.0
0.0,0.0,0.0,0.0,0.0,0.0
-16.424972425675225,-32.484622613175674,-23.64911209143811,-30.195778254396053,-23.426187988860036,-27.156340641672884
-19.236469274194036,-12.391211256799853,-10.74625450558086,-17.044783781508063,-22.36058189920727,-15.35535176234853
2.130282173327198,-6.636672607328555,-8.977879114567,-5.589227805207068,-6.092570047179497,-6.532868574871281
7.391731354117858,7.533083755130701,8.0364129955089,6.741814217619896,5.389016136925831,6.177395851005284
-3.2557338909736506,-1.5190963901779089,-3.78927519704683,-1.5158655100338563,-0.5760132863913845,-0.883320896226213
0.0,0.0,0.0,0.0,0.0,0.0
0.0,0.0,0.0,0.0,0.0,0.0
0.0,0.0,0.0,0.0,0.0,0.0
0.0,0.0,0.0,0.0,0.0,0.0
0.0,0.0,0.0,0.0,0.0,0.0
0.0,0.0,0.0,0.0,0.0,0.0
0.0,0.0,0.0,0.0,0.0,0.0
0.0,0.0,0.0,0.0,0.0,0.0
0.0,0.0,0.0,0.0,0.0,0.0
0.0,0.0,0.0,0.0,0.0,0.0
-18.67465190132658,-21.962344624616556,-22.3756326704805,-20.861095873884288,-18.79658308639376,-19.82695384132991
-24.40909874969947,-24.484362814502024,-17.65903701428372,-5.0297216545828975,-24.814790983846056,-3.24142651017613
0.40390856225639116,-0.1227674258309711,4.084778007422467,-1.4620174966835753,2.192953499952555,1.4638269890663564
-8.409343134079085,-12.042238927462803,-7.275411043563175,-19.918120965146116,-10.305488328046513,-9.862250007317877
-19.77867246384093,-21.173239666505804,-24.64252822216313,-26.479359310177717,-20.05388148049252,-24.154813230998506
0.0,0.0,0.0,0.0,0.0,0.0
0.0,0.0,0.0,0.0,0.0,0.0
0.0,0.0,0.0,0.0,0.0,0.0
0.0,0.0,0.0,0.0,0.0,0.0
0.0,0.0,0.0,0.0,0.0,0.0
-29.639913242313312,-20.071936874536963,-34.76256274448006,-26.604137366897294,-29.623384674830163,-19.96506854226649
-20.14541625886376,-15.673132120826788,-20.009489059843798,-19.067601087488647,-15.393277598044373,-10.350460142891283
-2.9690884107888897,-0.729537274559035,4.574772677664311,-7.0896419893388485,3.1040993841378737,2.5538899855253656
0.6379119464744478,3.327910901797496,-4.715155456664356,-3.2008899549847083,-10.366827217093675,-6.223974790084589
-16.848321516444198,-17.052128747600776,-15.702665563058696,-15.467113374703134,-16.144471660958924,-16.029721513496135
0.0,0.0,0.0,0.0,0.0,0.0
0.0,0.0,0.0,0.0,0.0,0.0
0.0,0.0,0.0,0.0,0.0,0.0
0.0,0.0,0.0,0.0,0.0,0.0
0.0,0.0,0.0,0.0,0.0,0.0
