x1,x2,x3,x4,x5,x6
-7.74507780935513,-9.291136851123433,-10.00202856343197,-7.810213271712101,-5.410123998318061,-6.799710439140603
0.27656874013823535,-3.162261709662545,-3.078370406475507,-3.4571501044069715,-2.1365216939555687,-1.4816114943138168
1.2160682081116478,0.6837555826776847,2.513698689335712,0.30533371492146194,1.0086805088680613,0.4202773423951047
1.0563978440339463,-0.22448938308260158,0.5453872313475476,0.34742743131542975,0.6231969323112422,0.5366266030229123
-16.813105115827874,-16.05696012321193,-16.41390882730722,-17.1617740915106,-16.375372953712848,-15.203490425882634
-11.067788454797011,-13.166513716789343,-10.421094074529446,-11.31596320475794,-13.213300462986574,-13.92982205324453
-5.621608912917886,-5.201584768629902,-7.7543460542019655,-6.384345696981636,-7.80875255003862,-7.398896325166012
-3.058418344145715,-0.5087131112902633,-3.6956481238071146,-3.4619233447468165,-1.529440661452069,-3.1948886296834953
2.4597010351115727,1.6709037248106349,1.7830209043659833,1.5818072610743537,2.324916317400371,1.9024625981273053
-0.050754294140068004,-0.9686000592111865,-0.44091185119062454,-0.08566139713543006,-0.36530868387459636,1.626848992508084
-14.712376905005678,-13.105636747921261,-12.685478579768514,-11.370173495736244,-12.741171182526006,-12.291051168168481
-7.356216513220005,-3.8832370266642346,-5.070185278726453,-5.602392771124761,-5.417748199224727,-6.052596083116599
-4.141905449088801,-2.3011263368709653,-3.767171102801127,-3.092038679030502,-10.345384463305397,-6.0117346517422
-2.459761626291965,-0.3801631171176033,-1.0499977925784991,-0.5599816000522665,-3.216726663796997,-2.389559117235836
0.631459663221969,0.6139644977978057,0.4642152958903625,0.9432530065053814,2.1538625673249143,0.8314118433235805
0.3449651631227035,-1.0533906575030225,-0.49025382630602354,-0.5113193238124674,-0.21188324083792484,1.6746428539846805
-16.400933079311994,-19.68552778295708,-20.292450619622194,-19.372799382215835,-17.616909154415215,-17.055480666715226
-12.591249979603935,-7.628987726624259,-9.898332668245235,-8.195938622649706,-5.928102193595773,-6.579178509986964
-0.38305768177236516,-0.25304362394159857,-0.5291374356126854,-0.44936915864287325,-5.912747344051418,-4.797384138159703
-0.6033635593049469,-0.22939359033547793,-1.0681549756392537,-0.9896093411627184,-1.991644534091918,-1.4120961786125865
-0.7364399832239193,1.6899485601497681,-0.22663269237525174,0.7952348078929026,-0.4455950250082934,-0.4480066054253186
0.11115718501963448,-1.0012306604329395,-2.3126531531119343,-0.8173698356309421,-0.005168711761801976,-0.2482636461798253
-12.562485477025161,-15.16140667653849,-15.151797373176082,-14.883665313596547,-13.107841603635999,-14.963550737883493
-14.335141376328199,-13.162954476156324,-14.727526034186926,-13.206585887879864,-14.124661128603536,-14.213918883549788
0.05583773813173094,-0.30660046683776443,-0.08789726729158402,0.09362194786181688,-0.6952102448947343,-0.31620493085293294
0.10542845962985381,-0.19425764354319025,-0.3740258192118855,-0.7933306197624219,-0.4882961396383448,-0.18510672359472202
-1.2899033466964416,1.740737982136038,1.6840191988884865,1.6620524568683148,0.9375045831096342,1.6556133626707648
2.39272525461542,-2.5029495742867933,-2.8971717960049643,-2.5372750682936736,-2.6965393593948117,-2.0368940528262205
-13.725243648408279,-13.037247479697477,-14.332295690365369,-12.670583295647495,-13.374548027145057,-12.393370915343068
-11.190311737822539,-10.961172798522036,-10.815170662898824,-10.832480307409256,-10.27580195143127,-9.910600808838407
-0.33687117066093064,-1.195315310839005,-0.13559446086481722,-0.2017393209132554,-0.44967549625858333,0.020201812571123242
-0.03153394485514068,-0.5026300886214601,-0.11018430807320131,0.03775286679164932,-0.15949821873182918,-0.24591534756507016
-0.4781676442709242,0.15727002099414308,0.49681514738571725,-0.011327949968068641,1.1369664342602643,1.038162647603897
-2.241992985765978,-0.6882696696525261,-3.3724810532047873,-0.35051654316772113,-1.324674920867223,-1.150746821977149
-12.962043736805898,-13.32999167201498,-13.883557792375518,-12.840906845758488,-15.458065272985825,-14.452490475361042
-13.637892440244835,-12.563813045204194,-13.413328692728042,-13.241393675721259,-11.751726086004584,-12.165000676582187
-2.8295341829694762,-3.659331314280059,-3.1776733947574214,-2.3286159850540256,-0.9840891761114227,-0.7023288217392049
-0.8156492786646362,-1.891140541914121,-1.8788714321909143,-0.368337458234804,-1.1061367480766278,-0.24349230140301412
-0.8316279768051174,-0.6647871798263258,-0.5437488114528904,-0.2860606683391235,0.7318399644015442,0.007225403232922035
-0.9374873302663906,-0.4040345571066044,0.7033750740319838,-0.7256849264302698,-2.2654453271517423,-0.9881464251100042
-14.397174508681045,-12.201132017934686,-11.854049474139636,-11.849832391007952,-11.856903376820618,-11.054900837901073
-10.199671489808406,-10.473722487305324,-12.135609116140053,-10.986056726098889,-10.313515166391369,-9.942698690135815
0.0,0.0,0.0,0.0,0.0,0.0
0.0,0.0,0.0,0.0,0.0,0.0
0.0,0.0,0.0,0.0,0.0,0.0
0.0,0.0,0.0,0.0,0.0,0.0
0.0,0.0,0.0,0.0,0.0,0.0
0.0,0.0,0.0,0.0,0.0,0.0
-10.211406446714712,-10.138108285419118,-10.326847785899195,-6.269415060364096,-5.604275804174048,-6.48636580386302
-4.098822661648225,-3.0038253948779032,-1.5152514665463772,-2.7753232812562736,-1.2157845305951822,-4.011760828435716
1.8713417927859777,2.1173780793277808,2.15810732456327,0.06141746844167397,1.7152785479343373,0.10015272287259172
1.1277884192113015,-0.3583537287911565,1.4449685183766352,0.29035556443841476,0.7644560364336669,1.1230279164612686
-16.463943940980432,-16.25532992993917,-16.3175579342335,-16.60661739155795,-14.13166361480939,-15.624154448852215
-11.508645425768634,-12.906933447082057,-10.558345220497719,-10.943646840360085,-13.273234840906524,-13.906085765895883
-7.10770284122927,-6.691327791925521,-7.5689266365336065,-6.9798160895609165,-8.286862093132,-9.267481185363232
-3.356322804472931,-1.8564620823978841,0.2916802279647918,-2.535180372150995,-1.5923065346599061,-2.3360774200917462
2.9351927232746546,1.8730285228224945,3.0671315176738245,2.2451830608982184,3.5934961550758224,2.1839524087189734
-0.3209641500947619,-1.8039147802264248,-0.30590667016255707,-0.8333882898041762,-0.06759369336038554,2.2080742998479503
-22.094278595691836,-19.72066875840219,-18.50468269074953,-17.88054686995439,-19.150405611048676,-19.988446154565224
-10.922578057539319,-5.710281395284129,-7.395683850277623,-8.2941845951387,-8.120429323860808,-9.064334837286205
-4.083310659998953,-1.3157589019432694,-3.4885536241472384,-4.328429926438663,-6.338737083054742,-6.134932721695991
-1.5962085887448823,-0.5714097445525849,-0.5546361176441255,-1.2499962910856912,-3.8194599051987117,-2.4015309880812876
0.42407074397120975,0.4252700019274941,0.23450814322672256,0.8061113936731339,1.3467665644804072,0.9624489213093943
-0.31444209249273497,-1.075211434461536,-0.13737855969259632,-1.9276346739951655,0.09491979443996171,2.0736193857617544
-17.466847218194676,-20.178920647823183,-19.904828513402613,-20.4165293512842,-19.488045242431117,-18.0916706706964
-12.247189989927495,-7.770332132232454,-9.775926995667797,-7.9134475093697425,-6.114741375763443,-6.604758028502112
-0.9986305583338855,0.11622665265186656,-1.5154179104708216,-1.2278718350667006,-5.200012775505984,-6.090080031890692
-0.8293421611017378,-0.09717891962132993,-1.7634450284442218,-1.2250041102371345,-2.481393692127362,-2.4120240853678907
0.8711887219537758,3.1570709390567244,0.999164043003579,2.5157672775075883,0.6298670110702919,0.5876425778157612
-1.0677754303572495,-4.683437598199505,-2.2112597553765596,-1.7552031068631357,-0.6915209515166361,-1.9366599712871164
-13.153199659066718,-14.5677528512315,-14.231030980389178,-13.805604923681164,-13.265515522333686,-14.161146753493812
-13.646786148643997,-12.664974687927234,-14.005923583196878,-12.95227744925666,-13.0407962047631,-13.285406272877491
-0.24004580892092608,-0.3753804499132984,-0.08638768869172289,0.08546081843436609,-1.0838963818173026,-1.592360623953299
0.14806132134025718,-0.3207590764101388,-0.6942384341429456,-0.7269932751136036,-0.31400748330161343,-0.6472044661003019
1.5058949011770975,3.699562322541238,5.037456561038951,4.23912974619023,2.8937768635111856,3.671166501102622
1.9101795304246625,-4.888452357799341,-3.3479616561610004,-5.410427017845235,-4.210813774537847,-4.634471470008503
-15.153186543253609,-12.858774477628575,-15.811573322185126,-13.456168734054408,-14.240341200737113,-12.482984324903082
-13.871223781757003,-15.031706771977426,-15.20045713698436,-15.68758247733925,-14.30869214485363,-13.67862026892971
-0.7175564332390142,-1.4341100617633131,-0.11114861828027463,-0.174974791664165,-0.05624615932086324,-0.06677397337962379
0.2516616745140296,-0.9499822481542758,-0.03507700029125986,-0.09107915981922399,-0.04933758637068026,-0.061062759028220594
-0.9207726639099829,-0.12896889988806184,0.6781837813868999,0.038259406156567546,0.922819859300233,1.171952622621851
-1.3681103661220602,-0.3932330923678767,-1.0793329934195184,-1.642059168725438,-2.4430413953064116,-0.6317124955271161
-13.125529442549356,-13.259973413839848,-15.257467685696936,-13.010269430547794,-12.524281535820172,-13.121762424364928
-13.361986973960695,-12.19501561753778,-13.338899686999504,-13.115231207331313,-12.263148270104512,-12.237614624255992
-6.239557545144742,-4.959664674081705,-3.54926154628709,-2.0060519290004963,-1.63911248969738,-0.7562197910843275
-1.9222459494962953,-1.9128713899291911,-3.0844733611578063,0.02245322544441068,-0.9341043954341685,-0.3452941871307008
-1.3182845511018135,-1.005137592210089,-1.0515232955639955,-0.7367714373875491,1.0380222601942393,0.05774208271063699
0.21042399893181632,-0.6044900759707513,2.3426957601098684,0.14564072170556602,-3.973600212559535,-1.5356648165847477
-16.46352509614341,-15.929645361528943,-14.095008380604236,-15.436225765561316,-12.984115494160022,-14.221138853056273
-15.454422409450778,-14.523790300715078,-17.876350695271636,-15.985688459114089,-15.263804134386058,-14.210040054472733
0.0,0.0,0.0,0.0,0.0,0.0
0.0,0.0,0.0,0.0,0.0,0.0
0.0,0.0,0.0,0.0,0.0,0.0
0.0,0.0,0.0,0.0,0.0,0.0
0.0,0.0,0.0,0.0,0.0,0.0
0.0,0.0,0.0,0.0,0.0,0.0
-12.729585335043824,-12.603032431492977,-9.084909589654288,-9.016613286568436,-6.19082320405341,-5.50725032486691
-9.23185207796463,-8.15254423195471,-3.3795665965725803,-3.8742781697433517,-2.359824425164935,-2.909707545851679
-0.17854360293841723,1.6488886964182077,0.3145946758824237,0.6689180806796214,0.4900332745466664,-0.5155210690489798
0.9163086429013366,0.10300047961362856,0.127763059525294,-0.0459426727108683,-0.10460067572873473,1.1754654715446078
-16.229992265727542,-15.98321178144666,-16.365396030195623,-16.962671663682848,-15.298769671837542,-16.58834717579652
-11.018169369751545,-13.215423615160718,-10.728006749979368,-10.796136213615819,-13.80108542840227,-14.73484314306084
-6.377851993068448,-6.507673588841342,-6.572863503406296,-7.3808059844683775,-9.710242506331877,-8.81054558889738
-3.9486289039277858,-3.6196196451881515,-1.97944387450078,-2.414163447039311,-4.440504386634097,-3.4998368749979
0.40457287636233275,1.099645691937238,0.7931414302510559,0.8038064071367812,1.6827021490001555,0.3004370111232278
-0.5478716764311642,-1.7041978089168972,0.026616451517010305,-0.29934628548195846,-0.11588237434704024,2.5225381404014167
-20.569009313245374,-16.949550990981614,-17.012447416750902,-16.224528984370085,-16.97900752526831,-19.42919097650724
-10.437486428744439,-5.0684800255057825,-7.4308431204035275,-7.453744037718158,-7.585250652136223,-8.456952932793763
-3.05140970792677,-1.568704093193746,-3.9791186217117644,-3.726470968769865,-7.79954577963335,-4.219013209700748
-1.0642684413706123,-1.3203409738427034,-3.1909473255782297,-1.2987790629193936,-3.360224891490424,-2.1239664855844835
-0.17983834799160536,0.5127108344420758,0.004076768035422859,0.08054198616483282,1.2175911861343387,0.20781468010862744
-0.2935763160124143,-1.2402721771957672,-0.5957585099721616,-1.366685759952998,-0.428653523955271,1.6503388214756067
-18.724622073718145,-19.103640908110627,-19.51439032895694,-20.259401902710163,-17.618789780502052,-16.952126826744824
-12.554054866766661,-7.9296568742988045,-9.584223017234454,-7.965115550517534,-5.938228231098259,-6.150812645787404
-0.5518512116575798,-0.026638669568259436,-1.3471518653430776,-1.5350606626447296,-5.486614315517766,-3.5335857298447584
-0.20281866018914807,-0.4254977936121555,-1.11919165209194,-1.209220617508798,-3.2121373284811137,-2.3376756706637063
0.9792899199216029,2.141877915429918,0.9505504476835209,1.7867685079414546,0.06003712147798673,0.5075840490372355
-1.002112796900451,-4.023912941835876,-1.7139976751764285,-2.1268772150580237,-0.5413664770504742,-0.9046928751837741
-14.150437845581418,-18.09480419392129,-14.054473607327916,-16.44838123554759,-17.936772594967803,-16.5175374582423
-13.127481834931213,-12.311673178312724,-14.151069869799892,-12.789980325005454,-13.73732565261648,-14.097576937090764
0.2299153969268813,-0.35287195153941603,0.09431882583641024,-0.17662110917553683,-0.955554126001397,-1.050528491326671
0.23302717123616817,-1.0087363432771506,-0.10522347147340058,-0.5725948759626421,-0.1658529768497933,-1.321507033481907
2.054845394306562,2.3828135006528477,3.5696395221261437,3.2116152669926232,2.336744817632911,2.7508898011479603
1.0712780378327282,-1.9424774200336268,-3.869161145040085,-4.445527196965793,-2.995731117165872,-4.399111456220387
-15.575240093485702,-16.066860978528116,-13.35655809165639,-12.972056923243077,-14.114189329806424,-13.257879786570566
-11.059344032777432,-13.239573999666232,-15.139668547818182,-14.33117225219061,-13.766083821045568,-13.708512266632594
-0.8139368621727266,-1.4595195905502463,-0.14611732677949796,-0.6605871650927478,-0.1159229583259131,-0.555209179398404
-0.7022594844880355,-1.7633118146942592,0.010127161677623434,-0.9829647707986587,0.0776505381715495,-0.07296756641015878
-0.8418481333773171,-0.4013959179516627,0.871981161423435,0.4852969785070817,1.4180847858465422,1.0402727150579585
-0.3904061855018183,-0.014153917020310844,-2.033534355033108,-1.1279345620060528,-2.9429685554411544,-1.6853526500027183
-13.977443175254649,-13.597770859135066,-14.483934935706163,-13.970779465931484,-14.423188334637796,-15.051948087509047
-13.600792421999659,-13.019673936511321,-13.328309484394438,-13.14425341934786,-12.345341903959232,-12.38079389844672
-6.831263781113173,-7.2507997642121795,-3.330738883748516,-2.5469807061122043,-1.399316282872663,-0.9528542150227666
-5.08430901126312,-5.996954935664515,-1.7623919359940103,-2.0622662052204173,-0.4167445287721836,-0.45108179377276947
-1.7385293926684906,-0.8232166220088859,-0.2434723606995923,-0.2191504535389116,1.0877388357501396,0.26491547404826093
1.8873253306302082,-0.2864412716137697,-0.5834447651263817,-0.13950282583202578,-2.390858731691451,-1.1000515186405786
-13.368636715429261,-13.49174056737865,-14.077564418532194,-14.85830683884237,-12.762923029366883,-12.150220328461895
-15.851936382661428,-15.468205969875967,-18.23301907114473,-16.213273225398552,-15.459344202358695,-14.63128438463628
0.0,0.0,0.0,0.0,0.0,0.0
0.0,0.0,0.0,0.0,0.0,0.0
0.0,0.0,0.0,0.0,0.0,0.0
0.0,0.0,0.0,0.0,0.0,0.0
0.0,0.0,0.0,0.0,0.0,0.0
0.0,0.0,0.0,0.0,0.0,0.0
-11.124750978982524,-11.19967841589841,-8.771511440684552,-9.407161852902835,-5.266356218151141,-5.2297074990482475
-4.286482853055289,-4.931043209521014,-4.07066503451633,-2.633483888292639,-2.0749938867154354,-1.2257647619719256
0.2571960697305307,0.730762741151509,0.6437293009287351,0.6810853699967858,0.23537031709768114,-0.4874008504304163
0.8566099353976181,0.29370799941116427,-0.6401341596621297,-0.007088092855596906,-0.39080040229597685,0.5945066536944038
-16.395912345342076,-15.65650530168121,-15.839373472597131,-17.4626371856501,-16.812097545858123,-15.662818006207477
-10.72523573936695,-13.282854791025802,-10.462694524766246,-11.12111736637295,-13.991017659515935,-14.715410661718686
-10.331712195237449,-7.316238170137102,-9.299677450236885,-9.989461137733558,-10.13363167435651,-10.189812853987327
-3.902701996964579,-2.267070995943947,-4.040237174478682,-1.684587748470154,-5.053911407118646,-2.754137948124674
0.9988581692243663,1.1317781324016822,0.954252239774347,0.8564290252738704,0.8743608487349955,0.3830265177210568
-0.34327901568332597,-1.3300403393976548,-0.8182917096809466,0.20370706859364435,-0.17473269656010187,2.5430628523686765
-19.784368325579475,-16.687661645221315,-16.868729586615796,-15.334421661290913,-16.949721578185155,-17.882148614913465
-10.188244292378743,-5.047586689597006,-7.605922115441234,-7.537698937858584,-7.790012956102785,-8.464064788420892
-2.3944159866927794,-1.8862782801181937,-2.8513512808245216,-2.3364549023227164,-10.160939294976977,-5.604467688460657
-1.1053475953767242,-1.2016116158101562,-2.3601511507040946,-0.43276760645169043,-4.256574010511766,-1.9726340169109806
0.05473784411905668,0.5036863027630224,0.08091563992876959,0.13103102503942513,1.055633907544759,0.24329968013867312
0.1259008068893297,-1.2616330878113533,-0.9402488301322828,-0.26224599164016216,-0.5331212001181432,1.3013866068646571
-18.316432676734284,-18.763434912169565,-19.451274572198177,-19.82869763585742,-15.962691376944134,-15.901420050534353
-12.842555309922773,-7.780881596626311,-9.662538595464934,-8.337983131704563,-5.797550399227537,-6.136932795533816
-0.34868902961703346,0.11415221567390182,-0.4898665769372129,-0.4937575405687406,-5.628438694706197,-3.1115735683138164
-0.8990947135443975,-0.1799903187240923,-0.7888738122181752,-0.6121821459984892,-2.3523024813449767,-2.1705546538453224
-0.5664461725655131,1.0215148961477563,-0.21063607751764388,0.39882163093997275,-0.8074085042879959,-0.274081840697578
0.539747395944674,-1.2254297674637362,-0.1752283679622405,-0.3630805267014147,-0.34523376379413395,0.723096231330389
-12.597242078603594,-15.666706561409839,-13.722955311771,-15.72608799321541,-15.87079547164086,-16.110315153214827
-12.755958249156013,-12.40532600262389,-14.46089543827278,-12.78594195371384,-14.264805599742553,-14.905963886566562
0.132560127780415,0.2566188754920872,-0.08107546225295816,0.13461318364802824,-1.6587223000357474,-0.7955919220113573
-0.14216817719947394,-0.7934137806752295,0.017700771843243455,-0.5880718511527959,-1.4857474642312363,-1.0564086712161556
-1.0282104763912217,1.0394419913029818,1.345144084614016,1.2185632234712727,0.5882567259671693,1.248418834934442
3.0694421641779592,-0.3334341328393629,-0.35458512812274695,-0.9044149852942357,-0.22959917988286843,-1.0976126106886712
-16.731676591979912,-17.454411248144815,-14.803172095719109,-15.93760269010132,-15.881372678382904,-15.311882158214644
-11.427787415347764,-13.291771213055144,-15.469482278731531,-14.56520710123539,-14.494752312300868,-14.385456955841201
-0.3227245078139439,-1.6265301596312336,0.05262465884247173,-0.3261446731150566,-0.30091385390343917,-0.2091303130198725
-0.5951109095661515,-1.9832880263919734,-0.08796430988597202,-0.6348523281443164,-0.18663764845267367,-0.1113199756850694
-0.5185486884071029,-0.03979565774497391,0.6575166155166771,0.3172895965483123,1.4090010268027426,0.9132746097485648
-0.09507379276254053,0.2669949757751374,-1.7764463202431289,-0.7257842131060414,-0.8441162819680924,-0.9609420979843861
-12.584866411635414,-13.555980020221858,-13.105635462967603,-13.7288417876561,-15.6944543336216,-14.647747431667604
-13.580183263632675,-13.108229429493068,-13.436038583242471,-13.620736022921651,-11.69206440411977,-12.248894786909995
-4.610536952387252,-6.417528427651859,-2.654890843765782,-3.4003235905883638,-1.1680937900526795,-0.672550723900861
-2.078094025335537,-4.535396082267431,-1.825187790150852,-1.9318449792739618,-0.5497301657336684,-0.45216801858258837
-1.3248650255567165,-0.8491793090167387,-0.1611914645026252,0.09262922592270162,1.0089087489154054,0.24046019401516808
0.3145783359638512,0.051028672487437116,-1.131357465808321,-0.7886027478965338,-1.2339116336460998,-0.9725530059124141
-16.792641589235007,-15.668781390000934,-15.522486198714148,-16.883575043380727,-15.476501337310514,-14.265969106359002
-16.358704400532144,-16.77540518698647,-18.446202215586766,-17.12345459715476,-15.839118175971103,-15.099666370051427
0.0,0.0,0.0,0.0,0.0,0.0
0.0,0.0,0.0,0.0,0.0,0.0
0.0,0.0,0.0,0.0,0.0,0.0
0.0,0.0,0.0,0.0,0.0,0.0
0.0,0.0,0.0,0.0,0.0,0.0
0.0,0.0,0.0,0.0,0.0,0.0
0.0,0.0,0.0,0.0,0.0,0.0
0.0,0.0,0.0,0.0,0.0,0.0
0.0,0.0,0.0,0.0,0.0,0.0
0.0,0.0,0.0,0.0,0.0,0.0
0.0,0.0,0.0,0.0,0.0,0.0
0.0,0.0,0.0,0.0,0.0,0.0
-4.986784660199277,-3.191033628222184,-6.370697857897469,-5.58691470771412,-4.987822390203356,-6.5670276054126235
-2.5041226748705414,-0.9222197508230239,-3.0365514488633245,-1.715529858189603,-1.7034292528996513,-2.183976429211773
0.5293708087333067,0.42874068295258466,1.044780794073055,0.45141559750329796,0.6951362708808209,0.46094587253842284
0.008408952139741634,-0.40532026467444593,-0.5021350303869089,0.057588415820539786,-0.13920473326216656,0.8486938790932562
-6.888608679241913,-6.040866545796325,-6.1001342701561585,-5.203703098259321,-6.113316434180938,-5.875803086556946
-3.558101640512411,-1.813852250469177,-2.5274308012165116,-2.719895473030149,-2.7413533090866884,-2.898680448776427
0.0,0.0,0.0,0.0,0.0,0.0
0.0,0.0,0.0,0.0,0.0,0.0
0.0,0.0,0.0,0.0,0.0,0.0
0.0,0.0,0.0,0.0,0.0,0.0
0.0,0.0,0.0,0.0,0.0,0.0
0.0,0.0,0.0,0.0,0.0,0.0
0.0,0.0,0.0,0.0,0.0,0.0
0.0,0.0,0.0,0.0,0.0,0.0
0.0,0.0,0.0,0.0,0.0,0.0
0.0,0.0,0.0,0.0,0.0,0.0
0.0,0.0,0.0,0.0,0.0,0.0
0.0,0.0,0.0,0.0,0.0,0.0
0.06719110182759162,-0.016498747919073495,-0.2126696329569033,0.10351183566802893,-0.7729637081015518,-0.860316173178113
0.03952436226996753,-0.43121172520647044,-0.05110224463903693,-0.23811213932169284,-0.5698116835279584,-0.27893746020699284
-0.5700310063722583,0.23491871027299263,0.3435229132611108,0.18251188595387183,0.1592620840698308,0.3557591840746469
0.25138642695275876,-0.7461765607378109,-0.8531186824813239,-0.1033924743634638,-0.31430846694667436,-0.36249002578854606
-7.846424052390958,-7.997688021979799,-9.354643819715022,-6.914159447278019,-7.457725473638816,-7.287207568224956
-5.828024691908284,-5.324251244318456,-5.6775159743187995,-5.332962152443479,-5.6925749540396176,-5.39197803172489
0.0,0.0,0.0,0.0,0.0,0.0
0.0,0.0,0.0,0.0,0.0,0.0
0.0,0.0,0.0,0.0,0.0,0.0
0.0,0.0,0.0,0.0,0.0,0.0
0.0,0.0,0.0,0.0,0.0,0.0
0.0,0.0,0.0,0.0,0.0,0.0
-2.582644685984247,-2.508726201332864,-1.33834302474299,-1.7905459285368344,-0.554519455309233,-0.1746456233117761
-0.38369890099911413,-1.744296465128155,-1.218201520872012,-0.5660251147319819,-0.5201119069727954,-0.13857063621476728
-0.4466264755771411,-0.2625519613519849,-0.25339122009107157,0.09590218971448568,0.2798446814781118,-0.0370536830650319
-0.013301628438093023,0.0024104953755313056,-0.5599323501895594,-0.5291833083448423,-0.7688614403427303,-0.4036756463253906
-7.25443717611152,-6.196198651122889,-5.910999063494608,-5.672107549916035,-6.5806802961619875,-5.525053813796687
-5.543174091720826,-5.707166908925793,-6.274099314687284,-5.666230707352354,-5.36688480137717,-5.199852818462408
0.0,0.0,0.0,0.0,0.0,0.0
0.0,0.0,0.0,0.0,0.0,0.0
0.0,0.0,0.0,0.0,0.0,0.0
0.0,0.0,0.0,0.0,0.0,0.0
0.0,0.0,0.0,0.0,0.0,0.0
0.0,0.0,0.0,0.0,0.0,0.0
-6.109827496202965,-9.437577485632895,-10.95638937848927,-8.745794036111315,-6.327733706735516,-8.915183772089314
-1.3096241276980456,-2.2431681696564074,-1.7786267989458946,-3.4963247489522793,-2.506216497786562,-3.6462802218464394
1.351559831165375,1.1543194550038103,1.5429699165077424,0.5078730483619144,0.7230367872089765,-0.38233053037058345
0.5324386837891613,0.7484693731681142,2.3972296650685547,1.3635787577402256,-0.8624395198654262,1.0798147211990146
-16.83351400619779,-15.738256994566841,-16.942245515091166,-18.176686131999215,-17.569064786671664,-15.35748064511266
-10.915654674904316,-13.44110263855393,-10.483905571015907,-11.023044617548715,-12.75445078011242,-14.728985898991313
-4.677724443469237,-5.807889512015822,-6.887088242034784,-6.161592388704238,-7.465385884173257,-9.823234003851715
-3.5773084901372596,-3.2709501673186705,-2.3889866251132554,-3.7250449912484314,-2.776397686779491,-5.815053376210809
0.7956705477882788,1.612094905053816,1.5756876444507513,0.5310862761450935,1.0312893960960852,-0.057505322192155955
0.7016318417655721,0.5844461520546113,0.7958818470559007,0.5245007391918529,-0.04245255384602146,2.455401388399273
-12.6955035254609,-13.288482715808215,-12.138988136987265,-12.813761095167635,-12.029227701848548,-11.400429291088724
-10.216321571755966,-6.47612685408593,-8.557171264111236,-6.553879294279186,-5.779510504142364,-6.826784323410273
-4.1914224270148965,-1.9686481055296583,-3.158806888263135,-3.0314656787188023,-6.370028299282209,-7.173981420074123
-2.541495560508522,-0.7764465927022668,-2.228960546446412,-1.0480713852187324,-2.1291519155654846,-2.654122946514738
0.7937232637972272,0.5861865402383353,0.7736643584472286,0.5582519971347533,0.972597090829991,0.4638323835618066
-0.16426223920822602,-1.1804373468005813,-0.0883670821153405,-0.5229742002825112,-0.28501816061929036,3.312529353315306
-15.704607621252327,-18.692854500835914,-18.424318610257565,-19.396838058984635,-18.850977469713854,-16.301120892561407
-14.148768896754234,-8.32944892013344,-11.953084690777791,-9.238662000544968,-8.807975546964377,-9.771128754725087
-1.1828759399159756,-0.05489037014256551,-1.1234442034809033,0.06813058152192811,-4.940356968066513,-5.0066627166408955
-0.9191071827459417,0.22694170054416005,-1.5719046742992868,-0.272061809364118,-1.284142317397916,-2.4248631480031073
0.49890596544353194,1.4131466530953785,0.0917517151805775,0.9437374817184342,-0.8669478073916264,0.5747331978212104
-1.0607030527902075,-1.8718147854041336,-0.8512246546298958,-2.1907880585928488,-0.640133154824049,-0.3684902093352672
-13.18221832086656,-14.30046503927522,-13.183089397929924,-13.919990866137407,-14.601791692423145,-13.96601744389753
-12.985264075365054,-13.16346654840851,-14.058763493286703,-14.424023455510344,-14.288269880068635,-13.817024533036738
0.03829451362020245,-0.28933381413911236,-0.21562399932453527,0.29453234248452836,-0.718831896889685,-0.7694537421629565
0.08661916335698105,-0.20299041162673348,-0.3427299742310187,-0.5894822785462446,-1.017269041397368,-0.553178890951217
0.3082466420383546,1.062167006385934,1.656511041019946,1.6927161748226862,1.6189671213376597,1.7475509568867806
0.5686343203553,-2.0101894727711396,-2.335992138785783,-2.89731119961893,-2.276314037939896,-1.860353039622503
-13.143637212612932,-13.280990864059344,-12.968383224062775,-13.078736910581329,-11.962714450029088,-12.393385035604123
-11.012587806375294,-10.870595528256375,-10.133167106732992,-11.781928096775838,-10.116356484765959,-10.55267351201899
-0.7976025640306015,-1.1745578280360909,-0.6544725894769648,-0.6422809076506645,-0.055501612020895784,-0.4874771366123565
-0.2934688262828124,0.2419190380610354,-0.17378546329295017,-0.8355734865452725,-0.11473545987253628,-0.15040278009186678
-0.3799327610167332,-0.09281719697814149,0.4850374036693079,0.5694668350847519,1.3339749804267402,1.4761297269738776
-2.006155596483534,-0.1038122355253525,0.4050323291786315,-1.2671240937903332,-1.6572795222722707,-1.9872803354165316
-14.379170563851774,-13.706683980810954,-13.274529810421592,-13.994988663559829,-14.905820613920701,-14.086147065011774
-13.13585067100472,-12.965603287027765,-13.912596428354126,-12.734494449799984,-12.362982508318115,-12.572873591164706
-2.5664922994302612,-2.9633803320592556,-4.330833654049785,-1.9614741117966001,-0.2971619482663787,-1.824568518921137
-0.28278451510180075,0.4024366638023816,-2.319343389327982,0.05708270238055664,0.055534332244278596,-0.6621589912646731
0.06075100088156443,0.2007549169053562,-0.18840303126925126,0.11491906265839161,0.6010037506699842,0.5488893558642378
-0.8359550495800832,-0.562207700388888,1.9896766043343228,-0.0929662098508117,-0.8939557958144694,-2.1844960459135314
-13.267907110865758,-11.487098472087109,-12.599959134839086,-12.609975960515424,-11.779743693345585,-12.351286619559422
-10.466999487066891,-10.171276074577873,-10.642232411225892,-10.328563659596277,-10.848580255419762,-10.457842829932664
0.0,0.0,0.0,0.0,0.0,0.0
0.0,0.0,0.0,0.0,0.0,0.0
0.0,0.0,0.0,0.0,0.0,0.0
0.0,0.0,0.0,0.0,0.0,0.0
0.0,0.0,0.0,0.0,0.0,0.0
0.0,0.0,0.0,0.0,0.0,0.0
-9.52776173676567,-8.248166224885534,-11.029195312428035,-9.497949737911465,-6.9940699097103325,-5.824131091429577
-4.441665175549051,-2.7546848695487403,-1.5322465260570453,-4.553055900521098,-5.132906032559394,-2.6966325953892536
1.6085515569776,0.9674425979550945,1.8379631594628936,0.7392584708840525,1.4754607548896994,-0.05291664435423212
0.3058025593272253,0.7627864391047185,1.4034798915122482,0.79185581162388,-0.4071124795687645,1.0652351506315534
-18.453893537397004,-15.906302646055503,-17.070898279956506,-18.305885813663032,-15.639173962247918,-16.316468396675788
-10.64196941129225,-13.528770765290533,-10.585639654308201,-10.775267051818581,-12.930780141177953,-14.561526583885414
-5.53507056622279,-4.689441609727378,-8.28591877873555,-8.703347965911961,-7.901179140486157,-9.433687211288557
-4.298906841284937,-2.616431365369871,-0.5580523937050076,-4.771371820416037,-3.382268236095755,-4.713731513963398
0.4165658378960728,1.0831469737048345,2.4058915828299154,0.8953926625292716,2.108519033636312,0.28742544094212935
0.6402589592377356,0.8355791569533328,1.5560847103259925,0.7118749693765383,-0.10619137304214415,3.7499715628138066
-19.567841197453507,-20.70227361332683,-19.30131596095946,-19.556976441437595,-18.010919743258082,-19.027813363415234
-15.035100664634701,-9.529759602309115,-12.567194259340992,-9.706385592491356,-8.538311905490755,-10.170296830750003
-2.4036020581948234,-1.0538461380014714,-3.6277201914757633,-2.230328223460875,-4.881244134689692,-4.8156675201498045
-1.4389043383985922,-0.5026763699584985,-1.9496251434042853,-0.8675856493985048,-0.15726166943309017,-1.547945896500966
0.45105756474549974,0.3875034186843597,0.6935239936155977,0.4920663236009627,1.531627176959052,0.5361446036575024
-0.253243702107335,-1.2555100955028304,0.10547056507585162,-0.7778235259353962,0.08051537992891229,2.0696729573304635
-15.767448578709784,-19.511794785350123,-17.980505824618604,-19.608315190558873,-18.89915727245594,-18.342598072977715
-13.530433732624639,-8.374982298296674,-11.772378602543894,-8.873266179909693,-8.632578092781001,-9.650212487736145
-0.9683416571651314,-0.23502866680644363,-1.3084740806800448,-0.03637139336707599,-2.7936436518020793,-2.8732391845384178
-1.1230195544092199,-0.5480191521253867,-0.5286775184218951,-0.6747254593299127,0.12990444108664184,-1.8667629364919773
1.6317948001653408,2.725274335567149,1.1203003142571601,1.3263049405699114,0.023598798343651105,1.1501594317768833
-2.414519133747098,-4.4914575060769,-1.6446282994361496,-1.884003144315938,-0.9177418845400223,-1.6498863359682774
-12.782145018653281,-14.842146678000436,-13.144884442865411,-12.625368907821935,-14.678412581865096,-14.075209411862232
-12.784845807891507,-13.003257890765138,-13.501943257270721,-13.550516322076817,-13.754262244964616,-13.052484168832196
0.14527278533969865,-0.1564551706214922,-0.8975143351749468,0.07336855011638858,-0.9845739007900045,-0.5656995169753314
-0.03620222640429397,-0.09243637638521429,-0.5094899872540088,-0.999290916833223,-0.8994335672350332,-0.5632037014138328
2.7050915775208346,3.643207612905563,2.876112495415457,3.3880309408468587,3.085263834474855,3.080588458781716
-2.4993269664871467,-5.179628525130516,-4.7253901278356985,-5.578330246941588,-5.155693864323704,-5.450559702112567
-13.250062918145446,-13.93646994645777,-14.76613911599474,-13.000507612073028,-13.092257315347453,-12.672088250223855
-14.424774159562293,-14.923737065314466,-14.178235274212128,-15.681152416506928,-14.228003566251576,-14.496864479248977
-1.100064291453688,-2.1565720374192443,-0.8411557630555292,-0.3086158490190994,-0.29623375522695244,-0.5995582374111468
0.0946595829610198,-1.1631270472938806,-0.332499426072244,-0.593207105254688,0.01722449427902976,-0.153456522271449
-0.23584468542609907,-0.2754230467186251,0.2092243036581375,0.6058187638497265,1.028452211050971,1.569939468866988
-0.7918970607667246,-0.07669718619832874,-0.12579194381573142,-1.6951798167197134,-1.5313814507824888,-3.238946261081735
-13.827661691985341,-13.967804221874182,-13.046959730712482,-13.155526587519674,-12.691888450858466,-12.99620607337535
-12.926618092398039,-12.672034555326706,-14.079548801590533,-13.28420827863404,-12.71927151861403,-12.613919950986528
-9.12115361594038,-5.988847091059153,-5.335508025890042,-3.1432468016274306,-1.511229313406588,-1.3350530647596341
-3.788472199378866,-1.1635419356300598,-3.2878556413332016,-0.09238880403625589,0.0534479132960934,-0.20208688072052017
0.13341546661046652,0.11969734589709254,-0.7199402259074817,-0.3988316731821871,0.9605750257713266,0.4549300929483664
-0.8991195264401536,-0.3987911962904148,1.9430174544351249,0.20784445316526043,-1.8750305236810707,-2.172327350294476
-16.333132237171238,-15.225608575214393,-14.960441651762709,-16.36115003619325,-13.233144890245907,-14.509452689298994
-15.278567905052382,-15.069159728333608,-15.611231506380562,-14.912689782217614,-15.808390381083555,-14.948580140767984
0.0,0.0,0.0,0.0,0.0,0.0
0.0,0.0,0.0,0.0,0.0,0.0
0.0,0.0,0.0,0.0,0.0,0.0
0.0,0.0,0.0,0.0,0.0,0.0
0.0,0.0,0.0,0.0,0.0,0.0
0.0,0.0,0.0,0.0,0.0,0.0
-7.32041982582188,-8.156369923609393,-6.420684967109643,-7.214293624898285,-4.426455205950331,-4.228019311248369
-4.066213553092933,-5.4955218527564025,-1.112539785913228,-4.178111091768623,-3.3203282646640147,-1.9280988733782607
0.6834056240818204,0.4873946007025477,0.525526559110793,0.15315900342133393,0.6694296015663281,-0.7701837389094716
1.5157926084619298,0.6988235422828618,1.396831892810436,1.3537354359782447,-0.17848824045148898,1.9972681124525307
-17.759938450375337,-16.10155679112236,-16.910355919575853,-17.54086698356669,-17.138114817278964,-16.393776069019083
-10.645956471849003,-13.737167167131792,-10.534964233045534,-10.636837598334674,-13.541133482579644,-15.761173094567917
-4.365776447770624,-2.8874209362422403,-5.835471328652111,-4.772747136279644,-8.670189787514516,-6.888533998703504
-3.8684290032806965,-2.551475118577975,-1.051077313370496,-2.1484998145890146,-6.048967673146743,-3.972570991910783
0.2821131571821933,0.2570528471361345,0.7799596886932109,0.33066656066750755,0.7354244522107041,-1.2344127751448577
0.6784481757154069,0.4198379061253061,1.4319951536649709,1.445895271903277,0.01932558461126733,5.066837110651205
-18.583151035857778,-18.53587508948012,-19.628688396956033,-18.89886642043782,-17.330206814779807,-18.2083628799946
-14.035727567958551,-8.569244426765838,-11.668168576840252,-8.883501520032397,-8.232265093975398,-9.809750806683226
-2.8572514094691517,-1.9870568736734069,-2.6531609996964582,-1.2812977834166877,-8.338764938411616,-3.4086499337525575
-1.2786848199711702,-1.1726967496984166,-1.4890035510271031,-0.7146138712485627,-3.5540734734898654,-1.041730033049969
0.0024750149194311434,0.19619922194480252,0.17496239903745095,0.08976838370718875,1.202176793774654,-0.062386299910196986
-0.12422476440972392,-0.8372812383317659,-0.309599855030806,-0.6085810324802003,0.4275442372788537,2.596824091759238
-15.802270681019175,-20.62055556154409,-18.78639934880343,-19.05990583582108,-16.60831796706556,-18.618709493400797
-14.3554843423789,-9.21424674889173,-12.122334510793193,-9.008666350527168,-8.603717614132371,-9.883976232841084
-0.7925842501707789,-0.2946772768596381,-1.5080611696427806,-0.33339733706192765,-7.356013628334782,-4.475148137173192
-0.2719226307157141,-0.707878462392864,-1.9127266001159031,-0.7598899810040871,-5.294455284194069,-3.004698036832891
1.1261071710529882,1.777767977014787,0.662176519373261,0.9857153384933827,-0.19894467502922542,1.0645408872708892
-1.8660825610246374,-3.4687570485152364,-1.2181498855378166,-1.4970320949218408,0.02365515641993773,-1.7083026045878738
-14.610936921778265,-15.598040619015,-14.160171216557796,-14.381000235022071,-14.407219602861918,-15.255954548324596
-12.749874070130954,-12.899642792234658,-13.672890731116029,-13.430937402883847,-14.256620629603399,-13.647166346060645
0.5459616100027345,0.09567555873906805,-0.9943916843939435,-0.3695758490848699,-1.9146814836957027,-1.2874559633830711
0.3906832528418346,0.01338031787572693,-2.023637181789593,-0.888330549214269,-3.132537453131931,-1.3174627378792407
2.543531629440871,2.704640225345541,2.2297198804815728,2.4808954124043354,2.09838050222229,2.571981841471996
-2.360969731174995,-3.8216297477831698,-3.7868997222787386,-4.575532773924081,-4.415615008293075,-5.663031185825983
-16.8952255300244,-14.387162233741812,-14.152816057204351,-13.262384094518557,-13.551395072185189,-13.557376057479619
-12.471737547810699,-13.249371314292706,-13.058180568257619,-14.115997212184164,-13.444436971736666,-13.672140858571494
-1.5006888849316824,-4.263628032574308,-1.5634180001040827,-0.4638325742168876,-0.3412213738768254,-0.47470723275885973
-0.9590068423493197,-4.325693829738179,-0.9743121236212644,-1.0938967679114273,-0.37106448117575663,0.2725377948706091
-0.19673763313289017,-0.13498414914494433,0.40279316093650447,0.2687786716500374,1.2562004985719106,1.6830198604384892
-0.7933459061329802,-0.007116954003698386,-1.8293343819794796,-1.067569879860788,-1.5969239890869997,-2.5848676657137855
-13.970212515257419,-13.059764437599716,-14.473638323559557,-13.986290611002943,-13.780469228666078,-14.459209395554858
-13.678594571307919,-13.66430231471614,-14.10743968721367,-13.61579177062556,-12.95533025070086,-12.50673049273576
-8.209504338692794,-9.456745498394428,-3.9929059603802486,-3.6676436242442745,-1.7311918231601606,-1.2802841029447942
-5.582539006778316,-7.752082891295884,-2.4342097559702873,-2.4294654100056707,-1.348982729101431,-0.16051931765743535
-0.2271726847153205,0.0008422362611251983,-0.1675091016740704,-0.4117854555407201,0.7867879483274354,0.21623535507936306
0.6156033729699132,-0.47565215159484103,-0.2179431668163144,0.45999395310775126,-1.284175746054154,-0.9410140542825058
-14.357994411805976,-13.960819861312569,-15.706344637822683,-14.34088806358402,-12.91994652876766,-12.234807880890148
-16.458535780409672,-16.05994040728956,-16.408925157366877,-15.493399538057837,-16.278031091663834,-15.789217023584733
0.0,0.0,0.0,0.0,0.0,0.0
0.0,0.0,0.0,0.0,0.0,0.0
0.0,0.0,0.0,0.0,0.0,0.0
0.0,0.0,0.0,0.0,0.0,0.0
0.0,0.0,0.0,0.0,0.0,0.0
0.0,0.0,0.0,0.0,0.0,0.0
-5.631007341540559,-7.829997661943139,-6.756114593934328,-6.458922829503,-3.7754638554709006,-5.619169938649516
-3.255556534595212,-1.6899849701675562,-0.7611599338306745,-2.249396729348618,-1.1526243700877703,-1.1903677733358244
0.4789457555999439,0.8426972480491647,0.09234347118360235,0.20568364385610927,0.7169824979599863,-0.8861266588752917
1.3892461763227302,0.7501881091530282,1.5053352764469112,1.7085958794990947,-0.36893577262702054,1.8921805156871632
-16.018824025882513,-15.827359732597852,-16.817202828121445,-17.455557242861566,-18.330853946187997,-15.743899626392245
-10.694837207767506,-13.36462751651905,-10.37821039155753,-11.062144538778893,-13.391222590703162,-15.80050985496922
-5.162342855317707,-7.122713076657993,-9.342437649120564,-6.470681527127625,-8.5144241636432,-9.174358745872542
-3.1626354804578733,-1.6668309658643965,-1.3704991838326501,-1.6146243049222642,-4.304194334716939,-2.5790105401475896
0.8543801034468135,0.5531212613804867,0.6134853550038367,0.18331665652351145,0.5510819169538956,-1.4126237384027418
0.8524719171415207,0.40694945173703306,0.8942722735283599,1.8587048306753566,0.3339953846849891,4.8736241446249435
-17.889498999274917,-17.66077498756633,-18.079552169465835,-17.671669238938385,-16.90418737056735,-15.226931103983468
-14.138951846163238,-8.583488162339307,-11.280076421781605,-8.63425917538404,-8.270408062926512,-9.658773372973135
-3.431824899350011,-1.888682404293233,-2.8964144898089725,-2.2353157623564717,-7.9333243976501455,-4.876249669915439
-1.191093312234458,-0.6198420716867183,-0.7406903815128897,-0.5958136589769245,-3.95111876804528,-1.6437085759281813
0.381131496975629,0.3669679377552967,0.2344986563627595,0.10540924445497607,0.9446014717003113,-0.19854633366308513
-0.02678122828384242,-0.767892336431314,-0.5671299547012094,-0.4925340667793179,-0.22305801687523513,4.023172951369021
-15.59459522292885,-19.543818137051876,-19.5221673218866,-18.886180300574512,-16.759210607047965,-16.456216085951585
-15.263370062977572,-9.212527218561549,-12.563518493653971,-9.246315227430399,-8.771221251659298,-9.772291087751212
-0.933021579133334,0.21987446266212252,-0.8764873129314831,-0.4537334853492265,-7.9081862451958775,-5.969830683735752
-0.11172782099112186,0.14405148746815616,-1.2610296823610945,-0.7247218594542901,-5.474067495038976,-4.942208326533013
0.08440194843746608,0.7282687205124919,0.055401913832728654,0.7000614539015639,-0.8627259152752971,0.16225663954961012
-0.31052982942817925,-1.3849642961253936,-0.150401631702381,-1.7607653576733924,-0.7695117726462063,-0.15092331240819556
-12.147456985128883,-12.814441583136736,-12.177785854184457,-14.230674288000216,-14.050175746050066,-13.72424079229051
-13.096878037935687,-13.00000909336028,-14.113106254383963,-14.198978606696784,-14.728525662747671,-14.110348550334377
0.03107376935509738,0.2582866024291885,0.29683573566161914,-0.664401549264103,-2.1252446376928176,-2.2158306535707952
0.08587036559397512,0.29550544078709146,-0.6694771015316523,-1.5259059674948068,-2.0565221877016873,-2.817599315890338
0.24674848557142398,0.6351114076222868,1.572531319106748,1.6098327694409562,1.0941854186524544,1.3258658031812791
0.9816596946357176,-0.4673030061082559,-1.7487146075687794,-1.8985646461542647,-2.1074333205734197,-1.8387516037130198
-15.851131793099071,-15.125497107286712,-17.362430826388913,-15.10241695805633,-16.596661926796116,-15.791525019183034
-13.714945239524988,-13.990406659091521,-13.35952194297247,-15.52758445674858,-14.043977892729298,-14.818325530179393
-1.221581419580255,-3.5026020346952964,-0.8071106507877199,-0.10250610653823533,-0.21476785665612133,0.020898489572855214
-1.2237009620857535,-1.4150044676174216,-0.5030748972826735,-1.3568969256636119,-0.16733193454718626,0.1556270173132089
-0.6050147048159368,0.31849798580328026,0.6501229952988433,0.2630225442340688,1.5244053691923638,1.5531460360240827
-1.0190086631845405,-0.845782546423228,-0.66972023100472,-0.39122581701267506,-1.686797341154108,-1.0391586874172007
-14.363019216912903,-12.725547560634345,-12.658064419201628,-13.456573290485016,-15.056139443815553,-14.519570295289359
-13.58883121819036,-13.506372776593253,-13.690751062439587,-13.55955974826971,-12.45327432242609,-12.206370641387643
-4.58560447728712,-7.535392788178049,-2.3692636402070377,-3.9414065116206447,-1.139409517978193,-1.2910686007149832
-2.1996844571636602,-3.0239393410272766,-1.1868097955063421,-2.008118715575699,-0.66915791486948,-0.2291574475611186
-0.5069886529968949,-0.009709474359743505,-0.13969680936846385,0.1985622279943835,0.9777361234193703,0.36153170032798876
0.11750134764069373,-0.7227549269371653,-0.824945207239155,-0.24676472282619663,-1.0277606284958656,-0.858276415227257
-16.74761343615606,-15.074049651184765,-18.901833351583026,-17.49640885160414,-16.52873802160947,-14.447473396536415
-17.161424895939057,-15.695064368706017,-16.659920240521593,-17.182803579909805,-16.937147315153897,-16.526708153877536
0.0,0.0,0.0,0.0,0.0,0.0
0.0,0.0,0.0,0.0,0.0,0.0
0.0,0.0,0.0,0.0,0.0,0.0
0.0,0.0,0.0,0.0,0.0,0.0
0.0,0.0,0.0,0.0,0.0,0.0
0.0,0.0,0.0,0.0,0.0,0.0
0.0,0.0,0.0,0.0,0.0,0.0
0.0,0.0,0.0,0.0,0.0,0.0
0.0,0.0,0.0,0.0,0.0,0.0
0.0,0.0,0.0,0.0,0.0,0.0
0.0,0.0,0.0,0.0,0.0,0.0
0.0,0.0,0.0,0.0,0.0,0.0
-3.173028611605497,-5.447486616077128,-4.28692756162284,-3.802013482971961,-4.383500067637251,-6.778643827749799
-1.5767688895489709,-1.6646318870925767,-0.8099111926449216,-1.2031602878783398,-1.607609125134433,-1.6707816181721462
0.5312507822868102,0.4429417431926897,0.4369995131225176,0.10278406268100419,0.1984220205358019,-0.41684945608370283
0.3026161032904867,0.2214457196754221,0.3317041028011511,0.4860618859965176,-0.01877771753474786,1.3392911207707545
-6.122381420050088,-6.257250976625502,-6.049353980428358,-5.958333913055593,-5.783258905066628,-4.928703687195303
-4.909328001734226,-3.090937767698469,-4.026841587635231,-3.0866506321136598,-2.7802079989541713,-3.3472017630875337
0.0,0.0,0.0,0.0,0.0,0.0
0.0,0.0,0.0,0.0,0.0,0.0
0.0,0.0,0.0,0.0,0.0,0.0
0.0,0.0,0.0,0.0,0.0,0.0
0.0,0.0,0.0,0.0,0.0,0.0
0.0,0.0,0.0,0.0,0.0,0.0
0.0,0.0,0.0,0.0,0.0,0.0
0.0,0.0,0.0,0.0,0.0,0.0
0.0,0.0,0.0,0.0,0.0,0.0
0.0,0.0,0.0,0.0,0.0,0.0
0.0,0.0,0.0,0.0,0.0,0.0
0.0,0.0,0.0,0.0,0.0,0.0
-0.07690251132470784,-0.010815988045804968,0.14966911095540977,-0.18704494254441004,-0.6200356545422906,-0.9023861039644733
0.004013892268375466,-0.002166926041886918,-0.16155936305576565,-0.1524829766525232,-0.4198991003824586,-0.5295678804227599
-0.203705823696048,-0.17677620135884475,0.4092313893839688,0.3840030678122956,0.4169081189346407,0.4348325782440016
0.369828788031908,0.017670903068742635,-1.024734047339739,-0.7674259047251346,-0.6974618204046005,-0.5501461943273459
-7.5696673114529585,-7.026596528520751,-7.36857733311257,-7.714653820115958,-7.159251008762198,-6.966152654324451
-5.835123748654981,-5.480757723067922,-5.098989458953344,-6.146948947082203,-5.150289540132354,-5.521882844816887
0.0,0.0,0.0,0.0,0.0,0.0
0.0,0.0,0.0,0.0,0.0,0.0
0.0,0.0,0.0,0.0,0.0,0.0
0.0,0.0,0.0,0.0,0.0,0.0
0.0,0.0,0.0,0.0,0.0,0.0
0.0,0.0,0.0,0.0,0.0,0.0
-1.9442132984257026,-2.37285817562459,-1.8400152521628614,-1.5703934695675539,-0.20748242652925442,-0.5806530871312898
-0.5865483404819387,-0.3948214809796504,-0.42579884823807823,-0.23402964606777277,-0.35105862840347307,-0.2827184231390693
0.003512222730157926,-0.04462955093488615,-0.0944200019471574,0.07774244891218463,0.28673854564361073,0.19308294594759545
-0.5144349226353857,-0.35637940528247597,-0.02687741606659759,-0.09149405751703402,-0.36272456065131303,-0.5644328887852438
-6.853630168697603,-5.494545964265655,-6.899202301035937,-6.472216972369009,-6.874664160190299,-5.754003533355624
-5.7424500945632255,-5.129363089936034,-5.359673460554694,-5.513308750823254,-5.736534784741402,-5.494002675333589
0.0,0.0,0.0,0.0,0.0,0.0
0.0,0.0,0.0,0.0,0.0,0.0
0.0,0.0,0.0,0.0,0.0,0.0
0.0,0.0,0.0,0.0,0.0,0.0
0.0,0.0,0.0,0.0,0.0,0.0
0.0,0.0,0.0,0.0,0.0,0.0
-12.286283697153934,-13.801606803555007,-10.133242608261316,-10.261654833481376,-11.561445388007138,-10.436331760035367
-0.20199960076569112,-1.6670963983344218,0.7447131609962149,-3.600441622012952,-3.1060137144291535,-3.3894290862044705
0.16738801361571115,5.473330707318708,0.7297455895831201,1.9528238859081986,0.5476917209580533,0.7975643377588253
0.4342292117989105,0.3719520505740003,1.5146897899493004,0.8841602676268607,0.1877921362732474,-0.9696856474124455
-12.867328493992172,-13.21838313624114,-13.242070831884734,-12.481775569884775,-14.382462186973905,-12.550159241062905
-6.416304129793464,-8.988241710519805,-6.452402938551947,-6.784045642911973,-8.982053278051751,-8.85132119119301
-13.121867697400553,-11.333659193752352,-8.736928369358937,-13.935259869482003,-10.181289845278702,-11.535494354811991
-0.21581411254688299,-1.1072748578243445,2.338131478191888,-1.9585212953535405,-5.467150894410534,-5.31282652273999
2.0637300524665503,2.7147704718766286,1.2943002598883733,-0.7682883157323933,2.3549584916040565,2.7751847653050588
0.058949360943980955,-0.06980286341056442,-0.4970033465245272,-0.6361451901859031,-0.5124763410188046,1.0495574159208565
-9.010485900142353,-8.557499566255531,-7.972103796443616,-7.140302093750362,-8.095726381661628,-7.487929183637812
-3.751012176065501,-2.1268080121276833,-2.7726463105108308,-3.0173413003734484,-2.8339810411539674,-3.2383116281880286
-11.732093267486519,-11.170706237286423,-11.351777298061094,-12.631608498513502,-11.755502775579338,-9.355947285714695
-1.5116336558694206,0.18628898295594365,-1.9948203432630078,-2.417423620663451,-1.2703200310865022,-3.257640502301088
1.4576292823223698,-0.3025831769964236,0.31495443925403566,0.18559765989433266,3.1723397167958445,1.6430237544123598
0.17505100887094172,-0.9655590846518024,0.08953064719203416,0.2211026466585397,-0.13023031839222407,1.9940267093184485
-10.24778586546036,-13.458565133628408,-12.85358591591212,-12.69901705108257,-14.228692750468413,-11.319498804145319
-6.5783578846775645,-4.121318329763786,-5.231042450763569,-4.948707683847048,-3.473137096198178,-3.948968097848863
-12.838947708925543,-10.907380235991592,-13.101855124651243,-11.402529514197122,-8.683344957934288,-10.271969659605825
-1.607667433729594,0.0047687548320045035,-3.26910561843889,-0.5842509522433247,-2.4545629823395405,-2.6952944220679718
0.18232464572094925,0.14817280962315885,0.18095701159654254,-0.6497286367233049,0.6200451735651774,0.39773757467878623
-0.5463863406043568,-0.26288105362533815,-0.5029122008971426,-0.3572670271996639,0.5379077517119948,0.7810937990100048
-13.872031804782774,-13.699481993595672,-13.189834254750927,-12.99885519613794,-12.822123473925744,-12.298474493154401
-11.980867470046197,-7.869293983240182,-8.804655507808915,-8.724189384001246,-8.887568493862425,-8.8984025789854
-7.535951196305848,-6.300889487290882,-10.930224158147533,-9.343615227642331,-9.514959999539457,-7.916314461043549
-0.1433515170182757,0.017499491971023372,-1.0394836829177267,-1.2593166328853183,-0.9889308362852246,-0.9957787840869783
-1.480972211244774,0.15226005026945236,0.603021929243382,-0.1618714207517244,0.027177941675612494,-0.13416223496620158
0.23328618134642953,-0.6692498308827599,0.43262076934374677,0.5318565117395372,0.08314844241335896,0.22614347347837485
-12.933339026991606,-14.539983760200661,-14.154460000092866,-13.692756213250341,-15.705585410293827,-14.002122779779596
-10.494504958502946,-9.724471272543678,-9.463308762398519,-8.91640046488928,-9.135727057069328,-9.22327443576894
-10.404432048226063,-12.369611336689061,-12.49723444899027,-5.531519123140892,-6.50520501351222,-8.217402494147
-0.8529469483711111,-0.22039578272974544,-1.23260229283824,-1.2136935123799106,-0.3555900603163435,-1.1540278707942038
0.5264553116471529,0.41828393802689134,0.008799460445395533,0.300810758072601,-0.08083245292121184,0.38701961933448714
-0.6601428511799187,0.03726404881984767,-3.011838834237538,0.7003106455184157,-0.7740680445996999,-1.8333477050224707
-13.188126038178394,-13.751578361090385,-13.326493024538278,-13.144304955824062,-14.752378319208871,-14.144356289017866
-11.694188161784071,-13.732557461400507,-12.028298099717396,-11.751871905184847,-11.98033417478054,-12.314785951381838
-12.601106527995725,-11.040483987064551,-12.000415156424957,-10.669667150518347,-10.532438217935034,-6.485385854349918
-1.5400684275873189,-2.453514238519489,-1.798404603490988,-2.3836087063800795,-3.0745983489647917,-0.9735207775855595
-0.8579330239205654,0.9520857304554378,-0.49883439868823065,-0.4216854184451682,1.1033046096662413,0.3331367509514034
0.7398116696740835,-0.20767258884543208,1.2130197345172302,0.06734873592709624,-1.2848613361255568,-0.21229068105558732
-13.9084540500854,-11.23797300444928,-12.826431463346838,-10.793539539189512,-12.698734630425253,-11.899753226397737
-5.587208972869317,-8.304359029389692,-6.867994704072116,-8.187028120656088,-7.637594338915666,-9.53381883670738
0.0,0.0,0.0,0.0,0.0,0.0
0.0,0.0,0.0,0.0,0.0,0.0
0.0,0.0,0.0,0.0,0.0,0.0
0.0,0.0,0.0,0.0,0.0,0.0
0.0,0.0,0.0,0.0,0.0,0.0
0.0,0.0,0.0,0.0,0.0,0.0
-12.618625175811207,-15.259897674660126,-14.691021674751925,-12.890418080520094,-13.630230189519713,-14.74696938684924
-2.313156182913414,-3.747283596133214,-1.2654190190885655,-2.6176531338890503,-3.4652710082962925,-3.134975218066966
3.0190114134904933,6.273426985906038,2.9025656825169195,3.0217767889355125,1.333973727407872,0.2073807950675597
0.31877111808568426,-0.19353123300693925,1.919634092149027,0.36886136577667394,-0.5097233568464924,-0.6827680536319821
-12.403172836592624,-13.213010208905848,-13.678046073856827,-11.73895746889286,-12.313486038168339,-12.951582470206569
-6.708230027177954,-8.835962969163676,-6.55162835798389,-6.654349948265098,-9.075655558785867,-8.890898608801685
-12.321047971507788,-12.670528275096508,-16.58244107885569,-10.973854064313938,-12.872779091047198,-11.850282296740518
-3.2546002964576304,-1.315977093525182,0.05595118765857218,-2.062362447691924,-0.8739851974780323,-2.573185025559332
2.412248934299168,-0.9625342277265302,1.3292620091248317,0.45737874797637645,1.4257545177546525,3.2516224669581573
-0.24497688956160735,-0.6047707025139527,-0.7736176962926873,-1.6271983128188912,-0.9247681346739348,1.3889539095764738
-13.519708070679897,-12.630782819251117,-11.92783063482884,-11.79396252084573,-12.234728028213443,-12.174069744861004
-5.596324270257055,-3.1116872125769275,-4.052184453589397,-4.578244097271515,-4.259153224023422,-4.874690848972762
-11.540443699383394,-10.165302571053035,-13.931091575459417,-10.394646350877037,-9.46356675107716,-13.621710987141505
-1.7577001824840988,-2.3361078992045483,-1.3002294272237789,-2.199556193936544,-1.9862410851384904,-2.204802977035793
-0.05926735480040343,0.2276205155581996,1.6667818601816926,0.5877147471604416,2.2020445210903175,1.782670308836356
-0.6471879414080725,-0.6697291270143116,0.11650502917625853,-1.0008419411164584,0.06679578356411763,1.3941330419043203
-11.90284325102612,-13.81394638449109,-12.56487351359167,-13.90853936105311,-16.29821339397182,-11.93261244835524
-6.443849737693501,-4.238127024490008,-5.1817696778935165,-4.759435523649238,-3.5961711497300954,-3.937265362191779
-12.463338926664035,-10.417294629039601,-10.605196106128865,-13.261431258937208,-13.744475645240696,-11.398728678435354
-2.6299663640491437,-1.9614825826270144,-2.36131370204596,-2.200183675465095,-1.1981631298599862,-1.0939199755873492
0.8240461680987964,-0.04141457553055743,-0.5843399952849795,0.18034752578218988,0.5393833860701684,0.8509224294369732
0.3740189210361099,-0.7160794457405392,0.555325489917424,0.07263047841844934,0.7580385599742917,0.3934265692092836
-14.737144542338287,-13.673027575632311,-13.085606902236039,-13.44361264715147,-12.281638165195824,-12.578272719942133
-11.588686276407616,-7.5925899035899755,-8.786359234177153,-8.674797331252373,-8.358897866320028,-8.339316559644702
-8.588788082141996,-6.638363297148461,-11.337473714807944,-8.559336431139318,-11.239972796714676,-14.423292076485017
-3.562331425471054,-1.6596791181950874,-1.1437554761381084,-0.9112912776386269,-1.83109257643947,-0.8460788508242449
0.5976030344850845,0.8324042631458415,0.20153398761440308,0.2490339378032003,0.30379955341140946,0.3691013217233168
0.23109963659169253,-2.37726175232684,-0.9629267373347515,-0.3572071225678631,-0.22830104414911384,-1.65538657133935
-14.944065998366503,-13.630678127241618,-14.095656439970934,-14.284904929661177,-13.539528760711487,-16.002240466862723
-13.935046833120987,-13.55433750350602,-13.908070640760425,-12.809486292585685,-13.377483519346365,-12.961980718755006
-11.711942933569405,-14.167772521756792,-11.606621136480742,-11.408328756483717,-7.148018863134441,-4.86763580407343
-3.2062903854880487,-4.215315013770358,-1.5846253274879436,-0.964117017027868,-0.3216839183511815,-0.9025045984466402
0.4247299820342914,0.1308940017951954,0.5153358114159852,0.4387507245082296,0.31298551075238645,-0.2058439967922024
0.06847480432563816,-0.36712648081321836,0.2099571904642674,-0.2076712154748996,0.05175688767068111,-0.8231152901921447
-14.714368597781105,-13.941580014553358,-14.020837912334105,-12.63672923265246,-11.949705487445499,-12.43980463742619
-11.515159399470212,-13.041033883820695,-12.14130609603964,-11.552130115269152,-12.664989513028196,-12.447487728729381
-11.92701660502208,-10.862812097775844,-13.552141041403791,-11.308840732321595,-13.227917735872468,-10.354123289928207
-5.817125083439441,-6.830828227756359,-1.9919323463047256,0.1898013843692268,-1.50318777184506,-2.170252920888219
1.7051580865185307,1.2774424995333222,-1.0289498049650339,0.025535126393301532,0.2021918539423693,0.047111442675699965
-0.19506914397021402,-0.45254147146336376,1.7046802371511,-0.25770820106470993,-0.2556696543428898,-0.044498893054533625
-17.360035794097335,-15.610138834818583,-14.216366179869047,-14.35304443487038,-15.283885067101464,-17.701204969331663
-8.494887794820963,-12.230175984376519,-10.179141044611566,-12.255414127393863,-11.499655836852941,-13.986652465815926
0.0,0.0,0.0,0.0,0.0,0.0
0.0,0.0,0.0,0.0,0.0,0.0
0.0,0.0,0.0,0.0,0.0,0.0
0.0,0.0,0.0,0.0,0.0,0.0
0.0,0.0,0.0,0.0,0.0,0.0
0.0,0.0,0.0,0.0,0.0,0.0
-11.931343946543706,-10.70040711275525,-13.886688113339897,-11.954518272894449,-15.347141496649694,-12.670933105824826
-8.858810565754366,-9.071876725085968,-6.897572080690504,-8.652256808493027,-3.707544334486501,-8.586349848379875
3.1436255542437146,12.161734383988724,0.5900762159228898,3.8787636184896512,1.0389795260172034,0.6436164424905473
-1.4075049510792244,0.07505446782458415,0.006658005413999218,0.13011420748019978,-0.8995476836459367,0.017447825029837702
-12.074150734763121,-12.869677848449108,-14.009260316911158,-12.849694593413442,-12.88709664792404,-12.294814330532507
-6.455086980354607,-8.996144829920842,-6.746248942797157,-6.663626723333497,-9.509646489684,-9.480558465857317
-11.39086149100196,-10.954991428914077,-13.251859074419944,-12.211312944512535,-13.743829468959902,-12.118705531983437
-5.378313326920658,-4.043104553820475,-6.9409073650340565,-5.141985501663917,-4.805177669027332,-5.814095411999951
1.6377539915712316,1.01646646496551,2.622906035103568,2.262831984600838,0.7897041743221811,2.3564653802348516
-0.519773592097542,-1.0658926450064574,0.289461161318317,-0.7405061156747569,-0.9499293990032682,0.7105586322401135
-12.191705018390856,-10.8734934066899,-10.77426332629196,-11.017915939149958,-10.800894299383597,-11.91939430661227
-5.374507491285552,-2.786940351762246,-4.008396469643365,-4.156497975171182,-3.9615348211673163,-4.535908414278111
-13.293169235180473,-12.27806766710653,-12.663930324455738,-12.773209135660398,-13.844640930820157,-12.288046229447303
-4.193155067897566,-5.730001865410531,-9.411375688366714,-5.410687529490284,-5.034511770445183,-4.393618022961353
0.692671779065009,0.16159323004407858,0.8528335387624939,0.21316563355404866,4.1611184355812165,0.9933706694461603
0.05260974133877827,-0.3637107919849039,-0.19740100865396626,-0.6271305664385898,-0.5672906858164651,1.3050897048528876
-12.618218046971034,-12.460560148323156,-11.987802048358692,-14.641368251253908,-14.240033867716578,-11.858218225151006
-6.7133962322288,-4.345142130622421,-5.035323124079886,-4.833434429402233,-3.4611567284280937,-3.724491327770894
-12.614086696949773,-9.433410116551993,-11.747819878863764,-8.02350512863838,-12.840393916447214,-11.890097286683575
-4.040208515947764,-2.3591328897653847,-4.982479323892302,-1.4503409717783748,-4.5563743022544365,-7.505488230179063
1.0527096576518669,0.3858810016185887,0.41644721917029187,0.11692230792530793,0.7799439705459021,0.07267154742303242
-0.5031319852180346,-0.1930731869693837,-1.2925769983818396,-1.062025360475806,0.3343622550797905,0.0900218748336428
-16.87672054854291,-16.55844898979285,-14.736471432531246,-15.944942556974027,-14.357871564703549,-15.352324260203071
-11.330400449936526,-7.161225830580478,-8.97982270687333,-8.646276192859796,-8.913752478434349,-8.848119054067624
-3.3258678712243968,-7.490505648279086,-2.5715922985379587,0.4135970637383687,-6.610465313701977,-4.901487876052966
-2.177241520238502,-0.17114145151563087,-2.293915091724349,0.19373491304611667,-1.4404252232802215,-2.008325126581708
0.38148853814389977,0.4006170068091677,0.6063818730476314,0.5352545154733245,0.4783064182082737,0.6952320365492246
0.10778302007260296,0.4721675454282486,-1.4943538689584903,-1.6969824868755417,-0.56102782016182,-2.055280177956529
-14.412912668999269,-17.189491109320738,-14.441876452608746,-13.065836565160065,-14.640690576227177,-13.901471813675071
-11.692051277933334,-11.598487524985112,-13.759949403897823,-11.402013678870723,-12.637268545721875,-12.71104317690575
-9.602228105363599,-8.127198134063596,-4.423485544112558,-6.641393711606589,-8.793649215432588,-8.064361063877163
-3.7980565535214272,-5.178558443651941,-0.7946797536712049,-1.382662053394824,-2.25428067821733,1.0599537401727803
0.2822207537251814,0.04025967203148362,0.6784732369579263,0.7649046052983784,0.10430468773282997,0.710606770848825
-0.31060285306259655,-0.7165197027541386,-0.768487177978809,-1.3260373384118802,-0.44935841339738386,-1.1303462880524366
-16.144911989433115,-13.71051205247644,-16.6343096106946,-15.887632451654174,-14.237675594098697,-14.471731271262263
-11.674853017671866,-13.972641516490862,-12.327068079138414,-11.694063753799483,-13.161181711411844,-12.610940738897265
-11.423987794401437,-12.80994910533606,-9.333483898903976,-8.943438454552295,-9.187664570855274,-9.164813510185212
-5.438393313917611,-5.340843914896826,-4.460176016911799,-4.637872364865718,-1.7005302176979558,-2.2875467575175334
0.8484784439512076,1.9253552485308565,0.36397182022855007,1.407846534025682,-0.050181346135452505,0.6575008754636917
-1.3578958230374696,-1.7228921740031649,-1.341531326586585,-0.3459225192474469,-0.7793477261372672,-0.7519017157393256
-13.281679879390342,-13.935027814679904,-14.760912386802357,-12.732567250110254,-16.173717483138667,-15.505845720798257
-8.664048883132011,-12.763537225999498,-10.476969519250655,-12.462243571018432,-11.763820835238473,-14.700720478502593
0.0,0.0,0.0,0.0,0.0,0.0
0.0,0.0,0.0,0.0,0.0,0.0
0.0,0.0,0.0,0.0,0.0,0.0
0.0,0.0,0.0,0.0,0.0,0.0
0.0,0.0,0.0,0.0,0.0,0.0
0.0,0.0,0.0,0.0,0.0,0.0
-11.542219268796096,-11.223299887820652,-8.427054858135525,-9.274249564312134,-9.269647615678174,-8.28391062409039
-2.0910174774713703,-3.833351046797216,-2.9934727135591204,-5.243387106636481,-6.287856617931129,-4.52677059221692
3.2124258600476767,7.576642315046862,0.897411224480147,2.4900853646496195,0.460456486353211,-0.36477864415150074
-0.69965782891856,-0.9485913553126785,0.17706585254251786,0.7311642179471886,-0.3587308073848877,-0.5057570243479529
-12.289158566488206,-12.640084457521226,-13.126822390424746,-13.328674143163807,-14.208516774594806,-12.281624892573724
-6.257286947272676,-8.966678589060386,-6.559267612902085,-6.75826980936195,-9.584794041396437,-9.380300805660653
-11.49073731161346,-12.966114667054445,-12.12762984822058,-12.005496714390699,-11.607337391668498,-11.745628400897576
-2.1225475237954323,-3.456014521374048,-4.1727998489967835,-5.658884875396479,-8.86274797700509,-7.541254341221072
4.121113032360306,0.024411889666048757,3.3176207393493926,2.2402817053937616,0.8219629350385207,2.07559861173671
-0.3156489443180072,-1.9814547684527355,0.25784941551431473,0.10199902106820306,-0.5265361965031379,1.1912961388004288
-11.543385722396826,-10.79733340405439,-10.481361023311678,-9.981827940120862,-10.632211904374664,-11.015104944875484
-5.215069160879136,-2.7758329173700598,-4.090288939112926,-4.114739394415559,-4.038441451046696,-4.525307251787499
-7.020488779638723,-11.20965124758452,-10.41762946630068,-9.466163367337352,-9.799476006952872,-9.016999259736155
-4.280626313707144,-3.901435179536727,-3.017445276930239,-3.9559882527010477,-9.743694086876594,-5.344982214054396
0.13282596245144226,-0.19277954290254934,1.1295752093883533,-0.013130975258635545,2.7331530428324315,1.119116464733863
0.3581339725560809,-0.3681391436888045,-0.15307273761573423,0.5401949819572401,-1.1816765348612008,1.512864794372547
-11.786169871418279,-12.254764921529102,-12.03076865318125,-13.715259327240693,-12.372423339338237,-11.479461994443513
-6.826579611624578,-4.24512142612525,-5.063523827077804,-5.052317586780225,-3.3700767152208257,-3.7421706845103198
-11.000523425815368,-7.446352099601635,-9.356742247848288,-6.471601923771646,-13.250643982299206,-12.920930458412219
-1.4437909073706674,-2.8965660124613763,-2.3225252837866925,-1.837513772360599,-3.120094300366022,-4.739769451657911
-0.16914818434144827,0.27508257629823574,-0.3090553475408829,0.022427246302272275,0.6308796472140292,0.38132672719289956
-0.4164478010628275,-0.7198165442436867,-0.9243591245510041,-0.7634731294038367,-1.184294564288634,-0.07605844905473867
-13.630248586782368,-13.801051171806229,-13.933859965087427,-13.840371800679701,-14.243839504179915,-14.445347857911297
-11.291854389158754,-7.212932139066786,-8.790133031514197,-8.574006403364585,-9.116994420370366,-9.31224452601966
-8.196550544355492,-8.862541067924129,-2.213915084083686,-3.6535333948911917,-6.4086122222774575,-2.9680750893436443
-1.3738598229696473,-1.9818702310992578,1.449941233917362,0.3455143103011719,-1.5663666048320308,1.4374989471560313
-0.9050009730400254,0.596015344076157,0.4651834773440516,0.40475714098648197,0.2244283308081835,0.281313366490008
0.8091331209655976,-1.344228375215855,-0.003151357717512751,-1.0221390082189366,-0.06563573235970108,-0.8920765197752197
-14.394134824557549,-15.99880998778297,-16.91810295115923,-17.119524002648493,-16.22209140245947,-17.580985425162783
-12.222474790472514,-11.61560992554997,-13.606530396501011,-11.821984357941448,-12.672593919220347,-13.430535783113807
-10.895622798902647,-11.51591080783219,-8.815695646238305,-6.632230288064734,-4.166071437698278,-4.892448302403307
-2.263065974717956,-2.207504602897344,-2.080126672593029,-1.55680858402774,-0.710860015998445,-0.29467812645719316
0.3025237429451128,0.0438235960505518,0.4375595154230957,0.16308783419431247,0.2389043315339042,0.3769822082660383
-0.7238092807532698,-0.26836973239918155,-1.613970507670144,-0.550438541200478,-0.35141103251579997,-0.6650119373628627
-14.234330535572113,-14.196943981422333,-15.412287151517907,-14.941153434757835,-16.130982043409418,-14.740886001050075
-11.749615212625192,-14.365214432597867,-12.490476662729828,-12.150696301364563,-12.439501229531976,-12.60076417127378
-9.702265996898062,-13.809631174527654,-8.808471147108659,-10.380583888681429,-12.310484312065249,-5.325448963810568
-5.605783770103581,-5.967593288439823,-4.084548461551581,-4.5962317969493665,-1.6719662331544434,-2.4734780997429042
0.2802158682811732,-0.10528845201282784,-0.008810138051729283,0.22320579870926754,0.39441136286745127,0.11393376484803724
-0.999521538013552,-0.9032087719182625,-1.0459789147007204,-0.4154512282763029,-1.3031292106369596,-0.834516152810888
-15.236095523474638,-15.089303400992188,-16.30311497281874,-14.163376416991275,-18.259924560453697,-15.650881590346488
-8.95990402789765,-13.200712393001764,-10.39378411220625,-12.820578328764157,-11.844711657495523,-14.701155187030862
0.0,0.0,0.0,0.0,0.0,0.0
0.0,0.0,0.0,0.0,0.0,0.0
0.0,0.0,0.0,0.0,0.0,0.0
0.0,0.0,0.0,0.0,0.0,0.0
0.0,0.0,0.0,0.0,0.0,0.0
0.0,0.0,0.0,0.0,0.0,0.0
0.0,0.0,0.0,0.0,0.0,0.0
0.0,0.0,0.0,0.0,0.0,0.0
0.0,0.0,0.0,0.0,0.0,0.0
0.0,0.0,0.0,0.0,0.0,0.0
0.0,0.0,0.0,0.0,0.0,0.0
0.0,0.0,0.0,0.0,0.0,0.0
-10.344447482745473,-10.441468678252773,-9.90297358079554,-9.71795759004998,-10.1823413226544,-12.127720401622605
-1.0303486235454664,-2.549111273005791,0.12655167380061313,-2.5309949531081726,-2.4572461824477765,-4.696863848408076
0.6976707919505607,-1.8155586021732202,2.3727280665597625,0.8379402928566367,0.5258765160563496,0.6197363155257373
0.019659238926054597,-0.48005205191598316,-0.06013185368062958,0.0168129201709666,-0.18686671035252506,0.5891739396198845
-4.091254832868975,-3.9452956245567816,-3.8252395763437916,-3.287612891694638,-3.846335982775757,-3.642233570061632
-1.813984092309781,-0.9955693057444617,-1.3768268599771836,-1.4758107026770844,-1.4142110540781732,-1.5592393275597065
0.0,0.0,0.0,0.0,0.0,0.0
0.0,0.0,0.0,0.0,0.0,0.0
0.0,0.0,0.0,0.0,0.0,0.0
0.0,0.0,0.0,0.0,0.0,0.0
0.0,0.0,0.0,0.0,0.0,0.0
0.0,0.0,0.0,0.0,0.0,0.0
0.0,0.0,0.0,0.0,0.0,0.0
0.0,0.0,0.0,0.0,0.0,0.0
0.0,0.0,0.0,0.0,0.0,0.0
0.0,0.0,0.0,0.0,0.0,0.0
0.0,0.0,0.0,0.0,0.0,0.0
0.0,0.0,0.0,0.0,0.0,0.0
-8.231065773648899,-8.395742700711555,-7.3472868712831785,-8.936221389505993,-7.773453438890163,-8.24163788639474
0.33528653994745033,-0.5378323556346111,-0.5141393125630084,0.1356611417985305,-0.5058882017559275,0.2574790471852788
-0.09825296360209365,-0.11750717368282294,-0.4579698637379855,-0.08298258102349883,-0.03898973069014609,-0.2023408323853936
-0.7520385261683498,-1.2483480870705292,-1.2492342493192348,-0.06732200247664699,-0.14016998482523557,-0.8897326083105342
-6.9503502448308625,-8.1463016666194,-10.093112068127386,-7.348753811695031,-7.719350029803087,-8.510390308347707
-5.303654806294115,-4.668422852055853,-4.784456266902334,-4.392256754655192,-4.823972771558068,-4.930014045688912
0.0,0.0,0.0,0.0,0.0,0.0
0.0,0.0,0.0,0.0,0.0,0.0
0.0,0.0,0.0,0.0,0.0,0.0
0.0,0.0,0.0,0.0,0.0,0.0
0.0,0.0,0.0,0.0,0.0,0.0
0.0,0.0,0.0,0.0,0.0,0.0
-11.067486741917126,-10.115512597874222,-9.374971891331166,-10.362513775399954,-5.715985207892353,-5.161100387827413
0.8299974711292553,-0.7965366424781409,-2.243544121005005,-0.4982752947404857,-0.6886225427356055,-0.18353824296116966
-0.08496355780912285,0.09072750734288508,-0.2605353735716688,0.13578497969208586,0.13123273909504343,0.09702025062186675
0.10017273141885158,-0.011946017282675529,-0.5624157613129717,-0.21329379979462948,-0.7936336725801293,-0.45629074182427126
-6.247145964738553,-5.65780114975731,-6.073157048556479,-4.99044269513565,-6.898869983769883,-5.745569817793478
-3.001263896013708,-4.411044047086735,-3.4908034606538796,-4.201612713699434,-3.976695570224352,-4.959522573795326
0.0,0.0,0.0,0.0,0.0,0.0
0.0,0.0,0.0,0.0,0.0,0.0
0.0,0.0,0.0,0.0,0.0,0.0
0.0,0.0,0.0,0.0,0.0,0.0
0.0,0.0,0.0,0.0,0.0,0.0
0.0,0.0,0.0,0.0,0.0,0.0
-10.95224787889215,-11.83037229040592,-9.645026320678026,-11.22509379292292,-10.317661394764198,-12.060125594268351
-1.599265466688591,-1.948449902277389,1.3112669029608974,-2.1647734892805715,0.12088316994506396,-4.76168174202842
-0.7320326547971661,1.5219185327911897,-0.5320267132092599,3.072050984347684,0.009429542088406372,0.6297282270715601
0.4194349300617911,0.2703179544584495,2.140683126632947,0.910970695411079,0.03206450685191802,0.16408527563662975
-10.674855209278647,-12.623381878733273,-12.774149373472993,-12.490758846845406,-12.789301199739032,-12.058525044002728
-5.965086377451587,-9.319412984693354,-6.288054811528589,-6.433423047083028,-7.584864445824652,-8.81158660131663
-14.346910516779316,-10.260711564749169,-11.916188064113188,-11.034429486874185,-12.430615576944808,-13.793035740063177
0.4016648223310951,-1.8301767987205866,-1.1625991667064401,-1.2398906249299424,-3.1318891845999266,-3.786341221068462
1.4346539768587325,0.2709718646111461,0.9184140226510614,0.584358061461305,0.773273289305026,0.29918066799198256
0.29361839172480675,-0.311127732688168,-0.05676467659388668,0.15404071481564902,0.01159743178031538,0.1052127880646133
-8.438733904481587,-8.826776915122275,-7.2299227664327415,-8.147683027592945,-7.541673694277972,-7.635883055186337
-6.0132299746419005,-3.385735278205149,-4.434709514850954,-3.464099736949133,-3.2774109886853093,-3.7371101054328264
-13.200245959703393,-10.574874013327081,-13.660366780309323,-12.625160707064937,-12.65573282379936,-10.926201311666432
-2.4752325223316256,-0.5933000010090925,-4.477129793087704,-3.627214362445217,-3.1570579692574325,-3.627400556176538
1.3469451110377617,0.40192463579671683,1.1512106675108305,0.6467358849574187,3.4100653913822088,1.3606181738378327
-0.26548694091750574,-0.783632437019681,-0.04761939895711429,-0.5704431216448057,-0.6879064896470056,2.1417029267157113
-11.680815527893317,-11.300239836663392,-11.680484936565868,-13.995671983263593,-13.484944684314556,-10.058605623101798
-8.887173431718763,-4.205246892783176,-6.911976490560921,-5.17593892211748,-4.980851190372189,-5.787333758285412
-10.447001116214055,-6.379876588833474,-11.063461109757492,-12.855957118073743,-14.285033740587716,-14.153450350319666
-2.282629306043796,-1.1207268506381243,-3.231178002760232,-1.1359143612672726,0.27877857964652175,-1.1286907387420344
0.677434011251882,-0.016847475179539648,-0.21401178845726826,-0.22570335790863982,-0.24660323917342453,-0.3179776802561054
0.4719479773736798,0.6799013315482291,-0.9335214519728816,0.437906840041307,0.7816242656612081,0.25502747320992913
-13.356869747585314,-13.323595732989343,-13.361015279294232,-13.391716946708176,-12.260143949398742,-13.165011856417445
-12.7756635643886,-9.472596567431795,-11.768589281940564,-10.177367145105565,-9.696274054318282,-10.638711223246263
-10.220516022402553,-6.165759736434974,-12.011611879082729,-11.943231216576672,-7.2127763523093735,-9.218610373239004
-1.3676750009817353,-1.7113604919907106,-0.05314343873098212,-0.20935267094843987,-1.5610616121458043,-1.443207657804309
-0.3669009662952396,-0.2547123601248493,-0.1623040356057182,0.1124242877004876,-0.16555275872765393,-0.12927551075890958
0.43138390328104115,0.16491337835376743,0.4355928582994673,-0.6692840388014336,-0.47862723555716485,0.1969201137633544
-14.51384011223311,-13.887492927807763,-13.428993660121224,-13.579175062151613,-14.120061283353442,-13.949971003220387
-9.744414329143154,-9.142374628225754,-9.361098923812188,-10.037469704127957,-9.384640096081956,-9.220743907735462
-12.483106860301024,-12.291753724219888,-11.927609735933725,-10.096371053332225,-4.1196497085386135,-8.092174571249908
-3.2691455424122893,-2.4487187105072645,0.2960853923175403,-0.01133011375553767,-0.49794222651561565,-1.010707317907335
-0.013730258938664478,-0.03148507731259097,0.2685253286734259,0.18841302794870854,0.003168069331512456,0.1535896782839611
-0.3887819378668415,0.08769599353290651,-0.5557357751038933,0.40247568172531295,-0.6692414512891748,-0.2055805616939677
-13.262239123970051,-13.45052233343254,-13.596098871745626,-12.681824611657088,-13.63666849681271,-13.353385537081532
-10.668949446944858,-12.998292700657402,-12.186142896264647,-11.406075507673789,-12.68461827995056,-12.302873255982872
-11.396952643416816,-13.026192317112464,-6.628956823156977,-12.321535069566938,-10.706725523378875,-8.050651931957445
1.6441131456301552,-2.7775546070983688,-3.8153012581652876,-0.20378360403762139,-0.3996006684354268,0.13206500660940643
0.15895062678750438,0.3051799092639991,-0.5484414463243078,-0.28269790028207553,-0.10231968456955007,0.5929258794397241
0.46195772900430637,-0.4539017364149524,2.7473945441729906,0.23031300360185544,-0.5212666171365408,-0.49507025508247315
-13.27430134839655,-11.491672102179729,-11.125099587285725,-9.960076520876765,-13.588630011833633,-12.72184776883091
-5.4862277251818306,-7.841903787298437,-5.408379743914458,-6.681607799710924,-6.956261491856898,-7.296562210222797
0.0,0.0,0.0,0.0,0.0,0.0
0.0,0.0,0.0,0.0,0.0,0.0
0.0,0.0,0.0,0.0,0.0,0.0
0.0,0.0,0.0,0.0,0.0,0.0
0.0,0.0,0.0,0.0,0.0,0.0
0.0,0.0,0.0,0.0,0.0,0.0
-12.513187987470566,-13.77214021119344,-13.041247699843037,-13.66591032901431,-11.679451166180328,-12.090478821547036
-1.7459508292327082,-3.468542970333685,-3.901171644741782,-2.910659397585778,-2.7763100636338565,-1.2007783226814743
0.8839042164331791,3.249530950592963,1.8126498314414297,1.7919894791952315,0.704290234978243,0.2031955918502822
-0.620063459171841,0.09786160654210814,1.2767612683637366,-0.6663497802980537,-0.329050872149072,-0.38719200143754073
-12.110451770694427,-13.192176142317766,-12.842418832704544,-13.020382229679917,-12.222350084274941,-11.896634578113954
-5.7993667604892725,-9.480662795814377,-6.405066605423857,-6.333889079555042,-7.822147998129597,-8.75414832421015
-12.837788012746344,-14.622182311352011,-12.967031558116556,-13.211634590613073,-11.212448211331271,-12.097740581440902
-4.592077285399481,-0.7854307319791424,-1.6158195616582889,-4.409240697978863,-1.4500359045236322,-1.9123791669149293
1.382934628697842,-0.6647004757088465,1.2792140571496513,0.49246587519189644,1.4728851777253587,0.7262983195034604
-0.0162370750562498,-0.025625115616488187,-0.1801365567777126,0.17080239514790396,-0.8171321370155802,0.15178890364631395
-13.222774448027208,-14.0290476238161,-11.464030198548729,-12.626925011796086,-11.303334378590664,-12.456567397644978
-8.857426806284844,-4.965971525622609,-6.549979710826251,-5.203827824712779,-4.856108272638326,-5.544860516996655
-10.215436679748445,-13.073787118634057,-11.70065730788661,-11.921652634438859,-10.846185160273523,-10.24220229343251
-4.797306216805808,-1.8553430517519711,-3.9612420453462027,-0.9739371662294112,-3.369020127294245,-1.646937560189315
0.9942513401844919,0.1792715937100454,0.8517739870373391,0.8614622732946504,2.3743060682749593,1.1949792942301727
-0.5426152393513977,-0.4442696713860913,0.08569554974889004,-0.25739146766302007,-0.2188472963051349,1.299869148376916
-11.428861222357678,-12.334539363651247,-11.2111908400151,-14.088726087435148,-13.272415111084717,-12.09991405184663
-8.556177997711563,-4.215621965480595,-6.797307243794149,-5.029261706841778,-4.892348413453122,-5.727239932714347
-10.146615682342206,-10.10008172037331,-11.56841505881985,-8.264074079580338,-11.79184849332334,-10.49808822635191
-0.23035039011103142,-3.57516553187442,-0.9615701875463445,0.15241029562837413,-0.4494367964611762,-0.8603483016966192
0.3009015217573986,-0.2829546694288104,1.054013471766933,-0.29523996947270126,0.21706528745640427,0.7101383277758246
-0.057742491637198065,-0.6344533560163226,-0.6097954132471421,0.10104514447279572,0.9552464111177806,-0.22540057050549106
-13.65143568665285,-13.886645637589131,-13.27138416539871,-13.139093046245092,-12.663619131622083,-13.675889006966136
-12.602810631454185,-9.306495211748393,-11.378580319251043,-9.643043686989941,-9.356247693771687,-10.223727875068906
-5.150702961076348,-5.238946521139292,-9.798183941658182,-10.895204008255813,-13.422668442085476,-15.117710834327049
-1.2302271540655256,-0.6093009833253847,-2.0473181275796555,0.07458711749280844,-0.9593681546032926,-3.1915225585742957
1.0246197809867517,0.720850228111015,0.17885262822688483,0.4577053887678731,0.2627788090365486,0.3126802685504064
-0.42310869494145614,-1.7419562941297937,-0.38273173107568204,-1.5376388916322137,-0.8614451432286148,-1.8280790666832583
-13.154878626587347,-13.567356897162746,-14.956397177604403,-12.976784249990276,-13.547505255901223,-13.541486892213094
-13.285584199016633,-12.815621164646748,-13.370494281737093,-13.37228263284223,-13.32964511210147,-12.932595702867603
-13.280424055015756,-11.061034415449155,-9.250817909118133,-12.892081505249587,-9.539211509450723,-12.961981106242268
-2.882992400228926,-2.994172766771661,-0.8840680456706766,-1.3335046061563385,-1.0859407357242974,-2.118698130131623
0.29429906364707453,0.7620880424560814,-0.03500195101655962,0.9308336828691338,-0.04369402737361993,0.3806335356658566
-0.2878139246433727,-0.6525596267050378,-0.40310505561177074,-0.14402059502615377,-0.7098940394995727,0.4107580737997408
-13.732677296984546,-14.069531768839148,-12.744519563650371,-12.190173519184997,-12.492938345250778,-12.32253501197774
-10.585594259177828,-12.534491409786593,-12.645895071671575,-12.014924990044852,-12.917997390997476,-12.577516312012252
-12.102635895959116,-12.726151777249278,-12.681809946315886,-9.853572301573685,-12.46790061800344,-11.818055335474533
-2.8075181744571474,-4.331463524412795,-2.432957744748936,1.4214296850186023,-1.7485201702903856,-0.7178110349050411
0.5608722255349652,1.0627174957169723,-0.36464410051538787,-0.26846496792575925,0.1434007201682887,0.2661850900286037
0.27633944075330247,-0.83174280936164,1.3933388455598326,0.25397581850729123,-0.7477108878906895,-0.4453237457545232
-16.216692769210006,-15.722457756132393,-14.655796528390505,-15.4494612273631,-16.28611717858152,-16.41408915082911
-8.111313811505326,-11.687883987663366,-7.901234551875738,-9.768824558296274,-10.045838415526282,-10.4393554096468
0.0,0.0,0.0,0.0,0.0,0.0
0.0,0.0,0.0,0.0,0.0,0.0
0.0,0.0,0.0,0.0,0.0,0.0
0.0,0.0,0.0,0.0,0.0,0.0
0.0,0.0,0.0,0.0,0.0,0.0
0.0,0.0,0.0,0.0,0.0,0.0
-11.323845499784206,-10.060620681956047,-11.733669992969967,-14.115245641006513,-12.08559978569478,-14.059868818338687
-7.07614861685044,-6.0240582016182564,-6.794547047525652,-7.980505711767213,-5.617307346364512,-5.825602986083661
1.324676249864171,3.606269213092303,1.0230556495766707,1.5081891520754407,0.5993413706136268,-0.5631043156312182
0.5529120346190566,-0.20296914542241207,0.7173589950820544,0.8559286180014849,-0.7871929303972534,-0.5195521112495797
-11.793826646253219,-13.203992362334812,-13.274108726050212,-12.374821180657056,-12.963621197433158,-13.338292247625297
-5.748890202963908,-9.54922280041842,-6.4090735592204,-6.246863529257621,-8.310674045029083,-9.622399462621237
-9.930954643091534,-10.038095637042256,-13.889091994766353,-13.0736763540449,-14.260166803484362,-10.659406361312968
-8.353022146467799,-3.4783114501222387,-7.778248299050278,-5.4694212968549385,-3.692102754781528,-3.381005376682277
0.25716486678761713,0.1951934308402186,1.7569941120122499,0.9327207913837703,5.227954740340417,0.10201358872232677
0.14069154782491883,-0.5331288747100605,0.6489456022796498,1.261368018499122,-1.2885024752931478,0.9490664407894686
-13.17417164115882,-11.975560307946294,-11.688855373615594,-12.049573153316992,-10.823166996323657,-12.05243191229673
-8.288383571514625,-4.411620513959961,-6.0600982618261305,-4.713747420818055,-4.685348512664339,-5.359981031395595
-13.463751878901512,-10.6980315407251,-12.155845471516622,-11.244269794188593,-12.414571865222497,-11.18596347406349
-5.622617227847022,-4.875813752672511,-5.077147666578462,-3.8864646975301116,-5.179071607688486,-4.02956306428518
0.07162024481998083,1.0401275915385528,1.8881851814386355,0.13364982145601673,4.193456653640312,0.970759024870436
-0.2785827151062096,-0.2847020538768422,0.4616616807723787,-0.023180958030544187,-0.030745963219020078,1.2775177040765944
-11.277623986500585,-13.667134648676353,-11.65819066672129,-13.48214658594146,-11.15892984528762,-12.951314983011818
-8.990065966347329,-4.578937886233145,-6.939042874406837,-5.068127071524873,-4.849418525863117,-5.930857472834716
-10.43556197818092,-12.74322555065001,-11.788805989698393,-11.573422148171685,-11.888167984338642,-10.964487415579413
-2.872647702318963,-1.6676275041101518,-3.580303668293627,-1.8353027989830872,-3.762102581511769,-4.920738768657898
0.5580811732230085,0.39937088054096065,0.27037618425485477,0.32689275156611614,2.080731619825737,0.566695327435314
-1.4623041460716917,-1.0412541787036482,-0.8289640240394067,-0.20452079543803423,0.29997761991299365,-0.366051107480282
-16.44741141621836,-15.873557794500044,-15.46564793245673,-15.70175277238914,-14.676494149398154,-15.1745617735282
-12.662365487197912,-9.17763230103166,-11.524084844584513,-9.622800183748739,-9.700517463720278,-10.585577383212991
-5.431939326124201,-6.001921663865638,-4.608861290879355,-4.584438200985551,-5.948322980585334,-4.229307664641877
-0.5391882425904847,-2.7179581241346695,-0.06766988047453931,1.004335818731324,0.1273791332329363,1.6776347086410501
0.40924003297349787,0.2688730162710807,0.7760803478595104,-0.08220631984402112,0.21459298233386534,0.24545678213596955
-0.030651351207682614,-0.25143050956374596,-1.2988731707059662,-1.848077977726147,-1.7599056261853656,-3.145515719162081
-15.04091274763545,-15.184156472064535,-13.80807385337232,-13.025969203075826,-14.2148534549695,-13.973205795048393
-11.359797459569366,-11.554283329653606,-11.516825295852943,-11.126429126057465,-12.430409029213417,-11.885790265830806
-7.839152896720375,-6.807643749898966,-6.595309390083365,-6.142792944568955,-9.603340195478795,-8.01731187274346
-3.156754627632069,-1.661422519820776,-1.88590737430263,0.24322052872023747,-2.3105175599065477,-1.4467079967909484
0.367938595051792,0.6674515020823488,0.23497608353515742,-0.008857044050928152,0.5911259964406829,0.5321346266667774
-1.4331156040302353,-0.8505079667825232,-1.2899207541842441,-0.7197337698155674,-1.8357620418451055,-1.3355143439730834
-16.288742986606373,-14.488345576309229,-16.585244764702246,-15.747379893693346,-15.376299989255385,-15.46396275641404
-11.612451282802521,-13.76075018434525,-12.544919437505936,-12.357765352042703,-13.14110254900783,-12.682429346208998
-12.699867948575791,-11.027242668705972,-10.185644734460041,-8.510660325810942,-12.54398728489129,-8.609158355261902
-6.603023815374399,-7.092453747174786,-2.807289255862173,-2.215114340289392,-0.9216006186357357,-4.355897380745422
0.2303060383898439,3.948901088656103,-0.24365794591566084,0.7851248513700907,0.19377304196471073,0.18574284424139184
-1.0460964504155714,-1.1892365670366294,-0.6042306726048885,-0.9056362933423346,-0.6903189597413029,-1.0219718387736287
-12.178852638453137,-13.58850396085395,-14.430619634707025,-14.4892895718018,-14.537614936410014,-14.987942333886428
-8.89752561987243,-12.658486430825047,-8.502274228346012,-10.209803139449553,-10.253759987254819,-11.17790801082599
0.0,0.0,0.0,0.0,0.0,0.0
0.0,0.0,0.0,0.0,0.0,0.0
0.0,0.0,0.0,0.0,0.0,0.0
0.0,0.0,0.0,0.0,0.0,0.0
0.0,0.0,0.0,0.0,0.0,0.0
0.0,0.0,0.0,0.0,0.0,0.0
-8.81677518849673,-11.14413345624749,-11.451854387201438,-12.171206994797721,-11.119529378694912,-10.80693945717449
-0.9414091189708502,-3.2229114533640555,-5.785203043199542,-5.2811426810348205,-2.4067019702922616,-5.659685056650678
2.831097379745508,3.2582749697980438,-0.10584516960460262,0.9468560567964368,-0.41395614782754486,-0.0724163159882056
0.39814355145072394,0.059985117746336095,1.285794828574381,1.5235550313110846,0.11933477728604563,0.01532992017790215
-10.640197911994958,-12.860386637791374,-13.182665804803591,-11.902782574148455,-13.019469149039589,-13.164395057868234
-5.80119101149521,-9.295712679429032,-6.2611071835826895,-6.45295468735102,-8.063398553024998,-9.60737998658928
-10.955225656577067,-13.676334033491752,-11.78249254468066,-11.072201004147358,-12.73386923512183,-13.371461990800615
-2.0598075673419336,-0.06942702690496493,-6.972452411309339,-3.4114003381617133,-5.628004453922011,-6.897678915467091
1.8630947049454354,-0.24792663841416077,1.9920635659660022,0.8294196913850911,4.262159381115072,-0.25602091458367876
-0.4288748047199238,-0.4957880574334113,0.6614269463022923,1.7740347470157933,-0.03334641204824246,0.9719214066477453
-12.717697478879256,-10.923002678966423,-10.75325407460521,-11.213081571589084,-10.554520714511371,-10.52431582885417
-8.345736768863565,-4.42763683883478,-5.82563582730827,-4.510264361839709,-4.667298786565076,-5.320457649569434
-12.146768574392473,-8.909330665606124,-13.579416965306363,-11.767588381262895,-9.46903882145483,-10.720188888696283
-2.558841278337702,-3.774089295486015,-6.045061348949038,-5.050762915389599,-8.47598295252272,-6.889059006004844
0.5176556702308935,0.3532323555834971,1.917386732962268,-0.4212998121810153,6.440585315859073,-0.10497114539868338
-0.10308797012929996,-0.5984084977429431,0.28151806221766246,-0.1855179603484776,-0.4831363332240017,2.655497138241342
-11.371302033982778,-12.15662977059583,-12.229602842929774,-13.485615884500405,-11.518522429616128,-11.081757945479422
-9.413088752409179,-4.592672588516811,-7.19622956471027,-5.179207173066404,-4.949157558089941,-5.871004836442516
-12.790009102963563,-9.20252688206617,-9.281913447469597,-8.688078945733064,-12.846737343983841,-9.72815221571049
-2.163520765902641,-0.6571296545314396,-5.1910320667082654,-4.095306921131882,-5.2885623413677125,-6.972855299755431
0.23144331738517593,-0.014769687241642727,0.0979468440786921,-0.0021190900914320417,3.6581420772365236,1.1575426879422408
-0.024951245840034074,-0.49273850483301995,0.08320413404374025,-0.7729314975174316,-0.9729331300477462,0.11078834211944256
-14.055298925626493,-13.354685646678346,-13.699191182258595,-14.723125608018012,-13.871317586772763,-13.74672851580416
-12.980584376447727,-9.364607372295605,-11.923810246913952,-10.160770670405155,-9.970717825765119,-10.959757444458546
-6.173278154611667,-6.694871936347094,-4.433221052757676,-4.328697171183791,-3.37465283728732,-3.8961368382790744
-0.12641359254863657,-0.9267765039403114,1.666854822770766,-0.4096628797480829,-2.5236650135343224,0.4716341275839051
-0.3839394620169821,0.09046567683604237,0.607208454696703,0.18721776670577975,-0.27498511102194667,0.1836144823639159
0.8529399029410646,-0.5192615827306185,-0.9652744053515484,-0.0901227324098155,0.08074672437339822,-1.035308898566952
-15.852927120892799,-17.17662202189003,-17.56921027625768,-16.1426333139053,-18.11797899947472,-19.01688502469223
-12.28298837616218,-12.255749734104153,-11.640423493687528,-12.154885311192741,-12.935081442332871,-12.845341409159694
-11.036785272151477,-9.08817676509588,-6.488454722965416,-4.5443113707789085,-7.429520402596797,-5.414392750853142
-2.129300722429279,-4.854190397800321,-0.3744763947601811,-2.2078707350079623,-1.2720187986424922,-0.2584608160108312
0.5401145389669214,0.23803057714745424,0.3162030314006474,0.2848980854366083,0.24856489916495741,0.2609063637541647
-1.0426667168166475,-0.809195006783207,-0.6652409800676918,-0.4324929561761963,-0.683456522904848,0.15289381921232129
-15.872515126379218,-14.171911376295599,-14.889140805269347,-14.193481121278351,-14.503706840055077,-16.438139045325293
-11.493133843201585,-13.984266096178903,-12.022894199752173,-12.071446146297601,-12.548469836972462,-12.17640511776022
-9.276358370262715,-10.408515961004186,-9.862350951398081,-9.56688289702213,-9.297729061414659,-7.163229920430725
-2.157054597068349,-4.1001431525327785,-3.9041980165340053,-3.108676384397951,-2.306301505308904,-4.0298212447322594
1.104365594857308,1.542593860193966,-0.35838344993727694,0.7934745481475973,0.41262694653458487,0.013112390821052214
-0.573033818447454,-0.6243579154467833,-0.5765563748483888,-0.9229696764961806,-0.6936268139062143,-0.8061687916191376
-13.866300527739728,-15.492649389157572,-16.330990463513714,-14.275067385086624,-16.59749940890096,-16.349002092169716
-9.14771669705003,-12.287424796704647,-8.671139128013623,-11.161135502575275,-10.719275164103436,-11.78281523549845
0.0,0.0,0.0,0.0,0.0,0.0
0.0,0.0,0.0,0.0,0.0,0.0
0.0,0.0,0.0,0.0,0.0,0.0
0.0,0.0,0.0,0.0,0.0,0.0
0.0,0.0,0.0,0.0,0.0,0.0
0.0,0.0,0.0,0.0,0.0,0.0
0.0,0.0,0.0,0.0,0.0,0.0
0.0,0.0,0.0,0.0,0.0,0.0
0.0,0.0,0.0,0.0,0.0,0.0
0.0,0.0,0.0,0.0,0.0,0.0
0.0,0.0,0.0,0.0,0.0,0.0
0.0,0.0,0.0,0.0,0.0,0.0
-11.824411628812603,-9.360920954070039,-8.885427264211444,-8.456029983857453,-8.916292753009186,-12.36682402227695
-1.4954606793802183,-0.8318239206547202,-0.8415815334342359,-2.4374723298274312,-2.744530815075834,-2.69777799704457
-0.12353409348132924,-0.06253054069720018,0.4477115622230404,0.10271265637513873,0.6377758336054874,0.213226567956197
-0.12971530741117215,-0.1365325421116091,0.20450529062122458,0.49928050199135704,0.013139853349133358,0.19971894916766977
-4.144433833112337,-3.9148397316598214,-3.625982727213102,-3.7837894786379445,-3.5934676576741253,-3.4349708675306707
-2.86157511749951,-1.6003233907878789,-2.0862044928343253,-1.606775981107917,-1.5705945940850121,-1.8528063331587457
0.0,0.0,0.0,0.0,0.0,0.0
0.0,0.0,0.0,0.0,0.0,0.0
0.0,0.0,0.0,0.0,0.0,0.0
0.0,0.0,0.0,0.0,0.0,0.0
0.0,0.0,0.0,0.0,0.0,0.0
0.0,0.0,0.0,0.0,0.0,0.0
0.0,0.0,0.0,0.0,0.0,0.0
0.0,0.0,0.0,0.0,0.0,0.0
0.0,0.0,0.0,0.0,0.0,0.0
0.0,0.0,0.0,0.0,0.0,0.0
0.0,0.0,0.0,0.0,0.0,0.0
0.0,0.0,0.0,0.0,0.0,0.0
-10.122238254446696,-10.061781963896102,-8.33803052980099,-6.79424166282996,-6.735095535806264,-6.789929188863434
0.5398160310532737,-1.1555302738453812,1.1067737894137983,0.3985506931343494,0.0872155923572322,-0.9909162855031836
-0.23805060365069927,-0.5155648942294161,0.3699327808101592,-0.266673611728635,0.22752495873993467,-0.180095347016182
-0.6337090324957321,-0.4172455751753076,-1.1141407902766516,-0.3635790656481127,-0.11790377061376092,-0.8341530730678093
-7.625986160437406,-7.097526831166285,-7.334224341659852,-8.151408256463444,-7.357369181424105,-8.04093510900216
-5.053677474374207,-4.605762624372856,-4.529960670074209,-5.019570864605,-4.755750064074619,-4.741488718756391
0.0,0.0,0.0,0.0,0.0,0.0
0.0,0.0,0.0,0.0,0.0,0.0
0.0,0.0,0.0,0.0,0.0,0.0
0.0,0.0,0.0,0.0,0.0,0.0
0.0,0.0,0.0,0.0,0.0,0.0
0.0,0.0,0.0,0.0,0.0,0.0
-10.553120372338702,-13.153599275620389,-9.711045859957695,-9.751883418844166,-8.239594111550419,-6.444473919973543
-1.3100339166082908,-0.8070698225688244,-1.5820135732350211,0.2743289095382601,-1.5543790787195144,-0.4030904306596676
0.20536219325086233,0.07171070451850398,-0.10119268111084623,0.7959831866165857,-0.02218535944613982,0.30712760679935475
-0.30665930007657793,-0.2502358682411744,0.3270950993525501,-0.23019608975118586,-0.14616970073623878,-0.23374338607344294
-5.867038384160054,-5.656236121429981,-6.028913617956142,-5.0978422131197165,-6.933086896316958,-6.023234500039695
-3.0267757368735286,-3.975692955193019,-2.765168912230576,-3.5382705986586593,-3.615992414523642,-3.901637530320679
0.0,0.0,0.0,0.0,0.0,0.0
0.0,0.0,0.0,0.0,0.0,0.0
0.0,0.0,0.0,0.0,0.0,0.0
0.0,0.0,0.0,0.0,0.0,0.0
0.0,0.0,0.0,0.0,0.0,0.0
0.0,0.0,0.0,0.0,0.0,0.0
