x1,x2,x3,x4,x5,x6
-11.66671860744471,-13.993174063768635,-9.835165996412023,-6.506250761085952,-5.50433903038014,-4.530351014596682
-13.895326452742662,-24.870920127934067,-5.579522852491961,-11.951603359313339,-13.573039526666793,-8.000901271060343
-3.2118616499464605,2.250993971811347,16.95715109536234,-4.145398899164669,-5.366090503310667,-2.1843933060987517
0.19233579049197067,0.18468986224780218,0.4399044116044606,-0.052828806425465266,-0.00482394643089434,-0.2540520388888126
-1.1093080783934057,-0.1274636762352044,-6.294504390188601,0.03580032150635668,-2.4304939610873104,-0.1895844037317588
-3.8267716644861287,-0.4259348061303587,-9.168476046587969,-0.028661386645178158,-3.2891738364397534,-0.05296684791438991
-5.897078911813577,-9.605983916233377,-12.181651630188314,-9.51133713502401,-10.142494472405568,-5.796235705098565
-9.881437942743084,-20.231328163800043,-10.12152366190243,-17.945082843566627,-22.513844883825648,-14.047928909355598
-6.406501713226268,-3.7994558800134417,34.067935905791394,-5.214314005227575,-11.431681395468084,-3.576736584387447
-0.23820309136602316,-0.5236449793719532,0.27141457103765376,-0.0010318227979873016,0.26947768947666123,-0.09899692749050416
0.0,-1.0130102715393723,0.0,-0.05619510793545198,0.0,0.0
0.0,-3.5627475835114635,0.0,-0.2519098424556987,0.0,0.0
-0.5480845108792297,-3.287853530698604,-7.283223458318873,-5.370376848046664,-8.770058856257767,-4.473734235655408
-4.199441045190796,-4.191960239318565,-22.12248712140669,-9.634793367869513,-12.288866560933599,-7.356396858102825
-2.599764572709611,-1.917502691161027,-2.6224728729599627,-2.3896545616894898,-4.146808140599787,-1.5862743177698901
-0.20591853495012993,-0.7890660735544919,2.282704308115329,0.0007519118040036556,0.11159693939485534,0.035650894118811054
-0.18391471023865022,-10.50590709976892,0.11222117891723787,-0.9330343519480703,0.0,-0.032880068817020415
-0.8068508801313036,-25.894510610347123,0.48754082341612354,-1.2090182688130855,0.0,-0.11279542447602747
-0.034413734388804254,-0.06624619468857482,-1.684545432329746,-1.4882800043224969,-1.65158176002979,-0.4571127933115887
-0.9699496924871336,-1.4516584102718864,-5.434444997421507,-4.335739283343224,-3.7377462411586277,-2.0315828805824516
-0.4098735063433777,12.22173642262315,2.2514129436439703,-1.2341879196573413,-1.669577727966541,-0.6816662507207097
-9.329906544354095,-24.773057030616403,-4.839113363842172,-8.7126568710592,-6.948358237739188,-7.128906499442381
-57.59214194520048,-86.1363440047675,-45.17227041643765,-79.21696083022532,-63.4351771809372,-42.13180773257588
-34.87737958486834,-80.81195167458952,-24.280912067191586,-56.008556116245906,-49.504929802978,-36.67140154125824
-0.0705074857814489,0.0026024064893936656,-0.1861880358286692,-0.11024194815390483,0.18847793755130912,-0.022902270444134686
-0.3245993551189115,-4.029208496625388,-3.5410656731961683,-0.38781822488079,-0.18234795139042123,-2.199097257826465
0.950674091982032,12.971613785427305,13.658044680428242,-1.623282417002123,0.853806138028451,0.250503028320325
-19.554238640970446,-20.812500697208463,-8.065240371669264,-16.200871123682152,-21.150754169130845,-19.766831096954682
-86.66425680265824,-83.97382587442881,-88.31923794393884,-99.83236683770677,-82.80384090252409,-80.44221046544972
-63.608016129906446,-63.379156846816365,-61.84284869680702,-69.12635453091238,-71.36332723429761,-68.93139348088206
-0.6095542247560396,-1.626189708386704,-0.04282368637758049,-0.0004650377325772535,0.16478515904995164,0.04110926917934074
-1.4611629532784576,-4.629894296951594,0.5094486990399412,-0.07542166450114705,0.03647402653026466,0.093868179901292
-1.023758961477983,-4.972026974480747,4.5275864819481075,-1.003197734488896,-1.7370974810459767,-1.2055042545415187
-16.25274606334849,-7.794751352936833,-22.15361591387478,-8.869563934205711,-19.245474726230377,-19.33852860324632
-82.06764415529875,-35.57005339972382,-97.17896944816331,-40.396132805257196,-95.7762844247183,-53.15115735541454
-82.73958009827236,-25.932535559733175,-75.98188753394207,-45.20133216714543,-70.54026334361959,-25.998629647586114
-2.4037124685985147,-3.7255185149736394,-0.43104704578750064,-0.0041593429043525545,0.11317387616152663,-0.2161091488745773
-5.654470928955006,-6.671377371429787,3.077544726060561,-0.4492943160577845,-0.05442080465664878,-0.36135889478895594
-1.1947519932155832,-2.244030576063545,1.7299093520173145,-0.4103580772681995,-1.0934121920271642,-0.4555238715516099
-4.659177667058884,-0.6652931382532449,-6.8305096034136845,-4.380351278872848,-11.544380707906768,-5.034912323610834
-45.682726010967436,-1.2960397177838463,-62.59503457182582,-1.460257645454043,-46.921638337626284,-15.34369842227031
-52.097958156198644,-0.3902804774927418,-45.44324925484904,-1.1796010849115823,-32.773659838089976,-2.317279929605117
0.0,0.0,0.0,0.0,0.0,0.0
0.0,0.0,0.0,0.0,0.0,0.0
0.0,0.0,0.0,0.0,0.0,0.0
0.0,0.0,0.0,0.0,0.0,0.0
0.0,0.0,0.0,0.0,0.0,0.0
0.0,0.0,0.0,0.0,0.0,0.0
-7.878234354575009,-14.152614556568667,-11.762365164260874,-7.017156177673209,-4.118313586631912,-5.735060787186691
-14.42478608571803,-32.56729105489058,-10.468844154109002,-13.829370698829939,-11.625956095066467,-12.994393809442206
-4.163308051513029,-6.625617511416141,1.8176310309847672,-5.197411976122494,-2.3897655847069244,-4.7349349936921925
0.16182879533286937,0.12889418915751005,1.2059343191151246,0.010871810540300179,-0.056400610369986774,-0.24094421464729066
-1.3573007604946103,-0.13409509340349363,-6.580129007759411,0.027141551654699305,-2.1249911642954324,-0.2561461090105413
-3.881261375895834,-0.453164742949017,-9.377101426473935,-0.03372582263548025,-3.1996265119976077,-0.05913521163730502
-6.047713866385566,-9.61849272064624,-16.41043737225349,-10.346974155846459,-7.472919450024241,-6.862588971634572
-16.48732922957956,-23.28380552532508,-24.899835916763347,-21.974292025255085,-20.13017771005536,-16.313839408754568
-8.027327031848403,-5.941642182378993,9.837286512547239,-7.671705404898749,-6.663733415958122,-5.742042780716894
-0.19642029888453752,-0.5234309699335806,0.21708861582441835,0.04837205236647162,0.37982265416715116,-0.09126198694884147
0.0,-1.7255876932796599,0.0,-0.10377630668061871,0.0,0.0
0.0,-5.4979368834345745,0.0,-0.4212654850675272,0.0,0.0
-0.6322434319184712,-1.8456592189238918,-6.6860156193339515,-3.6048338791013252,-5.725543352044873,-3.808239119439174
-5.887599368109328,-2.324855846969603,-22.516276689260494,-10.001887583949348,-10.99254179016492,-10.066057721635957
-3.89582365344366,-1.9795964771690633,-5.520398680470263,-3.260779704292072,-3.6376938205948486,-2.71531244266203
-0.20424553462278316,-1.0093358196805682,2.927006591009771,0.04604654547598496,0.16161221393788594,0.047236982956489086
-0.2037998950638062,-12.103973107482592,0.11936244004259473,-1.3705619588538056,0.0,-0.036004086149726555
-0.8745264499169866,-26.2885881301151,0.47770680463334353,-1.2576500030841198,0.0,-0.12296291803311131
-0.009802459410227409,-0.14602158548310293,-1.912635731452744,-1.0983886149044702,-2.1922993349272084,-1.1249190906092965
-0.8140489320912264,-1.056778581721883,-5.277180151320073,-5.2063443711183695,-4.2856305451935635,-2.125202961477843
-1.1915461077053922,11.393481244874948,0.6932555410874238,-1.5825755665309444,-1.3001393334942526,-0.7129477554141349
-12.614454238807413,-25.54262359951056,-6.767002995867441,-6.497667739499205,-7.503084430684495,-7.368807929621213
-54.217728568908996,-76.57277545415707,-42.51124254378224,-76.61033493499927,-60.242521910495164,-40.9592853624526
-33.945626027092715,-76.9152490243443,-22.018813360725805,-52.03529951658905,-47.103268275088766,-34.65001317427634
-0.13948111058595145,-0.06856220214763686,-0.959906345095206,-0.03276517768991343,-0.6233776534997281,-0.4710541164127732
-0.897747384571137,-3.2865543312042926,-3.4849366738575673,-0.6101333565047699,-0.32663826857787104,-2.661550691809862
-0.22929725895765965,17.76581057416461,10.226860608259228,-2.5660709296954343,1.1468408335361937,3.130464889465306
-30.45396956815924,-32.71019861864089,-23.17286380978378,-17.695248525440896,-25.097324523788412,-24.225992586696936
-112.927693185216,-108.26373337133555,-119.83626485262772,-135.16796585831707,-108.95012888256538,-111.71788177386438
-92.19587466215216,-91.49348574444848,-89.59473674232797,-99.73383168804096,-102.3795441168956,-99.72552111494406
-0.5031172321272591,-2.8283966868998225,-0.19535589700528383,-0.061959261098345216,-0.6560765541383721,-0.30982876413435784
-1.1068441796365065,-3.9934914905945162,0.6065491249520354,-0.5786286629754067,-0.1501203750554629,-0.12141137948934189
-1.1024018444164112,-3.4192779680163916,3.1501216937807794,-1.6500482475735856,-1.9933721935026645,-1.0289750415129528
-16.169399618326402,-7.796240326807637,-20.676444507858044,-10.092942891929473,-19.833683643820393,-17.0469446951381
-81.31209955436192,-34.05339823813772,-86.55909265998069,-40.83716651131097,-94.65828540203536,-57.97081424473361
-80.27592648447501,-25.154669606126003,-73.7987424791774,-44.84243635825481,-68.7608297146596,-26.386989352771533
-2.738026521635986,-8.162254486807722,-0.6691884316492015,-0.38028369104196535,-0.4319572424528464,-1.0101751687129896
-5.4379554527384455,-9.625844070474885,1.7158558658618732,-0.18448114901936666,-0.030015056006408438,-0.2149680682075205
-1.7004039835377247,-3.2724758533825202,0.7700063262414881,-0.6952249219281863,-1.4353305241081715,-1.120760832903749
-7.006285022135655,-0.6647363935013768,-7.74869802474843,-5.3688819482360906,-15.011718724124616,-10.157081111845358
-75.82605567087336,-2.3163526148226388,-90.74757429843197,-3.2182550779225854,-67.31302070762585,-28.250792637500755
-79.86087063159817,-0.6102841656581192,-67.90398810798771,-1.6127137993315275,-50.32875980106987,-3.555738639811646
0.0,0.0,0.0,0.0,0.0,0.0
0.0,0.0,0.0,0.0,0.0,0.0
0.0,0.0,0.0,0.0,0.0,0.0
0.0,0.0,0.0,0.0,0.0,0.0
0.0,0.0,0.0,0.0,0.0,0.0
0.0,0.0,0.0,0.0,0.0,0.0
-8.17031209704197,-16.785637007684954,-9.36815950124555,-8.869382484894075,-6.3049623470605,-6.143091072195227
-11.395477297470787,-22.38277083231796,-16.96262368348774,-9.86575824574174,-8.85111900556301,-11.285488448978848
-2.578699698943776,-6.324234395283722,-10.576208928956525,-2.9587550918573204,-1.3769287097595173,-3.4139548588230584
0.035758321161563154,0.017666991874318482,0.24825080225107363,0.007632556455533625,-0.26802860553398106,-0.04863901698287936
-1.473338499410844,-0.12902296625595758,-5.548607695857768,0.0446783666132977,-2.31083425742931,-0.16569306245769388
-3.690387923504115,-0.45156585041206765,-9.339624316203917,-0.036294550660424106,-3.4366859173506294,-0.05465637422286862
-7.328988520274011,-7.472983570601487,-12.571418714534499,-8.27252321558178,-7.173734617432314,-7.584708357378771
-13.507094709970763,-11.864063431144107,-23.918665962185624,-11.491252713291928,-12.308413510684623,-12.99887979290066
-4.856507309823347,-3.659164283865485,-13.480919719374175,-2.8090338957241525,-2.2213307941745204,-4.139711370242966
0.0019633975311482486,0.01083578632115742,0.5132181838410467,0.04127167451969716,0.13407920062948464,-0.029894800717807337
0.0,-1.661680492175315,0.0,-0.09726133641365914,0.0,0.0
0.0,-5.269718249271265,0.0,-0.37747551101796983,0.0,0.0
-1.0655165647589322,-2.1611689008559876,-5.196298463563012,-3.1721063345389875,-3.284826719356983,-4.471641440585596
-2.911424998486711,-1.7554792310936287,-11.30163306393127,-7.500123267690239,-3.8693329235053624,-6.404339030866578
-1.834242190226464,-0.7582332335516744,-4.478044578691986,-1.8864778562362594,-1.348662483765781,-2.0007831428075527
-0.016438020033342316,-0.24519725714127444,0.8685501112732247,0.06283035195258074,0.035548301454661785,0.002269826045852352
-0.20243176763971185,-13.032771096522714,0.1126162298530057,-1.7648217818422438,0.0,-0.031952127396599944
-0.804684069155611,-26.054846672223235,0.45558974282664466,-1.2422639679334881,0.0,-0.11612075198853203
0.012756098923439988,-0.27873654173724693,-2.9718166550463705,-1.3710268318946863,-1.4505566437096247,-1.109543804365682
-0.5013004444849336,-0.22290178282779136,-2.5933946104977412,-4.66444872851753,-1.8801669443254838,-2.1569709254343272
-0.4198816090642687,5.555465336249999,0.9523460658974944,-2.4104087634251776,-0.4901751391925223,-1.9032364029261883
-10.303208820979938,-27.89401448390902,-7.809129246163458,-3.995130098480861,-4.025512527469433,-7.282819323946884
-53.97305760803085,-72.41312952096769,-42.834210311286704,-67.13589652840295,-52.03789796672278,-40.393394137357575
-33.59835442696857,-78.49530943988644,-22.894061382187036,-55.400737765600326,-47.69106727065146,-34.895859910281736
-0.11482788841544934,-0.3060151520001012,-0.8857068426167469,-0.2595118373265212,-0.2404131739382863,-0.6917847870102849
-1.4779345323660016,-2.296847044211161,2.2086838615753766,-0.2776580831689123,-0.7589690811270914,-2.244541015988531
-0.30624716312947886,7.578235948142112,6.274179613953696,-2.083608451586861,0.66954926736559,-0.788375837501752
-26.030327350187836,-34.02606841244668,-27.27900451904888,-12.746654750089078,-22.32229402087165,-19.54107497789006
-107.14905502014919,-90.44814361660937,-110.7362319912766,-117.21127972993554,-96.183361283069,-108.79502883048556
-90.75099659655224,-92.62654857813257,-96.83158824671241,-113.77026689893404,-105.18820274760562,-103.96317731176751
-0.7211819460711874,-4.681063537877158,-0.3751419748347805,-0.37555730566707024,-0.3063727584526935,-0.6673503170461957
-1.3680918716235235,-6.316107668328823,-0.050938965610017865,-0.6030243817374862,-0.09543847000676883,-0.3231915382244974
-0.5269147530374413,-1.3337555385095754,1.0456783555928029,-1.272785269692024,-0.8219743914410673,-0.4091578273249871
-11.210850383509294,-2.272130302713624,-16.3877373828928,-7.085074740941755,-11.939270750578622,-6.479390067147359
-82.01211870856272,-31.26570010505926,-73.81307204305354,-36.46866415507759,-81.92410411366193,-54.03288250402016
-82.23931120487472,-27.173864361647002,-79.41370390490472,-49.155314219701424,-73.5325402703764,-28.805966908950655
-3.1330305978021937,-13.286771057857544,-1.2520816911372061,-0.9025854502803428,-0.6453152917290067,-1.136033233659931
-2.731720384091929,-11.963840056409158,-0.28197505054753524,-0.2069363489595161,-0.2453969392776879,-0.8718873799014638
-0.5948410300787659,-1.7882370071040623,0.4074728475743285,-0.5225133861342508,-0.8135339191800558,-0.30508774105827136
-5.278646502328814,-0.0829302347384759,-2.7986590124860182,-2.905951219404331,-6.481236719732346,-2.785438457217559
-77.25218965299817,-1.944384297733016,-78.22402588403934,-3.382666366458011,-58.937200712384055,-23.690229570782602
-81.4326773505958,-0.737793640708647,-68.54827308502134,-1.799748766006467,-53.697860980932404,-3.852604665118438
0.0,0.0,0.0,0.0,0.0,0.0
0.0,0.0,0.0,0.0,0.0,0.0
0.0,0.0,0.0,0.0,0.0,0.0
0.0,0.0,0.0,0.0,0.0,0.0
0.0,0.0,0.0,0.0,0.0,0.0
0.0,0.0,0.0,0.0,0.0,0.0
-11.010239948420944,-14.57801140742419,-5.529332531335359,-6.296386888400788,-4.633843507812796,-4.994423781115983
-11.905649260027344,-15.448276970863024,-10.947884478164408,-7.00354313058533,-6.5552906104551045,-5.292411138728104
-2.087696960380665,-0.05838997483026617,-2.110258347714639,-2.337154569441365,-2.2410753829842838,-1.4386650935715513
0.05324833344103167,0.03479456034866691,-0.2464831968060585,-0.04007993426373503,-0.3311875409853083,-0.04180487407445046
-1.189156704713544,-0.1393159320513189,-5.366043170917309,0.056158345742780974,-2.289547359104061,-0.0819144926193684
-3.523603809314371,-0.439085737190192,-9.334820049059665,-0.027119421126968253,-3.225242539826052,-0.040875995351482654
-9.646536362286579,-12.416159003159953,-14.969717589994545,-8.684882206595367,-10.938142453488354,-11.795381378162055
-14.730513969622919,-13.785584592746163,-19.29105243669781,-9.571980218113383,-17.094470225669625,-12.580995510698497
-5.740303140940307,-1.853012654374729,-3.1023318505860114,-2.0706180140835793,-6.841894582685664,-3.2037058831987344
-0.007747912231686467,-0.045073618808680105,0.6611849805326713,0.0037603012226628384,0.06196405722177557,-0.028038431920178523
0.0,-1.5930031006210097,0.0,-0.0817699783027724,0.0,0.0
0.0,-5.256751101969202,0.0,-0.34380169805281546,0.0,0.0
-0.8744174504108418,-3.3794665236439774,-5.5866482108567785,-4.230840738153725,-4.342450294678502,-3.628450529866411
-2.2407742205221735,-2.4851441701585633,-10.052255822302133,-5.632625496858053,-5.7599170119076435,-3.6112857923120836
-0.9276707034425394,-0.7139229768294273,-1.7470502186852495,-1.0498337146767036,-1.8252717158245901,-1.106328560331583
-0.006851625324790506,-0.14211215620389833,0.6884498346129208,0.019510409600892776,0.009917948106012427,-0.00336980201947633
-0.1721837324439436,-12.178295524555443,0.09687897329904877,-1.3973541976765362,0.0,-0.036655433002055496
-0.7600716725301826,-26.15871938459028,0.4362901139655026,-1.2011825631891375,0.0,-0.12094738354423687
-0.019710217434035823,-0.21526019950312758,-2.6231080471965225,-1.5899089125325836,-1.3511034100346366,-0.47788711315416066
-0.44395211815233493,-0.6922822306365203,-3.3245041359950136,-3.7942527714248344,-1.8185552056668335,-1.8970929394083178
0.52454090296005,6.594151537361719,1.728002308588615,-1.507039070013574,-0.4415551466120036,-1.270984882547141
-6.766586640700492,-25.411136206447186,-4.819120812971428,-4.662953687970554,-2.715299043802454,-7.477603707909247
-56.07064014610673,-76.9825916988117,-44.6538715721134,-68.58219284726924,-54.6655574770493,-41.101389709780754
-34.42442885408449,-81.52572419317484,-25.352350240271175,-59.238092841773295,-50.25769050508554,-36.64143637810896
-0.23583088002603686,-0.20755269327347609,0.013838289672786903,-0.6011655899708719,0.15930065869770518,-0.18897051748134586
-1.8109637341118485,-4.110710579154161,0.4349065172722255,-0.8882262785647804,-0.18101288072387217,-2.202482208906488
1.5136664029446472,6.922978466745996,5.148995394845921,-1.3046198023100852,1.369028249257081,-2.559773945729053
-19.92694225470895,-35.621419523181984,-18.783892238438685,-14.574972551624949,-23.539158525763476,-23.09433660137385
-120.39581500495264,-100.84734700100215,-121.971831911533,-126.88752497210056,-110.02320421953239,-115.90499242160489
-94.0835397070876,-96.90504394730803,-102.17034133425514,-120.44426245646667,-111.55498648530018,-109.11735769351664
-0.5521338885217739,-2.59646835459986,-0.04422309275523473,-0.1628568779793768,0.11763165541564484,0.0688453882832982
-1.6059904725871479,-6.10355769238386,0.412288595233896,-0.41068686910160096,0.41687869150062534,0.05016715654684086
-0.3045868125305971,-1.998617222584165,3.2714483194798913,-0.7321838688272257,-0.5677675080555342,-0.36765429916790826
-9.174702992337538,-2.375658927057802,-14.147483729610395,-5.327062226830135,-12.903315142857466,-8.700709160915016
-82.41278741883013,-31.912732961738723,-83.42248786548303,-36.60498227129265,-86.69729302673188,-52.867620375494205
-84.66643349351344,-28.146478206968926,-81.5070611459057,-50.418150312752765,-75.4885732857883,-28.295569490110495
-4.305702531448915,-10.002614279085314,-0.2359737470904845,-0.4645077959378876,-0.03346468305118983,-0.12305788353140845
-6.2010041440964905,-13.079505621268778,2.561184676923664,-0.37107283997410295,-0.3114852572857525,0.008901149443803087
-1.0937147380503967,-1.0648250720626473,3.704185781088256,-0.26248628361861526,-0.727258123292847,0.03692285413357295
-4.27468225670105,-0.19653443387017963,-3.989615819125763,-2.525272870126482,-6.257596980361052,-1.6652941924697644
-70.49563296717662,-1.5285802250723517,-79.12490287549039,-3.1980320484299147,-62.606381246118076,-19.23027869638143
-79.244655249702,-0.7244680699171947,-71.82913711416533,-1.7025424952847141,-52.023392975799034,-3.9009456670652707
0.0,0.0,0.0,0.0,0.0,0.0
0.0,0.0,0.0,0.0,0.0,0.0
0.0,0.0,0.0,0.0,0.0,0.0
0.0,0.0,0.0,0.0,0.0,0.0
0.0,0.0,0.0,0.0,0.0,0.0
0.0,0.0,0.0,0.0,0.0,0.0
0.0,0.0,0.0,0.0,0.0,0.0
0.0,0.0,0.0,0.0,0.0,0.0
0.0,0.0,0.0,0.0,0.0,0.0
0.0,0.0,0.0,0.0,0.0,0.0
0.0,0.0,0.0,0.0,0.0,0.0
0.0,0.0,0.0,0.0,0.0,0.0
-5.771679666385075,-7.503067240887251,-9.793900516527279,-5.88394772604871,-7.139089781575307,-4.850137756086148
-6.8859629287485165,-9.277114810311298,-10.530716413602466,-6.684972789154555,-10.648832853170669,-7.170291607899845
-2.861192349043453,-0.6205131583584053,1.4186821178375668,-1.5217079909821305,-5.045568028911221,-1.4788955413099119
-0.014501332419104387,-0.0516916134375857,0.39016293364306803,0.00012589115505616877,0.053699878842343486,-0.02444633423655899
0.0,-0.53298026050572,0.0,-0.026965904832375015,0.0,0.0
0.0,-1.8389600401481072,0.0,-0.1263319656410393,0.0,0.0
0.0,0.0,0.0,0.0,0.0,0.0
0.0,0.0,0.0,0.0,0.0,0.0
0.0,0.0,0.0,0.0,0.0,0.0
0.0,0.0,0.0,0.0,0.0,0.0
0.0,0.0,0.0,0.0,0.0,0.0
0.0,0.0,0.0,0.0,0.0,0.0
0.0,0.0,0.0,0.0,0.0,0.0
0.0,0.0,0.0,0.0,0.0,0.0
0.0,0.0,0.0,0.0,0.0,0.0
0.0,0.0,0.0,0.0,0.0,0.0
0.0,0.0,0.0,0.0,0.0,0.0
0.0,0.0,0.0,0.0,0.0,0.0
-0.11775377316235336,-0.10179333129027106,0.4536550286353675,-0.3018301026219158,0.19286099614962862,0.02164451948380206
-0.6550953864311614,-2.7766870012561307,-1.6054583922756056,-0.9094622293841381,0.03156260322917561,-0.5675660822795477
0.8827223977488706,2.529969804778336,4.2986148206439445,-0.7269160963042768,0.6522761911554166,-0.9749224530369066
-7.828899783786697,-12.64949020554943,-5.691079590039283,-6.853004855576885,-10.656882092128953,-9.818962889373644
-44.890353597328904,-42.08696611896058,-45.15216461368793,-49.36951858032019,-41.031370971736855,-40.33112874872798
-31.97125308165884,-33.37038244664511,-34.113792818399965,-38.93515674719709,-38.00131523424483,-36.81652868913448
0.0,0.0,0.0,0.0,0.0,0.0
0.0,0.0,0.0,0.0,0.0,0.0
0.0,0.0,0.0,0.0,0.0,0.0
0.0,0.0,0.0,0.0,0.0,0.0
0.0,0.0,0.0,0.0,0.0,0.0
0.0,0.0,0.0,0.0,0.0,0.0
-2.0104264975015487,-4.640177659792984,-0.04075851991530439,-0.11325127531095487,0.09561308490693661,-0.08598058678716458
-5.004513152112148,-7.283243229368618,2.249662833650996,-0.2006677534685353,-0.0012581241802616797,-0.013812342602469132
-0.8173918944158262,-0.8749011444090526,2.3179654667983605,-0.12019688578605185,-0.3455251599366387,-0.0028763447934937706
-1.7536355718805474,-0.1421605942746595,-2.6675285294696875,-1.7174040922533065,-3.8160523454841684,-1.0161279085290056
-22.353632452818868,-0.5623380022013988,-29.038009048227682,-1.3297165678156642,-22.08628800645365,-6.197338212815699
-25.877811578151373,-0.2157942700375104,-23.44771533055166,-0.5575257009005463,-16.38458456463418,-1.2424476811928786
0.0,0.0,0.0,0.0,0.0,0.0
0.0,0.0,0.0,0.0,0.0,0.0
0.0,0.0,0.0,0.0,0.0,0.0
0.0,0.0,0.0,0.0,0.0,0.0
0.0,0.0,0.0,0.0,0.0,0.0
0.0,0.0,0.0,0.0,0.0,0.0
-11.83219694881322,-10.710407221028396,-8.240158803816366,-6.950958356229236,-7.57389421579423,-10.019155583804553
-18.796489639684452,-24.289226653431278,-15.247806581906298,-12.407654919282933,-13.948699402529414,-12.75418093791912
-2.982900106179614,-4.060901246102987,0.6490626915374983,-3.3862353520281903,-2.3970570275724876,-3.675370062467005
0.004511554247683937,0.10803361794518411,0.3712698422867326,0.013151365765257075,-0.19873576106164495,-0.08702883139830399
-4.634741360786023,-0.008780060774760137,-14.715088125097441,-0.6060341000756845,-2.5408697280843695,-1.6079641369026487
-13.748231563337061,-0.048482084997224895,-18.72867779057871,-1.2281294274510532,-3.146481450574343,-1.5298694759731566
-5.5569020625265715,-4.8562651346492025,-8.833066788998421,-7.042132545270202,-9.178197832482745,-7.660895103700707
-15.183456107171212,-16.575094374902267,-19.60375371149313,-16.745277139399093,-22.88733005140654,-15.076952782579058
-3.1373079275778797,-3.602671176777642,5.203521726334933,-4.055132919456796,-7.122118810979881,-3.758130870575436
0.01211545460990317,-0.040962791944302905,1.1531073272376617,0.08446294157946753,0.019593092741803535,0.0016018605365864464
-0.05384720113571979,0.0,-0.02042514342018579,0.0,-0.07285432896899614,0.0
-0.18772348274493944,0.0,-0.09363866458806756,0.0,-0.24803708999968888,0.0
-1.8247019285754293,-1.2141831226269795,-7.548692141774018,-5.31533051614719,-6.571878638397815,-6.107241137710981
-3.661518111738756,-1.7742478636714283,-14.72927899439387,-9.257784115533383,-8.068501928922194,-10.508493656908186
-1.2395142710195264,-0.5382616040135911,1.518177821976589,-1.9075620269147961,-2.179906338885558,-2.149528988570977
0.009580901313125714,-0.0922607837793873,0.6649052267071955,0.03777010387853395,0.0011446879344379685,0.0007445830491335911
0.0,-0.7879591709844803,0.0,0.0,0.0,0.0
0.0,-1.7046621923028988,0.0,0.0,0.0,0.0
-0.19724263883020995,-0.21024045021500753,-6.496663723518475,-4.014100097450933,-5.796574821208042,-3.9724930522852877
-0.7441784899745274,-2.570057742926299,-12.213092560498543,-3.6918663790179336,-2.88358261160389,-1.7113499505411283
-0.5581919377242877,0.5193082746443288,-2.6871332158360244,-0.89141505873776,-1.1512043213905967,-1.4240621006412983
-10.182707515094274,-23.44186101755039,-14.869196991029373,-10.571455613868745,-12.079655753049753,-15.368295703099127
-49.79666216112165,-88.9580248808651,-60.120464904200645,-44.10401892471035,-42.670593902648655,-53.35691583602797
-33.11783885908905,-70.94143405027064,-41.29273240183046,-42.26189112102709,-25.317974281706537,-43.48763922146747
-0.0472227076876053,-0.3528136972832935,-1.8916426535052366,-0.7399147861356884,-0.6740979659565652,-1.308203233682708
-0.360548812060939,-4.8910045629177406,-3.48222903011368,-0.571993600584292,-0.11378549459709406,-1.0215125718723634
-0.6917799283394718,6.03688889199825,3.7656282224129645,-1.5527360114411108,-0.8646870411338247,3.1866815649199127
-19.467381480148507,-11.626411799605542,-26.975140918387865,-23.52756647384455,-27.874586954027784,-26.133724890367606
-88.74496965472395,-78.48593133197618,-86.20358097760173,-80.92006209337383,-75.11006948314244,-80.21583917052038
-68.23856054371002,-60.82947448393058,-64.3191409822489,-69.1662622651567,-58.35801679600391,-60.97183176643339
-0.16586622056327685,-1.8963311272801158,-0.012143968608152525,-0.3947860203302598,0.01284135630757174,-1.9255407514073783
-0.78281454251302,-1.8602219084360396,0.25375981552425464,-0.0930050622731384,0.02598030368532529,-0.4004785387090454
-3.0051990725292654,-2.2979131513884576,1.9141265447077738,-1.0183084487190037,-2.06701772421278,0.6999221656178666
-10.094257569598168,-5.009495043367092,-13.351067516212737,-11.20688412260941,-25.982122047717574,-12.715171274341872
-77.05731589581805,-28.36804728957308,-85.75696693466625,-38.969493730095834,-75.124170250877,-73.57891937039314
-84.39084271426032,-19.55545911634606,-73.21548504091484,-32.3428659636598,-72.7950293831069,-26.940106125028013
-2.9327873978035606,-3.186463361833244,-0.12013763274758145,-0.06294444516079069,-0.17467580002066807,-0.7999978118008587
-3.504478978705163,-3.8916321236686247,0.48863895606056257,0.06506830918677807,-0.15250382113456445,-0.390545577830336
-0.9184118654408148,-0.6403395565737525,-0.3651400065794186,-0.03132862703576321,-1.1070789393625604,-1.2510465816615102
-2.893521064085878,-0.41649757498272644,-7.685979243673966,-1.7809068061635378,-10.20104156238824,-5.985884867338043
-41.834943036430246,-1.9209457156196688,-67.44135166615416,-6.9449302849639345,-59.71852567678402,-25.143304744309773
-67.98426459534771,-1.3695597854724273,-61.77874189534493,-7.943932490777225,-51.534160396114586,-8.269528601350038
0.0,0.0,0.0,0.0,0.0,0.0
0.0,0.0,0.0,0.0,0.0,0.0
0.0,0.0,0.0,0.0,0.0,0.0
0.0,0.0,0.0,0.0,0.0,0.0
0.0,0.0,0.0,0.0,0.0,0.0
0.0,0.0,0.0,0.0,0.0,0.0
-15.117523235604722,-13.824235802902363,-6.196989731797781,-12.000767707755125,-8.11290220210723,-9.837600748087407
-21.563933365483617,-30.436315968999374,-17.837867605920504,-17.739068096471957,-19.549181806907946,-15.815283690680605
-4.367058080233537,-6.649198150818283,-3.3078561323149116,-5.522769364616385,-4.23229848139659,-3.117325779144941
0.04953803363911353,0.18434740734530716,0.36329358407130385,-0.0014748967069339069,0.030279171928786104,-0.09614579497621165
-5.289892908586958,-0.004379363555386793,-16.324995467767714,-0.5471928746802227,-2.6046296259018984,-1.6188339006129764
-14.112125083334847,-0.0400616181932297,-18.81419713540805,-1.1147352502584924,-2.982048087302957,-1.5493192780421794
-8.843401860425995,-7.892383675370082,-9.205849875563407,-15.875621448763985,-8.115219142489499,-8.730803002671081
-20.012874143084208,-20.271704987589935,-28.913712075435857,-28.291630750229405,-31.020006312257575,-20.019197932770776
-5.014685613843763,-4.841151282189761,-2.1469531226789966,-8.066171999152555,-11.12301944117367,-4.820934657101706
-0.005854367132384469,-0.019625410452296658,1.3561685097535785,0.014761921914465664,0.04769966761261842,-8.394881349299793e-5
-0.08689758658424612,0.0,-0.03596731041606192,0.0,-0.09945339832485806,0.0
-0.30564411506551914,0.0,-0.14621579151003028,0.0,-0.34723086609102105,0.0
-2.187881101976508,-1.4776771902433756,-4.174657208400736,-5.689183891577446,-2.956756372572213,-4.806622216669997
-3.609059441624623,-1.4477804411328887,-13.91806338070083,-9.430828671045763,-7.723138992389922,-9.220131259997801
-1.1831289947740506,-0.6346346064022862,-3.0466442992366902,-2.2141353130616017,-2.712137016688509,-2.2234374863352633
0.0006171475250376088,-0.048192755266017274,0.6404986020163362,0.11715283522832329,0.0056015736609899254,0.000383510227409419
0.0,-0.863488974250162,0.0,0.0,0.0,0.0
0.0,-1.712698321210686,0.0,0.0,0.0,0.0
-0.11613042455720102,-0.31232872309314375,-4.638991800224652,-3.1035702754436096,-2.3701596710557427,-1.2719307072455341
-0.3768315674019922,-1.815320424674418,-10.961656931020173,-4.306930985232928,-2.508678721379339,-3.070964690444802
-0.2996959900900087,0.36279334384466755,-3.593578912437605,-0.27480242737579774,-1.357924797200818,-1.1433122609169177
-6.119711984678991,-26.249882105988643,-17.266788329872522,-6.282156055749147,-14.449348506070423,-7.950031673688237
-45.43214548388638,-88.45322617235692,-56.55414724962782,-40.52947751871668,-44.59556444897652,-49.607549097999474
-31.384791095194444,-68.7517178014199,-38.62688176681992,-41.59937211576878,-24.193748963086755,-42.79041791663928
0.050532040406048355,-0.3959418099693458,-2.0930812682830453,-1.3619191039248792,-1.4438272781392467,-0.8365543375262722
-0.32620715364322767,-4.760050388251066,-5.004564607075625,-1.1284575944048822,-0.45488335625076554,-3.579071468208368
-0.8391357444118004,5.594349011271193,6.344915639054736,-1.9003048905006048,0.2459152539308454,4.813638932361196
-23.271805358849385,-18.216703343747415,-35.523724618094505,-25.78067539626085,-33.324287566292874,-20.44362139383927
-122.3392262115226,-113.62138930600301,-110.20585737534596,-109.27579383990754,-112.97872502556298,-108.97737640623005
-97.79939079697718,-90.17416881594923,-89.62203496450563,-102.74328359455953,-87.07894230352021,-92.04299417985355
-0.5177667582475654,-1.5225430542464249,-1.0929003802619572,-1.31740661927631,-0.05522424146109409,-0.9469105670761254
-1.1543277192966683,-2.924549501264192,0.01565332911072141,-0.2071486112318715,0.03216397201918507,-0.3490030878328803
-2.36058552140649,-3.320699329525482,-0.8114261035130176,-0.6977613167018591,0.41091195170462347,-0.7905539570251937
-10.289301956079733,-3.2619456560486784,-16.13006567054517,-7.963833200605886,-13.507978794300131,-12.648269388377786
-77.0239149031013,-27.239268941642717,-79.1030987789887,-37.595892520159076,-76.18046433807531,-70.21405890677248
-82.54024498676797,-20.770382143554695,-66.62081831516187,-32.693189305861104,-75.07013186211755,-27.715391605594082
-4.586543760482918,-5.49532437322874,-1.0378335470689914,-1.8291319946346907,-0.32822950567009124,-0.8080271423401539
-3.9943103543920566,-9.818654076074786,0.075416115979841,-0.08837758670857189,-0.2355932426997396,-0.24950485364825117
-1.7170875890156962,-2.5836654785772204,-1.9273961457525541,0.03711052897479768,-0.9186474911423937,-1.8560524755448415
-3.3307759020598895,-0.08759543256951037,-10.454280395376411,-2.0567731194973846,-11.698143129990028,-8.157772181866072
-63.60636001125065,-2.5517368260940794,-100.58632498493444,-10.529977762476909,-82.0045933552025,-38.17797407403163
-103.70448212685288,-2.1368014371645194,-90.05057087922222,-12.772862555080074,-79.6184453879506,-12.627957310896408
0.0,0.0,0.0,0.0,0.0,0.0
0.0,0.0,0.0,0.0,0.0,0.0
0.0,0.0,0.0,0.0,0.0,0.0
0.0,0.0,0.0,0.0,0.0,0.0
0.0,0.0,0.0,0.0,0.0,0.0
0.0,0.0,0.0,0.0,0.0,0.0
-12.167230710874497,-14.009483621555754,-6.498592574981461,-9.38758236821098,-10.128444899423744,-8.168133202214024
-12.806730067438838,-22.35904292095193,-11.853536638532887,-10.459290107138797,-13.971726879384658,-11.324997670048448
-3.35085339629512,-4.67230365051273,-3.057824423428649,-3.0275492452767216,-3.1502355734636205,-2.4438854522111244
-0.00034590060295708926,0.048235539889106824,-0.08781141437943553,-0.0021608110070759057,-0.0006333881484903638,-0.019350864661691114
-5.959163719394261,0.007151611155186435,-17.511465289555655,-0.7064011499315346,-3.2796996565949224,-2.467391634947879
-14.203390340818894,-0.02992196549153413,-19.013557423142522,-1.210220626043302,-2.9304816192681344,-1.631458757884344
-7.073624564673952,-6.564740348437513,-8.57319378622995,-14.997255138363586,-13.865810019952235,-6.254381778262519
-12.181731620664152,-11.632309123386857,-19.765580912752547,-21.340570684017,-21.65783443966317,-13.964875865210775
-3.395710070038567,-3.1296803605330674,-5.395807437101086,-5.463461062140411,-5.744897829781616,-3.456181838976807
-0.021396130480630646,0.010336179239667497,0.2456461074085403,-0.026939012507790502,0.02998790800782239,0.0013330394765834579
-0.08615616582608189,0.0,-0.03427550030342772,0.0,-0.101291263196738,0.0
-0.30300643791352216,0.0,-0.13051660164678067,0.0,-0.351657355308317,0.0
-1.69824917047359,-1.2836586415026414,-5.692763207752947,-7.262882911914132,-6.579617559578976,-3.3805256256722727
-2.025230608107284,-0.9830460828790016,-10.972833306081125,-10.590378164917482,-7.195643117665521,-6.436547581229172
-0.6932266506432091,-0.47979281443556654,-3.8048040410668373,-2.6029843357365303,-2.3033351924818004,-1.556721690681851
-0.004070858784631148,-0.006565768215163495,0.14062003421845054,0.03930889973178784,0.006707879773889523,0.0010259975881222435
0.0,-0.8650048804988067,0.0,0.0,0.0,0.0
0.0,-1.755194580633232,0.0,0.0,0.0,0.0
-0.08695991033707898,-0.5200922770333772,-7.087078460812993,-3.9276754418829056,-6.8743895316624055,-1.0846152479051154
0.02634752008876416,0.012921588402465968,-10.578773363275669,-5.920132957290926,-3.762209221698513,-2.621826494668329
0.021422548143129227,0.04034862626243504,-3.362423172142563,-1.4627089040399928,-1.29293781216825,-0.5336253939740583
-4.9715387670601805,-20.79752309438542,-9.71131184314986,-5.126039493607357,-8.66566714810251,-5.183012254452217
-45.44471073574416,-79.35365636406448,-50.73651974584327,-36.85161012888322,-45.829952622906596,-45.58286963583634
-32.56086594844014,-70.82012574996374,-42.96115433936669,-43.76755720311971,-25.776422548324653,-45.10397631375477
-0.027174402154296,-1.7431221064521245,-3.438893470743859,-2.592671627356066,-4.27865914697577,-0.9055008723911225
-0.14883942382264084,-1.9502114227156484,-6.221681818324346,-3.358146519885022,-1.9293818611633224,-2.937282773382058
-0.173270713770684,0.9247956420758626,-0.6675020812203234,-1.351793073168558,-0.6275158940957734,1.7707549270404832
-19.130260493105542,-22.682167132397115,-29.129499316005692,-18.738149289529222,-23.96303934302881,-14.950411675767192
-117.23650618383327,-104.45691473460786,-94.41247060765023,-102.70145968599424,-109.8372721520456,-100.65676351972778
-101.84056442461876,-92.9969715841585,-106.77580664054841,-110.17706379973455,-91.84632289427456,-96.46648558622758
-0.7153425282040935,-3.3937120371342964,-1.027464905089744,-1.5980994581176928,-0.4805737914479569,-0.3906872178099769
-0.9234522013759224,-4.2063457358164715,-0.2586781256233205,-1.838650383122081,-0.028280331178280348,-0.4319750300623923
-1.4230807431713213,-1.7056825409082428,-3.204359921118707,-0.6876332394793622,-0.27991061997345107,-1.726936188293791
-11.68234171807775,-2.946182540820013,-18.944342757445476,-6.8151243529667855,-16.16075331712476,-9.919882317702145
-76.75600459570558,-26.114778797865277,-74.25536071442374,-37.97192249547698,-71.25574538586262,-69.42731846597711
-84.54202902343901,-22.59943389634915,-67.5269135904881,-35.38494275075485,-82.5508372985014,-28.72062088155482
-4.620565598960256,-7.738687086892559,-0.9403049853253156,-2.254539243349341,-1.047709706791693,-0.8182583910615451
-1.7199590218214391,-10.564084018019118,-0.04017547717958115,0.04060494287153465,-0.14822110628999702,-0.7693400069110762
-0.9621035071971736,-2.191166153390163,-1.1276397682285577,0.05097510292880166,-0.9089448501318425,-1.1293276880534233
-4.183885201582759,-0.05415690200748358,-6.865893168719755,-0.8008622851518022,-9.723598395810745,-5.317451423669715
-64.727196404548,-2.1683699612020186,-101.43829391410286,-8.588920920172885,-73.54748107356524,-38.47220605022683
-103.61855702633004,-2.2699816460724316,-92.08571966239349,-12.940058960355897,-84.27925051099713,-13.23787210864037
0.0,0.0,0.0,0.0,0.0,0.0
0.0,0.0,0.0,0.0,0.0,0.0
0.0,0.0,0.0,0.0,0.0,0.0
0.0,0.0,0.0,0.0,0.0,0.0
0.0,0.0,0.0,0.0,0.0,0.0
0.0,0.0,0.0,0.0,0.0,0.0
-8.404064980420287,-12.673373121063,-6.2929140554072545,-6.197895269518833,-8.003099396943757,-5.95075629695971
-8.847622343329505,-16.429597291225534,-8.338414571104435,-6.692327164576636,-8.619273034334299,-7.965803086027724
-1.6877290021209745,-3.084034185703899,-1.1361776288920689,-1.615138532452192,-2.0219384158462996,-2.6176037285109177
-0.007035325932202417,0.018374558847440037,0.022032730811405724,0.0021909669022105232,-0.2695683995285811,-0.030876902426150706
-5.439679748642854,0.0005191632643080455,-16.54336181261828,-0.6986936016973093,-2.9528369037966735,-2.3860646435272823
-13.980256664066166,-0.03967742371073486,-19.41599099739218,-1.1725021564948954,-2.927150829390151,-1.5820048944137988
-8.388912047520302,-7.364183231402627,-12.498852872322235,-12.24120158970872,-12.71301210965855,-8.062197663813292
-11.835891343122539,-13.91422140139582,-17.324046865754436,-15.741066563116433,-15.300260575967066,-12.600590151579818
-2.4797078625992692,-3.4689014643330514,-1.2608195126253672,-3.1155425314417813,-3.9315303129408425,-3.768016094368305
0.005401687250970026,0.00505945379678524,0.2363215248223604,0.036094544262838826,0.012686341903960298,0.0019997288703841017
-0.09667133229132954,0.0,-0.02964908221891973,0.0,-0.11240421197333644,0.0
-0.30750133149926145,0.0,-0.12167421356076652,0.0,-0.3590885571864972,0.0
-1.852680553009185,-1.2008048132367792,-7.864682933451763,-6.420785901279146,-7.238312983437164,-4.219013402623582
-3.2959910760635167,-0.9105791013488171,-10.098806717762493,-8.689495261644659,-6.2702107039703945,-6.0761993801623575
-0.7984675914433533,-0.14788656542487352,-0.30575467351471014,-1.366037695622045,-1.637680129272052,-1.4653477664884889
-0.0006389304390156025,-0.013919855242320487,0.12207501011483834,0.004392994578072604,0.002061237268260413,0.0015826363548769626
0.0,-0.7227059634334283,0.0,0.0,0.0,0.0
0.0,-1.5973953137311323,0.0,0.0,0.0,0.0
-0.29232686084813375,-0.22010790091658183,-6.299819007346932,-4.931947969801887,-7.0182078342830785,-3.0648266494990284
-0.32066979077962093,-0.30556719681906536,-13.725916557047196,-6.165543514106505,-5.191881934374056,-1.6288903265097805
-0.1832423265335036,-0.04476652046594269,-2.7031124281863046,-1.2956753186321475,-0.8531010003921434,-0.6635873786044666
-7.106147784172107,-19.017208025359096,-8.264987246168504,-7.1060904477443625,-6.88561233090085,-11.50187654016968
-49.91929912613462,-81.24464048153166,-53.11205326035771,-38.897652598377285,-44.17809923942835,-48.85245946745249
-34.283605675167244,-72.23702473238843,-45.58047343703584,-44.22823492438551,-27.456689058748818,-46.28835151976872
-0.15593087432167183,-1.3667661361692311,-1.896378124323875,-5.2533827225380065,-3.1360348202020547,-2.437828312129624
-0.4877664353518813,-3.5243106410051332,-8.24563619210347,-4.836892944981375,-2.2139680980986305,-0.8071651826246105
-0.19322136873518886,0.9343642225846183,-1.2170557555241952,-1.4218187112734013,-0.8976985645217231,0.13726631871356734
-22.59587768388448,-26.159004572192128,-27.3415461938592,-24.27790732657274,-29.680449131898875,-32.96407273423086
-128.29069971967604,-110.24854996138266,-103.03770755384616,-112.7186830389184,-113.4027019036378,-112.41382223900528
-107.08121433897617,-93.47520628116523,-115.59699622272359,-112.93855956236085,-95.68765611806414,-98.10565755280348
-0.6796597019552819,-3.3966485121662298,-0.08093202210312149,-1.243665711354724,-0.19371263924234886,-0.6212232516083768
-1.189422920463935,-3.2499464602398445,-0.1933210195316519,-1.5787444420644883,0.051297667842182655,-0.31225446548683966
-1.8170273563767418,-1.236476032474841,0.5134448349171666,-0.8262753852855734,-1.2696344791442693,-0.8973250862690646
-12.155797492941387,-6.578435093632002,-12.121369292500308,-9.438815991140556,-26.245554892466835,-10.214030402144685
-76.86740277112996,-28.462328089795456,-77.63415432545717,-39.6796432215898,-73.32018932675071,-71.92186410495889
-86.65621450208768,-21.31594186682536,-74.15302299241894,-35.891431496161765,-80.1669762175604,-28.199836646744664
-1.5548306787661763,-6.166787146804763,-0.22472260328774282,-0.8564463986109538,-0.5928107367783215,-0.7943240084070763
-1.5100759443212983,-5.368694198393893,0.6209987561837759,0.018183492042367754,-0.025874839518743763,-0.7054678401625136
-0.8922265515825794,-0.12722601782783402,0.5395403851392341,-0.11024865138601367,-1.0995750386214562,-0.6925776083816075
-4.653964845881707,-0.23405000196939327,-7.455879098456784,-0.954663086776516,-13.620731422253012,-5.290634226621707
-65.12444132890924,-2.6149818716055826,-102.19644467493136,-8.438402782457944,-81.85905241971433,-38.235240967212754
-102.72009195140532,-2.27279436277116,-94.03233757082731,-12.233951384582664,-82.53727578184625,-13.176072164096865
0.0,0.0,0.0,0.0,0.0,0.0
0.0,0.0,0.0,0.0,0.0,0.0
0.0,0.0,0.0,0.0,0.0,0.0
0.0,0.0,0.0,0.0,0.0,0.0
0.0,0.0,0.0,0.0,0.0,0.0
0.0,0.0,0.0,0.0,0.0,0.0
0.0,0.0,0.0,0.0,0.0,0.0
0.0,0.0,0.0,0.0,0.0,0.0
0.0,0.0,0.0,0.0,0.0,0.0
0.0,0.0,0.0,0.0,0.0,0.0
0.0,0.0,0.0,0.0,0.0,0.0
0.0,0.0,0.0,0.0,0.0,0.0
-3.5652701959651365,-3.7969233781781844,-6.474033941821704,-5.223612386075925,-6.454334572885205,-4.6539681818292555
-6.1605809136202785,-7.659382154788567,-7.978103106398208,-6.847693947130948,-7.440026892977689,-6.275092477475543
-1.1503981007712791,-1.397183597676323,1.299729988578542,-1.0668249261786842,-1.759595479594267,-1.919362261215364
0.003957855435727365,-0.00495975454137341,0.2441518890928695,0.0399159955683777,0.003779945700617135,0.000720130317134681
-0.029237363661770665,0.0,-0.00994790634108578,0.0,-0.038787390359835756,0.0
-0.10039580300157373,0.0,-0.04338016654676217,0.0,-0.11564527461505586,0.0
0.0,0.0,0.0,0.0,0.0,0.0
0.0,0.0,0.0,0.0,0.0,0.0
0.0,0.0,0.0,0.0,0.0,0.0
0.0,0.0,0.0,0.0,0.0,0.0
0.0,0.0,0.0,0.0,0.0,0.0
0.0,0.0,0.0,0.0,0.0,0.0
0.0,0.0,0.0,0.0,0.0,0.0
0.0,0.0,0.0,0.0,0.0,0.0
0.0,0.0,0.0,0.0,0.0,0.0
0.0,0.0,0.0,0.0,0.0,0.0
0.0,0.0,0.0,0.0,0.0,0.0
0.0,0.0,0.0,0.0,0.0,0.0
-0.1319842148508831,-0.5298290584711228,-0.4501426188043158,-1.4830433861098338,-1.4383326048590181,-1.7273959911953916
-0.24934839011239307,-1.5925643476057565,-3.5451675432318104,-0.5949652418471802,-0.34153869803577874,0.010886084786330609
-0.45368797686831785,1.3295694094258454,-0.04782616194815936,-0.6841266423552949,-0.5482782068589447,0.15025902957521464
-10.897821097330215,-9.066534013170386,-11.91085088795592,-13.710849014854062,-13.974977635098957,-16.29596154740957
-46.67037965952028,-39.07583955620156,-42.29795316678509,-41.67203128391368,-39.72743882778616,-41.953364684257245
-35.833199551691415,-30.8128427773332,-37.36939326658758,-36.3765408337418,-31.216142127061612,-31.425355954694634
0.0,0.0,0.0,0.0,0.0,0.0
0.0,0.0,0.0,0.0,0.0,0.0
0.0,0.0,0.0,0.0,0.0,0.0
0.0,0.0,0.0,0.0,0.0,0.0
0.0,0.0,0.0,0.0,0.0,0.0
0.0,0.0,0.0,0.0,0.0,0.0
-1.080613732447432,-2.408045222434987,-0.054901114734829476,-0.3181085107532897,-0.07413787878463475,-0.33620046806032194
-1.0076672556092938,-1.3383236913364611,0.4507161576279194,-0.0034670461812635147,-0.010377428021108916,-0.21358934152936349
-0.578715790662543,0.036347112586415126,0.36411473676541206,-0.04278118118935963,-0.4771041995716767,-0.39329632696680816
-1.7100059718865475,-0.2082763627235796,-3.339542032021518,-0.5976855650657616,-5.313949469053244,-2.4954589880356632
-21.261305443601245,-0.8968564399965616,-34.512425723120145,-3.262403292415419,-30.118524365607964,-12.665137849154723
-34.00694244462436,-0.6538288181630005,-31.198568847113997,-4.14375863431814,-26.338390992132574,-4.18524106757499
0.0,0.0,0.0,0.0,0.0,0.0
0.0,0.0,0.0,0.0,0.0,0.0
0.0,0.0,0.0,0.0,0.0,0.0
0.0,0.0,0.0,0.0,0.0,0.0
0.0,0.0,0.0,0.0,0.0,0.0
0.0,0.0,0.0,0.0,0.0,0.0
-38.045215776991455,-39.14622896454829,-43.27765550604299,-35.917366019040756,-35.562082462495894,-36.25256343927825
-17.261452901128706,-16.56253774362632,-30.341987763414355,-25.438461746192935,-21.223180001546943,-25.686193636021002
0.3047620401732351,7.593093691960951,4.984736300521291,-5.4288603078727995,-5.9900902786192916,-3.6191767866016984
-0.041819874563586885,0.46455040027475025,1.0636666796265761,-0.22840508479435645,-0.05876505587587949,-0.7636622523015681
-0.9598816993554123,-0.07915047631952236,-4.873584150806566,0.053416397008330986,-1.6987648081434994,-0.41375696602547063
-2.531120351091573,-0.2629750641327908,-6.8871315007658325,-0.08613052906547697,-2.1919935711569947,-0.06483814524038724
-38.419596780098495,-37.55895733836074,-42.08257094187227,-50.77581292945226,-44.68269738619683,-30.291627225932075
-25.367730827292327,-19.207319250765906,-22.03189345622701,-35.35698209171873,-23.97875517788587,-28.231865783890843
-6.836310960084054,-2.047734895553432,25.7578649845774,-6.23728895336228,-1.6702247370765633,-3.6499827665063247
-0.24587502106523515,-0.8636702219944058,-2.294361701455616,0.09932652154517452,0.29294955044639925,-0.20007932098900366
0.0,-0.700313186264686,0.0,-0.03206270025199494,0.0,0.0
0.0,-3.274748830416697,0.0,-0.1437297669836635,0.0,0.0
-19.82996322393185,-27.249330624149202,-36.853767920006725,-29.743440061447554,-32.20556858043918,-33.17030162243663
-13.412166023018399,-13.139505427079149,-28.786633605116997,-27.431972910722486,-21.069557877869958,-21.637070583883254
-3.5337220269318474,-2.9331611752395466,3.1865970713082192,-5.154786573703836,-1.324432669337446,-4.761586108737706
-0.143965003404144,-0.8905087781612027,0.7568953671959554,0.05765959734959578,0.13858586838432121,0.06595448987502543
-0.13515076730746736,-8.758013923405922,0.07502690311830444,-0.7174956987658678,0.0,-0.01678622007729005
-0.5776686461373471,-26.827567800054393,0.3259516472522207,-0.5835302967157021,0.0,-0.05758530584296778
-15.283816413175186,-12.298557903656842,-33.96307208318457,-36.31112950104965,-38.333785289064,-24.04516821341092
-4.57117241858804,-4.72908052714765,-29.922769260976565,-18.722090207387048,-16.71838956662239,-5.828223815305898
-2.0527366934513434,1.706515946055566,0.49386054385184885,1.2456511179399665,-5.513037164080281,-1.0522033835787186
-10.65256802182631,-19.484504636237393,-6.59572148489179,-9.075154451321286,-7.02974519171345,-7.343094264922572
-40.550304402204965,-75.96366065796923,-32.21300639526422,-56.63641862780705,-43.685505010097934,-28.71134633034107
-18.806938991634244,-62.17142843282624,-13.795675941766106,-30.705934159221837,-24.90105267538311,-21.7556083159644
-18.691287633800954,-34.62824588853144,-6.459326680535061,-17.245585817308037,-0.45256730003912615,-20.207494508003457
-5.73177179136102,-11.88294097558691,-12.644517412065587,-4.90240131351831,-5.407849685606425,-6.056903224947076
-6.78765469630287,0.06729186130479115,-0.130966979696739,-4.664051613649482,-8.250688167357978,1.8499906401240305
-18.862732309315266,-13.387113939784077,-10.797660075718724,-31.67815946598769,-15.020686271174602,-23.866893012768607
-68.32153993116653,-71.30968604456551,-63.78734061778198,-67.82406536391939,-65.97581235864737,-67.11483759724452
-47.24722809391267,-46.86099586453071,-44.5789217620728,-33.738099391832044,-45.65937404134735,-46.27911435337207
-29.595655341297363,-28.596528140942223,-0.9064165113742624,-0.8918452286761192,-5.695074481007859,-11.229125018695287
-14.981795900213347,-11.3683986428651,-0.15440007059379485,-0.48401182494358624,-2.4708199061028235,-1.5810087742200285
-3.737691189209646,-3.184500296013015,7.583543263595926,-1.8265444516558156,-6.358725961196573,-4.070189802551976
-20.534883402823034,-7.512925299122276,-25.526589666409237,-13.965759735277771,-23.368476038501342,-31.934241186201078
-88.08939129956788,-25.07432098019322,-88.54906927079753,-58.375411121679036,-88.59799830203309,-78.6570898631698
-56.1180549399017,-15.725241419671766,-56.707997810706686,-36.559948415020614,-45.96901828705466,-20.405507740067925
-28.18803334228612,-26.91020058950216,-5.140681952955379,2.0284996885271496,-4.457471717267383,-18.38250795053774
-21.688334148396475,-24.401900480085065,3.9096368003203334,-1.1247116073915127,-0.2483307397379879,-4.562916390264613
-3.8135774862075196,-3.3199714282374226,1.825749228445051,-0.06356864270914961,-1.9958498972824403,-1.1671814445453497
-5.62239511704677,-0.41305872167554775,-7.4723905151776915,-3.26588799254703,-14.738703574006509,-6.034224117073134
-34.14501569518093,-1.0956058418231116,-55.60922790780817,-1.2119424488845965,-39.30028069023315,-20.46394564355074
-31.184484484872897,-0.21280468091539573,-38.28261827541485,-1.7891875715427186,-20.45562567981454,-1.9370746171193882
0.0,0.0,0.0,0.0,0.0,0.0
0.0,0.0,0.0,0.0,0.0,0.0
0.0,0.0,0.0,0.0,0.0,0.0
0.0,0.0,0.0,0.0,0.0,0.0
0.0,0.0,0.0,0.0,0.0,0.0
0.0,0.0,0.0,0.0,0.0,0.0
-35.04350076569287,-25.98818536508308,-36.86684607737407,-24.12591177094435,-27.432656185132362,-35.76772184225143
-23.367098920738947,-32.10468013112435,-45.79727405367537,-27.627740636143294,-24.627088010363494,-25.533874969495972
-1.4050894420307958,1.1978570677925233,-4.424312339583173,-5.460937929137136,-1.6726300514326031,-5.327901873163004
-0.1299715297667516,0.5427176941569565,3.6986600650321906,0.20725196570329615,-0.07589969163365239,-0.5365353958138281
-1.545860862975406,-0.08338047883879185,-5.080081055187173,0.04033386797792779,-1.604459633321976,-0.6435663841520762
-2.618760773471929,-0.2804746009732393,-7.011707441739715,-0.09978136635969699,-2.2476112976956975,-0.0835102767847731
-35.73567986900807,-58.172779826795164,-46.36235428426372,-33.273008495434325,-44.57293789780514,-42.55258417933079
-32.62419820341669,-23.85413841470872,-45.52527559578765,-28.91013993303653,-17.313183738994116,-40.37932848723551
-5.916612126318322,-4.108586572045526,9.04006819062964,-6.052621906932034,4.637017325431478,-7.35060116302219
0.07168603244434403,-0.46667292871281935,-1.8623807738459006,0.05257067479373113,0.5450380487961922,-0.1706600215180225
0.0,-1.186498612829752,0.0,-0.059210645492161144,0.0,0.0
0.0,-5.0216928470934885,0.0,-0.2403573811041696,0.0,0.0
-20.01745111508924,-21.255944550808895,-39.52797186919104,-28.456012523372532,-23.098163770498545,-32.094221064282685
-18.363564207774804,-8.71459555487882,-32.92416886935357,-35.82151125034364,-21.552292000859914,-28.36825332860026
-2.9265195902146752,-3.5133743430198425,-3.0361088347889877,-5.570637095964321,-1.28370107077701,-5.114673710525298
-0.05589453631458525,-1.3647902426741276,2.502728631162597,0.15773823038143667,0.5975822212729736,0.06005828991141446
-0.15223995367790388,-10.0687356704942,0.0798012844941211,-1.2383172152882445,0.0,-0.018381120707331555
-0.6148631227362854,-26.938080431846803,0.319376988336693,-0.5991532131410522,0.0,-0.06277610350928185
-7.746204129207246,-8.435257311821193,-42.84783830731618,-40.14435831139892,-23.901039996285295,-11.302098040956883
-2.2277160914133174,-7.086169143726814,-27.332723110534825,-21.41459015137326,-18.371677243034537,-6.380983875965876
-2.3303202346586516,3.230291099854977,-1.9811484799826855,-0.32612455603513085,-4.421449895622052,-1.9525137854513706
-14.758223358106576,-24.457581123913197,-9.349728963573323,-6.347952934816612,-5.9961575583700535,-10.179485486759736
-35.880358806169475,-70.03180464874964,-31.979337069857376,-52.54362872721108,-39.574536240976464,-27.50360539623995
-18.180355755977665,-59.62598911233073,-12.572344015583981,-28.285702724860162,-23.612824834150057,-20.663951162777437
-37.65086050213792,-32.269082766757336,-41.950927129665565,-30.90042498667562,-29.238219937099736,-37.74105842131887
-6.7001114050040975,-14.223146790551754,-21.176770414833797,-7.876204599359701,-10.222064043087988,-11.659496102999393
-12.07227152123604,7.139899397669631,2.750247910196427,-11.609591234645979,-10.835184311876947,8.657435736628377
-32.12773555718375,-16.552492760226958,-18.375303393027785,-43.45578658630909,-5.880773120273931,-25.425353729799205
-76.21215453178809,-87.36687314139404,-84.38518015615826,-84.02752576562143,-81.03376482217794,-89.89136200871991
-68.47048045297817,-67.44767095090243,-65.12773027522601,-48.610185916738466,-66.05205833455256,-66.42829343698432
-38.62626841075608,-33.973478563674206,-26.812566226072676,-37.74187768448893,-20.864195568389146,-26.848148065937266
-18.909909394848352,-14.064346655365462,-3.211068110765773,-4.663679387243704,-3.213994769279403,-1.0266029681669573
-3.9584342948061604,-6.231388490689487,4.364495162141486,-2.719646130435941,-10.476365510018267,-3.90462524457276
-23.200390352869423,-9.465848032984402,-27.366939100568892,-15.168625787942272,-23.947146735172296,-30.481967824907684
-92.46212622749721,-24.384188199009714,-77.40091239647728,-46.97306345413483,-97.67227869662102,-85.26979928918016
-54.58805408011608,-15.249012404499151,-54.753358252094266,-36.46821245561053,-44.5965244815851,-21.107141141746073
-34.56755740742373,-17.889636528222564,-25.097738678461486,-19.508892094674273,-21.223501777696494,-26.34951462565166
-28.181938094983906,-34.32071689707874,1.5091047809055729,-1.1041615227778954,-1.1171789802931096,-7.512227864879504
-5.369908064171745,-6.7057561522192755,0.06372152541924998,0.11332641612397028,-3.9269407243181504,-1.3847682690894982
-9.224798293369549,-1.7595539258323003,-9.714412231516741,-4.8222557812133315,-22.349926777956192,-13.653666207168206
-62.94923636103966,-1.8739314079704232,-82.51398408208175,-2.241834178289557,-66.70490831887501,-41.098623034697766
-48.19324621304397,-0.3328889498890941,-57.302159296820506,-2.4683534426745113,-31.47890125350748,-3.1949084624861053
0.0,0.0,0.0,0.0,0.0,0.0
0.0,0.0,0.0,0.0,0.0,0.0
0.0,0.0,0.0,0.0,0.0,0.0
0.0,0.0,0.0,0.0,0.0,0.0
0.0,0.0,0.0,0.0,0.0,0.0
0.0,0.0,0.0,0.0,0.0,0.0
-32.71462119300986,-25.915883582007133,-35.61200450919333,-31.825519586652117,-34.51743945580576,-32.50226188497277
-34.16853827660602,-41.410802045315634,-26.73604729270912,-22.983571237124764,-23.27191857153904,-22.422567878874712
-2.8250820419406106,-3.6673608458948386,-9.706043813595807,-4.707627723741178,-1.9647430225501652,-4.496062413183943
0.029817078865245004,0.2797091065508135,3.109629437855206,0.0523087038771436,-0.3328035213315723,-0.02487026139197786
-1.8162716450681282,-0.0797049433804121,-3.875819814095492,0.0670996652306411,-1.6303617835152746,-0.4548531563500486
-2.4900123203334394,-0.27914917689039115,-7.0648928570764,-0.11019874100520641,-2.3985539753132623,-0.070721214153356
-37.102176525043575,-45.15185260764427,-36.68958235920587,-28.976716578534273,-34.053950542496565,-36.400512797988945
-30.41600933346908,-26.462759644300053,-43.693275225524054,-39.44481722897022,-29.357934376916212,-27.000505688866358
-3.612883086480025,-3.9953360901424486,-17.80839392762237,-5.125115152953079,-2.460708766165665,-6.084972986765971
0.10603201360344554,0.19320803220320018,2.3581821830605305,0.1029264057446043,0.32422256869541166,0.013854571216776109
0.0,-1.1141226712360082,0.0,-0.05549346179958562,0.0,0.0
0.0,-4.845861173242048,0.0,-0.2153725583397696,0.0,0.0
-24.309154369921156,-18.277391824411595,-34.05582097302986,-25.37616531521044,-26.278715354805875,-25.10073588243488
-16.529775498042483,-4.251158745514651,-25.843574100492447,-29.68732188156138,-10.614199186643061,-24.32637403056874
-1.8931159071459982,-0.642617170941391,-9.061700496279892,-4.721936217580265,-0.4201725992292139,-5.256212847312977
0.045115155235639616,-0.42493599195911136,1.4022732817711512,0.07457860361384652,0.7436881103106154,0.0016850796462087037
-0.14439430575355516,-12.866177957386327,0.07529101946934105,-1.820421189209283,0.0,-0.01631247931389034
-0.5706955699258539,-26.884633291291525,0.3045903440557905,-0.6065199373005351,0.0,-0.05928298110528578
-10.13335682564225,-8.852978487059849,-56.17035864354845,-33.645886768161546,-52.33086448142583,-20.030119946396145
-2.3765329920330314,-5.082212886286303,-23.543752415512014,-17.125660521272632,-11.931009837127407,-7.653094436430883
0.43447128842414395,1.0670705409589114,-9.20130442816713,-5.82075989518167,-2.259551417523199,-4.320389624742334
-14.930776195709598,-38.35348943068003,-12.799084205016143,-7.654999720662846,-3.485048558348875,-10.322844694166179
-37.1431871655517,-74.12833256894878,-34.78038044531616,-50.860617839143146,-32.80576603721654,-27.737995330182986
-18.19376661473923,-60.61424970412477,-13.313156650348182,-30.83472321170524,-24.11709758604804,-20.947710134705805
-23.665154437816184,-4.344544386002329,-21.801035562071558,-17.160417577390128,-50.459758817542514,-37.43797266699561
-15.953702807398887,-23.169336064440383,4.402693795865757,-3.3513954484617576,-10.025570673610055,-10.222761495005614
-5.906202201881659,-2.05053575309093,1.6275024005345096,-6.229627115266031,-17.313049298821078,0.8168169610909394
-39.88223741599288,-40.41593657981286,-47.629159906277735,-41.5480748344053,-30.43613358834787,-29.454099102692727
-74.34918512183266,-69.48670796083651,-78.97200841796878,-78.13488055569714,-73.71434451991107,-89.46392386996945
-67.8809409339874,-66.21658770213806,-69.72679733450312,-56.04954034298979,-67.98773732831592,-70.2997526014941
-47.13259732289398,-37.47260067346846,-27.57574401409318,-31.673063151361347,-7.585745414611597,-31.75944422948561
-17.09337707234031,-29.918178688445316,-3.0785247014262507,-6.593985317142725,-0.13654790940795142,-6.695335397726893
-9.483537544652785,-1.209593802356296,-1.768928535353995,-3.0968182812437544,-5.7159229449096935,-2.850155033837854
-14.775555755974384,-4.354391174929762,-24.20639137169375,-15.052679075052714,-19.968072462045043,-10.296873953216652
-92.74890315715538,-23.091831355340172,-66.39457271187524,-35.364119213039054,-98.18161689317121,-81.28567228734812
-56.55919088876171,-16.371065032384223,-58.41819757619973,-38.453078452972505,-47.76897323315396,-23.233623692592104
-35.47472079105333,-17.2368259665636,-15.612021876929772,-30.927542875217227,-3.646367931612282,-42.36171180549119
-15.526443494163225,-37.501866288384996,-3.346070424189145,-2.839937446705074,-2.8233843083335195,-15.844929512893707
-2.0384727811282284,0.20867015965401994,-8.502870850741912,-0.9803142137579959,-5.304460814690797,-6.16775564684877
-7.326286203124854,-0.8098721200858968,-3.5256056382096617,-3.6836772652286616,-12.801041591996846,-4.51411910211822
-68.54871960956375,-1.5837314608499666,-71.56933863647757,-2.2507380673007638,-59.34444648754341,-38.71421726607939
-49.43234531404791,-0.43545617326495173,-57.265140698807365,-2.6655174694183925,-33.52706984794644,-3.6545276501847486
0.0,0.0,0.0,0.0,0.0,0.0
0.0,0.0,0.0,0.0,0.0,0.0
0.0,0.0,0.0,0.0,0.0,0.0
0.0,0.0,0.0,0.0,0.0,0.0
0.0,0.0,0.0,0.0,0.0,0.0
0.0,0.0,0.0,0.0,0.0,0.0
-26.465549259433637,-24.55979049170605,-30.154190840740466,-35.3004297639601,-22.68733782006496,-45.211027640183865
-31.342234609922055,-34.50523512101164,-16.654886486639505,-17.79573713488446,-18.11994699344155,-12.880708076931372
-1.6251684280259113,4.4386802456719865,-2.9917793023319206,-5.4198404406475795,-2.881722766787591,-2.0145246084052912
-0.1515825990708683,0.01959117582503538,1.5801418986722924,-0.07520088148982033,-0.40162536157822504,-0.2531822030135099
-1.2112422097878808,-0.08641678373702817,-3.6441398417504294,0.08503618202650587,-1.5801298283915055,-0.18347294672302883
-2.366825400654987,-0.27198849590778584,-6.989757214227786,-0.08501426526982754,-2.2106356555121907,-0.04025432464384917
-40.939054971556025,-48.18155540640166,-48.98063739606805,-31.6579115890015,-35.52727578182958,-25.30611045574609
-30.52378990224499,-27.146580845205346,-24.67021744341174,-24.843728869838827,-28.357411335050926,-35.738450911426874
-4.980940787312338,-2.0798345333883423,0.6863453520751609,-2.98785337117965,-6.29305873412409,-6.793660129685781
-0.18511211633625357,0.038729174289746045,1.8408983192290505,0.059128464257134195,0.04779752005728556,-0.0391798296931315
0.0,-1.0431021587397555,0.0,-0.046654707148981525,0.0,0.0
0.0,-4.696009359511084,0.0,-0.19615961594834921,0.0,0.0
-27.40248199871813,-22.022419257062104,-28.473343215654698,-33.33513457995662,-29.376209564990187,-27.524183043909478
-8.536332565569666,-4.4718006449001075,-26.384406077099097,-14.56039493500591,-21.30486281368221,-18.160531004835132
-1.2645109255151556,0.1969102611316567,-2.441802296752359,-1.145691390738633,-2.6032151219658277,-4.844881951112696
0.016373761558403532,-0.1006061065230574,1.4498064958270862,0.039075710124218246,0.017854907191589168,0.00046791594512376593
-0.12604627045249883,-12.657232748610898,0.06476967551079647,-1.372400249092778,0.0,-0.018713651994619607
-0.5426994346257143,-27.06832289684164,0.29168733057157054,-0.5887718885456885,0.0,-0.0617471152279037
-13.497877369393862,-11.93822125690064,-39.721738978719806,-30.67810072747019,-73.5338095680516,-26.19289845973433
-4.073960266457536,-2.236797060608991,-27.26702086495727,-16.243776525853317,-14.483269101692661,-6.840032305906593
-0.4936869925840682,8.155816352214888,4.096514936582544,-1.6054380466691083,-1.974802802186469,-2.742376147894574
-10.41595280637557,-32.61911249027384,-10.436740081757263,-7.302215485318439,-3.3260911773102477,-9.127180898089438
-41.292827747114515,-77.76007383679679,-34.81919269459449,-53.64735964819803,-36.94964314332562,-28.81489065909318
-18.764089117003127,-62.58578421415935,-14.674053588441238,-33.09847034230008,-25.271952940831618,-21.738707288565962
-26.24097274417876,-25.315448207179,-5.572653255911915,-4.335700215156034,-11.769289529816326,-16.145699902658674
-17.41971099843965,-20.79114253126604,6.062516691157298,-1.1498643739565968,-8.14858820811051,-12.10222408931032
2.148211176832491,2.4566329910064133,-1.2644712060419705,-0.9939488766239626,-14.818588960800566,-4.375144321964155
-32.18722206749169,-47.857450488703265,-45.50791657012398,-37.33085931148771,-41.58713252153416,-34.08317315987555
-98.48783335490495,-82.17385667827504,-92.7613264150889,-97.46743843193556,-90.73802379104053,-98.10575506945891
-70.87527384269582,-69.18790520926397,-73.00269350778336,-58.75449326935945,-70.84769450701575,-73.63598960252335
-47.51652366000329,-23.305233456006583,1.3196828951334145,-7.998687034867905,5.83447088937126,-18.970324799063256
-17.032134789327376,-22.315052809663527,1.7602104821824331,-5.564415238300077,-2.5784026557283686,-12.21525077763522
-1.9923937573759642,1.599198062012088,1.9406741459186727,-2.297696754295815,-2.203864944643677,-2.2100593283315395
-10.043116349001528,-2.4892589752494914,-25.550834289606875,-12.891285383071281,-21.13635684551121,-13.493722821192192
-87.0893379865575,-23.250122879583365,-77.90421001367959,-49.77648598647161,-90.02432024999366,-76.98218511127996
-57.92585174364594,-17.110239612548266,-60.2297722758763,-39.92371096936423,-49.547130214019774,-22.546102041878274
-60.54180289504961,-12.099273220888545,2.8642994520607785,-12.130203108287427,6.172399646343843,-32.20595257592996
-22.863736695080107,-38.01137709446313,5.535736050123822,-5.15196472441277,0.5563453288203644,-10.252579244514527
-1.6776814873188979,7.916857457302965,1.4295006619283523,-0.6649071575638664,-1.6218823435564629,-2.0474733819073636
-4.765114356503003,-0.5915249429703565,-5.697421548954274,-2.17598650801923,-9.188101190442353,-2.006699358487683
-57.93566903457056,-1.282557080678045,-71.6608635079741,-2.25601510621736,-53.07258264220196,-28.556052937882708
-48.124578780568406,-0.4265341736726008,-60.89155097476022,-2.496627107288948,-32.66327073725911,-3.3422644889623205
0.0,0.0,0.0,0.0,0.0,0.0
0.0,0.0,0.0,0.0,0.0,0.0
0.0,0.0,0.0,0.0,0.0,0.0
0.0,0.0,0.0,0.0,0.0,0.0
0.0,0.0,0.0,0.0,0.0,0.0
0.0,0.0,0.0,0.0,0.0,0.0
0.0,0.0,0.0,0.0,0.0,0.0
0.0,0.0,0.0,0.0,0.0,0.0
0.0,0.0,0.0,0.0,0.0,0.0
0.0,0.0,0.0,0.0,0.0,0.0
0.0,0.0,0.0,0.0,0.0,0.0
0.0,0.0,0.0,0.0,0.0,0.0
-35.8499796801018,-30.5077219343638,-25.1211440529972,-14.75623210784448,-19.99621964845933,-8.513678261150162
-11.708155138612431,-16.21226347161998,-16.136421456699924,-10.577393290756895,-14.787949846650436,-19.094861396964657
-2.4756355696127246,-1.0589497075570429,0.049835569396999596,-1.6426809702020233,-3.953346754015279,-3.012583788468874
-0.010295716508677303,-0.06916918237806036,0.05823171147934824,0.01896737214485374,0.0448751956696645,-0.0357574397023005
0.0,-0.358517268997163,0.0,-0.01538567600328088,0.0,0.0
0.0,-1.6343356246876202,0.0,-0.07208001008284548,0.0,0.0
0.0,0.0,0.0,0.0,0.0,0.0
0.0,0.0,0.0,0.0,0.0,0.0
0.0,0.0,0.0,0.0,0.0,0.0
0.0,0.0,0.0,0.0,0.0,0.0
0.0,0.0,0.0,0.0,0.0,0.0
0.0,0.0,0.0,0.0,0.0,0.0
0.0,0.0,0.0,0.0,0.0,0.0
0.0,0.0,0.0,0.0,0.0,0.0
0.0,0.0,0.0,0.0,0.0,0.0
0.0,0.0,0.0,0.0,0.0,0.0
0.0,0.0,0.0,0.0,0.0,0.0
0.0,0.0,0.0,0.0,0.0,0.0
-16.919688524574084,-21.518488647253132,-6.547796002626686,-6.813914899504558,-5.359503722679391,-8.446003326590082
-4.387359543873173,-5.933341986814621,-8.0353864864845,-6.612807789528979,-1.6163408223126852,-2.354705057152327
0.9213847682399329,-1.350683171798479,-1.7567744844469502,-2.127597310672884,-7.085132904329808,-0.8799638834390486
-9.833050436064608,-15.165125788890743,-12.865396402521737,-14.293640960409578,-15.480833720423522,-12.91077859472661
-38.037045962898,-35.337676611906765,-35.12811649626664,-38.28501453945744,-33.406575522729135,-34.08061525840985
-23.938924377530835,-24.351714972741327,-24.463178887421755,-18.65007990069403,-24.28829957193891,-24.844332039017992
0.0,0.0,0.0,0.0,0.0,0.0
0.0,0.0,0.0,0.0,0.0,0.0
0.0,0.0,0.0,0.0,0.0,0.0
0.0,0.0,0.0,0.0,0.0,0.0
0.0,0.0,0.0,0.0,0.0,0.0
0.0,0.0,0.0,0.0,0.0,0.0
-19.485031723882877,-17.833788811470587,-0.9172283226871677,1.506659186070987,0.6577236913766922,-6.855566733497459
-20.24544131702287,-23.7979210615818,3.1477057340197314,-1.5339230629075544,0.2283741997128026,-0.636598399230574
-2.0200148488790894,-0.12935876820939282,2.2333293566747834,-0.32384200641788563,-0.5632170784671312,0.19002947845042362
-1.7326947344224608,-0.21053882724527745,-3.3473021749464658,-1.2426830322390305,-4.619018966637984,-1.0351200253337862
-16.87916400566844,-0.4787763790313899,-26.225615722176045,-0.8840884048568909,-17.45344388246992,-8.238717987510835
-15.59666107061093,-0.12088500414544164,-19.67358566170125,-0.8532691859093366,-10.202989924464251,-1.0372454338881494
0.0,0.0,0.0,0.0,0.0,0.0
0.0,0.0,0.0,0.0,0.0,0.0
0.0,0.0,0.0,0.0,0.0,0.0
0.0,0.0,0.0,0.0,0.0,0.0
0.0,0.0,0.0,0.0,0.0,0.0
0.0,0.0,0.0,0.0,0.0,0.0
-41.026335227207106,-48.72897444814671,-39.16487845271162,-39.72278018218005,-37.545670308577435,-42.49484600390244
-29.630680996834897,-22.095765100597635,-23.124771048226513,-22.120137189844844,-16.872349458746953,-18.933099266998575
-0.040710314315658816,1.943960528245543,3.397710888126762,-3.78801952768385,-0.892654553683896,-3.2663296444305225
0.13568524504578847,0.3364095477807693,-0.10628036200952254,0.019167617710214226,-0.22410189864996177,-0.2769000941280957
-3.1428144947494485,-0.01599102909998283,-11.631844256691988,-0.3468622913433272,-2.1314138071681263,-1.6351918765165068
-10.814252391566464,-0.06884861752974175,-13.039499034172675,-0.6547993967590472,-2.2634048387210584,-2.465969864845688
-35.46209469336418,-30.340367676447325,-36.72152040192612,-39.22800013852211,-40.32835821064531,-33.24894854247524
-26.507055429423804,-15.382899556598854,-24.561101479851313,-25.558013868029562,-19.616274391410254,-28.522362908797124
-2.750112598312391,1.3806038682786097,12.06880497468305,-1.9894402582997723,-3.8884206146040095,-2.8878217796499652
0.11482895670498723,0.28334315708802255,1.304861778300912,0.11038299953003791,0.07733112805932123,0.0033864884770949517
-0.040980327203030596,0.0,-0.012533121899444243,0.0,-0.05526937851605115,0.0
-0.14286665944234045,0.0,-0.05745784857616183,0.0,-0.18816803348839548,0.0
-19.479239616589524,-12.66529567104809,-45.53570711578033,-37.25183583649652,-34.17135607601623,-30.76683008856362
-6.124663237879028,-9.230747135820003,-22.637582814825212,-24.02673951935383,-21.662846550900426,-25.500254210008425
-1.65510935954888,-2.1515128725271837,2.984589084262274,-2.940641468094457,-3.2716821983664395,-4.743516598720195
0.046233154818248245,-0.15707802442750443,1.3607745686242165,0.1055346900735365,0.0018090287149014476,0.0010061046394360903
0.0,-0.3924048775470955,0.0010425856020389536,0.0,0.0,0.0
0.0,-0.9517635808649526,0.0,0.0,0.0,0.0
-19.47197664336652,-11.43216546525255,-42.730177954236886,-36.32840865639752,-22.314181754921385,-34.08593585141917
-2.6920812850078457,-4.468069076066531,-24.100702713986276,-6.013384298752133,-15.631959895986439,-9.531267738334481
-0.4828682173321267,0.7936825700056213,4.095658759429867,-2.310105726043134,-2.342869957230554,-2.963484479637462
-9.841310981054573,-23.685339573224706,-12.534184643157259,-10.914440357264892,-13.693899706707214,-17.10850067305672
-37.12006212562211,-69.04268512325942,-45.631069336281,-34.69155786198771,-35.010311410588116,-35.4839839613024
-18.471002475208433,-46.964417046617605,-25.677375067711058,-27.91895888511397,-16.877806380344296,-26.86276190594037
-23.042785560629383,-21.239137499094173,-17.38720310962218,-33.53791129920452,-14.295327336984249,-24.197308321085693
-6.505432035256018,-12.124957387106187,-7.833961243688844,-7.766045941920557,-3.6126279397915044,-9.568550059569974
-1.9162025322582732,-1.0595932237325214,1.237652726227966,-5.352852692629469,-9.237369680380704,0.2931240497842758
-19.556841776197388,-21.190307734839294,-13.345744690193781,-30.253450980819505,-35.280075779321116,-29.03101593404819
-71.27171763951652,-57.66727144175294,-76.97602595758374,-70.3679838286154,-66.17330357470937,-68.16475135173773
-53.568370230474805,-42.085307580636524,-50.79857295430866,-53.56773795657098,-46.42334293722401,-42.6639877746257
-33.75062198468202,-42.98823940490067,-10.997995313453677,-8.316896281289106,-3.257167567114899,-20.74312669742557
-9.687258208158513,-10.335978694351633,-0.09849753541288221,-0.8308513305763567,0.11329472086595702,-4.936704757388034
-7.68673578970305,-2.1536960312407754,6.687131065714816,-1.2250290016835204,-5.880326300142911,3.1689341980576966
-19.48236137017623,-7.362472542390964,-18.50541074364029,-15.487693111559201,-39.73446801091459,-25.29301358585914
-74.0890165610831,-19.522862134904862,-89.98200261333285,-29.734593756273053,-72.50064798137669,-93.96386938608794
-68.21600152389091,-12.829830346035624,-69.41946545353039,-33.9417852019014,-52.62508114325086,-36.33171316779343
-26.333323429672213,-20.475215435297038,-15.660503181252338,-13.888377229833068,-3.35947690530924,-21.036088852227465
-12.531890222532336,-15.685843272734903,0.9395089665797287,-0.08066498073210172,-0.6358845942705994,-7.121008149432994
-1.663301005561606,-2.181893436805438,0.6786651343579088,-0.0866709308926451,-4.120260984314167,-2.205700564748429
-4.323961439088081,-0.8786722694075969,-12.141450439436943,-1.8717300751039225,-12.486648582879209,-8.335093926748206
-30.90760777936638,-1.2088320701957183,-58.333867364292345,-3.692160078255167,-42.087961175916014,-25.220894103681925
-46.599261049197175,-1.1727677192550905,-44.933492072107924,-4.593591441547405,-32.65318281053316,-6.3041951452855045
0.0,0.0,0.0,0.0,0.0,0.0
0.0,0.0,0.0,0.0,0.0,0.0
0.0,0.0,0.0,0.0,0.0,0.0
0.0,0.0,0.0,0.0,0.0,0.0
0.0,0.0,0.0,0.0,0.0,0.0
0.0,0.0,0.0,0.0,0.0,0.0
-28.335172805022683,-33.02325692130031,-44.14587336137694,-32.90235024913111,-32.31846836605102,-42.50445762090524
-37.91498388280545,-26.17891446941142,-32.5828026459453,-27.23793498080941,-18.16307817620419,-33.03794935241483
-5.463591259027709,-2.9783967562740448,-1.0840586403610832,-6.4979641876121175,-0.3449602545108823,-4.21149880846703
0.2277044909873901,0.3843587651910634,0.1958404614098058,0.02474201283908097,0.04921020768020358,-0.14840656338366295
-3.7950104668733453,-0.012502251482147527,-14.188871451646685,-0.30219563563509705,-2.1422684993595085,-1.6496770872456068
-10.968684016842063,-0.06401432913727391,-13.130563562771119,-0.608749031490826,-2.1376261376890837,-2.4594396117322623
-35.94208906891717,-44.74959697467873,-38.86125423462753,-38.86550667314077,-30.40667208803793,-53.521639376069665
-31.641617597209475,-27.917381592800336,-37.246467144574055,-29.551833823566152,-21.929321961644245,-34.18226442779078
-5.012777335981295,-2.9752750930444405,7.071360374563736,-5.216251362197931,-0.29568818000755,-3.7492394815874603
0.023239777988240052,0.004461386526483039,1.7788839081990344,0.07060176918430883,0.11203056753881847,0.0012340399848156593
-0.06613327074141682,0.0,-0.02206998876659806,0.0,-0.07544819360100581,0.0
-0.23260997004274986,0.0,-0.08971982722079042,0.0,-0.26341927023455125,0.0
-15.738941128765493,-26.893843269027634,-32.68005046211183,-35.969805838676685,-27.55426431177403,-35.48765676764697
-5.163496967107875,-5.705018395281695,-29.867177514512345,-28.880191287368962,-14.148746562094807,-31.12902645144969
-0.7720213666493609,-2.4991013241902356,-2.9781755187338077,-4.016082830472855,-3.4856273805218465,-5.191074220463923
0.020654002249148307,-0.058248847619098966,1.2500100310186129,0.37548361526462587,0.009411339047736254,0.0005056108504289413
0.0,-0.42244392632318734,0.0021488330948000313,0.0,0.0,0.0
0.0,-0.9556453827818832,0.0,0.0,0.0,0.0
-7.885200087102088,-5.871288091600512,-39.75472158169919,-38.61389240352578,-25.901702619606475,-20.646493406311873
-3.133494723955922,-2.519826123340531,-30.143566753675856,-17.160612963288724,-12.235142144597472,-9.539112245114707
-1.62114010225902,3.2318394504504147,1.4898943463511216,0.5035014433138565,-3.6842419701046727,-4.727231128536274
-8.524052108755656,-26.624984935340912,-16.188903163825074,-6.632254283447608,-16.266268489144977,-8.607476094579914
-34.045142137694974,-68.01479709825107,-43.65035253635077,-32.38498849590652,-36.724469385542804,-32.74896929310585
-17.48936092019461,-45.64520315994389,-24.395770122394097,-27.858048089598732,-16.214201302688224,-26.559420792301022
-17.444109889888356,-19.57341816233442,-39.81444331005331,-46.21446294985271,-36.872777178111996,-39.17783280156394
-9.467889207657613,-14.49840832141889,-17.624221030728794,-14.159782451473054,-8.238443263221395,-11.475542497040813
-11.00130965582151,6.864957496697414,12.180769281883626,-8.249507000053256,-5.014954294490054,7.397577567820539
-30.80619461643296,-31.565263787824467,-18.992594401508125,-40.84798558226759,-14.96469007727902,-33.40726152974468
-83.53908142025686,-79.87458986404978,-86.86510747392599,-98.7489700072233,-90.67755252400417,-85.0283940859583
-76.97481234083912,-62.08430856945181,-70.8420464161007,-80.94205076509877,-69.24663776052236,-64.60256535511157
-32.67865114777098,-42.24204513344425,-34.330228564370415,-29.83841448211564,-12.682528519093811,-31.410980742277196
-9.168204307958687,-18.44541917773386,0.021945333354727543,-2.4346704189961743,-0.10262132721623511,-2.5427220072775083
-5.7778220818876465,-4.737017173141509,3.528856703841189,-1.8994773706091546,0.34215187723344176,2.9061577730456762
-19.88109471638847,-5.1331864862963155,-23.982648410584883,-15.168216774515221,-17.941705449898524,-26.356924071890276
-79.57861289487127,-18.28250102887707,-79.92729619782808,-30.347077150492584,-79.27024199893904,-96.31428353997822
-67.11394427583997,-13.230569834338985,-63.88957436818511,-34.32746414500918,-54.25545170336852,-37.55399289624587
-31.880765981742037,-26.69339450698412,-28.236466131256773,-26.58440074918546,-21.04284077488831,-18.55318371201747
-15.550200971654126,-28.040813270966712,0.6914787577924428,-0.7410489416904735,-1.1763330465284936,-7.473974891620911
-3.347230611637126,-5.3410599435466946,-1.3111961137610053,-0.140739607559827,-5.481821806617909,-2.073450444983984
-5.558458284926361,-0.10670488552247236,-17.83428656849583,-3.0030720558812036,-15.699080090592886,-13.019272249777549
-46.681418872003434,-1.6351552921860921,-86.3536972154161,-6.238251953992432,-54.18792262448686,-41.81164846057638
-70.99942218933714,-1.7334684668687177,-65.2885591710043,-7.370381757420173,-50.092390787757274,-9.779108582810673
0.0,0.0,0.0,0.0,0.0,0.0
0.0,0.0,0.0,0.0,0.0,0.0
0.0,0.0,0.0,0.0,0.0,0.0
0.0,0.0,0.0,0.0,0.0,0.0
0.0,0.0,0.0,0.0,0.0,0.0
0.0,0.0,0.0,0.0,0.0,0.0
-33.37117350174737,-24.809662714975673,-31.10888368079008,-32.19127327771478,-40.285499617886956,-45.940318174267176
-36.65628828358027,-44.20633480158828,-25.372094073351068,-19.498052127284726,-30.389861009153996,-29.30826534386387
-5.152748000997838,-4.409942759431432,-3.59981028508752,-3.8896782930081084,-5.398808576020524,-4.653300787407619
0.12154819277116317,0.2783879833383494,0.01104338406175607,0.005528425446556749,0.10153733549636633,-0.10912713425288237
-4.800963530067654,-0.006822298870033818,-16.05810939927388,-0.39081976051067646,-3.6636627839376708,-2.451555199025355
-11.052822391117283,-0.0602552252275463,-13.289560248933572,-0.6549719236598893,-2.1459110420821257,-2.492670342779244
-29.854046900814115,-28.09662923607269,-36.992503554377954,-26.406587214232452,-41.532286128417184,-31.894724847444245
-29.660381067704645,-31.815806732986868,-37.76577249308401,-40.51287985273975,-40.97931547203216,-33.731713461836655
-4.119705023409809,-3.2555760632393933,-5.301203280911409,-5.025925791612322,-4.646788942314457,-4.897348952867532
0.027701376445137132,0.14307097882394496,0.4608571386647478,-0.0013197025383978789,0.061285849850097183,0.0022629103289437923
-0.06556901364682613,0.0,-0.02103187305126842,0.0,-0.07684245047911824,0.0
-0.23060257002074386,0.0,-0.08008660917032753,0.0,-0.2667773316086676,0.0
-24.205386110134572,-5.2025755002758265,-38.57134455587008,-34.4812368855431,-29.751580554134442,-23.863349432392482
-2.1998373893884287,-3.348081738271297,-26.088691563230462,-38.32459224721592,-15.449352459411301,-25.40489483906969
-0.8111828110292482,-1.5063954741459538,-4.154685166479831,-4.862483973822966,-3.601452951970788,-4.712804509515729
-0.005374127528244512,0.01841399303940113,0.3566989315053186,0.22747839323619423,0.012264768254199386,0.0014034428599260934
0.0,-0.42469046569987257,0.0002752634110303703,0.0,0.0,0.0
0.0,-0.9787348768985982,0.0,0.0,0.0,0.0
-13.939318152222004,15.183562508500673,-48.09980002838653,-42.10753528613546,-19.610379778139453,-44.661810251062974
-1.290964465196434,1.8192772771121184,-38.47337901010958,-29.425082893039377,-14.896967721592148,-15.0338815253296
-0.1989652834701022,0.7411862333419794,-2.384317849216081,-2.262462191831,-4.324650245721985,-4.763849870211186
-7.713034727237151,-26.742517481871428,-10.767769063924165,-7.529388975239793,-11.020675126477157,-7.983307432335897
-36.159572006790576,-60.618778758234996,-40.823298776541584,-32.770530562385055,-40.102439362117806,-31.251290167512778
-18.292999166369725,-46.88550297213162,-26.824431670040113,-29.15936875788246,-17.230856635179048,-27.91751844835482
-19.897856155545476,-17.518026141152106,-8.211713788657503,-13.888714508629883,-34.533570504258336,-23.94351496652648
-11.861276228304858,-10.776378927512527,-5.350869032964808,-7.858358345555626,-8.624413907994365,-11.066517487682637
-11.653500099078624,0.5892907729832279,4.6084434941177514,-6.233810394416318,-4.901184036345951,8.660400797430507
-35.649668585619686,-40.18146918955623,-40.027812413153505,-40.48459066271489,-28.6924410081706,-39.87857423223668
-82.6585522513392,-78.54416489432522,-72.8046181042101,-104.85248525170836,-79.54266143110974,-81.06528799619502
-80.05091065424014,-63.549766712462166,-83.94077989576354,-85.61511674085261,-71.8724676204349,-67.26164334701456
-32.20318289949339,-45.36109465461137,-22.558810623920436,-20.385534903954735,-30.12824399002819,-9.449858344198919
-10.542551586295897,-29.7610340543963,-1.6044844334694621,-13.270803707484916,-1.5682684237927111,-4.005959414606241
-3.19450537951455,0.20256240340180381,-3.8599310363601465,-2.5357238680713667,-1.0226493871601112,-4.63581521747433
-25.72902002438316,-7.505629513485185,-33.26146716784422,-16.37782020246542,-28.1168751925109,-21.235689884593373
-80.12605914801638,-18.93597485865015,-81.33664592602433,-35.66230496026755,-69.78998223453863,-98.96389183847357
-69.05201678622934,-14.337971967824108,-66.64251088234543,-36.18196854069937,-58.38026229952737,-38.9959104337284
-33.51961606135429,-30.211893754250852,-18.312012722184637,-28.05103427313735,-33.95532445109914,-22.52257399236415
-11.752980650020282,-37.82386981007179,0.2940513299785999,0.009242251708593986,-0.7220064443491666,-7.45180676418255
-1.1717554953543599,-3.723789929617256,-3.373852684129935,0.04485078837394646,-1.132724914647035,-2.5593958737300406
-10.085453472954777,-0.03927633821201702,-12.478041094949656,-1.4386058687760839,-14.100868483778557,-10.3568105920966
-47.94594060935753,-1.4112288848440708,-90.74432215885079,-5.010718879054472,-51.88920266084018,-43.42593048758126
-70.80742526487707,-1.7699110134684681,-67.55291304111289,-7.440841181398562,-52.481438553613145,-10.45009861562117
0.0,0.0,0.0,0.0,0.0,0.0
0.0,0.0,0.0,0.0,0.0,0.0
0.0,0.0,0.0,0.0,0.0,0.0
0.0,0.0,0.0,0.0,0.0,0.0
0.0,0.0,0.0,0.0,0.0,0.0
0.0,0.0,0.0,0.0,0.0,0.0
-29.654769926302055,-33.68868101376888,-23.81503665745078,-28.489331212445006,-36.693864070260744,-26.85140538912325
-24.483171912031658,-29.257890689748667,-17.30252819178255,-12.503014918229095,-18.20275249685052,-12.220403528504816
0.16833934195988812,0.9652933780307877,-1.6848101529920678,-2.1192711010217193,-2.8885138210324635,-2.830798078606091
0.10369274814329328,0.12413846195696542,-0.027533287958975382,0.0025926062586797954,-0.2533018461037542,-0.031236356081312547
-4.258625894911202,-0.010755736281033,-14.789168627600054,-0.4024933136157919,-3.198669491203225,-2.383199107132004
-10.909150878926026,-0.06278310554592458,-13.636212165420341,-0.6257501150609672,-2.144023130499223,-2.4534545424400327
-28.715133649043384,-33.804188925444954,-36.912563208413815,-36.9470964664727,-39.3852851680148,-25.042451549918635
-23.73459590884787,-24.560745080579917,-32.127031828795126,-32.462576232050836,-35.01003078322642,-30.939128327985543
-1.8140070790261942,-1.3020926097471808,0.9466709323644114,-1.654767861223431,-4.696373184015116,-5.019865416787445
0.03248513212766726,0.11612729503624963,0.32040694480502085,0.04391630054195124,0.04681424081832399,0.002930719096618027
-0.07357156444336756,0.0,-0.018193045405454786,0.0,-0.0852730513926849,0.0
-0.2340234016703246,0.0,-0.07466080992454663,0.0,-0.2724148539803189,0.0
-14.223976992724417,-3.5982475539473344,-34.34371778132262,-29.48771804058788,-20.50158296462422,-21.376091420628722
-6.6372465908036835,-3.795910510274852,-29.890663926243754,-32.73110517461518,-15.95634680592049,-19.518915112994247
-1.9597592221189508,-0.6271148901354914,-0.8076913678663639,-1.440290070351128,-2.7405570972908,-4.984248330857054
0.001645676283359131,-0.04526686984481891,0.18470172079657377,0.09152588264599225,0.005730624984636749,0.0021654586243131787
0.0,-0.3619656769892355,1.510206233716629e-5,0.0,0.0,0.0
0.0,-0.9010574245883369,0.0,0.0,0.0,0.0
-9.591513688469043,6.459376670329737,-33.12067148817255,-44.80880073278909,-14.31817353990744,-45.23529914501408
-6.0632580585141715,5.457921479625519,-42.19892432501403,-20.63366869293012,-24.22720218829255,-17.99540714183741
0.27774940018074296,0.44919108769749416,7.828794018010697,-0.7378632007816799,-2.9793677768894744,-3.5769224145799683
-7.61115422132319,-20.775611332103725,-9.23744097311166,-8.28862210196824,-8.401055506543772,-14.50658149809874
-38.68409256488835,-63.478344398873375,-42.960748164922194,-33.79246081076567,-38.58226260858296,-33.76526202481522
-19.190214446275423,-47.27708085738674,-27.874031349525552,-29.21690854467614,-18.177753662134393,-28.40615877141161
-22.43381892846518,-25.399832386428105,-4.366917721739373,-10.537850667630169,-16.093614072742888,-5.254648947598983
-22.395920641731543,-7.844219038981704,-0.08708645757553139,1.2609371971760237,-20.225921045508613,-4.266608153957855
0.31743538275351146,0.14098839138016,1.7814376532964615,-1.9032566984741057,-4.531882020952615,2.3462780985566747
-33.161588413509,-37.923255819970684,-37.35180820876025,-36.61104383380758,-55.1707001503071,-53.19606758633309
-106.38354289042474,-90.46466814032962,-90.53663925587935,-110.88469070741556,-98.23234782900006,-98.72737036436503
-83.39136917912455,-63.58482419623997,-85.75762540855577,-86.76517572572311,-73.75913932351953,-67.49836332914609
-41.584875836821446,-37.37402624695627,-6.852506507255949,-12.090577775846215,-4.199296878126751,-5.75422602738014
-21.126951301000723,-32.87690103390953,-1.3069138096074033,-17.15505621759816,0.5923065719410675,-6.586819675772606
-4.97332869070957,2.6727532556613562,2.657735137502169,-2.760536698325589,-3.4806632145373153,-0.8414195726181715
-24.561247787800955,-13.32338229617573,-22.989547615756784,-19.501354437431385,-47.09218770301192,-17.74505696930192
-75.77904118527894,-21.104216308911433,-86.87651110906205,-35.37210635410893,-70.24154036070856,-95.59174473259579
-70.39963416860908,-13.797173107280972,-71.94170407569338,-36.03613534293331,-56.50148276871806,-37.68347770300344
-35.655962592291914,-38.71619702022478,-4.254545854518934,-19.72224751591469,-13.337762585379002,-18.071958780029725
-7.30328260450309,-25.640557940021253,1.5957801020825404,0.784742055703175,-0.09718908123883732,-5.583052699121797
-0.49637468747411995,1.2795027052916845,1.7266452043600222,-0.033321878808195184,-1.248188223882535,-1.0733957318835587
-9.53491767638857,-0.38545694878237374,-17.017662776420266,-1.2431285731336466,-19.93040596482818,-8.504056265507872
-50.44007575275187,-1.6715224478558266,-95.40999076324698,-4.467642648112637,-61.809592498558274,-39.466508612314286
-70.35723353026215,-1.852885762618876,-68.89686077492838,-7.070727184112682,-51.70014712904546,-10.167687143769028
0.0,0.0,0.0,0.0,0.0,0.0
0.0,0.0,0.0,0.0,0.0,0.0
0.0,0.0,0.0,0.0,0.0,0.0
0.0,0.0,0.0,0.0,0.0,0.0
0.0,0.0,0.0,0.0,0.0,0.0
0.0,0.0,0.0,0.0,0.0,0.0
0.0,0.0,0.0,0.0,0.0,0.0
0.0,0.0,0.0,0.0,0.0,0.0
0.0,0.0,0.0,0.0,0.0,0.0
0.0,0.0,0.0,0.0,0.0,0.0
0.0,0.0,0.0,0.0,0.0,0.0
0.0,0.0,0.0,0.0,0.0,0.0
-13.356979994464584,-19.395337046996968,-13.772812055168165,-24.220467859122238,-23.535530619747703,-11.55491345795323
-9.232268963993315,-14.581008852739803,-17.413685828112975,-15.36644798374227,-15.51714270244228,-13.693093581613324
-0.5171150903509515,-1.2364749840745435,0.7259064478854006,-0.7181897976673062,-1.8232889264649634,-2.1134797935692373
0.01977671792166942,0.011728480587029256,0.2749199492299485,0.047517075564530845,0.011648684484663725,0.001233385376329563
-0.022251049342257384,0.0,-0.006104158989349625,0.0,-0.029425224139527667,0.0
-0.07640606698286276,0.0,-0.026618609434656194,0.0,-0.08773181424829579,0.0
0.0,0.0,0.0,0.0,0.0,0.0
0.0,0.0,0.0,0.0,0.0,0.0
0.0,0.0,0.0,0.0,0.0,0.0
0.0,0.0,0.0,0.0,0.0,0.0
0.0,0.0,0.0,0.0,0.0,0.0
0.0,0.0,0.0,0.0,0.0,0.0
0.0,0.0,0.0,0.0,0.0,0.0
0.0,0.0,0.0,0.0,0.0,0.0
0.0,0.0,0.0,0.0,0.0,0.0
0.0,0.0,0.0,0.0,0.0,0.0
0.0,0.0,0.0,0.0,0.0,0.0
0.0,0.0,0.0,0.0,0.0,0.0
-17.854351996228033,-20.53414333404354,-12.055234685150124,-17.009213225244856,-6.317434131454993,-8.763527658447712
-4.182547344892456,-5.323666544237822,-9.725663191577985,-1.0189194930643641,-2.4769541239861987,-1.6932101077019648
-0.6913248486395018,0.39243936655237466,-2.1297406316846716,-1.0058001466683413,-1.2775424485778408,1.117212900545692
-13.449187136817628,-13.545003235775848,-13.484999080741325,-16.6872213727075,-20.84813116705855,-21.329394277827312
-41.542944924585456,-31.51743761452405,-38.65645682412341,-39.84127430823926,-36.25523216403442,-38.191638165304155
-27.932556188164828,-21.19245574501159,-27.368668979602706,-28.136174084510476,-24.29472097684592,-21.705336388224946
0.0,0.0,0.0,0.0,0.0,0.0
0.0,0.0,0.0,0.0,0.0,0.0
0.0,0.0,0.0,0.0,0.0,0.0
0.0,0.0,0.0,0.0,0.0,0.0
0.0,0.0,0.0,0.0,0.0,0.0
0.0,0.0,0.0,0.0,0.0,0.0
-19.428022784330793,-24.782126295039227,-0.769902387779184,-2.4776632606988755,-4.187796955591782,-4.057374950709111
-3.1159434065116898,-4.765555588821819,0.8173231954477703,-0.0873380853546264,-0.016324232319224204,-1.2387745655216067
-1.1063814338775915,-0.11276442635546495,0.5166467722323859,0.08236291844168282,-0.40629412853400426,-0.4325059363439316
-2.8326625001256973,-0.422169545333441,-6.480891678255096,-0.5851274482768674,-7.012853518381381,-3.2047751972167458
-15.534748690074665,-0.5762841772165996,-31.64873662838048,-1.6602127560003261,-22.639775740833397,-12.54653603716875
-23.216492912571344,-0.5614373268246728,-22.659673667308013,-2.359354962590921,-16.54627854806009,-3.2013584538435187
0.0,0.0,0.0,0.0,0.0,0.0
0.0,0.0,0.0,0.0,0.0,0.0
0.0,0.0,0.0,0.0,0.0,0.0
0.0,0.0,0.0,0.0,0.0,0.0
0.0,0.0,0.0,0.0,0.0,0.0
0.0,0.0,0.0,0.0,0.0,0.0
