x1,x2,x3,x4,x5,x6
-16.751962741954202,-18.957674999398183,-19.290921327316,-10.960176447714332,-11.719695320572269,-13.351954673693022
-0.7569026807429707,-2.330814540306646,-0.7265120067138484,-2.3906565293299558,-2.2504592167440527,-3.1754443693330217
2.8779605291093864,3.444213804240105,0.946227665544538,0.7264580976269434,1.063935168103074,1.7264462500187643
-1.0401339548583106,-0.007816473079740207,-0.4099547589665692,-0.3671263924828704,0.5024122461421148,0.04159531319598613
-11.086576791531948,-13.697308893963752,-11.296412355658411,-10.241579833139703,-11.588384127281639,-12.446733127287372
-15.270587628123543,-14.59615225053851,-14.19146157013675,-15.970950055922811,-15.0185792899732,-14.696492692825334
-12.877552276700035,-10.28558400365356,-15.118194061388245,-12.059682972410423,-10.786682002358496,-17.254583799470577
-4.226909698824935,-4.874309852940488,-6.708766499942768,-3.8896515821291566,-4.135951278893259,-7.842614394389728
5.1786512266366795,5.427641289130958,5.251480818307995,5.337682823871135,4.9698862054324655,5.89657812087911
0.500395030147433,0.0077691941237445815,0.7792932682518793,0.9364519617674232,0.7096095562024923,0.27619384446181194
-12.883020212837692,-13.04855571634464,-11.075240159311644,-9.628756053649468,-12.935753885308257,-10.776033655211458
-10.80464350388122,-12.498797216858476,-14.399002469938678,-13.800278291569853,-10.725785944794765,-10.58186273921029
-12.101550400656311,-6.390816309868759,-10.973375255841908,-13.808961128262748,-11.09673404076537,-17.920166579850417
-1.9692254214098195,-2.485976231756983,-1.5526329693205076,-5.287155409634878,-2.9159612127037007,-8.116350610885856
2.997596944123575,1.788250868503859,1.6937224358210508,4.2824332569352555,3.9025740739830614,4.097691656820601
-0.7038952329102159,-1.338046644061273,1.7693986893384677,0.0967735127379136,0.8575259011319103,1.1392458660122626
-13.411478021779201,-13.029711366691108,-10.900942346098168,-12.181414705577938,-13.300797255858003,-12.459516183985746
-14.040967010036347,-13.618055246842445,-14.325695490018195,-16.98033466372787,-13.728627871409143,-14.376316127004708
-7.197968653462672,-4.501103091744994,-6.9418041044850245,-19.54249990222434,-14.144752022581562,-23.790850746773614
1.3047576924984938,-1.2576873830106647,2.780168651869137,-4.166241068713848,0.6064270387637882,-0.31605762798693876
-0.15554024307802322,0.845058731876602,-1.9868602864062088,2.8115758850342254,-0.8834759736976822,-0.21297798005364038
-0.6894173025631435,0.042978942138354584,-1.7163436112659491,-1.7588651576510903,-0.716875274629309,0.09282394436344375
-12.198568259487645,-14.314920651321303,-12.580132047283001,-14.125749289139872,-13.801386067700603,-12.503515288979344
-10.851835067149818,-11.68770251149164,-11.70760491326785,-12.296288045198189,-14.104272966239936,-13.95590795233878
-3.3862627965792305,-2.255723371813952,-4.532500436334462,-5.231730714231498,-5.505289917551739,-7.226396275621378
1.3577260877203199,0.28825176656469287,0.778649717515773,0.41943381685065534,0.2612906671349017,-0.8035028175348331
-2.2056791977087102,0.5141158414524378,0.3386913699414537,0.16722770182688476,-0.07964029404192026,0.35138855833566807
0.8881406220239648,0.37186130947072166,-0.41323162958494924,-2.4816406739706443,-0.7151261109616335,-2.1673001022884497
-15.303361659940833,-14.756962768760001,-20.648392204774158,-11.932271980596253,-16.02361278676308,-16.111511595599485
-9.194120995130037,-8.19529003607809,-7.120177142990726,-11.778425844899402,-8.787043846928404,-8.895182359402664
-4.2564539945460975,-6.088558462038447,-3.304627082540582,-1.5981639095128528,-1.0608551682511667,-0.36805198401988215
2.374004211193452,0.011203968474253275,0.8456598835412301,-0.26585309106829325,-0.4273582960362736,-0.8161351964150453
0.1397291746804658,-0.4759705386964047,-0.7069944111238231,0.30530297183920085,1.427525265484941,0.811499917816771
-1.951029012118046,-0.545925166134459,-0.08660209256167628,-0.9884675792502913,-2.412509442321063,-1.6178997903512622
-11.213274748933841,-13.737037066510524,-15.148417611337656,-12.850444861405737,-14.866054618241641,-14.237937293359716
-12.453137163924035,-13.704991014626131,-11.742559287527069,-14.601122604632756,-10.191982153186812,-11.608796475419089
-6.476969490515662,-9.004620726198757,-5.870084592977866,-1.5006004057177877,-2.425852553106034,-2.3817942745764675
3.2006874254523527,1.8981474479966036,3.767421991911095,2.345825816420026,0.11670296909382752,-0.1044408221911732
-1.288327034459414,-1.2600276787479847,-3.304372114691171,-0.45674837231585025,-0.37292373055379224,-0.1748792874299739
1.5260849315430212,1.0206072617159907,-2.0901307811076344,-1.2661016259395041,-1.542461522375357,-0.6163828416069622
-12.451057456257564,-13.263151668153746,-13.956064202691314,-14.177084316192655,-14.038107618409242,-14.335640652886775
-12.35106628459159,-10.92473317312949,-8.237874564225333,-11.304273149996765,-9.786854082526299,-10.226953426146222
0.0,0.0,0.0,0.0,0.0,0.0
0.0,0.0,0.0,0.0,0.0,0.0
0.0,0.0,0.0,0.0,0.0,0.0
0.0,0.0,0.0,0.0,0.0,0.0
0.0,0.0,0.0,0.0,0.0,0.0
0.0,0.0,0.0,0.0,0.0,0.0
-11.956137537413582,-15.245972778678953,-13.29779829356338,-8.160894350774349,-11.58452677678328,-11.461804800747693
-1.2066061865066233,-2.0157480843442235,-0.01768270173762949,-1.6224117958308315,0.21057163637724327,-1.2609335218932058
2.6908310373159416,3.016943305806369,1.2345378922375114,1.1233302465913748,2.3874717426584895,1.9988697174715324
-0.10439372159638108,0.9169344572984148,-0.7397004564771551,1.4417777867938908,0.3505594419767642,0.535021998481494
-11.492277512665092,-12.297021191223852,-12.424420434481634,-10.139897744509183,-10.84985473494259,-10.15332976737254
-15.639875031243522,-15.126360457224843,-14.303940836338414,-16.261852132260817,-14.990352682058088,-14.828384423191471
-10.436187507235497,-12.066651341357732,-12.36210550327415,-12.897732736659476,-10.106844317386978,-15.521668060606348
-2.7488037888425936,-4.601873172037302,-3.191697249541444,-4.183969248852915,-4.028048571246901,-4.874822163480838
4.7991506960791055,6.184735518279767,6.3171092744449275,6.57897224217336,6.025162385818294,6.845699838291113
0.3508543073532433,-0.33137216623493115,-0.46434819976912384,2.560754105408634,2.6306789828041777,1.5653779968648556
-16.0616020013032,-13.632129171079908,-13.61874286292896,-11.91957647881212,-16.13810139939941,-15.22506755873811
-15.215498698666304,-16.602069285954634,-18.32835958497664,-19.157074579744982,-15.088641359634286,-14.933524983337875
-5.23237773739118,-6.215039781115935,-9.412082362251214,-13.045994499326662,-9.24640363905207,-11.688281425270732
-2.111569723784395,-2.7611338173151228,1.997847193295941,-2.586930040308653,-1.581815707982911,-1.889922955454891
1.669511183073952,1.5950427274329615,1.0298890858290406,4.524862634596949,3.6088415263302007,3.8768763431496773
-0.8300639183105462,-1.0752311056403678,0.5007036345376173,2.3086722621477485,0.761091100225124,2.032403916255307
-12.677729287521862,-13.444613407389209,-11.220895859051849,-10.116991920223517,-13.920489585325917,-13.194927273505021
-14.30166152478141,-13.545235392411781,-14.788986974955675,-16.628086700331913,-13.787479546311642,-14.315923619693693
-4.513832539664044,-5.1333328607999595,-6.0265907291836,-12.307346089419605,-11.011408221078353,-18.666446849141657
-0.1548273450695962,-2.3786769294134964,0.03854172149784839,-1.2720067918536178,2.100424125161502,1.8455111962556
1.4812467805613903,3.8728863276815595,0.2978040978850701,4.124995990013363,0.28148721989307046,0.18547313655083308
-1.8362358822579616,-3.933294987741875,-3.7564124561976007,-2.205214329775136,-2.455946926043517,0.261029673166952
-10.857321218535455,-12.43997872128217,-12.314414694499131,-10.170684633049554,-12.502111114381067,-11.99662069928508
-10.97847740110627,-12.090692671604666,-13.464480816002274,-12.618643297302965,-13.599576804171361,-13.751767243019673
-4.10647641437098,-4.614391041984739,-2.808642436450916,-6.016704655664539,-5.930606587105537,-10.017233612388637
-0.4942358928353173,-2.3350222412821426,-1.629615416590447,-1.1829726033512127,-0.8466054284782645,-1.9363151205431062
-0.07292317299594184,3.663461348422424,2.868821672023106,3.006855366546836,0.8394498008379799,2.5285769203860613
1.4575011971362524,-3.4861432924443725,-6.229310599366936,-5.76932315212029,-0.8829445538868727,-3.138217686977846
-11.792891475900404,-12.856500874859966,-10.955814802931252,-12.34200338691885,-13.160410824438973,-15.133441803302771
-12.096111310438847,-10.692086382239072,-10.139386349308792,-15.96294541145694,-11.627988935546703,-11.985639143037499
-2.646703024320894,-7.4966277489987245,-3.8403576318418127,-1.4163885790980526,-0.890389928550645,-1.8767496647155508
1.0131045787778088,-1.4205317942702023,0.009282346814522746,-0.024698112885293232,-0.5004739725629469,-0.9663606409530143
-0.42617698549927613,-0.0704481810492079,1.02837386375932,0.3177390797636842,-0.3525022291472621,0.288573736255631
-1.352629517287927,0.11405314944819435,-2.186153204348025,-0.5104847027946802,1.207680946725026,0.5274500117996218
-13.215718747280722,-12.00980788475958,-10.065764429265894,-12.04005683393706,-12.58833688487328,-13.787883100592316
-12.99994224055503,-14.025748603224145,-12.206382524402514,-14.771478951754537,-10.278932934060668,-11.71069641895798
-6.637020008890997,-11.35264451851479,-8.475223631971618,-2.9043929406693256,-5.110761264922834,-2.87589511938435
1.9953344143905265,2.016110462043206,1.9282901748116998,0.9388971203664424,0.8240132061051026,1.2515246048389899
-1.408791108018135,0.37342038220185353,-2.6533057438455665,-0.0753067263720483,-0.9001772879510215,-0.8612839189397958
0.6639607840353275,-0.25436722729929173,-3.0571348134765373,-2.223995700950676,-1.4230617112207444,-0.2505886905478319
-13.567305150730622,-14.452706432457962,-15.021781996180021,-14.599527567158368,-14.607111954265271,-13.678875208534121
-16.471963155782145,-15.21432192666557,-11.95254764117024,-14.089646482428975,-13.98435154474351,-14.617660411220676
0.0,0.0,0.0,0.0,0.0,0.0
0.0,0.0,0.0,0.0,0.0,0.0
0.0,0.0,0.0,0.0,0.0,0.0
0.0,0.0,0.0,0.0,0.0,0.0
0.0,0.0,0.0,0.0,0.0,0.0
0.0,0.0,0.0,0.0,0.0,0.0
-12.687320871339919,-16.807800624276535,-10.47181330378333,-8.421689293490617,-10.579478700999015,-11.528354352969927
-3.8879501427036285,-9.694143113557724,-3.2885518950384585,-4.989131308717554,-4.692104110915317,-6.347661377805982
4.58317626442565,3.9270346744685205,0.8741184455243411,0.5552296095129671,1.4126355464218052,0.03840870562641338
0.2717743426102944,2.26871785253499,0.8097535334624884,2.900805618000545,-0.6051585961546923,-0.37946230972123246
-14.188423699474797,-13.543829390491934,-11.902736833739382,-16.094245248711797,-12.935550996995156,-13.037328766280016
-16.070048860503963,-14.783396991882526,-13.518606920382634,-16.346759215201427,-15.56377497469847,-14.572384385208188
-9.412608404041382,-11.940216122357691,-10.75967741536872,-11.936386458252066,-10.458203708736752,-12.563789656421088
-2.027430002826681,-5.986839460616143,-4.1864776265353925,-5.834999454364478,-5.324399860874645,-6.661426633646833
4.19642330679901,2.526071504918551,1.796150403762597,2.5531021245165215,2.4959593254697974,1.2654368578047441
-0.13473509958367139,1.844147226462492,-0.18429374763714418,2.1422809618193894,3.960815212579032,2.6171096611685
-14.915874162135422,-12.076283328562518,-14.457527621262152,-15.7432417655938,-14.478911409961954,-15.412425134628178
-14.553405836015788,-15.718907253013835,-13.853448037615411,-17.4809045667053,-14.774380771839931,-14.559057052983004
-4.314323680720512,-7.356653605307282,-7.995942800895847,-10.30975288547529,-10.868511593811396,-10.093212222251516
-4.617234959613907,-5.164699536519632,-3.8530138689900313,-3.894299446079207,-4.3386030015351,-5.523704703876032
0.5696880299321782,0.04649419019108794,-0.4342509931301047,1.3945861527283911,2.972117713363046,1.2424961190331283
-0.27228060995718845,-1.1071054519232217,0.8476912329807329,1.7385050152936317,0.9774299948808042,2.0941606860340105
-13.87941800614832,-13.723484037102146,-13.223965118759512,-12.940555298104856,-14.577164884707598,-15.617574024246704
-15.305897220127186,-13.784200317901867,-14.754378835456324,-17.661048873236176,-14.448228560023882,-14.970504905973582
-4.092499939031219,-5.782559514938443,-6.975488031691175,-12.217434102021791,-14.430169288228626,-20.76411271455715
-2.462595222852567,-3.4720607084815263,-2.40709987894732,-5.471811632144652,-5.543914267918906,-7.924782680264545
1.7949847063169466,2.634788789251456,0.30022754497552606,2.1474181295284103,1.2036739946786716,2.0897508595511645
-2.322406608722981,-1.7130083722136364,-4.226052668602626,-0.3641210227545846,-0.8746071756202799,-0.9995883624201211
-17.784451149491098,-14.089514070626986,-13.214220626696124,-13.696753969718685,-12.666617334961142,-14.114725585403324
-8.008012804250411,-10.9452120053355,-14.534762961824498,-10.908527971892887,-13.805287512571065,-14.047404187919
-3.2711038358778666,-5.892881046275493,-3.930569821152148,-6.749747398700778,-10.054310889312298,-12.281732323333527
-2.5682313895399016,-4.524037435467551,-1.4314055233328657,-3.2732085351407156,-6.28026988912401,-4.575721795941019
0.7841904793072387,1.7952130100662225,2.513313922248117,2.6884143363915936,0.8621972317654044,2.53881415895352
-0.7156370373657138,-1.307720015998406,-3.3716648799663687,-2.1887975232906323,-1.1494997960831783,-3.207766036886663
-15.903697337735377,-15.529878195310031,-5.330602536765842,-13.337338404911476,-14.11709445618875,-15.286799669576311
-7.186459137970657,-7.1742367794765105,-11.717042736004885,-10.895289509604803,-8.530670714306709,-9.3664151007095
-5.625461537876036,-9.677464810160824,-5.547958100757604,-4.171967963904568,-2.3957690013640893,-1.8377870468057367
-5.33846194260765,-8.36866674241501,-3.21743128839187,-2.5404824475023977,-1.183361813866699,-0.9458030602444193
-0.9462079491482299,1.101982423150636,2.323907432869738,0.4377484879482245,0.9540005500870613,0.48630809111536755
-0.21589583545981678,-2.189784130634622,-2.6794487323000875,-0.8076527800338639,0.9803503843475065,-0.9543393533381564
-14.08930912253905,-14.541258215191512,-9.879309829499896,-13.39088042861082,-13.534375375353752,-14.073304293859005
-13.072330579452858,-14.737344968991113,-12.849472283893657,-14.040280652307546,-9.856828888884563,-11.986898750977499
-9.310534197183335,-13.736203785164719,-7.697352480289346,-5.171122019952504,-5.781754557581549,-3.437974188961943
-7.662135037680545,-10.89633765524379,-2.1680938542214485,-3.413218707273201,-1.083728494755823,-1.852042747370525
-0.2677830330270803,2.269824972618417,1.7904607361499068,-0.19333893759171294,1.6977955907182738,0.3888843715583431
-0.46056142677762607,-0.7266834819139092,-4.21587830224284,-1.8528609462909729,-1.9774918376924548,-0.72202274059309
-12.130193383507107,-13.218493957157989,-10.592260347991743,-11.225764481027069,-12.687738651299986,-13.029906638259769
-15.608851332934131,-14.915996284083546,-12.321219277378127,-12.90869040505372,-13.434356470970503,-13.734125091641607
0.0,0.0,0.0,0.0,0.0,0.0
0.0,0.0,0.0,0.0,0.0,0.0
0.0,0.0,0.0,0.0,0.0,0.0
0.0,0.0,0.0,0.0,0.0,0.0
0.0,0.0,0.0,0.0,0.0,0.0
0.0,0.0,0.0,0.0,0.0,0.0
-16.179057068736913,-18.66404848980594,-14.448845465955834,-9.85526141834773,-9.024960680507954,-10.685680166469822
-2.2996920066825894,-8.229511527332452,-5.52939945963779,-4.899323636229324,-3.8455817473515537,-4.541139617851509
5.0481029442982654,3.8331952756879804,-0.08968974621274621,0.43920089766474407,0.527500256683803,0.31779166140320597
-0.3058069981899088,1.1592647534577483,3.1539903047184215,1.052033845598618,-0.7058100458962336,0.08515500215567821
-13.097235853762735,-13.838998720159271,-12.877261874893023,-14.094749095428398,-13.303572079657759,-13.823877675161889
-15.108323165421465,-14.281429702413195,-13.753419134065227,-15.618533081581523,-15.41151427029455,-14.41959592504867
-16.267933639502342,-14.659042383861909,-16.157470443561316,-13.526533868396873,-12.774694383076987,-16.47141904681707
-2.327989348196071,-7.3657577164114905,-7.96580024218751,-7.28035240865592,-5.945735264855705,-7.778746106664604
6.114100105724423,3.3740233241708735,0.6128593868921405,2.250653152138094,1.9775071795274255,1.0030014663677558
-0.390955716465306,2.2777992640630336,3.2429250583033924,1.8236540518620488,2.5347415251737093,2.6475168095211066
-17.470862842397217,-16.309630435324525,-16.67665688707106,-19.533933201577657,-17.075811613756063,-18.08927650967485
-15.233463657247517,-17.05913377153494,-15.693763328950421,-18.74191884739903,-15.55156818435045,-15.502172396155306
-9.054882972555053,-7.065291085384058,-7.612192391656951,-12.561166308380464,-9.103054098457369,-14.11966132907393
-3.709622537928282,-5.541938732367652,-5.357444028646356,-7.133346659422872,-5.283713072015561,-8.489239738225528
1.57139573377177,0.24744404456530664,-0.576679998106909,1.7647573962644876,3.1393460797288566,1.3443955827997969
-0.4076833826953202,-1.0516599899472996,1.184355740075864,0.8614260230714682,1.0291030561409662,1.3420103178692422
-14.452790172899327,-12.987725246854808,-14.454988995016556,-14.544774747437021,-13.800120731782526,-14.821979400099048
-15.090370190889267,-13.593805957265278,-14.567690210286862,-17.627707782193085,-14.264143278329332,-15.086368064527859
-6.271452972518136,-4.3939118754369,-7.532776221370682,-17.40391033096938,-14.795483475249569,-26.235094320740423
-2.2416215389169523,-2.718842881727242,-1.99949057359234,-8.917664931097672,-7.35710824731177,-11.239408987539585
0.056801964214816855,0.5271065632327443,-1.758961853510648,1.391638030790354,0.5390796829816695,2.6144784157704737
0.14727686258470116,-0.5195219831121134,-0.6844034315484413,-0.2755614896412743,0.4835030921230604,-0.6064291404843936
-14.903122508938521,-12.120875215889402,-8.072213934242646,-16.03124733877659,-13.201076909466584,-12.204708350382294
-8.020216945948839,-10.163089821574694,-13.582240157084614,-10.727870115018135,-14.037371792325562,-14.185779225337686
-5.483022179081108,-4.715122351819821,-5.974828763056797,-9.664351820614854,-10.511021724012542,-16.004838763948264
-2.354495696846626,-3.2904615022862473,-1.195073990923045,-3.1089654822596,-4.803051824688662,-3.9131875182601195
-1.977075887651289,1.295490279737543,1.0175905852655747,1.6413871451465745,0.2397579277379065,1.2687699414018276
1.2130732909031714,-0.3042237333143025,-1.4913275383068882,-0.5142576854970871,-0.6694724140473156,-1.0451680330422972
-17.587582284180513,-18.323669072373097,-20.075801373210698,-16.103711874575378,-21.16190375862804,-20.54184551544861
-7.955770753364264,-7.891174055630882,-15.308055594974258,-11.334121867216178,-9.359965635885636,-10.546811786326332
-7.147937974572844,-7.818128046119171,-5.101418653390381,-5.706997330725359,-1.7659473104746382,-0.8984216849645262
-4.106380254878794,-6.499034769301591,-1.9341843591722407,-2.946371957596542,-1.1665621888226352,-0.82523892078677
0.003802367273849586,0.6893034378804078,1.2905772632553987,0.5285982756760255,1.2101583047269193,0.5900460900061442
-0.6610429932888852,-0.982791895764031,-1.146138605230353,-0.8369197550237693,-1.1870877222605225,-1.3113354117655935
-13.779862760228212,-12.726614353830072,-8.095062073317878,-12.120219546907313,-17.470883195630364,-15.517947398919413
-12.470041322773222,-14.359532275547341,-12.342871738860673,-13.885960268200158,-9.63811077732498,-11.84951891457356
-12.874760522336729,-15.626357342005639,-9.860133626726492,-6.675736836608581,-4.331771129507634,-5.3810328607358695
-6.576952889796723,-8.907880769026558,-2.518512348983268,-3.4329146243293582,-2.0362652393026393,-3.107290509784604
-0.10405394223350646,0.6040154829644129,0.41790151573013,-0.6774282971400037,1.513977014250519,0.6509631839846288
-0.2315329649446278,0.13179183555193943,-2.718959670759551,-1.223308143295535,-1.8356348781900218,-0.7181306702509429
-15.032991566184888,-15.787487937598877,-11.249295455235703,-15.481654996936731,-18.615892201234935,-18.32622945380796
-17.12305319006474,-16.15151611509155,-12.567444911406112,-15.528908241469535,-13.910401172482187,-14.54132089046311
0.0,0.0,0.0,0.0,0.0,0.0
0.0,0.0,0.0,0.0,0.0,0.0
0.0,0.0,0.0,0.0,0.0,0.0
0.0,0.0,0.0,0.0,0.0,0.0
0.0,0.0,0.0,0.0,0.0,0.0
0.0,0.0,0.0,0.0,0.0,0.0
0.0,0.0,0.0,0.0,0.0,0.0
0.0,0.0,0.0,0.0,0.0,0.0
0.0,0.0,0.0,0.0,0.0,0.0
0.0,0.0,0.0,0.0,0.0,0.0
0.0,0.0,0.0,0.0,0.0,0.0
0.0,0.0,0.0,0.0,0.0,0.0
-9.182197421566402,-7.506263628512633,-9.67876303802291,-8.661375796155953,-7.574205030556428,-10.964758758847031
-3.112148615197318,-3.9056722245088835,-5.950128682662699,-4.464358025001924,-4.47490890376085,-5.160918022594614
2.138634390330751,1.6387325004738325,1.0044894847325108,1.6381180580655277,1.5468846157690537,1.0499329261901156
-0.2384473442804619,0.2794916634722705,1.0224842357663915,0.43494427390373736,0.5622788754908281,0.4777924392065102
-6.670487499310568,-6.866989642314421,-6.208237877669203,-7.0540970007878405,-6.552641937166507,-6.439569738087533
-5.393070877086946,-6.399493860042566,-6.425903704665735,-6.988168459608236,-5.464669408769569,-5.3995700149315455
0.0,0.0,0.0,0.0,0.0,0.0
0.0,0.0,0.0,0.0,0.0,0.0
0.0,0.0,0.0,0.0,0.0,0.0
0.0,0.0,0.0,0.0,0.0,0.0
0.0,0.0,0.0,0.0,0.0,0.0
0.0,0.0,0.0,0.0,0.0,0.0
0.0,0.0,0.0,0.0,0.0,0.0
0.0,0.0,0.0,0.0,0.0,0.0
0.0,0.0,0.0,0.0,0.0,0.0
0.0,0.0,0.0,0.0,0.0,0.0
0.0,0.0,0.0,0.0,0.0,0.0
0.0,0.0,0.0,0.0,0.0,0.0
-2.780749501102815,-2.7560773342022906,-3.1435283523099704,-4.988196342090388,-4.591598472536907,-5.822233994518881
0.1787613909897313,-0.6823330848251564,-0.760118879202628,-1.120499717373676,-0.26493402044919384,-0.7467402402297321
0.4788648279650477,0.40296907273925825,3.4004543525703275,-0.3987196186490294,0.9411721779086349,-0.5509010675021379
-1.4748558695009324,-0.09314284356541994,-5.613254923920847,0.00844973062512414,-1.1788599710151384,-0.6249173012234154
-8.84423253033677,-9.416410768846974,-3.901866064124495,-10.201158067871392,-10.390565763509578,-9.700257387146777
-3.8039142222572537,-3.5831614228607425,-5.329173006180567,-5.053760328496883,-3.974062278001185,-4.537370740273227
0.0,0.0,0.0,0.0,0.0,0.0
0.0,0.0,0.0,0.0,0.0,0.0
0.0,0.0,0.0,0.0,0.0,0.0
0.0,0.0,0.0,0.0,0.0,0.0
0.0,0.0,0.0,0.0,0.0,0.0
0.0,0.0,0.0,0.0,0.0,0.0
-5.813619219908299,-7.876085344120277,-5.210080065243986,-1.4021754995442721,-0.8950948338561548,-2.719391830107139
-0.3522730377326932,-2.525469108042278,-0.21395363672139575,-0.3113386405233825,-0.22065497101829304,-0.49545749948225454
0.23173885510752698,-0.21118247500023465,-0.04686929486301415,-0.24847988334687546,0.24290319992395007,0.24628225447464588
-0.048394218513123886,0.3076548070583491,-2.5092347392810828,-0.5130433953331544,-1.085690481086384,-0.8574962114311772
-6.592152117723806,-6.87732500678928,-6.574166930502912,-7.704153318268938,-7.78830966026654,-7.231669149130059
-6.393802401650013,-5.730131015723284,-4.668333674771059,-6.078519035189431,-5.008485579437161,-5.156700841047096
0.0,0.0,0.0,0.0,0.0,0.0
0.0,0.0,0.0,0.0,0.0,0.0
0.0,0.0,0.0,0.0,0.0,0.0
0.0,0.0,0.0,0.0,0.0,0.0
0.0,0.0,0.0,0.0,0.0,0.0
0.0,0.0,0.0,0.0,0.0,0.0
-20.82816204873776,-23.56945320592021,-26.253954453941976,-14.2305144244442,-20.973067005076786,-21.002152376908253
-2.963460694523525,-4.538186657212272,-1.6187919986898467,-5.069157387898294,-4.052213640717334,-7.636476201470493
6.239957686511847,5.415819264561885,3.8534226154793507,-0.6529213540726762,2.2284903363166153,0.9682006653336452
1.1199823160829336,1.1097137731861377,-0.016742191813768136,0.9299718771149272,-0.8066794293505207,-0.30575765558400164
-11.098490400983648,-10.519215379403798,-12.281202968469804,-11.255715015279174,-13.232882774728097,-11.996567318086786
-16.300056689221346,-17.29649185214279,-14.620399896660075,-16.971323544114657,-14.290100829669543,-15.675743432505126
-13.326825785010023,-10.815356304472262,-13.547086035975529,-14.493162892289526,-13.7986650973569,-14.905914443765814
-5.84981665315353,-5.848037473112359,-4.114856525510957,-9.056819825130058,-7.984382147917911,-9.428856584167468
5.31806920240577,3.0980489281941583,4.627443485591782,2.34258805209524,3.3084498855369215,2.1854321210110084
0.03184382245576578,-0.08462974050930018,1.168794640906938,0.43280028825658073,0.9404568721736278,0.849292443491556
-12.050520137439197,-12.201533682796924,-10.906519691277538,-7.326806113691135,-12.409446887529395,-11.2648353212508
-11.285749075505917,-11.772619827980463,-12.720202785051232,-16.461344624035153,-11.928406698221005,-11.066145759903437
-8.103005988000165,-7.874117506182248,-7.499430358915246,-15.255254727563551,-10.97487134648979,-13.589967831881811
-1.810463418317988,-2.955436115445716,-2.0642336019504266,-5.078290058606558,-4.887524326174682,-8.816949003674123
1.7061494851749046,1.173396839717328,1.4203392030940678,2.3668971807546546,3.180593969364528,1.919326999530166
-0.36247710649339665,-0.3739283541407928,0.5308269061279819,-1.3651659089676487,0.5184447688929424,0.32694741621389795
-14.744115438364517,-12.232798131096798,-11.946833133762336,-10.666962187467531,-15.366261040355568,-14.441374628894776
-12.121756693047136,-14.077069177999046,-15.314944202947931,-18.22394153682914,-11.721981399379182,-13.204204090787961
-4.1890607865334095,-4.199937990271644,-5.344234107095482,-14.173045516448003,-13.964821601551408,-23.966047406141882
-0.21268104367598115,-0.9350039814672628,1.3230125578113858,-3.171620278967334,0.31482123638180165,-3.5090264860622744
0.32680729314737095,0.08975884098895119,-0.4899530783046335,0.6979265763379726,-1.35832372900404,-0.4380861916476743
-1.6880024977298547,-0.8708315208345465,-0.7381903717436551,0.27017952758668307,0.07894655223538426,-1.3370910799724607
-13.640461730711767,-13.956271135647212,-11.65173091079736,-13.656572187026118,-14.133771768281926,-11.966757272235505
-14.186769895271789,-13.79982403434399,-14.70291674050045,-14.548102056421975,-15.906550664278429,-15.94856591313109
-2.938497182726877,-3.969760657152867,-3.0093762043239476,-5.723070698260581,-4.687537177391986,-6.687876301679425
-0.014370543536017352,-0.4424613038045107,0.8579427938996194,-0.780764716066659,0.9654395797095565,0.49046729352014923
0.47760380840219274,-0.02624943647858501,0.2594621390966534,1.2609770065143409,1.1104510798928189,0.7542733178824307
-1.196149676256285,0.2654094611127467,0.22053634615375814,-1.6840906996324065,-2.277083674280851,-0.2866311717820322
-15.563473677014246,-13.517381177631819,-13.709390670503726,-12.55520271262519,-14.798119316178305,-15.225276292709928
-11.10661880635494,-11.411586005881238,-10.732833672635993,-14.031921988064873,-10.952186355182668,-11.227964318303849
-9.905921540413651,-11.300665185665597,-7.838770066917071,-4.248913763608561,-1.9122975875843666,-2.0635786867810157
-2.044504896176539,-1.983413631835222,-0.33231252986492466,-0.8649562006907587,-1.3276563119452565,-1.7770033349018761
-0.549037106564486,-0.12054261416699091,0.4945101076106585,0.14002852933569554,1.3691345554616787,1.8528002481637325
-0.1668316357422816,-0.25277874356223573,-2.040998425330195,-0.6419894673983565,-1.540636056551258,-2.622478720805743
-13.547394191654536,-13.865499269910991,-13.460265841301716,-12.651177083511339,-12.549189401233821,-14.103851784254292
-12.582489224031338,-14.297211462738412,-11.851889547259645,-15.560316811625276,-11.388352293610785,-12.229041998374722
-11.032251477783916,-17.64773420510721,-14.069079354217516,-5.774928812749986,-7.467476764346648,-5.550898920585694
1.6034106682556102,-0.17878863213762425,1.2240295508358698,0.6493310049022232,-1.4703402250208852,-0.5336679136165812
-0.08972294940868858,0.5117458906021832,-0.3053228044776149,-0.2953673633218289,-0.06459182081839075,0.672067116912763
-0.23277491978754472,-0.856809804692569,-0.41921519670974045,-0.32740945678157785,-1.5599076089122617,-1.4479945866282198
-14.067412447405232,-12.228436189561272,-13.398161212980645,-14.437873807337622,-14.49882687720329,-13.59049666501908
-12.358991090064364,-12.069939734991658,-10.180118094862951,-11.958122472867126,-10.170327599891271,-11.19305677127842
0.0,0.0,0.0,0.0,0.0,0.0
0.0,0.0,0.0,0.0,0.0,0.0
0.0,0.0,0.0,0.0,0.0,0.0
0.0,0.0,0.0,0.0,0.0,0.0
0.0,0.0,0.0,0.0,0.0,0.0
0.0,0.0,0.0,0.0,0.0,0.0
-17.523844311325263,-18.955517407328276,-17.10354691071142,-12.138171621070782,-16.54436751567432,-15.588446066475882
-4.99359081759431,-8.259813304303433,-1.3660866638273124,-2.9750338539231724,-0.5473850239397505,-6.093817330532885
5.029487173086601,4.873500469683777,5.144702219153801,-0.37282944186556444,3.0161797206140433,1.4623806932656114
0.38561576279193616,1.254465086348363,3.3657485420833364,2.9615018118549665,-0.6082384583751481,1.3714943413054665
-11.569149256198285,-10.682917582192303,-13.585837549968096,-9.579622135048977,-11.569683066115704,-11.119119723934785
-16.709334523696278,-17.352505431503413,-14.118925891932328,-17.74252456410117,-14.361479096025668,-15.87438663207202
-11.448720268003225,-10.830202833529048,-11.367597365072903,-15.821769208403477,-11.518706312613352,-15.827035100076886
-3.6477714004812665,-6.766365081195784,-2.7727915477350162,-9.241154358195406,-4.437129317465901,-8.2801971344054
4.030344728529071,3.288447558575338,5.492435882536805,2.9802653991615036,4.115435350559087,2.6362087411028337
0.5230606616167356,0.7284869664639554,2.6671267871780238,5.4925058622119245,2.4094585533642174,1.8297293867329099
-14.759996514994445,-13.469354719505015,-13.763082353202426,-7.2710847092151925,-16.069740402975405,-14.884060226710714
-16.1790945888923,-16.61852214190591,-17.607273210255048,-22.18173865623446,-16.745017358773563,-15.982979785255615
-5.603540750411219,-5.435030263864532,-7.182745896471992,-12.044575825200376,-8.023504481718899,-12.095030063283668
-1.1192580700256962,-2.7632709631858914,-0.970334671059402,-2.731037943426948,-4.117237805958079,-5.420363375909097
0.9045125837445738,0.8702016659475765,2.4932811513800406,2.970956246654916,2.9352998152328533,2.012927870626115
-0.41318484134714906,0.27229074285633953,1.3431529180846158,0.6482362925295517,0.21936874294678846,0.24401693298866906
-14.963644167801148,-12.809657188215837,-12.052884725603525,-8.240153814119031,-15.12907309378141,-14.199375490357944
-12.405156018903641,-14.132840230139605,-15.361754825075502,-19.009136250792285,-11.75315834014239,-13.164397441248017
-2.920201062735626,-3.8617323637559435,-3.7137301196729324,-10.281377189959528,-10.30191845501576,-13.732879565467586
-1.6610908858070768,-1.299536896065544,1.314654928664535,-0.07891845133819565,1.3680168364506133,1.5057737137524743
0.9548911449913425,1.7801599324900017,0.07124739873254132,1.9072655901371498,-1.0126438532403943,-0.17967928394832888
-1.8476129915110246,-2.4101298108665006,-0.24170241373589,-0.7602604028800584,1.0877950862052954,-0.5618392084885158
-11.626846613993965,-11.813654906578522,-11.163323861856295,-10.328782388678253,-11.850018067052606,-11.340850483551225
-13.995957757721095,-13.260526525047927,-14.616128822699567,-14.510010918964369,-15.251911243524297,-15.297952126761793
-2.580110172720339,-4.846124244593594,-3.7685137222852823,-6.355614997439238,-8.32481484230283,-8.226696421347851
-1.2126990151904637,-2.0085388718147352,-1.379871398354933,-2.2643104440787645,-1.0080112322579629,-0.5106211952437839
2.7664329299593584,3.017382616078625,2.8677595914885012,4.126429340037614,1.8874475940789377,2.723464667892494
-3.8137171522609123,-3.613822356342869,-4.161975463596349,-8.526736049351609,-2.1533578453914393,-3.449620014815049
-15.113486979412558,-13.010484761688561,-10.11144610065673,-12.860600652432751,-12.385628202937736,-14.432135480778053
-14.178853138166772,-14.32630746916027,-13.663248512937624,-17.546897023118234,-14.287520974459028,-14.89859944387544
-4.14337788723475,-10.82772697190171,-7.5816066283486085,-3.2479976476540053,-2.942315673077487,-3.402174779731017
-0.04753920366003797,-3.914294253525632,-0.6755804506776794,-0.9239819641446512,-1.0663398537078195,-1.3760348241903224
0.10018741936633456,-0.6549024012863979,1.2099878493867586,0.3738366261397759,0.8017367057415797,2.155549329481335
-2.1536716242407756,0.9412262471545686,-2.405429473049735,-0.3169841957909333,-1.3481246601068582,-1.8553237181147875
-13.201628772586911,-10.271470131156285,-10.211001700854974,-12.176236455850004,-11.694717505810962,-12.03788957064533
-13.32034905485267,-14.956486316463765,-12.742794481701818,-15.594595748489052,-11.973706330821098,-12.613233999851046
-14.278590288362757,-21.291645881276324,-17.00241755854957,-5.7359282749304645,-8.768465013217387,-6.617572670999947
-2.4368902135514046,-4.2660385638438205,-0.009108434559605477,1.6897374247627972,-1.2135867794223023,-0.39991848510927586
0.5696765145667287,2.5763577240131723,1.0182911212536152,-0.15249383738129935,-0.14361503976788914,0.8119261325866262
-1.132901688837079,-2.0051847446160993,0.14923162963608252,-1.2100614778319763,-1.0220546742032903,-1.3402437973047163
-13.217515804557062,-13.759540317401205,-15.105370107172169,-14.570265621982053,-14.45772284503745,-14.720167381575163
-14.248806493334744,-15.66560352533022,-11.795645864903605,-12.967562319188419,-13.160021426058425,-14.901079611425107
0.0,0.0,0.0,0.0,0.0,0.0
0.0,0.0,0.0,0.0,0.0,0.0
0.0,0.0,0.0,0.0,0.0,0.0
0.0,0.0,0.0,0.0,0.0,0.0
0.0,0.0,0.0,0.0,0.0,0.0
0.0,0.0,0.0,0.0,0.0,0.0
-16.16173011172685,-15.888841861446803,-14.818957269539327,-11.241251321642217,-11.949875102889143,-13.544505722490102
-6.659875445915304,-12.318380186198903,-6.0127712956707,-5.22744911250104,-4.651445047153619,-8.644729582402839
4.728875242059126,3.934756185912444,0.9559350847103714,-2.2961804370587564,1.757994516801698,-1.1564830590088933
0.8577493913769914,2.3625107572628177,4.614892534580822,6.0988308596689915,0.0004164307926506802,1.4715249217006516
-14.5824175939373,-13.89728240974993,-13.336413643232815,-16.90330550132012,-13.020652481792377,-13.199525140632515
-17.103546540327287,-17.95135855430355,-14.964239658106095,-16.995109592471966,-15.06900067189069,-16.168118604673886
-9.291872095573476,-7.893397430097347,-8.173874607182206,-13.149401955903233,-10.685010345081137,-13.943718242977772
-2.4903403005864493,-5.665777716945378,-3.7955016605911025,-7.576372154899382,-6.104311357537058,-8.333076841883136
2.3264965315908226,1.3993563658585675,0.10269548218705865,-0.9449392862685243,1.9374182017510426,0.5224475624299089
0.9400571098717414,0.918339529889901,3.750038710091682,7.249294005089336,2.7899198292094636,3.3369055744761327
-15.576003501989181,-14.101806145796091,-15.444782082519708,-17.959689316754297,-15.08566888739808,-16.01638158923073
-16.13632630327096,-16.27832896962079,-15.728056034890427,-18.08256942018014,-16.131945175184473,-16.07156020304145
-5.591630036181861,-6.142902902198776,-5.893966636867856,-11.170078404740709,-6.953395658240876,-11.02321074987887
-2.552823549527815,-4.1509766112517354,-2.7541866387678287,-4.958795826976056,-4.156856169838915,-7.495820074594818
0.9397506303563183,0.4022474095590773,0.6441071614898961,-0.2041881508726985,2.6039502944418444,1.9473586053286505
0.34525369061150585,-0.006023880769018639,1.5675831480174676,3.9292524091116605,0.9298627557706284,0.9045298031121194
-16.01130098262177,-13.78310051635172,-14.04166881032734,-14.899546112352892,-14.5762132679466,-15.697444459395923
-12.385061582807538,-14.97871621850447,-15.573222706241571,-20.597971795483208,-12.28965849549113,-13.729959809422521
-4.5861765236143635,-6.703065893782576,-7.967889105685959,-12.6074351782119,-14.198386565600877,-20.229078393175687
-3.36788306142114,-2.924245484036749,-4.186315679704195,-6.83804483321489,-9.381559371813857,-9.086808710037603
1.011094264638776,1.3059531673640232,-0.23549629458303778,0.7419234178128477,1.172143035637248,0.8997426350142781
-1.8600651090748828,-1.5697666033758932,-0.41159906354963033,-0.8852510699042572,-0.7718754628958684,-0.3526427773909764
-15.185846047309617,-14.80170484937891,-11.761862078471527,-15.16307511251553,-12.506879395938878,-12.2532317331108
-11.590363398007174,-10.573494965878655,-14.167378872782477,-12.946105322995596,-14.8522040016922,-14.89578540490418
-4.911722277931006,-8.355200679595873,-7.839414287287281,-7.708508488041673,-12.010942846033986,-15.910203726187854
-3.2896803770801584,-6.432323743184031,-5.354158692180535,-3.282813156543052,-9.595215356787115,-5.38311790922223
1.3046139008873459,2.251652504408619,2.910766288902743,3.023595261985405,1.7802530031832096,2.245061452659612
-0.7287841930471998,-2.140620908843487,-2.5765749432777554,-3.6552243218056613,-2.7719008803050302,-3.3512816320543077
-14.982883786830518,-14.658976658388967,-11.0099487774785,-11.797074842201717,-14.90823948255964,-13.682768754887856
-9.217683604335305,-9.592827216970049,-9.309203137109975,-13.200932395878572,-10.627596234045315,-10.912480576757815
-8.937284158278878,-15.287341382984895,-10.227649289091872,-9.062204747222415,-4.437333436816879,-5.148730212134033
-8.341224994752428,-15.548748990391545,-6.445047492135274,-6.991775079687626,-2.2202184664192144,-1.584013465785773
0.3632998700143771,0.3935619697009487,2.232659581290879,0.9062859413089518,1.9473426800989877,1.6864632018836472
-1.3694126478391033,-0.5141572319472169,-1.438061303204092,-0.438429742862239,-1.9618550533209849,-1.5692314213641507
-14.98224876902138,-12.182995127857101,-13.478404741666454,-13.3383661316842,-16.542547528724317,-16.493186986796033
-12.824669519290044,-14.908996014817154,-10.472458920124923,-14.322502357182685,-11.617714257618164,-11.287717942879876
-16.274834156324737,-17.656320596471243,-14.653574323551897,-10.475364557750163,-7.939569097310439,-7.661821736276757
-12.219902225568248,-17.44175631873303,-6.057689764088728,-6.24599099019293,-3.5062264930462357,-4.233517411845193
2.278492331917949,3.088133167463511,2.5096992387237935,-0.10157200723911033,1.5553066391441095,0.7785177193002847
-0.8204505992883151,-0.904064382643677,0.36047364711224117,-1.493341589912448,-1.9648108798642518,-1.1079468501313179
-11.6255195566815,-11.178911382206794,-10.321471273773657,-13.439179284044414,-12.485166439676448,-11.677181321488087
-12.349391621655725,-14.863428060182605,-10.274817239957978,-10.930499932940036,-11.54651414705339,-13.559326421930777
0.0,0.0,0.0,0.0,0.0,0.0
0.0,0.0,0.0,0.0,0.0,0.0
0.0,0.0,0.0,0.0,0.0,0.0
0.0,0.0,0.0,0.0,0.0,0.0
0.0,0.0,0.0,0.0,0.0,0.0
0.0,0.0,0.0,0.0,0.0,0.0
-18.231559624875292,-15.360672375239592,-18.645877778750165,-10.287489804169164,-12.9505427181117,-14.938051916926206
-5.1563491939403505,-5.777704852638422,-7.227803456763593,-5.6354642047057775,-5.28891029959128,-7.344171879746834
4.5136896219063205,3.2477233233916096,-0.03050986696636527,-1.970754994597466,0.3010081407121927,-0.9002494425980667
1.5333859428694243,2.033819462296112,3.468404143927541,3.5677869398192392,-0.23686213277753587,0.9442752424915414
-13.166361742877015,-13.543171499433008,-13.041551611399871,-15.94463319509874,-12.78339622419671,-13.29435609692446
-16.083310121316384,-17.466159704576345,-14.87421213077332,-15.756745153491748,-14.668776851101377,-15.686875238619214
-15.039960693199513,-13.26581085241757,-13.934482590816952,-12.091904692006835,-12.575390841015514,-16.948282458768215
-4.082351031965079,-6.215936597878552,-6.793899633455267,-8.335103509602925,-6.9246831737608945,-9.17202803404986
3.1867820706403904,1.8034776008196767,-0.41662771906525026,-1.494278862587133,1.03715550481421,0.7747919772378739
-0.21513300273365546,0.5325944411228241,3.8130372748317365,4.29411985891759,2.4254963435104258,3.1587730340118156
-18.47535439675714,-18.28008916061768,-20.091364133185074,-25.585450954344648,-18.08766480614773,-18.77941390728001
-17.121242898717977,-17.004368690761634,-17.06678029727437,-20.333224359647225,-17.31725418617171,-16.76493300168537
-6.919592273263232,-6.836320214088265,-4.575452442102873,-13.394309489254669,-8.328674085290181,-12.530938840689135
-2.774647156415552,-4.151674386282512,-2.0630195741268333,-7.934455161848824,-5.355980722716541,-9.52474607311442
1.1568653411872296,0.3320242438252825,-0.13402929916019296,-0.5252825336870205,1.9468275970726538,1.6120068660345441
-0.012027142336631286,-0.5072214874524608,1.188625766346388,0.971656963096413,0.9221925627836888,1.2058222616302599
-15.694801295704728,-13.546748848549406,-14.460911015104061,-15.737384468226821,-15.125764922936554,-15.373286213706555
-12.33692850464201,-14.964247122558444,-15.516367317436545,-19.7303398440592,-12.304879286921107,-13.724872319866403
-4.917883396133108,-6.661100213484677,-9.194097815727853,-16.940031631279947,-17.258013514950836,-28.304042776855155
-2.1490921257572535,-3.707245137566679,-5.156709985982727,-11.730634576734285,-14.276341781722712,-16.05652534408659
0.3988536508809838,0.3671291945721048,-0.4831432493672622,0.20521901038803073,-0.13363419358748385,1.6945030041368925
-0.7076568957949616,-0.20274014761303716,-0.10109245891657465,-2.2240644924155477,-0.8794751477950368,-1.4957170034329
-13.849757483178283,-13.10210487478639,-10.005963864925196,-14.936700013956097,-12.29355541807982,-12.22858391432018
-11.987021754544127,-10.841023125119186,-14.500807919983593,-13.044748150097474,-15.415539950119008,-15.485195802716614
-6.5128380773140835,-8.618691996791034,-9.262845755962756,-6.643588284758106,-10.802065870632298,-18.99455470647931
-3.5386213202241388,-6.125857965172004,-4.385956784719928,-1.46762794098252,-9.233029480481413,-4.833807879927741
-0.9234779170045376,1.0903063141102962,1.72210473959161,1.836995103280525,0.010122224666526332,1.3656410329348059
0.9432112272267776,-0.8884007933372616,-2.825329262154353,-0.8109805830231517,0.06848604184699383,-2.072433521844536
-18.06579260306054,-18.808966932651888,-14.687985476115342,-14.314849923422157,-17.779646027869354,-17.45365645922302
-10.982771623785004,-11.071942061717769,-10.865538568031829,-15.446092435958239,-11.919996553708843,-12.28392625466104
-12.120106644903567,-15.097769108715529,-11.323539064020705,-10.780756881828268,-3.1269830313653437,-3.8644627602921795
-8.895111679630011,-12.077480824978808,-6.610640940325388,-6.763364049227715,-1.8590671360389357,-1.9675964108200406
-0.35674606781868445,0.5555412947580284,1.5439028018104843,0.4032393512735317,2.446208629232463,1.0558397452913237
0.09813196014723635,-1.0741424163487459,-1.9143661629696758,0.12148663827346162,-1.3811062775632854,-0.931771195565596
-14.403751209558989,-14.468890588338672,-14.466147490625016,-13.371822974597533,-16.06929142730332,-16.101515782150866
-11.853362572096533,-14.115668382045243,-9.793417328871104,-14.048357515285469,-10.939562224171494,-11.02193930905021
-20.092195327636784,-19.884114940296755,-19.493344002464962,-15.172542931514958,-9.154785829465897,-10.49422787121008
-9.455854106332946,-10.925978875325177,-6.872868033451551,-7.4530317554785075,-4.343585170440001,-5.506723898662876
1.914148759450095,1.8120973972952041,1.864797014808953,0.17971301533853032,1.3865836701351868,0.7771413662386116
-0.6991276015336554,-1.5482917338550544,-0.7586584476810393,-0.8808819769403892,-1.9772248553220224,-1.3907400585490328
-17.158598026075808,-15.987042990591526,-16.083142631306647,-15.997740077543133,-17.2856110297716,-17.4508140525553
-15.514701674154542,-17.237966069124656,-12.798706943940028,-15.340917285804819,-13.207895997913969,-15.13173132343855
0.0,0.0,0.0,0.0,0.0,0.0
0.0,0.0,0.0,0.0,0.0,0.0
0.0,0.0,0.0,0.0,0.0,0.0
0.0,0.0,0.0,0.0,0.0,0.0
0.0,0.0,0.0,0.0,0.0,0.0
0.0,0.0,0.0,0.0,0.0,0.0
0.0,0.0,0.0,0.0,0.0,0.0
0.0,0.0,0.0,0.0,0.0,0.0
0.0,0.0,0.0,0.0,0.0,0.0
0.0,0.0,0.0,0.0,0.0,0.0
0.0,0.0,0.0,0.0,0.0,0.0
0.0,0.0,0.0,0.0,0.0,0.0
-9.518999681836288,-9.249090943896766,-9.230111276551346,-7.285205800646285,-8.096547837579664,-11.3579558964218
-3.869366160977961,-4.530215413014622,-3.539349959528806,-5.0503295191873185,-3.6921683396238114,-6.075418361717946
2.0757129765889846,1.0732327266301196,0.39080227844175675,-0.04331345490588843,0.8066087169733512,0.5016592028137077
-0.20775703396259668,-0.02449065720739595,0.7972625455082689,1.0350931336085054,0.8034985642430195,0.7957257472404569
-6.92575951365371,-6.881783630496255,-7.074570848378248,-8.152623988544242,-6.617991528657021,-6.503670467077911
-5.89206689071638,-5.9506235441301865,-6.261285095601576,-8.013481535952263,-6.125238856835404,-5.757728322804766
0.0,0.0,0.0,0.0,0.0,0.0
0.0,0.0,0.0,0.0,0.0,0.0
0.0,0.0,0.0,0.0,0.0,0.0
0.0,0.0,0.0,0.0,0.0,0.0
0.0,0.0,0.0,0.0,0.0,0.0
0.0,0.0,0.0,0.0,0.0,0.0
0.0,0.0,0.0,0.0,0.0,0.0
0.0,0.0,0.0,0.0,0.0,0.0
0.0,0.0,0.0,0.0,0.0,0.0
0.0,0.0,0.0,0.0,0.0,0.0
0.0,0.0,0.0,0.0,0.0,0.0
0.0,0.0,0.0,0.0,0.0,0.0
-3.656606879127055,-4.625192096312617,-3.450528985937764,-3.769585495954999,-4.950909813062046,-8.729245191242814
-1.9395507702216275,-2.344319652261716,-0.5182518984633859,-1.7331564837937317,-1.4955480162296042,-0.9655296210492067
-0.3687177709221036,-0.6358374904421552,0.709045277875053,-1.0639539960717361,0.019048018447945046,-0.059130947192773786
0.033585410723396866,-0.7268501919370243,-0.2925337142641486,1.1754072604703043,-0.44409961572571804,-0.27460099865605603
-10.051095643112683,-10.890701483953197,-7.686933730868336,-12.211482995375448,-10.001499918204503,-9.984891583543433
-4.970136735473125,-5.105134478735557,-4.799760486276484,-6.931511441532064,-5.078890640869064,-5.396764649772634
0.0,0.0,0.0,0.0,0.0,0.0
0.0,0.0,0.0,0.0,0.0,0.0
0.0,0.0,0.0,0.0,0.0,0.0
0.0,0.0,0.0,0.0,0.0,0.0
0.0,0.0,0.0,0.0,0.0,0.0
0.0,0.0,0.0,0.0,0.0,0.0
-10.239351372030345,-13.039839480453733,-9.62271182624368,-6.047370946224471,-4.591081222416067,-4.801406916712982
-1.5965677297047831,-3.170810651000168,-1.219510108481148,-1.9854630107748974,-1.3738483766137812,-1.7200850900931375
0.8098586106603911,0.4044832105191912,0.9755654045633371,-0.25890792837778115,0.2638120422303538,0.2131426840402206
-0.4749260608156582,-0.40559237973833195,-0.380954240083356,-0.3757113212947144,-0.8460127473533439,-0.553369381703272
-8.40648290903935,-6.941122963785376,-8.127471620990773,-8.229029861973393,-8.064588963253255,-7.539184625468031
-6.6020488576739105,-6.413583672319637,-5.325392984462698,-6.829160461070114,-5.369146823861656,-5.679124025853521
0.0,0.0,0.0,0.0,0.0,0.0
0.0,0.0,0.0,0.0,0.0,0.0
0.0,0.0,0.0,0.0,0.0,0.0
0.0,0.0,0.0,0.0,0.0,0.0
0.0,0.0,0.0,0.0,0.0,0.0
0.0,0.0,0.0,0.0,0.0,0.0
-25.75423126439047,-22.094571523839928,-23.024246631104514,-22.228044854031086,-28.59696030536032,-17.106017737079366
-0.6882527236799947,0.06312426241868442,-0.09625953667652334,0.8851647737122873,0.4301391582336608,-1.5864656456073538
-0.1835184547021578,0.7907822856847783,2.0493006601728756,0.8768638457194398,0.45745606580687437,-0.2114240141853415
-0.5112640642713999,0.27715450816702303,-0.42856016947286385,-1.4359761630724666,0.4171095517185733,-0.3074126583081174
-13.079808932391357,-13.661508303250763,-12.203782572927572,-15.087719178168655,-11.875207802593286,-12.948023758428844
-13.633583707849674,-11.24035247765934,-11.492239583238225,-14.783097073812815,-12.84654780063633,-12.03133240224569
-23.378370382394152,-23.03214775205935,-25.374935889571503,-22.09990117831859,-23.42857090616866,-15.481851290644636
-2.07153187398878,-3.572729239335995,-0.5644268439127912,-1.578779645430168,-3.188776576887348,-5.38882248883754
0.41913344345703624,0.2781537424006584,-0.46533161952910085,1.7436039900230618,0.8219609343136859,1.8336425356239872
-0.8256121245850716,0.0023843798830342528,0.2783237553401776,-0.983089823620162,-1.437017040057933,-1.298045593861267
-11.617255464176745,-12.646775175435703,-11.656609938081493,-9.965691129911987,-11.316978832647766,-9.311413769535008
-6.936605798965063,-10.552381823978894,-10.045068714051231,-9.823162477169928,-7.010803401209154,-6.332655213709975
-21.61987210287625,-21.70074044176263,-23.86469208787817,-18.679162671943757,-24.20482101873938,-11.999971554625306
1.2152796974316489,0.195688011756291,2.1305682197264315,0.5052941882816998,-1.9233541607540496,-7.637782493926041
0.1472437601768414,0.4221233999609731,0.832699201558936,0.09210359026975741,3.7084911579614115,5.268913874887517
0.44666230412015445,0.10689887248936891,-1.1307468757189265,-0.3179144947977827,-0.6939736142981925,-0.5420927548942331
-14.58432861636383,-12.831579050329022,-12.342577618494905,-13.678730307633542,-12.97173443120146,-11.559218018861491
-8.623603716404453,-12.852350063986512,-11.88217371567593,-13.44038975210521,-9.625808986348623,-10.686155642835645
-20.905511338202007,-18.320806000273794,-22.943663263975793,-17.18164621547781,-20.40551237774292,-19.180108082874682
0.45916604431719,0.1941662520875615,1.832841373826464,2.216919506487116,-1.7373602474681478,0.12184284807297277
-0.42690047345378157,-0.41888246637819276,-1.2591616040123381,-1.227265427485951,0.5475674576504536,0.6134181633912758
0.13859446442090032,0.5540680080997451,-4.834668048952775,2.0308251237557133,1.303275049156584,0.6505239992598137
-12.95256446523325,-12.424750931025853,-11.837773291581144,-11.284094666001748,-12.087989856137684,-12.253699194514036
-11.79644207529654,-11.348663605858036,-11.19519085584995,-12.25367188549002,-13.124618660219875,-13.538473996496782
-12.239429925367439,-12.753663275701323,-13.926870891852152,-11.949606948027636,-10.722005219293905,-7.198216480386685
0.4668743576919259,0.5444671254123643,-2.8140853742868552,-0.7127015398217917,-1.6396861965487157,-0.3224895664968731
-0.7544886399834349,-0.3228669067948179,-0.26275567864000865,-0.09423568956654768,0.0759709965700065,-0.23582736461659523
0.22693965676066866,0.03897302902399182,-0.746051290275936,1.2576073833907784,-0.2822492286183012,0.006280646885574881
-11.854113110990466,-13.874815967293282,-12.99179915195441,-13.140241380846879,-16.653200011934903,-14.321683726948198
-8.5256681489406,-7.796277742525477,-6.34443005099997,-7.3351145653606045,-7.375172762544236,-6.028894473472506
-18.507308637947542,-19.862045542036125,-16.38889210301811,-10.812259171835025,-9.248619455235229,-7.538486823304252
0.9278173470942822,-0.2253179577326668,1.6306078053861053,-0.525262831710599,-0.8000485682939483,-0.9145287879359653
-0.08732535105539224,-0.10704136551697627,-0.13992853606356806,0.5217438042451222,-0.4210653913285157,0.25074288202606154
0.35085369713113385,-0.359053319848088,-0.8973783303519373,-0.3520677941885298,0.7729612744653257,-1.0017646333977153
-11.965811732831293,-14.402057712827371,-7.092200312293716,-13.652191711521358,-13.835893307839608,-14.31810949847948
-11.51431500786562,-9.264720941244251,-10.280851806621612,-9.284963876255551,-9.739270425357548,-7.493341722753161
-19.50833003067635,-25.035476361392465,-16.32651939932671,-13.076700164250658,-10.713893854136327,-14.611979138371197
0.3832679880742111,-1.7887988990821289,-0.4097105680104637,0.024774962687853844,-0.7099781832487421,-1.8073738193353186
0.35110107230914683,0.27867703238727376,-0.24579569801288112,0.5862736470100779,0.24233633094847415,0.4756874384928052
0.23569038949583435,1.6022607636592958,-5.739263920036415,0.21947026384912874,-0.8868021559246047,-0.15286695372840306
-12.557688460535315,-13.401172450385353,-15.267046155806476,-14.086930168914968,-14.233098438717452,-13.941100054759472
-9.20457603516519,-7.7007522883592445,-7.462189862335096,-7.943771982727624,-7.8765437824097315,-6.083425713204161
0.0,0.0,0.0,0.0,0.0,0.0
0.0,0.0,0.0,0.0,0.0,0.0
0.0,0.0,0.0,0.0,0.0,0.0
0.0,0.0,0.0,0.0,0.0,0.0
0.0,0.0,0.0,0.0,0.0,0.0
0.0,0.0,0.0,0.0,0.0,0.0
-21.696808942951986,-16.355499116383506,-26.80283295240598,-22.278984548311524,-24.479065525072116,-23.39628134544364
-6.069158035521361,-1.380088641311554,-1.722698438068816,-3.6718893427993304,-1.644335345798511,-3.1133019082312474
1.1305530774516452,4.449893972048522,1.447894720919312,3.8388773248843764,-0.31172391132335897,-0.2002461869749541
-1.0385497396283268,-0.5180492550319281,0.25242259836963127,-0.10835526417637116,0.45003281715313953,0.23420807445834907
-12.722058412024097,-11.842967324867704,-13.835229530815418,-13.80060959750862,-13.643745982552243,-12.810756657685321
-13.799746987873068,-11.62321298602956,-12.122690388877416,-14.962813154541262,-12.806197533634467,-12.178445004809552
-22.923755455492376,-17.83692176300366,-21.334098080130826,-17.769697574056682,-22.58205746204512,-18.870007922428734
-3.555195078241146,-2.0537168343605403,-4.135342475675222,-4.675878640386558,-3.4804683635408713,-5.20533561418699
-0.03393335726312369,2.0747982043311968,1.4437881764666123,0.7177334393894922,0.6922386683450575,3.1758722467441425
-1.4809578313196066,-2.0503233029596886,-1.8632886744548043,-0.8154474726456394,-1.7894070081699038,-1.8665922670351187
-15.05663230343605,-14.327502399809935,-14.27902194059799,-11.507179445214152,-14.703490631898838,-14.374531290539151
-9.798421603713294,-14.66258489095228,-13.284336940550325,-13.828937739843495,-9.979444079504509,-9.044015657990748
-16.977599414070422,-16.212935484466158,-20.878223635810347,-21.005090242013992,-24.45959277329436,-15.988193128142278
-3.268300544281356,0.574906375866206,-1.0660343617848709,-3.5094716440071396,0.2041320002791111,-3.458133101722931
1.047467897780352,-0.668739949121479,-0.641656586682531,1.2096868071001392,3.1735721273328634,3.3979557896644237
0.08190759049627633,-0.17945900260984307,0.5454637122640349,0.8937015388810184,-0.5990378173560663,0.4389950919397955
-15.690532116863613,-14.351618566031844,-14.31840488737484,-14.015836225474635,-13.324961550369547,-13.188207545526135
-8.78608248412405,-12.604278196022305,-12.215876213061923,-13.157127431563458,-9.644925934558868,-10.667524729050433
-16.781814912809924,-15.377117414819903,-22.401470317944707,-20.458344178246165,-23.664066384502096,-16.118060463069437
-2.2602437241610094,-1.3287030981270067,-0.3511167499218192,-1.024416140428702,1.170888674893555,-0.40940894300004815
-0.4646468764845095,-0.21082288989228393,-0.512568988281572,-0.935769265591142,-0.15158322497087964,-0.17017840350306562
-0.004695856867362018,0.03185560117088435,-3.461604664007154,1.8941667132390365,-0.49143142479879753,0.7865440976894078
-10.397036909731062,-12.705839579965701,-10.812170680465742,-14.229067096578929,-13.89243929698135,-13.588033792143749
-12.030638825383383,-11.405753259764111,-12.294897293683228,-12.728205393299495,-12.623610684242392,-13.331953185229644
-16.383328545303392,-14.579171991026037,-15.986806968676758,-18.08736522401144,-17.05800328573892,-18.61930380009282
-0.9297807466056368,-1.2930605948511626,-0.14732426336619367,0.7327709686216692,-0.13045666723440016,0.27878451339121973
-0.09854517623940261,0.4022470336669878,-0.1549011128548803,-0.01863820966128617,0.32012094762161014,0.015897172253488502
-0.23277989193025983,-3.1598971687261392,-4.6091362951802894,-0.677858355937516,-0.5154893762628245,-0.7065744082322147
-8.78807941269973,-10.775403712861563,-5.742326055700066,-11.699632188681992,-9.87075599840875,-14.355638673807992
-11.528828377215383,-10.795431416128755,-8.510804331721353,-9.319033113628375,-9.895578687224766,-7.946795039888225
-12.828384768712596,-17.16724910313949,-17.28545647498104,-7.737740052819983,-6.145840240115645,-12.891981520795618
-4.171091229943948,-3.765071888769504,-2.552125233866443,-1.6717634481384598,0.5625634458584223,-2.306017864237779
0.11451698895465488,0.2619216425394331,1.1313377601208952,0.24189518668619406,-0.6971983894759725,-0.057309620929211616
-0.15541890305075173,0.33102591312576435,-3.606290683943834,0.6316257333749247,0.0009947697273168573,-0.27758367982691373
-11.11570862317379,-13.0191989667498,-11.230308102952435,-12.943052623669955,-11.182111002765128,-14.036158525641131
-11.984527357536894,-9.385936379768099,-9.831765282489169,-9.392609429943914,-10.199556935943358,-7.64080639360538
-17.497076263301633,-21.18418388544715,-20.653632485892718,-13.178769570553625,-18.20547496931318,-11.06552659761884
-4.164229922712698,-4.002256774805814,0.2399946249442865,-3.0158128011328746,-0.3542260885125193,1.7273761225218431
-0.09895082544768175,-0.26579341287627617,-1.0339228258669124,-0.16165450089151776,0.10172384400238905,-0.5502853681280679
0.40149173008415623,0.07260607432997415,-3.581727415509173,0.38282213487803357,0.8221918572547057,-0.6454204957662513
-14.4368450144369,-12.6184791741264,-4.5731133510829105,-13.982119473453121,-12.57387949521524,-13.423797486616092
-12.8054357797371,-10.93327957217273,-11.088670150761937,-10.394218564144813,-11.348993860873907,-8.74594120192099
0.0,0.0,0.0,0.0,0.0,0.0
0.0,0.0,0.0,0.0,0.0,0.0
0.0,0.0,0.0,0.0,0.0,0.0
0.0,0.0,0.0,0.0,0.0,0.0
0.0,0.0,0.0,0.0,0.0,0.0
0.0,0.0,0.0,0.0,0.0,0.0
-13.504098970497969,-7.203407587936717,-20.859437913277056,-15.224107161566437,-19.120765095697887,-17.663700971383843
-4.673357738917051,-9.46448609761805,-6.437864017414732,-9.435240026329682,-3.5439769169575417,-6.6797798335908825
4.894735715512075,3.219936111813193,0.020473811384147635,1.393461780170848,0.34474925329000083,1.6840013922683972
-0.9053239114858398,-0.4995872938411458,-2.1166309373906653,0.857288849353843,-1.2937468008543151,-1.195056314485664
-14.64637956699218,-14.60126945693478,-16.221585540236973,-6.686250943935842,-15.76756010122428,-16.18202056068276
-13.986696648750202,-11.190281155908336,-11.648175869156562,-14.141883072530266,-12.90805127256525,-11.827271046200838
-20.16774923326584,-15.65289925073943,-15.762874377176285,-10.728567577983306,-17.163733626469995,-15.747184772587467
-3.6667914754344495,-5.036188801690704,-10.662958644761144,-6.967975010249216,-2.126226680172385,-5.624533788141827
-0.470842663954005,0.5162485569716206,0.4129838939543125,2.1694146722037133,0.9238595959116841,2.315537888479962
-2.3920460511113344,-0.8014470159955682,-0.46328517948015896,1.4452512933152528,-0.5239936865261883,0.9225063459666354
-12.875248264314106,-12.692577673088024,-13.471891350161812,-8.531200395773135,-13.918342448139187,-15.42453483990542
-9.21441672655754,-14.010596808122907,-10.274771790151707,-12.446492975763455,-9.655752001218984,-8.797460108234198
-13.513781276871901,-13.56958592120753,-16.0151553348622,-12.749749238816017,-19.159764995938023,-14.506661292276187
-3.4345971031592333,-9.766684640467885,-2.3966305660981555,-6.173231715168324,-3.956885789903375,-6.870443207907905
0.5880197438256595,-0.26209002489939437,4.387758802548948,0.5568665834591021,4.467964571894818,-0.43678930344213696
-1.3388288980656062,-0.3564526588703557,-0.44724574422649227,-0.05069575426640459,-0.2592524072610505,1.4415665313350465
-13.91542193738725,-15.57672083431378,-15.109367672849855,-13.34893137553281,-14.012700128809396,-14.23806508101864
-9.275034570782614,-12.833798255507963,-11.92423181774672,-13.454715729687026,-10.032806547658781,-11.032221750749624
-12.660447040608194,-12.522585986144184,-23.297879718642385,-16.635611765689898,-15.630889959708378,-13.360281805678895
-3.252237229476839,-2.8114583357313525,-4.870141644095346,-4.837217722019047,-5.2447946859134476,-5.722416058375446
0.06860847680583733,0.04422155554312583,0.25218594268984257,0.0879671327562922,0.5517146278310576,-0.09656817249129748
-1.6041027671488703,0.00015942920461120054,0.09911530389426579,1.6423210712733152,-1.2744383271846365,0.30104450012244055
-15.252565561155356,-16.012886528172245,-11.238664017946071,-13.242690714542974,-16.556153737603285,-15.643304586645291
-9.59112857764026,-10.53665407078275,-12.543292344124088,-11.173351041607015,-12.727934451037731,-13.422451217966856
-8.20607846398068,-10.303477676449686,-7.308495172260425,-6.043353575930967,-15.397966412218375,-10.97866068098109
-3.3810462451367953,-3.0771040410687798,-2.04679431177546,-4.871678638894132,0.07281592124378009,-1.0867238068090361
-0.4108662732342359,-0.14581854270480538,0.09156462666485032,-0.09501900464760678,-0.44627190126837224,0.19923304355982757
-0.9052193987696492,-0.6817912853857597,-1.7344371693626859,-0.693408823236726,0.3561719374054704,-0.1900978866897447
-13.093473984491377,-16.24376169449843,-17.092531691659996,-11.864965427359497,-8.08208155848426,-15.392585968111991
-6.850710974202692,-7.841408100841626,-7.481982088173389,-3.6208381116824033,-6.394614302466166,-4.894280266515301
-19.50236353671538,-13.065145474629393,-14.531770125814589,-13.393454091316388,-9.473593077176917,-9.962190041766686
-7.469972955683555,-8.310496161463423,-1.0536124788306325,-2.131191422992953,-3.738843491748538,-0.786131131001037
0.16340565070811144,-0.07491124673447254,-0.04594800623876973,0.07251420929425251,-0.0013109290573984826,-0.03454076093347939
-0.26098994200138115,-0.543555187585899,-1.9332108430819166,-0.7447851693862912,-0.684028352784445,-1.0264751580380593
-13.377866990214121,-16.418210324828188,-15.56002516856214,-14.649908509045868,-14.096625887851234,-12.925866599606989
-12.053024845988395,-9.968046763331827,-10.066171143629745,-8.872877990859322,-9.56440215516763,-7.450200365166952
-20.72813457133067,-11.352978158363667,-15.80367369494256,-16.295860721734243,-17.430217401881762,-10.020736147469975
-5.028859030106724,-7.640968529856239,-3.7925733745661065,-5.907004737907013,-2.3449123508936847,-2.838493536848075
0.2892919685066479,1.8317941478157738,0.7921416033340907,0.7987671951902681,-0.22343601482064446,0.07139721410257666
-0.13754862215042407,-2.1186973590608775,-1.9019178846781606,0.21821359307074317,0.2710138000685956,0.1771703585099082
-14.164491231670084,-11.548048323725753,-5.107132137490628,-13.176037233356123,-14.469537289027157,-13.327853800045299
-12.495498524700729,-10.878834877820275,-11.255525957299573,-9.926630678805369,-10.91683328216691,-8.198067166546535
0.0,0.0,0.0,0.0,0.0,0.0
0.0,0.0,0.0,0.0,0.0,0.0
0.0,0.0,0.0,0.0,0.0,0.0
0.0,0.0,0.0,0.0,0.0,0.0
0.0,0.0,0.0,0.0,0.0,0.0
0.0,0.0,0.0,0.0,0.0,0.0
-21.909688613447035,-6.1771945394953045,-13.392384644212163,-14.151965307355672,-21.289798032831417,-9.964447004348182
-1.5783025456881978,-9.398733740646337,-8.20790689597738,-6.872242066072605,-4.0265711976917125,-8.275361767894003
0.31257550923106026,2.981820696470142,0.6075265388886097,0.9044378327618853,0.5495514014127433,0.9689872916299421
-1.052337609603597,-1.2490796301552103,-1.5044408310576156,-0.42650662200010503,-1.4327223370623645,-0.705259121797574
-14.471513420924559,-14.526238576896924,-15.877374421613094,-16.18276479715796,-13.984399889735213,-14.920815363658008
-13.475598645649791,-10.813898367783578,-11.364937374019275,-14.540894207306536,-12.910173507120508,-11.791859149727497
-28.383156749548863,-17.17471158423886,-16.243788519713217,-16.84566260924696,-18.04022850958345,-13.429361197080233
-2.5633615505729113,-5.4366229933417625,-6.588486255150551,-5.602227345287734,-7.275826436653572,-10.455257529552318
0.5119238801843322,0.66311451373623,1.1294864964975333,0.39959876285535906,0.918732326265698,0.3454264275428108
-2.476229435679203,-0.206681261807494,1.2130271161111605,1.3814580972524,-1.4582927574417173,1.1135771702272652
-14.457266565020667,-15.916299638871047,-16.75017047509161,-18.3523780111788,-15.045886828663773,-16.150942174734038
-9.694418530154564,-14.6272048940064,-11.255660081283368,-13.540561187473253,-10.10025113884418,-9.254175475627582
-20.151023207193173,-9.327748903327768,-13.287364628748799,-13.764729019954483,-16.300689937615914,-7.089607859309666
-1.8126625366498443,-6.9354044155307,-9.129371177613598,-4.330329904382768,-4.322367232333716,-9.844201370786388
1.0660109817632228,0.5051250482318732,2.276292128099302,1.229535251431423,3.9137178965000303,2.161505679167443
-0.9963810539377997,-0.16932861914885616,-1.4587879449984382,0.33823155567090285,-0.7141628087436055,0.4035350465112714
-12.491100912390893,-13.783769304248514,-14.84968326373218,-13.773840192813049,-13.312757706472524,-13.086183992122866
-9.141456092153653,-12.893104513748371,-11.765524742209731,-13.467329968050988,-9.925251265907638,-11.104331169324986
-11.839691891244202,-16.268525172774737,-18.05999299676402,-13.561134412546009,-12.609462045519539,-13.807162767461396
-0.6125328884918714,-2.1773384295334752,-3.74982999179482,-6.808274055679626,-3.7379615996659368,-5.319576193187481
0.1753751604932861,-0.10792322638630868,1.961802756732912,0.008553119724485013,0.3434756492623636,1.3925676425242186
-1.0424654246582905,0.466778644596608,-2.3617605203157526,0.47913913575207473,-0.33110125660241735,-1.273522479752966
-13.105023993507116,-13.063131363751083,-10.923752909289277,-12.01510668882034,-13.562608678113204,-14.231956939117914
-9.578861777480393,-10.1493048116569,-12.242654375841498,-11.016502976951916,-12.985429970556662,-13.632738246989648
-14.851438479193439,-9.621774481723103,-6.794952625291914,-5.801256427756105,-13.735681227316704,-7.320483294594032
-2.7896717548249534,-1.0048205163624595,-0.13614161364921615,1.9654826087659671,0.860926474285381,2.9279144591200756
-1.0528848644931603,-0.21651163795410278,-0.08947934524048963,0.13803305235691574,-0.16244130359633557,-0.45274008345094
0.1284377740836734,0.32056883750532394,-2.4618847441053835,-1.675666081197677,-0.8123321918189167,-0.4018599669011017
-16.587851676938996,-11.842848285696993,-13.451741436830417,-14.965864874436633,-15.391157775057078,-15.31851689943634
-7.39626753414432,-8.126895802485818,-11.162674057632024,-4.568157408723612,-7.057449399015399,-5.696058114077039
-18.291458312252892,-16.548462617286127,-16.518178529415998,-15.182719622557853,-7.915741108139163,-6.540013077863228
-3.4012729824729133,-3.9841795574251044,-3.263575072361063,-3.3255957815237878,-3.9954902407888135,0.21640480333704482
0.589817118713107,-0.08597507077583617,0.22638668058077518,-0.35633554349581525,-0.14623799642113391,0.03660626276767377
-0.060771652798172274,-0.2170470166617215,-0.7131743365998462,-0.49801611378089133,-1.0138776969129577,-1.0750506428982884
-16.548553543446296,-14.20119668464773,-10.538275849352218,-13.521468942282631,-14.710642724985798,-15.098286930547827
-11.606832980395007,-9.833896207308753,-10.307841771732951,-8.859690699653681,-8.955819549245273,-7.278363877292126
-23.91522984920663,-15.328101760987499,-22.289852436419423,-14.040882517065828,-14.0691829888297,-10.419445114966214
0.4421463335477367,-7.1017896698069904,-2.1190657170619343,-8.868034151042696,-3.9945385164375713,-5.185902184103494
1.7120797217125776,0.9300368430530688,0.01394889292050574,0.48774090234578643,-0.13281457468532312,0.15493825010126977
-0.39121570775507114,-0.06602828568309253,-1.025781778250241,-0.6231700936255418,0.4064388914099271,-0.6044044143038377
-16.87642472291514,-16.376108283240328,-17.252989167422633,-17.541508867127302,-19.10522971669294,-17.97500870826178
-13.387569327318387,-11.624621271625408,-11.213196149933651,-11.355407089728747,-11.113359919686992,-8.622906602711021
0.0,0.0,0.0,0.0,0.0,0.0
0.0,0.0,0.0,0.0,0.0,0.0
0.0,0.0,0.0,0.0,0.0,0.0
0.0,0.0,0.0,0.0,0.0,0.0
0.0,0.0,0.0,0.0,0.0,0.0
0.0,0.0,0.0,0.0,0.0,0.0
0.0,0.0,0.0,0.0,0.0,0.0
0.0,0.0,0.0,0.0,0.0,0.0
0.0,0.0,0.0,0.0,0.0,0.0
0.0,0.0,0.0,0.0,0.0,0.0
0.0,0.0,0.0,0.0,0.0,0.0
0.0,0.0,0.0,0.0,0.0,0.0
-13.003137030651935,-9.884764357337836,-11.739190507689791,-11.519028972630181,-12.6575062549909,-10.257758269154
-2.3071461535893216,-4.486835375756454,-1.9121691578174431,-5.1426236341118425,-4.6209170510976305,-1.413236697161773
-0.036553915733074545,1.4743050097482933,0.4169675869811702,1.3961310139824683,1.8787751585573567,0.47587458088672246
-0.7170070311928994,0.12998882632540157,0.196739572405651,0.44655374565154154,-0.38244807498261796,-0.2756805058662917
-5.616603033880205,-6.324238162373435,-6.34699428628085,-6.428190404329395,-5.434011567638546,-5.307959603811907
-3.4379071359822,-5.280881540333636,-4.502857677820064,-4.934556723833738,-3.5414551992974004,-3.1969050405194315
0.0,0.0,0.0,0.0,0.0,0.0
0.0,0.0,0.0,0.0,0.0,0.0
0.0,0.0,0.0,0.0,0.0,0.0
0.0,0.0,0.0,0.0,0.0,0.0
0.0,0.0,0.0,0.0,0.0,0.0
0.0,0.0,0.0,0.0,0.0,0.0
0.0,0.0,0.0,0.0,0.0,0.0
0.0,0.0,0.0,0.0,0.0,0.0
0.0,0.0,0.0,0.0,0.0,0.0
0.0,0.0,0.0,0.0,0.0,0.0
0.0,0.0,0.0,0.0,0.0,0.0
0.0,0.0,0.0,0.0,0.0,0.0
-10.932304288625259,-11.263756436480115,-7.184072913724066,-8.29959362032656,-10.147431484516257,-5.928639486004615
-1.173256349449786,-3.630271516866218,-2.4133370265804035,-5.006090769378555,0.21652380885325812,0.5788128986479434
0.9471142711728748,0.1758656821873129,0.25412986880099747,-0.1948183188010732,0.03277024955432436,-0.3060069607939476
-2.4586958025584953,-0.30448380531417746,-0.5226271807945428,1.348888592764144,-0.8105766019848815,-0.3047558023715888
-8.215036252388156,-8.020822624584602,-2.8407650615761932,-7.92252185721199,-8.97854916017376,-7.389917236896555
-3.4961381274553776,-3.474301384373529,-4.2277830785560155,-2.8100081939473,-3.245749561413939,-2.8169440028104105
0.0,0.0,0.0,0.0,0.0,0.0
0.0,0.0,0.0,0.0,0.0,0.0
0.0,0.0,0.0,0.0,0.0,0.0
0.0,0.0,0.0,0.0,0.0,0.0
0.0,0.0,0.0,0.0,0.0,0.0
0.0,0.0,0.0,0.0,0.0,0.0
-12.178078154685759,-15.211492059833875,-9.957061480995835,-3.670462264531058,-3.6574609523488832,-3.763753886594747
0.872378140595186,-1.212654460703601,0.8005049775157015,-0.09448273500229086,-0.6119520653374357,-1.1882782766225337
0.674746952595143,-0.17890540170628477,0.47691081105823,0.6800682272577248,-0.16053087115970208,-0.08712546399769834
-0.8991526648920538,0.6228993062202796,-2.8915839344545584,0.2728288244353171,-0.900379779517443,-0.7482933236413676
-6.597552554848164,-7.498042778488451,-8.000992141591293,-8.021202432653626,-7.830019108424882,-7.111512119944584
-4.791044944549417,-4.051067557783334,-3.9873723500543417,-4.239945968642109,-3.9586302179525754,-3.068108457088181
0.0,0.0,0.0,0.0,0.0,0.0
0.0,0.0,0.0,0.0,0.0,0.0
0.0,0.0,0.0,0.0,0.0,0.0
0.0,0.0,0.0,0.0,0.0,0.0
0.0,0.0,0.0,0.0,0.0,0.0
0.0,0.0,0.0,0.0,0.0,0.0
-17.924943022378798,-19.830160003577948,-21.4655668766733,-20.004460785310066,-14.485229034132239,-13.493526732195871
-1.309944247711697,-4.759184486268506,0.7434007563034458,-8.226877015180802,-2.655643855960093,-5.8318804758245095
0.9515762027679666,2.057427226328841,0.9066106395707619,0.22425251372142666,0.2832945659580643,0.406652899628575
-0.5160797149679266,0.374330142780867,0.036871851470609535,-0.9652272673611099,0.8070236688095468,-0.2877579838587763
-12.481874595028836,-12.280331268124872,-12.28995448661349,-14.439222681060627,-13.523163337515122,-15.457164472848543
-14.68487113835834,-12.651614640436451,-13.316913933499883,-16.419048055922282,-13.414178415727282,-12.301734227713144
-20.350576032250736,-17.76712477929919,-16.638601072821345,-17.940234963223503,-22.3129092305903,-11.942477600235335
-1.384644676622521,-7.330551577750814,-3.2337318715311274,-4.747279819603334,-3.2451589391933435,-4.217715768864486
1.3375112916649032,1.197656472954109,1.4034559380453,0.03125634553153657,0.25354198268784484,0.5570316969917747
-0.9336446700892254,-1.2562424042005165,-0.8231187385038351,-1.1612843521987752,-0.5232737741515098,-0.4376124239634988
-12.282146258082753,-10.164647805269192,-9.408256557305684,-9.917754839597244,-9.844044581408577,-9.047086249302629
-6.583196347140889,-7.259548350631204,-8.18657044692578,-12.066942279683483,-7.031414377882434,-7.101214288666476
-22.23356928897536,-17.01271538248271,-21.074042224075175,-14.47273872448715,-14.729786735363994,-10.802024035761487
-1.9359858358166666,-4.391872714635121,-3.1964329712532966,-5.991479147177026,-4.95150869695581,-7.962984526316333
0.19278976204819914,0.16297369991989463,0.6962574295483055,0.5388518041407362,2.4251989514098033,0.5836328177256274
-0.6082796640798085,-0.46303224258383796,-1.0138554051963597,-0.9880085184336425,0.49012422304903175,0.7680298798942315
-12.55865548858397,-13.83873866894221,-13.331551183112934,-14.954844552937729,-14.10278858674512,-14.005495673824356
-7.973697324580341,-11.65659027962886,-11.002665142106899,-13.97333728690928,-7.5552806089227476,-7.919610208776074
-19.6774441199966,-17.71978062209152,-17.97252747737066,-15.402379297976127,-16.193850517812745,-12.665190595954922
-0.33748669747837884,-1.582532613331793,1.9780483504692947,-3.3600478937392735,-2.7386175396542183,-4.491387250902196
0.40786678785075087,0.13532808789932912,-0.3178663878879978,0.3670401607473128,1.5629933556037634,0.8161554629528389
0.15526999546343218,-0.3035350470826988,-0.47791607052928087,1.7128680446036793,-0.39701919871692054,0.2800759498546965
-14.478744000605797,-13.564926232530462,-12.787985057828527,-13.513108067122976,-14.396813296004948,-14.586567262826915
-11.622946685490893,-12.49940176810337,-12.058882141014202,-11.53121230104779,-11.643734848551121,-12.690300474875
-13.98026994296546,-13.756962819938156,-12.584578486384698,-14.231494079599054,-11.964260363718692,-12.24709916078288
0.9697130470307194,0.3970054345530992,-0.8114976917187448,0.5068022266258924,-0.22516055652107575,-2.410273319288152
-0.8711877535793294,-0.46860969602904806,-0.2884318133331358,-0.8926128855661114,-0.17313692000598163,-0.16595004104817576
1.6998806725283326,1.2616679741592682,2.0031838878312325,1.7009641439496668,0.5605414532893922,0.1771208435589378
-13.736947003035404,-12.098288498029575,-13.860964045020363,-13.706318428211718,-15.079179902192857,-13.106343466742771
-8.976083457898019,-8.512976400510636,-7.4536941404923445,-9.98168898827951,-7.5612990546840955,-6.85848589908969
-22.396860178002253,-21.151023687805456,-14.641487531772112,-14.262165870808627,-9.30260742155791,-6.555673715332812
0.1712612261891763,-2.8446350849114714,0.3492109926201608,-1.3818490076389605,-0.17752948146621392,-2.15521703582296
-0.20259130210049908,-0.16497173082836447,-0.1932286190431477,-0.24701843314052938,0.26718385387771776,0.03155709185047537
0.27982455952076857,-0.273125346051065,0.711011329886747,0.3727604128829228,-0.5284257135501854,-0.5456198156086381
-12.848474521201233,-14.139127735290359,-11.005330275218082,-12.777699576792276,-13.460956425357237,-15.126480565211743
-12.071766449848324,-10.811352405648016,-11.005076655047379,-11.112702994769622,-9.619833440637823,-8.624416569782348
-19.097621845554357,-17.790345422039763,-21.318428062236272,-15.184727938545914,-12.726912135925271,-13.287178381782391
-0.4769772049920754,-4.019207994528114,-0.9145221234585961,-1.2004504736743873,-1.6408687577595162,-1.1924616965166435
0.645843741295898,-0.8722979164694569,-0.2646928564211298,1.2819379092833874,-0.10553316790223082,0.09260073999532442
-0.23157923161428653,1.0099645388084801,1.7806912083017556,0.4233849134486278,0.08264560213047202,0.39273809553573774
-13.188851409458415,-13.004573082368598,-11.213675179916201,-14.30494807703959,-13.4160673350827,-12.653393659659113
-11.338717906546549,-9.175700654021474,-9.232307003466671,-9.552098810358448,-9.078694210925937,-8.079943604856783
0.0,0.0,0.0,0.0,0.0,0.0
0.0,0.0,0.0,0.0,0.0,0.0
0.0,0.0,0.0,0.0,0.0,0.0
0.0,0.0,0.0,0.0,0.0,0.0
0.0,0.0,0.0,0.0,0.0,0.0
0.0,0.0,0.0,0.0,0.0,0.0
-18.37544014629382,-13.092507615765884,-18.723775030035473,-18.908626153746653,-22.05057309884847,-16.85094869088454
-4.923281695831444,-8.03826077299798,-2.9666316031393305,-9.984778326251742,-0.9668666302592337,-7.034573767792415
3.6441738560756507,4.1312151907170644,0.7087916072323914,0.8280844835723143,0.9180074334259971,-0.25936267980794936
-1.0397348634942774,-0.6879534451304722,1.136064260058483,-1.4400584536471717,-0.039860728553743535,0.6906455308978341
-12.354563639916025,-11.83789725466622,-13.33479760570328,-7.419756712020907,-12.947254383383669,-12.519747285578596
-14.962040492465453,-12.66719201494356,-13.03539435112418,-16.56854068692949,-13.644112550926861,-12.424050963526167
-21.852318643880952,-15.439863687722363,-19.035323096219816,-18.932900810542154,-18.927216655973517,-17.066755840353558
-5.657588845660107,-4.5211892789924475,-1.4191648081949888,-6.699382385728456,0.7147643560604519,-2.979393563696447
0.7294330037627791,0.5042627517499968,1.6667284175311847,0.8864896506605183,2.115162486938526,0.4520848038668217
-0.37461804934383497,-1.5218250180313386,-2.3788620388495354,0.4077371300523722,-1.1148578459617062,-0.06372501843640513
-17.366256524940365,-12.417470783184115,-11.386133171485366,-6.882402515522143,-13.206040047264972,-11.364579834136883
-9.511193538450538,-10.349022189915386,-11.4805317185618,-16.252732141510265,-9.931030215994959,-10.23302990025614
-16.0034075050926,-16.389288569627816,-22.366226957579265,-21.219876504689104,-19.55668275796465,-17.698308031080465
-2.190631992651506,-0.44804242486090173,-3.709706042161975,-2.613307476875403,-1.9983340874182096,-6.271481669909878
-0.10187688137562205,1.2183483548177796,2.277796386708895,1.5641608237477078,5.9788626832080825,1.6444892438523953
-0.46992746754714093,-0.7442525945623852,-0.12539909559891818,-1.7323746256544086,0.08068316470035633,0.10670503662319314
-13.243622808447123,-14.534225551276363,-11.918388202864568,-9.686848400489549,-13.946066901442768,-14.156497818695259
-8.114404636017074,-11.42858384812492,-10.896084515344155,-14.217424251469978,-7.511049122138845,-7.862404147379433
-15.672843459732634,-16.620401508969564,-16.161488599665073,-15.321948976556083,-23.031458728134105,-16.027261052353964
-2.2511507354025917,-0.6693025595599843,-2.123867085725432,-4.059712579133706,-0.30191054148854224,-3.0317269586058706
-0.22157801389256343,-0.07547051526976584,-0.20240614008324403,-0.3701241712714485,0.42109547294406463,-0.2125694467463994
0.37723492272508524,-0.8372372468733891,0.36214836271109396,0.7595720076658553,0.24209422495320995,0.08655555971755326
-13.788392443417234,-14.340459447241878,-13.04447008426241,-13.30829043906565,-12.581386249821225,-14.023034352776792
-11.492903472659245,-12.020551048209795,-12.178508058872287,-11.394335894353262,-11.101827501700061,-12.32975421764349
-15.86235927375817,-11.048456635358953,-16.020905080301947,-16.15700800880804,-21.014040304051058,-16.895398814390262
-2.0831728186765277,-2.362632186783714,0.17334441373635087,0.10775203155351042,-0.23650824745675755,0.5243785537487988
-0.02015767673294413,0.16840845013673453,0.12452816070928385,0.28469587734562535,-0.21515187197369223,-0.010378151257230076
0.29070784508695896,-0.7819803572325162,-0.39182454787897253,-0.0349995371077082,-0.5997533741056101,-0.9916297824493867
-14.529886535362753,-14.749536659141908,-8.112392079667117,-12.231122612286992,-12.319716110639359,-14.96612760811382
-11.493076484574434,-10.800872094104479,-9.067606036259306,-11.260813874617947,-9.672440534902512,-8.451551830804823
-19.173246700085183,-16.98365130842721,-21.682781160550462,-16.69845830499891,-12.707263298905902,-17.015225286769155
-3.8744204981467902,-3.2683686064676993,-1.4921677997262621,-0.2098323538034725,-1.403058666030987,-0.3646410874582973
0.5265503165588994,0.029925592733202527,0.5597062574618092,-0.3011029297318785,0.22608421575052495,-0.5946130880456054
-0.3060404868938118,0.6346251665246637,0.24008459105564206,-0.2347329308979919,-1.2204526217685845,0.22279066451513563
-13.82145853381468,-14.612795718088956,-12.1128196968806,-13.39832813202919,-13.717266912933221,-12.542244445957554
-12.467121939355813,-11.003493234319883,-11.447763812602808,-11.245955337686727,-10.10506464651226,-8.959405687969536
-18.286409133558568,-16.19407975207761,-21.180407012434248,-17.612809775948424,-17.6267481907838,-15.208235305679434
-2.7881013164072668,-3.6771240544233224,0.847450383733423,-4.25333341882703,1.1439215160282705,-1.5085554173721798
0.5489181752537687,0.4936419602458736,-0.48569552820298184,-0.304447977046061,-0.6229212306415584,-0.15082012561283528
1.119780298026129,-0.624136280146297,3.1451175864713172,-0.016078644216429246,0.2668777244467697,0.35566839959921126
-14.80850496313825,-15.775524206395803,-12.514845523282853,-14.5796850213404,-13.848518477805289,-14.260560856524982
-14.734437093900324,-12.515100888723342,-12.093258888124538,-11.430412083021531,-12.462769028068069,-10.826291181898775
0.0,0.0,0.0,0.0,0.0,0.0
0.0,0.0,0.0,0.0,0.0,0.0
0.0,0.0,0.0,0.0,0.0,0.0
0.0,0.0,0.0,0.0,0.0,0.0
0.0,0.0,0.0,0.0,0.0,0.0
0.0,0.0,0.0,0.0,0.0,0.0
-15.026475453523204,-4.238363059058411,-19.113368577393626,-10.714691030057946,-14.255409879564558,-12.35954849593398
-4.328711650355014,-12.160178918499447,-7.254627553296324,-9.872003293172742,-1.6245440232302197,-11.5759605208201
1.9906559867101772,2.443217241834179,0.14608393817272966,-1.676356955160179,-0.0739201991569399,-0.15590360914441398
-0.523926203688776,-0.22537440151849858,0.794151141987699,0.208416844827173,0.04453039710257127,-0.014663658458087906
-13.108161167942015,-14.130972385618753,-15.03394549627159,-10.90029839229496,-14.997710425224854,-14.28595198034113
-15.028187306818106,-12.873873146793331,-13.609883308583989,-16.46034953522847,-13.781680800258028,-12.452285780553565
-14.79812425410336,-9.535005774127853,-15.037909232702832,-11.818599326855008,-13.81368590668139,-13.029905766921825
-9.382663129484868,-6.266838562527984,-6.412132474408973,-9.775253132049885,-6.291333745159213,-7.751805066450321
1.6673406797946726,-1.1699417833717645,0.9891255508774383,-0.1500858124847777,0.32690449413045203,0.11480989660327447
-0.1877279071865871,0.009744941473535105,-0.7866934181211531,2.7574118560182166,0.46340169813231824,1.713400125705809
-7.6875607449046175,-14.95155492317664,-11.957114446227422,-7.376280145908384,-9.127624502321456,-12.12528546672731
-9.298037281386506,-10.08882424132767,-10.469085972844455,-13.093577662164558,-9.177980077439678,-10.294577954322477
-12.253389070525754,-10.459975871943673,-11.70509158682906,-12.89838152163242,-11.52866896029125,-11.416880390364954
-6.985656976502687,-6.5469275913214835,-4.80323342635101,-8.756967932467338,-8.139308944473028,-8.216675066767145
0.7532087314833297,0.33295613608956537,2.2411831316159643,0.4928581470563441,6.131838290394229,2.4040410988477707
-0.6613242404007418,-0.6984483606966259,-0.1152363171490268,-0.10752054918813993,0.25335207719716824,0.3758290951789276
-13.712173176530817,-13.757020291491989,-12.957260383612809,-11.290309699299588,-9.608889482008907,-13.186320495833245
-8.023142641711669,-11.79663739144458,-10.976349012365116,-14.917836614322853,-7.534078727187735,-8.157049291373495
-13.79733344795267,-13.920909193077602,-22.288021603370737,-16.808419888193615,-13.329885177312372,-14.642221686367845
-4.203274772577845,-4.932757883182216,-4.300975493166237,-2.341156037558519,-4.119192872949028,-3.7979433626502663
0.15134254372966038,-0.1790266414143297,0.08437331968271689,-0.5594612281963256,2.251858090113328,1.6251841413998476
-0.4396577027542473,0.03371900460569548,-0.11419440018433367,1.1387623228381891,0.034821809367557036,-0.2907449529490547
-15.791189915868934,-16.49519317072012,-14.678273431547407,-15.587012707270109,-15.495217631941639,-15.405200406925054
-9.626962218515704,-10.281395106312573,-11.34168707788042,-9.285441144419243,-10.74674817214036,-11.937289512916546
-7.005256582299437,-6.017408375944154,-9.050929609326895,-12.991634856148908,-13.702251073695933,-12.86786968673198
-3.0292555266302843,-1.59254854033092,-1.2769369794545244,-2.2339521051279014,-0.8383678376188443,0.36464038061477444
-0.08650596444422126,-0.21412924182987736,0.13249712647155648,-0.05425662791667629,-0.10910972027436354,0.05579058209847878
-0.9157644241601517,-0.5403459355054748,-0.10485136163832058,-0.3221447260475489,-0.09026466275809593,-1.1507393358576012
-14.854845668940063,-13.694358856597555,-11.744903227165302,-14.572836691758253,-14.538880971704053,-14.20194062776747
-6.373117013295732,-5.9731445529033875,-4.479140243024136,-6.102089347975765,-5.8613121490477385,-4.01699767575684
-13.967034541867376,-13.037573735610822,-13.044933705579343,-16.117748224137774,-12.894028009749839,-9.333875754171697
-5.35076352937208,-6.803325853876182,-4.710164666057974,-1.2801559741930224,-0.6409982643045794,0.14703525985601665
0.5016364251881407,0.40997071538837265,0.08417162649343055,-0.06800011773651093,0.13292763756063092,0.041708219389689896
-0.6716344049310032,-1.0203454360795503,-0.8894845328407006,-0.3686467578971572,-0.02553076838672428,-0.6953404710830963
-15.444021290973074,-16.158790309372783,-14.683423620300065,-14.048535728633663,-14.65267566165706,-15.715831544546266
-12.146346238312194,-11.069360129126464,-9.78535357139239,-10.091216285881607,-9.880377690440866,-7.563228719630826
-13.41482441791438,-9.296797952341363,-15.76802345938673,-17.065559136110448,-13.908412992584822,-13.835874931819044
-4.0398432595096,-6.718915892743246,-3.7467586258366583,-5.681320514571696,-3.724431491324137,-3.336788670772022
2.9720681187637785,2.731433729619421,0.533818256302763,0.8915536250157786,0.26152987431446933,0.9898502561893354
-0.670587670227279,-0.6083020732922321,0.1736711864138765,0.30406710725571445,-0.7115012644925781,-0.745386215913027
-12.644172631642745,-13.851931328576981,-10.540985908232843,-13.801155575496095,-13.81436102955744,-13.344014107770889
-13.68411836333393,-12.216675923214314,-11.391856769534801,-10.381668492459744,-11.55116070421533,-10.098451692321204
0.0,0.0,0.0,0.0,0.0,0.0
0.0,0.0,0.0,0.0,0.0,0.0
0.0,0.0,0.0,0.0,0.0,0.0
0.0,0.0,0.0,0.0,0.0,0.0
0.0,0.0,0.0,0.0,0.0,0.0
0.0,0.0,0.0,0.0,0.0,0.0
-16.557418255154417,-7.8152329021056195,-10.183134750783324,-11.748482123094412,-9.91086229703644,-10.03016281153189
-4.866838282404747,-5.839098193225538,-6.771919167375335,-7.131864125075245,-3.3662963906397527,-11.668700979717167
2.105383150692501,0.6117033364850842,0.6580227133937155,-0.24897494791505292,0.14610451964046103,0.09454721713669272
0.45265158834960595,1.2017990271455599,0.1472609461585002,-0.5012859358775689,-0.14199884307192,-0.18043508250123735
-14.341147330702311,-14.873691893626548,-15.21587140969667,-18.24496036659655,-13.537318279952157,-15.779079433714603
-14.507497261194533,-12.622108906183971,-13.561679958972972,-16.192125100140718,-13.411117159252973,-12.165804636141992
-15.143985865627304,-10.708564269570697,-12.366931177021701,-12.315739292790393,-18.74344908078537,-9.549690846380248
-5.708214110551938,-7.629693713458764,-3.073704930916617,-9.231337182229105,-9.425313250847076,-11.376152930139
1.036377633219983,0.8073053176901955,0.7768705283349643,0.30948431161618634,0.3746230741580279,0.40537399571719684
-1.0405766950533697,-0.08544757669229405,0.49422883460823774,0.43528981789637855,0.9578397022930187,1.626225605906295
-13.513616161641648,-16.594221384656596,-16.952746633625402,-25.495614179535593,-14.899350668216746,-15.679523762739016
-9.923223348799324,-10.421085352011556,-11.247864474171985,-15.641168864984422,-10.023767296742763,-10.748341794720545
-12.81374568079179,-8.787519821714568,-12.083425475689348,-11.551522389394808,-10.586398571275682,-6.166531312163026
-4.567924784347618,-5.576153299156539,-7.025783118105037,-8.395564364906045,-6.462620370460502,-12.349837490113394
0.02643416242175887,-0.26466983110192416,0.8544829776786637,-0.43343811846582275,4.128369465039863,0.8647876426484636
-0.7673733395042621,0.1087400617292418,-0.22094908527236834,-0.5204530770445304,-0.5063080707709001,1.3588594651966888
-13.021801622588447,-13.480366367662153,-14.426173488205267,-15.086487857306492,-12.690675508622624,-12.48809624269301
-7.993384446107507,-11.987193906344118,-11.048635933510779,-14.602492680596177,-7.783833724189233,-8.181112860753139
-16.39974811872315,-10.264614322006864,-17.391041290773227,-11.232769268857803,-11.623704742294994,-10.853675055255845
-2.3235158177229294,-4.372137646920408,-3.50475318804035,-7.942864789793372,-7.9077454887366425,-7.732347684803447
-0.0647275218375051,-0.24637250922044474,1.062162345756405,-0.5618753877947417,3.2161234382974837,1.0756740600011232
-1.0545942212321355,-0.07081312582898744,-0.3943762591808345,-0.2521321132208412,-1.6548754531179881,0.15709621277154392
-13.571907475325904,-12.752686746107653,-13.534890215840745,-15.074674985891109,-13.80886636919773,-14.366586780660237
-9.901065898196963,-10.57848704646232,-11.416084743802054,-9.664347591676934,-11.20754668639149,-12.305164926653386
-9.223603847596921,-5.1875624619625,-7.1487995564185205,-4.656306880725268,-9.926136002264833,-3.272601994480747
-3.257021310261209,-2.7604104022556566,1.358347177352052,0.012851759783878836,0.052934814568571686,3.2682228678838534
-0.2770085793874015,-0.062009422845109664,-0.05570093570677339,0.15875788218319933,-0.9934999740253043,-0.1604888685889023
0.003560666824895157,-0.20916795390724546,-1.0524354269970082,-1.4752134526642817,0.28151096205655424,-0.6388228134584532
-13.470031877301725,-13.904998596959391,-13.997542822615255,-14.400508680401005,-14.925402765263382,-15.276267303627302
-7.7537740605401675,-6.980801400306535,-6.084507148452216,-9.330676919948122,-6.678916707557679,-5.356295120598652
-15.775483339603463,-12.220193180860502,-15.16508481065704,-9.299473794597397,-12.038681813455751,-5.482168713520246
-2.636437367531779,-6.115383481181633,-2.734712556747761,0.19182201504501462,-3.975595672061308,0.3447644252589399
0.21812192695226645,0.7933031665005537,0.015400776792439227,0.11789460737977286,0.15331582870444108,-0.2384407592792875
0.11555510016092842,-0.8487490180350896,-1.0580174789229926,-0.8447593857031475,-0.21709549405182588,-0.4346674336229414
-12.889411052174943,-13.304120649093207,-14.6379925833257,-15.085025225661749,-15.125215172078791,-14.600170199901067
-11.717696975882061,-10.810452253576138,-9.690106579843219,-9.763190120974514,-9.348387602760377,-7.329314996270682
-20.114667638970246,-8.158047041199545,-14.481711303677754,-14.829205869300935,-13.875508810755404,-7.9966751048910965
-2.9262519686169246,-6.491818186312764,-1.0708435614068894,-6.277803666652777,-3.2348093120884434,-3.8148761127305546
1.948831512927414,1.6760163367207606,0.18716815339008622,0.007457941998137814,-0.05407836064792334,0.004600802369782923
-0.6495454093596617,-0.2428114251576774,-0.42464606386550574,0.7394446494401844,-0.690306555149823,-0.521220965818748
-15.196930272534365,-17.754474368999823,-17.954352872891196,-16.796520197932345,-17.898565328489877,-18.91665025263778
-15.377495737656615,-13.490780731129403,-12.577988603130638,-12.909174951531487,-12.49085092537054,-11.360137980942602
0.0,0.0,0.0,0.0,0.0,0.0
0.0,0.0,0.0,0.0,0.0,0.0
0.0,0.0,0.0,0.0,0.0,0.0
0.0,0.0,0.0,0.0,0.0,0.0
0.0,0.0,0.0,0.0,0.0,0.0
0.0,0.0,0.0,0.0,0.0,0.0
0.0,0.0,0.0,0.0,0.0,0.0
0.0,0.0,0.0,0.0,0.0,0.0
0.0,0.0,0.0,0.0,0.0,0.0
0.0,0.0,0.0,0.0,0.0,0.0
0.0,0.0,0.0,0.0,0.0,0.0
0.0,0.0,0.0,0.0,0.0,0.0
-12.487493994383904,-13.511578814497724,-10.095606538991113,-7.5535226296231075,-9.536184373381941,-5.827192639646242
-2.5711732704010584,-5.0592434265560495,-2.9078262149587784,-4.640956692984545,-1.8056368467221806,-4.530385969435185
-0.03384820612335952,0.48810120801983264,0.23003364910213345,-0.4261601380102519,0.27638144507886003,1.1260501910948424
-0.40536559888581336,0.00973231612131851,0.0006166509936546563,-0.13243054828183623,0.37313191018691466,0.327681742895873
-5.642329099837282,-5.736111681984903,-5.867205515118034,-8.031124949715542,-5.093257983642759,-5.611908186368059
-3.4104857017770436,-3.6339248652633125,-4.045588190504867,-5.862706964475196,-3.548148667457404,-3.6880177356572745
0.0,0.0,0.0,0.0,0.0,0.0
0.0,0.0,0.0,0.0,0.0,0.0
0.0,0.0,0.0,0.0,0.0,0.0
0.0,0.0,0.0,0.0,0.0,0.0
0.0,0.0,0.0,0.0,0.0,0.0
0.0,0.0,0.0,0.0,0.0,0.0
0.0,0.0,0.0,0.0,0.0,0.0
0.0,0.0,0.0,0.0,0.0,0.0
0.0,0.0,0.0,0.0,0.0,0.0
0.0,0.0,0.0,0.0,0.0,0.0
0.0,0.0,0.0,0.0,0.0,0.0
0.0,0.0,0.0,0.0,0.0,0.0
-7.998898658524832,-11.576051118654084,-12.883418958093916,-7.260308491913693,-7.104417286894802,-3.9521445863095677
-1.8821584130423596,-5.714687687614674,-3.1298408343583244,-2.161945531839459,-1.3343812386292377,-0.09924839459582788
0.21076765368919106,-0.2453003761183852,0.33664095418261386,-0.6117831526949367,-0.07068713378543427,-0.24715867178657727
-0.5425094948876233,-0.06902380088963024,-0.2680924207769195,2.1467036396498673,-0.30161612668344134,-1.255515125576402
-8.83857705899473,-8.969396140733016,-6.342480989524006,-12.737148831402173,-9.502974696321115,-9.246006552116473
-3.8121811889903805,-3.6406933488802244,-3.1218320876709447,-4.927493476098821,-3.3251466363308366,-2.9936254466536107
0.0,0.0,0.0,0.0,0.0,0.0
0.0,0.0,0.0,0.0,0.0,0.0
0.0,0.0,0.0,0.0,0.0,0.0
0.0,0.0,0.0,0.0,0.0,0.0
0.0,0.0,0.0,0.0,0.0,0.0
0.0,0.0,0.0,0.0,0.0,0.0
-13.852407588075183,-18.51587763147903,-14.21244648253055,-10.942102100648091,-9.32365886935777,-8.547258940136437
2.133102506725722,-2.33719362211393,-3.0559060528714586,-2.8518208745315827,-1.4071672173488752,-3.7302414504376538
0.5518116892924407,-0.5767473178548019,0.43278899730898,-0.028269976984842106,-0.23010421444538842,-0.2509010858733749
-0.4049623167405367,0.7401577889705815,0.13843045296286216,-0.07277558133063264,0.04389451654284703,-0.013352905636630549
-7.073942275680315,-6.901430515147052,-7.364161242419794,-7.632587968112662,-7.490384365062791,-7.199377756803407
-5.885781759723717,-4.835756703590618,-4.700559809165058,-5.215631023910694,-4.7020175271812406,-4.155221457914502
0.0,0.0,0.0,0.0,0.0,0.0
0.0,0.0,0.0,0.0,0.0,0.0
0.0,0.0,0.0,0.0,0.0,0.0
0.0,0.0,0.0,0.0,0.0,0.0
0.0,0.0,0.0,0.0,0.0,0.0
0.0,0.0,0.0,0.0,0.0,0.0
