x1,x2,x3,x4,x5,x6
-19.04460214813046,-24.67726623080744,-16.52788052572209,-13.846703727867636,-12.022649587195552,-14.858911615985873
0.5569481609317267,1.557824333446107,-0.16521006910455124,1.1994853322622943,-0.482176264335083,-0.4734721284796437
2.378948498916603,2.4188734438265618,-2.1011043068565747,-0.0003410703009486141,1.1657262458717395,2.211783393544436
-1.2505058774942344,-0.7384591104699442,-2.2407015986213743,-0.7473660083112822,-0.7644976555526335,-1.813081833377922
-12.013294379094615,-12.111701130407106,-12.108256669292054,-12.605055493492554,-11.795682957621322,-13.146513237362498
-15.96030290593295,-14.869684381981152,-18.956822332098135,-16.238665190551764,-15.334319296133126,-14.572250745818575
-13.099147096945929,-12.563359858994422,-14.584946894681126,-13.426821881477055,-11.067097711072785,-19.531739030997247
-2.037094139031209,0.8891465468462022,-3.2295998170018057,-1.4061258288800949,-2.884999815241529,-3.2500580411490714
5.08853886955719,6.391729347674453,-0.9609645557836259,7.114513730369477,5.519396759427573,8.61154982034203
0.6228781641324663,-1.9503443227204007,-2.8101359054160024,0.06728452579769018,1.1006211019248064,0.27912043484671417
-13.389895492807455,-14.11274152364651,-11.309374083958458,-10.294280878965447,-10.903448313586724,-11.527568833879604
-10.273066220291346,-13.070983269142005,-17.549999341046938,-12.243344680282613,-10.8951597628026,-10.73978293891446
-11.163841479167566,-5.204277848015218,-10.506172676680439,-10.997533490631632,-12.353955883752192,-15.5256619773483
-3.002496398947821,1.8913191731634698,1.9192773027952028,0.66052988059384,-2.5358285423456217,-1.3503276564525233
2.094333895035726,0.25534185341401466,0.37530065459837764,3.572821167733185,3.168188627162356,3.4067330042059445
-0.13323716655401233,-0.8478011929481034,-0.8605746122031497,-0.4136178643953566,0.5401736126324026,1.05073032764887
-13.39058545987684,-12.22381981903353,-13.145300435012564,-10.134760233542918,-13.782021646240015,-13.553567790832686
-13.05034137461772,-13.834183489509806,-17.977988490569746,-15.016550071830945,-12.592291316238292,-14.20436452811597
-4.444000881652609,-4.2731637905584945,-6.190229056089606,-11.533918851442058,-18.99476528959544,-20.858511787883316
1.54772613200465,-0.44732981740766464,3.583010021088166,-1.1614611419955396,0.873173267334318,3.5135889453400644
-0.18133938377083877,0.33888557649517825,-2.949066814640549,2.398267175043386,-1.3980389958281423,-0.2637874825623488
0.6228134446332724,-0.3570552269214949,-1.6895067640187764,-2.9276089973809927,-1.1867494139157986,-0.6032654848933998
-13.705003461504278,-16.22913869884634,-16.491737785643064,-13.517070557483631,-15.067542806129433,-13.572470975660375
-12.328807078248763,-12.272069299099757,-11.237897424301131,-11.760452911309201,-15.71710134819306,-15.887279953275101
-2.970186002008937,-3.1145579636898435,-3.5294249534230344,-4.723136612286441,-4.506941860498805,-5.144227804432827
0.44125360134540115,0.20884833157635865,-0.31770502757752445,-1.7516283701363953,1.2775372586989209,-1.1272661742851455
-1.4406721070548296,-0.5704041966492338,-2.497293147620875,1.5122849779879062,-0.7582999899485393,0.6505223362981243
-0.04186169224165512,1.813288712761986,5.157856648726698,-0.9147071880337226,0.47141103574406057,-1.858751286963814
-16.523153042447213,-15.867968416681112,-25.6963716741531,-16.433176163277423,-17.09029646543265,-16.8909067616596
-8.211867626332937,-9.014285840015754,-6.357301050805565,-9.779627574657574,-8.85983664403456,-8.557826379140424
-5.091223013028453,-6.347211263552419,-2.23352558470374,-2.0408368929630507,-0.9705228479013247,-1.033857602206348
-0.6093902830317529,0.4215986152275761,0.7761049181055135,-0.19683027245990253,-0.24101224207331778,-0.9540392969717351
0.25849455853293574,-0.7383807587375346,-0.8354982170882336,0.104499937641571,0.46941226899740035,0.8426258839851658
-1.7539120549512501,-0.5123569166981251,-1.3787860230514777,0.02076547623170829,-2.215419695234149,-1.2684600151722707
-16.058835810669365,-14.733726995057076,-18.974461732936202,-13.489619395115549,-14.144667043752072,-14.542707096894107
-14.09908460919503,-12.874114462649905,-12.67095919991306,-15.492020218927184,-11.272557113888388,-8.97925327593821
-8.46532383411053,-11.319508791692167,-4.366775210591673,-2.7549694106278455,-2.2209358491120472,-2.1532846725753387
2.3114161184429642,1.1358689463414187,3.821953705509351,4.234876514712464,0.9858421483833788,1.1944725360978974
-1.3113413263706566,-2.8266937351275554,-3.6383285215000973,-1.2267925016935814,-1.1322878357109425,-0.011825527221945086
0.19806716826422965,0.5343862390981227,0.6642777586591584,0.7525388042266151,-1.9716109568576263,-1.2134552538431131
-14.186329849198207,-12.932156766554188,-16.785664325547582,-13.987117749088107,-16.20739568782791,-15.07059561986033
-12.471883627362745,-10.821481445685425,-10.516137943366562,-12.300883449890815,-10.015778302831494,-8.687246168427079
0.0,0.0,0.0,0.0,0.0,0.0
0.0,0.0,0.0,0.0,0.0,0.0
0.0,0.0,0.0,0.0,0.0,0.0
0.0,0.0,0.0,0.0,0.0,0.0
0.0,0.0,0.0,0.0,0.0,0.0
0.0,0.0,0.0,0.0,0.0,0.0
-17.384135411592137,-20.07911766390954,-15.180558772534221,-17.387470427982205,-11.099119530219145,-16.293533879021492
-1.1862466901216502,-2.1549207595135984,3.476370418514839,-2.6437702203650892,-0.4819789490648413,-1.6501180233503177
3.746612863305796,0.33597109599622166,-1.3142862409053415,0.8316976616081198,1.5501254479892999,2.728073036247923
-0.9015465085118171,-0.7800697340677935,2.10917643940608,0.07820988830103276,-0.8941560074435231,-1.5042818545009367
-13.081588170951687,-12.30482145197917,-10.025821144154621,-10.183661818062879,-12.497406046133433,-13.836216120224305
-16.34479933455096,-15.723565397914772,-17.898472761789424,-16.34742031090648,-15.698867361430024,-14.654611004450109
-14.05684723698405,-12.383417197648214,-17.183483811185503,-16.775332680130635,-14.213648004426444,-23.07216736829326
-3.0900964034347567,-1.4142988153910663,-0.6131329888798677,-1.5718587976430332,-1.0764301309630366,-2.752378823046217
5.031139484556941,5.5178476039807585,-1.1249021298463109,7.957277043786547,6.82953889360813,10.705413086659778
0.8093694606149732,-0.3919505161787181,-0.6037440849857898,0.5261083070183088,1.324713812895152,0.791557550942808
-16.51538822684154,-15.043084048191862,-12.850801124031912,-11.602831939840806,-14.656332754226678,-14.847534723910334
-14.755906247514938,-18.046229575155177,-22.931205650574224,-16.715098754567467,-15.144928895427283,-15.132804625297684
-7.2306586058955755,-6.303723915386598,-11.559224581307342,-9.97420165262926,-10.286895916635729,-16.160612190568532
-0.6948074065521926,-1.3794459184970387,-0.466852226130189,-0.3849833594169959,0.1394120061677222,-2.5105187688154635
0.9095806380926489,0.07722511267199185,0.7622934870646106,1.6137128261259612,3.0239243006192127,3.6021085218169024
0.1222516920114424,-0.5366284487545109,-0.8482671952345698,-0.3541778031851445,0.2742107120283947,1.1416478984425893
-13.028750883857331,-14.349999373837973,-12.715436759300568,-11.364524343128272,-13.563537683349024,-14.61807732072087
-13.062619280748898,-14.2313660838245,-16.203340286126544,-15.235153791244215,-12.488061817513987,-13.63311392497209
-4.136725482195749,-4.461062528083148,-6.235992036266879,-8.01020520156964,-10.705517181468153,-15.394360385857807
-1.1379270607911656,-2.345331865970298,1.0222458815965207,-1.8129573707125632,2.4531503191845183,0.6447843184980463
1.9700524995521356,3.7993281098902663,-1.041427832916541,3.1689311769904576,-2.2947769835685845,-0.6850290070282546
-2.525165954395256,-3.0876384516637065,-1.3000942567442657,-1.153710928175241,-0.7473330492114327,-0.31453677700598054
-12.204343851606643,-12.06593003493908,-13.425800130445863,-11.447174901381358,-14.207718287448474,-12.910565273171919
-12.474367070220516,-13.345358887206189,-11.484082060205353,-12.864976113636557,-15.714568912663388,-16.25654588105162
-2.9423341514126484,-5.12134875058052,-3.3069950516479594,-6.202215808974913,-5.015555281099119,-7.3315608744465885
-0.25417436698081325,-2.2765900935744785,-1.7458788229788471,-3.220193544649064,-0.02331020943346152,-1.9725922091227093
2.8035697894471165,3.292080158831864,1.0022680823266146,5.0490104191428395,1.1598127162769594,4.499500102390832
-1.3886844986044466,-1.3954787038982541,-1.4563032336008088,-2.8748876156933303,1.4595049733282741,-2.690854043696039
-16.59632555417646,-12.803757716816609,-17.772788203065314,-14.106620842397774,-14.88703494149576,-16.010020292916852
-10.712093551104212,-12.204869712400129,-7.805787790671244,-13.570148636682479,-12.302086212780575,-12.162569792434834
-4.884556465183529,-4.663188370382974,-2.4725624316721477,-1.331478754341256,-1.5947006540013735,-1.5947601157328835
-1.541787470419937,-0.7641587241266272,0.16423149524849529,0.229595190813246,-0.38892101011735863,-1.0937764237973582
0.7424757947546274,-0.5425977145833405,-0.8078850426755815,-0.3943572591130104,0.251957912229492,0.8916238819397293
-1.8281531945990548,0.8413030405180874,-0.20717665593923618,-0.4961799303614097,2.0572628427775337,-0.6905209572577075
-11.646534191148326,-14.498778728342852,-15.518733297346564,-13.135356620099184,-13.122165855945159,-15.838865667561747
-14.153097018392438,-13.356957921867814,-12.58101874953165,-14.90148414016566,-11.657362651739993,-9.339672402544217
-13.169659141976844,-14.710918259322723,-7.16433922866985,-6.137119957493448,-3.4553335589229675,-3.5700359907681474
-1.1097972371717122,-1.0140037667031527,3.4483435192039997,2.1241887465237337,1.314247411394744,1.4071771877201733
-1.0314409849752904,-2.802557979068794,-4.125986440275714,-1.8349019124530561,-1.8329165302936692,-0.21521231777726318
0.5573800168892671,0.5986830711092894,2.5703861334964975,1.6318125799259622,-0.17143182830504816,-0.7794122225963229
-14.380434294115306,-14.293527858262726,-16.55361441695504,-14.26795733893206,-15.10408113613768,-16.647198434226322
-16.71213681632899,-15.50558150110835,-13.971767496792959,-16.134778439635486,-14.536167445321578,-12.447766346297689
0.0,0.0,0.0,0.0,0.0,0.0
0.0,0.0,0.0,0.0,0.0,0.0
0.0,0.0,0.0,0.0,0.0,0.0
0.0,0.0,0.0,0.0,0.0,0.0
0.0,0.0,0.0,0.0,0.0,0.0
0.0,0.0,0.0,0.0,0.0,0.0
-12.50401445621313,-18.796143779399856,-14.49867293900651,-12.003335596490457,-9.56459994559421,-10.599322989671169
-4.491166951243514,-5.917776648019836,-5.958541159145997,-7.403058897207114,-1.5317974171308097,-3.789576767575763
1.9147898338265597,3.4640941118420026,-1.0201141563000202,0.19303041301184667,0.5951310903023287,-0.5693426560753951
0.2941689570376042,1.7581231056671265,5.240375673632014,3.123875805424151,-0.5568986240614733,1.2819765672236827
-13.459908111829929,-14.527289556903261,-7.537107929622306,-11.745900787635765,-13.279566399589092,-14.647604320663847
-16.224574418631615,-15.75055293567366,-16.16712939559868,-16.29691774461604,-15.773098108077132,-14.509702706939803
-8.854627779414995,-9.786179431402568,-12.925239777786915,-8.723057923227783,-12.274965512183693,-12.25451155207463
-2.7542030423828465,-3.3983487487891644,-6.041565256535354,-2.9143814339122476,-1.3538739622858516,-4.69785191955912
2.4844248990949866,1.058569104448337,1.252244888815562,1.3039776023424625,2.144572044178102,1.744565738026978
2.3603707025002336,2.3517910585960404,2.516137954655451,1.759378794898671,2.6547309177938407,2.9144826292429666
-14.302906342508576,-12.903151467469142,-17.162949484656274,-10.69252892079031,-16.415723833300646,-16.07439246102667
-14.225346410512408,-17.11879158651786,-16.102534047174494,-16.120586882759135,-14.760773044432284,-15.219509398529622
-5.569132963828284,-6.031990847108521,-8.457013273466258,-6.567201551405855,-10.574422752477952,-13.166407071701217
-2.1037352358411363,-2.9743333155266316,-6.612055197072679,-3.7719419628281754,-3.037042698213987,-6.747653642968125
0.5445578875182903,0.38339843894134035,-1.9221536604073866,-0.2023260130916594,1.85468805095778,1.0865304993300606
0.41382973804716167,-1.448059912586479,4.129251041971251,1.2586567148057748,1.31865980678771,1.9694618476149026
-15.238271738247319,-13.834564875128837,-10.571378744844157,-13.57729975245074,-16.591945759296884,-15.786227723022735
-13.836306672391459,-14.446686945955756,-15.521809397976611,-16.034889865691206,-13.03567543879488,-14.083596514233184
-4.296779873871944,-4.887260896546891,-7.271787809038701,-6.699252259423559,-15.197381104943567,-21.661957468750224
-2.4818417618485356,-3.3087043486384764,-2.9350313875765646,-3.586584203774403,-4.270883835938296,-6.218373468143526
2.5140068299279528,3.1242561039083023,-0.14958724386402075,2.5011108554711314,-0.26447104124097,1.5623583874861238
-1.866982798123863,-3.6448894444869424,-0.6271110312013493,-2.757803951853856,-0.2467521420044492,-1.9570264607482406
-15.222342920003458,-15.127621268035895,-13.010929806173792,-14.811939219294125,-12.376617621322943,-11.850728376599202
-9.953670852621155,-10.863444768583921,-15.983766736166931,-10.746619868817367,-15.74127497029945,-16.5879091486357
-3.3642968455423,-5.758605223953518,-4.123652523342225,-6.3090064901643075,-8.635014846251778,-10.517640198704372
-2.4730885594861323,-2.6925213529753536,-1.067188385253326,-2.7801935757819147,-4.376452015782547,-0.7825381269454749
2.6116606718560798,2.7369313075177963,4.114453590111054,3.0344482467713654,3.226236067711337,2.3154971566551024
-1.6685599937919404,-1.5668489161733925,-3.649319207214846,-4.720997438642991,-3.6531422104629367,-2.8755508920547235
-16.87998657567498,-17.17644914802756,-8.924690116418487,-15.797009462337046,-14.131602159949606,-14.322310324233191
-5.535500107392877,-8.445780774784055,-12.545083975793174,-9.942830482890917,-9.15962506094309,-9.442697864329116
-7.927263365768029,-11.617984405309159,-4.141433072723469,-4.7273524410759835,-2.442416950778018,-1.7513157050505503
-5.96309438455939,-8.06697238466795,-3.1032127477282287,-3.317247213109569,-1.0560310205660906,-0.7788849698616559
0.8266986470414271,0.7499951705050695,3.713774358828197,0.5238070856232404,2.267843814329962,1.4184902638727668
-1.6122010729027119,-0.8473790522955654,-2.35511752165742,-1.138696476376555,-2.7631606426370827,-0.773643293629391
-12.92855775429489,-14.014145230941253,-9.513271052231387,-13.675074108464816,-15.767515505646633,-15.65103344366933
-13.726867898314637,-14.116364829087017,-15.920627534909007,-14.424712621037026,-10.93612083553425,-8.977102839929875
-14.273809295652686,-21.92347726166583,-8.360412668233556,-7.91812552384853,-4.665972438661388,-4.6346932229037865
-8.065291402854347,-10.85642115219907,-3.63952491202863,-4.550694190019766,-1.6191086090228455,-1.9747443250402463
-0.6838254477992767,1.7461827440357103,-0.6721616561072201,-0.5948986256131414,1.32000576417829,-0.2122777262139083
0.006306370143677721,-0.6788498524426955,-0.7789299506268599,-0.5884050517428183,-2.8217418559673946,0.16370604651612944
-11.4877236668889,-13.014781848765123,-9.148171733588455,-12.895122497492771,-12.79234016500327,-13.428595723802772
-16.24615539475545,-15.451078322201688,-15.978422969977709,-14.784786548625755,-13.650965531251359,-11.800561981067855
0.0,0.0,0.0,0.0,0.0,0.0
0.0,0.0,0.0,0.0,0.0,0.0
0.0,0.0,0.0,0.0,0.0,0.0
0.0,0.0,0.0,0.0,0.0,0.0
0.0,0.0,0.0,0.0,0.0,0.0
0.0,0.0,0.0,0.0,0.0,0.0
-14.331823248705817,-23.87651105436885,-13.277862027490787,-9.710568359137676,-8.779088156788816,-9.319318116801739
-2.72133295167057,-2.6725360624455434,-1.8692627733939249,-4.252565672062346,-3.520363121305752,-4.601982913783977
2.0196102986224873,4.829239575364591,-0.39948270706593797,0.8252374950014283,-0.49323882958152604,-0.5021963501426648
1.4017707136775295,2.374151414985192,4.161447125492355,1.7184669162879422,-0.6692484055043206,0.7228210322092885
-11.528382080781192,-12.036781712735868,-8.599568111325668,-11.646854732961737,-11.69270402823726,-12.703367001601219
-15.551503192336643,-14.509264516024617,-17.462478109748822,-15.875166720648245,-15.2913220367586,-14.35236917563215
-12.821354448668306,-18.22398747275444,-13.855029275748171,-11.53736406475533,-13.04025107928887,-12.756637772556434
-3.6917622042200766,-4.834135554048215,-2.1842099278115064,-5.934744977029449,-4.323366458719805,-7.5440782773757
2.9356097601566007,2.5002574459891127,2.5045734028426425,1.2285719562194495,0.628430024402397,1.7084364157498884
3.256201208501084,0.7917873813232008,1.7971912235278762,1.6603174492157007,3.9777773706968635,3.2459827798406584
-17.726306578436166,-15.753793081500572,-14.67183654532004,-14.131957341052678,-18.257799196983708,-18.106225984685206
-14.566246793735361,-17.764871642647933,-18.066012168065555,-17.656705444696655,-16.07415226096207,-16.188628730928986
-9.694100423264123,-6.109448522254348,-9.212836067123831,-7.886758434509106,-11.110312435449032,-11.92508179367296
-4.775115220889325,-1.7346961623386365,-3.928204645513234,-3.420843580335924,-4.152791573273781,-6.4096963149168005
1.5744866450844777,0.5469191536014953,-0.9151730794909106,0.9611897915273716,2.0279298251561397,1.0360082522357164
0.5611266920383787,-0.2586680636329405,4.643706312563262,1.318060311349378,2.0997847651273194,2.263061971476884
-14.425558050358223,-11.672522374678937,-10.908396168472317,-12.363028754127761,-15.38573381051955,-14.954644398295576
-13.424999208813418,-14.00357487150539,-18.044833409858466,-15.912466627001502,-13.022004251934312,-14.592235672501014
-4.995753319798822,-5.315750199635432,-8.049152892202432,-9.167923128937375,-20.21804590959494,-26.193296168983228
-1.6204923894782097,-1.1399279524067791,-0.8722569783626812,-4.088898076101056,-3.621426262993076,-6.032847026785312
-0.26603403507867773,1.6956958209909834,-0.2320958238360404,1.3767278851086617,1.462885824172255,3.542303233509839
-0.9322783601392549,-2.243557717468432,-2.3334709553477246,-2.2866142365754856,-1.6904209271183295,-1.4433599119102425
-14.662657669322458,-14.279586979007378,-9.592055164994415,-14.496911723020315,-11.309824117787265,-9.831245417683125
-10.10100788309261,-10.343889071744874,-15.4552056316447,-10.740788358708473,-15.761989867088616,-16.483351933908164
-4.236435605445644,-7.4946046539077535,-5.441479448196788,-7.3692454821437545,-11.744959970855568,-15.177370937354455
-2.66591544168913,-2.302870509974023,-0.9569548526921774,-2.465482913991161,-2.3675021484629144,-1.1544602223180862
-0.9346667357104357,1.4406037759587613,3.3987474669947146,1.54114436985487,1.1189755183095342,1.4293641752948592
0.17339460050488603,-0.7368946144849708,-2.6529951478159224,-2.6057351954533456,-2.7561460684027286,-2.8691698585746073
-20.13587996037345,-18.510327110880976,-18.27127598479013,-17.819979491302817,-21.562953248295567,-18.95801200802225
-5.963181943066651,-8.936522930371337,-15.135478670195047,-10.078821938050572,-9.211449144076651,-9.664394357127895
-6.8201935307877655,-13.224667978069848,-3.95220958525683,-5.591322050562974,-1.9501570345483075,-1.0077290986402643
-3.819801109651327,-6.53553071909497,-2.0636206016831657,-4.154682047387125,-0.7644314078912652,-0.2821560104436717
0.1657705602141585,0.4497687283945017,2.6652160352268885,0.8903757148568224,1.7682405220113344,0.8046595352877813
-1.6547397083090114,-1.504732982245868,-3.919116345228089,-1.0439458257496395,-3.7396017535537687,-0.9423831769926121
-14.625657129275773,-13.463012867902258,-11.49941184052069,-13.46333337388209,-17.37454160144302,-17.178712124122907
-13.617807916348001,-13.357204679199498,-16.07611418573569,-14.685553329858216,-10.295669550678975,-8.526492951912266
-14.599061704788895,-25.02688633072948,-10.042240921842772,-7.228678552520798,-3.6879257959484755,-3.895016866244373
-3.2369964496454857,-4.880963186157738,-0.7032297536488049,-1.829436770603444,-1.8805621424779255,-1.1232990851912041
-0.003821623152711258,1.9047428802458202,0.8493014327272296,0.4161600508390968,1.4552341112976133,0.16994843656911293
-1.366451309948278,-0.4619838017910934,-1.8887067566796827,-0.7333517646200002,-3.967465984907723,-1.9358110119993792
-15.800819707182146,-16.769410965512733,-15.54467797952095,-16.613563280924865,-18.491639100918825,-17.274187804541718
-17.55631226677117,-15.972335351439009,-18.081093510259887,-16.4958083751668,-13.82524773716926,-12.015414690640881
0.0,0.0,0.0,0.0,0.0,0.0
0.0,0.0,0.0,0.0,0.0,0.0
0.0,0.0,0.0,0.0,0.0,0.0
0.0,0.0,0.0,0.0,0.0,0.0
0.0,0.0,0.0,0.0,0.0,0.0
0.0,0.0,0.0,0.0,0.0,0.0
0.0,0.0,0.0,0.0,0.0,0.0
0.0,0.0,0.0,0.0,0.0,0.0
0.0,0.0,0.0,0.0,0.0,0.0
0.0,0.0,0.0,0.0,0.0,0.0
0.0,0.0,0.0,0.0,0.0,0.0
0.0,0.0,0.0,0.0,0.0,0.0
-7.52651261244631,-9.614571787410702,-7.663586915097797,-9.004423377038483,-6.6808649089634065,-8.424244695922695
-2.4000918124597264,-4.026733600285502,-2.237009842763458,-4.047650775924799,-2.6866641346710325,-4.408392514131631
1.444556914134121,1.1071550412007607,1.869933360772227,1.5993407003668714,0.5209170840233173,1.4965510391297359
1.0615057545333175,-0.6379419667912738,-1.27234721738391,0.1720680228020019,0.5862888143601291,0.7762564108196521
-6.770418472749426,-6.8400957397136075,-3.2189112050681974,-5.883217295993032,-6.420542031194421,-7.058642650597671
-5.073163922151227,-6.583709181351974,-6.921688801541383,-6.29031335013825,-5.747310201157637,-5.78693321582262
0.0,0.0,0.0,0.0,0.0,0.0
0.0,0.0,0.0,0.0,0.0,0.0
0.0,0.0,0.0,0.0,0.0,0.0
0.0,0.0,0.0,0.0,0.0,0.0
0.0,0.0,0.0,0.0,0.0,0.0
0.0,0.0,0.0,0.0,0.0,0.0
0.0,0.0,0.0,0.0,0.0,0.0
0.0,0.0,0.0,0.0,0.0,0.0
0.0,0.0,0.0,0.0,0.0,0.0
0.0,0.0,0.0,0.0,0.0,0.0
0.0,0.0,0.0,0.0,0.0,0.0
0.0,0.0,0.0,0.0,0.0,0.0
-1.862873270786695,-3.7604592113450037,-2.344740970097236,-3.4388872475864076,-5.698508634115931,-7.130988888037111
-0.43509877991098317,-1.2253514207109268,-1.4198733561460122,-0.7261335030402288,0.1153607538861632,-0.7090664720023675
0.8278858171018901,-0.09129607544323619,3.3154881408343266,-0.06569094061487342,0.7812694936450251,0.056267323142220355
-1.484442014648702,-0.4974149274403447,-5.220785883845336,-0.770408594598294,-1.753412117158693,-0.8155906337247901
-9.665319471896796,-10.480165451661929,-9.509890175037382,-12.612281577469417,-11.322061680879406,-11.02443140020628
-3.4098586976597463,-4.163902150383417,-5.410291037425436,-4.497071353014327,-4.104390359133601,-4.2575592109637395
0.0,0.0,0.0,0.0,0.0,0.0
0.0,0.0,0.0,0.0,0.0,0.0
0.0,0.0,0.0,0.0,0.0,0.0
0.0,0.0,0.0,0.0,0.0,0.0
0.0,0.0,0.0,0.0,0.0,0.0
0.0,0.0,0.0,0.0,0.0,0.0
-7.121877999224978,-9.570695113507838,-4.751965471291865,-2.882611896261034,-1.2055463910740485,-1.6767679074747006
0.3033581836619058,1.4941398633810414,0.529822411797869,0.20272722874539473,-0.37324455877256396,0.17489305340349773
0.1326092231168485,0.2436239876053182,-0.26925424909262596,-0.31923332393767184,0.43371903427968767,0.18457486737787007
-0.8369996814516304,-0.2926540634661935,-0.7284331309907154,-0.26122861219882093,-2.414713529464524,-0.9525785531928056
-7.743697814154763,-7.1749404917735236,-9.841524464409275,-8.342191732817522,-8.763426716541572,-8.229451815272885
-6.449987171074538,-5.6677288616767445,-6.422439752522561,-6.462251021562441,-5.165803516460519,-4.325132316862595
0.0,0.0,0.0,0.0,0.0,0.0
0.0,0.0,0.0,0.0,0.0,0.0
0.0,0.0,0.0,0.0,0.0,0.0
0.0,0.0,0.0,0.0,0.0,0.0
0.0,0.0,0.0,0.0,0.0,0.0
0.0,0.0,0.0,0.0,0.0,0.0
-18.054009975274212,-25.464351663269653,-21.494080565497978,-23.659018923607217,-16.064812987479378,-21.834386689383432
-0.8435268883330231,-2.4849242785325205,-0.6371219874540645,-2.6916363636335614,-3.22976529021282,-3.6261750386559033
4.957460216494597,3.3420417359753514,1.200006864010617,4.413565860326557,1.402107083820155,3.6012441350815925
-2.3794926574271553,1.088317009857057,-1.0405236965163387,-2.2127910405548317,-1.759488431683765,-1.8299847680891452
-11.828928234097793,-11.215684613409765,-11.983944761496344,-10.092176948742894,-12.836519476867494,-12.609522182125145
-14.812536387673758,-16.95787580816395,-15.712722145827685,-16.88850573142878,-15.415764330185043,-14.442139612297131
-12.339551206504678,-13.973250565016452,-15.71680885595473,-17.476033403000187,-14.891860021009949,-19.362913154253146
-3.5668038045172494,-4.131452112734371,-0.7232784792331873,-6.2240804544468356,-4.815088412220334,-7.019979033021614
5.501048428917086,5.298288095812548,7.156910423152348,6.552260388835719,4.546549969932687,5.519143665466981
1.0809335056296308,1.2853001644688216,-0.9286168681131052,1.256930995960646,0.7026100774771774,0.5406492757662381
-12.860625136037356,-13.95085128093305,-11.601359052123552,-6.70363988757975,-11.616740676069236,-11.297034056430116
-10.380631306490372,-12.77812554692361,-12.931290539766156,-14.01781259716195,-10.399383237060183,-9.99690953034336
-11.26800458161226,-10.93466295880732,-14.130371563018711,-10.956742345020544,-13.775176979475605,-17.58056167776173
-2.7009762962243378,-1.8302344769205918,0.38461188663743917,-3.0144364317461547,-3.2070334032117787,-5.105209743579758
3.7264199467174066,1.8751747932784348,4.515249035713586,4.140542471579513,4.070032146951421,4.469276386894346
0.5658841893984106,-1.8373765288632384,0.3714897473508348,0.31072619066685114,-0.0845341800077287,0.4338136357952192
-14.619509376603684,-13.373194480225349,-13.784091406475119,-12.967371931843696,-15.881681759855056,-13.57796563682703
-11.9933730285275,-14.758102870979183,-14.122086266301611,-14.810074749189969,-8.991629344924455,-11.449001817829219
-6.074822659203603,-7.627332145009323,-10.113758249387985,-11.394282530549122,-23.066339013428323,-26.8711346060414
-0.2988607297437242,-0.6619970790441749,2.0825924818507646,-0.7815353444978438,0.012260093068793613,0.5028242529465274
0.4745969596899176,0.4593022750184702,-0.8888830884287645,0.5899427318303049,-0.3683158574285039,1.1757779890508984
0.665491846659683,0.06361029426879732,0.09127420969602991,-1.2396610315764454,-0.4540933425201844,-1.385960395420179
-12.807977270231184,-14.845296027040773,-14.354713487443153,-14.341580121655348,-12.895132297647374,-13.161651230892922
-13.440380808473448,-14.484338247501805,-15.177818408990177,-14.560366333815455,-14.9754990701868,-16.51107463206953
-3.6285173048943165,-4.3010826405102,-4.412116012116313,-4.569560753034903,-7.054272919075763,-10.107943719836381
-0.66790930679198,-0.8521884654261275,-0.20827204666984256,-1.5886675734988116,0.9166073545313029,0.0003515789621874047
-1.0559320964343024,-0.09556756579858376,-0.03326657003755165,2.1753002288450576,1.092109458791481,0.4480493047114377
0.8462270611915985,0.9172463973893065,1.3793613633195665,-2.8531295820498546,-2.3266677678734715,-0.6464588598803214
-15.109238810063196,-14.657959809557813,-18.3963278095999,-14.268542340678954,-14.943729486460903,-14.991084309885931
-10.883132580260947,-11.370807128392123,-9.7371836585302,-13.269326793709329,-10.323481843360787,-11.123025650353467
-10.774456303889838,-11.384507221912713,-9.437639035186429,-9.41050618057191,-3.768083948963988,-5.189567182339991
-1.524688309709917,-0.9974487654617277,-0.5742933938481414,-3.0294309792909266,-1.0995645930946243,-2.534444949854059
-0.40260512975249674,0.3415535870531288,1.5719125705760884,0.7660948611328783,1.4873276860377813,1.6417718146600904
-0.30943100584121525,-0.14816403634610953,-0.2661725383672633,-0.4861622542402585,-2.212238069624211,-1.1490530090305047
-14.748896999504412,-14.220868614000551,-15.249697832544127,-13.843233627853841,-14.513170383977894,-12.356974764469372
-13.187520531146653,-14.6064915010879,-14.453117119398774,-16.21298120804914,-11.899876103452526,-11.694547775082555
-11.845054000634098,-13.970596068774048,-8.873855316738712,-10.175312241422521,-4.1192653412957245,-6.615683107851926
1.7432711284502025,3.6589880359267646,0.981391009275165,2.1345934229686647,0.08955899545880856,0.6991196885928166
0.28979923981298955,-0.8182397247259741,-1.355775879722104,-0.9482172997961574,0.31439139926134163,0.6691047317653053
-2.623512384474098,-1.303494280268704,-0.5828771373765314,-0.870697938871466,-1.522633407830717,-0.8935913011354985
-13.716222864208028,-14.55545148493299,-14.522832127981141,-14.45040980400566,-15.06228755330791,-14.83227014961518
-12.535681810198156,-12.667136049048208,-10.40769391116858,-13.111535454863906,-10.761049496371538,-10.484902363358541
0.0,0.0,0.0,0.0,0.0,0.0
0.0,0.0,0.0,0.0,0.0,0.0
0.0,0.0,0.0,0.0,0.0,0.0
0.0,0.0,0.0,0.0,0.0,0.0
0.0,0.0,0.0,0.0,0.0,0.0
0.0,0.0,0.0,0.0,0.0,0.0
-17.234391905475437,-15.846572756780928,-17.086121720149443,-18.21740249685324,-12.893411385564956,-19.370096326985415
-3.656692716101634,0.2287471112503488,1.0817123040154513,-2.1076397814431376,-0.6938407734840922,-3.548397099738225
4.8027451421898535,3.4161459454425067,2.6617757430889735,3.5230713115060306,1.9968604272305657,3.5490041478721857
-2.258886817413757,1.7074955349693526,0.20959434367371563,-0.22183225796353173,-1.3028098991941026,-2.2166829807839767
-12.699934439629326,-10.733384073390113,-13.209476093562797,-10.77156870027361,-11.391615184021365,-12.123884422441492
-14.944856938683047,-17.881619103979137,-14.939041148500433,-17.086664076886155,-15.63464257314712,-14.551113274194824
-10.885265769102634,-11.087745001578945,-15.461299719034509,-15.309992460645908,-16.80006692963942,-17.669781966468562
-3.0627682531335374,-2.2101049637722228,0.6374643279240928,-2.9770081607964567,-5.663242867779074,-4.976328275607304
5.229867910180003,4.311042474840863,7.968556915064073,5.8885774777512,6.968631093198688,7.1744352734948045
1.764041738235653,2.136855299289446,-0.16177356247567623,3.0328679797418525,1.0568239653460563,1.3422279720846295
-15.252308941007625,-14.184905304351759,-13.468374086509183,-6.821725185260912,-14.035994319097616,-14.089479826520908
-14.430740119403922,-18.668098480905556,-17.858195466552644,-20.070719067396947,-14.527089848606398,-13.677964153145755
-7.587116316318917,-5.91019141749825,-11.509626420307065,-8.595446400421139,-10.8316293131939,-13.457529909963023
-1.5878582526834089,-1.3708560054224836,-0.9608444108099792,-1.067523543267245,-2.0611319517259368,-1.7505686105976197
1.330944408312522,-0.025027967407370844,1.5978133226571647,2.2942803523522715,3.6670285452747704,5.113255458418035
-0.2099700863940906,-1.9055986088593053,0.33455364596742,0.7249202900836922,0.3613098431152681,0.2854147041342778
-14.682835903009051,-13.19570890211652,-12.240871188429221,-12.470871347590881,-15.436317376850537,-14.746541500529283
-11.69387724586392,-14.691275236213876,-13.777980931575767,-14.540741593872724,-9.193122672868324,-11.634500644081953
-3.1019773213603186,-3.1642912183568077,-6.833114036662559,-5.162187504376139,-13.13828910415248,-15.002672333505902
-1.0272563418926723,-2.522004429321148,-0.1463491262006248,-0.1321134807195423,0.6740989978029786,2.6675873501891716
1.2941588620192126,1.6187122051716287,-1.582157128245916,1.0273991674730927,-1.0790374823782554,-0.7012038027831804
-1.9523348206620486,-1.1037634046718916,0.4669476045586556,-0.5601396163251762,0.2824306490628056,-1.7244844697408257
-12.671798772276121,-13.028925153540957,-12.255438291783687,-11.137196341324524,-12.978761006592787,-12.089722418515567
-13.228483621048499,-14.212271752224357,-14.179443138846883,-14.653610214474682,-14.57087773368441,-16.33596879608734
-4.062981613824085,-4.007573099195901,-6.1559429513210855,-6.7168994295402875,-8.085800329611278,-11.04276255668443
-1.7440478587422572,-2.084927003171846,-2.390445177009354,-4.21603014733163,-1.4398148681922447,-3.0296520633939688
3.081102554728742,3.48361163989575,3.741479487773228,5.639156954699103,1.8023771168964207,3.449215536482458
-1.7971085889918907,-2.6149365963506073,-2.070404190933952,-4.732324649959755,-1.0895444202082114,-3.3569675913991013
-14.018497370259764,-14.350815769338881,-14.416069155046138,-13.770924795485248,-15.858283660730912,-15.914918451916686
-14.062025386613655,-14.270103517523212,-12.932453042733496,-16.691878612321688,-14.194009899174743,-14.984925056779794
-9.904841483821363,-9.03272698724675,-7.234525446916045,-5.9334224587534345,-2.0801725211954465,-3.594792189411698
-2.701339836179539,-3.217210125104651,-2.0342673542714795,-2.0571172300758147,-0.13153582689885973,-1.9596162371616408
0.6343996837055317,-0.46495391683677056,0.6319856217088277,0.2985262160158908,1.447093234665448,2.547171777477745
-1.900234732536602,0.4795950885394502,0.23902350442128556,0.5367512078036009,-1.5931404552315662,-1.5853649478823872
-13.25005381262989,-14.050017576819698,-11.51709158943622,-11.970208468863648,-14.495418980139682,-13.534294661089737
-13.313049813740083,-14.719049924660773,-14.339190263948833,-15.873100343347826,-12.51418675690825,-11.764934463218875
-17.823963452347176,-16.644016856544578,-10.634488140944471,-11.034968655101313,-4.624137289263569,-8.065782963962203
-2.6081423125596954,-0.37008054329727136,1.0299643967130367,0.894250501417315,0.2681702946324112,-1.0168358272258284
1.025339872277589,-0.42014600594069984,-0.042995645458457604,-1.3613870072967338,0.3053704866896819,1.1228686269680141
-2.1234544637577524,-0.8711163505740994,-1.3700815281320695,0.8074031409183664,-0.8481977918203117,-2.327450990305774
-14.175028908334353,-14.77475821697656,-13.735676276775727,-13.960814011166145,-16.530387470893594,-15.969607107965379
-15.384483113070704,-16.99331394838175,-13.301394199111416,-16.377851585482233,-14.188473385774282,-14.453407729031495
0.0,0.0,0.0,0.0,0.0,0.0
0.0,0.0,0.0,0.0,0.0,0.0
0.0,0.0,0.0,0.0,0.0,0.0
0.0,0.0,0.0,0.0,0.0,0.0
0.0,0.0,0.0,0.0,0.0,0.0
0.0,0.0,0.0,0.0,0.0,0.0
-13.91564668149629,-15.093610896705922,-13.066477916640315,-13.817245025263842,-14.209876256289826,-12.765333929778002
-7.6050924411293215,-8.61898437938895,-5.153887301284293,-6.2522216551559255,-4.916141288175052,-3.844683038246999
2.314103472619128,3.0303253330763495,0.45427773151538914,-0.41928078643778444,1.6504222609481138,-0.31134052993822525
1.1010845794591124,4.588882230513405,1.2443753576528267,4.452976600475273,-1.3817026682663192,0.19394871213785367
-14.547212505722689,-12.272365956694125,-10.718793366658042,-13.451293537530672,-13.14574213572331,-13.735857270474872
-15.361421354080642,-18.624191972578082,-15.14110695736097,-17.386455461744482,-15.694751721929812,-14.812846056820591
-6.528918162236448,-9.161530997115845,-9.760291948155132,-7.995774482560678,-17.239612826710932,-13.016692553930163
-3.034387945573534,-3.440224942829578,-5.154449430443046,-3.5053310857566613,-6.626883597116,-7.303326231733715
2.1343221039535334,0.030701253448132272,1.3559202503721355,0.017557804551793187,4.494856848938854,1.760629922315281
2.2898355631461857,1.9837665053935374,2.252765993425179,8.211298948989588,2.062821090750637,2.4502143952077797
-12.876289968392316,-10.072519700920472,-13.234821568904064,-8.861371902074032,-13.447219455119953,-14.48541992148834
-14.03586919028741,-18.276100626968702,-17.339036589433746,-19.67016168382619,-14.340427644249328,-13.708976322423437
-5.094538551037099,-5.176060891368939,-7.2743460213351065,-5.447713823125338,-13.166247320133788,-11.309332197494063
-2.8541492977988017,-2.0165048988524816,-4.086686520911659,-2.6711932035571357,-6.973802778125042,-2.591035945632176
0.6888259050338793,0.006956810266672058,0.11961261239811918,-0.3307805849031404,3.3567740123130267,2.7182878178304404
-0.3499574404518543,-0.9808232277660234,2.5992210264026943,1.0939609642990182,1.1829460959970584,0.6394924735105464
-14.83976999460835,-13.15741748499401,-12.961372861683442,-15.81183014856754,-15.186199006722594,-16.0436826078579
-11.957537306015844,-14.84301981134028,-14.51150080638174,-15.068654290801405,-9.52526104517772,-11.947880209923774
-5.744546893365423,-5.014230771834664,-7.563595696584123,-9.676337410791056,-19.58026945284903,-22.768464478482507
-3.9184498597872848,-2.840602980319857,-4.909469043910003,-4.925956218003339,-6.324804077442367,-6.731697058500391
0.628365413306108,1.2557788025773111,-0.8978732633324294,0.6744284904935605,0.4386560621535959,0.05727209113308436
-1.9299415748852375,-2.6382366283747976,-0.16871512959624582,-1.0951833819282326,-0.9865596495255439,-1.6516456590408302
-15.934990974038776,-14.311912729249249,-11.455050867614887,-14.999565468621059,-14.07153605849087,-12.42020826811937
-11.196122742555477,-11.43901859887114,-13.936246411200678,-12.18189435892666,-14.010117896842514,-16.015196148896425
-5.329101816216019,-6.926046377004776,-5.819783569644206,-9.714430583603267,-14.096973735297741,-14.6945310574879
-2.669154082891374,-4.474337343843172,-1.939786380137867,-1.5376295710812629,-5.571663864678808,-2.755844557332454
2.2240662413751773,2.186283277407985,3.6098014985840234,2.6876198624224497,2.2383970380990204,2.193412332311242
-2.7981752052408817,-2.836512951818686,-4.003868444245198,-3.4743980424529926,-3.902579307782768,-2.9358855793610052
-15.708161432417382,-15.18529094817135,-14.368317716495598,-14.446717259584684,-13.712832442326576,-13.902702763874967
-9.615117895191261,-9.57728286642024,-10.440884149774787,-13.492074125367937,-11.731377109839485,-11.736827657551329
-10.646051439357167,-15.873622753416074,-6.118408590833008,-7.6874325174516445,-3.0067706586236285,-3.996906228155884
-7.456510463019848,-12.663717684169118,-3.3091700121241305,-4.3701278807455655,-1.2111120491449903,-1.169076319632171
0.6319913758221367,-0.19227355225492443,2.31412677546733,1.3621516274543217,2.0026689985341704,1.6195906475869768
-2.4677720269228236,-0.1371481343334876,-3.578790721310351,-2.630113964389925,-2.6670799411486756,-2.116086064714212
-15.071215688159171,-13.365908670153162,-15.275387108072156,-14.802039602943022,-15.445657699515941,-17.099601838005505
-12.785938569666135,-14.399196790171375,-12.169376973608934,-13.944215105203897,-10.976040115886557,-10.15770995631377
-16.21748395091132,-21.10001038040709,-11.003553333742861,-12.141614497670629,-7.001366340388865,-11.245793712892215
-10.784905938886599,-15.798406786523502,-5.420891191449616,-6.168055715657355,-3.221957227833962,-4.792621547554518
0.2027779221176586,2.320147630991995,1.3008938205578462,-0.7277929470713452,1.4027202071812792,1.191815094422193
-1.361262015068336,-1.363035068870589,-3.0770334493898535,-1.839346283702244,-1.603044121092542,-1.9899576478722243
-11.87984497275497,-10.816531707169279,-11.650372350812894,-12.020789122615046,-12.740246190030916,-13.161917809249084
-13.85720961763725,-15.893039406867333,-12.602045965401976,-14.305403900081792,-12.996883206266633,-12.551848461169392
0.0,0.0,0.0,0.0,0.0,0.0
0.0,0.0,0.0,0.0,0.0,0.0
0.0,0.0,0.0,0.0,0.0,0.0
0.0,0.0,0.0,0.0,0.0,0.0
0.0,0.0,0.0,0.0,0.0,0.0
0.0,0.0,0.0,0.0,0.0,0.0
-14.460251997306704,-19.04853032037365,-15.064823437423879,-13.714891254507934,-12.702922594342771,-12.899276659942942
-2.768515274835702,-6.057798594219947,-2.5960015257224587,-5.649153037177067,-4.405589742647557,-4.872892941380727
3.4180756252226083,3.57183778533722,0.6006304139194578,0.7977412058861926,0.8426749659702772,-0.3452346955266725
0.9111937683967667,3.86416831976597,0.6493448436558328,1.8117578161611259,-2.351979676738806,0.36429293708376403
-11.71500224082931,-10.849280286512164,-10.263998939440876,-11.394087002401909,-12.942118491968788,-13.045106765126315
-14.4160225327514,-17.011581582192232,-15.542060121330953,-17.181488987134543,-15.163772539521934,-14.67407605141761
-13.411441382435205,-16.239220456669646,-12.756572759124728,-13.956371085723818,-17.62794982752532,-15.699478213474835
-2.957460399239636,-7.111008440893072,-5.8161225017406135,-8.749603363349818,-6.634210707939334,-10.456607791757655
3.375716312868156,1.4381469683433405,2.0893249367130857,0.3455383288821709,2.0691823539131136,0.9611229199282757
2.148656083348973,1.550697230615388,1.46930665767413,7.891022522609699,2.044640430192022,2.480580456571122
-16.80935765611184,-14.400672566605666,-15.63871648132528,-11.532755195483036,-16.628722662051537,-17.938218292597234
-14.996300702888202,-18.058357416430308,-18.295975171669017,-21.630993939826194,-15.704450929372959,-15.214403724679041
-8.257610193926098,-8.776875768309571,-9.257128029863901,-7.696233744447983,-12.623283299300782,-11.602078623038
-4.656309766876419,-1.842294542731141,-6.306530719763573,-5.7576900660530645,-6.113035966100516,-5.357625700633201
1.7449828284903806,1.8129690084742196,2.4375362297714704,0.6593920725633187,3.6692055927168914,2.7679308309596116
0.07330828489324188,-0.8175538058492771,3.322771219749034,0.0662264370319866,1.1692472192399201,0.6931989924056376
-14.511577571957126,-13.97943257191282,-14.014023963868429,-15.924694229852989,-15.576884281347368,-14.751751295447528
-12.147529259025834,-15.0498507387828,-14.852517480322856,-15.37396094920582,-9.288183583228923,-11.762689297603904
-8.561347126905865,-9.469948587394365,-11.144690789787626,-13.799970315379193,-26.20056156400423,-32.00756090544844
-4.104268242554036,-2.518854795688918,-4.981828954108658,-6.118132623772653,-8.540006514304107,-12.430679826974442
0.5400455624373767,1.349159472267541,0.28636219186559086,1.1043495308820073,1.8506253306081786,3.046198061786021
-0.034023266219288716,-1.9847099500732805,-1.5476397192195857,-1.4842121104436312,-1.7062840298021873,-2.5117950097848922
-13.1114078901681,-12.971488018793426,-13.943074708952006,-14.066658402504862,-13.516132555780308,-11.404190267699802
-11.416363649862777,-11.100547594571967,-14.388994392325536,-12.14927370366533,-14.332852670292208,-16.017974576767827
-8.31443147344177,-10.917902698435825,-9.473301053098538,-13.817753703764186,-19.095968629315426,-18.966925294812533
-3.078820421394297,-4.5552863548902645,-2.570713411048694,-1.9291769704444763,-5.518940294749041,-0.607336353234441
-0.49493417150561525,0.7224447059272677,0.9255263917554598,2.485533216259184,0.5918767938887112,1.004351364845786
-0.9555136405489321,-0.6196104128039719,-1.3817884334528807,-1.1536242747070447,-0.958358163953072,-2.1409097236491554
-17.03442719733409,-17.317549183445145,-17.618221501799198,-14.240068935523182,-20.04495183012504,-16.93308821986675
-11.065089426037762,-10.632369425902791,-10.98848208874654,-14.894428890548301,-12.069950971213983,-12.906554626496455
-12.589232611643308,-18.20342423867069,-9.45259141376993,-10.437312212610314,-4.333164614323687,-3.518365471895429
-7.0390973171004125,-9.665500986901554,-4.018035053932731,-5.940478891282302,-1.8851454762194773,-1.0042726930428365
0.008998581497252186,0.9782937976044441,2.5069967758716842,1.3118542000643207,1.505053406868318,1.19241269199648
-0.36577527792605447,-0.6350321941478727,-3.194629010308741,-1.7787226769471556,-1.2057856384930907,-1.4784021956896762
-13.369039657381737,-12.766176844447678,-15.559110987040086,-13.261173792322001,-15.465453154981093,-15.153473269924868
-12.261481222703354,-14.26479125192844,-12.361397190818826,-13.802139961265352,-10.448822943776658,-10.024861082255015
-16.877652711423696,-25.6621465437203,-14.72892794680666,-14.040764759342144,-9.415989475879902,-10.775945468983613
-6.030615717528012,-8.335458661938512,-4.036030000968018,-4.6443636359023674,-3.8831013725738246,-3.6700725685396085
1.7883176510862733,3.7756425383826717,1.8135151194190755,1.4952331802814256,1.1892234731249083,0.9669626502790395
-3.1823099775828654,-0.929423424178739,-2.6012891511613234,-1.5503564810266077,-2.0741716647730675,-0.7500321949382899
-15.3540142875195,-14.547718865081752,-15.027698750167403,-16.199341634691663,-16.480864383744947,-15.824965958986825
-15.743804346473675,-17.432867811610315,-14.107626851454159,-15.815254005740533,-14.73635865020093,-13.596252630490381
0.0,0.0,0.0,0.0,0.0,0.0
0.0,0.0,0.0,0.0,0.0,0.0
0.0,0.0,0.0,0.0,0.0,0.0
0.0,0.0,0.0,0.0,0.0,0.0
0.0,0.0,0.0,0.0,0.0,0.0
0.0,0.0,0.0,0.0,0.0,0.0
0.0,0.0,0.0,0.0,0.0,0.0
0.0,0.0,0.0,0.0,0.0,0.0
0.0,0.0,0.0,0.0,0.0,0.0
0.0,0.0,0.0,0.0,0.0,0.0
0.0,0.0,0.0,0.0,0.0,0.0
0.0,0.0,0.0,0.0,0.0,0.0
-7.701329627889017,-10.831629105850665,-9.309293264380791,-11.600777609500271,-12.067145052463633,-10.343840924631484
-1.463156752019899,-5.577977155403796,-3.2221177612997893,-6.090667487058511,-4.680400350037525,-5.934969760958783
1.4813337389357575,0.8725493485062744,2.2284217330434126,1.2893071603337372,0.8365151746131274,0.6722593249129639
0.5840695939740219,0.07035313590887303,-0.3145303273836199,1.2936484619924122,0.28104534909903206,0.4027078544698298
-6.759927294791316,-7.474259387693084,-5.29127751823501,-4.503457613641703,-6.786256426985785,-6.585098000076749
-5.296809200642072,-6.344257901542364,-6.149070592257263,-7.509984855108211,-5.61276484845567,-5.368356020748951
0.0,0.0,0.0,0.0,0.0,0.0
0.0,0.0,0.0,0.0,0.0,0.0
0.0,0.0,0.0,0.0,0.0,0.0
0.0,0.0,0.0,0.0,0.0,0.0
0.0,0.0,0.0,0.0,0.0,0.0
0.0,0.0,0.0,0.0,0.0,0.0
0.0,0.0,0.0,0.0,0.0,0.0
0.0,0.0,0.0,0.0,0.0,0.0
0.0,0.0,0.0,0.0,0.0,0.0
0.0,0.0,0.0,0.0,0.0,0.0
0.0,0.0,0.0,0.0,0.0,0.0
0.0,0.0,0.0,0.0,0.0,0.0
-4.264228268759631,-5.878709819907708,-4.5956000462350195,-7.508832786229408,-9.7468748122267,-10.843900832180946
-1.086253136849285,-1.670676207459885,-0.7338636221660196,-1.7655605206765017,-1.6207923802605961,-0.5466679294006795
-0.31069190966186794,-0.8812498213538305,0.5345554334258782,-0.7992012561291776,-0.12100331156786459,-0.648538103568493
-0.7899360911745217,-0.27709639688679943,0.7157421723809256,1.0581049033306682,-1.017901105463277,-0.38279305743297143
-10.244409045374482,-11.020920564385106,-10.462849915876486,-12.882789752259901,-10.838878832486923,-11.914269541187206
-5.009691583348752,-5.041430066687694,-4.789966569068179,-6.739171358405943,-5.0060094076674915,-5.595614361504155
0.0,0.0,0.0,0.0,0.0,0.0
0.0,0.0,0.0,0.0,0.0,0.0
0.0,0.0,0.0,0.0,0.0,0.0
0.0,0.0,0.0,0.0,0.0,0.0
0.0,0.0,0.0,0.0,0.0,0.0
0.0,0.0,0.0,0.0,0.0,0.0
-7.626397634169227,-11.764052829770637,-7.312440919612282,-9.2801647389266,-5.604823572034518,-6.40405150002462
-0.790711800695684,-0.6534347020044954,0.2947379508291852,-1.0934000555924837,-1.6718535482351695,-1.0247276038004247
0.8312444596572164,0.9140713926436101,0.5233239300704303,0.5843823664350554,0.32382926783294225,0.060407196948697305
-1.5489106624460887,-0.5092558993054024,-0.36413604126155896,-0.5255198884110716,-1.1472261934955899,-0.18797445560561393
-9.744417650976338,-7.761702330509141,-9.844069134913491,-10.2965352814892,-8.919921890990885,-8.305216842734282
-7.034783424981198,-6.674809269666597,-6.103970466052309,-7.11541436796637,-6.000516304123672,-5.342178406568569
0.0,0.0,0.0,0.0,0.0,0.0
0.0,0.0,0.0,0.0,0.0,0.0
0.0,0.0,0.0,0.0,0.0,0.0
0.0,0.0,0.0,0.0,0.0,0.0
0.0,0.0,0.0,0.0,0.0,0.0
0.0,0.0,0.0,0.0,0.0,0.0
-15.78136886887052,-13.543456595198997,-21.07645052348441,-12.784431535302122,-22.872303379787002,-10.49581785997826
-2.175619956282117,-3.299952913769314,-1.9641014022202585,-1.302392624915368,-0.8621059460815259,-2.666126482273357
1.286002595338447,0.2746267671903156,-0.002762968995423689,0.11054305400726434,-0.4358844159140568,0.04713543786372124
0.792106916058057,-0.8916447787859186,-1.0430620300790867,-0.3578819453518352,0.14769828026610796,-1.8346465936116523
-7.837905545420245,-10.290252083516666,-5.240814964838423,-10.871177702174723,-12.19009166689586,-11.777624647948205
-11.901801142882007,-11.1025044368242,-8.910949996401943,-11.597868132014309,-11.450539214633045,-9.952922465469106
-19.483512054576785,-14.286376854432199,-19.957602780486265,-20.294344291173648,-18.620569944820154,-9.047676545586375
-0.8043559484987345,-4.532019397495207,-4.204965474869774,-3.152323629174503,-2.691786570678851,-1.8649195903878633
-1.0674335906939523,0.12349351599607647,-0.4493620139597785,0.7954020994170422,1.114915890450617,0.6113895409611696
-0.7700776867885718,-1.0732407907016537,-0.7416423602208577,-1.2852657129217653,-1.01259560529047,-1.8654236665933366
-7.71949684328353,-8.955976046033728,-5.052896299112484,-10.65440218414691,-6.732799616338688,-7.928934378200904
-5.222175046412874,-7.325999176612379,-8.958318900329436,-8.192638802254796,-6.281225733236659,-5.79723765448886
-20.140000443092287,-15.26637680521913,-22.040840801644567,-16.33669882656944,-17.19512885304719,-12.155528961232275
-0.2867799231002968,-0.7797822240700785,-3.4632260222691262,-1.1858142343236286,-5.661022992949116,-3.240890399562596
-0.5818505526849278,-0.03281259391404906,1.3696540340597636,1.2424280941617176,-0.2726428405951474,0.16186941453049322
0.5642006659279503,-0.4487317832039593,-1.0626643370512212,0.2673367925857953,0.3734517599953264,-0.020867096412146544
-13.024807515019333,-13.578469686862487,-1.331751670271959,-12.112579354819745,-9.915867953437704,-6.788488782637816
-8.51219941747786,-10.57081788545226,-6.351459998287268,-11.004095639832457,-8.498996934993631,-7.1263444995614735
-14.65072112252075,-13.03960811840337,-18.960185246176533,-15.643571146176894,-17.49673752254833,-13.322566337195692
0.3630780137036913,-0.9099513382330681,-1.4433466854267663,-0.5950647983253148,-1.0282370850332978,-1.1428244503845402
-0.13267689775318456,-0.520742981890203,-0.4046174547343378,-0.06800554158900428,-0.49611756519493916,0.5412722898775831
1.520553528088936,0.07456191891051607,0.010969370582534834,1.3514490500208602,0.15312477382036557,0.8713142989534669
-14.002237745774629,-15.78045427635695,-9.526827910640627,-14.165615795206273,-14.56649947110747,-12.434786181433191
-12.29685856066368,-10.57667993741688,-9.22325279328757,-10.6880234282904,-13.54054480096153,-10.39396742078431
-15.954094118398556,-14.208643404737774,-12.830272707838686,-9.260857966478449,-9.963646351565977,-7.111156086438666
-0.9809257608785289,0.41750085904070217,0.43966111165501104,0.005499534608270948,-1.6147033351331013,0.8452373581231845
-0.9764426443588932,-2.2431626398930846,-1.0012265681688854,-1.9854181531437969,-1.2113845619230377,-0.8065968055831142
1.3623558527647346,1.327201947633464,-1.1768504852834627,1.4562709900459052,-0.8004473731656749,0.7004663244095947
-12.469002170986986,-13.569137553570002,-10.87071631955188,-12.771789060802524,-16.339384190995943,-13.307013090833514
-6.308663645427602,-6.238166815510147,-3.2400846415734743,-4.790173693528641,-5.850733961062796,-4.055534002556641
-15.80871001344407,-15.384576916103486,-14.603605484660099,-11.207910296000554,-9.939693969506276,-9.989208799051205
-1.6494758902278575,-1.3519062626044565,0.27435792486451593,1.1224357957409687,-1.1833806125495019,-0.48665951101602023
-0.48646699771387086,-0.9525587050451009,-0.6673642385617564,-0.5052725681327073,-0.7125837702318863,-0.09978355557958711
0.6302151200485283,1.9371640127481058,1.148472724119658,0.29764294488210824,0.721078813833871,1.065823368143117
-12.94237795973383,-13.839059184572852,-12.78750151762548,-14.832888195704882,-13.594569166581104,-11.679883924575226
-9.795435081694015,-9.312974323764308,-7.108533250126771,-10.158929069924962,-7.467821817859341,-5.572523675190031
-16.83234946654671,-11.532781672531607,-11.677902384283014,-14.399289831180292,-11.691894285507,-6.080764270657685
-1.3579513098117924,-2.0725432023802455,-0.25167322086081845,-1.576083140535109,-1.2755445711192686,-1.6088899217646278
-0.39071342806345927,-0.16897317847980445,-0.6390897459876541,0.32121614476349364,-0.3988923050145179,0.12962812983964844
1.24562574081544,1.0488488791769401,0.736312320960959,0.7121383203179744,-0.07703409290652215,-0.30642211313897066
-12.784598643116965,-13.183336164554214,-10.998716340984037,-15.566000802087204,-16.035967462302672,-13.682616852122022
-8.682971191774318,-7.593351173655605,-7.003870796902534,-8.684538793952141,-6.610693387092281,-5.536981080546424
0.0,0.0,0.0,0.0,0.0,0.0
0.0,0.0,0.0,0.0,0.0,0.0
0.0,0.0,0.0,0.0,0.0,0.0
0.0,0.0,0.0,0.0,0.0,0.0
0.0,0.0,0.0,0.0,0.0,0.0
0.0,0.0,0.0,0.0,0.0,0.0
-18.526192253832335,-18.220780103474095,-24.006806880303767,-17.69977878669495,-20.62436348257955,-8.617830821139684
-2.1515932100843003,-1.933914773463698,-2.2151016526078986,-1.44059038419357,-2.0675722304402995,-1.9616132673581332
2.7777609359164495,5.170579434861564,-0.38808392387628277,1.377565075437989,0.8676235965141924,0.1200922872820036
0.612107785834988,-1.971240011024058,2.5150675397415,2.046260984966926,0.6568267505369558,-1.779578047742228
-13.277383736875993,-13.4307679933927,-16.898907122524562,-11.78838993612444,-10.722564233975282,-11.084017174877795
-13.997502842389316,-12.543995563737917,-15.325826064364012,-13.111849107205606,-11.747566031806532,-10.299492648130395
-16.31669193848792,-15.998396269796565,-21.6314495294815,-16.52025147462293,-22.842709117101396,-8.483707173442141
-3.1232489861073804,-1.3272338680998548,0.48860961498021704,-2.729901118892139,-1.9948791491882765,-1.905404925274677
2.1514262115151657,0.967920124747438,0.3276642618867927,2.3758314901005,1.5402520995537883,2.7648049371734253
-2.108322329173614,-0.8910101121800312,2.5363131672916426,0.08599271643108614,-0.5841116306571293,-2.2172725723859568
-12.145789565424991,-16.53221745984161,-17.129248375637435,-14.188743226889587,-11.82370428243474,-11.660025727047897
-8.993798851999978,-12.210260712663791,-16.84947350473138,-11.730454214898117,-9.810531094404269,-8.410695852178755
-14.56958028642901,-16.32887260907935,-20.46797397183743,-16.301882658768424,-15.967560700841734,-12.740357589059874
-2.1921762719482656,0.9513870895513339,-2.919728589344996,-2.7872525185847032,-2.466836672734944,-2.1650122713692497
0.015739779531545473,-0.07728944639287459,-0.9630957764086067,2.0242148157253492,4.6443321973962135,5.057309423888346
-0.9846362313159515,-0.3828362500142851,0.7893596121792984,0.14336647331827598,0.2595268560269671,0.07098355483635867
-13.214166632032718,-13.770940525548289,-16.653574204908857,-13.71840876981553,-11.943957121766777,-13.007757378128671
-8.445921488095676,-10.770292827690284,-11.486210706459804,-11.223585654140283,-9.02721995999998,-8.812442703674872
-13.185294651296706,-12.737167255889682,-17.749686465616577,-15.709731961000264,-15.718998766454037,-10.018675369284418
0.41346312126134477,0.4071640794230971,-0.416600727960558,-0.3926531693747354,-1.1296788404003952,1.5077625803436583
-0.8657111311089682,-0.8668228389122861,-1.5809580187428536,0.10654255969847581,0.33213509516750644,-0.2796852598138582
0.0936583522638172,0.37734988786864504,-0.16346432412056927,0.15126737244371258,-0.17824422716250896,0.8137899329599833
-13.670161079302952,-13.968707493421148,-16.26012011354379,-12.683523124551172,-12.829520186030406,-13.61700962615108
-12.184135861119687,-11.484740107708037,-11.025299040615014,-11.771730629009257,-13.7119952557081,-11.085044765868943
-12.895337196330223,-10.694510352084308,-15.116872418015397,-13.866590797165996,-15.8625049707982,-16.632948116271148
-1.0163019191589466,0.08338127456659987,0.3054873514672492,0.08689389614245166,2.0973578223928326,-0.9020255380423124
-0.4859994549252364,-0.8685332783766342,-0.7589575729037669,-0.8353863286510699,-2.7628734465748805,-0.856419331149552
-0.28828916659096576,-0.5433463014099499,-0.7257829112903691,-0.36480711100264657,-1.3294864553071943,-0.07366774122937182
-14.432868666239653,-14.22994390273808,-14.900964132728465,-15.539676689298146,-13.032715777932657,-14.41973191753906
-9.407433543693323,-8.629220113744699,-4.591610349209508,-8.058208013646519,-7.8620864372371875,-5.461014461977489
-15.708753422189108,-15.633215204194578,-10.335739334604527,-15.104633627170655,-13.321397391911,-10.253000052996706
-0.8370586383622333,-6.216020436264548,0.10159876725482686,-2.0517289643828795,-0.3944178656984616,-0.1104043217836606
-0.19121009165295155,-0.17162980471880568,-0.21813297816672345,-0.05856351332011559,-1.0709983258603584,-0.3041682962591002
0.030719550618245786,0.5745141206845095,-0.983728683541621,0.31614688166979493,0.33914364001252506,0.18636623874120203
-12.09650022074759,-12.940114148404854,-14.470257787372459,-13.195970065582154,-13.139870957392949,-15.902874014396994
-9.925824929563415,-9.879588979306956,-7.779088414890378,-9.69866297647824,-7.759423569900305,-6.123739050091185
-18.90556539289321,-16.634139169022642,-14.955826604674145,-13.289908319628951,-16.03642453865005,-6.112433501512671
-1.4119578269290773,-5.001213662049708,-0.41920176989836644,0.09284072998505,0.21012401342525514,1.683656747180662
0.24241008706675865,-0.7058764558883994,-1.4164429348423049,-0.8613636732275955,-0.07621754341999258,-0.32566984374841346
-1.0620363971780349,1.2498915182463881,0.9047005722580547,0.35373131516561584,-0.032327864706233556,0.37166527981030517
-15.132828017235884,-13.677650722514818,-13.74152972388912,-14.125338743804715,-11.425087410742876,-15.730310618126552
-11.925661135766251,-10.999004205170166,-11.036203625551998,-11.70308855579784,-9.7624359016306,-8.246165831220011
0.0,0.0,0.0,0.0,0.0,0.0
0.0,0.0,0.0,0.0,0.0,0.0
0.0,0.0,0.0,0.0,0.0,0.0
0.0,0.0,0.0,0.0,0.0,0.0
0.0,0.0,0.0,0.0,0.0,0.0
0.0,0.0,0.0,0.0,0.0,0.0
-19.54226225725035,-10.078909801116737,-20.188713114997043,-11.247323858797452,-17.80401733075268,-21.06077289371803
-7.829438334793731,-3.6584717553094928,-4.593636543528915,-10.126430794267735,-0.4411880572121425,-8.65310710220945
0.511168707939642,4.729467853982028,1.1975277491124685,1.7993845009927902,0.5334048097077341,2.7674293952148568
-0.6623542342005357,-1.8151294427747207,-1.573703195429173,0.5848783975355286,-1.3783821971239987,-0.41858139753864954
-17.92052152486042,-17.10278223622278,-21.88373714147786,-15.604340768795671,-16.58128992076669,-15.9659880178812
-14.307803302302252,-12.554598594433557,-15.638623430649922,-13.104754089113742,-12.304555282432794,-11.241325155544633
-17.439580478536012,-15.520020268321385,-17.66986053646535,-13.208614742120137,-20.626148129312583,-14.658620517014102
-5.275003299861178,-2.9495865197720375,-6.874175666057317,-6.724502087260845,-6.077277389427519,-4.821204886702889
1.9063405563845301,0.05982303813380812,1.7959536637669007,0.5621468773128933,0.6773100679960643,-0.10215494121262868
-1.6304473323914246,-1.3388901994220823,-1.1044657031563214,-0.4805497797011202,-1.1219169044109383,-0.16735821323039754
-14.579939493615708,-15.24384404527054,-24.109187688277586,-13.66421434242935,-15.09044981865521,-15.959664373163509
-9.625610177763987,-11.748928223127969,-13.42068000669402,-11.177944652204294,-9.55096459391707,-9.447827525757583
-16.449752247176132,-13.643046954957779,-18.460259378808573,-13.807720284598087,-15.005623258633522,-12.976302557206184
-8.085682574007066,-4.866264474908763,-5.972229924716092,-6.96015555753802,-4.374978272779966,-8.269050364236195
1.0034537597025095,-0.20783574180698222,2.1693393439366533,-1.2965219871783988,4.503046087396508,1.3262001085103297
-0.6225370051725359,-0.6140865737691051,-0.7800510815521796,0.319609763143687,-1.3139509178846625,-0.600286865321466
-15.248808036204506,-15.253326705912965,-20.297668908033206,-14.718259475931518,-15.678365761696195,-17.710362328257876
-8.846758892106207,-10.990568305962963,-12.995924673031222,-11.656906470793206,-8.922927923305767,-9.76429262129578
-15.730070685506766,-10.799782053228864,-16.928382300262896,-16.809119005031437,-12.88863477711252,-13.992856814974187
-3.4060398555418954,-4.290526845901186,-2.275581958574277,-1.8470289215901692,0.11718076019866716,-1.3300381079869152
0.8422460519479551,0.2791725621423118,-0.3736342507270951,-0.09747980874966242,-0.39093549223695717,0.24361423646537286
-1.6130552332653256,-1.0404836361291725,-0.4300816658936022,-0.03839215695899271,1.11898500457945,-0.9968063360205133
-15.206003229057389,-15.791600162721192,-14.48456576440502,-14.83042350949129,-14.175807146254776,-16.41953879663641
-9.367081686218254,-8.931231406761349,-14.482320433503265,-9.248049344934076,-13.44596124912084,-12.608567564468519
-9.435030507294858,-12.31342909164194,-12.033917264192583,-10.58082485691259,-11.583252951662123,-9.879523291562727
0.080282046802703,-0.38215149920137664,0.6604243866331398,0.5940453984110656,-2.9899543976752603,1.0761776043189304
0.36461108257190095,0.15505354428449578,0.39001594230736103,0.7824307268362147,0.6231321976294115,0.5065012343097358
-1.6025420050143946,-1.7711362420235963,-1.6124747777462334,-1.6963548689863488,-0.6309537265390208,-0.882668730220407
-13.242782599707976,-15.479660355940076,-19.888597871875717,-14.095842853112716,-14.443728793788756,-15.844528943984828
-3.8077127808193656,-4.372285848783352,-11.28676136240178,-3.1782106581224663,-4.293725050199129,-2.1866606580119416
-15.525692586312035,-17.01834677379025,-13.332906107999717,-12.604487350722335,-11.54870077215358,-12.760254123383346
-5.035852309259682,-4.196211055367122,-1.5728024455759493,-1.1953282418324085,-0.6969238036256354,-1.695776530215413
0.04502208852708158,0.7247300799176662,-0.12340891058773472,0.09996167323871709,0.2882421340443413,0.8104981633035989
-1.0180793011934286,-1.471011696286024,-0.6512357134240242,-0.5394282515608013,-0.6515366194793045,-1.2816711278572073
-15.632946703062196,-13.520803913835866,-16.740421088337,-13.729145202633724,-16.359304426168016,-13.035238653833115
-9.301053198178119,-10.196541104106212,-11.124284679341406,-9.051643190818126,-6.713569472493303,-6.0289652595300245
-14.231389159092805,-10.61309500143795,-16.785321616080783,-11.993163262262767,-16.70408728740051,-11.25244645623443
-8.751731725949094,-8.334046322306348,-2.9651776251604964,-4.796896091839317,-1.494554018421217,-0.9468150825170365
-0.35155164141631046,1.0333141537685953,0.5274844078991062,1.3409884057178325,0.45784660161491236,0.12336422389406224
0.46787751650707654,-1.1919113874246512,-1.5768750728412615,-0.700664600543141,-1.5897997372006571,-1.1989817761853827
-12.571830237887996,-12.605214812216307,-10.757765689391402,-11.339186641551327,-12.8648888355492,-12.087834528521883
-11.635911063615659,-10.988838291121839,-12.131727523799253,-10.605179194852019,-8.86828716392444,-7.537648253704131
0.0,0.0,0.0,0.0,0.0,0.0
0.0,0.0,0.0,0.0,0.0,0.0
0.0,0.0,0.0,0.0,0.0,0.0
0.0,0.0,0.0,0.0,0.0,0.0
0.0,0.0,0.0,0.0,0.0,0.0
0.0,0.0,0.0,0.0,0.0,0.0
-22.676670238582314,-10.718393098312594,-20.585416303794915,-15.587454342129488,-14.968797181385026,-14.03585466861758
-3.9632205125273288,-6.57841561272555,-2.7785789074975358,-5.341016882313785,-4.762172866752409,-5.752811195144311
0.045271018393837355,3.9050719932498885,-0.29242254428237247,0.4481227745718753,-1.1323681556500753,0.7112194759583846
0.2640327195685838,-0.584048656322667,-0.046574308330640225,0.8778022210843324,-0.5535587085808937,-0.5863374697078796
-14.054123409705188,-13.056912993850373,-17.794105443282504,-15.294465648663992,-16.784939258038783,-18.293557921947265
-13.15515065845305,-10.893251734719914,-14.13179117244558,-12.832892105547883,-11.95495582093883,-12.160425675283214
-21.325307028456905,-12.493619250841029,-15.04919117622372,-13.059161862090908,-18.272322395266357,-11.626064539789924
-4.140128421084832,-3.347444836174024,-8.294055035629295,-5.658675925092478,-3.075062454116006,-7.098958501533811
1.0807374913458014,-0.20814892110021044,-1.1440348023435063,0.6619075169468543,0.572709513778251,0.512916243124365
-1.8612260848168394,-1.151926395589589,-0.7195896614806399,-1.622508114006439,-0.5677457017969382,0.6471140637920947
-16.78711753480013,-14.951019472514279,-11.064205245494561,-15.226357122407538,-17.887017325431884,-16.950317895346682
-9.622726115730364,-11.426128913895777,-10.876258824992433,-11.89698949760101,-10.819500799957167,-10.11155078288035
-13.28920444392591,-15.16078490573002,-17.66186078427445,-18.662618970510366,-14.651499087263405,-11.072517071815838
-3.929506224442764,-1.479258659528979,-4.344668638830087,-4.009347469311885,-6.192764543905352,-5.0576621892593945
1.5460742862364456,-0.14029740157474505,2.473046279133338,-0.056893778680003594,2.376143627640665,2.6761987602139516
-0.3393399516892412,-0.05101765160917323,-0.6088886918051005,1.2986912634969368,0.42051399201147865,-0.17329981949669943
-14.413969057701518,-14.095765608154931,-17.076451652429004,-13.441025387025501,-15.237927965173565,-15.359212333591268
-8.638600138446597,-10.72829067664967,-13.704902830984295,-11.554856704847126,-9.215137095702875,-9.405813425752964
-16.03118827154575,-9.1483064665384,-18.99247288047389,-16.10777679072902,-17.835173472177516,-17.38130048802728
-4.7786538044708795,0.0887392424096262,-3.4920341313048855,-3.275272036107944,-8.66270048442946,-9.625107383278133
0.4546728654922727,-0.12280887517180149,0.4880737560074068,0.3557608457413528,0.22749742051434838,-0.1932463080694384
-1.5070534009464303,-8.51935974948191e-5,-1.0735177156881346,-0.5504100520670104,-1.522081840771979,-0.7924479069406215
-12.817891991818465,-13.765784050217102,-17.18585304788999,-13.70818896164756,-11.652726119841038,-15.657210608162634
-9.358056261535209,-8.654105664287961,-13.17632791481995,-9.226157114165098,-13.176513950350595,-13.078220632324886
-15.423965910512399,-13.059424683417756,-8.127205826115548,-8.026994781389897,-6.606326673978244,-7.2490195028350515
-1.1511919042638625,-6.0510193298980655,0.03669370856239999,-2.299352561600897,-4.073574580337374,2.649299269813283
-0.16183121000209733,0.03946055841380731,0.18056324487364295,-0.25736384608400087,-0.1465327095748734,0.26244582206927825
-1.599502755050292,-0.5657111814676699,-1.9422916904376093,0.022979550134833996,-0.9194317158901224,-1.1116647244157134
-15.689395399281727,-16.09450073741992,-15.755483695060587,-16.613318871306255,-16.201798759559708,-16.484952618816802
-4.362055494814126,-4.621788364438695,-10.132905992330368,-3.7993704373169686,-3.591720081739134,-2.6692946477969643
-14.908354149134235,-17.377187374616206,-14.370167983882274,-14.6038980868491,-8.21564869499089,-9.320642414785945
-7.707989738976951,-5.530148147485801,-2.1490923185281168,-5.631820688780202,-1.9127131876232342,-0.6417314466540772
0.4057150960886367,-0.27777423210091,0.10551324530779521,0.38503852473423045,0.004416510392481135,-0.3326929913764886
-1.0690220364337673,-0.7481745643524222,-1.6774198978967974,-1.1326448639537503,-2.0127388547268272,-0.5684917931563662
-14.990307841619886,-13.722088221025583,-15.202517549022906,-15.664601849157894,-14.86018767452546,-15.03693133587575
-9.261095139279346,-9.36864215729995,-10.332081518701825,-9.231443978428656,-6.140544712299286,-5.622363378269034
-19.52196301359484,-13.372748330793018,-21.139167872825663,-12.996579298364187,-17.72006235768645,-12.16578052254442
-2.5401102388479257,-1.1561974960046053,-1.6531581678854608,-5.413632593387647,-5.393509453752108,-2.3602220787639405
0.2746367458478682,2.606966694635421,0.43546433035575943,1.634671057316231,0.6369748820321546,0.2007947818533552
-1.1348354459728758,-1.4418941578938977,-1.5249701241358808,-1.1935934151368117,-2.1848045322887146,-0.7381336821686251
-16.23628228252872,-15.865504132411466,-19.072861179086605,-18.35356648299173,-17.646397502075192,-18.34578258720092
-12.085984030701878,-11.080805763437418,-13.163612005457844,-11.507481004429835,-8.727082518902474,-7.735324985633218
0.0,0.0,0.0,0.0,0.0,0.0
0.0,0.0,0.0,0.0,0.0,0.0
0.0,0.0,0.0,0.0,0.0,0.0
0.0,0.0,0.0,0.0,0.0,0.0
0.0,0.0,0.0,0.0,0.0,0.0
0.0,0.0,0.0,0.0,0.0,0.0
0.0,0.0,0.0,0.0,0.0,0.0
0.0,0.0,0.0,0.0,0.0,0.0
0.0,0.0,0.0,0.0,0.0,0.0
0.0,0.0,0.0,0.0,0.0,0.0
0.0,0.0,0.0,0.0,0.0,0.0
0.0,0.0,0.0,0.0,0.0,0.0
-13.281949860851533,-13.922832955839205,-16.738218827706852,-12.268615164773758,-8.648782436436107,-8.06757410657761
-0.9842822913557568,-0.6943503218445479,-0.7419969271663879,-3.5247758043092965,-2.42676796749216,-4.190020937284503
-0.4091947845299849,-0.04891406969975707,1.8476811998991005,0.14631719585943898,-0.6041239310966133,-0.43445005604860204
0.14276177878368548,-0.09493670085974117,-0.9679936045244327,-0.7378351037941132,-0.8767040504416639,0.02140670393344926
-5.276955157253095,-4.975487795135289,2.2495772662020848,-5.906545974453934,-6.043323897389782,-5.894224005627182
-2.985659186158905,-4.039485777097474,-2.439666037193759,-4.234642790095441,-3.823543305345965,-3.5289250091163096
0.0,0.0,0.0,0.0,0.0,0.0
0.0,0.0,0.0,0.0,0.0,0.0
0.0,0.0,0.0,0.0,0.0,0.0
0.0,0.0,0.0,0.0,0.0,0.0
0.0,0.0,0.0,0.0,0.0,0.0
0.0,0.0,0.0,0.0,0.0,0.0
0.0,0.0,0.0,0.0,0.0,0.0
0.0,0.0,0.0,0.0,0.0,0.0
0.0,0.0,0.0,0.0,0.0,0.0
0.0,0.0,0.0,0.0,0.0,0.0
0.0,0.0,0.0,0.0,0.0,0.0
0.0,0.0,0.0,0.0,0.0,0.0
-10.614310860295253,-11.064729665678755,-8.462408097894993,-9.696917905814193,-9.120454335143469,-8.860025336018477
-1.9183002488820766,-6.159198357761115,-3.1968032945559126,-1.5413595810784475,-1.9854736348562139,-0.8822647169468895
1.1595887710035284,-0.705589535336772,1.1769855211544245,0.7542012892704537,1.249606412092463,0.13461523017745902
-2.6935344210099372,-1.0812015188882784,-0.21664358548838775,-1.6396632942132656,-1.1171327616781077,-1.530343442397581
-9.457948034402781,-9.204292474943983,-8.10484049893884,-10.06516359156028,-10.165557877256415,-8.34224971709992
-2.973349904769229,-2.7190967812713662,-4.0881558543561205,-2.4701814774501507,-2.246066147537598,-1.8061625891038477
0.0,0.0,0.0,0.0,0.0,0.0
0.0,0.0,0.0,0.0,0.0,0.0
0.0,0.0,0.0,0.0,0.0,0.0
0.0,0.0,0.0,0.0,0.0,0.0
0.0,0.0,0.0,0.0,0.0,0.0
0.0,0.0,0.0,0.0,0.0,0.0
-14.385987111833005,-14.932277422860592,-8.866450169375078,-9.62399049704721,-6.5403731235466696,-5.687934700343947
-3.7245829102774017,-2.560895250100036,0.3148243599793233,-0.5533574303633563,-1.3456854737283643,1.718637710032659
-0.447405075567521,-1.016222546944617,-0.16382086570785248,0.15062509989927017,0.36162817808181635,0.002276749860935551
-0.7761605991289743,0.41256807112882976,-1.6524941459761608,-1.0333776652326252,-2.031087360491275,-0.26283024233099694
-8.065097804820978,-6.50351509040896,-11.840785861073039,-8.877131010399896,-8.108491420842784,-8.104932096193007
-4.506961603426771,-3.8677021053758938,-4.556515574206356,-4.454050197041774,-3.289387351304338,-2.758628263198085
0.0,0.0,0.0,0.0,0.0,0.0
0.0,0.0,0.0,0.0,0.0,0.0
0.0,0.0,0.0,0.0,0.0,0.0
0.0,0.0,0.0,0.0,0.0,0.0
0.0,0.0,0.0,0.0,0.0,0.0
0.0,0.0,0.0,0.0,0.0,0.0
-12.73457930466455,-8.415601199371114,-12.190757128324245,-12.853743642370267,-14.747945085174218,-0.9980518730115647
-3.7485893347915957,0.4959427194497298,-2.138172623503371,-2.602471629661451,-0.40925938199767986,-5.629105138709499
0.49696153940154925,-0.04200025561883345,0.29962859270760067,-0.38591246975976706,-0.2776749471824335,1.3741090993634406
0.07820523405437382,-1.9666842840321817,0.7026346223708304,-0.3017749754667818,0.40422479572663633,-0.7826542384935641
-13.41420151132307,-10.948956043467444,-4.658096380385246,-13.444813002343787,-14.54441445362714,-12.729473109988248
-13.171281812687758,-10.430031520460187,-10.923587534798017,-13.358376510404236,-11.36579478922102,-9.763210478054903
-15.194804190861982,-14.011958523175853,-13.628735773796372,-13.310491548770468,-12.777289775391942,0.07307417114456702
-3.2213202630998143,-1.832978335343828,-0.6535021919424349,-5.992332560050647,-1.5482467015623824,-5.334813764782206
0.6833194801712995,-0.013126654890839393,0.29856793850756314,1.7829266718514944,0.34654312873092524,0.8582342742185369
-1.36792119222971,-1.1216215443332138,-1.0614945268516842,-1.4948663704563352,-0.48293785219964064,-1.9157646521613938
-11.535884642830236,-12.387198455516915,-6.3522334708833545,-10.28933498502543,-10.76655830687447,-8.002874150018444
-6.909327035987276,-7.754341174703872,-7.325568041522228,-9.482247757223629,-6.815438925166471,-5.726604758485635
-10.008708224272485,-9.766587690572603,-13.481452740331264,-12.61958301803989,-13.314347328439343,-3.498809141649805
-2.625274564761758,-0.17665055660679918,-0.8650688400505626,-2.139522281908609,-2.903136899771527,-6.238107871385058
0.19653097745297515,-0.20489049155641473,2.1843338119872415,-0.05616429882135554,1.804487278286414,1.1551898668379779
-0.37022367250192467,-0.13707381156992174,-0.45665835432856605,-0.3124354175234649,-1.3470053922245646,-1.074146380945293
-13.18234874303525,-14.062001317023455,-8.363081000025401,-13.317074631167538,-13.928978173579576,-9.322055220286435
-8.085689678886604,-9.165309124582722,-8.272451761027881,-9.919691426022492,-5.447676365257231,-6.3815123089310815
-13.599104060349099,-11.588808105616808,-16.8058595779608,-13.598469295953635,-15.757772098821956,-1.4403391755498622
-0.6011862563978508,-1.310050361902263,0.2459954043042902,-0.6574171544993347,-1.1790239243308027,-6.3412257420405105
-0.6522237222556312,-0.19331734702700215,-0.3291676379609969,0.11572626075602652,-0.07184376881177318,1.8047324378325298
0.6409318649767312,-0.09586257118139983,0.48197773713131165,-0.2542086128784895,0.8223787189106947,-0.028998520676601466
-14.155043147760528,-14.606008071537415,-10.96205842565743,-14.689805579769436,-12.730813958779597,-13.461477063145441
-12.302306063892768,-11.600416346114455,-12.512739512776484,-11.647320838534245,-10.64604596310716,-11.861519379105886
-10.97410143293423,-16.054815373253625,-12.60732450226294,-11.029969887578199,-10.13228342368609,-4.095121878869702
1.0324652165350476,-0.08714216146882457,0.34217253184347846,1.3141636495911166,-0.693933174556161,1.223714005152651
-0.5217205999112178,-1.3830535248733484,-2.3949916901848636,-1.1687018759959562,-0.5322425351091701,-0.5073939274777157
0.3142956122122129,1.0843479136003351,0.43898316379822894,-0.19875777796903232,-0.4184053258896738,0.7760525484222841
-14.705327718474924,-14.15561190665265,-11.710746567855207,-13.78320170911982,-15.284794089192168,-14.00980576748004
-7.258316059967695,-8.611536556676732,-4.255735669904826,-8.49295189913314,-6.06837670812562,-6.1968969326411525
-16.327901442439554,-11.433023996886314,-17.740781372325184,-14.193484610256187,-9.696916783268668,-4.0297498446020175
1.0324508963307042,-2.618491254513483,0.0069019240058141515,-0.40867911020048603,-2.4033203017564833,0.3312289676131348
-0.229345336571035,-0.4636469161132862,-1.2426521048199934,-0.37422877826059125,0.1318783494434773,-0.27154860633060146
0.5810232597421525,0.41817625159446176,1.1857524377015576,0.9033628601066253,1.0818414643257808,-0.05680611083108338
-14.996791943682384,-13.93355923294339,-16.006451435956553,-14.914990837380884,-14.688592411055568,-12.625235842262446
-9.247492950267272,-9.902984763183312,-8.683321704341987,-9.954479256021878,-7.031802738761966,-7.0439329658164604
-12.013249977750338,-8.432394761403494,-11.586111534329172,-10.42237409298299,-12.730498747060576,-8.68846332970621
-2.989733364452105,-2.144447359220863,-0.15304673356428172,-0.7354253000096317,-2.0872113340921614,-0.7910611722431609
-0.6938323748365597,-0.043319414405633,-0.20022349674806908,-0.08757317573394595,-0.184082593215623,-0.43603651168941276
0.0327667710342885,-0.20945045487992442,2.4564443453693174,0.32969982864127134,0.41488683183432656,0.7256650110586201
-14.437788980740258,-14.740330736898859,-14.272223273266013,-14.473738032319103,-15.576111000728993,-13.517168138232812
-9.70472700865519,-8.163251294964935,-7.783408958146656,-9.412231808403925,-6.976616982166303,-6.418285105331358
0.0,0.0,0.0,0.0,0.0,0.0
0.0,0.0,0.0,0.0,0.0,0.0
0.0,0.0,0.0,0.0,0.0,0.0
0.0,0.0,0.0,0.0,0.0,0.0
0.0,0.0,0.0,0.0,0.0,0.0
0.0,0.0,0.0,0.0,0.0,0.0
-12.696050885079133,-12.921320429560204,-17.68321835524805,-15.632838192322557,-17.83695980246403,-1.3968550026184952
-2.7533687931532467,-2.218244378394326,-1.0455859916835513,-1.6606965587367,-7.138851532960841,-1.2841146629942257
2.294232999537125,3.285234119530092,0.5766422617283885,0.6154867270058668,-0.49933298023879136,0.061804235061214755
0.8100519616235986,-0.9062020841129472,1.0263978652188055,1.0294338856656944,0.7454903274967317,-0.7803141179363313
-13.229685379730538,-11.699995173916648,-15.69368643728113,-11.899943727397188,-13.069382793397923,-13.12379663942362
-13.492379542125418,-11.73217561382416,-13.617171927489833,-13.558229842854223,-11.29770519102306,-10.352681033792233
-16.496118251202564,-14.550511003536764,-18.98183597824986,-18.102788939708073,-14.966798386209044,-1.9471955882948173
-5.469950839624973,-0.49961197416723707,0.7982570248792953,-1.2991498000491088,-3.9751232974709296,-2.1431308113249523
0.3826675227799148,-0.4166283830047909,2.5424241997663493,1.803091776400401,1.7856941234309647,1.1703320803281603
-1.1141120200376426,-2.0756183649995052,-0.6443033023492187,-1.045028132189547,0.6105330390786677,-1.0212625507407482
-14.900882105027938,-14.57634661157593,-10.538539027783804,-12.90763775900701,-11.400125054349113,-12.301524321702066
-9.649241304629104,-11.46131623571267,-10.788759383001873,-13.70235175934525,-9.052274465037513,-8.440774504185706
-14.307610318252076,-16.540873457392415,-19.08895170234872,-13.953336045578615,-16.48409436814889,-10.972826471433018
-2.812295956566379,0.5369512302449414,-0.22784484284927511,-5.636020523565701,-0.6687888483443797,-4.541797176721872
0.35603888346354523,0.07036816332685718,2.050830933627357,0.5242041541370701,0.827097854454412,5.532903660132506
-0.012573573685982956,-1.2457878432389353,0.2572327864135344,-0.0007855006393943234,0.21096469865797804,-0.9659225088467371
-14.184999747655528,-15.823505557579885,-12.99630016735528,-12.830017663022838,-11.355506606929259,-10.043346936670467
-7.897256937670811,-9.586155211136568,-9.852511766469908,-9.658291280031978,-5.140293956775871,-6.597699236805459
-9.81596440613926,-14.425115405741899,-10.447606886717736,-14.060265905310812,-17.386451505751662,-7.230620954634429
-2.1617776990685194,-0.2175546545254708,0.45563562966886567,-0.06690749042492954,-0.6613553805681328,-0.09487576963386306
0.04991155955943736,-0.8741128689093014,-0.8827005214823789,-0.43789324047412864,-1.577920693329702,1.2462270725748392
0.48341597095906896,0.8950053374601376,-0.16287461745048648,0.8655888361940549,0.48802066031553437,-0.722675430135058
-13.47760817756972,-14.945964101984782,-15.67450001239614,-12.671873001412227,-12.99066113806222,-13.054022617333882
-11.828597021753913,-11.361890838238788,-14.382293841546531,-11.77103598702776,-11.605238575015075,-11.268069622341923
-13.951922972293664,-11.894374768790575,-13.632088093067745,-14.607502533841624,-15.482480097560055,-7.563014033637366
-2.054908052356717,-2.474638782353798,0.14280546055122878,0.09498632926880458,-0.5532841989890234,0.666889428172788
-0.14157522066106262,-0.922072484909763,-0.9929894048216795,-0.2047635875718486,-1.3457528014032445,-1.0753228667700585
0.3130465454757182,-0.8353084133864652,-0.3362100368764015,1.203906930350729,0.40730197308887656,0.7573716114482754
-14.333905037134633,-14.41352121005219,-15.304057391472469,-15.450327138937133,-13.20387771485203,-15.135254776475723
-8.572356446984816,-10.39827778321976,-7.893847516328277,-9.411129269531708,-7.955954095455311,-7.379973765120172
-15.66002611387433,-16.863245253058516,-16.623279686050367,-13.949125367823314,-14.743822421998555,-10.687183960876963
-2.2422535103273273,-6.860288952010905,0.14237933649199463,-1.1954375022489698,-1.0713103719781427,-0.5061748920156122
-0.33016182379706516,-0.46838516302577243,-1.229885309176689,-0.16833071907668043,0.027297931976371294,-0.31418218078884874
0.69856082221334,-0.17657052043849128,1.1569718174086097,0.6680801045552255,0.5709753155466295,0.7530122455543042
-13.678846030312869,-14.203255302141791,-11.68167952343791,-13.336910170251356,-12.397770258554294,-14.555983283787606
-9.436949873248905,-9.933637659853296,-9.020899286220986,-10.166833647578084,-7.475030351296365,-7.254211406490141
-13.394893830984005,-18.143209289037657,-14.565208674274768,-14.176188308200192,-14.420317444608163,-8.669041125789073
-1.0248774669349683,-2.2697356646748936,0.9054472519145126,0.07299601882155075,-0.10134670362968715,0.025460733600167956
0.09974829280242284,-0.9464505049106595,0.699197410857095,-0.40351854850510355,-0.4636202317854675,0.14097035627266563
0.3234956297956958,0.22207094878393946,1.6541317526016508,0.3673223458035359,1.1832209024260771,-1.0128323512982882
-13.649056240198759,-13.76701217851323,-12.36791442469117,-11.339349294641764,-13.901003962061756,-15.048958628929423
-12.604630037250242,-11.06524380033118,-10.651606822177126,-12.0681994885779,-9.284001631007747,-8.785538253470177
0.0,0.0,0.0,0.0,0.0,0.0
0.0,0.0,0.0,0.0,0.0,0.0
0.0,0.0,0.0,0.0,0.0,0.0
0.0,0.0,0.0,0.0,0.0,0.0
0.0,0.0,0.0,0.0,0.0,0.0
0.0,0.0,0.0,0.0,0.0,0.0
-13.578262482529393,-8.093558101076786,-18.83084569537948,-12.498555156888758,-16.40301437182558,-9.710115117284253
-6.739922135781488,-5.432732248237177,-7.023844450885458,-6.686404591950768,-2.1576085946403243,-4.038092530096482
-0.06786413442861372,3.5336690392919565,0.012776694729658094,1.2764867343632627,-0.3867788974529544,-0.06456587715458624
0.3818237076690543,-0.3140790734544779,1.1892314703814792,1.7017033857795145,-0.9507484801290771,-0.33762815836661525
-14.763323681119621,-14.330325007299182,-17.85644991915206,-15.643129448341305,-15.226210207693466,-17.002485029023724
-13.591038530193023,-12.60224599271557,-14.936667432166608,-13.716281426864734,-10.98128817512629,-10.634001510512354
-16.934813679579786,-14.543839858579364,-15.614492297374866,-9.801238598084694,-13.109452682851913,-15.320868184524372
-8.545134681553035,-5.7967976086267266,-7.944883033955909,-3.9116605350392724,-1.1912228235328715,-8.42283933946268
0.16370948765737056,-0.8918121843474411,1.864907181129528,-1.4372655775186027,3.261437115021867,1.3338350019398177
-0.6437815062183571,-2.0261979828843204,0.7189323073379884,0.9526753724013647,-1.137545135887805,0.5541737887546915
-13.656885806633658,-14.011233329971267,-15.747638017446553,-13.393615719044002,-12.208028201277424,-13.697969746888885
-9.37450989950085,-11.369061929054977,-11.697067775844369,-13.24612777666211,-8.8447701942425,-8.671010994355346
-14.226034493976242,-13.457306986913029,-18.396741025222774,-12.300289404588234,-9.48966428549474,-8.688194518196093
-7.292776641346946,-5.994914824182818,-5.797289054907124,-5.353312641864781,-4.033425320130582,-6.4062040156966
0.9142127491293153,0.8733295186681261,1.5335988629456183,1.0640935976221209,7.589527824682202,2.490120198930448
-0.7743289581733788,-1.5969932818980797,-0.20112585372495206,0.08001798686768745,0.16497027494392658,0.5636870995720922
-15.480465345787502,-14.526247172002977,-15.91510253109684,-14.58059775280498,-14.920239718287103,-15.19035389439184
-7.961445982732901,-9.553152896455392,-10.164387246184216,-9.798373984066354,-6.310262842819936,-7.84983955058241
-14.706172190026905,-13.158029010441957,-17.789129689275295,-14.129647635060982,-13.985414470979912,-11.339100224145598
-4.173889791038968,-2.0785685902005517,-6.2438685763937745,-4.4866487355836275,-3.59070397300145,-5.4893050184384276
-0.1031888751538487,0.1535181560867664,0.41871488027929726,-0.39974218003872425,2.2254742152608804,0.7835756104830215
-1.4051919867624838,-1.3949936550798323,-0.17693575712761908,-0.5722724438125266,-0.9716075262796972,0.40908088389619757
-15.072377150227608,-15.765039682625181,-13.344243777157024,-14.048197097518704,-14.916435026238831,-16.15666715295698
-10.188271726910475,-9.025623412666205,-13.761356163070303,-8.924127213734051,-11.017991848289123,-11.458667413144504
-8.413514856772208,-6.535070091876176,-11.51490466154125,-3.6264508235930673,-12.84723895190232,-11.954154620337901
-1.9553569535880042,-0.7064818273438134,0.029868025838494242,1.410020403614346,1.7460678365076214,2.1687028963523476
0.5609036449728289,0.9116241533524213,0.6744427509507467,0.23850643838115515,0.06525438336315119,-0.016254704574723382
-2.035116020545345,-2.057375037303986,-1.1263944008739222,-1.9566662392780152,-0.449019740886212,-0.13665868815962753
-15.2105474652457,-14.350336886468535,-15.138043892957237,-14.85095236418431,-13.552591651578833,-14.996773779798575
-4.5418636880975924,-5.732209224502868,-4.601078065701881,-4.8481767295318425,-4.769569108110344,-3.0245251316921795
-14.813902821382305,-14.580292396662108,-12.34506521686882,-12.873748296873535,-14.783404389533708,-9.339979877075127
-4.187141652167202,-6.103801305425585,2.0339074533012638,0.2989398663239837,-1.1103476347497083,-0.9793298084302976
-0.09235148583242275,0.056632923930867995,-0.11709865452231565,0.690002584795879,-0.010469386129075631,0.18970197697453176
-0.9943353620959114,-0.7253821859248539,0.34878486933994735,-1.4731097753191114,-0.04321904675267801,-0.9364527638881944
-15.09655311454842,-14.292840395242472,-12.593020704932734,-14.278252698036827,-13.880279916235647,-16.966355071498057
-8.98744790998273,-9.689423287835464,-7.011142594706199,-8.532916233440398,-5.827424883061003,-5.6604516629363495
-15.32378208736568,-12.570364732405967,-12.263821008860903,-12.665278492092385,-8.937499340816109,-16.111645141277908
-5.431755825932501,-6.990898364059899,-1.6145627598492656,-5.8371460259705765,-2.306257812441989,-2.4704613219110065
-0.5890416500076263,2.2289852081021873,1.9428471990448597,0.6672153075068895,0.12798787801920433,0.7286710170446764
-0.5507430403975776,-1.9877716598359483,-1.550581603623647,-1.2329902422573051,-0.8243096655502564,-0.41099019931466374
-13.909977182913588,-13.065357138390095,-13.881850224630941,-13.514359691149174,-11.864838894135517,-14.305810095964796
-11.645225082957502,-10.211061165407887,-10.087569987515705,-10.665116320775173,-8.20054831306452,-7.390730456579419
0.0,0.0,0.0,0.0,0.0,0.0
0.0,0.0,0.0,0.0,0.0,0.0
0.0,0.0,0.0,0.0,0.0,0.0
0.0,0.0,0.0,0.0,0.0,0.0
0.0,0.0,0.0,0.0,0.0,0.0
0.0,0.0,0.0,0.0,0.0,0.0
-12.643833662443763,-6.988270832587226,-16.931593341218374,-13.503996598681692,-13.014055530108159,-9.25494679390312
0.5486510973119121,-4.339609911125136,-3.5446960364378266,-7.320328819261659,-3.791828542045951,-7.474396810466299
-0.6233164419941118,0.3760757391048083,0.019618773597974145,-0.6845391896896565,-0.05587718516535679,-0.39585380076282517
-0.016363393346441064,-1.5395482708168156,1.408853309408341,0.4736408887356039,-0.09396783165599545,-0.6347888316810331
-12.816892795798495,-13.477189191421239,-15.031247830957899,-15.231909598344478,-14.761703603159695,-16.299899883132017
-12.715980786809167,-11.380029051592564,-14.24272020182989,-13.448085680240297,-10.794537942012798,-10.55839765883872
-21.950523475095842,-7.234544989504375,-16.567989173711844,-14.028106729919974,-14.397622038783318,-6.781839782521323
-1.381579938396886,-0.43185661541822673,-5.167837819112799,-5.146620041540925,-5.833960666561243,-7.834168281918197
0.5012931637797557,0.11160520037254623,-0.11678174123104815,-0.3710547790405132,0.2380900968576283,0.23120814118225966
-0.5899151905446581,-1.9660444791315321,-1.2387047197068437,0.7328547769459512,0.004660765420177893,0.7401574182507077
-15.918754588715359,-16.731839368282188,-14.768709764342967,-15.385922436871251,-15.148643190823915,-15.943399428387806
-9.987488939136938,-11.133510487656297,-11.392395268076214,-14.155425864283718,-9.755951426652071,-9.572697157536219
-11.24002217826874,-12.790269477195583,-18.423310256896666,-9.23579161251416,-10.370953136966888,-8.482892553942664
-5.134820567470455,-3.382834500222162,-5.786964483249357,-8.03318610588751,-10.439790999395944,-6.735035334250233
-0.4908626588607636,0.5166473798509958,4.740242449239445,-0.7443156071513609,7.7059774188209476,2.017554311982222
-0.4347452947288717,-0.8633112320936612,0.07988279636404157,-0.9903054642442902,0.6873961272674771,0.6545907363657301
-14.510435679894412,-14.06200100028573,-14.773434305112511,-15.099366984386835,-15.006588946336773,-15.361750952151763
-8.0867068312354,-9.460965985620733,-10.01930392041461,-10.200194984896369,-6.200461826908562,-7.815862583800094
-14.586032465653755,-13.741206448507247,-14.404148607046286,-11.396412135603365,-15.552944296370374,-6.507179569075431
-5.355346551475015,-2.9690989846980074,0.3659464814325138,-5.520523648019314,-8.450963338171384,-7.924819726870218
0.9633840654657817,0.26449694664673934,0.9687801143329495,-0.6254693937621016,2.183607226458864,1.688243799420783
-1.1035221643559767,-1.165976705755847,-0.7798551741997716,-1.1680010426736682,-2.021024464082949,-1.5452205449856982
-13.951907231537428,-13.145392056668108,-15.674808252963143,-14.712758163850879,-14.711129112005757,-14.397657203795793
-10.647252014104163,-8.734507189883935,-13.348393831630986,-9.223426002740947,-11.007196015320728,-11.675249329251724
-11.953546261047444,-7.9220043216202365,-8.399585211998492,-3.7896832894609704,-5.751459741270504,0.4107934106544515
-1.044737891275349,-3.3691489397700116,1.327805959737135,-2.115665163443872,-1.093675793459548,4.812000322239667
-0.0640289975946072,-0.10990287031075403,0.07057911873303963,0.5303045995318673,-0.2828749879103269,-0.5213035451040725
-1.5483432460799378,-0.17776050999562742,-0.8146849510376599,-1.0139294001568864,-0.5130796452670585,-1.2559914984384706
-15.650077865755103,-15.458806806412134,-17.659008766423273,-15.198881601330863,-16.481672291543738,-14.790689956104798
-5.9309916085741,-6.942818142457058,-4.438824815716611,-6.617379217035869,-4.84827996678367,-4.240970658097389
-13.524827313169181,-11.64707341224592,-13.86423709601242,-13.331435635347503,-6.811893018331978,-2.381060392948604
-4.48880422408316,-3.95460854067785,-5.651223220863679,-1.916106974315874,-0.894426621347774,-0.9061372349545622
0.29565731841967374,0.6329527412738267,1.2263011007065934,0.26416603928424137,0.34862224953909327,0.3928315022480381
-0.4374928327356023,-0.5070475379044782,-1.499162494013689,-1.6200553883130038,-2.059510784205993,-1.9128760545359094
-14.217821252575009,-13.611145571525403,-14.721513777067987,-14.31694321442511,-14.887231861797785,-13.946022502743006
-8.569283858842704,-9.711375938189505,-6.962085508650918,-8.068941104696918,-5.372716079728187,-5.4567822353796585
-16.961826982875408,-12.548670379560484,-18.356975635950093,-17.366193766191866,-11.592236686004972,-7.591904059854543
-4.027509783451729,-7.115474507906873,-2.9156445834954723,-5.431454998241372,-4.496819590604511,-1.8737071950641826
-0.044596458866287575,2.5270147704063985,-0.04244974974273683,0.6433284957487875,-0.14617317403067312,-0.2963656775951063
-1.6552388734964274,-1.687722616639534,-0.29760233905390165,-0.8262091786054409,-0.34514326065078027,-0.7052959200711892
-15.01698499775798,-18.286676943240046,-16.09371604499905,-17.971683588076946,-16.77959947413578,-17.73067558849792
-11.995608317897737,-11.143950075764673,-10.866045746289291,-11.549431319268178,-9.325516173406898,-8.067760031285696
0.0,0.0,0.0,0.0,0.0,0.0
0.0,0.0,0.0,0.0,0.0,0.0
0.0,0.0,0.0,0.0,0.0,0.0
0.0,0.0,0.0,0.0,0.0,0.0
0.0,0.0,0.0,0.0,0.0,0.0
0.0,0.0,0.0,0.0,0.0,0.0
0.0,0.0,0.0,0.0,0.0,0.0
0.0,0.0,0.0,0.0,0.0,0.0
0.0,0.0,0.0,0.0,0.0,0.0
0.0,0.0,0.0,0.0,0.0,0.0
0.0,0.0,0.0,0.0,0.0,0.0
0.0,0.0,0.0,0.0,0.0,0.0
-9.427554337792202,-9.476953772436135,-9.054448424271436,-12.256688532187606,-14.85088796389629,-0.9492752505910834
-1.6192910478611666,-1.9190232400867442,-1.8804393424415196,-2.1643895160035442,-3.0393289151480363,-2.8899492762942285
-0.5552348565487172,0.3519754998886021,-0.09674867911951746,0.22513496548762893,-0.6543240893649246,-0.42252001291613467
-0.4559452974805145,-1.5357635060208061,-0.8152343456252353,-0.054912053508131276,-0.20987288586223168,-0.24479867370039182
-5.926898471406803,-6.574184459911399,-2.182341712101972,-5.602758195771789,-6.104197314854579,-5.5656657558694675
-3.507387075138432,-3.699666198674846,-3.0231890136928947,-4.916709897263414,-3.590667755302717,-3.3637295536792644
0.0,0.0,0.0,0.0,0.0,0.0
0.0,0.0,0.0,0.0,0.0,0.0
0.0,0.0,0.0,0.0,0.0,0.0
0.0,0.0,0.0,0.0,0.0,0.0
0.0,0.0,0.0,0.0,0.0,0.0
0.0,0.0,0.0,0.0,0.0,0.0
0.0,0.0,0.0,0.0,0.0,0.0
0.0,0.0,0.0,0.0,0.0,0.0
0.0,0.0,0.0,0.0,0.0,0.0
0.0,0.0,0.0,0.0,0.0,0.0
0.0,0.0,0.0,0.0,0.0,0.0
0.0,0.0,0.0,0.0,0.0,0.0
-9.951026830100277,-11.207344800475756,-7.740388809724793,-6.916907457077928,-10.734703204602505,-2.2437575344651757
-3.1802074291355256,-3.4433736302647517,-2.8865801290601123,-2.159155102768986,0.2220312583297,1.1834774757123845
0.7271310132916613,0.3978336312808279,0.64420536351326,-0.051127147433519114,0.34175172932396164,0.35633155558671514
-1.0459554115292946,0.20781539941034197,-1.4828998198973184,0.4979259137751876,-1.878911151752978,-1.0905310346593122
-10.440527761726997,-10.184211274554116,-10.423252312933359,-11.717291842271623,-10.119262906486846,-10.47168859372223
-3.2163396928108936,-3.7310854258872372,-2.3311589595782785,-4.11018903942997,-2.687042075368959,-2.8106272058406563
0.0,0.0,0.0,0.0,0.0,0.0
0.0,0.0,0.0,0.0,0.0,0.0
0.0,0.0,0.0,0.0,0.0,0.0
0.0,0.0,0.0,0.0,0.0,0.0
0.0,0.0,0.0,0.0,0.0,0.0
0.0,0.0,0.0,0.0,0.0,0.0
-12.58598348778444,-6.452500063280868,-11.112746212317868,-9.412535426245704,-13.079981461867959,-6.7517714346561135
-0.8818169902052314,-1.2355528964151432,-0.3281148201909353,0.059599383887163425,-2.748954417558094,-2.7470291367147555
-0.15307375298198694,-0.6022255282638435,-0.24827655577098262,-0.4843202254865061,0.034992562599736904,-0.06677671463056384
-0.06916327394387878,-0.6247015053640004,0.43155899236998396,0.35702728567510317,-0.7758231456979326,-0.01377771377799899
-9.710421911312432,-8.545990843434208,-10.178225119440185,-9.657613074714288,-8.586086475945411,-8.562431741092038
-5.239881012003007,-4.25903897878388,-4.498199439951588,-4.993930402635057,-3.789653607588401,-3.2342762333969866
0.0,0.0,0.0,0.0,0.0,0.0
0.0,0.0,0.0,0.0,0.0,0.0
0.0,0.0,0.0,0.0,0.0,0.0
0.0,0.0,0.0,0.0,0.0,0.0
0.0,0.0,0.0,0.0,0.0,0.0
0.0,0.0,0.0,0.0,0.0,0.0
