x1,x2,x3,x4,x5,x6
-0.23586521569232022,-1.3882834438218599,-2.628712926345663,-1.4145699150320228,-0.7165915630609127,-0.5993792112886994
0.9262604845869445,-0.04930730580400645,0.18546760845526258,-0.1760381175425078,0.766143479014589,1.0853778554717959
3.3822519001742526,1.6244002991451025,2.6562487312171035,-0.73386907273587,0.7074394475027512,1.6809821794431037
-3.9072744966270325,-5.618436355786164,-6.26051740686452,1.2691655899170322,-1.4131177996198698,-5.584666021765711
-39.02762098014899,-39.53746646208793,-40.963860687311346,-36.92130745424354,-40.66612461923724,-39.652929606937214
-23.102251799129366,-21.73887103617581,-20.19914726479821,-20.740831851653184,-20.697669602259364,-21.017105213246317
-0.15660949305151783,-0.3242767794501131,-1.1964117905452023,-0.2730413764959021,-0.10196121766688593,-0.47209818938916914
0.0624944658171259,-0.2303377394385876,-1.5897169815908068,-0.48833415071539427,0.040147495239515836,-0.015427245054960603
3.8798888887752097,4.025092985946816,3.0275179798914134,1.6202975813277927,3.7029792915111104,4.332048471491395
-2.6926168773691797,-2.223053206901224,-3.5219382581211733,-1.0451613619577602,0.576380158785061,-5.396387495365562
-33.650937156417804,-32.463307706492095,-18.924988060573394,-28.085856220429744,-25.883577558128415,-21.31777386590457
-12.218112894493007,-11.474730432621726,-12.672956831032417,-11.93339344398079,-11.69126377500271,-12.467449299486784
-0.33760216077097127,-0.023996579221278926,-0.5503907807792277,-0.3503943689322472,-0.3852752252598341,-0.22129981983566774
-0.006272960788453862,-0.3496473210650555,-1.0994698007075279,-0.6214652906369618,-0.23128218660313485,-0.5117477461168252
2.1326175586674654,2.615533821096188,2.9300435872674653,4.0899265523404535,4.890723619433111,3.9113598674600434
0.18724428557407433,0.658711178217063,-1.7878516476176283,0.30786644686300213,2.581601153771999,0.22394467033158555
-21.79306731864478,-20.190668250319614,-15.186760547877645,-21.3700821602625,-18.814704757496276,-18.325818848648375
-7.033869645080818,-6.6730428957526975,-7.36380495186,-6.614696418362537,-6.923931295547707,-6.969640481871442
-1.0569993277132212,-0.3351101826958145,0.24512699186027861,-0.778748529127835,-0.09288477650509286,-0.0618259193268098
2.328117708843861,2.3699021516499332,5.861128043324354,3.5189867027575343,0.4844028658250289,1.1462749058425854
1.692100933740682,1.8177791252814037,0.8905688804159699,1.5830675626494346,2.6261144893968003,3.5675895889194296
-0.4261258066638287,0.5879423572436905,0.38697446420633036,1.4573035326821393,2.35254026872458,1.0170753285342895
-10.986833256709637,-13.475535919458451,-16.81333462826663,-16.919286562891603,-17.471642246113202,-15.961053077769032
-4.010068678286092,-5.069313058577397,-5.50407091646424,-5.7812420475145405,-6.055609460276967,-5.8353699753136805
-0.5863518387472313,-0.6644959844698491,-1.0586607287740284,-0.6168961430994466,-0.04689886825088093,0.44932559058418686
1.5935529007331437,1.4027727120386955,2.6801798330038213,4.526843447484179,2.28841671062144,1.6235604213180461
2.147113987782947,1.2537431799235244,2.327279089156869,1.5619459924499186,1.3316500391553692,0.9906242764718773
0.7870613514599554,-0.037449607589777854,0.022154163013327434,1.1674964586724523,-0.18639843449487767,-1.9264960989702917
-13.101092112094276,-10.438342806889116,-9.932624144328502,-9.720099777214987,-10.227931651728436,-8.838469275952392
-5.506574459612177,-3.375148130652065,-3.445129037633076,-3.377041492849286,-3.0186732266349465,-2.781840045544501
-0.3309977140527,-0.3118051422462632,-1.755326392420914,-0.5326775055116496,-0.19749800871893203,-0.4204314204909227
-1.591731720651513,0.30413663784218664,-2.1786181704659153,-0.07742411216054679,-0.3834608907080572,0.5551540116626065
0.5036594566529901,2.439831535940015,2.3936901691689942,1.1337542493454738,1.7105178747492735,1.4621282898677175
3.2232351442721083,2.6300997216516193,0.6559855849558163,3.594558768673671,2.1881475153793284,1.532164690125536
-25.802952608100163,-20.145899039069477,-20.821616139217088,-19.762283560205717,-22.170526115385634,-21.37523879097337
-10.168164321699454,-7.274420800116552,-7.141844463315075,-7.30325595480689,-7.228197739613866,-7.481866152287385
-0.2352549640236154,-0.2530324441632131,-0.3615012206891977,-0.7853679511619698,-0.7420768565549306,-0.5434215800727441
-0.7547674854133876,-0.525401070571158,-1.0743222775238492,-0.32806256449357646,-1.1194957887386932,-0.0049058888275316246
-0.14784280952368054,-1.8277050976524127,-2.5555760943721206,0.9749815255585303,1.2998401782141198,1.2802119853066252
5.208934471140398,3.1888126411525546,1.5290011295883326,6.28074210472725,2.1112561918839536,1.4123537447484176
-23.762797450122953,-22.89900060846112,-25.882408438142477,-24.520379493842334,-26.781955188399216,-26.3773970627229
-10.738820251880869,-8.82737714521001,-7.696249395128052,-10.02683272394331,-9.364755750407324,-8.419146278597095
0.0,0.0,0.0,0.0,0.0,0.0
0.0,0.0,0.0,0.0,0.0,0.0
0.0,0.0,0.0,0.0,0.0,0.0
0.0,0.0,0.0,0.0,0.0,0.0
0.0,0.0,0.0,0.0,0.0,0.0
0.0,0.0,0.0,0.0,0.0,0.0
-0.1499091785127657,-0.8815594494467601,-1.4459201775046182,-0.954136225273387,-1.0175346229309912,-0.23619345452441137
1.9329126097200056,0.0699118907064453,-1.5509684426278598,0.06916418115803805,0.5557702976168665,0.7844831902509408
5.706582824177526,1.9595286680370914,2.712109757018365,-0.8942048384160519,2.8480670838895414,2.2475072782701373
6.056712257389313,4.087443570966427,6.322046075673525,8.402593918494894,3.9189046183840985,4.560605702921799
-34.20724258485732,-29.791056049972575,-24.70543766197936,-30.17553340071868,-27.83332449419729,-26.197034105808434
-13.347215337472674,-12.635855163893385,-11.85245321568748,-11.812494010193271,-11.914498299546013,-12.14143245387994
-0.012074685579878128,-0.4295861703385087,-0.5006611838084811,-0.2484668625788184,-0.28303190448360094,-0.6132584644066675
0.8583137076529445,1.0022818888711253,1.8502725202615138,-0.0770295407875347,0.9474764637189719,0.6602233865970155
5.584814358748128,5.15595870245443,1.8575676204625373,5.646299560900815,3.4534371164544715,4.321431803069273
-2.0383874477339052,-3.400663546691276,2.682771009546739,-2.0081563500168556,1.2379125555538186,-2.713860122391922
-44.459053300776276,-44.448324597390204,-28.246766253947328,-43.48137444790391,-34.71868303262459,-31.83107033392059
-16.3290882116413,-15.754826529516228,-17.50389671901606,-16.26996257078145,-15.764247939840255,-16.791752723715607
0.018624981670370466,-0.04163264086270425,0.3256270744509403,-0.07504788162766457,0.04135163972453876,-0.1280497458190591
0.655190271198423,0.0927997629162388,0.4482123926736872,0.31867173995130044,0.12914001467489594,0.14673456452261338
2.845890054204323,5.279933131317487,5.153284315368949,4.366699200510923,4.199945258566338,4.050178125100653
-3.7429522689840624,-4.3966310663281565,-4.892961078354613,-2.3877536140678877,-2.9586074005388694,-6.411502335634381
-41.345367769524536,-38.12370894079683,-26.365174935888593,-39.8978306702298,-31.66553787082655,-34.04919733153311
-13.556378830178218,-12.098171346055127,-12.543711050494277,-12.710132540879517,-13.043767245145203,-13.380318716912505
-0.058862588515447095,-0.19320012077400717,-0.5664862217819859,-0.017980394766976618,-0.2408792415782831,0.055793227024720046
2.707875159011933,1.1912778698115003,3.700381560074621,2.3324638388764605,0.5294464370870925,0.37986805750164054
3.9057987268871357,4.129187254630975,2.5979364349720817,1.2041292611321597,3.347065785641174,4.237123294283732
-4.004946634149825,-2.5222042236130746,0.950570948151947,0.7231626647656675,-1.3085442066246296,-9.481482860205809
-39.124717751531,-33.6638008409542,-40.77292061233315,-37.76976361576402,-41.66366227243106,-35.45252179357776
-15.16284595851575,-14.946316366898106,-16.38992098682788,-16.53000813254128,-16.87261343886164,-16.032579451266066
-0.15512958939431268,-0.44497919158112537,-0.7667051274667008,-0.3090128641138973,-0.018363187292861006,0.1609563199302451
3.293927883766637,1.3356778005299936,5.524131871194152,4.491268687662932,2.7215048996915265,1.2936532842787967
0.6067789577235484,1.2154812322978445,1.427555101556212,1.4628654108700039,3.0172391728877725,3.931582277339327
1.5626131890223904,-1.3352695508360128,1.0664000527878932,-1.242781931806527,-0.7906128994253778,-15.974774772254564
-23.344347413691395,-23.126245719913715,-23.471259907411074,-22.649709047803967,-26.453045144617278,-24.843758011772454
-12.153583420187273,-8.848234522250426,-9.371043138839498,-9.14761928599173,-8.408083357950861,-7.963382881682238
-0.43172694593118816,-0.041720796709126345,-0.4012916222629662,-1.1274993175599468,-0.3561558590258833,-0.36422818294405457
-0.46168253942251003,0.4532756424145226,0.06500558381825637,0.8067753110194855,2.4746862495348663,0.08956946169772055
0.3668032349232546,0.9924988087764919,0.8222481464178316,1.2831183476143202,1.752810103869992,-0.47308941973488616
0.44322197279202924,0.621335646509852,0.4660534350484752,0.7404734783214388,0.44575185222493174,0.9218057095032753
-15.133513871248542,-9.970502914842921,-9.502352185550922,-9.850113637228946,-10.58905497729244,-9.997305069550283
-4.969762855512974,-2.7861372182798436,-2.5529322490632684,-3.0232131518871594,-3.045597840135728,-2.781625820882788
-0.36908629040891877,-0.6831905708190111,-0.760340527611473,-1.4182150704104346,-1.4304585685346345,-1.2129083578795146
-0.17758186501138845,-1.165759899337821,-1.2540690973855249,-0.7501243684710954,2.163914141858863,-0.8416941295911872
0.7918335365526564,1.6671673744480522,1.955604830372829,-0.24884767913605088,2.1738602566028753,2.1041182550277533
3.6914286824735547,4.208892685314573,3.745344824006445,3.4576213648854326,0.9762847002745274,2.3045449305173014
-21.951925323771707,-18.24208448493292,-16.230511940154198,-19.43307968000904,-19.291203779208765,-18.304224729731096
-7.443770027329263,-5.202048454581689,-4.588731889917024,-6.361352150706959,-5.954987003092043,-4.969816859979414
0.0,0.0,0.0,0.0,0.0,0.0
0.0,0.0,0.0,0.0,0.0,0.0
0.0,0.0,0.0,0.0,0.0,0.0
0.0,0.0,0.0,0.0,0.0,0.0
0.0,0.0,0.0,0.0,0.0,0.0
0.0,0.0,0.0,0.0,0.0,0.0
-0.7994684934392453,-0.5873775105582009,-2.133104350480777,-1.2508939958673226,-0.46310399277870123,-0.151094755286432
-1.3361230248335216,-0.23480718245434118,-2.7469710842639716,-1.606907729919811,-0.825338245062799,0.20733064376934612
1.0548922452272678,2.4395451886084203,3.3977250312339153,1.346901844579526,-0.8232148434995755,0.9419309321639223
0.13390253556231588,0.5144686266198963,1.5627430995528482,1.1853124369967911,-1.054676752699143,0.5227363048984421
-17.415105619344693,-16.48874451920258,-14.95137756039528,-15.273385325529985,-16.093133647837444,-16.06330372288378
-5.6004497737935255,-5.558163840048935,-5.233040943580651,-5.0153471613224845,-4.939804161666889,-5.222457340561166
-0.37102292017809646,-0.17443143256137253,-1.0347163098127365,-0.8572997131317797,-0.21551033764897892,-0.44851612479078934
0.18714115950228594,0.5695858001620874,1.12039622312476,-1.1601989628016682,-0.5055221698994321,-0.5353628431529961
3.740709206053428,3.3603487164120613,2.6739710079359322,4.541015088475528,1.8212677419776655,2.6653189703781806
1.4722089252877575,1.3490947760965584,5.413227674561657,3.2169135544000445,2.9740791955693155,3.8725723668627845
-17.583628372678557,-17.82906588589426,-17.970824267713734,-16.836043468210768,-16.725941692663966,-17.27776225013983
-5.743739151067331,-5.971374580918981,-7.528369189584751,-6.398785951115511,-5.909258349217944,-6.388138965450481
-0.22832385030721908,-0.0816827008407353,-0.16245361507460027,-0.21084332137461512,-0.03592055662395688,-0.42808238488203104
0.48847306695374987,0.3719714784207875,1.8990398062776601,0.5514892745912167,0.20770674897596933,-0.19061794686123507
2.101122010513009,3.241420527971466,1.606058545933499,3.0561447905216794,3.4691518800211174,3.623768637712004
1.5689200664379757,-0.35914982477845947,2.5055681516369526,2.5911247884505517,4.8467738763094665,2.926111551686327
-23.01689051892198,-21.039906539769603,-17.361141414776807,-20.991368048700078,-18.470314320809702,-21.395699584609787
-7.388066018074256,-6.995059375275064,-7.691888683757336,-7.158492959920611,-7.232568489583813,-7.527524338280513
0.07684103706383927,-0.17085485264353673,0.08056005603957143,0.04583190099847372,0.022835922765199003,0.018689121284956582
1.0580463985151234,0.38317419451691287,1.4856270372717202,1.6694553237433338,0.5630844431654419,0.3773738616775692
3.8614270846654386,4.6768777947633415,4.088853381334344,3.5251549691779474,2.5815179302449365,5.272520054423977
-1.7959351373842487,-3.5181561645933646,1.6301035211643182,-2.6275636459202096,0.08054942221469456,-9.416364630256814
-39.60707284985031,-40.95370770559203,-46.355650294513964,-42.639623534777236,-51.807928645828646,-50.590134049691315
-17.853298560329055,-18.194048263518145,-20.120909291184944,-19.5623235839818,-20.40281971056144,-19.068892807682275
0.0209769419414672,-0.135287177833867,0.5131919612237151,0.1883720966024901,0.2164755934598285,0.0014838624714117504
1.2296888975353948,0.43063773591319177,2.635179662794215,1.7379738406977032,1.2728656691705866,0.3561239422542588
2.576745444335706,2.211175854914009,1.0540698579847907,2.4708256817849277,2.0797036483203426,6.97245346224915
0.8867467461027612,-0.3730042416001505,-1.6323627061159836,-1.5983813029733962,-1.9313026458887546,-13.00217870950261
-34.114640621706585,-44.86941664051463,-44.9035777125134,-42.17614577619593,-51.630221590323714,-55.13428142047034
-24.367231655694034,-19.9535255981203,-21.237534168305547,-20.564617580071392,-20.079133451071673,-19.304470920546688
-0.028658539266200773,-0.03471582436829922,0.35775733977714264,-0.6488337442978345,-0.32895301374409064,0.020518656055681837
-0.21261707180161438,0.9278862489965172,0.9553578541768433,2.103976417681988,2.134917060946458,0.7220637116829796
1.473868490371251,1.2840115377015406,1.1921683799199314,1.362438527661089,1.3307892087785231,1.4549024973107574
3.343487714758234,2.847293583793667,1.743810635475069,2.47035666921753,1.0711908343485341,1.6356218533030569
-24.77034117387471,-21.508839124685853,-23.74432551030177,-21.967455496282888,-22.896109697521226,-21.6654247792587
-9.797815125307924,-7.206380822703337,-6.461640385007328,-7.7736235517190355,-7.585211213468502,-7.173922296112661
-0.23462214362738146,-0.5037523674104227,-0.46724651474405055,-1.2089962946356112,-0.9438381046271762,-0.12211422504467202
-1.1838180682793678,-0.09128376418779986,-0.6029872473366431,0.9907562296585666,0.12791665936217414,-0.08775697578201473
-0.3844676563875717,1.5965625993095909,2.3853066757902175,0.6626239075086789,1.875629078686521,0.46819826940735276
3.773816636104251,2.1810613095562386,1.4779413934116026,1.054639684535694,0.14674575693626327,-0.23866417722336114
-22.2751349078633,-18.221405385749147,-17.261457227437077,-19.375804667348703,-19.318988635626035,-17.322189250849746
-7.979722399582601,-5.845709331257714,-5.144542194743496,-6.622342605381653,-6.349209905361326,-5.252365568363021
0.0,0.0,0.0,0.0,0.0,0.0
0.0,0.0,0.0,0.0,0.0,0.0
0.0,0.0,0.0,0.0,0.0,0.0
0.0,0.0,0.0,0.0,0.0,0.0
0.0,0.0,0.0,0.0,0.0,0.0
0.0,0.0,0.0,0.0,0.0,0.0
-0.7104207332039318,-1.2575296545502372,-3.1936647760430414,-1.0436924846709714,-0.9824445208099374,-0.6427854658524901
-2.1395337906683074,0.060825779958660606,-2.0186975567730188,-2.317804965629852,-0.3151914151119192,0.18547188216545085
4.098326666745489,3.7863779270614346,5.404787202473494,2.6771965382372644,1.4354484722536542,3.7641840371327637
3.980728773223078,3.179933217186373,3.059689689369465,5.58140787379476,1.2313788944699806,2.631398267294899
-24.71632032341523,-27.606077154958395,-29.58782046042201,-27.366959938351805,-29.146196304096623,-30.27858738262889
-13.140638205392108,-12.645974317990675,-11.722005956738837,-11.843553860483022,-11.785317527343876,-12.082370091861817
-0.8469294684375137,-0.6908395678342583,-3.779496355255917,-0.9464898953201395,-0.4437891926043377,-0.4995531507241934
-1.3582733879984439,0.5772786137932383,-4.390976446410624,-1.8541717402711804,0.08986254300554183,-0.8032903256897895
5.237050542298768,2.905499027795997,4.829961433321819,1.9614283681179034,3.167156823028574,3.6865565789538817
0.9538910874095288,2.2948744822947478,6.652967370709217,3.6227319079375064,3.7262954603265035,4.089593785403552
-17.805444219516158,-16.452176619974086,-17.989861619014174,-15.881411746825767,-16.925423958702076,-17.13549889125544
-5.191827769661658,-5.150979254880636,-6.811238157510213,-5.65719038457732,-5.446266467021006,-5.774472582544552
-0.8481740225168479,-0.3176399568078559,-1.072098806684424,-0.6316977044341094,-0.4872882872530445,-0.38919029679745326
0.29027134187305753,0.35097507710861947,1.0985755708570968,-0.9027633490410768,0.1625536714654701,-0.8934960361688232
2.1391778041672764,1.0587177568295347,2.313031382660426,2.1909494904878857,1.9560032570653294,2.5858069841429647
0.7509985236233071,0.5128469636010254,2.1970152615055505,0.39433722260898785,2.0260501947860488,1.1720052719111234
-9.969556901163852,-9.432400005496794,-9.612794616294947,-9.156218707796999,-9.046899008007289,-9.225888084938438
-2.5844817981138593,-3.05295829673192,-3.6767758163107445,-2.6535121168506666,-2.727590836634164,-2.8472942450753855
-0.6779416088948436,-0.4590587103320346,-0.3197640140092131,-0.37052856526394395,-0.1594063510437916,-0.21991311149427753
0.887424439270937,1.3006220525525984,3.469313790723321,1.9660490797391577,1.2263499684856853,0.4644354707186319
1.2851866969220416,2.176852369195848,2.351425194931887,0.956749246238472,0.3821725805812429,0.9499481632496526
-0.1400757872254869,-0.8734475088488847,-0.06884523540379374,-1.5482929433335189,0.8506383667876188,-3.749325552862548
-13.249807590557335,-19.82533901971232,-22.3024316096169,-21.313209670604476,-25.34930442165842,-24.26077925413139
-6.16700458950591,-7.594245649323376,-8.528434387276143,-8.20974149151889,-8.849359089683993,-8.235856374894286
-0.06139416606873663,-0.37235904044494955,0.13837037149271175,-0.09186153697417578,0.18032514879937317,0.18370739812791861
0.5418600295766242,0.9598419467679643,1.0827685917376877,1.138001376647508,1.2906652956078535,1.1655740312530172
3.3316383732868657,2.106247881264286,1.0055980302665404,1.330417310245487,3.087859764536492,4.42391866198176
-1.3771293988539288,1.071940905965898,0.1164817257890172,1.1121138694283732,1.2161301209739277,-4.02846743101004
-33.66163920636733,-39.12706820211758,-37.73258772936643,-36.80858143770453,-41.77019367963586,-42.26944524979653
-21.64165166282103,-17.080357903889315,-18.066322959993663,-17.585867764820073,-17.251082212150532,-16.500234021269232
-0.0034903332465021373,-0.16409782064379955,-0.24718744142182333,-0.29212491534980445,-0.004259373960506518,-0.0030347091235305274
0.15153029325662037,0.23730242061467097,-0.7027029502614989,0.5821408947338096,0.10818984657046189,0.9476185324657652
3.2906394620756574,1.368204445379293,0.754280464061801,2.8512023028298743,3.593721117865314,4.1155749502706405
-3.6019210197059994,-2.0409087703400273,1.0555316695377388,-1.559294699120796,-1.1027051711641143,-2.1877704670382934
-41.64390660623171,-35.20211462849335,-41.959317767319746,-38.25569884031619,-41.827472547329386,-40.688412461902075
-16.777418161851802,-13.394359310761109,-12.633802079495075,-13.618353679112019,-13.284927557360788,-13.578282828141436
-0.2022279461764491,-0.6336633759245003,-0.9630979609718697,-1.0253785702459557,-0.19331746471083,-0.30302308980973264
0.2611841545302784,0.3821567323597131,1.2111008064288027,0.35595319255837155,-0.22329319797369582,1.230012844437386
3.456756901716092,0.6386596036631556,1.956789669920254,4.462593159264155,1.8437089880109265,2.9090101915461823
-0.9513362604400177,-3.6007499575757245,1.196206629279404,1.0223301695811369,-4.153249324336924,-2.8391458719903064
-40.779215843348474,-37.572276607733286,-45.46677043581759,-44.78032309425171,-48.3400194185648,-46.5983449459598
-19.57934989910138,-16.243919133123228,-14.324502998649606,-18.071430235868707,-16.69721152050454,-15.34031362209419
0.0,0.0,0.0,0.0,0.0,0.0
0.0,0.0,0.0,0.0,0.0,0.0
0.0,0.0,0.0,0.0,0.0,0.0
0.0,0.0,0.0,0.0,0.0,0.0
0.0,0.0,0.0,0.0,0.0,0.0
0.0,0.0,0.0,0.0,0.0,0.0
0.0,0.0,0.0,0.0,0.0,0.0
0.0,0.0,0.0,0.0,0.0,0.0
0.0,0.0,0.0,0.0,0.0,0.0
0.0,0.0,0.0,0.0,0.0,0.0
0.0,0.0,0.0,0.0,0.0,0.0
0.0,0.0,0.0,0.0,0.0,0.0
-0.19239583335418659,-0.3312456574029524,-1.0119602309118447,-0.41183053156638083,-0.16615494697631567,-0.12774559644568892
-0.2784973143852219,-0.2148969506683917,-3.015960854282895,-0.7516938278991698,0.31146402595966977,-0.04303962572371603
3.2654426073212246,1.5579041547385237,3.9077024331926453,2.1036608617757935,1.8206930401027799,3.09282516396545
2.1517165776013902,2.254149761557858,5.543355481422005,3.796986257058213,3.6537577463357733,3.612448354409027
-10.287348359403003,-9.185377466281036,-8.144496806523957,-8.221835680589637,-9.262829969675554,-8.556732627270637
-3.242655305540154,-3.12389786728005,-3.763297554130532,-3.3149162663868297,-3.2233072661659268,-3.4490140878705904
0.0,0.0,0.0,0.0,0.0,0.0
0.0,0.0,0.0,0.0,0.0,0.0
0.0,0.0,0.0,0.0,0.0,0.0
0.0,0.0,0.0,0.0,0.0,0.0
0.0,0.0,0.0,0.0,0.0,0.0
0.0,0.0,0.0,0.0,0.0,0.0
0.0,0.0,0.0,0.0,0.0,0.0
0.0,0.0,0.0,0.0,0.0,0.0
0.0,0.0,0.0,0.0,0.0,0.0
0.0,0.0,0.0,0.0,0.0,0.0
0.0,0.0,0.0,0.0,0.0,0.0
0.0,0.0,0.0,0.0,0.0,0.0
-0.07356871549919324,-0.21737885641020308,0.3761940992936889,-0.04175238368918796,0.1158735369374882,0.2320150956489808
0.47870529003909157,0.639199437379683,0.8419743997750685,0.8638991155584377,0.2745823189565607,0.9200514512264331
-0.7805577063378536,0.6949154949883508,0.8604981082051832,-0.951890797116709,0.22444976550495147,0.7834379026300154
0.3127083025357376,1.4440977865561573,-0.38914976085829656,1.660057044588059,0.744507450885895,-0.8042478346526724
-8.020662357207609,-7.8457624640154755,-7.483497633697255,-7.5628892633447755,-8.200056139279111,-7.534200344969714
-4.432824206227632,-3.198697186871194,-3.3431342762651757,-3.264590313497157,-3.1313233564360856,-2.9523213052320987
0.0,0.0,0.0,0.0,0.0,0.0
0.0,0.0,0.0,0.0,0.0,0.0
0.0,0.0,0.0,0.0,0.0,0.0
0.0,0.0,0.0,0.0,0.0,0.0
0.0,0.0,0.0,0.0,0.0,0.0
0.0,0.0,0.0,0.0,0.0,0.0
-0.07213077057663772,-0.15626678873582636,-0.3245198317402701,-0.3015840073897759,-0.01732966915214711,-0.10877267449186379
0.14638307713997706,0.17232452466609718,1.6545804139652633,0.48440677478950167,0.08313347284522975,0.4703560406632851
0.6661604658488383,-1.7286089826773532,1.013280550600294,0.1122370948565809,0.22665685001469274,1.1491751431477615
-4.9258334673335,-5.309595549137874,-2.1702178701815993,-1.4352923888659312,-3.2722690293128807,-2.548189957699443
-13.795599162561494,-14.157085193680548,-19.809664696711692,-17.29046639158456,-20.354026306110974,-19.9193338849571
-8.01038522260192,-6.737004289316958,-5.955015480566192,-7.568620787700252,-6.899720116687761,-6.505120969647424
0.0,0.0,0.0,0.0,0.0,0.0
0.0,0.0,0.0,0.0,0.0,0.0
0.0,0.0,0.0,0.0,0.0,0.0
0.0,0.0,0.0,0.0,0.0,0.0
0.0,0.0,0.0,0.0,0.0,0.0
0.0,0.0,0.0,0.0,0.0,0.0
-0.4780015024736173,-1.040848122736656,-1.4259104952682666,-0.8493197601356474,-1.9314188245660444,-1.1659420534886356
-1.7382026415657499,-0.1653005343566406,0.6541649655727149,-0.9277736799734524,-0.07523147990645754,0.35928013613079596
2.529499541382691,1.9567360608394848,0.7454279520771606,-3.7225277561524277,2.1974432542433364,1.4541721694790828
-4.46172715805876,-0.8673110562856288,-0.6219729879097445,-0.5884251246599976,-3.079342176613958,-2.6532971071407974
-45.521173830057315,-38.00990500540933,-42.55460160725319,-19.876284846201344,-43.183400925232306,-39.82988883297681
-21.059067680648294,-20.704861319294622,-20.395168182909597,-28.709941894098034,-20.019250286297506,-22.82521033627837
-0.5336536890551064,-0.23911332527576357,-0.6659570507132562,-0.31144976702760724,-0.42324405049821023,-0.486657069695589
-1.199965168281762,-0.2938580834913091,-0.79936451238536,-1.9172304468682795,0.04998289459404399,-0.03814179654935959
4.160339856365371,2.0984862922996688,2.96061482292903,-1.1059538687954042,3.955174111698804,2.4160301998108027
-1.505087058248089,-1.6489865545164142,-1.891841293755417,-2.674037288854702,-1.6472304822384685,-0.22520661340393722
-31.580805115408307,-28.447564581035337,-29.69278767546819,-18.788373181098553,-27.30756531554258,-21.071481112009213
-11.664912026406078,-11.189590804557414,-11.128659706475785,-15.569262566304063,-11.7344560381476,-13.607654031727018
-0.4479815656989007,-0.3817583367713057,-0.32527061677676866,-0.6973693371999573,-0.21963447913709544,-0.3087098199695853
-0.22075568003911317,-0.5450280858586967,-0.8029468212817956,0.17800379645580863,-0.28595483159457485,-0.38843102404496194
2.8784883389128844,3.791399525042506,3.4265127179491857,2.144051184846952,2.8082040054440145,2.988944311120299
1.9789544452375185,0.4430313967340985,1.6480116030477316,2.060509212315231,3.7545489220891777,2.82437797054656
-20.95753587204171,-21.39770261391402,-20.27649816001763,-19.96913713248567,-18.90523886716685,-19.133093102332868
-6.817108815972818,-7.201039470848663,-6.866312216400256,-7.712261330392154,-6.7694750121334994,-7.136187254075341
0.069345109417599,-0.22419514530241771,-0.06933502339992095,0.3030764403289006,-0.7583567182350895,-0.9462827723732062
1.4991257187427363,1.9317998578692201,2.658136042958549,5.9686913437601685,0.7134093470829985,-0.06408386742821502
2.000650604284369,1.6506494450291993,2.129996383624868,2.737123283010615,2.35222835908088,1.5383119837234975
-1.8375545239630748,0.8080987280412939,1.0484369294236633,0.813819361179255,1.4477795415407007,1.7316704998207892
-16.926066013163986,-16.530735919247128,-18.096834521014426,-20.998794010918875,-17.90579456576456,-18.183536271510956
-6.0016253465883,-5.524382969220025,-6.464238801361271,-7.361657069586786,-6.366853932256897,-6.5284802468281535
-0.1658225522332314,-0.5196277171766023,-1.3597633052182128,-0.6112980955095817,-0.14937813746122156,-0.6700545357907707
1.6912721654997895,1.84808955045087,3.522671396080628,4.695546945113895,2.0681615472267585,1.4599081547317858
0.6847964060957771,1.7146459393328728,2.072838971004204,0.04310184459826419,1.836281184142592,-0.5443897602894128
0.24028250523656602,0.7478858237920454,1.2578092442411468,0.7943024089741397,1.3599932380593436,0.8612443456131401
-11.483711054509543,-11.34433914005812,-9.925691006621557,-12.103119205643347,-10.310645632998986,-10.924202246347814
-4.163070181630348,-3.4906196217324963,-3.4256468427064717,-3.916203143823641,-3.2047645002917515,-3.531907678083394
-1.2374923695578677,-0.5551210027063699,-0.6283478686989173,-1.2874046162784152,0.005891604674051939,-0.2742315345512213
0.09216640510803249,0.3597923812484654,0.09603446902204901,-0.4407480905714672,0.5179776288577532,0.37756215570090335
2.5762047210124095,1.0100862886015713,1.6115505931701541,-0.2143428527662877,1.7250862624950511,0.8706686642335466
3.2601277058302025,4.859148958028783,2.4314477926507423,4.338162050746187,1.9094304497179246,1.6800629709543613
-25.30984202623301,-21.47289122474824,-19.94778981207298,-15.61359454353914,-20.85084167039207,-21.55094314652079
-8.706159119676515,-8.057331915981374,-6.485476522461342,-6.434514060381357,-6.7821822188605125,-6.893795128719268
-0.7348376559401744,-0.1344232588663186,-0.22117445304545216,0.08504914649694234,-0.9092831290322861,-0.1435395439875449
-0.11910546946876273,0.34880593778303653,1.0090104185506499,0.36728572574014795,-0.5208139814541738,1.1890954731467223
-1.0327534116308728,0.10796919948410459,0.0732990568243503,-0.8034605382984938,1.7764423468216244,0.9351406171613654
6.806019574938318,5.206880938377197,5.236940433618638,8.569206332966397,1.6849566021535562,2.705892320305379
-27.587563221255827,-24.01437721759054,-26.321654827453447,-17.978207849917442,-28.92386670167365,-26.990523328781688
-10.89664723372464,-10.625251548525005,-9.069573112137231,-9.880913967716788,-9.524363119102462,-7.939154625602692
0.0,0.0,0.0,0.0,0.0,0.0
0.0,0.0,0.0,0.0,0.0,0.0
0.0,0.0,0.0,0.0,0.0,0.0
0.0,0.0,0.0,0.0,0.0,0.0
0.0,0.0,0.0,0.0,0.0,0.0
0.0,0.0,0.0,0.0,0.0,0.0
-0.5546465534044699,-0.5238299859451627,-0.7400317526636471,-2.261638328160792,-1.2380147636617245,-1.2154694405121682
-0.39003440642018544,-0.9383737201234512,-0.3314143089449089,-1.8433861428141352,-1.2525882494432916,-1.9787389637313322
4.455754181360907,3.006368723906102,0.6035328850171928,-6.061279773729138,3.3459871024484147,-0.38536163363298725
2.348866143752514,5.257212631855936,6.230540867722626,11.400966850047999,5.328434275928805,5.848228406642505
-30.47796812757074,-29.409590079272313,-28.673252388360368,-31.580055327106585,-28.968039040114434,-27.433394134510912
-12.438659070207251,-11.960415405118715,-11.933770829779421,-15.808641008060919,-11.385792515904933,-13.049030508587254
-0.20784631741241172,-0.32789858018486423,-0.2681925572426152,-1.2540101692385481,-0.9812141488952395,-0.7897240692626929
-0.3027904518919014,0.5691825502744532,0.09002637861713217,0.6911708109413737,-0.05878742418685753,0.4668644786116135
6.367534655172391,3.1471549944218875,4.174664062847737,2.267919705166318,2.879781461197278,3.6079736923314183
-3.1998257421479144,-1.676887905222124,-1.2582002674210497,-0.32367389163586124,-2.8028547146061245,2.4546517854945202
-42.04999975722901,-38.71733795758351,-40.32735231694093,-43.933804568862165,-38.831235156503844,-33.648156539989
-15.988299810568696,-14.898202680327794,-15.176148101810373,-21.15933975748613,-15.957111299946183,-18.43778460490659
-0.04906428086650948,-0.4277329302437042,-0.06032411563169247,-0.7073563675279851,-0.6300465009304851,-0.1711131836903116
0.19067591031149136,-0.3216627532754224,0.519002655325411,0.15426538099663945,-0.14038978179343706,0.18321236839331217
4.813379899550062,3.8352854575535495,6.52362953777908,1.7851734498530347,0.18862443411886118,0.803750577379129
-1.6540393974314846,-5.046598804795919,-2.7593458669122826,0.2766558381973821,-0.6846250883596458,-2.015967528389034
-39.27115761116572,-42.95277469740217,-36.98721593302703,-39.950980417014996,-31.37659296340529,-31.630845631862066
-12.771906121251492,-13.74982602424041,-12.414119909848164,-14.038266797608037,-12.79426415791193,-13.491307560265614
0.3087268815535046,-0.30479423650571635,-0.2885214668727415,0.523225613983779,-0.4438696189873682,0.0878090625643845
1.3144853323212364,1.4665865198734802,1.560843514422698,2.9761157570219208,-0.8695405682719172,0.06387375681707526
5.420195196898201,3.4636228478869873,3.012446420123668,2.285069294631214,3.515291630995862,3.272447475634726
-12.57993058260004,-1.8384978496895221,-1.801453272269841,0.5140514733729227,-1.5991006979084617,1.0422434830039098
-46.41745112153095,-41.985359053145075,-39.32806082340419,-45.52159199981035,-36.65335370393339,-38.53862834866559
-16.700556551804134,-15.613457730722327,-16.970612063405163,-19.586041757169863,-16.805509761039193,-16.988284841152474
-0.01714411327013129,-0.4741139851117164,-1.3506612133544635,-1.0266252625400463,-0.4989653507042094,-0.53063109400613
1.7985099697514753,2.205141341626125,2.71310702166705,3.4324188825016484,0.5965583814830097,1.5059066473535492
1.5356352510824802,1.9309804460335904,1.8989395255196184,1.5529441354777076,2.4176989483290567,1.1373806689385015
-4.054877509753763,0.16932870725034121,-0.5679593377066692,-0.7061566109901425,-3.3405290572275383,0.35081328882622226
-25.11779586828948,-25.378221679035658,-23.101536715273454,-26.2309933798791,-23.465588695058262,-25.4194368160384
-9.768526174571187,-9.020049568040553,-8.855231163626213,-9.83146742141374,-8.287475859888774,-9.008731312346404
-0.7727683023950176,-0.9970516074281597,-1.1498801054141912,-1.857264563329648,-0.7080200454138899,-0.17278328096229137
0.7715086673046465,0.605733511591096,0.21627114134480524,0.6912209917059811,0.9262050490830159,1.1436251227657577
1.7580284518319684,1.8913169799989535,0.9464788688048377,2.093765894596207,0.4769909721108736,0.46945612953100985
0.522166320036533,0.2917634396855879,0.8086018698147308,0.050041662787774346,0.12759610488859266,-0.3976351231379246
-14.973947691533247,-10.86385325011825,-8.670538132132148,-8.946698037192045,-10.239674988776969,-9.369066343955984
-4.9258851406577895,-3.58920373989671,-2.5632539897736564,-2.589529134622861,-2.806244347231234,-2.376887619655939
-0.6016677748874446,-0.48644753774313987,-0.40520886688916935,-0.5741322729256434,-0.5143823752057275,-0.09456866917234316
0.3940066744199759,-1.6243674253794762,0.6085484142804924,1.674114054901184,0.8557081957419425,1.545973771064096
2.2934394738358495,0.9432965388180371,0.5099473274972083,0.17813400163011356,1.7485184330929615,1.5558465436515945
4.703422705985701,3.07979889883725,3.966634128715281,2.571706295964491,1.3584392214813685,0.9594731283479679
-23.55936677240334,-20.21046947645881,-18.073542511444018,-18.831342710049032,-20.976401079562944,-17.603824415908647
-8.846606736566308,-6.97940881877385,-5.8928100004273505,-5.912626179167407,-6.039708264483652,-4.699047808439023
0.0,0.0,0.0,0.0,0.0,0.0
0.0,0.0,0.0,0.0,0.0,0.0
0.0,0.0,0.0,0.0,0.0,0.0
0.0,0.0,0.0,0.0,0.0,0.0
0.0,0.0,0.0,0.0,0.0,0.0
0.0,0.0,0.0,0.0,0.0,0.0
-0.7915223504660954,-0.05585165086163196,-0.731571303688557,-1.1124310167514444,-0.7508370241465678,-0.8789825329927495
-1.1554157913499765,-0.03174861739228841,-1.4442016996039586,-0.6454640367474265,-1.0102337197295759,-2.8445871997569223
0.7207532898858963,1.8142875429818468,1.8998871186634714,-0.6946397982584857,1.6007654261178903,-0.3060280952389517
0.11538498965183945,0.6906986434927169,1.3593851731283173,-1.3750793645384238,0.8623836378560535,0.2771245842439122
-15.240455654811663,-15.734189800246178,-14.869648912921694,-21.684244777479307,-15.330339025353986,-16.91654948698256
-5.429663270601295,-4.984030440244269,-5.202768038059204,-6.276209061622402,-4.580459253885293,-5.786411862085605
-0.44171048727692247,0.24837496663550296,-0.5152047991111378,-1.2309310010716494,-0.9448945077795551,-0.35391550417223044
0.1635233383911621,1.196462652212809,-1.289442076636719,-2.8520798252311477,-1.0727386459918837,-0.8259027696436039
3.782646332160994,2.1200734070550067,2.738503658899969,1.3052053094984124,3.6540474637507527,0.6883839358143149
1.0489787399959942,1.15162613300511,2.4827507283899197,3.539449343505222,2.543559385655279,3.526410604760862
-17.465726446733928,-16.78776412240091,-15.370221658414835,-22.70790983603536,-18.00666573814266,-19.22118072071735
-6.103392041403731,-5.202361066056279,-6.098274501652153,-8.24394395208197,-5.983990356152467,-7.1006673453598586
-0.04565767216745795,0.13000748990448266,-0.5881576629645412,-0.4171552697088369,-0.8406001442907941,-0.4163669248690334
0.9612565828968193,0.4234655430658694,0.642240437163916,1.162143077971705,0.35981570522470824,0.07854152998557774
2.3626465671318337,3.3471600638198096,2.549375146808208,1.9327816630119774,2.1803897376319004,2.8518337724788205
0.7523483114598174,0.9014994377401007,2.6102955771692056,3.2423978329723355,3.678470601352177,4.1357461864330824
-21.398326556861296,-23.30584739920152,-20.43532470596895,-21.0623283930148,-18.9034236635392,-21.536015258743333
-6.825724254825865,-7.464569071705497,-6.907248397800849,-7.965913542141997,-7.013230985759894,-7.718805986755845
0.19694037572447773,-0.0775791071018475,-0.07794522557571389,0.18118642325510517,-0.09765659559644779,0.4030598257682701
0.9843712291697585,0.8309822582323104,1.565427891657919,0.8673126767753636,0.2693747741561436,0.3997307947143462
4.939438725300674,3.9635551672650955,3.8540504744651267,4.6127955906290925,4.427043833703753,2.181846666751797
-7.765993015998959,-2.95059952629058,-3.992535576007552,-2.2294064697989833,-3.2607648423151874,-4.089811442904302
-50.579356779552796,-48.486969455353986,-47.30237894745726,-53.83385895353237,-47.17371208972056,-48.239356247564174
-19.90862038992723,-18.94162198739159,-20.037300392056874,-23.214823663659192,-19.746156854702857,-20.144055711415554
0.09351202315201668,-0.1059674981494551,-0.1412267899526861,0.2811645796178492,-0.3003683809399269,0.5389480801727478
0.9334196642123157,0.9550010459037553,0.6016292577309599,1.3825472789941629,0.2977570089599258,1.2861169155210903
2.097329436468127,0.8693180815348903,2.0087011688886673,1.919802512453872,3.7009997873662384,3.845766195530148
-3.849806088087014,0.721580252182193,-2.9411049849089896,0.4733982331224553,-6.840709204303298,-2.007457521810515
-41.82838939716933,-46.55611761096713,-44.411814757899094,-48.38591163363329,-47.34601455175404,-51.22743670615992
-20.83645974480654,-20.579266381586827,-19.87521376265246,-22.252982798452923,-18.92120377963351,-20.776841210978848
-0.09564226897899339,-0.17712086320573472,-0.21481522902720587,-0.6305601319654595,-0.9325378983440832,-0.03198277071778292
0.09380891026733916,0.6395218967040336,0.5018090739615967,1.6907882913460088,1.2452922108320224,0.6612988759465158
2.150759166372501,1.9632853748080883,2.282596416962624,1.5842966147165651,1.2912922469571768,1.7097332941628676
1.971306536064952,2.85232407877585,1.9237316431899707,1.3294546175602586,0.2287000907262328,-0.21968206413042518
-26.75579370035884,-23.77693932809817,-21.490304294976035,-19.781202550634323,-22.69380127509965,-22.43665997422755
-9.00910391441126,-8.717151139803809,-6.632924197043369,-6.736266147173456,-7.330848945934573,-6.550159347609655
-0.5571272309346049,-0.13582804962417996,-0.23388733599140987,-0.9249233906564843,-0.9845080158465728,-0.275600106362783
-0.646688778376463,-0.9211320406197275,0.41535904809552543,2.1337145605937278,1.0947934855651182,0.2221522481195999
0.32758547700096313,0.23398442780586798,2.0783038927036643,0.09405637008001458,1.8667150954939955,1.5947067609581251
2.231524672468646,1.421483473842271,1.6388056291661584,-0.9964026258985217,0.4844137830361507,-0.33768168021513184
-23.5685564398743,-20.952166471178057,-18.428216039669113,-23.457122753993378,-20.748802765125557,-18.979616040285638
-9.566163957581354,-7.292269300650025,-6.4216788615242155,-6.532161942022108,-6.276965302242533,-5.319509322467469
0.0,0.0,0.0,0.0,0.0,0.0
0.0,0.0,0.0,0.0,0.0,0.0
0.0,0.0,0.0,0.0,0.0,0.0
0.0,0.0,0.0,0.0,0.0,0.0
0.0,0.0,0.0,0.0,0.0,0.0
0.0,0.0,0.0,0.0,0.0,0.0
-0.6706564483646084,-1.711300611519669,-0.9863022925314212,-1.066817194900853,-0.6548428017384894,-0.36131903595307924
-1.8862173105746611,-0.15239051542367477,-1.1986954573561908,-5.114159348337807,-0.32991516170090524,-0.17242153980065797
2.764913798519106,4.227949603298518,4.330939093695847,1.9311138753579233,3.230554120570208,3.355760307277759
1.914196632954813,4.858387081257952,5.908869248478214,6.081633174054104,3.2027557894330134,4.436961567961631
-27.26482048138672,-26.101975660099647,-27.350074876545158,-34.18538774224086,-28.898092024020322,-32.126355454815865
-12.250201893023965,-11.780924050660005,-11.86635132700844,-15.693780506263801,-11.28595335864277,-13.20641939301757
-0.894920341638713,-0.9708430506105562,-0.9098804017290558,-1.8222588161762123,-1.2160503670899685,-0.43352304135574365
-0.5580207069114667,0.633214734007435,-1.680682171833813,-2.9458539051444896,-0.8266551898266061,-0.5710225094523013
3.382472086310328,4.813808395255718,3.581915326382968,1.5755784244452242,2.489912698391022,1.9027643353834967
1.8929904014951897,3.487779275569335,4.45977686451619,4.817305729640007,2.6121533228370764,3.9506240838870386
-16.969168085119204,-16.663506103592784,-15.009756881915862,-20.301316844170486,-16.35262111697895,-17.82213590996335
-5.271459263402083,-4.8670048897688805,-5.408860368827061,-7.385079197295851,-5.389622940151343,-6.365473170765304
-0.8052205312973106,-0.053248641705795734,-0.8566111032098995,-1.0369868379839857,-0.40178311939598316,-0.4995053564454741
0.2176802850441866,-0.4204436434597831,-1.0114139399749176,1.6094496444666238,0.23836823182482644,-0.915672778475347
1.300756202724597,1.8301385579483629,3.166446408168714,2.1243938403273113,1.9227860846326725,2.6139914978130547
0.3967802197831927,0.297407865308942,1.7702868716084994,0.2862630642868587,1.7268246840306127,1.0391804749655715
-9.117064785911143,-9.442496256014058,-8.99480193781098,-9.232739209418137,-8.73427928362382,-10.159393495562322
-2.4816045594607763,-2.7850969949828195,-2.860226653441908,-3.2227738610009893,-2.67971024261988,-2.898058675578335
0.06225757959501285,-0.43637967985011084,0.016251722996094307,0.37916054103067603,-0.124567282243314,0.23801419359980985
0.9873524442397759,1.7242558871085008,2.0649526534550806,4.136808395987402,2.1502550485835767,-0.45654282600544943
2.477459903149796,3.475506999022439,2.0509185553980274,2.0863273594377594,1.4521656752540695,1.3191521544146294
-3.347978846854107,-0.8936728657553201,-1.7453827642506117,-0.9521486635098751,-2.893015095811146,-2.476087811691854
-21.87364356227536,-21.794878074320465,-24.14309177173419,-27.24241178700027,-24.838472555091116,-24.98510967641541
-8.656021034709712,-8.099783056296488,-8.917099298263704,-10.342529769180898,-8.757338284288661,-9.041574784261888
-0.3370750049592129,-0.7183016354967914,0.27856636827650244,0.4018820994743503,-0.19193328291521616,0.3360736519054591
0.8646906297354829,1.108060156530952,2.322685078466916,4.506197841552269,1.597328243878338,1.1989769219201998
2.9136643251966254,2.4924092734768633,2.4448479684605458,1.6045540767090218,3.095607725491875,5.489598056500273
-0.9146692958714752,0.601475607701836,-0.12168517001341901,1.7349404862167896,-1.3089585389226925,0.3932562784358166
-36.595699075999505,-38.645809570217565,-37.56257281769056,-41.0784627529091,-39.16702826971954,-43.91676247370119
-18.689842018655145,-17.689164229471128,-17.049179779124202,-19.650763273405584,-16.48391773703005,-18.10967448386755
-0.13457201927130252,-0.004240356509473995,-0.058773091426498766,-0.2425605308595171,-0.1672459986634961,-0.1786361917364228
-0.07898968891975369,0.30031911052622484,0.356183499258326,0.8393020057283707,0.25221632049478393,0.1518602592521421
2.7202427308705395,1.4400397854918594,2.8580487220792867,4.028725257936159,3.5777760700047985,2.814638551459205
-3.977488128746299,-0.7249445123943447,-1.0256238880322808,-0.2677978739596691,-2.5687884246086017,-3.2029965279847907
-40.312485919819764,-39.237717761686255,-41.06175213956019,-34.5811883706812,-39.054574934809224,-41.56350475062346
-14.394220267025068,-14.930582981707646,-11.977666877331059,-12.016644765835524,-12.847754088557036,-12.794444074441977
-0.3376539188652302,-0.06664946375170108,-0.39895358476126774,-0.4220051474687147,-0.49335920435509656,-0.24403251994296396
-0.23041300032604317,0.37944111032321287,1.176550053657446,0.30703193348221475,-0.32552565329741,1.1936067848097272
3.3482920482209937,4.892849284943587,2.1423744592742184,1.6152765131099793,3.755270712320835,1.4806383168964727
-0.22211845996767007,0.9440936684453777,-0.9538966257519967,6.7927820156128895,-1.5610284299636723,-2.6408452643259444
-42.722173457010726,-42.679628101162,-48.1115298906019,-38.763914923571924,-52.04276371205431,-50.121453791502915
-19.727323112401663,-19.114687989714906,-16.629312745318266,-18.234100645826818,-17.13312846675774,-14.96723043047146
0.0,0.0,0.0,0.0,0.0,0.0
0.0,0.0,0.0,0.0,0.0,0.0
0.0,0.0,0.0,0.0,0.0,0.0
0.0,0.0,0.0,0.0,0.0,0.0
0.0,0.0,0.0,0.0,0.0,0.0
0.0,0.0,0.0,0.0,0.0,0.0
0.0,0.0,0.0,0.0,0.0,0.0
0.0,0.0,0.0,0.0,0.0,0.0
0.0,0.0,0.0,0.0,0.0,0.0
0.0,0.0,0.0,0.0,0.0,0.0
0.0,0.0,0.0,0.0,0.0,0.0
0.0,0.0,0.0,0.0,0.0,0.0
-0.379675862624054,-0.6470996518829677,-0.4629836324293262,-0.5283802996809212,-0.6356587685364734,-0.3762374468876197
-0.2570593651712595,-0.1419817930505358,-0.49446194467403903,-0.8928665384990744,-0.13680223195715063,0.08433371995463107
1.6821197103346581,2.3784551567280663,1.9392698324457813,1.4166497657875992,1.933908971132278,2.660613009765186
1.5008254407796429,3.139238002077581,3.17250513739608,5.79292074588495,3.1670439123250707,5.022490703050653
-9.422069588630986,-9.409108613374489,-8.182001285010513,-9.704117979454407,-8.720081957039472,-8.956281267829704
-3.2057054761545696,-3.0066299380466104,-3.125866999542267,-4.259703611507516,-3.195021104554876,-3.727894720869766
0.0,0.0,0.0,0.0,0.0,0.0
0.0,0.0,0.0,0.0,0.0,0.0
0.0,0.0,0.0,0.0,0.0,0.0
0.0,0.0,0.0,0.0,0.0,0.0
0.0,0.0,0.0,0.0,0.0,0.0
0.0,0.0,0.0,0.0,0.0,0.0
0.0,0.0,0.0,0.0,0.0,0.0
0.0,0.0,0.0,0.0,0.0,0.0
0.0,0.0,0.0,0.0,0.0,0.0
0.0,0.0,0.0,0.0,0.0,0.0
0.0,0.0,0.0,0.0,0.0,0.0
0.0,0.0,0.0,0.0,0.0,0.0
-0.22698508888197455,-0.4276778009469705,0.2904363091306902,-0.02558657672169437,-0.14329837319855218,-0.13385736973329299
0.12298644293767212,0.5859317796856761,1.5720823903205172,2.17366909434533,0.9639544965832952,0.7123883220865161
0.055409796247594185,-0.4977434757750293,0.2643112414520603,-0.618017116285273,1.2122619768148821,1.0513521152543706
1.6180168434385453,1.3034010535129081,1.3413304130194355,1.465673559342062,1.3729455179056522,1.2763016967735847
-7.832984616758362,-8.311471004748418,-7.384693710655383,-8.95311382763553,-7.946346873224166,-8.457876361723532
-3.723745599894293,-3.310388548822361,-3.184121372220068,-3.829022349093812,-3.0828130416161463,-3.4009719163852217
0.0,0.0,0.0,0.0,0.0,0.0
0.0,0.0,0.0,0.0,0.0,0.0
0.0,0.0,0.0,0.0,0.0,0.0
0.0,0.0,0.0,0.0,0.0,0.0
0.0,0.0,0.0,0.0,0.0,0.0
0.0,0.0,0.0,0.0,0.0,0.0
-0.18085966330038908,-0.05832847243904661,-0.21857465683964727,-0.08566994117435972,-0.23451190067525918,-0.021048593642885267
-0.27075118402369874,0.11775421397755716,0.8440102542871654,0.9733807429933428,-0.12838772105750212,0.8114487633565051
-1.850933425301665,0.6566380720591473,-0.28360474296619265,1.000897871020716,0.8205194946830712,-0.8289769006211565
-3.8730447255864786,-3.82249040168227,-2.6336055184971423,-0.42598128836801524,-1.832719202423121,-2.7265996617570645
-16.67109531205001,-15.236000008214356,-20.597622152288334,-7.149780774913366,-21.66873104293749,-20.55916870007613
-7.859218291809169,-7.907838695329102,-6.8020273376309035,-7.567573518211995,-7.135888662290299,-6.234545641607072
0.0,0.0,0.0,0.0,0.0,0.0
0.0,0.0,0.0,0.0,0.0,0.0
0.0,0.0,0.0,0.0,0.0,0.0
0.0,0.0,0.0,0.0,0.0,0.0
0.0,0.0,0.0,0.0,0.0,0.0
0.0,0.0,0.0,0.0,0.0,0.0
-5.704021519301257,-3.825498889213684,-8.595616629647814,-7.67202012836388,-4.617224023859335,-4.420811691926553
0.5110144925710806,0.7310976577496178,2.06010674983527,-1.115341331011213,2.24323716593067,0.8296790571468883
-3.517065525758897,4.150084876081824,-5.961835419502268,-7.451387977654296,-2.135254511675669,-0.091429254734398
-5.191166945163818,-6.886289404639015,-13.405634352740398,3.692240876092999,-5.309643497743075,-9.017425593147975
-16.64814370260596,-14.436494362653855,-21.764108903307438,-10.309244129462268,-20.045001695166647,-16.4221053453529
-9.135025454408678,-8.25715884685187,-7.350944669494459,-8.025008977333455,-8.07924920419576,-8.482322243201983
-3.5113238471312234,-1.5005591802695293,-1.891418936064263,-3.3096824486001055,-3.1034226361187325,-2.623327927622424
-0.2318419376014988,0.17329817078446894,2.2364720213613367,0.8363438363043185,-0.17422416100528373,-0.24037845112543701
-1.6725149016869658,2.9575630168682623,4.390774564032906,0.854018448484182,-3.626721009095509,3.5381359374611914
-8.479219926113545,-3.8142722298528438,-9.124434596379366,-1.6398768258943968,-4.493513592900187,-2.407198297818316
-20.03361060215253,-22.55086782564567,-16.883679869732415,-14.941297928877427,-15.181232326914525,-7.727323691547009
-4.365572878785647,-4.1851592967884725,-4.336631719966991,-4.205950328603495,-4.465806953268749,-4.375247376181508
-7.760594364483588,-1.8000518146206121,-2.690830544443378,-1.3882744663227387,-3.310701570128109,-1.7442427964061646
-2.1986792072860064,-0.5008797608469779,-2.7465146740007107,0.6352912821245426,0.29412381866462023,-0.37686895136573545
2.9851332671580137,2.3569368788574083,2.4527930535595726,0.20633600137308694,-0.44076116105819785,-0.2501552187936582
0.6273619233531448,2.3533110996262567,-2.3060455482481896,-3.0477763312295,0.9795222043752871,4.149214811710394
-13.108108377581438,-14.559102880104868,-13.113939368123297,-15.82510953488142,-11.225526112886753,-12.3512809531442
-2.4976796918101907,-2.648807122221244,-2.7844251636515924,-2.474341816298967,-2.40930086983934,-2.4467899173697645
-8.407283686985451,-5.933896340275643,-2.8770585964879545,-7.16533781702298,-13.584316495190924,-6.30740194091942
0.3278754048962484,-0.2639995639780421,-2.505267574337195,-2.0883086279016414,-0.7944843491057691,-0.2646230849664313
2.3418998111182923,1.1118422039405906,1.7641471704333156,0.8982339015655116,2.408594031180618,-1.4992595967926767
0.9773584801912388,2.6417991003359824,2.900059830734835,2.098424696980353,3.5219279734368953,6.778506243609925
-6.8721675291808895,-6.294344452327929,-9.470070755600961,-8.750063421635947,-7.823692997649949,-8.425504967488676
-1.450955258803932,-1.6626113814523427,-1.9641567762240817,-1.9391203736417515,-2.320673820581887,-2.203118393799699
-6.248273008477295,-5.585303978251429,-1.7008668073444082,-4.013626725123024,-2.7657848776417984,-5.731264742082563
-4.777599530050866,-1.6238299870277713,-1.2821298507630348,-0.0829914068187293,-2.575654604659646,0.5332551911927319
1.3043007911721902,1.3539348660716957,1.048590459627146,2.0531447589930054,2.6863776266441795,1.127524630071509
-0.49348577295585894,0.08549622159864333,1.2605884010423256,1.7897911440865115,3.604445771937305,2.6078914337283483
-13.59500873270703,-6.430780350114024,-5.147963232808064,-4.730289988804669,-4.797272715613595,-3.979943622896856
-3.1363314412028576,-1.3361062777756694,-1.178316788266737,-1.0744378917763013,-0.9843591391202885,-0.8790663243826629
-0.8599632410360342,-8.097136913957181,-5.673517524971247,-1.0076637338641232,-0.46230609299633335,-0.9648294891400206
-0.33609140843190255,-1.331942469014083,1.3891239532403397,-0.3107251810009458,1.0878793851159643,2.739080616950217
-0.5173066335542247,-1.2831675458160894,1.7531896203264485,0.2117325421365026,0.9731629921090791,-1.078653614010112
0.7356135005316821,2.696628717756757,0.8346993970965498,1.9725337675687038,1.9293590414022954,0.12301718392464332
-16.609328861070885,-11.328891121397533,-13.160435890825244,-13.426677172622593,-17.227083626138008,-14.698698055140216
-4.142772407599941,-2.5339737340332826,-2.352387561211889,-2.3951966769901825,-2.59288613889943,-2.350563425352742
-5.386493909257981,-2.247962884147217,-3.7770558998290906,-3.135172649564389,-1.6044052652220995,-1.6819742658433527
-0.33524365717710497,-0.027880284090776152,-2.1098283294333298,-1.2714559360000335,0.5132694964715767,1.4533231762611316
-2.1583305966072834,-0.14131183024434493,-2.880378160128148,-1.7601715434053868,-0.11611157106559375,0.2866281579258938
4.997774653809992,1.0388967473222954,-1.6665203345319421,0.5497663693582652,1.2476047434245716,-0.27980558701152
-11.448366159753297,-12.107610513026948,-13.953962780121564,-11.93485650294926,-13.79486747626456,-15.293640830615677
-4.046287531608653,-3.129716822147607,-2.5754563379394844,-3.209686426444953,-3.0307092928212076,-2.800777884187439
0.0,0.0,0.0,0.0,0.0,0.0
0.0,0.0,0.0,0.0,0.0,0.0
0.0,0.0,0.0,0.0,0.0,0.0
0.0,0.0,0.0,0.0,0.0,0.0
0.0,0.0,0.0,0.0,0.0,0.0
0.0,0.0,0.0,0.0,0.0,0.0
-2.945726186712766,-2.13692501482681,-5.156393626218638,-3.6506492985810457,-2.5402237473037377,-3.8914323706114957
3.408260167553542,2.913211621528751,2.6322784282073792,-0.7985577063417106,0.10122315809823931,0.238213579609489
-2.7827585779268564,-0.14211359993452521,3.8647379789948157,-6.765461702935082,-3.759845210990606,0.6643781238125361
1.9655590110808152,4.003636900345921,-4.350272095844711,6.849056856467913,2.6732066825355916,1.6549524182393374
-18.92890598680033,-13.29495400664721,-13.408026993839975,-15.962290950049633,-13.157887139491342,-11.688217190971907
-4.902278826222727,-4.466503226614019,-4.118301042100288,-4.133023893989127,-4.443518416819418,-4.589389039831313
-3.7322744963505197,-3.0393113060903074,-1.7339692871651264,-1.9554365711669743,-3.7165838822163413,-5.877713328390144
2.189687451341105,2.3480905501626523,1.8264768700652874,2.0037520188233784,2.164887691308352,-1.2731215834486669
1.5512755534299014,2.642740004508399,3.440430392482123,-1.5946982450261868,0.23381305144051914,1.551875813247021
-3.016130940098917,-4.814537886672851,-2.6138383552713544,3.053489324317642,-0.5552158984045452,-2.247455741785279
-28.54659818250745,-32.62839364806042,-23.905217767371838,-25.882880050561248,-18.87368906999754,-16.418933819566092
-5.847887795464973,-5.745349477770581,-5.974349860888069,-5.635638931729238,-6.041287900433973,-5.878714203478441
-2.916867507371939,-3.81113432631574,-2.4146774829352795,-0.482961618922898,-2.232043725878385,-8.067843094955112
0.754949801207622,2.131830992592911,3.5366564874811037,3.2757577769362056,1.1264373578030513,1.047361036145012
2.4676378382089648,1.2723172696909293,3.260233631909478,-2.148242026020838,-1.0553440318233962,0.8398534561013985
-6.411943172371167,-7.961633603868157,-4.382810946335389,-7.748836875326732,-2.7443307521033455,-3.3381539542486727
-31.159301542422817,-33.5137278590431,-27.61153870370153,-36.974342810547945,-18.027247829194188,-26.009435444522857
-5.062911667197687,-4.997991300286214,-4.903773437911031,-4.984237624580839,-4.935161276141501,-5.214146063217833
-5.969547710644307,-1.1281164548010185,0.33803400653990545,-1.902250044322927,-6.6271347292699945,-7.227258623284908
2.2639305622192496,2.2554722680604327,-1.3023942524870145,1.5033435082442939,0.42719700904892316,-6.832594526669784
2.654441734630793,1.9359623651352222,0.6042399561656832,3.0584088807940932,0.09722891237365854,5.267104597288804
-0.31257222337349705,-8.046134008952238,-4.046125854123925,-7.461709215607731,-0.45408331893060766,-1.3384888142265683
-35.33985850624575,-30.240096201577344,-32.12648698670979,-31.62999740973123,-15.647083373106117,-28.855119863636496
-7.045126364177089,-6.391687059529088,-7.035314944705139,-6.772062956297176,-7.361784218869439,-6.998929413989633
-10.391479632918317,-5.197013406941298,-9.474777775621906,-4.1147276671180215,-7.790727803431925,-3.906095497091636
-5.140693520741818,-2.5501635239184766,2.236869974210649,3.3254672701582435,1.2283467436633106,-0.8571149028061956
1.6266525688037585,0.672527086838927,2.6347074934158234,0.9361710286754644,2.4310029365199073,2.529311030966461
3.702610694487077,3.1944754520636653,2.3263921815340036,2.48029861872706,1.3938124885540428,-12.1019600084153
-20.689065345327485,-16.42395765871314,-14.08712527422688,-14.455393245307686,-15.5601688806596,-14.992364129805754
-6.238040884813461,-3.651015216082735,-3.5065683651194943,-3.3254329875230035,-3.133504782602071,-2.8585241308470635
-5.710093800125272,-1.100412059056095,-3.320493133395158,-4.724315770113416,-1.9355460561762368,-3.2235915077211375
0.3466078782391224,1.0050525337819378,1.3659680780489691,3.37672198472382,1.1986616909651158,1.7701022847883376
1.5615323834595107,2.193847851728627,3.7290799983289933,2.5686977634615347,1.9645116440034132,1.3869852165180168
1.19880528409344,0.42200057363096616,2.577975684481894,4.620867443924294,1.8275971287765478,2.2160532944517177
-10.407384720255394,-4.487838850367242,-3.9064263532175847,-4.235699254445064,-6.216930302163077,-4.728883939088422
-2.1007685742286784,-0.8961497723529055,-0.7921453296113732,-0.876393947684042,-1.1011854034763677,-0.7380332394870793
-2.895812782366363,-2.082256738366378,-2.9416905422322817,-2.118258270636048,-4.140408312618539,-3.577684661315241
-0.6719502913548315,-0.6509679609845846,-1.0797641592024652,0.45433531338296357,1.87598663974367,0.9620181242061999
2.2942382651067135,2.103768530239618,0.9985379672081643,1.432611009720416,2.1280889637089064,1.945997350383776
2.263527744730449,0.7644014862468617,1.4909803558662595,3.3506215826192394,1.6322537311113037,1.5859867738644218
-10.177949193890765,-8.146494306654361,-5.424166144604242,-7.51924412689928,-8.449640375881591,-7.651577490327916
-2.735361522558947,-1.6372638950868064,-1.4201611456203906,-1.845596864470268,-1.865013200004181,-1.476829177843405
0.0,0.0,0.0,0.0,0.0,0.0
0.0,0.0,0.0,0.0,0.0,0.0
0.0,0.0,0.0,0.0,0.0,0.0
0.0,0.0,0.0,0.0,0.0,0.0
0.0,0.0,0.0,0.0,0.0,0.0
0.0,0.0,0.0,0.0,0.0,0.0
-3.5377705806339015,-2.6662021729404835,-2.7004558385525823,-1.6781674416482253,-2.372219083985936,-1.7345178783861015
-2.1120062505577746,-5.575140421454183,-2.009457675971112,-1.6568473784505608,0.09986436127302363,-5.01590431786372
3.118417052703213,0.3965770382163009,2.564336564573453,0.1893928761800059,0.9987747948237097,1.9035545337618074
3.5381466083615525,2.96720533932858,2.7440306724580616,2.4002869999203296,6.227325672855226,1.0360349482006734
-7.5360217413959845,-6.902307268430873,-6.084676135672432,-6.723615805308218,-7.140633028622734,-7.181966616077649
-1.8294169051398268,-1.77625544303017,-1.6534066151400302,-1.4761749695568709,-1.6711595663728718,-1.7367975468097032
-3.1712178299649847,-2.7282593636859245,-4.955423591306089,-4.409543144262968,-2.226540844391519,-3.9143739925456775
0.9297528794109281,-0.10082298826722907,1.5326924142886214,0.11266025393739292,-0.6016987515377946,-1.8507310348642603
1.4190240380818733,1.4330880988414274,1.1918017713801161,1.7154428681463272,3.2490914378457947,0.4075907155106435
3.531834963776318,6.160066457484656,2.988776744712652,6.540945595657117,6.654412853229,4.106584791239679
-7.96318273501061,-8.977083247062085,-8.287205414294922,-7.056231634014936,-8.506347115078874,-8.121071399475984
-1.7822878164623832,-1.872354094033028,-2.4436900245378563,-1.9371074144587066,-1.8552609969589504,-1.944927697290508
-1.8011488631148986,-2.530667478178163,-1.1763148543494912,-0.5714811044737819,-1.2076058075916094,-2.4020120919868577
2.3830919178635375,2.1339051803909896,1.7977243323115628,1.8976575803612963,0.8910623799272174,-0.8953594986551486
2.287150782825489,2.32082471749518,1.3725339696022365,0.18959957893523724,3.7920965654802723,1.3368676890104774
2.46685486434435,1.3789031914428471,3.123502072092434,4.70347046903428,5.264382676305554,5.4062162502372395
-12.530832844725978,-14.783625253494256,-12.935090206228033,-13.899503083905183,-10.40612719234782,-14.066604909433217
-2.486620602352749,-2.6103284878787427,-2.711336384692742,-2.483020989598447,-2.3766759766227428,-2.605333146351786
-3.8822429788009747,-3.3297763146044126,-2.2544674181088875,-1.6059376650950168,-2.897691982270137,-6.283151216353517
-0.05872204007760266,0.7821388825811417,1.5001710383524278,2.677976876256534,1.5736036281804633,0.7246126983997505
0.7344890664009408,1.3611699467030502,2.7195957078114414,3.077879193061549,3.0402567510907756,3.5693341554739995
-4.050638984706433,-9.45706381812352,-4.063762651838161,-6.140135878790679,-0.6886253659630795,-6.246703732942195
-29.208351372328817,-36.805086634629134,-36.22457697544111,-37.922974926802006,-30.12464917189975,-38.81490756893149
-8.083679881753875,-8.004107131272091,-8.75640091659838,-8.396171491575414,-8.971457780930587,-8.190847358808751
-2.9881064486982476,-3.546365883724737,-3.271500985329432,-0.7627115039669651,-2.4559464320372046,-2.6057351357861833
2.522337349700623,2.0405661885034836,2.0563543846160037,0.9675258847489038,-0.08664829921419835,1.0191822050763033
2.17052248952699,1.3965757402452075,1.707237398565518,2.009648457882744,1.1196108527817112,6.8555656948704815
-4.825608782332775,-2.7721028922753366,-7.818499235360278,-3.9711694072904278,-4.170101269405206,-13.966975333651783
-23.892711388021738,-32.309465623161906,-33.095708948423315,-40.07503656135208,-38.22264639947747,-48.1905892066996
-11.83328142823562,-8.772058098095224,-8.190500135106289,-8.620200413357558,-8.558781546064036,-7.789698112899322
-1.424940815148677,-1.6731244926697941,-0.4880614737800323,-3.5662935630441535,-0.15606277335650726,-2.2167335743621135
0.8342826363884694,-1.4653278938283887,2.097936868468706,2.1179996094989657,-2.141989630122287,2.002745097982405
0.5619619086671795,0.6031009746607421,0.4691192653578931,0.015049741747058476,-0.04445642084295938,1.700885492846097
1.79846219613947,2.814184411853304,1.5270422846046718,2.065373859512873,2.4612917147480875,2.963896200774923
-20.03698027161945,-11.42166910810081,-16.14644484766821,-13.311474011486235,-14.389563757376582,-12.785503533602487
-4.0677672989910825,-2.467178871720464,-2.0515435373904785,-2.4325325701918716,-2.6353722039883714,-2.1745297055636867
-5.220473969025155,-4.4554856299350645,-2.1117943122350584,-2.993210956948126,-1.7128708553899064,-3.8636510417902614
-2.1758524294886055,0.10340552239743825,2.3028562903818117,-1.0372399556647467,1.5746365155939293,0.750523788712636
1.4424015933665921,-0.3168696595883158,3.323896990277691,2.58845515612111,2.076390409177705,0.6951420779769235
2.029472565243387,3.0601795239083254,1.8348275415525594,2.3647505523900967,0.3613331438928048,2.3891248512750853
-13.865216369930458,-9.85629545702168,-8.227845685576126,-8.918707834792603,-9.041921921003434,-8.464456685322878
-3.0917697243861273,-1.96295503730052,-1.7151851931438624,-2.0133125845251114,-2.045282204740012,-1.6597888842917543
0.0,0.0,0.0,0.0,0.0,0.0
0.0,0.0,0.0,0.0,0.0,0.0
0.0,0.0,0.0,0.0,0.0,0.0
0.0,0.0,0.0,0.0,0.0,0.0
0.0,0.0,0.0,0.0,0.0,0.0
0.0,0.0,0.0,0.0,0.0,0.0
-4.615482526736393,-4.05221423110972,-3.2330078227123904,-3.0878250933808475,-2.977846234603911,-2.5745540225761365
0.3904727929793396,-1.13367827097178,-2.0976316179961434,-2.5533652360323287,0.3387788055347801,0.7944030932091803
1.520609582862285,2.8592310861945434,1.3096750763029372,-1.1408994566186548,-0.9321554353533841,0.4462957968531034
2.2688145597389795,-1.0410405507542972,-5.998209149550237,2.0028637567215997,-1.5575839446455475,-0.05145796137870669
-10.158507238891735,-12.675704064499197,-14.868316522602582,-14.709721601154238,-15.329077298746014,-17.987233314592675
-4.850136694513104,-4.571251579419653,-3.9904949886510406,-4.154312793114946,-4.3384100468307265,-4.534807756502257
-4.579158619060822,-3.5495163580543547,-7.357929049839621,-6.920190521072483,-4.479179622014463,-2.7918800670713586
-2.3833417191704718,-1.940235142100404,-0.12325008732249666,0.23987913442351463,-3.6980809064476494,-0.4836129985973036
1.2864328566119243,1.1737740061651556,2.0944159981270762,1.2429526157881339,1.5369642929635083,1.812426346047236
3.257953924414524,3.97378760798093,3.2437943598403023,4.566442519983595,2.064479258093508,2.791713895802124
-7.531942517724033,-7.210599453713507,-8.519323926984667,-6.4825436779158805,-8.06181972821036,-6.858855147926066
-1.5208515698452114,-1.527065056178427,-2.149329375864263,-1.671193221916754,-1.6033444831780639,-1.6902757511826632
-2.4362259187907322,-3.178399921976482,-6.0763158834054485,-2.8290588294289405,-4.615915783616716,-8.15349706197139
0.11432125877669114,0.5511218388192962,-0.0754553867995575,0.14097836884315976,-1.1466547217127867,-3.829127624905428
1.6402667569671747,1.5302741580642758,2.720358214493328,3.3443858901136476,2.453316730055268,1.6547219184297
1.9217394738492823,2.0454756590956187,2.4358018942404303,4.734499197656543,3.396209244260197,1.6163445831743148
-3.874876673754002,-4.444828442078007,-4.4317233682086385,-3.803158696296118,-3.604260666775338,-3.9507545247958142
-0.7581627308499076,-1.1215808407749295,-1.2619344359747158,-0.8128748799169105,-0.7557370680871677,-0.8030685060213366
-7.106129115088755,-6.316953476033983,-9.110097355591753,-5.351889044775016,-6.9703397524684885,-6.543533476087721
3.1688783256340773,2.50410301942888,2.318064234623624,1.0576215452079496,2.140622947620112,1.3381262444777935
-1.338199414554676,0.4334898564377194,0.4501753329781016,-10.910884691049544,1.2695456845754178,1.2831879473491805
1.1484306651596219,0.4804468155371734,1.461713542329079,-1.1762017147763313,1.17746582937604,-2.0870596698735415
-5.037424327127566,-11.414609538411565,-12.242551292860675,-12.070469569093659,-15.767172265989396,-14.027521475688266
-2.2698359193266,-2.862778366167062,-3.307691237150681,-3.141297016497037,-3.5357018423153854,-3.1905504845188846
-3.503704740747732,-3.8468440022546053,-4.233820742237025,-3.6728363723854365,-2.804274154963122,-2.6991282936725383
1.1235075052212744,-0.3597292415518612,-1.9572181936563096,0.8629779692420693,1.967857863867948,1.8725522073894745
-2.3034746383826206,1.1699371884730707,2.818325946940602,-11.27362939045795,-2.148547782477335,-2.201501312252752
-5.633245472672731,-3.623213064233471,-6.104587860920432,-7.5024040853881,-8.19124750748072,-4.742304042418424
-20.521014292831268,-26.218641384237245,-27.013366699289122,-38.055435977884486,-32.542508341409565,-39.034858859984226
-10.712126422740212,-7.42898073018396,-6.880755082252912,-7.461844753321441,-7.349243876239275,-6.846121130120485
-0.32402046636098253,-3.664965355991808,-1.006006311942473,-2.1779437212204775,0.23624237413349666,-2.084124299676935
2.4361934377645222,2.5215573797004325,3.104685166879159,3.843019825023161,1.2821899607628138,1.1641595884343843
1.2691449176667935,-0.5019428275518775,-2.0666544410164187,0.6405211572625445,0.5006374372376677,1.4218252927143273
-3.941583666343674,-2.852745346243784,-5.507484836703138,-5.548988906597423,-2.489511550009933,-3.5860970053860837
-28.431419865507234,-18.549032213157624,-32.734823848730976,-29.70281888523332,-35.283262656582075,-32.47677302685398
-7.181512279022419,-4.95867126740518,-4.2271754958877406,-4.762672493716543,-4.934170863187874,-4.523749344480585
-1.2679275309687412,-6.606676599687316,0.6239961689201252,-3.1948469346048163,-0.5259618848478211,-0.35361826200543184
-0.04252887936104856,1.9760663314258424,1.7728800343626103,2.392333499365227,2.1793056259639108,3.6991567553013858
-0.05173445788438194,2.0748377795232997,1.3215696487640205,-1.057844394722712,-0.2119119278860885,1.5315266256507583
-1.258763348355519,-5.442195863671324,-2.334492204460676,-0.9084882828296008,-3.377922147227534,-3.0273343594148243
-25.483484092380177,-21.50507893189752,-26.874285443693587,-27.42809377958424,-27.814835594840293,-32.17909869734412
-7.990552464165878,-6.370338502481953,-5.147923248089054,-6.108932353290191,-5.661841383987784,-5.475846802279846
0.0,0.0,0.0,0.0,0.0,0.0
0.0,0.0,0.0,0.0,0.0,0.0
0.0,0.0,0.0,0.0,0.0,0.0
0.0,0.0,0.0,0.0,0.0,0.0
0.0,0.0,0.0,0.0,0.0,0.0
0.0,0.0,0.0,0.0,0.0,0.0
0.0,0.0,0.0,0.0,0.0,0.0
0.0,0.0,0.0,0.0,0.0,0.0
0.0,0.0,0.0,0.0,0.0,0.0
0.0,0.0,0.0,0.0,0.0,0.0
0.0,0.0,0.0,0.0,0.0,0.0
0.0,0.0,0.0,0.0,0.0,0.0
0.3703845876233866,-2.857879046606753,-1.801216297560367,-1.69211135304001,-0.8908856291776858,-2.660068673945709
-0.9074410003450986,-1.0165446346256481,-1.9748828831774596,0.03115218420402246,0.34624117208218996,0.16046151996384098
0.5915963539185013,0.09755952459679527,5.030845908860271,0.9571832803107075,2.5060428605397616,-0.974212626684353
2.8682699051016987,1.9158029935944718,2.088891357140716,2.9383783945581685,7.187826312725949,3.902342161107989
-5.192489091437603,-4.815988112538486,-4.933205131611481,-3.7755121772475633,-5.634231264475754,-3.7939540013614805
-1.036094904833534,-1.004394733978708,-1.2147173410896082,-1.0562638814950491,-1.0452151663751026,-1.0789957491229147
0.0,0.0,0.0,0.0,0.0,0.0
0.0,0.0,0.0,0.0,0.0,0.0
0.0,0.0,0.0,0.0,0.0,0.0
0.0,0.0,0.0,0.0,0.0,0.0
0.0,0.0,0.0,0.0,0.0,0.0
0.0,0.0,0.0,0.0,0.0,0.0
0.0,0.0,0.0,0.0,0.0,0.0
0.0,0.0,0.0,0.0,0.0,0.0
0.0,0.0,0.0,0.0,0.0,0.0
0.0,0.0,0.0,0.0,0.0,0.0
0.0,0.0,0.0,0.0,0.0,0.0
0.0,0.0,0.0,0.0,0.0,0.0
-1.7307140698993555,-0.971626584341686,0.7084831690533823,-4.282400578417738,0.19252716164409525,0.1853397207211549
-0.8333255204369234,0.9162956177589937,-5.274768252800411,-2.789423767303795,0.4539177736354114,-1.6935251907700928
-1.2962464165428507,0.482667378854882,4.612338795829544,-1.504977988564631,2.3272901768888214,2.1549593998768883
6.994704533585289,6.258537450207122,-0.46879785021160497,2.0186746074300874,-0.1981084983681979,2.3129588253061217
-6.837736978412635,-5.241895692195355,-4.777478099489887,-6.4072326872033285,-5.35990896659095,-5.5867803878135955
-2.2608180926721007,-1.3006187164773417,-1.2226618863640886,-1.225217700906817,-1.1963786787153259,-1.132171390421472
0.0,0.0,0.0,0.0,0.0,0.0
0.0,0.0,0.0,0.0,0.0,0.0
0.0,0.0,0.0,0.0,0.0,0.0
0.0,0.0,0.0,0.0,0.0,0.0
0.0,0.0,0.0,0.0,0.0,0.0
0.0,0.0,0.0,0.0,0.0,0.0
-1.1916321966614658,-2.036705014915344,-0.9142374470690791,-1.6886101623669638,-0.46033392970644915,-0.08779637546873587
-0.7234511963599832,0.4788587572244345,1.7138984175025778,1.3969011587121967,1.3323006742182188,0.6368020541464637
1.6997326286775791,0.2934156274839602,-1.4636915894395683,-4.285697914661549,-0.10229772285205972,1.3889955072504208
-1.3622542605268573,-2.2370981242466015,-1.403804583070573,-2.0974989474438845,-4.723042145176518,-3.4781292336467966
-7.034133939357323,-7.0319553198874205,-11.486272396075533,-10.157033345214721,-12.053036236868666,-14.43940725826517
-3.2497074125154546,-2.6608250011464514,-2.1351751888704396,-2.5886011968024376,-2.351075457908012,-2.3414436666239715
0.0,0.0,0.0,0.0,0.0,0.0
0.0,0.0,0.0,0.0,0.0,0.0
0.0,0.0,0.0,0.0,0.0,0.0
0.0,0.0,0.0,0.0,0.0,0.0
0.0,0.0,0.0,0.0,0.0,0.0
0.0,0.0,0.0,0.0,0.0,0.0
-1.7245177355972452,-4.447231015484125,-2.1449575035682757,-4.0318666230991616,-3.643480222227726,-8.733559440722265
-1.2403452868968043,-1.4449250679503094,1.254888696030101,-2.812364450346605,0.4682226455795518,-0.23012554945710062
1.3872531392989063,1.7427416309078738,0.31708823519636964,-7.87832802430804,-1.5437090938875642,2.250707395691654
-1.9214035813802257,-5.610052620016201,-5.180339583243686,4.867215127216822,-2.633749167957892,-4.081952305224356
-24.34494285328234,-24.840856397329794,-20.082797008625285,-12.3634164678178,-21.407489911786044,-19.394313596147814
-7.329675475439914,-8.494066086117307,-7.463989582912644,-17.017431636332148,-7.904095652905864,-9.43474528462744
-3.90017464453479,-4.342730235346,-3.3455079471356353,-3.7156204740973435,-1.1111464350970641,-2.5556365488640402
-2.426064344570561,-0.5376271414590347,1.1154524166836561,-2.081338121066454,0.4981984842845449,0.9232181120964223
-0.706869110165369,0.6778338130527339,3.000138992646528,1.303700439560837,-2.120793233078377,0.8890095755831714
-5.162611417211393,-1.0678433940005019,-5.962806367214577,-1.9532254633119122,-3.2263657509473846,0.590022548915952
-21.482812366051775,-19.412946945676865,-19.742757097007203,-12.364261743495584,-15.10866273611543,-11.23757432029866
-4.125748698140543,-4.051217539349302,-3.7986453555860353,-6.310764247698368,-4.161527239729657,-5.13253392484745
-0.45934898747927955,-2.891859894075071,-5.851667458721387,-3.3576282580013954,-4.7290406078451515,-1.470392559448073
-1.2247010289606444,0.6825451085474162,0.5106065529856265,-2.243621897751753,-2.0841809778262035,-2.728313439305405
1.8848076296375305,0.6400844085667317,1.5226188645741976,0.6196396969543896,2.1765468506248866,1.4307691804188787
1.5749519793853057,2.5000652359003888,0.9895870122612178,-2.504003180775765,1.2950125838308113,4.172597881964975
-17.157514776885737,-14.712451328899059,-15.847436278437385,-13.599670960149087,-13.430378088236003,-10.890391535718173
-2.549959910915232,-2.443943639033165,-2.490937252824012,-2.5486267164598684,-2.5549182050889843,-2.6815913138672194
-4.453335985330815,-5.446689081872325,-4.109734207724432,-2.911480800669752,-8.957907938258321,-10.729850593268477
-5.29595378465761,0.39981911320641833,-0.10545702195826386,-2.9596156307613115,-0.7134869815138525,-3.0809295470505997
0.44336444639685696,-0.04957589372946646,1.54855693113269,-0.36182519900854604,0.15922505930355707,1.6342537161749584
-2.1790287996349376,1.6681947607387575,3.9498301500590776,2.7717521654277855,6.395430191782933,3.1633999735665577
-9.632969882733367,-9.353132037487981,-9.778580159922221,-11.925615250171811,-9.98762664759599,-9.343607375283149
-2.2776178876416657,-1.98804132306722,-2.4775160132248732,-2.7930538922641035,-2.570924157044958,-2.619274232111841
-4.335448319272143,-9.977555297899125,-1.1476490243302466,-3.296845820962544,-4.76192501174294,-4.3640235189264915
-6.838139680740269,-0.4564633095360337,-1.1523248476964794,4.495750702865459,-2.470048475044873,3.3644114435945967
-0.2915666281632314,-3.2967292326523294,2.3374225716756794,-2.008431905831175,-3.8436670541116804,-2.808223037215449
-0.5572977495352518,-1.489472625740929,1.4496942167424258,0.5011752888557703,0.7766580411188374,1.3548489129908665
-6.241397068882142,-6.945922867104546,-5.274319860874565,-6.761948392534451,-6.303266702285312,-5.13775615184079
-1.731612535008058,-1.3319332219065283,-1.1758928505558337,-1.5877501033959538,-1.2398200888349298,-1.2952844120111209
-3.4780884983457923,-1.9208358355175381,-4.378141548591794,-5.948263372944946,-4.3055206994120025,-0.47923974861405705
1.2779867939689384,1.8901330293952614,2.5336154254548027,1.06568584997249,-4.930703771582564,1.4945978589841877
-0.1470460953630571,-0.09105562618773423,1.4236983563425316,-1.386652104228621,1.867506510460892,-0.3335793831695051
2.372696586853082,2.223528533072559,1.6964864191989117,0.13278114696313276,2.012865575409705,0.4265999263252807
-18.12254161252598,-14.782814386224802,-12.587820033387189,-15.008387932793845,-19.33932747498951,-16.417139431386353
-4.099214344768738,-2.8002698219996645,-1.9275782618647581,-2.5274095345612935,-2.579168572700459,-2.5071337447550697
-3.213560090736583,-5.280637388735873,-2.855415993476766,-1.1247810726555836,-1.6709913792095201,-5.564924331268782
-1.2969801206224396,1.4812262887956051,0.31748053240489627,-0.14338149797937252,-0.08695541282602719,2.676784181056682
-4.897691111929236,-2.2834466114935585,-0.7448980830077955,-4.1972024569164095,0.1413149955049508,0.01958782434248612
4.514443332727017,3.5515305132455404,0.18827262017558088,3.1319931476448826,1.6478498703998126,1.366692396508144
-15.972871534525048,-10.710880388480666,-14.73873503679328,-14.465836886666649,-14.98968410539344,-14.783885540025123
-4.257253213592483,-3.476982396686753,-2.779332698978504,-3.924419263180252,-3.26685577704735,-2.7416800672282573
0.0,0.0,0.0,0.0,0.0,0.0
0.0,0.0,0.0,0.0,0.0,0.0
0.0,0.0,0.0,0.0,0.0,0.0
0.0,0.0,0.0,0.0,0.0,0.0
0.0,0.0,0.0,0.0,0.0,0.0
0.0,0.0,0.0,0.0,0.0,0.0
-1.3174818664543693,-3.259127199502257,-1.7962237137852388,-4.197808910141021,-1.9999222482126828,-4.317582735730612
0.10699247786158957,-0.04063668349644492,1.1666432057645144,-3.0081988583001817,-1.9766999984997742,-4.516861307378603
-3.946330936240012,-1.0020078022927594,0.3338283258856738,-8.126780063459307,-1.2097119974543846,-3.1599848453988186
2.4595164221179133,3.028944375222546,3.2886774116193207,5.218211693623458,6.857992646008675,1.3196441740287634
-15.97400376694525,-17.261487342510065,-14.267668974973363,-29.821397257021314,-15.148828249147614,-16.632098495944135
-4.089882868575474,-4.32832953598186,-4.034661539670806,-7.985612770836287,-4.227703766717192,-4.83430110839861
-1.8842986660849341,-5.403963892299088,-2.9363344167013494,-3.601074590725822,-2.913750424822652,-5.423209786706776
0.49428007472499014,2.0080766471009692,3.1972232639909275,4.033463891847954,-0.04875464507174161,1.263119319810851
0.27914259215055787,1.4256054249843408,2.2489921210487807,-2.051790941575276,-2.824635290562968,-2.326073499734815
-0.6748076033224849,0.7784218354664739,-0.6373456329988249,3.632406360228557,2.919240229403652,1.7906835933464407
-30.109431449437352,-27.420370437519512,-27.902593630879,-34.38212658447534,-21.131100590227298,-22.090921131446997
-5.750853766339372,-5.366188515716724,-5.1584203002311755,-8.387619075735975,-5.7279306785617,-6.971077682107276
-2.0235845139432524,-5.050152175257257,-5.520176856333159,-4.465740178634895,-4.070079028315168,-4.430845402161587
1.0846255548299883,0.2983642225026823,2.622347071722933,3.0700052364916264,1.7782861393177019,1.8873485645261756
0.36875747241912554,1.3973404266872929,1.8510774744418081,0.8985896582018335,1.5432997473486028,-1.3146803597816732
-3.9584091900820333,-3.6345882310239133,-4.794526402206825,-5.659531965459532,-1.457176929901113,-1.1024700989096814
-41.8950729338759,-37.86571940335182,-38.29677604102208,-35.84479124963749,-20.425976307596905,-22.564928104259472
-5.143306898827182,-5.0625707748336755,-4.834587627912284,-4.8872345629924325,-5.167600064877128,-5.371045307564779
-5.217535589321978,-1.3622429225424333,-5.279956053015252,-4.903338356819825,-4.195959323035499,-0.6155110049669986
0.20833890549840806,-0.35355826375956356,0.08228277280225677,3.344656836827826,-1.1212622097976395,0.5092878026064959
9.044064161176673,3.563032986333783,2.1637414660849292,3.105319232490064,3.3934166007831528,1.3448460128073276
-17.91490971044111,-3.465309781029416,-7.5214553998298275,-2.486282561133496,-3.6654856749931,-0.21113681249544494
-46.94728901647749,-40.707442533008816,-33.73345191285331,-34.393912071175876,-18.65541582959405,-25.41191028949408
-7.46167316943296,-6.532474056228833,-7.351564883603879,-8.28909300954912,-7.539726113764154,-7.476264647156743
-6.101300829998984,-5.435495095758615,-4.488983226093949,-8.069077212117865,-6.503074335131171,-6.278148360525147
1.2552668624196772,1.3930616685672779,0.714037516474397,-2.4868549570338847,0.4786854373782397,0.49730327587674067
0.5981234086211863,1.4539818605436758,1.6349705318190098,0.46789960225738836,1.514752889536311,2.9853791314162965
-6.294804700306849,1.1893375924665661,1.1878983018269635,1.8029346678551392,-0.47947761099268843,-1.4218741332825953
-17.858127461771446,-17.934485073388846,-16.386269761588206,-17.694222637075963,-15.942166628231439,-15.03271366862601
-4.158601933405387,-3.637264031837811,-3.3455334441838347,-4.123351759109056,-3.4161549891912255,-3.5014178545515535
-4.868056334738849,-4.243027510942844,-2.9600528301981726,-6.385093702859983,-7.212907752636687,-3.4180568474818966
-2.149600877228978,-0.07163501104007028,1.508736205320934,-3.456007197029356,-0.7879286189483231,0.635858222129264
1.0829201497387348,1.5180134823783027,2.5639557408263856,0.42316978040136216,1.7952050867912785,1.4940841029207155
1.752690738658371,0.9709035066733747,2.8302710544502023,1.9683840619219022,2.0834703977017117,0.6080029192254978
-10.35750515445363,-4.562201785144521,-3.139909777947202,-4.038740202513172,-5.857840310165905,-4.509892102242828
-2.4527184405051057,-1.1000293278020947,-0.6427156833948394,-0.831450497964789,-0.9828152532311355,-0.7035859678446719
-2.7347990077013526,-2.8017233993059594,-1.4635442567111545,-1.2739116344223183,-0.7857082768091859,-2.5989340337284395
-0.04083366359595724,-2.507986006489384,0.06987868360059159,0.6008994557036993,2.4571209006897745,-5.110500027109795
3.0904928794660957,0.8969501299405043,1.5964609392206628,0.8006268362567284,1.2088635530617602,-0.06826998778690972
2.054778339534561,1.3796499170898078,2.03359911448709,1.6458743638821078,1.735900717109048,0.7756242660349161
-12.014843477536267,-7.967113272177635,-7.046319046392619,-9.926176582702714,-9.50841314819624,-7.689605162305502
-3.716895632281998,-2.0716232231863714,-1.678214451370758,-1.9690284916715894,-2.000459656651462,-1.4337359364390052
0.0,0.0,0.0,0.0,0.0,0.0
0.0,0.0,0.0,0.0,0.0,0.0
0.0,0.0,0.0,0.0,0.0,0.0
0.0,0.0,0.0,0.0,0.0,0.0
0.0,0.0,0.0,0.0,0.0,0.0
0.0,0.0,0.0,0.0,0.0,0.0
-1.0294158158893811,-1.1390373722468576,-2.275797832453708,-1.4911603895856318,-0.8681317398567376,-2.8401349904723845
-1.2930171014120593,-7.019851519022522,-1.7690459212619294,-1.71442738421472,-1.4942517244463436,-3.309914827419011
1.435455751981572,2.048365700421593,2.6205734153499995,1.3427603952317309,2.222957907688376,1.120597331455131
1.6193515990995737,1.9617084243995124,1.3585010506975959,1.13001521070488,1.8827249501681986,0.5788321898511437
-5.779358316284643,-7.316330560941335,-6.061702763158392,-15.255907715621184,-6.692275547174707,-7.804713146730352
-1.616320279387139,-1.522575891153658,-1.55833173940754,-2.2273691106226954,-1.4971795666555996,-1.765981672604449
-2.1855493087890063,-3.094013387263452,-4.413246855745404,-5.2060610244773,-5.1221036262376165,-3.5315774038271686
-1.267330533569818,0.9869846728799433,0.389795273748991,-0.4491056420767921,-3.4786898664916635,-1.8152559465787916
1.8753708722635845,2.0656681330129567,1.7940906225956583,1.9500929234837312,0.8070800953967376,0.46011875662252466
3.9271237341002085,4.270441314635645,5.298197178885783,4.402652668038494,5.635122422611116,4.5872746591982425
-9.169674493970483,-8.249470053182234,-6.666098407608183,-11.948223721464391,-8.640048863928511,-10.258047664838392
-1.8724489364752537,-1.5644454737674238,-1.801511988565464,-2.626841931262882,-1.8463599106777693,-2.2486585984992256
-4.644024980729641,-4.77580823302078,-4.470161998157079,-3.399480240502186,-5.7105877222773485,-5.508761973078205
2.7323648616764666,0.5041637149324474,1.5774109569925354,2.6051108328515844,-0.5103539034270539,-0.1961450193931294
1.417385354809006,-1.1530437936011169,2.9959048914048036,1.6991428442170626,1.4868921336663359,0.016642537591805978
2.6315514104230493,5.009937736420669,4.4819074729797945,2.9826602555579753,4.354614333261089,3.502200195340238
-16.048975106169994,-15.466195374265743,-14.89936470099151,-12.498806881988036,-11.758781730993888,-13.508575521882545
-2.4252421313110144,-2.4387064683927697,-2.43098078706179,-2.4552740788169087,-2.3832423927304585,-2.687540547453566
-2.9058258004250903,-0.026390693005053263,-1.0884846044116527,-1.4229945292313424,-4.196404520636481,-1.3231165309111683
-0.8091334264991263,2.6318729168643933,1.3403540054966667,2.3430611934568493,2.4868729966399936,1.7254800200050122
2.1005860581288127,-3.4078961033402257,3.6100776748849497,-1.1516651553310047,0.9199973652985173,0.6917052369505405
-13.702768753954073,-4.761734424050855,-8.617132097662612,-1.0678343335123766,-1.2872426423521532,1.4176889739538976
-54.482519495621574,-42.3727238163379,-46.719241982837715,-40.83107086764427,-33.704128457243755,-34.843691559243716
-8.902082610393691,-7.916249612335196,-9.090688837912161,-9.918579337108364,-8.899525687400837,-8.849034889588474
-3.6139081254968275,-3.2515047461607907,-2.3500626056142075,0.48604190214446313,-4.415855959061821,-3.249128406089468
1.812092328806326,1.1013035724109506,2.2924459404375477,1.8438850592666771,1.5384966171754217,1.7202556922014676
2.391600120844436,0.37861529796982285,2.0021393442645574,2.681256385175495,1.423887136322565,2.6092320102763638
-8.322152224402856,-3.8796455398865484,-5.407840975744085,-3.650317195339155,-4.729982841040783,-2.3343064203094266
-27.012108674368697,-38.59370618952559,-47.76212495806041,-41.347886880493206,-46.606592449097654,-43.50832099971994
-9.45122336020287,-9.100096032438948,-8.943252028961219,-10.522406047534533,-8.972750475021817,-8.588634239996617
-1.380592432972852,-4.442379779618388,-1.2775356709618655,-4.122171861170628,-3.619920530736561,-3.9686845074066714
1.5738503664408887,0.5061045528610344,2.6766926279422583,1.7731161095055659,1.4021763902078581,2.826289051788058
0.2948002233583299,0.8446064015647501,1.6407536023607643,1.7179278824652953,-0.7450960018225836,0.8909184848389928
2.9535207479675716,1.9762513753703557,2.7013602884705947,1.4550570252921395,1.6469386201824905,-0.3050097758473261
-16.882937866917246,-14.464340868385216,-13.807279423017064,-16.68249344117004,-17.018911539735065,-16.25290451631051
-4.026151209000429,-2.8456591766389145,-1.9689718909860379,-2.335384246150834,-2.614966771220763,-2.3179592794912667
-1.836195008983323,-1.8871597349315246,-0.4134848438311839,-3.1098985571460127,-1.235448980269995,-2.438363723161327
-0.024557382120503922,-2.5180401713695124,0.2590922650768292,1.3986618381297025,0.225264835719972,0.3489978349836243
0.4859892546500681,0.8166008222278396,1.9420624320554176,1.7685671956744062,0.7276333797075395,1.3881952960623094
2.508025499662252,1.3355132854303169,1.812620496071064,2.251871546705743,1.7774519894049323,1.219152814537845
-12.056555447269488,-9.968210152726336,-7.932646968569915,-16.37925061248448,-10.873977729685807,-10.012821477277225
-3.9753606065367433,-2.255878124636268,-1.9108486591283136,-2.229180166523791,-2.1431755119641642,-1.704756520573195
0.0,0.0,0.0,0.0,0.0,0.0
0.0,0.0,0.0,0.0,0.0,0.0
0.0,0.0,0.0,0.0,0.0,0.0
0.0,0.0,0.0,0.0,0.0,0.0
0.0,0.0,0.0,0.0,0.0,0.0
0.0,0.0,0.0,0.0,0.0,0.0
-2.6776995073309204,-4.596786748439196,-1.50750476636869,-1.7067572974794039,-0.8762348408653626,-3.167635827145203
-1.5596748900019284,-0.3884893970623913,-0.25565915559506275,-7.098099499818416,-0.47073739742080567,2.5586268867849875
0.6182568650636687,2.332782780763267,-0.47520835529029526,-0.5420935396261467,1.1653215521164446,3.7549293120506553
2.1856311563406363,-2.457100342181095,1.310330754007015,4.123914546537674,2.692317963599144,-0.7609258054449862
-12.257502055098044,-18.49320657393707,-14.450831173029494,-39.527036857373254,-16.57353844214766,-20.10440149245746
-4.0038292074570245,-4.460077779639686,-4.0504414049209325,-7.801571308253391,-4.163625581224515,-4.895482625216701
-4.610247092092652,-2.946104364924033,-2.7233252382076745,-5.374659086626975,-4.394458173737646,-2.6413750913741803
-1.5016273129902753,-3.182009187194955,-0.4966777420047099,0.8758107906153865,-3.265194801618421,-2.040558524591335
1.8088121110196032,1.8270168723106048,1.5956369781620308,2.8402189694873425,1.546844015234419,2.0416132981312924
2.0250291333290873,2.387482965970227,2.7084903449302695,2.294607726404386,1.2262532950906138,1.346169905712441
-7.056254367798995,-7.476114516929886,-6.018719324953477,-9.816631966025135,-6.7833079381364,-8.16401436600923
-1.525843592733844,-1.381703867665588,-1.5460324871645725,-2.2743940643718887,-1.5212607294702685,-1.8995370686699968
-2.5151602861985745,-4.788812326158302,-5.237434076903942,-5.178137465688282,-3.314030789678881,-4.206860256513143
-0.4364458500236185,0.08943772296466017,-0.61558459291625,-3.404013611934934,-2.0865674797564595,-3.1627519393815025
1.495666131607433,3.27434693783713,3.1004864312260603,2.765635605573051,2.1709631544225676,3.139119282413515
1.6668947402253986,1.6460127621204192,4.043987984023055,2.221871225598986,2.6153163724615967,2.0018164757436585
-3.734738392957564,-3.722699036265868,-3.842680587065945,-3.2564038176943417,-3.7648961020464506,-4.435677497203658
-0.7351015981382595,-0.7673843092847528,-0.8997147214626053,-0.8871932039498558,-0.7598390824708429,-0.8832488527807758
-6.568302405155722,-0.6385184256317932,-9.35958466451181,-4.4874776335916975,-7.70548676931103,-4.178259232873615
2.734478076142012,1.0169166457334862,1.5573131467996202,1.9048715147912947,-1.0543549892602015,3.1511565467219986
-1.4375222241557744,1.1201896002697327,-9.626533257280476,0.9385263501510733,3.1657567074065502,1.459118570901881
-1.7371890651320194,-1.5094851224561998,-2.7586639606810435,-3.408944183430295,-0.13634330384599722,1.2945217097243809
-11.230323883111717,-12.122687812685532,-18.695295180436748,-15.752382999358588,-16.79060877086649,-15.265020287679814
-3.418447736970489,-3.0782011636156352,-3.7502772539242137,-4.117080873067497,-3.7126933444765484,-3.6785014660755664
-5.430755752606147,-3.2438205919463523,-5.968614432510013,-3.7423281097124677,-5.288455310859166,-3.6793288829227726
-0.33386370261552084,1.1152442192372911,-0.42599875996561104,-3.9805301320076856,0.5589470870256277,1.7507278771294776
-3.7832213210128,-1.3906943070099773,-7.110547462652948,-3.5753274740275187,-1.0447331726482014,-0.19503719838258088
-4.025093668970054,-4.911298987311512,-3.700748320718501,-12.649366800519706,-6.329147595633265,-6.163805985203659
-17.679027888110767,-27.16766445259914,-43.845755775466266,-34.44193298316872,-44.645535573712635,-40.1991039405093
-8.6146230048364,-7.891702102942723,-7.86191570227411,-9.687805905168899,-8.105067785256816,-7.415008935191925
-1.3807833167699284,-1.7633506489068609,-2.356770916213024,-5.511532851886587,-1.0959521118542697,-3.044677987515608
0.19229382273765883,1.2546531495817064,2.1336806579101895,3.0805864405274828,2.060856984919712,1.4775899040542722
-0.5484596395116551,-0.4524510998920414,-0.1562455164550092,0.2121332219992966,1.0588088495216816,-0.051636202551763766
-3.9550125085238235,-2.198967748625233,-5.114729954297294,-7.9529601951359785,-6.781792448002553,-5.867680003010219
-24.122032673557392,-28.100299488190217,-33.03148248202383,-41.327246979408315,-40.57798555497209,-37.77437225740846
-6.542503324935416,-5.527107153697026,-3.9029945722639714,-4.992665475576848,-5.159139119863348,-5.173454267391223
-3.2911743099350965,-1.8479925171841816,-0.49668221747439795,-2.9692366690915586,-0.8498645281982367,-1.8082806311253456
0.27711939501965566,2.390430415823995,2.9980364925162433,-0.7085127493008153,2.0762842649867723,3.4641767591094963
-0.802866652255365,2.3820993153260055,1.9018628380918028,-0.9843651305444548,1.6151015515639617,-1.2195013299681892
-0.6214002165111524,0.38954889580155105,-2.6658868450767796,3.576110578160603,-1.4627396326286872,-3.9476914312164846
-22.71690059319831,-21.360832575854737,-29.623419021997154,-45.0121676439075,-34.278349617490996,-34.53391626568417
-7.740329938279971,-6.733783447278718,-5.372694154347562,-7.845219049518687,-6.181302615561476,-5.547765723124643
0.0,0.0,0.0,0.0,0.0,0.0
0.0,0.0,0.0,0.0,0.0,0.0
0.0,0.0,0.0,0.0,0.0,0.0
0.0,0.0,0.0,0.0,0.0,0.0
0.0,0.0,0.0,0.0,0.0,0.0
0.0,0.0,0.0,0.0,0.0,0.0
0.0,0.0,0.0,0.0,0.0,0.0
0.0,0.0,0.0,0.0,0.0,0.0
0.0,0.0,0.0,0.0,0.0,0.0
0.0,0.0,0.0,0.0,0.0,0.0
0.0,0.0,0.0,0.0,0.0,0.0
0.0,0.0,0.0,0.0,0.0,0.0
-3.260488900951782,-0.6410191232009265,-0.05146510060606004,-1.0015310868390568,-1.2336393748296126,-1.3899496001524507
0.03808156824038341,-0.470876429714675,-0.2542504401693645,-1.4722750072255892,-0.16070867595174598,-0.11991150814072259
-0.25269249533043253,-0.7976245084728781,1.3506936848772333,3.2364753592363016,0.8053372220000501,0.1779191580622872
1.3245716272281005,4.303836355925465,1.4778709619310664,4.944599689724667,4.579245581792511,5.3883862570165055
-4.703214228031901,-5.130261889939286,-3.9164191556148618,-5.368861485511853,-4.133918365698429,-4.854030141508254
-1.0039571770884803,-0.941722537127269,-0.9551714424900881,-1.4956809391658552,-0.9906459770126392,-1.2148269902577844
0.0,0.0,0.0,0.0,0.0,0.0
0.0,0.0,0.0,0.0,0.0,0.0
0.0,0.0,0.0,0.0,0.0,0.0
0.0,0.0,0.0,0.0,0.0,0.0
0.0,0.0,0.0,0.0,0.0,0.0
0.0,0.0,0.0,0.0,0.0,0.0
0.0,0.0,0.0,0.0,0.0,0.0
0.0,0.0,0.0,0.0,0.0,0.0
0.0,0.0,0.0,0.0,0.0,0.0
0.0,0.0,0.0,0.0,0.0,0.0
0.0,0.0,0.0,0.0,0.0,0.0
0.0,0.0,0.0,0.0,0.0,0.0
-3.673061294360595,-4.5376322750863025,-3.924239102185547,-8.998083560086513,-1.5669337200890774,-1.191751488637462
-0.6350819541655306,-0.2555006732340489,-1.3269821075773323,-7.047623283805622,1.2871791067079463,1.8770272957836622
-0.17555092384291313,0.41131804538153444,-0.10912248265585152,-0.029991079467587462,-0.5114474461838232,0.37731298575732175
6.477787914632871,3.4865491332218954,2.8760527202316353,2.657497374826012,1.838973609261874,1.8623608270723087
-4.018413266933903,-5.420188159649068,-6.8060089887803255,-6.247990784056157,-7.80934813576015,-5.674985658772099
-1.6503518206494519,-1.3739287833314389,-1.3001560973964852,-1.8096723561613781,-1.395029649712202,-1.313185993220051
0.0,0.0,0.0,0.0,0.0,0.0
0.0,0.0,0.0,0.0,0.0,0.0
0.0,0.0,0.0,0.0,0.0,0.0
0.0,0.0,0.0,0.0,0.0,0.0
0.0,0.0,0.0,0.0,0.0,0.0
0.0,0.0,0.0,0.0,0.0,0.0
-1.6456941297475107,-0.7970329390203503,-1.0038497076713595,-0.3532759760918286,-0.35679360006091876,-0.9706883180299987
-0.4895720488361811,0.21652182349773166,1.1696860454471705,1.21259054154822,0.12884856098668587,1.3219152494441444
-6.343950339438808,1.0649809928455758,1.7111525688528169,-1.8174184687476207,-0.38922260861758357,-0.6656571552611644
-1.4710577928854933,-2.6568806283540747,-3.0240985638853015,0.6040338816755556,-2.4005989641924326,-3.57627918230774
-9.371658689088093,-6.977527952838015,-13.282110838144652,-10.227199565966947,-14.219736236235123,-13.80933672477209
-3.086309981541924,-2.8302807523397315,-2.221923290402813,-3.415905672916662,-2.5938893079059953,-2.351767828609712
0.0,0.0,0.0,0.0,0.0,0.0
0.0,0.0,0.0,0.0,0.0,0.0
0.0,0.0,0.0,0.0,0.0,0.0
0.0,0.0,0.0,0.0,0.0,0.0
0.0,0.0,0.0,0.0,0.0,0.0
0.0,0.0,0.0,0.0,0.0,0.0
