x1,x2,x3,x4,x5,x6
-0.3673788660034702,-0.9051561979777841,-0.8542604390188648,-0.3926772734405513,-0.6193700124816236,-0.5286117846156363
-0.3645349049210651,-0.4943602835833507,-5.572558725566896,0.028930953790918333,-1.376821167598379,-0.6695918976417111
3.119815389158157,2.999070677164244,1.6912201028429887,-0.12976882659555394,0.6476202359953264,4.490394735167391
-3.6797616391097425,-1.0250687709542383,-1.800058163011212,-3.570071358997208,-4.692349439756362,-3.184268907017811
-46.86252438917489,-40.313836180719285,-55.35627149710517,-37.637182058425644,-54.49989627882495,-49.81739007332871
-21.022892972372563,-21.02743318004715,-20.88881114909114,-21.672650101605328,-20.79693613253221,-21.04858053186985
-0.007516060716051547,-0.054549018825484005,-0.6641232978368006,-0.002414465755572581,-0.13822130448554212,-0.5966754623397605
-0.41712305803356814,1.0757130730992512,-2.8065854382981703,0.5571421238367936,-0.49681628082156776,-1.0749023040065349
3.2081189603296796,4.285214402970431,3.4072366524024376,3.238214827228279,2.871108280707503,1.8337003873040312
-3.058469842821145,-1.2194421880624886,-1.3206918305128157,1.2622973660152657,0.6477730721089846,0.7907045969426243
-31.378409181807204,-34.44650675724349,-36.23442264829729,-26.88139014477463,-32.1863600264225,-24.46129485737241
-11.916662666890051,-12.01636529108598,-12.348058281561332,-12.410345006763526,-12.827680192688959,-12.181904520994356
-0.2147983686672988,-0.21640607550799512,-0.7194021847238173,-0.09263658989040592,-0.03402548731915671,-0.454697210339842
-0.3698527286389317,0.7575005923054028,0.22465473732269456,0.8964157825106948,-0.5926159489281856,-0.29178148025098627
3.4423255185564026,1.8942640323292346,2.1323598689412866,1.769224793179491,2.223095105189961,3.8259960871408767
1.349657630449308,0.7629112024953139,2.660705330464893,1.510965023364352,4.489893959912892,2.4148952353449977
-20.29250402995929,-19.338552019578486,-19.566762330047826,-20.20116783668523,-18.13890908877423,-19.807179511805266
-7.085279434084249,-7.62410651201025,-7.468799985910584,-7.086339619090394,-7.157441804337153,-7.073999097816836
-0.7144013898574751,-0.11656579547199052,-2.198281166675065,0.3589554268835228,0.3229930831281946,-0.4341320274578966
-0.982119764794036,1.128697513136199,3.433468438896063,4.2111880953643,1.2326902129641035,0.6576863870537443
0.49140894901200155,0.6739643402039794,2.0791700530783714,2.0766842433881,2.455796368066631,1.7696773070669443
-0.3685806923337283,0.8869021955576758,2.5840649282590475,0.8547570529361621,-0.3736328980731073,1.4713863604663266
-19.766841100550792,-19.26972635870499,-19.444991372219153,-19.576076233674726,-19.897484477946346,-19.222359976462307
-7.891331314716209,-7.079884008823665,-7.278041684025336,-7.058245662949501,-7.670785566228937,-7.842868007327822
-0.20668518214499418,-0.4054459819270705,-0.15880096683003278,-0.5146043978259601,0.050411464486921395,0.06190353363915295
1.6847021726583025,0.5113336171760243,3.6056854231308115,2.4751439409776137,1.8055898741869714,0.25964162975160743
3.1097897298295294,-0.1384880965971619,2.3612784488396614,2.3543524285609934,4.057583978440557,1.7279180371587257
-1.5327561583000764,1.1591411625895667,-0.19610589749356871,1.3936573827086127,0.8078985218230947,1.4477813565208906
-10.914156434360024,-11.176777941838058,-10.946259399893787,-11.068462185240033,-11.075971174466607,-10.88262356498249
-4.024210006015534,-4.115647692067917,-3.869356018813119,-3.6255812044771987,-3.8886235219384395,-3.8866447624353126
-0.006831111511768959,-0.10362221658061738,-0.6456776020046171,-0.18186400431812358,-0.18821648189456547,0.0007057496432642725
0.1871362492023303,-0.03931090516379847,-0.5581541442367723,0.07997821036394473,0.004760008427491969,-0.24132474435181217
3.563226715955367,3.1658335557474357,-0.8136960020451252,2.274922029267354,3.317615017113454,3.0524102106798017
3.0989381298627845,2.744919424187266,3.3798704218964444,2.2087280351686887,1.2910995241011238,2.0668274651741756
-20.020724841765098,-18.20966390875443,-19.7121376566897,-19.91815625222929,-23.559201767493416,-22.43134419783068
-7.411639964851316,-7.10512885926684,-6.9387745871366535,-7.1147186244825065,-8.792053307483807,-7.242264319371523
-0.26796943205009477,-0.637654149239477,-0.2461884342550292,-0.49242294704265915,-0.22990373347679705,-0.07758334906800744
-0.5963847970472698,-1.7343934987765166,-1.909609266930667,-0.8246691236438783,-1.1873995809463527,0.11720432197021068
-0.5132959347710705,-0.03636181074511021,-0.4805519799777607,2.647333879449909,3.0826182352682943,4.06537678863548
1.5327990114102106,2.390017678305405,3.007775579297211,-0.07703141600029836,-1.2232042915173342,-0.5849281845201626
-23.26227981025713,-22.687343407607752,-25.24445508790433,-25.303438653166946,-27.32831006743835,-26.8271594774201
-9.291149299637924,-8.538344403603169,-8.021117543427629,-8.948431414906977,-8.980392943279053,-8.695889051010086
0.0,0.0,0.0,0.0,0.0,0.0
0.0,0.0,0.0,0.0,0.0,0.0
0.0,0.0,0.0,0.0,0.0,0.0
0.0,0.0,0.0,0.0,0.0,0.0
0.0,0.0,0.0,0.0,0.0,0.0
0.0,0.0,0.0,0.0,0.0,0.0
-0.8314225519878077,-1.2506635059893152,-0.798819100521968,-0.3902313712497324,-1.2631835345002531,-0.10845865420697934
0.14338084123938968,-0.7304102233446278,-4.594035662314976,-1.3184441027771392,-1.6259008231431757,-2.370998258536833
4.949573463958031,2.7739902079207717,3.5055828197971213,3.2277242239328454,3.6926712942467086,5.530759104082755
1.0481192377705655,2.8875284349371344,6.189337162888964,3.3591917099626527,3.882532145618866,2.1577620622410403
-28.704543747424317,-30.964515757741417,-31.673448392700887,-26.248372504240397,-31.281619431908574,-29.31639274363728
-12.350434024633756,-12.076308296017,-12.197541790511934,-12.592680019358525,-11.89655172032131,-12.292742210232625
-0.04457030681977323,-0.26453888802727477,-0.3593785499810518,-0.14524433363825578,-0.39371793280604883,-0.3076258781849872
0.8193507437569815,0.5184353021746239,-2.890279589457161,0.8925045783098364,0.46088681049819397,-1.0501634145387222
6.046460001789582,4.461868219568699,3.205287429747417,0.1811769743786652,1.257687438138711,4.7873410493469315
-3.8652028056435386,-1.6733745843067442,1.3114962093053666,0.4064156015271934,-0.14141048641043846,0.7543440304265938
-41.753246046064326,-44.40844789805758,-47.29311082768799,-39.38842287039626,-41.763046033599814,-32.329949693943966
-16.371174801577247,-16.033230109483526,-16.833727919825158,-16.968392436840148,-17.37261839911676,-16.306147766733552
-0.14792775106896344,0.018759592911194358,-0.18592682001816735,-0.027270203849901822,0.03257362321805822,-0.11660964849756955
-0.1639397684716046,0.9378403345808964,0.7969325378651527,1.3207147517817988,0.06988220587633114,0.03903902347035624
3.5095657473223363,6.198524923199513,3.2545996366719585,1.7285330277458377,1.6105536443947084,3.626580673121759
-1.2772215696614417,-0.0048146986820587455,-0.717891441947814,-0.576189586368042,-1.6131909852068889,-0.5596299378047994
-35.70135811750181,-36.43406807722819,-35.48678135631837,-36.6955025296115,-30.55777505347201,-33.98628322539915
-12.899102045763039,-13.80987523806732,-13.549741904080566,-13.32099245753581,-13.154741034819116,-13.416891522852062
-0.034870333083334086,0.17796039932455984,0.6218141698951574,0.3014764282112847,0.06079042989147313,0.049923382272284836
0.9725986185505916,1.1954570889593252,4.284237926165546,2.0606486239581208,0.2410873579466328,-0.2557815542905223
3.0888831672482495,5.074958454173975,3.30628851713579,3.3197270542929807,2.816037170591134,2.3644851956752317
-0.020709728438861926,1.8897991322804653,4.792729875772165,2.138049722234592,3.160788307550499,2.3065015569115097
-42.53725462305566,-40.19513101885696,-38.025336861612935,-38.477724681637405,-34.644550839736496,-34.85474376853429
-19.78059421589822,-18.546944685283187,-18.991480859664723,-18.642326857705747,-19.428979263608213,-19.514355421278882
0.011229228367159911,0.06277585065419725,-0.8861238403198921,-0.1261714343987485,0.17699379533472775,-0.0835751733145939
1.8814409668653913,0.7056111711086097,2.705611557529826,2.880319832470426,0.306000087754272,-0.30252365501897105
2.8030853874050163,1.12747852213042,0.7435407135241434,1.9857626429842592,1.816930277731035,1.893187374068471
0.17217068959752993,-0.09958795319452542,-0.6638167556596327,0.6855210913652997,2.5982414425060236,1.5988435701206503
-24.995912768223786,-24.127891684859257,-23.564344097963964,-24.585309469906754,-23.52815733166416,-24.563118097263363
-10.331869870024853,-10.261622857329968,-9.849170674516932,-9.606006075304878,-10.171547105514263,-9.943903857265227
0.06666069628389432,-0.20057050498814719,-0.9126619635404604,-0.04503743682155866,-0.27384165290020895,-0.4135749813337804
0.23819101776777687,-0.06168330706817017,-0.4056660612472121,1.1589948741309888,0.5002151447700036,-0.5765597407053638
2.7278815619367376,1.2215438153899936,0.2999127661154758,0.814364727513498,0.5162470669045867,0.18012948073065946
1.0532380892346513,1.0349772664017698,1.2593978757541116,-0.40594367322866964,0.44936049919631127,0.5678142748275877
-9.476238690087232,-8.480885697120787,-8.275100290981506,-9.191960307330083,-10.405788001241323,-9.15254130185571
-3.004551724933951,-2.792716530293619,-2.8530321051102283,-2.791369411787254,-3.5917600752096184,-2.823602391086955
-1.1696913847707089,-0.8309371384051706,-0.557866884864664,-0.42352354955676247,-0.8637633997167352,-0.24884804720900122
-0.8368256373698568,-1.8968139514032147,-1.7573237300748932,-0.7881568797894919,-0.034313126835107,0.26729003465813095
3.2747532940596034,1.2360181579640215,1.691112683254413,1.87071235187409,3.4148400853629823,4.288197864050038
2.983237984368777,2.0260729311328722,4.631985208966389,0.6834057087650752,0.854752310113866,0.7483013593937373
-17.080188097374783,-17.67684819411591,-15.390051876739067,-17.81573428925638,-18.305269507822736,-17.47043580025654
-6.1124699323986125,-5.127509363118881,-5.266444049860807,-5.736903921307202,-5.6433820686418,-5.592697192486761
0.0,0.0,0.0,0.0,0.0,0.0
0.0,0.0,0.0,0.0,0.0,0.0
0.0,0.0,0.0,0.0,0.0,0.0
0.0,0.0,0.0,0.0,0.0,0.0
0.0,0.0,0.0,0.0,0.0,0.0
0.0,0.0,0.0,0.0,0.0,0.0
-0.5764958763049987,-0.7531742794337901,-1.0987867237930515,-0.4912984675404753,-1.372542260558338,-0.7726618703004972
-0.39321653809514373,-1.0446424083261128,-5.280848654105503,-1.3123001119416813,-1.159168862904372,-2.069315217476005
0.48269993969677755,0.37472395259628677,-1.1864864484926545,1.5065611551832816,-0.3382962101363686,2.1850759126862784
-0.4976208232500946,0.044700222970300255,0.9810422858708302,-0.3421975057118568,1.0890316830461193,-0.37482126774665453
-15.276407696099703,-15.721850082429697,-15.866700270548252,-16.154973813578437,-15.421152774000928,-15.484237580723773
-5.346854621354231,-5.124755841429089,-5.233236767095886,-5.3165071121790115,-4.9919053922849255,-5.33550976821775
-0.2422163546679475,-0.607137431785184,-1.121672640109848,-0.8108114171414331,-0.3495203622910053,-0.4935937407505431
1.5932687879144596,-0.4514070646481509,-2.0762154190076703,0.3783027775685357,0.28400883478711947,-1.1434222502335736
1.8112851361430728,2.7388031208894708,2.3457534461938145,0.5928438962660626,1.2313884990348491,2.1454781804811787
-1.7410209374447672,0.3183538443483434,1.1053808238402854,0.3532047031459216,1.9137988455964365,1.8386766542298532
-17.74854986743055,-17.090381070698484,-17.739918541016905,-17.581942457239652,-18.202868752044463,-16.652259056815346
-6.2948266387369864,-5.815600253509412,-6.488352923340732,-6.6354804984597004,-6.686784527121239,-6.146599049864578
-0.24832819558531383,-0.17103741805082492,-0.1537890076701452,-0.46202795551054254,0.10811797992426453,-0.015609982950007218
0.741801354184236,0.3634626958979332,1.176303773252877,1.210566300687556,0.644436377206593,0.3939251158733845
0.9823112855302865,2.144795025388879,1.457066997865576,1.1685417469060002,2.6840896554197036,2.167427210083885
1.1215887291415945,0.6689155758351,1.1948665162811596,1.439968698658178,1.2191728554645913,2.0885489221333144
-20.354833771256185,-20.64568570443747,-19.360860855358506,-19.923993178369678,-18.829426029636675,-20.41123504927522
-6.941334281874401,-7.675428055817027,-7.505761251662613,-7.3758034643748385,-7.2719469350909804,-7.373251095551435
-0.08160797864152691,0.020168967606330124,0.04752432156926955,0.009838515443331985,0.05440193503475263,0.08577699862069392
0.919128434355946,0.5452698599347422,2.3435927534414893,1.9255414401026154,1.1238846439625247,0.19179285298220095
2.1926683819329966,4.700892566081194,4.123043501348303,2.5436282829900234,0.5416822505427494,4.545287683656427
-4.183157337991148,-3.9323293935277825,0.6404230362405692,-0.042504300460844434,1.5724264264741663,2.8384458838801003
-51.82684046457008,-50.49371876315699,-46.65602912361792,-45.45160892985592,-42.72527756228797,-46.97364918484853
-22.692780530791335,-21.917134302035876,-22.414649989140784,-21.946765465883328,-22.57487767867218,-22.522935100447285
0.03553962331690253,-0.007464776048054371,-0.07509777481133478,-0.18410902436830118,0.07234583800081534,0.2428161181489732
1.1970447605087986,0.4549740564812571,1.0981964371854473,1.1794290643817107,1.0077642119225318,-0.12245089102692891
2.88805189370728,5.694043493951087,2.532651269650698,4.883621339049837,3.400234187283956,8.643062376375536
-1.3018323779437793,-8.290697198738723,0.4047553946041526,-3.4062847034999506,-1.2931758310817678,-5.18902945495557
-45.38096230996197,-51.862631301965614,-43.665520661948946,-47.366192173544576,-48.04385612279717,-61.6047149584415
-22.12605693788776,-21.93879011692418,-21.183033702004327,-21.232798094455045,-22.338653025554734,-21.51067596284585
0.11536284131327175,-0.09696814794567576,0.018679384442953136,-0.1485951616309145,0.0019492710542020437,-0.10900640807827743
0.7171595845422472,-0.013970592215222686,1.105465539889493,1.081526298201104,0.4311075138998412,0.655395333127182
2.163021899664637,2.598230972859981,0.5265184321442355,1.9724619838399284,2.2055902525392743,2.1518788038229433
2.335167023719036,3.831549938525654,2.2964043257539006,0.8547874067305758,0.6695984290884621,-0.4799512750935406
-19.73021119631348,-18.929182799329734,-17.758660181009002,-20.666449240096636,-22.90407924364221,-21.751773751589457
-7.734837622352996,-6.840578936732214,-6.957530346187035,-7.410489182362516,-8.603209666668459,-7.3331832514145665
-0.3572034960010789,-0.6465872737909916,-0.3275769338330416,-0.22512668316961107,-0.679762054090744,-0.3131247315466986
-0.710015038555876,-1.7963811204068807,-1.3630321129216285,0.03947338827873156,-0.9518446820336045,0.7945899641197423
1.268125769170514,-0.03239193886010971,0.7084457737092071,2.2616132175002734,1.2281127198579351,2.0588434491957033
1.4380476370435196,0.6771995007481288,0.5508147302780815,1.1025196793615923,1.2440751837827366,0.01422276673643271
-17.883998791884153,-18.43351299138903,-15.711839111382458,-17.671881237785282,-17.15102932809811,-17.303030021459755
-6.700284851694829,-5.662424372167979,-5.493306411653354,-6.140801435703691,-5.718625516086455,-6.051031152106706
0.0,0.0,0.0,0.0,0.0,0.0
0.0,0.0,0.0,0.0,0.0,0.0
0.0,0.0,0.0,0.0,0.0,0.0
0.0,0.0,0.0,0.0,0.0,0.0
0.0,0.0,0.0,0.0,0.0,0.0
0.0,0.0,0.0,0.0,0.0,0.0
-0.6521568765776485,-0.3079839842689041,-0.9484012043861639,-0.30029408298821936,-1.2159478362376346,-1.0648118474562458
-0.9540204970837536,-1.5072190349384333,-2.9489606667676926,-0.193913906158201,-1.4755793341142753,-2.3003065419201025
4.192897296619451,2.0182843914631308,4.114728237374309,2.5938943366691047,1.3604082069064412,4.75536190876926
4.161251101836611,5.542959235589855,5.217791496136165,5.026483895284643,2.8086296425831905,3.999698244256197
-31.117868131971306,-25.457927408166253,-34.159776080545214,-28.884772594191116,-33.20682435423138,-31.990517605979242
-12.279066384971573,-12.134533272371394,-12.33469503372018,-12.55203954204264,-11.941519979595684,-12.290066839889331
-0.11661368117994762,-0.2749531294196818,-0.9727724368148294,-0.14205547705373928,-0.6079853767203842,-0.479973012464907
-0.7031066479328976,0.12146637140743674,-1.831236249066044,0.43555692122120276,-1.233522576097743,-2.0808309856420775
2.7520902198531316,2.6535707866973537,3.06885309486481,1.5873577366961353,1.3400478168174246,1.541510117904212
1.5046753377982756,1.4445835164398964,1.209450222696424,1.5146180068558392,3.1987887155044357,2.5353160101981445
-17.42084666406903,-18.136489390671038,-17.64267716242449,-16.28776252989445,-18.38193480852605,-17.487172008191997
-5.483995317331171,-5.475746673788632,-5.791778936066367,-5.870277589227723,-5.925656887850557,-5.560271808864532
-0.32531179833729096,-0.925289556595048,-0.9942510876224675,-0.3887406328984917,-0.004990880846628451,0.16432936210456325
1.438213589060218,-0.11652586555056177,0.010126060663206708,0.3841600621952318,0.2740646018940666,0.7005789293012978
2.6405985409954758,0.42079985508495643,1.5118807413836992,1.1868146547792942,1.7240409415613982,1.3823226659659615
0.5359847819132295,0.3514948650178701,0.9258738653952978,0.7477375080705744,0.6145865268618115,-1.022571828113567
-9.184372920165085,-9.324248990558482,-9.430845809245398,-9.327609227433513,-9.061905345629627,-9.545129230833318
-2.7025202934887953,-2.991492145973017,-2.96657490136335,-2.8127573304920954,-2.8388881490013875,-2.6787190632787548
-0.8768049319656814,-0.26220868355640914,-2.228810541122306,-0.18390303784386292,0.33388956277313825,-0.19943388939312545
-0.01754895429361578,-1.1596592368391974,-0.6254210628133593,3.13983064389469,2.2065318297201135,0.7469790429891372
3.2241340214113583,2.9648744246651977,2.0542718657934156,1.8399423939169162,1.1031361182127735,-0.26599672985424777
-0.4777433651190171,-1.078589322227397,-1.1148971641102687,1.2745673617912443,1.6490996415605315,-2.0913132321828662
-25.680739053095405,-26.5957028201546,-25.68486653401326,-25.497670913930246,-25.785338007328836,-28.63238102007664
-10.415051953913906,-9.724024143664872,-10.0674895933011,-9.751959932751799,-10.149778388236449,-10.255201752533004
-1.3186769986617803,-0.019583559612597713,-0.6735848515208661,0.04445219948280071,0.06029525074022255,-0.10946749607083299
0.20229753010006407,-0.4923025544853997,1.310936389283549,1.4048176319364996,1.5286157424330522,0.23814745116165822
5.413399182399649,6.044057561430151,4.605549299278191,5.1773737275629275,4.653403740689258,8.030224725604809
1.2960231976738028,-2.714997654575875,2.128312768038524,-1.046084021869504,-0.0267058288397069,-4.700373696639744
-33.91773205501167,-44.21055999038942,-36.87066415537841,-41.69158401387599,-42.219076406521495,-55.60616376007352
-19.086756841823917,-19.030499548613054,-18.361495720312615,-18.195438289624022,-18.89957875900383,-18.491304269942017
0.001709475789041337,-0.033758975768106894,0.02725702135022826,-0.0023431252109991775,-0.0058645295894040085,0.05877742609581361
0.09607791960423236,0.03902313593698714,0.9125773142129439,0.2420149996796436,0.2431381437598923,0.4127324923340213
1.9579206503613824,3.0010155993392464,2.261382851181587,2.3153755649468026,4.060602988668689,4.498205464534715
-4.378248697059734,-3.3194572248745273,-0.7280147729139843,-3.0519622245782805,-3.423663793927939,-4.450031275397209
-33.71860462968904,-31.957710100450235,-36.66814646072828,-36.495412897802936,-43.31081863152413,-44.66127969712899
-13.668462364979264,-12.545385738537957,-12.309161878859907,-13.25105305701096,-15.57456458864744,-13.339138670601566
-0.3972024978959248,-0.17418019706104634,-0.08057304633592463,-0.10401435003966782,-0.3217464401395703,-0.23375464481450337
-0.2630559392330981,-1.7622006744807786,-1.5750962462546962,0.6281909752754213,-0.6576377187130535,0.4839664560555843
5.838112652837767,3.0535091773392264,6.572529025930649,3.9915626776175404,4.643590370705717,5.235506918702047
-2.2187667712674077,-1.8943347984200314,-3.170689502508293,-1.2306321074663091,-4.6718203917805905,-4.056889941500668
-42.78521628116063,-37.97183406301924,-46.563871314896154,-44.49323151452735,-48.12651012888352,-46.19551069056877
-16.977024506686288,-15.76145587878642,-14.434529768900541,-16.22423276709899,-15.970707740866413,-15.951237811890348
0.0,0.0,0.0,0.0,0.0,0.0
0.0,0.0,0.0,0.0,0.0,0.0
0.0,0.0,0.0,0.0,0.0,0.0
0.0,0.0,0.0,0.0,0.0,0.0
0.0,0.0,0.0,0.0,0.0,0.0
0.0,0.0,0.0,0.0,0.0,0.0
0.0,0.0,0.0,0.0,0.0,0.0
0.0,0.0,0.0,0.0,0.0,0.0
0.0,0.0,0.0,0.0,0.0,0.0
0.0,0.0,0.0,0.0,0.0,0.0
0.0,0.0,0.0,0.0,0.0,0.0
0.0,0.0,0.0,0.0,0.0,0.0
0.0003986662694133839,0.0514786736243395,-0.26493439537813385,-0.027131036829931683,-0.11921048160048067,-0.3343669701405886
-1.0925009626765696,0.2786280749192079,-1.95474977772744,-0.19461270522297966,-0.5407582032706436,-1.4913267917072557
1.2335679226950975,0.4514942774517865,2.6676830264506783,0.46539401999730584,2.604234190266358,1.6380914710575527
2.06647263607264,1.0187756660450198,3.2025443181131057,2.634780003149235,4.077901121197519,3.9486156908219767
-9.746732398594714,-10.280581355663386,-10.218790643788358,-8.265743337571909,-10.142859296294366,-9.526201870818165
-3.3011172513884235,-3.327378698193402,-3.4363110551032143,-3.503942769611146,-3.560240061119756,-3.3433330737607534
0.0,0.0,0.0,0.0,0.0,0.0
0.0,0.0,0.0,0.0,0.0,0.0
0.0,0.0,0.0,0.0,0.0,0.0
0.0,0.0,0.0,0.0,0.0,0.0
0.0,0.0,0.0,0.0,0.0,0.0
0.0,0.0,0.0,0.0,0.0,0.0
0.0,0.0,0.0,0.0,0.0,0.0
0.0,0.0,0.0,0.0,0.0,0.0
0.0,0.0,0.0,0.0,0.0,0.0
0.0,0.0,0.0,0.0,0.0,0.0
0.0,0.0,0.0,0.0,0.0,0.0
0.0,0.0,0.0,0.0,0.0,0.0
-0.7624561845475583,-0.020213040293043785,-0.6792439389887152,0.057623730771719006,-0.21173081310806677,-0.2823448136169954
-0.8233218459688654,-0.08997999005131879,1.5023435680577852,0.8872238469570489,0.3714369896394586,0.4764591657232294
2.3977994131299836,2.439359314635365,3.366327075637437,2.3963044776450735,3.3994469765132567,3.3277778040360984
2.3612731334745303,2.0612141507872166,0.3075945599883053,1.7559700747208822,1.9010378518742044,2.027813723809464
-7.513591170802297,-8.712019010833988,-7.963500590695163,-8.629898133205785,-8.15900376000883,-9.034141783801717
-3.7103633040567487,-3.7334283507384267,-3.501981999064295,-3.372356786052201,-3.509118609481096,-3.535442544447116
0.0,0.0,0.0,0.0,0.0,0.0
0.0,0.0,0.0,0.0,0.0,0.0
0.0,0.0,0.0,0.0,0.0,0.0
0.0,0.0,0.0,0.0,0.0,0.0
0.0,0.0,0.0,0.0,0.0,0.0
0.0,0.0,0.0,0.0,0.0,0.0
-0.014355202101411913,-0.08647080816183786,-0.11042062031192464,-0.16394511594384706,-0.07676477806104809,-0.045747160228000995
0.01886393359710524,-0.619306177169297,-0.484017339675379,-0.15285710479415626,0.2580495251942776,0.1634519929123554
-0.1597013527566589,0.055595549318222345,0.7251052919620916,1.7640304862052354,1.8057762904836285,2.1564976962764555
-4.625780799763024,-4.174846348546017,-5.444860039447269,-2.6620090797319858,-4.6106702379672795,-2.5827750819209787
-17.622499959107227,-13.869451060781952,-21.378821439438845,-18.832342738211427,-20.844440655994287,-20.288635070103737
-6.932798667512431,-6.497561697416823,-6.004087343855198,-6.717395895356223,-6.640819892833508,-6.564448674132031
0.0,0.0,0.0,0.0,0.0,0.0
0.0,0.0,0.0,0.0,0.0,0.0
0.0,0.0,0.0,0.0,0.0,0.0
0.0,0.0,0.0,0.0,0.0,0.0
0.0,0.0,0.0,0.0,0.0,0.0
0.0,0.0,0.0,0.0,0.0,0.0
-0.48189833016286465,-0.8177418653522934,-0.43885109867408995,-1.155305784181409,-0.7295055186582236,-1.4162663801775208
-0.6665594772046154,-0.1588046867701487,-1.5257618902770513,-1.174077216029654,-1.4131308471678483,0.35642175757205286
2.669869461638169,1.0913497077122347,0.5697736700006079,-1.2001111660281458,0.6506603616122723,-0.2610653697254055
-3.048780212556971,-0.22743592837191512,-4.17545657429017,-3.787984869411683,-5.139131279536282,0.04278454246547694
-48.69212040237156,-38.187661687564386,-46.29652296535007,-12.448877752536706,-50.14674852048401,-29.92287508182831
-20.62354543490646,-22.37443737279268,-19.641438752253023,-22.769799705109687,-20.04849677531637,-22.488360949868497
-0.6033786518102754,-0.193637630103112,-0.22235887459302484,-0.12337579894270279,-0.4117591991970927,-0.2522894651039429
-0.14322355051394742,0.8808740424531211,-0.1408176047169228,-0.3099551236575964,0.3345590149358664,-0.022384975375267197
5.359762821533718,3.673502238343506,3.453634644116924,3.7225261353896753,2.680768283305832,1.3598844360942515
-1.4620232537653086,3.048143398110085,2.121036121842088,2.325607476116525,0.33998896469685863,1.195258813604612
-31.4405853020684,-29.31602183196164,-30.234283695961608,-18.412116139987468,-31.261380075983073,-15.768773963079031
-11.832352935351997,-12.00828525455783,-12.527070949439407,-14.009083893991857,-12.754969663013432,-13.090170133187842
0.030125106159316496,-0.0005153926571815456,-0.24739239929933463,-0.23058633440661808,-0.11013840617382428,-0.026533795262394272
-0.10183962044505503,1.508668288617909,0.9155721714374866,0.28252795720449053,0.16478658401123888,0.4935965181962476
2.3811812808132835,2.6491392890048147,1.9944112705548098,-0.0956065412151059,2.1486434488377184,2.2538054050543685
1.2168000666115826,0.5317109594947081,1.6939290133037945,3.0451803045294574,2.8342532273259486,4.082788936494354
-19.746313125724036,-19.12123986357464,-18.880798586052663,-19.20540626892826,-19.702615168581303,-19.786136823122266
-7.320510979009605,-7.711640348807291,-7.515756991068919,-7.28285296932708,-7.201104156295313,-7.531114643477094
0.3019166354770883,-0.23185136446007815,-0.626079597154426,-0.4087958249514242,-0.019566994307893024,-0.1737280153005738
0.26825179651001957,-0.3193310805904374,2.9326327038520055,5.26958836943919,2.12782746950508,3.0099638314104755
0.4814191493657775,-0.10938132915568878,1.4637944697481537,2.486051546820234,2.1486935815029,1.601095998469303
1.8117925368682146,1.0109406785255686,1.1375494712526522,-0.3266176899650746,1.3894899885129428,0.8001170430870649
-19.225873918602158,-19.698820383097306,-19.937760302201173,-19.42195629943103,-19.418210667027676,-19.514681310975593
-7.5608557594281365,-8.007648517962268,-7.432680313181814,-7.369265881748806,-7.58007797168837,-8.18316170592015
0.03227426802347524,-0.14774177907848493,-0.3402034236295045,-0.2885933673823951,-0.13214822812319899,0.25985895603426074
0.024402356578572607,-0.739068661790556,2.2361294031832166,2.057908834391241,1.502244657150308,2.753022530446644
2.594430271203033,2.2209090087519567,1.7126856010906988,3.654189436455517,2.7755550777198326,2.9597039034087396
1.7814251580722928,1.6278419559877424,2.220246568300378,0.49805829619273584,0.4268496542411741,0.8983815788043092
-10.839385111312462,-10.995223374922091,-11.003957416605335,-11.563612872604875,-11.143868763417169,-11.141034238786892
-3.862447950658452,-4.051442801627189,-3.8031165217098937,-4.124341206685181,-3.6669543270237677,-3.8639422033525093
-0.14800660333928933,-0.4162274803180734,-0.1801178709552333,-0.13144906142029805,0.060501970574329864,0.04548075156441492
-0.03252831950787937,0.2608722458409488,-0.6799712162297091,-0.801280671610929,0.6645697713964065,0.32807639650970305
4.451043764464071,1.75112962910994,0.1637984132985772,1.6776442754898389,5.87207748782596,4.566966311689356
3.2658874809111347,1.597320336536293,4.064143274791057,2.9270246953248424,0.36663110899700957,0.30244067739495667
-20.032852492740123,-22.26327505347517,-19.34269558819456,-23.167997277166755,-18.97513346287002,-20.262425126651042
-7.723807369912241,-8.254468595428563,-7.184436833961744,-8.496840633407855,-6.78596113888395,-6.564337486666006
-0.16103489935034623,-0.5344364755132596,-0.13722772808196093,-0.7209820599959328,-0.24829890418366946,-0.2592132539692593
0.2636277804017572,-0.029424335009334345,-0.9680169272879897,-4.061844644369955,0.05589000824350223,-0.15417777196219293
2.0181007129491646,1.1192135186922973,2.361192725449183,2.42646803083008,2.7864633195141986,1.9323017338216866
2.1830653963160516,1.1900605964745052,-0.5907149028471629,1.0743176713951406,-0.4055325580006613,-3.064362592901788
-26.093546113289648,-21.94503946970793,-27.655718106784043,-25.035954453844145,-28.0108143194192,-25.744097664287914
-8.86924840371886,-8.942144136882213,-9.193418365637402,-9.525944240875823,-9.483597323317777,-8.3714514501182
0.0,0.0,0.0,0.0,0.0,0.0
0.0,0.0,0.0,0.0,0.0,0.0
0.0,0.0,0.0,0.0,0.0,0.0
0.0,0.0,0.0,0.0,0.0,0.0
0.0,0.0,0.0,0.0,0.0,0.0
0.0,0.0,0.0,0.0,0.0,0.0
-0.2932542760396646,-0.8649374266345145,-0.5543860740748822,-3.5420839804560034,-1.6469344578678624,-1.0212683340604665
-4.562811796240722,0.9255749844716836,-2.2410858925656294,-5.936546832608736,-2.4858409160597685,0.11251074252495524
2.6688316963046135,2.0218936255216704,4.669779400338089,0.4442950895840237,3.5533086415399695,5.193067616024957
2.463210421338877,2.1987690037087613,2.7387348662798137,5.965119155108262,0.5444791307600465,3.7218867673386975
-29.42449981233924,-32.092461049538926,-28.714372260864685,-26.24262806339234,-29.450675048466945,-20.81563203226843
-12.048565407715934,-12.966368020217628,-11.20432340648126,-12.501628014437879,-11.517928401349382,-12.875025265630386
-0.3004843016146169,-0.521940822290325,-0.27425212422951967,-0.5011499582251348,-1.0589385978708368,-0.23153571702460254
0.8131895241987748,1.5464342021822677,0.8285727024167169,3.1136712772423536,0.48664591935647755,0.3765797244675589
4.993735124151518,3.5750532727639253,3.6828500717379775,1.6600736238526148,2.9855451751553903,-0.7659060941158216
-1.6469065091759558,0.6908735625547384,0.41480051399600815,1.9030363354382245,-0.588150149549886,1.128131004187394
-41.27988343024404,-40.357547189963974,-42.26804602886853,-45.92427546049746,-41.84255024346187,-31.567059109307444
-15.777572830185983,-16.316333249236475,-17.113999415344264,-18.870849300460637,-17.13074931485931,-17.769190211718687
-0.22384501562225023,-0.06840223212891176,-0.3854522068767499,0.040640618984866324,-0.6339597913698599,-0.3428207542143917
0.18723212109658963,1.0713076990532613,0.8847809962196486,1.1318334500826752,0.40970712622263233,0.559859809539384
5.173672356136303,5.073375433282253,2.8508259410766357,3.4515060658135157,2.2441406207888557,1.3430278996613985
0.4289391139621838,-3.0079012425471916,-0.4030908299617275,-0.031503497679924,-2.0790145751192575,-1.074291598804643
-36.002896123601225,-32.421525373945755,-35.147482583333904,-36.60010015692431,-34.19357750735543,-29.5748544972549
-14.000191153167592,-13.659493454447599,-13.60995661114588,-13.73866804589371,-13.602948473043302,-14.165355629623607
0.07138460347091626,0.040312938227872686,0.0031249249866575827,0.21592356646962313,-0.012100319615663668,-0.15244757159670555
0.3643441984519622,-0.05982816703318324,1.692239421853532,2.3470672921750797,1.064245547716055,1.0035845008701823
4.697586338229777,3.997871451634168,4.765401545620874,2.3347473230306255,0.8780631979224631,1.3628497379306503
0.37419329445603405,-0.47684440966963715,2.279983415290171,1.1816942218834683,1.5715117553631837,0.15727802139919733
-41.82664169483813,-39.72547942026666,-39.23815786457936,-38.59250196406263,-35.378610724012184,-33.858593932186764
-19.263520133533138,-19.91424797831799,-19.195019680604055,-19.083571348496555,-19.01868735750752,-20.436682936768893
0.09203804478014838,-0.008425452525368419,-0.1892584609408474,0.14575285090264864,-0.12481018972384036,-0.26439379027804494
-0.40876237066777127,-0.7005926248380916,1.5460202811096035,2.9095588771228202,0.7134091604074911,1.812009105326158
2.34172223529673,0.9605519575058531,2.9060374976259005,1.7454711290162994,1.0778143658891155,3.195568784264981
-1.1086782330700702,0.6077632378684281,1.2605158556564218,-0.5191239162996071,1.0476511663351198,0.7524321893859437
-26.37783460383769,-24.612686434618983,-24.65336792730975,-25.874678178127255,-23.635273865690912,-23.152762607586382
-9.833707608040656,-10.280566646820343,-10.026395242438113,-10.657000506969654,-9.706632856771924,-10.017323470782125
-0.5410869147776407,-0.6106775415385185,-0.007438840465448949,-0.0464398505704018,0.10056911879014452,-0.18305679329993932
-0.1671826760790696,-1.0358884178334957,-0.12285804309961722,-0.18144727324529752,1.4543860220143554,0.2461453128172916
1.2922046301156398,1.228610264922942,0.8877165939499642,1.2921118288215385,1.3421209206425049,0.2700080874686928
0.6357802869223266,0.7752980268927223,1.044583581400669,0.13080018207395497,-0.3331554629084816,-0.13131244191333197
-9.130486838098708,-9.731630776517758,-9.04150480053583,-10.088276799797814,-8.789520960893526,-8.745146944399655
-3.136712556396279,-3.2791451775011544,-2.845056949285624,-3.652463222772271,-2.8193259974613585,-2.5849159527129553
-1.200835005278398,-1.1048539334795386,-0.02167909838081922,-2.7824474391125147,-0.7123708633397862,-0.5255706376863192
-1.966276468634508,-0.34491204708639267,-1.5298631466228865,-4.503342206643221,-0.5598049820285935,0.6441757051635241
3.012105766685771,2.822271175367071,2.640468468607757,2.4376808147206446,2.5057389916305572,4.475174340737556
1.7809047447428576,1.1149962467743528,2.1745476875893868,1.117006572521892,0.4282487368891742,0.010482521677693207
-17.453791014373905,-17.49151002208365,-18.818947008477636,-19.010525226171072,-18.45844303168729,-17.1270515577088
-5.719393452885819,-5.676421773185979,-5.751693083830763,-6.228808900956862,-6.195185061592167,-5.074021345427462
0.0,0.0,0.0,0.0,0.0,0.0
0.0,0.0,0.0,0.0,0.0,0.0
0.0,0.0,0.0,0.0,0.0,0.0
0.0,0.0,0.0,0.0,0.0,0.0
0.0,0.0,0.0,0.0,0.0,0.0
0.0,0.0,0.0,0.0,0.0,0.0
-0.5607594008626154,-1.4493314124524816,-0.26333394659522436,-2.069792350862313,-0.8288839010404806,-2.0387724959586024
-1.6249298828855803,-0.9912562146611593,-2.248188672462395,-3.1347277206945106,-1.101676921932131,-1.1037894446255003
0.708816216015114,0.8027555231967519,-0.46375409760203407,2.771783735764823,1.0222805343184203,0.3080893744572188
-0.3724508951572103,-0.4244014022999368,0.2612189834231993,-0.3701280148396274,0.2851557920256844,-0.6560202945422586
-15.235545140774299,-17.087688791187087,-14.90596341286313,-17.920320390611078,-14.974928640335005,-17.07367703502259
-5.251515495573148,-5.406114057914607,-4.519312611497254,-4.554734770439284,-4.739932735062203,-5.322302157055902
-0.5488325311141061,-0.9552669566941887,-0.08899859911041062,-1.3808193400568436,-0.7748909513714267,-1.0291062213505218
0.5789101390990748,1.1175945365357365,0.22680717852979063,-0.23054759971234265,-0.15100010445323397,-0.4029427066033357
1.5834368079260437,1.2232336282369258,1.4194100216375571,2.4704814338007393,1.1303835478218807,1.167177183402898
0.5404266971498846,0.44610783956915806,1.1015591558671907,0.22951440614470495,1.5403317563537524,3.1375145340268853
-17.144374018590252,-17.37599114533179,-18.39791680529342,-23.762153136344867,-18.158642775013092,-19.853556968748677
-5.625648277331631,-6.074434587967927,-6.5728922797508424,-6.719347299297463,-6.2507242558598834,-6.362549851925613
-0.35644692187616,-0.19236146021803802,0.07598329280323635,-0.21196328403089493,-0.24978737273792478,-0.3489133306025309
0.359846846066021,1.2410879859396915,0.9646871893504352,1.8585793976358063,0.5829882010916966,0.5589772226820658
1.2378706244562017,2.5095586528710805,1.499892436871142,2.18505901525146,1.6578260782304206,0.7506857158514831
2.153415829855632,1.9260045995112998,1.3138019525215225,1.2745086833854953,1.889376075494584,3.754784906790205
-20.98160039532003,-17.937018125218106,-19.91731495704279,-20.82129686605506,-20.651123474752353,-19.217182094536707
-7.503672426817505,-7.271230438508214,-7.753476652678124,-7.65768498614289,-7.6997606009895225,-7.524597846052259
0.25202801608470665,-0.11375569285423932,-0.01287872910181879,-0.13438417467069722,-0.016409824190059125,0.08407371761833583
-0.3957449449536844,0.058202094903906834,0.6876186879743933,1.4107641340781147,1.5207631554703356,0.8648413094397501
6.085735431961741,3.668325223065521,3.9972662773391523,1.7336557218640118,-0.5642391290700366,0.31551039460630476
-8.105992080809582,-1.3347079969143665,1.360187483101085,2.1667609993514603,3.369786023005579,2.1252758427498355
-60.92283152487119,-46.400723187096176,-47.17886344439821,-46.20892640952856,-41.43634299766648,-35.10216473793499
-22.02016750020021,-23.086874768585666,-22.653032034499287,-22.51196726928928,-22.073069990503015,-23.301499795299865
0.16224288104999074,0.005987298327861422,0.0343635360797445,-0.07080880682551802,-0.1114338615250475,0.10962835049232506
-0.2726163793922348,0.5265761038240727,0.6827165098560899,1.715106114843872,0.5503639738325158,0.10320274842143458
4.96037464991069,2.611687198479444,5.159668302592657,3.8337059967612452,2.648046191630848,5.013236884354834
-10.088955198828668,-2.1439684597784954,-4.27118093107654,-0.057620727691178944,0.6784515215410222,-4.905115576734589
-63.00831717394229,-47.348340224701,-49.16678052872247,-49.90680047989023,-46.86710713663264,-44.52820596025168
-21.4110097632345,-22.412906877295775,-21.690835250270364,-22.982102672369937,-21.416997388860768,-21.66486415928551
-0.3262122774702131,-0.12408567744427226,-0.26158017610402917,-0.08906110712803106,-0.013104990509387071,-0.31022046427324973
0.724775177633187,-0.305089826859645,0.6667857417399784,1.403988116261492,1.0509598494661458,0.36706371641303676
1.902120892090622,2.158528184065149,2.1123216042848423,1.8363718196190857,1.485735447151569,2.4714260971270066
2.9718091364964523,3.7302493273027193,1.3107486150459986,3.9212763225057383,-1.298966777740075,-0.7101997897239318
-19.981867864602783,-22.16564443730483,-20.53987308150726,-23.150613332571613,-20.33316434755034,-23.186957266627108
-7.616892152512987,-7.938678217401097,-7.655315083065662,-8.735791677652854,-7.540505773777274,-6.751458997371121
-0.8515698550217348,-0.4192299982272053,-0.25815435568407796,-1.4912377898469187,-0.5544603892752482,-1.0425785422032376
-1.6975733407658773,-1.7224912321347434,-0.49580716498269545,-2.1139898337223118,-0.3712309269999014,0.48616872404098427
2.1496611245761215,0.9140713210899991,1.3717541563945579,0.9755696284002745,1.8083317083642318,2.456144785581602
1.3350630125312302,1.6253905719172168,1.8234636497739798,4.25185962585056,1.0567706762738676,2.109425891473606
-17.62869397416652,-17.715272246263957,-17.728239059930242,-18.091138129517702,-17.861635518727212,-19.271177471479493
-6.092550660833461,-6.1630649361956555,-6.038246960097393,-5.931019472771587,-6.58924406636118,-5.739054809843872
0.0,0.0,0.0,0.0,0.0,0.0
0.0,0.0,0.0,0.0,0.0,0.0
0.0,0.0,0.0,0.0,0.0,0.0
0.0,0.0,0.0,0.0,0.0,0.0
0.0,0.0,0.0,0.0,0.0,0.0
0.0,0.0,0.0,0.0,0.0,0.0
-0.9684741291769796,-1.3132375284119266,-0.25756353612099264,-1.9494591600504503,-0.6596447034839775,-0.8262097498309232
-1.2898712222239415,-0.616404055551393,-1.420887695777667,-3.1182412621307103,-0.8573571080414238,0.4337964070858854
4.381507366764256,2.2531184710871877,3.3633603007660495,-0.6779336503811895,1.6972793942523945,2.4832936218466686
2.613780108494575,4.2926442456034275,5.311773185231564,7.51141105420603,3.1017485164695286,5.817015150446188
-31.826248813508702,-26.554189165473133,-29.433410307916954,-28.09281352504374,-31.851546939993746,-33.46586367102272
-12.043944218102874,-12.737518826708362,-11.261916652290767,-12.085590185639626,-11.351196950714957,-12.832828647029066
-1.4617049124417598,-0.6790756724065177,-0.44997407200925926,-1.7636962918586983,-0.29066621855440977,-0.31709455742728665
-0.7733430902280849,1.3536295972762722,-0.585794248923148,-0.8225063051891461,-0.28308494496655845,0.9677954032346346
2.4699745777501754,3.448937243682882,2.598579183019609,1.8654116997195573,1.946159048319836,1.99889341884565
2.294818544027278,2.4456165031375536,1.781475233831928,1.4731448390457793,2.390414055705209,2.271121851135389
-17.975337154734813,-16.85035855032139,-16.83280996639755,-18.341615881144858,-18.065406170846718,-18.521111017874357
-5.067778460022091,-5.4533038845415405,-5.889759025265137,-5.983009655473359,-5.681059969676448,-5.62752161581062
-0.43972820529295864,-0.016641427163729055,-0.187645116175303,-0.5344826388519623,-0.06158104259772498,-0.2162223291357461
-0.33191983923435825,1.7323517037136948,0.710790366270367,2.1115095769607435,0.30005150433712713,0.8171510479142713
0.8102475387759954,1.5876938857169316,0.9436051598271911,1.8352864215438367,0.9189546829662552,2.016445771972122
0.5390188227622156,0.3716499630697782,0.42381914818088395,-0.23988503385056692,0.14808146815062787,-0.688543676539677
-9.659002315988385,-9.158882393148888,-9.262553412742145,-9.73061694859573,-9.508640871051186,-9.752326865276302
-2.6958654876836743,-2.964201723669869,-3.1880487115489995,-2.854250878100812,-2.8578304219466864,-2.762472651498407
0.4092787962454209,-0.37385757831120014,-0.45452116593776426,-0.24015806051287208,-0.14897014625983226,-0.526477547014255
-0.77446863448285,0.5806753865118557,1.2980560235713317,4.497407126940705,1.921477491319338,2.8752553965377516
3.970958531585751,2.0826465419679936,2.8802646949640778,3.3598752523657396,1.3554192072874385,0.612326651141919
-1.4609328992775985,0.5882544913837767,1.7320351177381434,1.0813672301862425,2.921319373932322,3.6746721221942678
-28.96023220843388,-25.7274731422528,-26.260835881193195,-25.464437622405807,-24.56900146004599,-23.20795797315961
-9.885864183687314,-10.555165791577453,-10.277368276668396,-10.054745341291541,-10.220590502182327,-10.719060676191544
0.13815249207826688,-0.005836783092439948,0.05672718754134891,-0.11258199388382037,-0.10175469176341592,0.37297158555327126
0.05279335183322838,-0.07914146915747873,1.050883039121849,2.8662428447940256,1.0683997721617786,1.7783709885121906
6.124673048880328,4.365162430486111,4.459464572793592,4.755952191961735,6.204974835556111,4.500456983561259
-0.36368606443727636,0.13380811148199323,-4.360070061104501,0.043575230419942164,-1.1216864591017386,-1.186807003321229
-46.61991258717408,-41.15561036209926,-41.82359559524389,-44.670065530622814,-43.73869463207367,-43.30370375625425
-18.455025751527078,-19.13492020660196,-18.6841290419558,-19.691524300652745,-18.13150096943846,-18.670341996970684
-0.0830829191171738,-0.027741754503784757,-0.37557799210276294,-0.7121148920471959,-0.05314449295968714,0.04408221897242823
0.41622602988924295,0.13979492532704826,0.558893435100961,0.8665777508613652,0.33569465052288017,0.5251056508394939
3.398673589077955,1.419169803218751,2.7622388084109812,2.865197313207356,4.948381648147604,5.808572899172031
1.1878694384869508,0.05559597707014632,-4.412534475508548,2.5716422404163874,-4.779814623692824,-6.723058701665081
-35.37294841934755,-39.89049053475387,-35.87788161665093,-44.21838901082627,-36.18718117051395,-43.187194565952844
-13.544220190794999,-14.5901377223312,-13.441461790103846,-15.365479228654227,-13.089534762464785,-12.234446246705694
-0.24542358955602717,-0.1332206461041686,-0.4358809978540565,-0.929754931403098,-0.26803123801762907,-0.4886660109147685
-0.01985939158243249,-0.4924352959527895,-1.050720303166539,1.320569590505083,0.1915496683933254,1.0849796797991795
5.073135635477135,2.202884820514236,5.128950206799397,2.24180152672057,4.337821090270256,4.235625030699009
-0.5838551099672338,-1.5736191472828644,-2.8020570687926782,-0.34960371165463167,-2.0434850832273357,-1.965370821928888
-44.977892922023194,-36.101614430014905,-47.36847941467427,-40.99672951819359,-48.248540379486556,-50.48184946184613
-16.081576323359922,-16.549649145011806,-16.27879162077531,-16.659664168623195,-17.20492791432578,-15.885669350903415
0.0,0.0,0.0,0.0,0.0,0.0
0.0,0.0,0.0,0.0,0.0,0.0
0.0,0.0,0.0,0.0,0.0,0.0
0.0,0.0,0.0,0.0,0.0,0.0
0.0,0.0,0.0,0.0,0.0,0.0
0.0,0.0,0.0,0.0,0.0,0.0
0.0,0.0,0.0,0.0,0.0,0.0
0.0,0.0,0.0,0.0,0.0,0.0
0.0,0.0,0.0,0.0,0.0,0.0
0.0,0.0,0.0,0.0,0.0,0.0
0.0,0.0,0.0,0.0,0.0,0.0
0.0,0.0,0.0,0.0,0.0,0.0
-0.7046130225714422,-0.012025291174983395,-0.10583492135299548,-0.35206038101109827,-0.049545904866816454,-0.12015262401115576
-0.8451693699350806,-0.08878380577994624,-0.4930322692961003,-1.3306479897901178,-0.24696102820343477,0.036754872752567676
1.3782584527824857,0.6985065532862099,1.5730212212493593,2.7180004896457897,1.3520036058101648,1.5013814990591392
2.0022005830483245,3.068173275597795,2.6699598506503963,5.5303376678191585,3.264092236090042,5.16055093383161
-10.047722284343237,-9.04718026833262,-8.78737492439012,-8.524363460823501,-9.838046766881197,-9.545205821161527
-3.201257521712965,-3.3077426804611196,-3.4847222558537867,-3.748616081360414,-3.5128026367079683,-3.509953591428637
0.0,0.0,0.0,0.0,0.0,0.0
0.0,0.0,0.0,0.0,0.0,0.0
0.0,0.0,0.0,0.0,0.0,0.0
0.0,0.0,0.0,0.0,0.0,0.0
0.0,0.0,0.0,0.0,0.0,0.0
0.0,0.0,0.0,0.0,0.0,0.0
0.0,0.0,0.0,0.0,0.0,0.0
0.0,0.0,0.0,0.0,0.0,0.0
0.0,0.0,0.0,0.0,0.0,0.0
0.0,0.0,0.0,0.0,0.0,0.0
0.0,0.0,0.0,0.0,0.0,0.0
0.0,0.0,0.0,0.0,0.0,0.0
-0.07128045815563275,0.000467278866124742,-0.0008273841887186818,0.15848177683518413,0.04105907310652612,0.0453895634862098
0.1499513759160552,-0.7460654311294341,0.3940756534978606,1.6029658583592474,0.696328043110238,1.2951619529226215
1.7650847862619312,0.7057234520843177,1.4370010705167693,2.5643628381284023,2.570685582791184,2.5596077189361566
2.4009991698489457,1.5408681947072451,1.9076738821215835,1.624682548470476,0.5602544614285966,1.1501026455917043
-8.466484363417047,-8.098752565173589,-8.20514197743946,-8.80083895353317,-8.666141012384372,-8.721057498502823
-3.5336598727909574,-3.6380837338703036,-3.5046972807484416,-3.692159812709294,-3.400504449071163,-3.5616573765677897
0.0,0.0,0.0,0.0,0.0,0.0
0.0,0.0,0.0,0.0,0.0,0.0
0.0,0.0,0.0,0.0,0.0,0.0
0.0,0.0,0.0,0.0,0.0,0.0
0.0,0.0,0.0,0.0,0.0,0.0
0.0,0.0,0.0,0.0,0.0,0.0
-0.03597357271136683,-0.0375646597195186,-0.15234626337589688,-0.10051343836165658,-0.03262449368027151,-0.23756202589638464
0.5006737509529583,-0.295769801373774,-0.48808469161789136,-0.03371081962694348,-0.00748213431344544,0.2453195041296836
0.10302303852929805,0.5498420811322124,1.358416918131859,1.9314658957281732,-0.5670538332639654,1.623306827016273
-4.355410724647017,-3.9608436104583027,-4.09338377303927,-5.092773052774206,-3.550191097449123,-4.082887685547557
-19.149517592822804,-13.142105581133121,-21.188166751901424,-15.759461804449138,-20.96530397144712,-20.397807810151136
-6.651211415749183,-6.846540944581398,-6.797768369682146,-7.182261295777403,-7.0838251226382045,-6.490091568539798
0.0,0.0,0.0,0.0,0.0,0.0
0.0,0.0,0.0,0.0,0.0,0.0
0.0,0.0,0.0,0.0,0.0,0.0
0.0,0.0,0.0,0.0,0.0,0.0
0.0,0.0,0.0,0.0,0.0,0.0
0.0,0.0,0.0,0.0,0.0,0.0
-4.9058401929806825,-3.666485014956403,-4.097462205694454,-3.522361320117174,-2.6874342421943087,-3.549951124904757
-0.8688382051688854,-0.025723292463988932,-3.8942851518203754,0.1313976816229294,0.6687060570803277,0.821054966661041
5.863301142685869,3.124430086638538,3.0402361813761076,0.09595948720914409,-0.21112103498781148,3.6582726572266853
-10.711633885673564,-3.843746236956986,-9.314044501901801,-3.2127013533182383,-6.030958076160248,-6.309864003841647
-20.758104978912286,-20.664533937843263,-17.054202886447037,-10.859504660347813,-33.47386556543477,-27.024304284370405
-7.506466264329859,-8.216099187664003,-7.891109068666833,-8.168975113905534,-8.25779293242031,-7.841697261072127
-1.203377457592222,-4.901559242310861,-2.44403698603873,-1.0371340805833937,-2.672364838509459,-3.016610524066521
0.9540632864960424,2.540412293034631,-0.9868320819049988,2.215223570595737,-0.6382417886974753,-0.6761436992559549
1.9779419929623778,2.999317866891131,-1.1925321942316285,-1.5668291814183324,0.3517070530794913,-1.5087439831857854
-6.008025539432838,-2.284277296670594,-6.268419895963857,0.8322654999106516,-0.6247330427736162,-3.4305700200459595
-21.78217006320755,-25.395841813607415,-25.728037243190556,-14.190871201086846,-18.834679091229727,-11.547623905018684
-4.193822280999054,-4.218043376658644,-4.441778970372669,-4.375459868039162,-4.709655317744811,-4.403000927409626
-0.36824594312932557,-3.0886612781713247,-2.869893327357895,-0.3201321152706063,-4.295318801227192,-1.3158041497289075
-0.26414670072798413,0.7455250392615007,-5.004134459636637,0.4620886919729289,-0.5782193562976179,-2.5411003331908586
1.536769198713286,1.9240048866860355,1.2263780242221052,1.4077906722920006,0.5766228895805174,3.2049999504854725
0.7148223614340283,0.49174811916677474,-0.2950287103323125,4.060775538550242,3.1579926094830455,1.4187243369403295
-16.06344939603659,-13.80560366962841,-17.58583762705868,-14.974341232982194,-14.49268474837644,-11.770019799450518
-2.6358051981152912,-2.3069760140712816,-2.83214867764262,-2.6276587634983533,-2.6021260133626214,-2.6096362611538257
-0.04186942282567906,-0.36422476533327147,-1.4975249978230027,-2.793032209689295,-2.125429866999241,-2.41074765436175
-5.9869770438694685,-1.3771835467995073,-5.232590365087438,-0.5271668607103088,-1.4932566139108656,-4.111850071199645
-0.5806932270827463,2.8298694541041938,1.555193542009826,1.0731857218162824,2.4178628127251725,2.7892705068762744
4.941243650637587,2.889362775125896,0.783234369146126,3.6084997571521917,3.6757262261504375,2.479190773115449
-11.321038907736634,-13.026158518312258,-12.36278030350009,-12.691516825800237,-10.56089550227426,-9.08305579311639
-3.060878974437023,-2.732179822650787,-3.041441879227795,-3.0187391919863247,-2.964199685275718,-3.0005513277712743
-5.199569105117416,-0.4910060031824897,-1.551924320279627,-2.0310955848570513,0.3173032559286017,-0.7465398218495194
-7.578857857703955,-7.969220037625348,-7.4258915394770995,-9.119356465821086,-3.173503436661404,-3.653463869464061
-0.5264350535190762,2.8815373914676012,2.022529177795412,-0.22284966171089454,0.024708115337747846,0.5487011606029631
4.639590226402491,7.427656136594804,2.771034504892723,4.077882348790411,4.0670963482095495,0.7083189419840011
-5.57506791520947,-5.638012837956392,-5.570182535626631,-5.622676515294758,-5.406405664995372,-5.237784809392604
-1.4708034545130153,-1.4504482650714878,-1.4047471362863662,-1.3607830509476815,-1.3066451323768817,-1.3950144202745833
-3.684969184803879,-0.49651644330771816,-2.5058531542422595,-0.6645853381910779,-0.988974665662788,-5.623446523614041
0.17434700759223853,-0.22023627596319517,-0.06240051540347532,-4.8424701819039555,1.6700834933386957,2.1507107916710155
2.002858967672336,1.03811865812929,2.077155154464662,0.46673590441387547,-0.2526143505339089,-0.5918408072567338
3.3268127594907746,3.638247693850265,0.6379258256583603,2.405150866338958,3.864854616205003,2.228785879388803
-14.338001847718802,-13.063053418348854,-14.02474322415376,-16.36303260508406,-16.138343231847102,-19.793856132719643
-2.480384939695854,-2.4027633714686147,-2.226704782347953,-2.42685183075094,-2.7156708089031936,-2.4229278263301164
-4.146362185793863,-0.9606941526487178,-0.47269594899511924,-2.7423313387908257,-1.685837787475797,-0.4937230106300415
-0.6093863001829136,-0.8825373717075155,-0.6335466887742746,-1.3098533815416031,0.15939918006276593,-1.0209105878516649
-1.9159001896385965,-0.4723480572008948,3.9642270495670404,1.090340920258097,-1.437828285297889,0.16176180518892005
2.7963945278885243,1.003871011671346,0.4301664622726372,3.3499920342954734,2.140874649643372,2.8296703076991894
-10.440196762835429,-14.136756990104988,-18.623658219237207,-16.859184326440992,-15.734174708941138,-18.837313721520065
-2.860658754947631,-3.091324537221323,-2.572033478289484,-2.8085631937796216,-2.8509519665290193,-2.765419149980266
0.0,0.0,0.0,0.0,0.0,0.0
0.0,0.0,0.0,0.0,0.0,0.0
0.0,0.0,0.0,0.0,0.0,0.0
0.0,0.0,0.0,0.0,0.0,0.0
0.0,0.0,0.0,0.0,0.0,0.0
0.0,0.0,0.0,0.0,0.0,0.0
-3.539667258379979,-5.152253050926907,-1.3807487485861856,-0.9759375952160159,-1.7568423632143235,-1.817589375387909
0.5242131305854273,3.080214821220931,-0.9487822908714246,-1.371107689957966,-2.384395889211311,-6.9578452625307525
0.4825291349789556,2.2193920655570456,3.1173587210104476,-2.7609831157362428,-0.7624165421746882,-1.7743439626656168
0.9736019997361385,2.3624379601232013,1.170381393227188,2.779003845895667,3.8561834393771006,1.8157097599114336
-13.997673939092046,-17.29512105971302,-11.117389818563344,-10.909169763196754,-18.15602142227944,-13.723463522658543
-4.093972600330127,-4.340545289755452,-4.33672502402759,-4.350073970795818,-4.383094198039051,-4.230037376077484
-3.0091791387992504,-2.795404625245053,-1.6702833395008774,-2.092582417749463,-6.187022507365294,-2.589460690223118
1.2125652097772746,4.487596976080284,0.010417498796618303,1.2770975822178756,1.9585701646473677,-1.4565834075708477
1.5114000413582194,2.558561364930814,0.8241118639785334,-1.0821488991729316,-0.09747893041804363,-0.8760040592575642
-3.6721138661314,-2.5717695876086597,-1.9524816409049617,-2.0161932552584187,-2.624489816421161,-2.4030394661217875
-28.23901672054587,-31.334236403100036,-34.407633271791305,-21.723760841032654,-21.995345127161453,-10.10677598427064
-5.720905215811242,-5.607905382762168,-5.967968305729027,-5.93824882966126,-6.309567697064222,-5.812988628161417
-2.9564645779051943,-2.886880667620424,-0.3996800984728163,-0.798605477129261,-4.324880304464396,-1.465268991589649
1.0241499044924658,0.5114462306920908,-0.02371758695256676,0.1574685634374625,0.5785988843793144,-0.7284324382917077
0.6061665304158006,3.1319284552563222,0.6915750042549405,1.8953025878540992,-1.4676999572054936,0.19908181358567667
-4.206330044304194,-2.557930615609815,-3.4545391694991863,-0.2749664032813449,-5.683970803185194,-2.567063372201135
-33.38151907555254,-33.054141825234225,-39.0020140271674,-31.65678094950937,-19.211575259653785,-10.918995339510793
-5.176000713453677,-4.492066501722225,-5.449113422319164,-5.269722890731023,-5.219684351940646,-5.136812754138944
-3.6222210072469236,-2.4413380601218893,-3.753499410570873,-3.68379961039318,-4.516447521334057,-3.100885353720205
1.9464020799133737,-0.8197945730309801,-1.4878275682246056,3.7426754243191844,1.3816060837207074,-1.2785379951950475
5.253869102613837,1.7149527841078487,3.222807313658344,3.339139440301037,0.13771017497805593,-0.7801496813974448
-4.820169363567302,-3.516109687414283,-1.5739539491530143,-3.3820611806955783,-0.9374887572406373,0.9710004501349204
-37.058130316402924,-39.72000951879506,-36.389218957600406,-36.018471783443594,-14.907200557787677,-12.808276521957936
-8.520279865048527,-8.216639256172298,-8.88480506977971,-8.87121874376846,-8.401817637872254,-8.153301559399129
-3.9954521136395216,-0.00893337065848652,-3.188456707963074,-1.4081589773488619,-2.227269500006437,0.5854234230086655
-0.14094085122990274,0.49668909262296296,2.459543681147805,1.0136412530692245,-0.18721589559445073,-1.3400553714528523
1.3928469549092475,1.1104622581324333,1.403900753482646,1.4854351017406238,3.294958089615367,2.079030577432071
-0.5757088313214389,2.4797936773605733,1.520453954355239,4.064513646013623,3.828882302515221,6.000452297934158
-17.148703446785827,-15.648415068056309,-16.251396413507162,-15.789050122300617,-14.829384374468647,-11.938331911939912
-3.9889770675822467,-3.8992987242956323,-3.800952926129236,-3.8669572961366705,-3.700127284843145,-3.703996504015024
-0.30022746320560084,-0.937624243182301,-2.7817724780650614,-1.941117027478278,-0.1655767569189401,-0.8311394662435199
-5.021492029198481,-2.0220835660923644,-1.6688907399687356,-2.024367058494052,-3.010933450792008,0.18622378767731412
0.5372460707128143,1.7690322056502583,1.337203037731953,2.4732463678747547,0.09158518838359017,0.6599018977493146
2.5859870192386496,2.214461960048853,1.4550126528500502,4.952564517510898,3.0323289605603243,2.0865113295963678
-3.807528270404823,-3.6011581806827997,-3.1525377101355123,-3.789810161022073,-4.122109778065615,-3.602252957358431
-0.7916207109818405,-0.7457719166556644,-0.7197678704833533,-0.7368394567947724,-0.8845747527742356,-0.7514833844351427
-5.835224691944881,-0.40702796010266895,-0.09664793614925181,-4.431111718812587,-1.9284130061089235,-1.6490789278464006
-3.385297810937337,-1.950037892334272,-5.6823393606990065,0.48472853513795827,-6.389168813044697,-5.30402329587448
5.275631474211754,2.7917376981986206,1.888965401876271,2.0420981883028912,1.7276285479752915,3.1180001338508667
3.106735101264032,3.0955561306913673,2.689357584395085,2.135388345073842,3.8434847833631047,2.134043090754663
-6.531310084012165,-8.678558629875411,-7.412473951998236,-7.918438984310222,-7.658975581105188,-8.032933988800165
-1.6521586174011553,-1.5613865704939922,-1.4219568987631601,-1.547834607209918,-1.5307701781659688,-1.5179441533265619
0.0,0.0,0.0,0.0,0.0,0.0
0.0,0.0,0.0,0.0,0.0,0.0
0.0,0.0,0.0,0.0,0.0,0.0
0.0,0.0,0.0,0.0,0.0,0.0
0.0,0.0,0.0,0.0,0.0,0.0
0.0,0.0,0.0,0.0,0.0,0.0
-0.43047979894105276,-1.686909571051506,-0.6185767858522597,-0.5199681909574864,-1.0560775530300281,-1.0047830748174522
1.8459407345729235,0.10972097268808088,-3.3365670307713997,-0.8803237288010923,-1.6377008131786202,-3.8010455928807083
3.08972575255782,1.1466994963712647,2.896553156682823,2.823957043616179,1.7690810148874956,2.618681238397249
2.7165721723626945,2.490250475490277,2.1293713736642967,2.5422721407531563,3.0426717028737467,3.2715295096794783
-6.187363587596934,-6.738143016904615,-6.989885498598064,-7.1358922267654945,-7.051598430010378,-6.373097041806695
-1.571161289204945,-1.6044567104421565,-1.6285641969701827,-1.6133669629300056,-1.5436073125622,-1.586843231622649
-0.989741544977952,-1.8113455427339542,-1.0960727692793055,-0.031613265314476724,-2.6138206021343504,-2.403323877200996
1.3128783628481782,0.48017770043044083,-0.23582171804598584,3.109885977330245,2.2756913715038887,-1.4551419414045759
0.7446182510285136,1.7486534128819897,1.6319816123426174,1.1931351573130358,-0.23118868134024087,1.7744132950543874
3.5713131115825303,3.7523794776080734,1.7781307663451982,2.7706510382510516,5.651889007863343,5.092627281905279
-8.66767811249692,-8.303851924924006,-8.447099897340754,-7.977819214036376,-8.150676462032012,-7.595214015893165
-1.8551322969635555,-1.7123302855065763,-1.9403939210952612,-1.9938747110031059,-2.010988802951885,-1.8139861922579459
-3.5334788910284094,-0.22200175884298576,-0.9497288422324345,-0.9662165177415605,-2.9263458008163754,-1.8217057955850584
2.7009177255870136,1.2090644622897022,1.520315755259872,3.0647911544725073,1.511567569643213,0.6072637191476828
1.3763025524587247,2.27392203564963,1.7163031715698973,0.6321461497610315,0.7975757801630365,1.601754155214405
0.351845660236145,2.66611100572152,1.0600497734163925,2.6247488979704388,0.8060674869440602,1.9022200761048766
-14.37613781820303,-12.476731521519874,-14.405823387041856,-12.754537796917527,-10.539618507186075,-9.270260759189876
-2.3141942864940854,-2.196975746570849,-2.530100906328773,-2.4740159468636764,-2.3739504340173063,-2.4128247019102576
-1.0883471668966074,-2.8737416256511805,-3.3377795699582715,-3.5120785053604267,-4.401584235617551,-2.923281975587763
2.8960135242770604,0.39763010250562725,0.8846508902644301,3.025185937022419,1.5987122840646482,0.18631774814481702
2.4188258479655382,3.3083340640162477,2.856798011868963,1.6995229629282151,0.9274958042260568,1.2913191712636665
-5.100162694211232,-4.387584815228951,-0.8194118004473971,-1.401343596620461,-4.531546567237077,0.018150908637613962
-43.98731125635119,-45.90893063139664,-42.670480847631964,-39.40972909730315,-21.850102713892362,-25.600294241721354
-9.590477467325133,-9.320284592613534,-10.09715885795563,-10.195300930360496,-9.577126407176596,-9.204083665032408
-1.8039842744971066,-2.1243021260763695,-3.8163126143999584,-2.1173695705203053,-3.522221305296796,-0.5567775294415372
2.3077138231743843,-0.06462523536358694,-0.15423657253250192,2.3552586079142186,2.214873762332446,0.8819644108066167
3.4525301453117176,2.0777856509124546,2.351877430834082,3.6868616375119347,2.849444853108088,4.468892537605459
-4.428938747606456,-1.3773923254461062,-3.1875446003123966,-2.2156418100265065,-2.0114908371454185,-13.418556825025947
-34.2168536078065,-44.93477267475204,-44.21806052242601,-45.851288426647784,-48.838604354924826,-58.01094191429434
-9.144650549710217,-9.231578191223488,-9.075966537251327,-9.354497265531366,-8.75278423845038,-8.532486039075112
-1.9973892220195069,-2.61149338612853,-2.03640013892045,-2.6218549715508317,-2.8621455852177635,-1.3112179764904708
0.9825440917986843,1.3741758741676384,2.70139374845959,3.2798514823644833,2.1671622022967334,2.317758605978606
0.5638914168196825,0.43109074881766896,1.3810282811418413,1.0003473968735204,1.0684525668141271,0.3587875092922171
5.274826142411243,5.708954095952352,3.1694507124544815,3.766211617067744,2.8667537884254353,3.6411062166195762
-11.42993963096941,-15.234829793684249,-14.89428150620278,-14.293062582299557,-15.12869253102995,-17.92034889635418
-2.3843474279617194,-2.256846089492291,-2.0505370709850097,-2.2752451239165374,-2.508503430196928,-2.2312536736123936
-0.5460443173158843,-5.898447254230884,-1.374981441243053,0.5939919071467072,-3.3162425214898903,-3.6871696929311195
-0.016143979714707025,-1.8222202046363882,2.3439364548960646,-0.34672838203469286,1.2186937787295031,1.5219000015660065
0.052056074941122875,1.4274644212408414,0.5699264590367513,1.9492487274011046,-0.4738559365851201,-0.32748370703528534
3.6526403346775043,2.1913985220784604,2.407920657865513,2.595316485437965,3.2933119557103803,2.6134636456615463
-8.281420028469007,-9.295168878332824,-9.287024667781305,-8.844644185219316,-9.372142236037766,-8.997717726726576
-1.9358139633948581,-1.825213450447617,-1.5900508614363926,-1.7346500476910263,-1.6357533751914635,-1.755154794805722
0.0,0.0,0.0,0.0,0.0,0.0
0.0,0.0,0.0,0.0,0.0,0.0
0.0,0.0,0.0,0.0,0.0,0.0
0.0,0.0,0.0,0.0,0.0,0.0
0.0,0.0,0.0,0.0,0.0,0.0
0.0,0.0,0.0,0.0,0.0,0.0
-3.1189147237465122,-4.8894016794988655,-3.996926362721398,-0.7730686723264395,-1.6760688458111728,-1.8100575005258517
-3.667636246567949,-0.03195625398645514,-5.281709966799546,-0.2854950264757308,-0.8826715909748282,-1.216095934154961
0.7980210099331505,1.695817286016281,0.6212071651847529,0.4712143749996125,-2.2928468106126236,0.7189147665556347
3.8337792801883794,1.9760401706786648,5.200217158521871,3.240953869331798,1.7832758751987254,2.776713182645594
-15.003732929709155,-11.98247065362536,-18.58405791444265,-15.129803701045754,-18.921089888280637,-17.363612731763787
-4.132572518650293,-4.395031967495015,-4.432976921782147,-4.455252890886361,-4.321006019080187,-4.21018268708322
-0.09104235492791399,-0.3066832949546935,-0.9297787017639844,-0.4020296214238986,-1.096042290214941,-3.8651550884862
0.66351500851734,1.0461082980764782,1.24370540843045,1.2737554804534357,-1.5920351828647907,-0.2933041892249548
2.5195574841237196,1.6542164982288223,1.6075838195076186,1.3355102551954547,2.0832105795049154,2.5025033101873424
3.215766660906544,3.9008047669802557,1.0331917696607942,7.042384923704937,3.31438148192757,1.872038082202912
-7.886169252247103,-8.257878161844697,-8.083765771600621,-6.787136836887508,-8.434031223800353,-7.940097751249703
-1.5528953595757946,-1.5322752905094297,-1.6778875983639598,-1.7159777264358693,-1.7010768386673372,-1.5795008972671059
-1.8216419443081677,-1.217929043003461,-2.356327765035473,-2.769172570338537,-6.456725715600337,0.1414902735513159
-2.40250957974997,1.4865367233283595,-4.307499176393051,-0.20411407009244678,0.8680552455616245,-2.7524857644241134
1.0302532531085489,1.8879650197282751,2.3951342724013154,2.8020960918764413,1.8770771438315943,-0.5869341665287284
1.9587883858464832,2.0131501929712354,4.4817291274115645,1.8705908840150667,0.9732602856800575,5.1466858072068735
-4.116803220885786,-3.2799746184222878,-4.148998238805471,-3.8819322066802684,-3.9397920044920114,-4.034172540444696
-0.7416136652104841,-0.7506036824023115,-0.8562670109935956,-0.8088889400006567,-0.7621627116781314,-0.7657533189056817
-6.045384513601134,-2.3672473364438438,-5.9893165704182,-2.8947852083953,-5.439149626449672,-3.557084633437676
-1.2325550763126638,1.9959884247026318,-1.893948768527768,1.262602222874544,-2.4720508122596225,3.251798998740499
3.433456323524724,1.6631286362758246,2.8676666868330853,3.06782168436259,3.0972230062592994,0.07724804320557067
1.262116522975749,-2.7993136547759834,-1.6109028156980694,1.644273604095533,0.41477213041048744,8.75453195435411
-14.855982493968162,-16.741795353868888,-16.082010180961564,-16.351297944222793,-16.014277252071608,-18.533272607720548
-4.013153379545036,-3.7235275660191522,-4.180409250385906,-4.177654003145274,-3.927289026134698,-3.9633933191412645
-5.373921231079906,-3.3857171945829405,-2.221041924135679,-1.4788654398296361,-0.4864744541058044,-1.5601845544750683
0.3451894344332379,0.6265358753096674,0.46127010357358683,-1.5299432260303605,0.3007367557331764,-1.2525393827396532
2.4466800368318995,-0.5877250558913817,4.7209652042625825,2.2147943909637013,3.834990552431224,3.449027118234
-3.015470419031444,-0.13373763991732962,-7.915081793974825,-11.632595456639978,-5.140278434490545,-6.403866760949617
-22.482437306923003,-30.978911115729595,-34.111047021481866,-39.52920538893569,-42.98687265642081,-61.31604623061317
-7.8989294089983675,-7.973433437135402,-7.93735020680906,-7.9880740173100735,-7.374534129960405,-7.5105484518857315
-0.7127037583380073,-3.338948263223869,-0.3045457437142081,-0.8735873710538667,-1.2609587131035347,-3.1065761611933924
0.18404724418184676,0.6260081736862044,1.720344362139284,2.5511719438596487,3.3593386050746052,2.2453669696863225
1.7417759523002139,-1.3699869495265007,-2.624170444763472,0.8309396043584744,3.224535671559027,0.7365034498532643
-4.088245339386381,-2.661037286776002,-4.392647783426043,-4.030135954669631,-2.5505259842268586,-2.938615477311163
-24.88144442966903,-30.035469422455925,-34.910491483385414,-33.190506604524444,-35.15912374095832,-53.20625142447002
-4.926106112087263,-4.796340363264326,-4.239071951050828,-4.83974619515453,-5.190736280497827,-4.742736186618192
-2.244878804359095,-1.8060791336892599,0.03606119127834318,-2.102986435253172,-4.060370677740681,-2.080976573185647
-2.3703638445177124,-0.6379672553948993,0.3697437082059091,1.233622287817204,1.229421496299245,1.5749750348207634
0.05336130570468144,-2.4781283978436637,0.9243200723977925,1.5896831044615367,-3.5652853948893046,2.371038379431934
-4.020469294964746,-0.1839939920825804,-1.8889687184961046,0.8205133883720299,-1.0302004922250716,0.39915919773986147
-22.01119877514664,-23.03009763524718,-44.87750877132969,-33.520823803866854,-35.2707589958552,-36.83815382403616
-5.739724663632891,-6.133143892132488,-5.136723577554938,-5.534788868682204,-5.446165759918816,-5.560281424415711
0.0,0.0,0.0,0.0,0.0,0.0
0.0,0.0,0.0,0.0,0.0,0.0
0.0,0.0,0.0,0.0,0.0,0.0
0.0,0.0,0.0,0.0,0.0,0.0
0.0,0.0,0.0,0.0,0.0,0.0
0.0,0.0,0.0,0.0,0.0,0.0
0.0,0.0,0.0,0.0,0.0,0.0
0.0,0.0,0.0,0.0,0.0,0.0
0.0,0.0,0.0,0.0,0.0,0.0
0.0,0.0,0.0,0.0,0.0,0.0
0.0,0.0,0.0,0.0,0.0,0.0
0.0,0.0,0.0,0.0,0.0,0.0
0.13189684775067798,0.05438829364870413,-0.3187143257949339,-0.056171265954753344,-0.2344781584482011,-0.6745899529755616
-1.6339570884432748,-0.5771152816256526,-0.6951661454134774,0.01751653190758058,-2.189194841193198,-0.5109543497723735
-1.0322781983315619,-6.088496130115336,-0.531930730254148,0.05004980274554127,1.2268140674169925,1.596324499121129
2.6603520452560416,1.855682807876432,3.8011266892159856,3.0258452664831905,5.544634445753416,4.519238906528456
-5.601471970709676,-5.945605327913381,-5.645736211272197,-4.116934799694098,-5.6857649090349565,-5.416026712780802
-1.0145222609799684,-1.0189844263579988,-1.09287368558132,-1.10493469774801,-1.1323037170565264,-1.038837485452036
0.0,0.0,0.0,0.0,0.0,0.0
0.0,0.0,0.0,0.0,0.0,0.0
0.0,0.0,0.0,0.0,0.0,0.0
0.0,0.0,0.0,0.0,0.0,0.0
0.0,0.0,0.0,0.0,0.0,0.0
0.0,0.0,0.0,0.0,0.0,0.0
0.0,0.0,0.0,0.0,0.0,0.0
0.0,0.0,0.0,0.0,0.0,0.0
0.0,0.0,0.0,0.0,0.0,0.0
0.0,0.0,0.0,0.0,0.0,0.0
0.0,0.0,0.0,0.0,0.0,0.0
0.0,0.0,0.0,0.0,0.0,0.0
-2.5632572407105987,0.46489592128417295,-3.8906864459075026,-0.662282479207886,-1.1178720991488278,-0.88730873874193
-2.495930630651542,0.9802626370523914,1.607490730229117,0.5079558532151248,0.13143185247656203,-1.1929980737326218
-4.19260016217117,-4.318920646456607,-4.969234970123834,-0.1606809160477173,-2.2652152429293966,0.1093825800265156
9.320150770140849,4.117479108244388,2.4935510004602652,1.702558399937391,3.4459763413706224,1.0777699352650256
-4.790625772921987,-5.333345139704933,-5.526658742763976,-6.219293814399439,-5.861622429161909,-7.033537106321574
-1.4670392573251663,-1.452265086258088,-1.414331170037834,-1.385683015395016,-1.2879475972175578,-1.3736099473740704
0.0,0.0,0.0,0.0,0.0,0.0
0.0,0.0,0.0,0.0,0.0,0.0
0.0,0.0,0.0,0.0,0.0,0.0
0.0,0.0,0.0,0.0,0.0,0.0
0.0,0.0,0.0,0.0,0.0,0.0
0.0,0.0,0.0,0.0,0.0,0.0
-0.17451933202394984,-1.058519209707841,-0.6444368847411092,-2.66404106074823,-0.37672096693327123,-0.6896983675678533
-0.30958600081326343,-0.760932201658226,-1.7404170551173306,-1.5183460252748437,1.220813603897275,0.11445685156690652
1.2333161843897953,0.438952751443928,2.6706961299193206,-1.8564856397430176,0.6212761870967981,1.7806107207661848
-4.904418156321937,-3.546082655123439,-4.501346666471997,-0.5475102942215394,-3.6212158737041684,-3.2616032214623067
-8.76113259946834,-8.590979705857242,-18.665459642783027,-14.951317631962924,-14.842368633888647,-17.066039760345877
-2.375108946922211,-2.6134875841032876,-2.1840036970085843,-2.367971635942327,-2.320527816271412,-2.340296388162707
0.0,0.0,0.0,0.0,0.0,0.0
0.0,0.0,0.0,0.0,0.0,0.0
0.0,0.0,0.0,0.0,0.0,0.0
0.0,0.0,0.0,0.0,0.0,0.0
0.0,0.0,0.0,0.0,0.0,0.0
0.0,0.0,0.0,0.0,0.0,0.0
-1.803363935952993,-4.0097201536407105,-0.6940872115718535,-1.513860621631741,-3.09307059271218,-5.34314945712637
0.9444294223350261,-0.21710207663434364,-0.7484342531960227,1.8587922870763272,-1.7714481188083084,0.03603557338911851
3.736778844971114,-0.8927097434175442,3.19279579341758,-3.520740629180525,0.8909917271092046,-1.3221033567700218
-6.750291368694837,-1.7436535999368055,-7.588993293696457,-2.984026925782595,-2.086428089327285,-5.868498032054202
-19.658585706184116,-14.79148551335794,-23.928732643932218,-6.566706181423629,-23.490600136185442,-15.500219741907797
-7.766731718559909,-9.834862405236626,-7.679427037945012,-14.368828414492725,-7.441528749483917,-9.831376054920332
-7.01044976254649,-0.14031754836461272,-1.1446394628179761,-0.16059936546851228,-1.0589195411226344,-0.7829187879510334
-1.2312020357947553,1.9671934926645787,0.0006869309024407425,-0.5950821733351331,0.8495934294583015,-0.9419296532102049
0.7939491490142883,-3.33056282275346,-0.9970584486369078,-1.810282870579968,1.1565031266104588,-1.2291923709262167
-1.4064587490732905,-3.0611653276158197,-1.8629723492733137,0.34356176706371755,-1.1561461531174366,-1.090689828828974
-20.296346781487912,-22.770216157347516,-19.383260231780103,-7.490711288926193,-15.739141121885616,-9.539400109580246
-4.179303399134233,-4.921096447657911,-4.528037319752045,-6.01077572395328,-4.225223770783847,-6.115853605014595
-4.813361615742504,-1.7018893861486553,-1.210492459314433,-0.6555726695647991,-0.6346274189573343,-1.5626794562686597
-1.5347165839696952,4.716257636571471,-1.2712153054866637,1.92745337919313,-0.12734353509921284,-0.44809351488251564
-0.5714092006408517,0.505601822861626,1.9195621865869485,2.5226818566891396,-0.17645275989860054,0.2738096915047417
2.696069837281684,1.896312193778454,2.35749058102432,5.163869335594339,4.189046677542012,3.8639901246266044
-13.713284612626941,-14.979980947739199,-13.803368332432441,-15.742371760464453,-14.688306225555959,-15.389573970597056
-2.4790728336110024,-2.636992366966044,-2.6438085074804207,-2.6443659624787603,-2.537785508215961,-3.0876430654789466
-2.180859387002241,-3.306302475703884,-0.4860658930632533,-4.253654380793098,-5.955673011362548,-3.033895232798431
-2.104851133145972,-0.8794265570639607,-4.691710517041727,3.8096114385599087,1.2810778270463332,-4.833115668057103
1.419138951861256,2.2480149521710895,1.1752788684323707,1.0481567245926442,0.7635475173080337,0.8772549983056577
1.707615691331737,3.7218186915140588,2.7153886081660707,3.5493062297893876,2.1447906456629484,4.003846787075174
-11.336688437836333,-11.164191949681573,-12.484515309259,-11.199953859050297,-10.890447643209551,-12.245627363325148
-2.8741241293611566,-2.9557841920723766,-3.0568701201789,-3.0301216376041005,-2.978641353531728,-3.061671467687983
-0.349874366135794,-0.7404679152020648,-0.46609189796227035,-2.024316720806541,-2.7006821362994056,-0.10405618279474682
-3.479061998163151,-3.0903307922540244,-2.6231792615782976,-6.746766426535316,-7.907795901034439,-3.139554592602548
-0.6083146241074145,1.3751331414094896,1.7319946077951882,0.58275558755032,1.21301929649944,-0.28569347425607633
4.46469209069757,4.475661853453156,4.409624159247241,3.3658640195712226,1.7415890089254973,1.156328203712362
-5.352159601092239,-5.5808924206193655,-5.692169262064408,-5.7788404738259365,-5.886358732033777,-5.406516615323101
-1.4040962640063461,-1.3696391627316722,-1.4153466233346395,-1.4431673210405898,-1.3096491938607686,-1.3607924772079185
-0.7356680169864582,-1.3421318897650574,-3.074261816065923,-1.8844645525608683,-1.5772043087920844,0.4699772201365582
1.2250021603051062,-3.042402792035954,-0.8223598756025454,-0.6460298733257904,-3.9157867983775048,-1.1121423294047552
-0.6479946182059811,0.6004699349845624,1.3688230680243865,2.100150691998714,0.4015443120811535,1.8790545397723597
3.2078226070661278,1.3966668823680282,1.8118664706739553,1.9815997791575948,2.102063493594794,1.789178360735363
-13.286668798682351,-15.22200455823383,-16.5508524319642,-16.97829121456445,-16.220259947314325,-18.985078904459282
-2.4689299462834824,-2.8465893675573173,-2.3131727638497366,-2.663862717657835,-2.119600650603591,-2.2752061261047736
-1.6207038465482542,-1.6371510311314037,-0.6006183425470938,-1.3985578379886963,-2.289190944970891,-4.208691776108036
1.0385132542759457,1.5990478650616555,-2.5901326380729786,-1.6833270168314043,2.0085976933766223,-0.30553119530734746
-1.6693489231611818,0.6557165419832565,2.2989290268849936,1.3564325270924624,-1.8502091695615268,0.5430078496790793
2.8279867536626098,2.206958182272804,1.9777895607733846,1.2309935125054552,2.8879882084435526,0.13727866263075672
-16.28906291714514,-10.25460987993328,-18.364826346002463,-16.30123377225201,-18.11410247093295,-15.01745202873234
-2.8331306385016357,-3.1437928203562406,-2.9561746928316057,-3.087858980343175,-2.941774943173316,-2.6853570429423055
0.0,0.0,0.0,0.0,0.0,0.0
0.0,0.0,0.0,0.0,0.0,0.0
0.0,0.0,0.0,0.0,0.0,0.0
0.0,0.0,0.0,0.0,0.0,0.0
0.0,0.0,0.0,0.0,0.0,0.0
0.0,0.0,0.0,0.0,0.0,0.0
-0.1209510172554292,-1.2154011507289713,-0.6318940376675609,-2.386970930746038,-3.7750083387258613,-2.9782281793507854
-2.54932982894917,1.5288913072256294,-2.3435146166577026,0.3826034114108507,-1.635598973351096,0.9512954729169483
0.6158908927360954,1.1074299997728165,0.1529094489125995,0.2017046680362545,-0.8395950836576798,0.07123759235965688
2.1250415263331,3.5321609100996088,1.7681349908653003,2.101896683360795,2.4005174725501126,3.3683461995967403
-13.849510468237769,-22.798101755823218,-15.300465549083894,-35.63382022733442,-13.582830736511768,-9.366296805451565
-4.163761441047133,-5.124756680728804,-4.087153102476743,-6.517230259842833,-3.936407019723016,-5.0950578147035435
-0.3763655941279746,-1.656080606984502,-3.0896892971816743,-1.9267343457295916,-1.5503775158328832,-0.8962806370622793
1.35811066017821,0.7197763537114585,2.236635895970481,4.3348531646069794,-0.22751879731443087,0.07351645131822765
0.9933212378813984,0.11639757710895625,0.09719343804382341,-2.320039203568961,0.49989229274040625,-1.8509301054361582
-0.808659595849034,-0.4102826370617543,-0.02495676114005223,-0.08466375645934636,-0.2414615089028835,1.2597449286714517
-26.843795523182298,-30.1254092719133,-26.13375802338588,-32.20328501860443,-20.20761540322162,-19.987812054726685
-5.543253336517896,-6.707653010572115,-6.172755005812707,-7.779464660024773,-5.671574715910142,-8.461042105167875
-2.3936492376779652,-2.1509954876675628,-1.787390199491632,-1.7547668228718991,-1.2775849600689415,-2.5895898772603423
0.7292192157878948,0.9295821113792153,-0.1747089871249011,0.7807273277077875,0.8522558028356442,1.6144558969463154
-1.1152598394610824,0.6847382642128983,0.7742218645502003,1.6244679663961283,0.5184440222679937,-1.9984997399059523
-3.160400802355885,-1.3860837120298546,-1.187770318201695,1.5327456506253496,-2.732845062317175,-1.5175358931770084
-29.20880891063005,-30.663524696817394,-30.1032838966462,-35.365791716454005,-25.810546153433037,-19.64391799854977
-5.029592365033918,-5.0852787616038215,-5.050589403368594,-5.300825168382827,-5.098855027051568,-6.779585078657612
-2.885794422846903,-2.5311143843084745,0.043854773709676026,0.1111548610316755,-5.168588549919968,-1.210893397674258
2.199614898747596,1.377934852282111,-1.6121689097292533,2.198325990870011,1.2805388862600153,-0.5757893419782171
3.261462928779455,2.90548507284896,2.5773576656054358,4.775739505024104,2.345353692227206,1.107292507019246
-6.215724291596045,-4.993718553140409,-1.2836312603712259,-3.7223390339068385,-3.613525201257508,-1.8136179269992332
-36.298386750239246,-36.311513116215174,-33.12816263274682,-25.866222279722844,-17.883845946893583,-24.146366748024843
-7.9419110812212725,-8.084796162371157,-8.820563784572247,-8.64229358035308,-8.32377016559452,-8.274060792000038
-0.46624255877692855,-0.33456893542280625,-1.16028265879741,-2.0720833702341506,-3.5511263716617707,-0.4353840980221933
0.5730866696048915,-2.7100828887877757,-0.8209521235801034,1.8043438147023754,-0.2055192639639468,-0.4637441971485827
1.4752037319233675,1.6318349647781674,1.0811330316666163,1.4899169334939812,1.5572817510333814,3.2341574651126
1.2582553435635726,0.6032182345295657,2.6315554582653435,0.3915899893520004,4.987643119219759,1.0910119188016207
-17.24825690990547,-16.724440254069165,-14.917949192210969,-14.716159081277349,-11.48221866887357,-11.45072709599752
-3.7231810153415807,-3.8307103819149555,-3.9491389978799187,-3.9122953247788894,-3.6882616286838816,-3.667443387521949
-0.8255551212835612,-3.031528193399711,-2.060589953699392,0.360530073420413,-1.9242817154800067,-2.3259227392616695
-2.1980231577950238,-1.9844912132052899,-1.7894922381427303,-3.492749868784531,-5.71799510449842,-1.7276011822955568
2.0260576933004026,2.220153413269782,1.7366312873822438,1.1773388152554611,2.746238130413727,1.0124842635461497
2.0468077436828023,1.9161819490305465,2.483455316398735,2.3967800000448016,2.3134079207495097,2.419910850762005
-3.512834206389395,-4.454134268367854,-3.54499859361478,-3.8458868449026165,-3.486754555114612,-3.892891031239837
-0.796229259060314,-0.8862884323124526,-0.7109535185512346,-0.8219137954841043,-0.686973980210362,-0.6646000448850028
-1.554188059875638,-5.615180357743212,-2.1766955602039237,-1.9318079850107726,-1.73084563291231,-2.9414250640536936
-1.7255829143888737,-2.525094944399842,-3.9323784915585,0.16892456921145246,1.000925562829131,-1.1656538027432561
3.124801647579076,2.0080172004642183,2.729674572990157,2.3498462643901865,1.607653549639265,1.1165403520028412
1.4431399841883408,1.7503255216204132,1.9691545458640003,1.6556053345882327,2.8178858202405515,2.8532024518112835
-8.080187257709527,-7.671992210128386,-8.398447012875042,-9.463549075320135,-8.327047849883062,-7.311592840157616
-1.5303548480475933,-1.6618134472335313,-1.6047905329545422,-1.5797928586602046,-1.6141588260747683,-1.387187996076249
0.0,0.0,0.0,0.0,0.0,0.0
0.0,0.0,0.0,0.0,0.0,0.0
0.0,0.0,0.0,0.0,0.0,0.0
0.0,0.0,0.0,0.0,0.0,0.0
0.0,0.0,0.0,0.0,0.0,0.0
0.0,0.0,0.0,0.0,0.0,0.0
-0.4670309699449388,-1.8114193598254444,-0.3763843225933062,-2.129430265538102,-1.7980576021850647,-1.6697514645709088
-0.15782455784825353,0.8199700421046703,-3.165118671200013,-0.5662911474213901,-0.6557216824321597,-0.4230339157551343
2.6069375307750744,1.2955692611933634,3.5221556208922236,2.2100471794624186,1.582545068882055,2.689265857246989
1.9330552763671458,2.8576563006971143,2.7039898333106773,1.2577808131725174,1.6121113872482713,2.0271504321375535
-6.501093633246384,-8.394687395462686,-6.691937488868811,-12.923452021727734,-6.369070958233959,-8.6317766023924
-1.6011684119892307,-1.7833678165005469,-1.417305559872707,-1.5519206274782809,-1.4191320263436369,-1.6855704190624552
-2.011012149881495,-2.1886817601318094,-2.7227793427941895,-3.301780704564712,-1.962567685168317,-1.293116205397173
1.7797293205283782,3.0725533700593344,-0.6021780791100546,-1.9146761761189752,0.3050458659215007,-0.6082508331122948
1.245629389621151,3.5201360980264744,1.5177171284187934,1.8275636606951355,1.3243440592204405,2.281865590884547
2.282356434943854,2.109634256463636,2.263577457715849,2.0702146665412253,3.4870167496781956,3.2739644294423025
-7.99442431322297,-9.48443868173858,-9.02999142169613,-13.58858936179503,-7.875042770522141,-14.80894422434169
-1.697460996189657,-1.99693813896431,-2.0234790114360375,-2.196373021232984,-1.77864172804443,-2.265494146260992
-2.234831411169217,-1.8578516723521805,-2.260336957062487,-4.731524660567287,-1.2462996198078615,-1.8745537902201537
1.158768793316521,3.0907073072603732,1.875373395981046,3.2717422595632684,2.6786231322957224,0.3717683677795608
1.5729614635721116,2.2833553665790305,1.9691543717653333,0.33871045881795947,-0.07552524235221493,0.8492281456231624
2.491512515022807,2.2477380922742634,1.423070925536571,3.261257077234495,2.5634117030169867,2.846804611413836
-12.025240070390398,-12.167795992884482,-12.42875167980701,-14.245080718762516,-11.109660189153313,-15.303506632621069
-2.365819285166015,-2.3304954829662923,-2.466056270587345,-2.501575183862604,-2.3946003560159683,-3.085020825610343
-2.2039905986323434,-3.189175639186292,-4.157322886661814,-2.7627860505825983,-4.971056743104313,-2.654909165475272
0.8452952083198583,2.6268564940148518,1.7994311978831274,1.7678464629340753,1.5092177451108486,2.803380501977155
2.8888167363822372,2.9190745281148853,1.7031786117043162,3.281905987827081,0.9547998711646103,1.1105303750735964
-8.714608903519943,-3.2968884678152044,1.0549086558251648,-0.04208193435006962,-3.9448465417406213,0.15636787694596138
-52.764523220040054,-39.27111862955311,-37.26024963924336,-31.130892538691526,-20.73468639538227,-20.59167741896962
-9.029408183057939,-9.316325831111662,-10.12166784436994,-9.858602787277976,-9.370927298881174,-9.568920690502324
-3.8896537302435297,-2.1706696146358935,-2.65317696330984,-0.10642048771498125,-2.9636131633774583,-0.17345898728918627
1.8936680596624036,3.901554315186596,-0.03498349210937533,2.368418552669746,1.2560467144673195,2.4367144246594963
2.5364529974781886,1.908508916737906,4.489535923357743,3.697034015766957,2.7713538603043895,2.658821288271533
-5.968830702654825,-2.9050554084812372,-3.1566164677862036,-4.836061478887753,-4.953132729991836,-9.505770194465507
-57.46543189821837,-41.29378026613367,-46.304888027048115,-43.83208332879741,-40.7327359536473,-31.8907647908362
-8.77823355626453,-8.943793541646736,-9.29438348753322,-9.287756027873552,-8.987896900193387,-8.462331027087613
-2.617682496189304,-4.7007422640318,-1.2641652746866479,-0.1032978721303223,-4.45645096115353,-1.7459273701760256
1.7924631540353264,1.8491306826587812,2.9871797007118106,2.2190473725486686,2.4474029867806637,2.4386205518243087
0.4825517554390278,-0.15035371988024918,0.9050644628119655,2.236614859561723,1.74445604867357,1.3057717554931294
3.812281531137699,4.457475907824513,5.268730353205363,2.399453960801856,1.5410266796977194,1.8162906200381363
-11.592314521178498,-14.957501296451543,-13.380776586587627,-13.621516598357259,-14.738920523851585,-16.839765271053327
-2.272149654960324,-2.690837191308612,-2.219324755464374,-2.4528098099276097,-2.2355231312800985,-2.1653581337430157
-1.3959547388861997,-4.9267463404788225,-1.8993174734589724,-5.082954882416564,-0.5871276868253887,-4.594935179331059
-4.056196087456979,-0.4673655840927007,0.8517243357538754,1.8402240536670014,0.5332803751688268,-0.14758938632230212
1.221748881849908,1.1458082197312782,1.6790100301479363,2.2067431516211586,1.618275883332103,1.6148806776179045
3.699411912633726,2.2696204435777325,2.5935412647919374,2.719833563857771,2.752898288733562,2.3063783707016996
-10.981762172108205,-8.904934792664095,-8.733833426649637,-10.508569901237099,-9.516043575350908,-10.50454370710386
-1.8144422008686905,-1.9259654780101934,-1.7659004769449629,-1.7003081105306748,-1.8388267350773548,-1.6911925833547363
0.0,0.0,0.0,0.0,0.0,0.0
0.0,0.0,0.0,0.0,0.0,0.0
0.0,0.0,0.0,0.0,0.0,0.0
0.0,0.0,0.0,0.0,0.0,0.0
0.0,0.0,0.0,0.0,0.0,0.0
0.0,0.0,0.0,0.0,0.0,0.0
-1.255704988592365,-4.472769779348276,-0.4694122324791536,-2.061370621627208,-1.7209140255463615,-1.4293406599785863
-1.7878409393018975,1.1376131003206675,-1.2905457605839994,1.660921965659845,-0.26530627768323395,-1.261112153983705
1.248899723098398,0.9447303037389672,0.769635211066666,1.0157554278916852,-0.8752788925872087,0.460832281176555
1.8256968951332562,1.150025061455339,1.975986625104742,2.4704797554838587,3.3843229878225767,1.7280123656032405
-16.393898142875944,-9.54844738555517,-15.841406760382094,-26.551472615889338,-16.612498012436127,-25.8638273117492
-4.222489003838455,-5.0810027237803475,-4.067789973730589,-6.026927666353946,-3.9735021947481814,-4.950710554158924
-3.91505157461251,-5.710695461208671,-0.9899320398666811,-2.9279590323273252,-1.9637874617857463,-1.9980560962678857
0.8403098422659316,-3.82743835500213,-0.6967059208666853,-4.279189008268965,-0.47788845656972395,-0.06762060675344585
2.331863348476278,-2.052894090660851,1.8355880149261696,1.7713534091407697,1.7607282799974198,1.7112499041922777
1.8320633995633062,3.0034906679993782,2.686784689980003,3.292112797318681,2.526017503459545,0.8891583818747112
-7.853916391977742,-8.774439558012538,-7.448718781225712,-7.9377533278418015,-7.149565626212898,-12.063446628009281
-1.4506078702720513,-1.6380705339158625,-1.7133074379834805,-1.9437085625484518,-1.5351885799757738,-1.8371379065598135
-3.668858853416526,-2.124178322670297,-1.9585022808980295,-2.442630827174575,-1.588336912085114,-5.543471526087647
-0.017018292313936343,-0.0008164913093608676,-2.0854268190462824,0.5518721252705564,0.3513195405367353,-5.91584070340727
1.929655415020723,1.3603747103180888,2.43920815968592,2.9033231920003115,2.1672320183218488,1.0473447664283255
2.473497285884459,1.3600159076172267,1.6024994640294044,2.083765564748185,1.9996284879356012,1.3229428377599355
-3.696954235053001,-3.7638492448043297,-3.802998394285845,-4.014749342405236,-3.838741340340054,-4.992243624534784
-0.7259229177286155,-0.7947497187814168,-0.8714619476164635,-0.8115219754598261,-0.7486410000270283,-0.7993402804393183
-2.051598102309008,-3.5251960190475997,-5.194032456177909,-4.711076257300513,-3.4171337229210867,-5.210174766737026
-0.6582049719037097,0.45725091590067146,-0.05362310384536595,3.330575367348555,-1.3311658944015805,-0.5570336994274248
2.9633138567148927,2.232796876850422,2.5997177514629928,2.0186900910230574,2.3489338193516685,2.6288794598072966
0.476967044766553,0.8031204205958052,-0.10383522731851609,-1.2748395197987614,3.279264679038737,2.9408349954747504
-19.238851942455973,-14.34375952822127,-16.84192420008217,-14.896201219184965,-13.933732627136882,-10.852540010623944
-3.8128888551998843,-3.9375673789135273,-4.227872020119078,-4.0787105235089465,-3.9664411627430933,-3.9671891320780404
-4.213832510308336,-4.2441165231011215,-3.6137053437646434,-3.666666806743224,-0.5261548134749091,-0.32967614334260503
0.9027163756251692,1.11369156315917,-0.35215147724484264,-2.108268764039913,-1.6660667420192405,3.3623569628680707
1.5225178081853141,0.4656693593825686,2.9201478082323344,1.0854607800768283,3.6484257646439686,1.9207159002902667
-1.8764733909196616,-2.6474725720403463,-6.544569063324665,-7.863221951497801,-6.270230508456901,-6.983273067920315
-37.87752656761206,-34.983657037246296,-41.232325992627686,-40.632475206319654,-47.60939424802469,-35.30472019901326
-7.621364290583077,-7.581485287781602,-8.097323651413475,-8.171057714861764,-7.748316622892743,-7.449585488866541
-2.7762431176277507,-0.7527768833688189,-1.730704679013162,-1.900957319407406,-1.606845110735514,-0.8002308938029271
1.092872733377943,1.0045621373878144,2.1873119780276093,1.7459175261250037,0.9482548301607637,2.675223820222868
1.9307171866549566,-0.2911636384637645,-0.6125891784245755,3.919980691315162,3.9860253858770913,0.6848890843489011
-3.8341127365258636,-4.285981410495382,-4.437398098840857,-6.73097412940194,-5.6555598589269875,-5.383515536445152
-25.520979117995633,-26.59144473279215,-32.677878045369454,-35.59444977604225,-36.33937881740243,-42.27047836476535
-4.68798265028786,-5.586727342005591,-4.6604430013140385,-5.257825839660701,-4.507661100389863,-4.713906082868992
-4.650134951793877,0.5045444704866723,-3.032603977403609,-3.1318806648643878,0.34258316518745857,-1.3739896126073818
-1.3310989553232415,0.3756369286005422,0.0599757442955646,3.741613117066979,1.7154965349656883,1.1074298099552666
-0.02799783836362487,-2.0792576449624502,1.3688628165538357,2.676623150901441,0.9784372488845997,1.9503822490524028
-0.4779536636508134,-2.2426362282612065,0.15288242682606681,-2.2278385538769756,-0.18524616795103988,-1.8126914244843135
-31.63469440530202,-14.858461525094055,-34.075470628762936,-26.2956793458918,-36.18729427808594,-37.249916761475795
-5.786821995269496,-6.300050963718328,-5.65732451756334,-6.098037294583001,-5.838325781464285,-5.61224730306006
0.0,0.0,0.0,0.0,0.0,0.0
0.0,0.0,0.0,0.0,0.0,0.0
0.0,0.0,0.0,0.0,0.0,0.0
0.0,0.0,0.0,0.0,0.0,0.0
0.0,0.0,0.0,0.0,0.0,0.0
0.0,0.0,0.0,0.0,0.0,0.0
0.0,0.0,0.0,0.0,0.0,0.0
0.0,0.0,0.0,0.0,0.0,0.0
0.0,0.0,0.0,0.0,0.0,0.0
0.0,0.0,0.0,0.0,0.0,0.0
0.0,0.0,0.0,0.0,0.0,0.0
0.0,0.0,0.0,0.0,0.0,0.0
-0.7656108430227465,-2.557497458218386,-0.19364996951615737,-0.4509231084611513,-0.18662100887567,-0.6063570389220156
-2.3974447062848006,0.2760905735395358,0.14515070293649873,-4.0979829545104725,0.08474450616490421,-0.2587378797456795
-0.752295169058862,-0.6355783037759569,-0.8203656727942996,-3.2630165613567166,-0.7693696326664229,0.034174100447746505
3.207788588707989,2.8444654360230834,3.7418743703662876,8.280876596840832,5.047541676822685,6.565762634079691
-5.388230020054082,-5.909391678458426,-4.794312638885115,-4.022100182743018,-4.676710196780171,-8.684091729735654
-0.9959715085075043,-1.1329590122074311,-1.1014398817223972,-1.3835228388248808,-1.0303202093282062,-1.3209542897670195
0.0,0.0,0.0,0.0,0.0,0.0
0.0,0.0,0.0,0.0,0.0,0.0
0.0,0.0,0.0,0.0,0.0,0.0
0.0,0.0,0.0,0.0,0.0,0.0
0.0,0.0,0.0,0.0,0.0,0.0
0.0,0.0,0.0,0.0,0.0,0.0
0.0,0.0,0.0,0.0,0.0,0.0
0.0,0.0,0.0,0.0,0.0,0.0
0.0,0.0,0.0,0.0,0.0,0.0
0.0,0.0,0.0,0.0,0.0,0.0
0.0,0.0,0.0,0.0,0.0,0.0
0.0,0.0,0.0,0.0,0.0,0.0
-2.223970621860894,-2.5912621521675625,-2.5072770059862255,-2.6279085528477935,-2.2658975646442987,-1.103564620269144
0.37865450742455087,-1.156202429765033,0.02891360614379157,-2.2518676957570736,-0.17992814040349694,0.4088334072925767
0.3245841791595816,0.9134764865369625,0.36915145547652506,-2.2218820012783294,-0.7647087523843794,0.4616443475269306
5.531410935808705,5.15109922363952,2.276110124549753,2.1042150807942774,1.1471365301071357,0.860180379013703
-5.1947832399711675,-5.815612342865998,-6.008771982539901,-6.259927337325698,-7.2900683632214704,-5.55432831887512
-1.3919714348447094,-1.3417336847900823,-1.4323838570422605,-1.4326870986642002,-1.3478240257019567,-1.356665642121059
0.0,0.0,0.0,0.0,0.0,0.0
0.0,0.0,0.0,0.0,0.0,0.0
0.0,0.0,0.0,0.0,0.0,0.0
0.0,0.0,0.0,0.0,0.0,0.0
0.0,0.0,0.0,0.0,0.0,0.0
0.0,0.0,0.0,0.0,0.0,0.0
-2.854818505598926,-0.05471745320313929,-1.0910320214726392,-0.7326073199428463,0.0845896672249771,-0.6514658171707658
0.8141734113839277,-0.12428645590737819,-1.2475232147195976,0.32409089549834635,0.5875404225708039,0.839134592291051
-0.3627898944911822,-2.2841209673134157,1.0268241076331521,-0.5803129263351234,1.0493293851514665,-0.7756425234186329
-3.6902196834568186,-2.059926608257407,-2.460506232885247,-0.3621676854011605,-3.540054626064678,-2.377290203316851
-13.097888982963301,-3.7633828536994263,-16.387409220124283,-8.716008696136804,-16.008162195447227,-14.346911239465104
-2.423754776534988,-2.670713557673161,-2.423176669168445,-2.679547878808076,-2.458036413297409,-2.3530118290629414
0.0,0.0,0.0,0.0,0.0,0.0
0.0,0.0,0.0,0.0,0.0,0.0
0.0,0.0,0.0,0.0,0.0,0.0
0.0,0.0,0.0,0.0,0.0,0.0
0.0,0.0,0.0,0.0,0.0,0.0
0.0,0.0,0.0,0.0,0.0,0.0
